{"biasesHidden":[0,0,0,0,0,0,0,0,0,0,0,0,0,0,0,0,0,0,0,0,0,0,0,0,0,0,0,0,0,0,0,0,0,0,0,0,0,0,0,0,0,0,0,0,0,0,0,0,0,0,0,0,0,0,0,0,0,0,0,0,0,0,0,0],"biasesOutput":[0,0,0,0,0,0,0,0,0],"hiddenSize":64,"inputSize":81,"outputSize":9,"weightsHiddenOutput":[[0.039443795824917485,0.03870297972054833,-0.019107270870514764,0.11309156882204101,-0.27008228714473104,0.1016162860460589,0.016612871423021987,-0.16299710626290137,0.23913056062381152,-0.1000194592481442,-0.2717663447434713,0.08325906522661146,0.3039604424920166,-0.16227796267127126,0.006126433094338233,0.07187564698696149,-0.13858704847234266,0.04866272377803853,0.10961142163887777,-0.14711236576803316,0.38318243953679243,0.08737815568410837,0.1655706995281316,-0.05735825762929092,-0.13185449810446362,0.1529311153018575,0.12366888103931015,0.04410686430521503,-0.06842096627433257,-0.16088000083155324,0.02982171697829766,-0.1491266492223223,0.17213119633217652,-0.2336437063231162,0.0322011996566181,0.0734364374483586,-0.18473452711216007,0.043142906461595694,-0.21285653318028733,0.13224697126782892,-0.18778900830973702,-0.09665126313757856,-0.03256976810935978,-0.15494103910096893,-0.11542438665879123,-0.04517363786867208,0.02093802954433059,-0.036694243556671106,0.05686143110586619,-0.08905139427748265,-0.15863186159020207,0.23171738203063683,-0.06180593803994104,-0.27990551442007827,0.14865665212142043,0.12997182441711183,-0.028219168071133078,-0.13064216358548653,0.2508027932988632,-0.06708312979197986,-0.07833321805328117,-0.16235648633579858,-0.14037161810311258,0.024048390935991815],[-0.06491395555391057,0.004805105629047107,0.037673090250897275,-0.00828059461173613,-0.014193325601755699,0.28648047558836354,-0.18343407448834423,-0.048218791578330186,-0.16792333225764042,0.10093223500063077,0.11266783768751465,-0.2815097151993483,-0.19912918436477683,0.1118162192191999,0.03351867035770424,0.10533312743285929,0.06168923496859202,0.03722720487283373,-0.17736757548808976,-0.0032957679636268686,0.21477440566353215,0.021312556631915322,0.029854935773482878,-0.1759767178999424,0.16258043151137694,0.11696110582938013,0.09671402075709118,0.08223577505291402,0.13163115339218992,-0.155901085012941,-0.12333168630270885,0.03126353806293303,0.15972846516255015,0.0015908188630232238,-0.11879010134750302,0.02341779277328021,-0.055225047973375914,-0.18955152295178027,-0.13143059457641906,0.18882677637715137,-0.180508306108888,-0.08693153042237464,-0.07989928260457584,0.1902818391680796,-0.11947070610080526,-0.19364514278310785,0.040932384137090674,-0.037304546171743225,-0.02857664211301236,-0.09945987493558808,-0.10287052686712814,-0.028889495744892902,0.039660004410549725,0.29953844033655114,0.20930482611741036,0.12207754672249642,-0.014626606249473827,0.0051554555502988965,-0.09409101783695142,0.03733027235214355,-0.33324452632077184,0.14414417858999154,-0.3927424059753891,0.14876885888983093],[0.11164939186679812,0.12879636212777662,-0.22756257220839157,-0.27725211860721255,-0.09376668560741169,0.3179798425943525,-0.06744859266118118,-0.09645610440536723,-0.06511328599110948,-0.07276317610817858,-0.0613307008624942,-0.1325454275356813,-0.1520579643859655,0.08657581738604112,0.10657844318466098,0.0010765893687865369,-0.03748119695579476,-0.050039094910654405,-0.08782037815129853,0.05863626837678666,-0.10619571749137685,0.11525818465956311,0.16322834653428292,0.07184906495402832,0.240508268842112,0.15950084095520664,-0.007615889374114132,0.06141212558640967,-0.14564188107430184,-0.05527155139355706,0.05544180437097012,0.09884356791310786,-0.2131015874847619,-0.09739222094970919,-0.30727721120882845,-0.12034755410359341,0.11731097514217387,-0.1471935751810087,0.06768917995097518,-0.10591927402365148,0.02822375518133119,-0.04152823189834852,-0.00026191345934608695,0.1038824813111932,0.12126908093200346,0.10155941109144478,-0.018729832572616036,-0.07170711689752667,0.05328746579260815,-0.019069969095630926,-0.07193929441027196,-0.17888742831570947,0.08014032080145979,-0.19671107041245636,0.2854648531200841,-0.030567802389473007,0.09331440479299155,0.04046515968889558,0.07389309420323052,0.024994459296277,0.031503946442082376,0.002048875462020197,0.07706324796995156,-0.003974567346567304],[0.030683003943938515,0.09858925571412146,-0.08209015447479902,-0.0532661510885003,0.3567785300547477,0.03635963864369973,0.2590130314395441,-0.008439551106928324,0.01864085474554098,0.06561776680982383,0.0293083994292321,-0.18374637945472846,0.0470212061671907,0.012425267279568662,0.02368927502188146,0.09043096776827923,0.09885784440518533,0.17813547964745483,0.0399370634744761,-0.054015610861043346,0.10127965187251554,-0.11376473736190205,0.1524255962219922,0.015223183408860742,-0.03870593622399506,0.1423595804402736,-0.08057312253619296,-0.10662208113897409,-0.03341952911935645,0.18985302092764073,-0.20848028792736556,-0.1386788600342734,-0.19618040499520295,-0.01543463734242579,-0.18970665368515482,0.08103552116315513,0.11861350037842212,-0.02865532165589877,0.03268938911287973,0.5174419815783012,-0.0008792955729604609,0.275737146010525,0.28080678007364196,-0.051457283794912365,-0.11358148405428663,0.07115386825389645,0.10270804069588925,-0.05487018458130309,-0.11850105499535994,-0.13987428333989765,0.07577576056295625,-0.09880754085824925,-0.12277852076420463,-0.14395905659199612,0.246213989858522,-0.017257230097753647,-0.1013393505545324,0.0711299423050447,-0.17141903608305553,-0.10114481020627304,0.013470922775864,-0.07829659471051681,0.15917592854919133,-0.3269107689146262],[0.10086797614582038,0.16083388819464334,0.26064617879931445,-0.03601707738451586,-0.14341556951507203,0.12965816112096612,0.024595993469951484,0.10460530105821333,0.046095419761416,0.0871226267935905,-0.34140799525711346,-0.004975919079393632,0.05644703311126872,-0.052795229180905845,0.3059536362427007,-0.020244736202002785,0.10102909662334904,0.15556208818501024,0.5034990415652627,0.0012939316724143951,-0.14178959809646582,-0.24947124504002133,-0.06000135727135146,-0.1512423819749583,0.055079817437935025,-0.09522077405171438,0.04216193793967684,-0.007679858228962226,0.18805508625790998,-0.25108155588180336,-0.12761053151299973,-0.28618044739967113,0.08755586857799315,-0.17578752023358513,-0.15979880158809698,-0.016580995042728384,0.021617932400677213,0.1292704108693326,-0.08026776053358513,-0.016706530812529537,-0.139648704142101,-0.02166588946354711,-0.19997376283011697,0.03933419431754948,0.07773184920121716,-0.05976690062460785,-0.023619262990042193,-0.09903025630675584,-0.3969596202215645,0.09137103605592822,0.15528161163145374,0.08212089667698635,0.18476307235975553,0.013475698204835107,-0.02173326533390308,-0.09254051951342802,-0.07948654749592945,-0.3230828163020957,0.11933570934559548,-0.055407931111939555,0.12569270147515646,-0.19170036468683413,-0.03224332809631612,-0.1544568545927561],[-0.10032042063891299,0.167015396847193,-0.12006219333012372,0.2224888349601483,0.1903171717123949,0.09974668781476986,-0.03387819615758638,-0.13181891047892924,-0.10508694531280645,-0.16485932255621757,0.023637676349186922,-0.002234781120838398,0.14568016713241386,0.05567649770636574,0.12956378127196852,-0.15758058663791816,-0.2256240545328595,0.016267917982752938,0.14771546720072248,-0.1441585121575874,-0.018409193367104757,-0.18029361474688957,0.21249843152328113,-0.05148486239582712,-0.09180258980818566,-0.1010782743385623,-0.17797750029369394,0.18201273662517298,-0.09282341082393401,0.1480632071553117,0.04735464818235738,0.03238989233134038,0.11663234192606936,-0.023109811664761754,-0.0022262389889458048,-0.11434271933869167,0.13563202532195262,-0.10945959696772245,-0.10898254914466281,0.034864351205371916,-0.04780512619374544,0.0933087226729609,-0.13164614050914206,0.16541741328599552,0.23567894138484832,0.2935148853383404,0.01907588112419341,-0.05667293345215119,-0.05655701090321138,-0.09237407281240062,-0.003461715005230818,-0.02559760812013212,-0.2701959234485331,-0.08848753941460989,-0.07250186517912471,-0.12062812205325013,0.012082591306755859,-0.07441139103604488,-0.1358851418953297,-0.18372216084862283,-0.09935573085286933,0.561390581004695,-0.009522728793441817,-0.1056244301860574],[0.0015643020698571178,0.2272886201952501,-0.12187179633869452,0.10186008426953724,0.15312492828738994,0.05487645926242919,0.33115373114510877,0.16876414409468826,0.021654717378441796,0.20010985143482363,0.08277321529293982,-0.03884307774200513,0.100949531485763,0.1776843813435268,0.11314280013889429,0.2807500988742238,-0.11377662624215823,-0.07512445938665921,0.01773600986386257,0.5651326302219287,0.023737411980492423,0.5216713643631606,-0.22274000354980208,-0.0017455555331856336,-0.12311973931031571,0.0894737193404659,0.11940079683199903,-0.04589999311812663,0.0003357298693342961,0.2119883375670718,0.03944194300249148,0.06258601716306422,0.2275415325319439,0.11418486826095622,-0.2721035172742696,0.043569441379783906,-0.13345571639454687,-0.012324938377870454,-0.10384731781714843,0.04188991221192713,0.02325431027566459,-0.0021016486205863894,-0.17775381414182803,-0.011052691223455823,0.09683276643360102,0.15143851185786852,0.037105705029193144,0.04870655599969863,-0.1896658180310241,0.33121171475016215,0.007265822809478107,-0.19528935591886282,0.03500732165309975,-0.07863861344128241,0.1304794183421988,0.1545685932492436,-0.10269983919404843,-0.1306363129257858,-0.3565293521973077,0.03399704955201206,0.28761765869238165,0.04005553615811599,-0.020136435881488838,0.06233146782501896],[-0.1488605157531268,0.11060908234834411,-0.12702576610529026,0.013494979628732614,0.07573121429586285,-0.04748440246632118,-0.020266985051965943,0.04719270333791802,0.12078770912748686,0.16451171334860729,0.36290277061363696,-0.09544103209731156,0.21258836062464662,-0.014653957214007385,0.13815706794273114,-0.15349287252335644,0.08415595560913228,-0.09193689360164743,0.07272177998132928,0.019310669682060248,0.045523113822129466,0.08837661063508237,-0.1880167954333114,0.29393694319518293,-0.11362589545123572,0.05640199028655528,0.09489317476042912,-0.19827837241301352,-0.08967116118531444,0.04919971254770514,0.18414621633214842,0.0873898558661443,0.06026433560612975,-0.027876245117247764,-0.04679268134686314,-0.040547584806829386,-0.11871699247603285,-0.13389694178226386,-0.12393072274263502,-0.01707722260493843,0.10926425045590016,-0.07652936746789235,0.015179796874776998,-0.044007896366935105,0.12537018208075051,-0.1527246424065812,-0.04354551101735089,0.1860777995095211,-0.03247192529257183,0.013636071355886719,0.1827378353949732,-0.119257669520469,0.16496336032805223,-0.14769113944720508,-0.04668304711209826,-0.011717914515958437,-0.0582205903295739,0.1334426990362315,-0.06701905612123278,0.25783016043223916,0.17767509128890624,0.32891409240798053,-0.14858731304403308,-0.19045623512709828],[-0.0029105534675466626,-0.3751457023461513,0.1234022695921455,-0.003451619901962129,0.18092537537733347,-0.12824944891053183,0.15407341803727934,-0.08518833024481644,-0.1742737269338886,0.08379220133405249,0.12755197911470664,-0.10361331223085789,-0.10583220200987299,-0.05284328597773011,0.020614342071183803,-0.10002453911152065,0.12766748103265266,0.16115673105157244,0.08698326974084507,0.027080009942703424,0.13720638597739415,0.029628683378936517,-0.07261778138287421,0.15324494122114823,0.1232666996171532,-0.049073543472781325,-0.03875061577942635,0.16546531265549333,-0.04719302035408495,-0.03899966442130302,-0.030776134797768938,0.22596891844221598,-0.09197254762972527,-0.10360057951614031,-0.03719608074183928,-0.1340880411615664,0.006313302187023195,0.18855890004458406,0.005735012068603446,0.02262632608458117,0.15389951931732118,-0.09119568087237817,0.009460452535507513,-0.3949555435724117,0.18303810382937782,-0.06981079704771398,-0.08924151343219884,0.1898626823038464,-0.12855525874046278,-0.027233669566048883,-0.13629399631894995,0.009645572678768885,-0.32018118021804376,0.2027192149365906,0.057836350631677254,0.05661335387119007,0.021717660073043148,0.07977600455068945,-0.0836128412721712,-0.19159500691248904,-0.07114818157978099,0.3440980326289149,-0.0636268154840875,0.1830126105193587]],"weightsInputHidden":[[-0.04339227901088737,-0.03262078524480339,0.10003063742392211,-0.021312545299738087,0.055409037422699085,0.029097279973187107,0.03903261776851872,0.16557697721735185,-0.10984515404356782,0.006468486578399628,-0.06868069115367802,0.03622185050776069,0.11001162626362962,0.06109711146675696,0.04083132189985935,0.06436406305820411,-0.20240500559756106,-0.14751297519907977,-0.10164188362020803,-0.11225222029506852,0.0012350772828005608,-0.01665514315981155,0.2143215953559731,0.01719293898213021,0.027575493415710292,0.1081688842438312,0.024149349255219832,0.060353963084650464,-0.10316169857674921,0.09944021919792467,-0.10230094668530978,-0.026394620304953723,0.4046066340391599,0.03521569076354877,0.4526223093605768,-0.2921227641978347,0.20261169977562102,0.08237480401062518,-0.07679108617461566,-0.03950696214827247,0.07249015775796984,-0.06907448037456783,-0.019526688102363098,0.12272572683865467,0.05772765364306538,-0.09923977400953317,0.15182500573459465,-0.02157932066509528,0.19658031485519298,-0.06385838508591077,0.011209131176370842,0.009618312166832229,0.07994717611914587,0.08359910266151739,0.08415732393883345,0.25399764897762434,-0.06745875569028299,-0.25673430076231835,0.09844075382288774,0.0666007548300447,-0.10890208559654369,-0.1127294908384755,0.12278299283880137,0.021144136979113763,-0.06440875214822815,0.08302114394165339,0.18085506935546497,-0.04164473811489306,-0.10381184223270007,0.044875615649104236,0.2509921348594011,-0.182494296992607,0.10982771619529708,0.11470125609471093,0.3873286972407523,0.0765007262073829,-0.17525692753564961,-0.08698079522779921,0.015243138886393977,-0.0014012446876361787,-0.051569899699363014],[-0.1061369291260949,-0.11683162006250979,-0.07671047074348812,0.08695864767609658,-0.053661369458059945,0.06786588508647777,-0.005399546998146367,-0.02048024534746457,-0.09673301151669259,0.028041020354929756,0.15830488355841094,0.1417221644940122,0.10049416484371299,-0.09025546238040473,0.10828012699276206,-0.0520002381488721,-0.058910089381326115,-0.004344681340212899,0.08189042103375155,0.10246530005409216,0.06356665334215737,0.057654315974849796,-0.02168061710192205,-0.03117614240791457,0.04581605494576098,0.04393571201732469,-0.07203120735644505,0.07031271147438573,-0.1156670722348106,-0.3651641296252883,0.044622655543546726,0.004525906883689649,0.0878107842623057,-0.08716141851583593,-0.01606731273387925,0.10476759484610888,-0.08997811166328182,0.12366832730898808,0.030106807404344706,-0.07204347579689431,0.09819755411769242,0.19210228704523233,0.16356725044804643,-0.05437505692536776,0.028846353735536456,-0.038871134374790055,-0.04751664722978417,-0.36682002846012945,0.22160992589291423,0.04859477262035442,0.038538761288288856,0.18328071425309284,-0.08797616542236597,-0.2088572140588534,-0.0809789932238506,-0.031207418435908216,0.046333274276552275,0.043032718357936664,0.004082350151904215,0.0631223160274402,-0.029135772793738742,0.08572355093728178,0.1731265775222259,0.10934683838193285,0.030386085738316814,0.17334390814008035,0.08543053782703813,0.03871416407534842,-0.1864884533322983,-0.16905454041294593,0.20314669221567003,-0.08345165826631618,-0.007295774211592334,-0.13626243420011777,0.019873420897071822,-0.006626919467273833,-0.02137059048668444,0.37385991381843486,0.08744544052967552,0.2860742088459339,0.08784355991231077],[-0.1041019007066827,-0.32941515148253425,-0.05944780193130585,0.11226873724721236,-0.053324928673530246,-0.11508415662019998,-0.09521146611157767,-0.1107703095478302,-0.11686848700900293,-0.085557342729521,-0.27570698985473,0.019142647669087545,0.10735895586236638,0.23636045944886216,-0.024185013401689368,-0.01913045292996255,-0.020184689412561897,0.1175521247271648,0.041853298999444385,0.07810078808956318,0.036176831750552634,0.05651234904614555,0.15058255301340356,-0.12695274522142266,-0.09288481086764716,-0.2582478433282971,0.0722515828565307,-0.1999870146165514,-0.02454072358791873,0.011997288454416999,0.017377799840460298,0.02793263592069371,0.2777554497380801,-0.0904396497523139,-0.11575876406237233,0.08749077815945938,-0.08879203262420814,-0.010349273342175959,-0.15920700828300066,0.3583285588321611,0.045398651990083985,0.014966664655556605,0.0803023002098631,0.025484879301414864,-0.022751393658987783,0.12198902542836494,-0.10068163683706075,0.04101858462846564,0.10266782117237976,-0.10936053030428453,0.006263588619162981,0.31486713780186426,0.0011001383917988957,-0.034890926196082125,-0.24968109460051346,-0.21080593661261807,0.2155868100698762,0.06747233845145091,-0.12416714618412693,-0.0845575067185145,0.10824369907842336,0.07487375587329698,0.21699606760999587,0.04295837116705829,-0.2249976398163337,-0.05812017416246656,-0.12269388764903102,-0.21488057437525324,-0.049276882829430275,0.24776639724246638,0.10300778566460768,-0.2511592115459733,0.06361381777833183,-0.058169949417309796,0.05238472477323171,0.05811788371380874,-0.035795368511082566,0.05166918622526325,0.02633674678114095,0.10358519688429388,0.01441161778846136],[0.1400940829592671,0.14923768516499517,-0.08372873934113959,0.0031312349348572677,0.10377068512203923,0.33480049867819556,-0.0012506088963190308,-0.1568821931550685,-0.01605049904269592,-0.039426967182497503,-0.24666558197525285,-0.16209478114819204,-0.10102788315101145,-0.041707965822507215,-0.12201500760866744,-0.08498407161845016,0.10089492657380902,0.057859325625799554,0.1675436145442472,0.03920571840397076,0.2930189430327256,-0.0011169584616663596,0.2439814239420653,-0.21501113879005815,0.10517301906514868,0.10734676055871344,0.13940819876810712,0.10861784758870457,0.056409870036351555,0.06550849039934031,-0.03336637548139061,-0.02505802265772617,-0.18236292352379901,0.0039032655874459885,-0.08739007960964046,0.0746653695480747,-0.10458317563422077,0.02183549069892896,-0.06980932682080028,0.025035427514590997,0.059416496122501286,0.008351410721679706,-0.059631096153105675,-0.21310757735230032,0.07725888729171934,-0.054008274051814194,0.07019999115541965,0.025744187418122146,-0.05783631753788634,0.10569577086889809,0.08104702808601247,0.13925826104306793,-0.2586683335759641,-0.004138055607466045,0.0002705978980607826,0.269373782726649,-0.11455596058610755,-0.04326763716766488,0.24138997925708294,0.23400279153311745,-0.06633734682341526,-0.046852087799647696,-0.04790311277986486,0.030737556575618517,0.09782889041693003,0.017896442994311583,0.1296478845542749,-0.037200215155702904,-0.07212222758944933,-0.08640755499300545,-0.10130461294876075,0.035226009292934596,-0.11254005199162637,-0.3340793717929491,0.11049301460006754,-0.20432319146770558,-0.031833094065116856,-0.006719395091572372,0.01878569645545135,0.2912980996607479,-0.34923545855218],[0.10537341072428205,-0.1372024615676297,-0.07588513130918398,-0.2713039767353125,-0.19865902733139246,-0.09687446759694396,0.14277605361116164,0.05084859926138144,-0.35510502266966937,0.03836349281325049,-0.10641809702209445,0.0061795215762531636,-0.1099309784918543,0.04043617567729903,0.089857736183536,-0.06862700838266486,-0.005751270019438261,0.03191156546517151,0.015802922621765383,-0.054601686499349954,0.07972646416805455,0.0008072178811458268,-0.10363067580245353,-0.17874106202370685,-0.09958372130863227,0.1847294092486447,-0.3671709945791448,-0.07199356613943804,-0.013591172799253298,0.035259659986816315,0.07833826107530982,-0.047810099062979956,0.09778128036879907,-0.16053578847771263,0.05484285448806153,0.15657736685976376,0.03270423611565439,0.052435661590637395,0.07127151447699216,-0.07583149556171254,0.04815082325363133,0.144055174120185,-0.08479008423049023,0.12832051505085007,0.010713761730310464,0.018059362590349667,0.029906956514159002,0.08202823905984155,-0.07828154931744566,0.06888785320253435,0.4213285740766482,-0.07269069114823186,0.10539857589307537,-0.02748631960370736,0.028817500241383794,-0.019528482311682954,-0.04179865306247932,0.04547047401305754,-0.09296212955789354,0.022493409252404905,0.10807271209490873,0.1007343599411896,0.05094654865635214,0.10922113471116275,-0.10483320613166024,0.03180466449233596,0.011999009248143127,-0.006348073581969866,-0.009543624543225559,0.06506539027367049,0.10388207879329012,0.1282974983490589,0.30555287788660257,-0.02086920093566096,0.1600057979204856,-0.02428213398705098,0.0034705043942715266,-0.16407080894293496,0.025234387126731223,0.15867649933095657,-0.013856921077885753],[-0.04523407577385801,0.009577990732374319,-0.16293955316772146,-0.014758375627959919,0.03472585465216633,0.13596470445566913,-0.0830210636696906,-0.14081376893192873,-0.021304576002110318,0.016929257154603777,-0.26052359654017704,-0.020008630347986653,0.03061525499353659,-0.10349216012748368,0.2022858056837721,0.26839720892794267,-0.08759558850473534,-0.0069636957606763,0.0011745462664667897,-0.0027633440930878916,0.09725715532004273,0.2350676832030222,-0.05137236589380635,-0.03254118419847816,0.1051666849158236,0.07283725415540691,0.034927028784565585,-0.09942492563690448,-0.03122924374977156,-0.15251175001219777,-0.039699273343147906,-0.07041268016762649,0.12748685959246403,-0.027037847057201476,-0.08335502579183544,0.006491264356957397,0.05157252338690914,0.3085501556307135,0.23891509469061886,0.11606684177346424,-0.035599538939180046,-0.15334363763002484,-0.28057430773491465,-0.07588553736798478,0.3625192572000901,-0.057216881785649126,-0.03134363849609145,-0.02383522209664076,-0.0040373230621340425,-0.08065864395325444,0.11410225908686476,0.027421267284766668,-0.002611155149726319,0.09329099455633941,0.26058294583863095,0.4111898490036703,0.008153766816942397,0.07020452012947379,-0.03079395794585375,-0.3287275574897619,-0.12709414115581708,-0.0104548422150192,0.16901459143133243,-0.07087282148497293,-0.0035898001176857966,0.0014782363907677356,-0.14377735627221588,-0.10773804474211135,-0.08130432314153933,-0.11492915105820464,-0.0945204139061482,0.11324030963404405,-0.1700540153256106,0.011515526164643228,-0.08488470730003782,0.017402386948100992,-0.26526987337637503,0.0937296009456667,0.07163675516019016,0.22886397343352993,-0.11649292269862707],[0.18750546765239604,-0.02492997312221724,0.05282770952398781,0.21040481194755528,0.12442915568294717,-0.17535638415351776,-0.18419797922730688,0.11600251117164462,0.1161963351022456,-0.003276074882008479,0.003516089754539482,0.004878641133711775,-0.06776516357790058,0.01644878959482069,-0.10034642743502892,-0.027885049369250393,0.0016873783007611669,0.15425385176316087,0.021615604185679742,-0.38185521975943626,-0.0914851206903373,-0.12217186961179015,-0.3959714176776124,-0.028816547439334296,-0.18483601951946446,-0.0009617795950852394,-0.15880000661735735,0.03142738843469443,0.2980824981545026,0.05146445518230829,-0.11415733475921656,0.06291603830867595,-0.038470380272988235,0.024134621858958594,0.16727031900272782,0.06438403232711316,-0.0036841178665383183,-0.051243600456764085,-0.10464532817474942,0.12427783235384833,0.0406761751826804,0.0403305359681749,-0.052354939248744715,0.08724729544928195,-0.08962393045075799,-0.03152671609111988,-0.009187638435910174,-0.008207210864567396,0.06525096834274993,-0.03097791088986857,-0.17545212538274127,0.004725561021309235,-0.025131302948272788,-0.2993500058504088,0.09395227286157809,-0.060105526815412695,0.2669768734617433,0.06062074162436394,-0.1842410149333477,-0.0808850569270079,0.23964000257941662,-0.029511730408615537,-0.011232197548157984,0.11144205960629613,0.04116867178208048,-0.02404290268931592,0.045156923142031825,0.23315119142737675,0.09703302226737365,-0.05047905914532664,0.18273386765486116,-0.10607661156586136,0.0014944936938482958,0.0976267200646284,-0.3456661926588105,0.345997001110823,-0.00850948390752551,0.028048424317014146,-0.048461626337783635,-0.10038163357152108,-0.07582459912624316],[-0.016766862770637898,-0.17169702531017653,-0.035932116663293365,-0.06317870038004218,0.24540589868788706,0.08594035717416035,-0.4164876381710549,0.0005376295802151922,0.053632164338092335,0.31095331243122887,-0.10353389882329454,-0.01463719867814177,-0.29928419499089187,0.011753311364689545,-0.04502051902277278,-0.015278175459268333,-0.045040967851525955,0.0711910916869105,0.06729767232841086,-0.18866410424961422,0.00917337074765298,-0.02539305012427796,0.13515797624539178,-0.09421048714696371,-0.005503981610896287,-0.02275480026561705,-0.03816078607024204,0.0877187381211533,0.051649939000024986,0.11382558382408066,0.03256037772450353,-0.03705413344802094,0.1907094658462841,0.024516214656796768,-0.052189649541187065,-0.17056288461048952,-0.07620571360406428,0.12293714149353265,-0.12314566828146367,0.0890142671918169,0.04444532356547423,-0.0635834458761782,0.033217967501332844,-0.09287640172379029,-0.015471896334473998,0.2582850045012642,-0.025785088410606265,0.16281774281280867,0.08490240443556082,-0.1056498273497607,0.009298163951669713,0.010035480014273677,0.048663800471416996,0.013408700185114943,-0.1412912533944338,0.04628567859982139,0.05233036921005204,-0.19206789227018708,0.07324776907213246,-0.06922591735873354,-0.02111067014887091,-0.3271345531673756,-0.013580242673617298,0.006432240547984086,-0.015018880596184508,0.01840114253084432,0.07479476943771243,0.0482787476750833,0.07166635478206917,-0.05129757640181339,0.13744384009832042,-0.2140486629980695,0.11463077806810115,-0.0501252315014492,-0.00267172616975268,0.0569853495052152,0.16074428790874304,0.136998203809914,0.0906394214834866,-0.0810854381820201,-0.052015457432330686],[-0.05890908344181693,0.1710594658410083,0.12895827175788235,0.08555545128885145,0.05333919880016665,-0.035255308017160494,-0.07633482187979593,-0.16959412872742877,0.08433349410688405,-0.03391646923786379,-0.10834300776355495,0.061749435754349956,0.1017022499697931,0.06651925879147587,0.09916263917832953,0.1262256280624562,0.021894865623965174,0.12675486950484743,-0.00039818908413402187,0.21460289170377642,0.13889372298436245,0.08127346390516924,0.02106472457284566,-0.017394228945086597,0.01623232224799999,-0.08264394485118294,0.03485045529025915,-0.01729552764135251,-0.07659396773631523,0.273779799523596,-0.10449006132002603,-0.15071839813883553,-0.33553383055496955,0.0831113226949683,0.24348376120694168,-0.03395245235800287,0.08461766442277772,0.08151034295344896,-0.09500381045345092,0.10170066191828689,0.1087515767726124,-0.4557831819751322,0.02214195992327065,-0.11698308307201213,0.041396164164104424,0.06456763092390325,0.1512937440007649,-0.17800610611339177,-0.06054750701297381,-0.11129578929662945,0.15553452644664992,0.0018252850377059912,0.0007125976990607795,0.07229736733562069,0.14991605760598772,0.22382401432668655,0.07503510199550045,-0.03954312237274834,-0.09686940981818279,-0.19937507969441096,-0.0797780746315952,0.11872969854650434,0.07150175116407297,-0.14448728471889707,-0.11534961944789317,0.12458357963818599,-0.20952673532983565,0.23865919402296162,0.02171334024913113,0.0974090424693373,0.1286075937679645,0.016591629557357483,0.027752319847077014,-0.18877916405627945,-0.09155626176481226,-0.028506975573549677,0.04624435837489774,-0.0417431806391254,0.0049109473538384305,0.1016647834908379,-0.031555708941296744],[-0.33489807138763195,0.016144318855770105,-0.09030860615919772,0.03759656960972993,0.008357850581256704,-0.37279071750053155,-0.019159555102888234,0.13754303385452946,-0.006675451759576056,0.08278427362494654,0.002798364343293332,0.05574671783089542,0.07024935788448425,-0.16733800106836438,0.2546934444569327,-0.1938781437967634,-0.11075270866959915,0.0597997973337922,-0.40516792023821896,-0.09510394995740463,0.0830034170874299,0.1527288054123776,-0.09835163300042181,0.19905588930027374,0.13291750135709376,-0.06932958701693233,-0.04016539271911611,-0.01788484418456907,-0.15419115779041093,-0.21157345749543885,0.1456345910073079,-0.02875119493767411,-0.01406778610370122,0.16297717810702048,-0.015759095965980418,-0.04794435402080088,0.07628284349289642,0.008629498349373502,-0.01751304675989631,0.19802619820486106,0.10863945775821593,-0.0071091700168761296,-0.04180286056593913,0.280859152813092,-0.3009682656187588,0.08138777590936634,0.029697404269531158,-0.08380790924927968,0.23882524054484133,-0.15760379404061176,-0.029705892473180093,0.1786914603008012,-0.04409816878633941,-0.04304601024895343,-0.11245340158471907,-0.03370632054639773,-0.23035659379932663,-0.09199454534822861,-0.0742471279083797,-0.09157094847182226,0.028080225892867593,0.031209584921118954,-0.06744307385179206,-0.03673502566894846,0.1268958384505612,-0.31660893233750775,-0.03472335671332242,-0.049014318651224145,-0.02142945002847602,0.047097675540755626,-0.02105528970735979,0.028765477419052915,-0.13021031278008557,0.03770594526415027,0.11094755470629297,0.08835860996706084,0.04810429373132979,-0.09208134127837628,0.059387906968646265,0.01675636553016269,-0.14697798553535324],[0.23805156083572288,0.05801748752918031,0.01715478462938534,-0.005365824411385714,0.05944258040853955,-0.08907230576228697,-0.03680918717083356,0.08857227208678754,0.2530254711468417,0.24149998068846554,0.05642529386502954,0.04664362552872114,-0.04105753611956035,-0.1000185247768633,-0.026835868976445534,-0.10203978228179998,-0.26625699843128076,-0.09019665373636593,0.140015257014927,-0.02368033152160666,-0.3342395125315178,0.03421585260818101,-0.05817510952115598,-0.013981755025303532,-0.07833795279829715,0.08242388576984717,-0.00953228519220154,0.20261379324575737,0.002378890970782044,-0.07426272436128245,-0.11294034246439905,-0.02637469238683493,0.05783558546297597,0.14411120452314882,-0.003327073039553407,0.12169033304132912,0.08149700619174748,-0.11360485058543134,0.18242548888673615,-0.17373814292715845,-0.044409510274735074,-0.1838065167978908,-0.04065810295015794,-0.05578221469352349,0.2304354922447111,-0.04404318847825205,-0.2001079380005067,-0.10327567268735904,-0.14035006298736913,-0.04913828554444125,-0.1413526910808504,-0.0890860113526571,-0.2181134012886878,0.1616880008254847,-0.01867196347317872,0.3919728488931926,-0.2638410906332232,0.1066240447727354,0.37211156026926906,0.13544226618164487,0.09899387526387916,-0.06615387782440983,-0.011829044430547095,0.022669134348292572,0.01683105505019891,-0.015314494100119152,-0.03911856815411158,0.03937308361596629,-0.1510964839599666,0.03813931676528627,-0.10326143043482722,0.13665778228634742,0.22037131579325914,-0.0513710285663297,0.07986427009607043,0.07017888607667777,-0.034023755951668865,0.06306280111457735,0.13054005481029282,0.1304810944786546,-0.014817369151779678],[0.1980636260425989,0.09788168994386011,-0.3535804943465839,0.29006350899088806,-0.11619859644238975,0.18673817511831117,-0.11255670808645647,0.08096258901952799,0.18577494248875148,0.15029177736253652,0.022111417122459044,0.09712284804111945,-0.3112200747196029,0.04092202038319829,0.0191541113146923,-0.03248631029348065,0.02487985060829408,0.04704862215109098,-0.21722940807063915,-0.13084122193701495,-0.10112037758049032,-0.09710041725869813,0.0023754330532946414,0.05764380708058946,0.08902742067046163,0.18641455704405896,0.07502569328546357,0.14392161911657558,-0.0650157855747255,-0.08180176507680001,-0.10315447340948573,0.18570134036228841,-0.09148461784190617,0.2474464182165695,-0.016369025700994168,0.12023636136992759,0.015361975501842371,0.05175076711923966,0.07895266813899426,-0.25506398293568283,0.14896804411406028,0.17581000064182775,-0.15736730656246947,-0.0017045198295401768,0.02255634474662436,0.027127580410069692,-0.10571784866812482,0.14769760321906408,0.10380649001814024,0.06133814154533778,0.2736320050035208,0.10376968207947718,-0.01597432168070786,-0.17029825782334168,0.1338064975113573,-0.04393934585872416,-0.29028309697844873,0.033809001943929794,0.11099107234433778,-0.11359404770242901,-0.09219953198215587,-0.04363939285221004,-0.04287506788356389,0.1311699271616878,0.08235845596355902,0.06524829874539233,0.054560229834787866,-0.08797874275610244,0.017920827466611756,-0.09452006686040366,-0.014072367760089332,-0.05195155576220401,0.2793767714052101,-0.10655660036733906,-0.06874281925446221,0.11466730298426638,0.17600818985946395,0.024365546212903263,0.04703003759764596,0.0464833280102044,-0.11824393245293872],[0.028944437942309536,-0.04710980745570594,0.07734979924970782,-0.06834316959528587,-0.15654652586979131,-0.04648102538522668,0.24782487463795055,0.18304701196846176,0.06244230629308933,-0.036629112158571904,0.02087898746921187,-0.21048471383673864,-0.04305755450920074,0.0035394019368787024,-0.10595714762881128,-0.10763462202777808,-0.21417511493362154,-0.004047567575103712,-0.02981723310935542,0.03755639682560532,0.045435398589543936,-0.1089717910161833,-0.3839944608930648,-0.06276031680673547,-0.14404244402844013,-0.09588517228160016,-0.000006953903338144271,0.2551038654348152,0.022028884169890024,-0.0585107788684634,-0.05975353663252313,0.011228268601135866,-0.11722443545524863,-0.048547969282884615,-0.029582588069891485,0.16642207416767785,0.2528949810076995,-0.024085052789672035,-0.08289372184643991,-0.1337925235335913,0.04713560248706644,0.013875607361300233,0.12506175505089487,-0.07456875827582823,-0.07933658028291297,0.034883739109544766,0.08456332938504597,0.002536766965520471,0.16348648269835883,-0.07732836237355609,-0.015973286447314276,-0.056533988201616966,-0.1206623792183382,0.053390697704882056,-0.01665327709731543,-0.16132050159036024,-0.05358295603203968,0.017381394765454906,-0.1997221663734099,-0.0018563312214444827,-0.018696956142322415,-0.07238753630879294,-0.2458006722516013,-0.048473022892441105,-0.10086387689868379,-0.12059103407322716,-0.013389336761835546,0.05243581739936542,-0.07501546943926647,0.000044481211546410194,-0.05856847828718172,0.14989763580090285,-0.11581885742796948,-0.30865784653550066,-0.05050647733148394,-0.038869799576413934,0.05275007963451687,0.01774513781035975,0.08904613440921771,0.0003105423391529211,-0.43089539423143275],[0.04969172154984399,-0.04335196253807016,0.18015479866717932,-0.012645498305199837,0.09838317227173331,-0.1158023148392194,0.3023111723631061,-0.1287991944994658,-0.007404106312397872,0.030829304573766553,0.08982613652277761,-0.35410164834586294,0.06636539768852023,0.0785285053313483,-0.033691691508974206,-0.08686021447254669,-0.021623578807598857,-0.4813860290721019,0.16413899230104678,0.1564165232241124,0.12678485446412915,0.014469618983547563,0.5281782364017558,0.10040804898354518,-0.032855653436764734,0.3409265629687998,0.071434170205805,-0.07292146242157262,0.10139413219244475,0.024612116979090125,0.03817146035207524,0.041049052925711836,0.046028023928192156,0.1248295264441804,-0.08481879567606641,-0.09108762615251062,-0.05154752921507328,-0.22623237387443648,-0.19685195681389356,0.16677927885748303,-0.07450171356231092,-0.12442686603647775,-0.06423954366177158,0.02230836357917696,-0.11213659757140071,-0.05841240615477229,-0.20005467915411956,-0.09788631918379835,-0.04230011687110998,0.08452892776829862,0.0789446772527479,-0.01960942393657238,0.03724297540261419,0.18842447365896095,0.03353311989040788,-0.018071164583877513,0.16709879397001767,0.23121628138538958,0.22658212959350454,0.07537542760778564,0.031154623667255976,-0.020929106906893844,0.05067299487816824,0.16181695931213613,-0.1411920462010122,-0.1093502858872584,0.020285684399077856,0.14926998206527572,0.19171617090791607,-0.06866218813785435,-0.04840887678401572,-0.18594483883826368,-0.09032077265060245,-0.004032647303230504,-0.10435766167598977,-0.3776164935704582,0.03822406280021193,0.005296592462385681,0.046259953174320655,0.08039753159478075,0.06452239141467567],[-0.033113107344831215,-0.0017035384782027568,-0.18116222120554273,-0.07650880696522358,0.08957874555644377,-0.14135677650550696,-0.012564334107721984,-0.08401768303012991,0.09255994815926048,0.04292374868665111,-0.018448731905666198,-0.03261806449411758,-0.14113264656875446,0.19128090347012963,0.05047275050096199,-0.09926916241623752,0.08601034871744426,0.10749757254476856,-0.07873664433420152,-0.3123661072463526,0.021455018173303978,-0.01731890682924862,-0.18044327112235062,-0.10077178529090826,0.038490125393448836,0.06705645282053146,0.15881916753456196,-0.13369612036624617,0.24421716371264718,-0.07263422856630943,0.021820608360189963,0.07813168588329511,-0.11860923309008833,-0.07343873578014201,-0.038123184334472086,-0.03378450553151669,0.031299691136930784,0.025502060862418248,-0.1935845562828427,-0.026930266723252584,-0.11323572426426261,-0.11366719606229585,0.050115155913381906,0.023220870143460783,-0.01045885676889227,0.02428228621367633,-0.06705344435604857,-0.21795578170676957,0.19535469293660235,-0.18322307597242876,0.038300239311526554,0.012975196579913511,0.2253620612461347,-0.03675742860529454,0.2517447479713554,0.11646883186798898,0.06711469953684142,-0.031919559997592196,0.24158454829688888,-0.11452551127382436,0.018749443862941466,-0.2510532871337365,-0.08159890094944577,-0.030328144950457443,-0.003262281370215115,0.017993600815707354,0.08520382147096292,-0.4421338497238884,0.04951112613147844,-0.08257138736499925,-0.10801615655211964,-0.03432663536156924,0.2658716536328849,0.07265944128409194,-0.04199612433578798,0.30681424638928756,-0.007347220305304302,0.10484990566865696,-0.054602042060739646,0.07854759024067946,-0.018034906127430153],[0.06837981754642916,0.02812705556884487,0.02015231358155596,0.03553093630626378,-0.1280799439976188,0.2531237173353409,-0.06177802825086736,0.026919897583237755,-0.05439648060931692,-0.1036566148868459,0.06637252976415334,0.021671072045131468,0.0029233563369668153,-0.10400042941802763,-0.13841320745956526,-0.016725881031777908,-0.18215688347651315,0.06153517572208698,-0.0027735900301889163,-0.02078236891247817,-0.014743750227263878,-0.01792959668815282,-0.2859858011257062,0.015280600946446477,-0.06195055469390537,0.07212943587917701,0.3416507931294124,0.037549317473695755,-0.176151383894958,-0.18337164712412296,-0.20840072376298016,-0.09745416681945586,0.15515979201993635,0.028253922633982145,-0.15593009630243507,0.1020135583546152,0.09779204645855574,-0.017550379846424886,-0.10200009203350338,0.09601196747037354,0.055825201869871596,0.23906175097629911,-0.13347762948079506,-0.1509083977781416,-0.16450342262484247,0.08729953496494988,-0.2723049827202054,-0.23420221076454684,0.1650577735422244,-0.22847751822951745,0.038817625236913254,0.0058957020564508215,0.014428473484566896,0.17187675567226932,-0.2672894477721722,-0.07429509040686534,-0.1149977181307622,-0.11256540928887657,0.3751820088736995,-0.02490724358941947,-0.00410380942778252,0.015120223180925547,0.051219612156018494,-0.16563502490884716,-0.24298486899487043,-0.1831085507540549,0.158726623471247,-0.14082625803390608,0.02711050483138454,0.11055470347610001,-0.25867091877156934,-0.1317103867186647,0.03063146650930977,-0.05958725404935685,0.25900989410046227,-0.012917623494496912,-0.11016260233293731,-0.016253431596976075,0.10194547083929853,0.09340712372794187,0.014037640514061134],[-0.00002296228862914115,0.021225625627397646,-0.14275556394962954,0.036044938772309874,0.00014803511666431688,0.15859057305406632,-0.04604408603663147,-0.1722093587580394,-0.2379267273216891,0.018801065161271585,0.14711513150287492,0.01750924921207529,-0.03572726997683029,-0.16972748667394533,0.10149868738337456,-0.10434822511984755,0.260839467683462,-0.11290890347534664,0.008846474586173275,-0.11320001399995572,0.07684904906320532,-0.0228856600887864,0.0910646653628332,-0.039110851387828625,-0.08618606073731475,0.1663427668312118,-0.1794155599850383,-0.07389092269555317,-0.012973071339896636,-0.07050684509800091,0.09486543099543115,0.29685688603416904,-0.005553642519849688,-0.038095559343705315,-0.12843620580009601,0.07958779819757103,-0.1646581913431631,-0.017304133412505845,0.03436039813581398,-0.0000072585086222608965,0.17914194439849535,-0.012867150966716697,0.07039352519581919,-0.10874689258263462,0.018560292410218393,-0.10680144750712378,-0.004647980201438628,0.07432047717940311,0.10938709739301392,0.040305477095020345,-0.07793216731430899,-0.11543289657427261,-0.2059513605825811,0.26329558715391727,-0.2544046801949667,-0.1427860385405307,-0.1678643597625201,0.06542911953674359,-0.05353238959094183,-0.05704697885574992,0.1206795997935097,-0.21620780603857737,0.04942331247694674,-0.01038230134221007,-0.08819946891622245,-0.10154208846633221,0.10853126140922163,0.026219287399756718,0.19592776263492842,0.004712545175089778,0.07292557092691325,0.09892685095679528,-0.15893078003622452,-0.4436636331276964,-0.046826562080812435,0.02062271048356728,-0.18875330879259564,-0.0060731918509221855,0.010903758601054662,-0.07487188033959519,0.0807246777157518],[-0.11244955473844971,-0.047810806876959704,-0.054087675594622756,-0.055817497010012776,0.11586693290687847,-0.007071242605773995,-0.1401830468470301,-0.009448836427773765,0.08039540913503997,0.07906375946155181,0.08133553674300266,0.0037728752267528172,-0.15820838778595517,0.11982005541093527,-0.11535215285901024,-0.10138396357410487,0.11459420205708801,-0.1140591707432535,0.22148841539701256,-0.2010431342307271,-0.08525033882705561,-0.2813398721949305,0.013356577639111572,-0.13405875656624636,0.03154945023835838,0.11881914705983665,0.07270558487755917,-0.1715323074302168,-0.014594270844754084,-0.08398305911426841,0.020572319749197515,-0.12001302892054592,0.010656666232126027,-0.07893347624102805,0.058588319565831944,-0.05149060118832961,-0.03703972949438485,-0.008510699878230157,-0.1948391938549575,-0.082441031287212,0.007699572879663032,0.028734159082206865,0.25442108536742974,0.03058498880448403,-0.11343604096239687,-0.08364469073896819,-0.06632599235772635,0.37000741321429637,0.057402188256325884,-0.033675343151356486,-0.2197848743718242,-0.024083792594113692,-0.08386133580941268,0.10142700531584838,-0.04582781685111693,-0.20691619747527173,0.014643024475530612,-0.2049976789451461,-0.0002817268078689166,0.008454508084962347,0.045090493079612055,-0.026726481098357638,0.065970693336751,-0.006288720481684677,-0.024851091338901395,-0.21937283585622316,0.05287728194820501,0.02735597700509061,-0.13044799649235067,-0.06697259911065265,0.05849336154489038,0.17693080019206317,-0.24520539692030294,-0.014395101100584886,-0.10981196011635952,0.06496831732446369,-0.10962341630657847,-0.012457312613271565,0.020891086960841826,0.0545343415678284,-0.026129962204584457],[-0.18378450879829092,0.009652443111281654,0.019010927741190564,-0.026447112902304337,-0.3267238685989896,-0.036282312933559095,-0.03770215178491035,-0.1084258342547091,0.1284251537418856,-0.04628546916675968,0.036644433290416945,-0.022422311421157727,0.22869399958207662,-0.003138079370707238,0.1381314861483015,0.4569144244879429,-0.010113401104087857,-0.0981344210810498,0.005990940009114495,-0.021241641935790673,0.024408425232565836,0.12035875187078643,0.1264240961172354,-0.013737500516473562,-0.10295204870718765,-0.019569445378032423,-0.019678028985416613,-0.35535694393103234,-0.03357245886803168,0.10577793787933926,-0.06250695976016409,0.4988461366452452,-0.03917883574354665,0.006342409755283772,0.036133774363924176,-0.12801192830422345,-0.048730237829425975,0.028510589987573866,-0.12702575385618212,-0.09741616768368959,0.09285113520678566,-0.033005362096880896,0.011972772683302713,-0.06365170943307545,0.2785051417220187,-0.22200867678184746,-0.14108696265633433,-0.11592158709829564,-0.11562803720220692,0.11379920208036137,0.11395839673264002,-0.10465923894260852,0.018273817485958643,-0.020257307957845857,0.03587646313677501,-0.14982631246227232,-0.20238204817624592,-0.2572528853794791,-0.18587204191577825,-0.11197377765527988,0.2551695790635715,-0.032745312588017925,0.178396445428945,0.33322854250987755,-0.05175886206140647,0.026680708783249612,0.18119364338795435,0.0681838814867495,-0.06880027805911054,-0.21769363796775726,-0.08837267508244691,0.0011031860622086479,-0.06719272897668065,-0.20262618158924614,-0.11261455851835953,-0.07181235836727373,0.06897597191595219,-0.10864504525021909,-0.03419546959378649,0.10740672420254761,-0.10858501843958474],[0.10153417286633622,0.19743477630037176,0.07604755288977601,-0.10686912360598587,-0.058732921571671766,0.008964993055143925,0.1197017740660408,-0.11567199569765743,-0.07719329674673966,-0.12442501623835177,-0.05531378445311729,-0.04748843853831841,-0.12777490837147365,-0.1335403085576201,-0.08669381087169054,0.014091299569795171,0.07298111295573327,-0.24995301735843098,0.0013731992927101867,-0.0053883175736157835,-0.08690381308085467,0.0785371741990264,0.06437625743747319,0.04187315990042763,-0.020951224245948356,0.2230149160354937,0.12019624013434883,-0.09010022372487377,-0.012949024382610792,-0.11645894851136734,-0.22476962021366723,0.08745875242532061,-0.09602029338518797,-0.0333102602039252,0.3087368897092917,-0.36345791885625117,-0.03584791761274517,-0.035350803958555395,-0.06929176438312638,0.03026892257272432,-0.08492114126933002,-0.05496858220319093,0.1751830362957932,-0.0444668452964509,0.06782057743237663,0.08689398139452541,0.07835738418243254,0.0743166332152654,-0.06643056892267736,0.032476903707122744,0.06031869945288556,-0.02293051619364755,-0.07579327677967257,0.22608663649446026,0.0851813883353721,0.09830985633376225,0.16674556979254987,-0.10358881426377937,-0.09005954991981302,0.1678378679888746,0.16050797561240754,0.0328033464326122,-0.08510912595217648,0.232144249946815,0.09467336295929851,0.13177574821584967,0.08304679884290664,-0.15774025680656587,0.05032082231166499,-0.09704563524608174,0.0005357071296546537,0.2319328983718336,0.04960039164779284,0.06764158839038716,0.03692458614386153,-0.08393869162505967,-0.030008401562663937,0.05871512015590078,0.14322175660449032,-0.0584412733195725,0.04595427281673455],[0.12114765082575228,0.04203783551245108,0.11572264438179553,0.12815976828591422,-0.21675926528879275,0.05292113960268313,-0.1884655496678757,-0.11925861732574294,-0.13629076481135344,0.09669502099156162,-0.030185560887634043,0.043389009882283676,-0.20497504336791342,-0.06931163992267093,-0.016213902094113462,0.1291118581557548,-0.042916155167386845,-0.01591552649513137,-0.045521830294741494,-0.14977269557189687,0.0010535276286354324,-0.061390585468527485,0.0010806748216604751,-0.10762972457261726,-0.2028695202568421,0.0762050271849116,-0.023843860362455015,-0.08601181308201625,0.11776422063690122,0.024195091579952564,-0.020377246223209317,0.17369753190357523,0.055695105368795385,0.06843388619311351,0.0014531057145947708,-0.06320009538785461,-0.0284193339169806,0.17192717930455947,-0.25582124858376404,0.046813807191033154,-0.1050160263126495,0.10467509821777723,0.13760914429070245,-0.10224366031697801,0.03859227093979546,0.09092621442885329,-0.0030490154521001234,-0.024652344775799764,-0.0362203373624288,-0.13622749696705708,0.09057182612407581,-0.15730985520770557,0.11392383772812864,-0.19623734892321826,-0.043255067060103486,0.02561382165043428,-0.1573649913319832,0.0875647323509806,0.11501057951800965,0.005503368130699316,0.007420579192283979,0.18195893341725927,-0.05674850881616335,0.14526665465177988,-0.0972226469619076,0.14912181989664108,-0.014985523423681714,0.00826725071683348,0.36102203276297984,0.025779434290694486,-0.13776778418461832,0.2313068964475518,-0.1243300814826118,0.09955382742215682,-0.017192494933991165,0.01533877870154173,-0.03653819025616531,-0.222982737744152,0.19431732834458676,0.09244948014051779,-0.23098202807915963],[0.2825233140624698,0.10329520949673038,-0.07344703982842356,-0.03937130138133672,0.05676265023257935,-0.06064248570543605,-0.03554653971773832,0.13514482705520853,-0.0930026749522776,0.008348050631809233,0.10702456481393846,0.12216453874756455,-0.007929367665123989,-0.19509221624231063,-0.014235046642282015,-0.05101247007899131,0.05394342441716962,-0.29795512688501746,0.09205627046922553,0.09406216352121949,-0.23895514694254885,-0.3868008432831345,0.025753823023018617,0.09583496379702983,-0.09283173745407945,-0.2740535614927663,-0.21643873126457194,0.016653546503285595,-0.0019998409085991696,-0.03381706700211067,0.029663371412243737,0.06505677148156766,0.2744208649636907,0.1826518583979606,-0.0745874530268586,-0.10103575036087024,-0.09881813780430816,0.18098860483234372,-0.054562779167775466,0.07875122559999086,-0.03183539946157155,-0.2112691219991708,-0.18427386514112065,-0.12318551581151121,-0.13887898524372053,-0.04845521831971942,-0.05118546815210137,0.0692733824281211,-0.04320907519464716,-0.061605833396954884,0.02443537443449097,0.1583394353023278,0.11369074827537283,0.05678291470373696,0.2558446101885725,-0.003991160630753523,0.0843795463826752,0.02638667706861538,-0.07550451788628004,0.1172479286627865,-0.052173806169030876,0.10800965523815184,0.06298542815684578,0.07512024272623173,0.1236285007309172,0.17881129546214838,-0.22512542864580082,0.17135867409564226,-0.03885694478316996,0.025924630541243363,-0.07190317874526424,-0.08482041647648922,0.005187002040044269,-0.1052060093226192,-0.18444286779966004,-0.05811658316697111,-0.038308047243021226,-0.11628181929593144,-0.21010031812340377,0.0319677945878324,0.025177392511511774],[0.16172698534558658,0.004699224781524547,-0.1582749424125801,0.11733650567804631,0.13165052887463372,0.05418510524599073,0.28192635958279155,-0.01204623399287886,0.13978535747265433,-0.11260834859342818,-0.28093819580942286,-0.1016661244602999,0.00014496772312746247,-0.32355236253335123,0.0988444342078895,-0.16898735003314916,-0.16107761145264105,-0.10573720565198017,0.28023791927123204,-0.08709475173068949,0.14639681845019417,0.08716182790672523,-0.0039506371659418695,0.1914330775578068,0.0358740630690877,-0.13518209470859624,0.08970354564912522,-0.021716347862446257,0.11894285745486913,-0.04944198734589398,-0.05701377884943539,-0.08583571720937878,0.08483147699648502,-0.06706590868448238,-0.01576116952759452,0.03219113679773524,-0.050119515628534374,0.01500747146645896,-0.03394697894710966,0.08920773053726226,0.10959034995149577,0.06767775869977088,-0.2201667694554604,-0.06365289965855121,-0.10570990633433089,0.14649881927554148,-0.1542149625110911,-0.17985389774166907,0.03806014172943117,-0.02369406071535396,0.07366772456990517,0.06221445131230959,0.035743881665924654,-0.07857207820925005,-0.11875122803212337,-0.15910973063592465,-0.08595884823685115,0.08782461712009444,0.18054749681093585,0.15293933261526227,-0.09669060108846213,0.03481279876731127,-0.01874760847018171,0.014305486415021294,-0.22106352329433215,-0.10562130055044734,-0.05143940790457484,0.02497073862649416,0.08434815781933155,-0.1713207440890488,-0.30877379638164376,-0.036785945781325005,-0.07223511299907959,0.06998102637815842,-0.11326330537342155,0.22063823142349895,0.09927037083558773,0.15610020385393278,-0.28400089522607996,0.5167368545505038,-0.1286468941318228],[0.00044894581230488093,0.06689438622865267,0.06721386927593077,0.24516410034360572,-0.04666288788989471,0.10087528729498209,-0.031348395429830284,-0.04096039038275565,-0.07460865923163036,0.06541713651978277,0.09991975296734781,-0.18622638920751308,-0.03299796346658456,0.32438955507693196,-0.05993868982761869,0.18064280020406895,-0.005492366187547187,0.015522350816792584,0.04696251676402957,-0.11012833592582613,-0.12220245646692283,-0.11118304343997151,-0.06450444024212765,0.0015274787318102373,0.04250039482381935,0.2130006228456195,-0.10811049380778534,0.0008319644119089915,0.06428883834498769,-0.03288866596962318,0.25171901239271893,-0.06437100437870207,0.09772095135600394,-0.15304685453049488,0.03220741192977505,0.09213545885085514,-0.172198944211248,-0.01772856412682257,-0.13981364533641494,0.06918437675932401,-0.2576288671947148,0.4765543469192283,0.10439517344315329,-0.09606939296209278,0.04653869509273857,0.026240820730054848,0.2529929347305176,-0.22726871661378145,-0.3432737971251331,0.10075551936609847,0.08393706917097034,-0.0004469776451221797,0.012099557140906748,0.010106955849509975,-0.12280245664298395,0.08561910266431283,-0.10585753054271313,0.034353764146614674,-0.11167053069452945,-0.23057514649199987,0.009043859374087406,0.0701417957869018,-0.07738263043776324,0.09303077372856743,0.0012524167522455136,0.10885466640119265,-0.1041822565331578,-0.11599095199125171,0.1796783628476031,0.08462531773234426,-0.09271498507032953,0.050735580533623106,0.10309456057302502,-0.04917175168381486,0.06919776387250287,-0.13391652220804684,0.0829985381743078,0.1367428569547369,-0.016197017694667023,-0.19008114350075445,0.04956173565724064],[-0.11490252802153231,0.061455309624831186,0.09425100182490496,0.07156464391555689,0.23646840438562705,-0.0017029804758236647,-0.06998615946942507,-0.05645480413659593,-0.003762436519362679,0.0044704246779472935,0.06027633863493438,-0.14187164040613373,-0.0770648175259124,0.10864190131941796,0.07437458463820511,-0.0651835865155331,-0.13307745337984486,0.11595010162228479,0.3641206190586637,0.055092335228267994,-0.12636963655279818,0.10364054031362196,-0.042429390307257786,0.10769033632703331,-0.1295073442942126,0.23812812180659276,-0.17404809687048783,0.0814662811519165,0.09565143068263138,0.003038215960403699,0.12875114031678236,0.08383940567612162,0.0011882256259344898,-0.1108397981779035,0.00047093919082298493,-0.04054245652447779,-0.11736908264899563,-0.10603085121372902,0.07508244862387468,0.01888442881812588,-0.029175383253501764,-0.038706001115397445,-0.06727864269447595,0.3686041027115037,0.00828184521281073,0.049143663692602556,-0.06715929635966385,0.04739492683734896,0.1106072227041509,-0.19192399507688668,0.03436473273276709,0.0338928302501023,-0.1111291392009593,0.08923088623865466,0.022368853820974845,0.0007294618668712207,-0.23772172475064068,0.021843818945828302,-0.11029497040630916,-0.049239692412411294,0.21579932195610912,0.06134529313857369,-0.013985814491648893,-0.07745818302768455,0.06781535207535534,0.09525328232396556,-0.019483361618949646,0.12897694990033695,-0.07983810665746535,-0.015552549391697115,-0.055434612140302014,0.03887273809306088,-0.19514000277541452,0.18658232374693068,-0.05814242261555261,0.06655581063503321,0.13896373015495944,-0.09603434057760254,0.01394219760181883,0.05379792761987891,-0.0891665356420433],[0.008143951012011095,-0.007755787171501774,0.16645568239598754,-0.04420593426481369,-0.10460674418406793,0.1394558104994881,-0.03591712714095282,-0.3209293317231427,0.11280192404776603,-0.1809864160403731,-0.09850011126498678,-0.003198918419081716,-0.03398503956076396,-0.11756788454459952,-0.07490534290010514,-0.06856073741702394,-0.03449922943117105,-0.06608683851887039,0.06614868415571186,-0.07485530577362948,-0.2290533551763332,0.21550217169006824,-0.1311153861300141,-0.20955205581865236,0.2543321799789388,0.0246165329450884,0.23114049846253137,-0.005559167172441888,0.06429583542749406,-0.15719916205127063,0.06185305327694281,0.20397559561365786,-0.20431296918501826,0.06246563389418257,0.2557698901387321,-0.1312214469650154,0.09194037312280608,0.2670342380862028,0.07369305396855494,-0.15214588621258135,-0.06126700955032107,0.03147176755970397,-0.09073369515850398,0.028271142434197323,0.11499062845138723,0.2236029613308445,-0.06951129360107641,0.0035436473130636506,-0.1385362713344326,0.0032482164639580347,-0.03549565159027124,-0.12492375950975466,-0.22615654121626566,0.06228298518244765,0.08640772049549487,-0.0037270269887519558,0.19107059087632394,0.0605980077405643,0.2119243083699658,0.07589528020827202,0.0785768382279537,-0.008995181884386515,-0.0035375873418967085,0.1267074892096255,-0.09421471469119291,-0.010646723320106112,0.11732961322745403,-0.20166054482885712,0.005669694366091291,-0.18218029663022461,0.12752291505452779,0.0384570610210193,0.12464124217609804,0.07615933904349907,0.10728964310840963,-0.01198840184390269,0.2379089297511796,0.03396369139430656,0.009032409658647973,0.2477579775201962,-0.1351667920272948],[-0.2360294795554628,-0.04844940698424514,0.07499802737117853,0.09438086708073422,0.08661885795108057,0.0927615768294497,0.11080863303605848,-0.03591785408847982,-0.029441362822332718,-0.23141688602363347,-0.01962533535106267,0.2177638399266878,0.06286921595288868,0.0021014528146968844,0.23988538195494727,-0.06072222656562579,-0.15111309855849206,0.07502610539353391,-0.07892203464457116,-0.03385255465337921,0.14070360931631626,0.11166389787335786,0.04453891457473212,-0.1379663799142357,0.07533487423149024,0.019460065451703135,0.00828697015604961,-0.08553737543419704,-0.0852160934556612,-0.20680301342728902,0.1123799905631377,0.09143709921184554,0.038687778009359505,-0.2031986814293719,0.09124717796369125,-0.023847688765163275,0.08082654161194122,-0.12658989411962912,0.2537479053500617,0.022492855169220907,-0.01944129780762522,-0.06598760284094064,0.03452987370614396,-0.1731453256896646,0.22614537240543595,-0.14465058294377262,0.11060606948762404,-0.1304510998028703,-0.04280174329869314,-0.006203227292812201,0.08362297470755001,0.09952404042959921,0.06228163713236537,-0.1023660484004878,0.09528002896736444,0.0791161413708418,-0.19169306751722698,-0.06289455690775692,-0.22873969239325562,-0.1302971114507831,0.07858727772760636,-0.039110364240954404,-0.014111411528964947,0.053978299375743805,0.0682482995454468,0.039926218834699545,0.02433041189084299,-0.13292742021738196,0.1024868653364798,0.0008156837611060522,-0.03592546118315039,-0.35577659013355184,0.15374372651290794,-0.11274258533417121,-0.18146785469069557,0.15795828053776892,0.07794870216256204,-0.11446753020197283,0.08405133927843575,-0.14663774291211418,0.08673924111403881],[0.13469875650391813,-0.056645166023318566,0.5767035704539547,0.09057000087084649,-0.045732186647320705,-0.03280212714292428,-0.004036819141369481,-0.09369972260496418,0.04833668265956819,-0.0723956033800977,0.09553960424193061,0.09599278651666492,0.04895663423360803,-0.06904275508842399,0.16081923182113061,-0.07099494859171825,0.07916542418274507,0.06476308093073675,-0.08452001165371092,0.1609947663149845,0.009445674888585456,0.11087176801813932,-0.03354573253182734,-0.12164030495072792,0.09841374490060438,-0.20365445466770274,0.170065615339539,-0.11644236945562098,0.09079759808599287,-0.10182305080200514,-0.2635692375253749,0.06019796765923691,-0.28959060559741107,0.06990940102338944,-0.05196961624928292,-0.11363291543268404,0.129858195122384,-0.13636012038155473,0.12502134282532573,-0.031515749747134884,-0.11633707829514761,-0.04143333373805662,-0.06034756754223716,0.043475267840265626,-0.30463558926914147,0.005675363308544961,-0.05820864642574283,0.07503794868183722,0.03447079696555915,0.07166101911165039,-0.017976706527570403,0.010158370732632021,0.04165264021109397,-0.052086864335358404,-0.3321652228481503,0.11350954329344058,-0.1544905622263543,-0.07584320943031818,0.15987575987503486,0.167086789484834,0.01659888631194897,-0.26599042373309245,0.0361131296004548,0.11332577271651062,-0.001151926704139095,0.023161760160554865,-0.09025348442460468,-0.015786042458841753,0.023793941428165835,-0.13560221535607345,0.14534633445628675,-0.27076636744976323,0.12867294467853604,0.23166795621044664,0.11365085037339663,0.08358300558698242,0.08497699495156998,-0.17286569287809112,0.018158281079967573,0.029733207136856073,-0.1129786473209743],[-0.07748250674603765,-0.05935359489898606,0.10144933575978976,0.02021815077512633,0.13482242312840934,0.03259157150803528,-0.13022828605495432,-0.3956921916140023,0.03758066058820438,-0.11178797434571512,0.17527843250837413,0.2820153329534884,-0.0058913335125696875,-0.1304885881748034,-0.0544045549102323,0.002518830107407897,-0.09263789109480358,0.10304898322276035,-0.17438696917515814,0.016810604245886797,-0.07866610413506651,-0.10229612851340078,0.1472920792684023,-0.016859614831753307,-0.030923434247005336,-0.009212517530670395,0.24691061254991528,-0.009365140376335616,-0.09177778414402869,0.04806645228931838,-0.20544421793057366,0.18384417879615814,-0.2737683322454586,0.04984562835818463,-0.11126448450367968,-0.08023978365020196,-0.0055080791701931,-0.034381901449440234,-0.006958537119452618,0.0822528776553782,-0.017970185357122984,0.11894716808631133,-0.053163126147283295,0.048594430519877434,0.05296150145881092,-0.10172485468098551,0.15538454579399344,0.11580020604743109,-0.11613989799493624,0.019785024029669678,0.009467370462364944,-0.08421061534159782,0.06373140894880609,-0.1131426238034521,-0.012383465335718196,0.10156441308214244,-0.009811660221882837,0.012395018758677217,-0.02760056971612656,-0.052222151007899294,-0.04586502038497757,0.12039577531622303,-0.3335330838149603,-0.019490398798205178,0.018917914864108033,0.007074523857976799,0.18321663635315139,-0.31852054045750694,-0.015576741883342838,-0.02073134606209638,0.14976190656825442,-0.04788897842707761,0.1195478942363066,-0.023915445694137772,-0.1324909266212165,0.06954358525232444,-0.014955002015439315,0.03736888653309632,0.23272607782668814,-0.43297827843457515,0.044321667172367164],[0.03264982720439035,0.04139982160348043,0.19405810399758808,-0.4242381436872554,0.19891251451314024,-0.00254104600760598,-0.22696261949908414,0.15604347741985566,-0.01656854970278427,0.02025478268677206,-0.006495030590513983,-0.04071627640876578,-0.042708630123132994,-0.09558976912392708,0.10719073901076777,0.09520362409767737,-0.19341481788706905,0.1220906957053692,-0.09996001053898046,-0.3148190988279749,-0.04089159501722566,-0.12146434722480592,0.018129356076553294,0.20445272787660665,-0.004980166225842187,-0.287177733102571,0.07290514950433022,0.06148230515949877,0.2491478473162795,-0.06069487418235522,0.10412473028333369,-0.18175639356220527,0.07928816216253137,0.11599547389855866,-0.09002828963389543,0.10398134992308185,-0.16680483870123972,-0.015124126232779898,0.014741891619699904,-0.1610953686030492,0.14079831188792177,0.04795380244379974,-0.12246578893282499,0.10981793076110778,-0.0030806293847918235,0.3853697545863438,0.06825871887086528,-0.07033375685824589,-0.1545327395172177,0.016117568521239797,0.024305817184823525,0.06553196444715446,0.159756448109014,-0.08122228395542778,0.14256939968042553,0.08383742372459267,-0.19373507418438035,0.09767870079438573,0.06942216074419752,0.008687115593374775,0.08220128493753243,-0.10854421038002539,-0.01748088699953393,0.06437714887888624,-0.30567295481249224,-0.08018030762704159,-0.0323540809043601,0.03453035407776904,0.039916591794181326,-0.002598887935628455,0.020336906643658087,0.02906101930440114,-0.15633012705939986,0.032745274894521156,-0.04892797331380393,-0.10002945947416081,0.08130919918297252,0.059712331090960045,0.08572942933923858,0.03521915286513633,-0.06497965328743431],[-0.09369641904512878,-0.10369462861519911,0.2236902056303561,-0.1396533829728606,-0.23788242734720055,-0.09884619031816623,-0.14103434381430974,-0.015267429321616533,0.10936061400386941,0.3054668880577517,0.1414577624727001,0.1543444681094814,0.060526559826161896,-0.181275007230053,0.047219414515273686,0.07617762299846037,-0.09657981171412132,0.05047420279809565,0.010385485258400377,-0.03803493438243786,0.1299199229290152,0.06827638033663003,-0.0324161482608312,-0.016117677438466923,-0.05670132331177915,-0.18088879239663505,-0.07254142976930951,0.15746910885063484,0.1147716616546082,-0.144527324398608,0.17815896722398042,-0.07791802564606706,0.04555772830146154,-0.0017218260868110341,0.14098235017129707,-0.022886950627207837,-0.06614929201951868,-0.318877434924801,-0.22387097884752302,0.13468791841207575,-0.08293908025977904,0.07224901658921498,0.011644971768602422,-0.1115282370275095,0.17255658314917616,-0.07561397961514725,-0.09400741418204511,-0.21664760454686538,-0.020930489216238655,0.02091976830784674,-0.08811183709635215,0.018025566965763937,0.32781681726013967,-0.10768480158170578,0.07812049574279444,-0.1917862409611902,-0.10134369890080043,0.2500159599563217,0.019756451465041912,0.1258625419748145,-0.03465237042678428,-0.10712398369113928,0.063911821661884,-0.058103347625151826,0.09009498769080423,-0.09745296474818424,-0.1627962665417216,-0.06812037884615818,0.019944422740317005,-0.025577690235561886,-0.153664189591047,0.0510843919507921,-0.20660163977969503,-0.09750108553584552,-0.11579573785100075,-0.10329803131541099,0.15084378551625605,0.07279917735257342,0.0475190079370682,-0.26218505416365023,-0.06347063188269973],[0.07807882804671687,-0.10908951073216352,-0.04935446510453638,0.0634286024299058,0.07042978400057563,0.08014035507199313,0.13365065384452707,-0.04251971426399928,-0.300799252402799,-0.0772753421498113,0.11177500377814079,-0.014002211073320635,0.012079583858908883,-0.07433503632648289,-0.17807176611506034,0.08699330769269231,-0.10795758804232299,0.05959661494131612,-0.08011998423313493,0.24324674818852327,0.011548510525050633,-0.07384517411852651,0.2561616598345755,0.16353567988896905,-0.0664274018038079,0.014931552756381057,0.016575755165566926,0.04651628467019425,-0.14491568747979752,-0.03962535387485654,-0.05573630166522772,0.06860401535174385,0.057430538613911224,-0.15476794509683278,-0.21233305165412392,0.011595441417732248,-0.026362689965930983,0.2944875871742307,-0.050910748501330934,0.20974867908861836,0.08093411293718387,0.06056346510419659,0.1792465966620657,-0.0298244889951809,0.03931507346436496,0.1561390050904738,0.10616786569966347,0.04105596529675305,0.004550040244038416,0.05414013059101509,-0.017809867435375947,0.02936894902693623,-0.047497846739309686,0.11004304073915469,0.10901312263784246,0.053022167837076986,0.1045704825397814,-0.11551660746616062,0.07502559992966516,0.01439426168149183,0.02678308937029746,0.13077564362681032,0.14708346998819813,-0.07010904264116591,-0.06462164465619355,0.21600156348052224,0.32820387733042505,0.05461435032186714,-0.13137022316161465,0.020893513783866086,-0.423547665234881,0.4633382538666883,0.03138786842114303,-0.15168509330383237,-0.004286816332863131,-0.05688035260955818,-0.12229223200487876,-0.06541003677040193,0.1700937706886353,0.057906151539502765,-0.005225100520445824],[-0.09303504054547913,0.18051043463236502,-0.07469839392268453,-0.09228046409012691,0.08597891736645194,-0.018309241382823974,-0.04391490496541557,0.0903742673048597,0.0939610398970698,-0.11065000892244227,0.07053837574667787,-0.17930036927366225,0.03044773888255163,-0.11405960438720475,0.05537167524609259,0.002144749529805148,-0.0018434874866389808,0.04880406696442653,0.06700946626919463,0.0770693733844749,-0.12719416775468048,0.12630952176318208,0.20304383424849948,-0.3195983659893918,-0.018409163858530243,0.01887287111125407,0.19605695581257845,0.011618271853210153,-0.20617557616209015,0.24881097415212333,-0.10287636771488136,0.020835174153887838,-0.0024927783721314287,0.17538508634704883,-0.0016032409482686287,-0.06235781944259427,0.03940961144928099,-0.10497344101974494,0.03923494409801937,0.09684291183279772,0.1339013966635844,0.012219944165563074,0.01923473460635933,0.035004400494719236,0.03799273452351113,-0.01276517466900506,0.20706745589418138,-0.007965721262251759,-0.12754120790693987,-0.03815778715547913,0.10521050828182527,0.3277106277801184,-0.16020550251706508,-0.07271324932826265,-0.05203839490347162,-0.0848754071402771,0.2517203227242649,0.008526738090673593,-0.2789486463406644,-0.11810961774971859,0.06707774498619437,0.1657199274724549,0.06196014338312088,0.1328005613693895,0.007311393593406997,-0.06343012249913389,-0.1964675035919823,0.07002931113107005,-0.2575891837387917,0.2066134983352863,-0.08404042331749169,0.0178783389183705,-0.06296949192905135,-0.03604284969830918,-0.04380477023712879,-0.11643880365764558,-0.2641967447968313,-0.0024401641274789587,-0.0035769629856073153,0.3140166836680419,-0.10481901834658794],[0.04910717563288797,-0.17317289848677103,-0.0459435577421128,-0.04200448439516364,-0.21374343467665435,0.2495074106044034,0.0434583010317717,-0.17577290815436364,0.20404390227870442,-0.374816026665927,-0.07031732997953455,-0.2402301534115145,0.2554796647884095,-0.1031809664786749,-0.11134810675155958,0.08800647741239193,0.04530571324986565,0.09102467595504789,-0.005378743549191116,-0.08666350687699667,-0.05166382873111634,0.3517655316837459,0.03706912806724888,0.0440065479526743,-0.0964908856122508,-0.06189932855552153,-0.017074907525808727,0.09629107769676463,0.19562578637525663,0.10040498391258702,0.10890463205931003,-0.08685611274676462,-0.09896250457185828,0.016463248882273237,-0.15733512599106683,-0.003137210132695047,-0.12983186908006303,-0.07225577137287917,0.1588408395986209,0.0063264058488059815,-0.14207857869327145,0.17714241614817122,0.08496365547852282,-0.054659016153738714,0.0466727868948424,0.03935103330600577,-0.17341090129985212,-0.06803499024474231,-0.027767620863809954,0.014240265413202188,-0.10556098380890097,0.11707838680799613,0.0461064039308019,0.19100100274348603,-0.08597256335709692,-0.20751096494845633,0.04434266678604064,0.17338679083662947,-0.12384740108237914,0.03752016863830186,0.13777724297434965,-0.12015525880444353,-0.33052481671002554,0.08320747564555878,0.026358927117949935,0.016514348426155453,-0.08345126055466226,-0.31703607016885227,-0.14426399066988074,0.07788889067029817,-0.2739310017611401,0.1574506895337488,-0.0013211188340506556,0.3340588540361281,-0.17313023729570517,0.043114993749449285,-0.07170643619970993,0.0280808173183496,-0.10621146802408948,0.1363381339614122,-0.06662865041937928],[0.33092718876810107,-0.06652911938311283,-0.024014468592597312,-0.02967051996157122,-0.05368471937162104,-0.021988131560248224,0.16278594543232552,-0.10264761970178993,0.044291126588610084,0.21579814804937575,-0.09613051498215536,0.002558341708662945,0.3705071806509897,-0.004332105761087272,-0.034292755004052336,-0.09007615856342777,-0.005992701453075263,-0.22037209436142602,0.052425342320932516,0.09337554036507274,-0.0868302808100639,-0.220331858543377,0.02766772912653185,0.019570242291450164,0.15450988242637567,-0.1483302613431305,-0.06498772434264188,-0.041286165673772794,0.3074023472738924,0.1059859334873286,0.02628567078406632,-0.18167220473260604,-0.1682637427797574,-0.16917334893728167,-0.0784369658744337,-0.00693822669462269,0.3451020567009474,0.10992114648898006,0.31037273269985516,0.0878012534915128,0.03850082267402236,-0.2435292474043629,0.17499963396808066,-0.07717020216775063,0.009661779928221419,0.0993822391614097,0.12736075097991645,0.30171692701902614,-0.055700168473945565,-0.001352682994312532,0.15512235214351874,0.08912751121007288,-0.0079184137339535,0.040063804182622925,-0.2532569311618849,0.18543389444972455,-0.07507468771406851,-0.019096595624632413,-0.12063750703871443,-0.023049682811609837,0.001293687642167348,-0.07019338120775714,0.08880936892712435,0.13085743688655319,0.009965399341381685,0.062448047620547724,-0.010829096900344747,-0.09334487034084218,0.044849307215454506,-0.2545795758060093,0.15834733650215393,0.06704361080129896,0.13346282864448436,-0.029373683541216958,0.21746880572361127,-0.2472222317904992,-0.2659663564670521,0.04562034253607505,-0.059260993211945646,0.11065196313551731,0.1547988392232926],[-0.2109361266182664,0.059248377187115536,-0.1023223344873185,-0.03017116034617069,0.09761553369711184,0.13785383744982582,0.08218992919341267,0.16608071717526005,-0.040373566050570096,-0.009747246550425973,0.007640915751667049,-0.07596739920818965,0.06742063677355485,0.01239376871397391,0.013657415270352405,0.034606717192953676,0.049934267068050334,-0.5641385622458893,-0.07403752819301199,0.27531906760293995,-0.031655901230885894,-0.3097433297723593,-0.030567021234009735,0.10362515029644348,0.03693901508269914,-0.029729298765777127,-0.13208783911124428,-0.14891733870955765,0.35177944304851444,0.025066315047503045,0.06726235074474489,-0.014467332724293217,-0.036071592965363025,-0.06765900200964098,0.11875775939727917,-0.015846621059992093,-0.05843602625464229,0.04641708929920102,-0.1165114417380114,0.09786019927761884,0.1233291908507427,0.11087889224355894,-0.02996406489555513,0.02168394091389527,0.12596143620612885,-0.2350503714316708,-0.07859753906377978,-0.06099087725495498,-0.18143998968744002,0.031894011516580015,-0.02756146999024081,0.08970607990973153,0.0830863954423562,-0.14526510174681023,0.10241966237857457,0.011976891490451754,-0.2512641752861941,0.18423220547101352,0.025885557706194075,0.00806766489234434,0.010203224600114748,0.013947247291730571,-0.2448582130720777,-0.06948026063947253,-0.21058564199600732,-0.06781730180393167,0.03164856240337891,0.21783570916350484,-0.0942604040535013,0.10307388140553142,0.24536888615255176,0.1109839291442789,-0.2253847191854873,0.1062407002902695,0.0030600920417244853,0.36002936745020403,0.05551465595292895,0.10355447554337377,-0.11345257069022958,-0.14553261734410416,0.12482535063458551],[0.08629426670324118,0.011713923407878302,-0.07143217489997,-0.10672913483006836,0.11457143524092936,-0.05012607306535848,0.03955298360677131,-0.0076257745314769814,-0.04588986732418584,-0.14041158589255345,0.10739763279200598,0.15951882361239847,0.06714102921097674,0.08071984800775661,-0.0170986757645768,0.022345588469045493,0.056381260933757095,0.08168803907405889,0.018683498301096745,0.19187828713080518,0.051004780974565095,0.012536597720370298,-0.060062156666484935,0.11285159597148886,-0.14973638831767577,0.019660719834098832,0.04427752876411056,0.10575584015917247,0.15678274850668408,-0.3036356232152848,0.08980385347127531,0.0413117673260593,0.034524368036049594,0.0729167015233155,0.015633848984130727,0.28227633833711413,-0.030430427736597723,0.08823988328353004,-0.17301319400152182,-0.03665257094200682,0.09448503850951434,0.06295532314843455,-0.007630201606510344,0.13829740945687055,-0.16895407437777235,-0.18509922727014,0.06178962526508899,0.23794806052980047,0.01970233979380262,0.20222323931254516,-0.33083383525845367,0.10979168156409083,-0.1197340483849125,0.02177259877728867,0.04049761845520551,-0.05201202445873096,-0.06814508652217437,-0.13796265245602815,-0.01112907781744145,-0.0956264203498559,0.018616363974033975,-0.19402597193863258,-0.026326929652273144,0.02630107864612877,-0.04177866296053226,-0.10412348447198526,-0.08342445969563315,0.2512833387086646,-0.09679506066052147,0.054401541772218565,0.10409425324511885,-0.1160703878116469,0.1655924680292077,-0.09723486767988641,-0.1136539709296421,-0.0760352602636222,0.019860496622854506,-0.050657993253900295,-0.011024093069316742,0.23057519456655126,0.06394901038073228],[0.052557658166784614,-0.12256786564950227,-0.10618215074577265,-0.1546339707929096,0.056567322247122256,0.014997836967564408,-0.20224937209699823,-0.21775487374622376,0.040413551056395706,-0.0009984862893601804,-0.07289870281091884,-0.1317177007342688,-0.10542061531755582,-0.12782417436198062,-0.032972267252503955,-0.03944649485422173,-0.07065173587380383,0.015564297967376396,0.025805984314464587,-0.015241780001048392,-0.025998837932957583,-0.028909574420793564,-0.17404675802715375,0.1699542122291551,-0.13690148978469294,-0.07086754742964828,0.16332136529386485,0.1602009525371186,-0.2511437438462914,-0.08849047399534284,0.08029922858134267,-0.08918994698530341,-0.10939701572526334,0.2521372101360442,-0.0411842261994134,0.10075034856027026,-0.17730122821626487,0.17342822841111297,0.13812001402333493,0.039380616937452546,0.09127671417121129,-0.023840073872033025,-0.12910873553724317,0.1484994253202976,-0.0014645086581761163,-0.03154995401626303,0.07364957688306131,-0.009088997024010864,-0.1358961419491901,0.09674703168376708,0.07515153065215108,-0.21763349383080777,-0.22641332301833375,-0.020001550751075434,-0.0740566463123801,-0.2639626200514883,-0.0778533088188448,-0.10588848050884668,0.14673721583257826,-0.18545404266901952,0.17811608766265968,0.22541902764320595,-0.13183925974181257,0.13802206307137468,0.013752635832149031,0.2224986174805814,0.11423762164726481,0.020512412262526477,0.06646256474078992,-0.006465931314500849,-0.07097662449693597,-0.21009975223109054,-0.08187871405020565,-0.08760582530065959,0.09405999047068324,-0.03311511334260509,-0.2159704075971681,-0.06652702569450238,0.10741377716066819,0.001880193295031397,0.1324524903286648],[-0.005984203111622992,-0.0414793608198833,0.030072428007297813,0.06924836410368941,0.19685535039708973,-0.03240316568653464,0.10604957002495292,0.03090359043818459,-0.08894303414739986,-0.11973187208899169,0.02670861396890141,-0.07889113072957302,-0.011626662396307302,-0.22659025153772547,0.32978517522224976,0.051267051984052694,-0.13366495179877855,0.016886122594402166,0.12422213314621004,-0.031911709260982024,0.024815791932389666,0.06910126261131354,0.13838953527621375,0.1283409720321586,0.09694599108128839,0.0269372902014517,0.06655709669911673,-0.05266740147574413,-0.30774856122710426,0.0985553803080479,-0.18543344438776926,0.053226557355048956,-0.0597967623339186,0.15214676556616502,-0.1420934561445949,-0.09800720299892156,0.008252856754753771,0.12241878453473766,0.10214888065062268,0.0350086794182574,-0.2799056804706002,-0.2970876702942683,-0.132121160253608,-0.20763944527430508,-0.06555942758848247,0.012531902499079567,0.02663769497736064,0.17285339464997454,0.029443879884160647,0.028899897587837852,0.3206631351374648,-0.11890489763997372,0.496971863216388,-0.12445252135986136,-0.08932204632800016,0.04244864522104424,-0.07532139999569093,0.14305858146533812,0.1245920038519113,0.10105300004946398,0.08658023420110081,-0.11926340333100617,-0.1264674284347671,0.13193734152256908,0.02564765304077488,-0.08621592532062798,-0.02063587433544322,0.013227537137332507,-0.04625792978196544,-0.2581921040913337,-0.1451328952205649,-0.07347349037119474,0.3515668109347782,0.013653908746878917,0.2654552730181768,-0.031149661110081207,-0.10861501515433271,-0.013389833098825651,0.2621460622516784,-0.0747741044707668,0.07619697029421973],[-0.3138072229803869,0.17869253369772994,0.02589216337089561,-0.050903559668436696,0.004005116849512044,0.053202615802116084,0.11684805060159757,-0.10074591632468034,-0.08085372177250492,0.1165606341034884,-0.005789393525642419,-0.0877446549583414,0.03393658556197512,-0.1373773664617432,0.01684338219521098,0.26431284678386685,0.030652277147981417,-0.01463276841447303,0.050128248984652825,-0.10260810692917069,-0.10649840479855188,-0.13767663288563192,-0.040180577305002706,-0.05793150316133876,0.13950414792624566,-0.09142234356061023,-0.01993213814215716,-0.06248741232440936,0.014834484390676113,0.08723133296469664,-0.049461961771643,-0.28023978395578736,-0.035858763122086336,0.08153453135878364,0.09576401738535244,0.09741164213204155,-0.2861702947308115,0.0156808729369213,-0.586827775290942,-0.20491650106400977,0.12194547020078614,-0.06217821841717268,-0.3646185116026827,-0.20080194702416856,-0.03838008569836041,0.27637620515939854,0.07752133796595544,-0.07172372276821776,0.09177446525676689,0.04108489981741443,0.0456388334432873,-0.04847665725643763,-0.19707436790872596,-0.16273296689172853,0.3669565846051128,-0.15508319043358712,0.10194226178391877,0.013620696393572355,0.0844727106287649,-0.0877890264025876,0.021665042781386645,-0.12117106964449845,0.006963825614918759,-0.02978399053823516,-0.005798826115396231,-0.11466982333146206,-0.11150089941310887,-0.02439834990362183,0.07321465757199856,0.07689759803395602,-0.11867544234331802,0.108945357022917,-0.20758923849720334,0.01014605001023181,-0.10719172823114313,-0.05366485467812882,0.15709627787607705,0.10379404466997434,-0.19120129173858333,0.08505213326203252,-0.01329441445445286],[-0.05569479042066359,0.07359655244585708,-0.02182550369024253,0.06269353105941793,0.0067033850991359695,-0.012373733945177804,-0.011507200571312253,-0.3534855148693786,0.010576462909662425,-0.049702347351536134,-0.05666454858189074,0.21738120826144886,-0.14382396383640153,-0.012809376119411733,0.11173699908769191,0.04947477893615324,0.10256342238991523,0.10055216774695831,0.024385987019441353,0.1308477871575156,-0.12005730786420732,-0.05717668038580327,0.01235424234943756,-0.020759513593977704,0.09027034609486503,-0.07195429441566789,-0.008416940161563007,0.13263649134719033,0.019770514287726332,-0.24738504641328088,0.037627558033676754,-0.05762482689016407,0.23723412635325478,-0.030022753343205484,-0.030116424488138067,-0.15152490014829112,0.14926640533975885,-0.03675694015349146,-0.05932026030504697,0.013872176958514958,0.06570292196549093,-0.022967457835167675,0.09231788408916573,0.03483301851435094,-0.24516146331935174,0.016762888208505425,0.20100986720172306,0.06979221031916005,0.13332627734416808,0.040657921992741625,0.11275917787654859,0.31844705538162354,-0.03111984799495792,-0.04844248436823953,0.14427216808702292,0.07823996463323996,-0.1222519131757327,0.029471879161666072,0.13559752896267668,0.16253658171887062,-0.13282768309166643,0.09760983474628758,0.09634143229888849,0.061300259170236286,-0.24560880783583688,-0.11330904051494267,0.02881190708530912,0.01176480159154982,0.19428272021528836,0.3606572510327817,0.013382490029740388,-0.21348432721093946,0.07425882407667021,0.03566113923395372,-0.2447965077788338,-0.000003855280957436991,-0.020304422324662272,0.04971123968279041,-0.041693805171671,-0.18603830711866592,-0.0708682900529799],[-0.032029830242353605,0.07730698942614063,-0.09136848039880167,-0.08372902316360878,0.10091355621863393,0.02289681231451244,-0.07895620822685093,0.162083019103165,-0.07922742802445659,0.04237843081323937,0.022630897004299624,-0.09348928770479975,0.25641514210275534,-0.21262399285969683,-0.16471273411111212,-0.0347040145083115,0.14941634955499564,-0.07011707018480569,-0.07116489744184155,0.05111517276631587,-0.19756135533307037,-0.13743482665843038,-0.0766590345833957,-0.06901016338358469,0.031666997173538054,0.29676333637261276,0.03388366984779196,-0.08889410042123808,0.02821048219787646,-0.11236774103737104,-0.0023845138500214226,0.009935951763658362,-0.11455081610622676,-0.0716768555680106,-0.09080308943298669,0.14023776345395478,0.023523620481997496,0.05606820796430744,0.03284001526229507,0.0565218258261652,-0.029025583684951325,0.046273804494000315,-0.1704196304344202,0.13819024856018627,0.09034086223142213,-0.0768414896698681,0.2146587239096126,-0.13271726854311394,0.07001494864724646,-0.11352626942747014,-0.07441332782621995,-0.05532855572620827,0.3730872972719605,0.052621450090120515,0.10960285887295773,0.030742566090271234,0.24553017728328916,-0.15550059698737104,-0.07425237971838146,0.11529444359671474,0.10636541390328222,-0.0054941415355068725,-0.11573425760044051,0.04692964641344524,0.1516123991370081,-0.06880647790925867,-0.13277880331340522,0.043832438802645424,-0.2243320113171739,0.05315516087774528,0.0017524449412881283,0.29827972012583936,0.01592505129425756,-0.15549142383552864,0.03716642935695032,0.30388440797076866,0.07655199179197111,-0.07941510509143054,-0.0027891306798278575,0.0503006079977104,-0.14176516852630738],[0.048658868648976956,0.05170024038665125,0.05841176428285075,-0.11691564722148928,0.1415188423764034,0.09834809546799513,-0.006050580570307641,0.09653044340705264,-0.13787999648175164,-0.071820037757305,-0.08183718365460776,0.01099693715878237,-0.0439655665648943,-0.09276351433651178,0.14400612032074153,0.04348801914626752,-0.007864604029484268,0.054444583721754994,0.014651130704747155,0.20007337989928617,-0.1235536279893773,0.07668003409867202,-0.09462357301103999,0.2924399750247818,0.017614811921738593,0.10019952950938828,-0.03076232357659816,0.2513141223359827,0.12621158415348033,-0.005511791347740875,-0.11401825119526478,0.1387005474395703,-0.27759616925949815,-0.0226489360732708,-0.02873808102875665,0.041074094728909834,-0.2141943967940583,-0.11651754525182668,-0.254525080776765,-0.14550440007151197,0.11249483038010537,-0.05738280567054974,0.07850312418949894,-0.09291408221950673,0.2679650764006526,-0.019859382436414826,0.24994936094521764,0.002456260133041894,0.10681590116013137,0.028298062123167104,0.10762657661285299,-0.0019203703411228988,0.07835705653791547,0.03629754057545668,0.16525671634271377,0.13171796435097471,0.3665378480185101,-0.5266527029122171,-0.06471938282982918,0.21465856412608503,0.05936522665612016,0.29132886173522116,0.27716202987985444,-0.11551742072247431,-0.09750985363615397,-0.12314262439645136,-0.07706995298256943,-0.022392168991514493,-0.29583712469062057,0.18651355518606064,0.08810294547495519,0.09629430526653888,0.3562425893885663,-0.07848821540871637,0.0354154641770664,0.3034869408521529,0.18135984048037598,0.04698040208612384,0.2515664136150932,0.035520433345034054,0.04907678855928597],[0.06459656828299336,0.03530782268175733,-0.07145431707796045,-0.2047615439653413,0.18613285279143832,0.08399815285074905,-0.032532004403214444,0.1990627075741148,0.10113899487454085,0.03926242449047022,-0.046052423326378496,-0.036578757157399784,0.14292486418834396,-0.10731316834656153,-0.31782394096953626,0.020257397748552005,0.1747550299588694,-0.028300555659985238,-0.33848261795513396,0.16643214112110996,-0.015798621449179134,0.010350875540303667,-0.23208199031169147,-0.03272564732360562,0.10890419522081933,-0.15407570928922085,-0.040247666152161334,0.18010478560623427,-0.03512889322058617,-0.012188023477407628,0.1202226645109192,0.1306155858116725,-0.06175814252270609,-0.3231489466186688,-0.295313135698652,-0.06183479723636721,-0.2114884225993413,0.2211251545854948,-0.12268261533845948,0.012829921846106694,-0.16466387927162618,-0.014103409827764918,-0.08709902383309416,0.0845852801099901,0.04017892378520815,0.049705354314833104,-0.01626791276797442,0.029907415305432863,-0.15244424179520508,-0.2934822577501109,-0.008041568641121353,0.08452339232791359,0.2249555517188406,-0.37010511487917447,-0.10517950414480443,0.10727534686627334,0.1042952258624535,0.20693779623881028,0.029985691993396395,0.08021544171341816,0.05125397143003914,-0.24961130117764616,-0.06595268226137832,0.1030556384376983,0.13076213899992137,0.060877819706866586,-0.22677486608818634,0.05128790414576743,-0.04216938104855199,0.05920803930918484,-0.05635428709674711,-0.04049477724546188,-0.05858940662792684,-0.14745776969051597,-0.010764509365783827,-0.11112385927801643,0.1028446196384283,-0.07408028173605213,0.12046872178724267,0.03744065385536224,-0.13887334247721286],[-0.1608910059935112,-0.05166726181584617,0.11104646567246555,0.10336927034130325,-0.014507392995630888,0.03836031771275265,0.19074346403956255,-0.005979528580069701,-0.004249999028956976,0.06513144254775377,-0.05330792961457372,0.034176888114644914,-0.05290078151783258,-0.015846329480305576,-0.016026625129425685,0.07479636577693227,0.015843619758384768,0.0671223961946691,0.05018766196826199,0.03888006198296835,0.07968592186671179,-0.04671715070852073,0.11760171578061873,0.09746299159812626,-0.008844182048327003,0.24402279291769596,-0.034448676643473,0.011279486306776535,0.04771884740598241,-0.26117080907479623,0.0855104065335539,-0.065485921781755,-0.08514740056658723,-0.08155538816873176,-0.1532808286434785,-0.08889102406625822,0.08049390446865155,0.02858130646790274,-0.18068178868118306,0.09434521585053181,-0.17796577766890626,-0.09137140424526415,-0.23712334140749086,0.08519823204839286,-0.1192081163234801,0.254316120038186,-0.02178317568203548,-0.01940359517151668,0.09407467905914364,-0.022380672980571392,0.10505058389052209,0.08720625732824155,0.004016558755144081,0.05415940934085056,0.10227386253745523,-0.050048294267786265,0.11232993106947753,-0.02992344036773944,0.0583872644258031,-0.14553995151577637,0.09226485742147639,-0.004872618899194142,-0.25264959182466645,0.01865175074286443,0.026500689803723835,-0.12008710307043659,-0.13300350347316373,-0.21179535105304753,-0.10531141399870418,0.07932031531358992,0.07264095634229936,0.05457678628995982,0.07177371752189451,-0.04484855514419261,0.18905283778220203,0.1286022805999668,-0.12481498589043527,0.09240910638166232,0.10867189794038387,0.005406803585778753,0.03377899721127145],[0.10341101692411217,0.025014411798393605,0.12375252923582512,-0.08691418042459656,0.08339725243309125,-0.1396726345869959,0.1682453818707663,-0.07155163067377039,0.04702127924397906,-0.1606289481908047,0.05679835081160779,0.22726872608749177,-0.1549852596358219,0.053922645351692666,0.02345260456829659,-0.12731296404989287,-0.05649944609324038,-0.07424808248342094,-0.051606249909269375,-0.16522511043409652,-0.14289048944639193,-0.09778931037625958,-0.06658216700866365,-0.16226533204760574,0.15863441030965464,0.09340324105440136,0.06048606465681673,0.11441492917815028,-0.02194424464701553,0.02954351079846201,0.06939889162967439,0.05741229165127861,-0.15616688564408351,-0.11132645285293205,-0.015014458258625329,-0.4518117297435353,-0.040736936143991105,-0.062124013988906435,0.10083264571931991,0.15611524113643874,-0.17090364753260057,0.023601770064828723,-0.22959799806229905,-0.09540621352246167,-0.09447842726077894,0.013524673842655311,0.07454660409983759,-0.1581659107207351,0.008369574869614179,-0.1102865499858256,-0.0956421098068214,-0.1514015601465549,0.22445994000584074,-0.09457990850830021,0.04517692760496607,-0.1683273808686532,0.10452801326460025,-0.10800810355879335,0.010278980748555334,-0.09564728966887479,0.06614262213092145,-0.027497338424471458,-0.04087804186506139,0.03819679546719324,-0.02634831584569474,0.032296405415753564,-0.03934343759744495,-0.18322775734692542,-0.12424695382976211,-0.1575901401815104,0.1243499175559578,0.19120680540453114,0.22251741800789177,0.12191997240402674,-0.03853493088753457,-0.10464560547086073,-0.09516789555413299,-0.08033331001441851,0.016875729898969596,-0.07916176917265377,-0.14172560479719637],[-0.08693577404437988,-0.07924769063152402,-0.06281272829768692,0.1537462402693053,0.05826161532879075,-0.13936952922655835,0.1194968375063811,-0.01906337857779191,0.2283987984299746,0.019456177586457048,0.16720278727479268,-0.011252500617581648,-0.11393122588839018,0.5279712339457532,-0.0122123629178459,-0.15239355233167667,0.10063241707712303,-0.004551322625858848,-0.058536807897868456,-0.016888762900447118,-0.04808260802999113,-0.04866733046899568,-0.054224073427057165,0.034579538352458646,0.04080897750470974,0.10358455039054447,0.19696589684277524,-0.1476127852302351,-0.11630244048929633,0.06820977238479817,-0.018205277724842404,0.18866783885069002,-0.07227780132281364,0.2477895893208628,-0.00351977767122485,-0.07106120802123357,-0.263143196502454,-0.2751471541665704,0.10183218466664412,-0.004421336131239932,-0.13008419371089666,0.07479291001907892,0.11540631220484511,0.0950289327237643,0.11998359519620198,-0.1136498496808519,-0.26716119058702925,-0.03200654307256854,-0.11420634633852743,0.07494463264110801,0.09709243786102244,0.06268945937334262,0.25377420968273384,0.05076320414127954,0.2250065661454309,0.09186491578284406,0.040290209192540206,0.08827370356560295,0.09218716080009112,0.004269450498326864,0.11703896075432839,0.07321846725503128,-0.0768134149566899,-0.15970736145734618,0.09796589071658209,0.09895823523892515,-0.11702668915640022,0.4259352257097411,0.04703069031970832,-0.06576572095689125,-0.12771259958585313,-0.1656198861013621,0.06973235606918174,-0.08598104392997273,0.015176015229444458,0.22522858247762922,0.012979799146519673,-0.005292777400713485,0.03624531894964572,-0.21070277794013018,-0.0003049678119339596],[-0.29225543798860065,-0.0026979927872303137,0.20730388246387096,0.2247736300709597,0.09247026465337747,0.1976352907798284,0.026547923524916466,-0.07988424299975087,0.1159690263810893,-0.018615829157779797,-0.02553219090198028,-0.0281018770499219,-0.05061712707265192,-0.11330157624695619,0.06379841470121082,-0.06961894614129861,0.3124962697378485,-0.027349716114360843,-0.04933812550744802,-0.10609153265261302,0.12279929446752634,-0.03439169574506575,0.11297925688965643,0.10379155808537416,-0.17569950290120098,0.0039208003548892945,-0.08548736508975024,-0.12143184799141778,0.11165136646896039,-0.07980515774727477,0.038834714494569725,-0.0952515436213841,0.0236688253082509,0.09911616720574686,-0.09483997985385119,0.09569370704222256,0.09736224309943096,-0.10290295130792418,-0.03304826502221482,0.1301965669095832,0.19883100798841652,-0.10778953696476008,0.00048346526633650627,-0.02244983575251574,-0.31721045832199024,0.01773271968887426,0.086886416732789,0.024507943796617037,0.046800610790519885,-0.1564477657341222,-0.1122195250087084,0.22390382188160565,0.35979055778793234,0.1016474489908955,-0.15783291333413776,0.30283969396755644,0.012092836718896249,0.09879432367033893,-0.03729798748456868,0.030355508965413374,-0.024872929001671477,-0.17626156136300822,-0.06022995236476771,0.34785337177092235,0.12656056210718866,0.05278391988348772,0.03139629746621761,0.1400209898711303,-0.017320179858226252,0.12316931417807722,-0.10903811538219688,0.09097572812134809,0.03650616394444121,-0.05345999352577542,-0.040000419861954996,-0.09443108588996406,-0.06728732474180026,0.22021060351571897,0.12629748262384016,0.2639302991655123,0.10519960160843443],[-0.08823194200222566,-0.06919469434204074,-0.2107349073110992,0.08243493333483577,0.10451453921800496,0.1334332065360998,-0.32326547353092816,0.02174382826172045,0.012686612402775662,-0.06651924965911934,-0.01066260169643146,0.009771047479389948,0.19512214087024732,-0.08617175740019835,-0.06963406080684842,-0.10789949731668175,-0.24808926570888493,0.06248916433746605,-0.05264892810164129,-0.04500433907502086,0.03161338751849328,-0.07112468516267233,0.1430683796727389,0.06533927493059816,-0.1280517935315447,0.05849552428868662,-0.19035777498870177,0.22686781590270505,0.08756914747800343,-0.0126501410761339,0.3340818699012835,0.2741509703905098,-0.05419621368384822,0.1861536522766817,-0.0632553805618773,0.007289770409283261,0.15268845449590773,-0.18289824120964163,0.09419869632335529,-0.07645402384140151,-0.06677370147663572,0.2603326107786069,0.11762567895126709,0.07672074692016707,-0.3276419922736817,0.02335065883872848,0.04204529629590685,-0.05540893393325832,-0.12727561464055295,-0.008496958106425362,0.11390901213336367,-0.18977728135880478,0.21372953158790403,0.1814072521669768,0.0543197216740858,0.11019635872890651,0.08841454347137183,0.012313852468555498,-0.014308831718082596,-0.0783362899688549,0.003140861904476934,-0.19411475122201882,0.07434904751184461,0.03402283957540527,-0.019344214996058446,0.06892892410534482,0.18976341206245723,-0.15200832900107772,-0.08664241222206662,0.26461479650180286,-0.4043814254748479,-0.03750519584335809,-0.031176987833288594,0.0894806510417647,-0.005521211603593571,-0.0846921000255415,0.23133976686846028,-0.03959675038362981,0.04010701340012437,0.0492665777704721,0.005926621437790442],[-0.04161058924791826,-0.08448253926670415,0.05855631244751175,0.14104048996231508,0.03640577023143774,-0.03685143401242226,0.03667560792452772,-0.4086417583952751,0.09061241594672571,0.08628522509649846,-0.03451974874131818,-0.12597249750580702,-0.1426759454820039,0.15591674096340316,-0.2464383991195237,-0.07851123014464058,0.15784863199942686,0.003975279832177605,-0.10102795345270478,-0.005830368526727974,0.16304435490805347,0.02144491169847506,-0.03334619659381277,-0.05823738044847525,0.07596342960990168,-0.24790874007171088,-0.07756639588199289,-0.057291356404566195,-0.04216933268038565,-0.04719111816191989,0.11301984181832818,0.012309924577837177,0.027602105705866947,-0.2141011565363152,0.11644520435499069,0.3035689043690204,-0.06777290677855406,-0.23800480889331904,0.27193909138802097,0.021027859166809902,-0.07401604139058443,0.010678484257765903,-0.10248143469592626,0.09472026612049464,0.09098406915035967,-0.027116745156213633,0.34555295198167135,-0.10531635570619056,0.07885615348519401,0.13732318482721892,0.19305592261963514,-0.03970418632530263,-0.10162047217269703,0.14952434321988992,0.22010048767942314,0.10983812006738519,-0.09066659536850366,-0.00965292105391628,0.27055998963823374,0.05614182279930425,-0.062371176112852755,0.27131351777415785,0.09527179268243144,-0.07340598735525068,0.45933047701865637,-0.05893784022840515,0.044319644589494986,0.019241888809064,-0.03779514022592243,-0.11419329043972982,0.021521774360719188,0.15840793856632757,0.2500582556798048,-0.024800134060715764,-0.29851367885171104,0.043411265570557606,0.10578540699627854,-0.07120676300607473,-0.01392492528805869,-0.10216368834652116,0.10421234278770895],[-0.023451321846274232,0.15912457049452175,-0.022237459571303596,0.10308297304826303,0.08995164546049267,0.11524087504989797,0.03013955946896595,0.00902599825818106,-0.09473285367365608,-0.0012745393002660285,-0.19112193430954416,-0.1530109130258878,0.0145370579503539,-0.039625213941956186,-0.013933052634844137,-0.34746423556726347,0.008942191266595241,-0.11061266839866239,-0.024958235464147695,0.20282443248820742,0.14539540190937422,-0.10892219688780452,-0.029968625385576788,0.08294652031614977,0.04821802109326553,0.006626025278292663,0.08987362616620424,-0.14104165260500665,0.16732944365504615,-0.04245640940201013,0.06670111192228799,0.2873709156420337,0.10246746527970003,0.02325108637958601,0.13253197500375938,0.09029368858344114,-0.11205256620428466,0.193064054181726,-0.1684236136214906,0.03746752710553221,0.1693708274111002,-0.04166402228628443,0.13569671160074337,0.2343794952147485,0.05506304759826991,-0.012300793236050043,0.0885082258966057,-0.08636939169086892,0.04498171211464021,0.11565656549791564,0.08210238920175576,0.03329440613684215,-0.025136594957696785,0.06784497165309131,0.05127460818339402,-0.06548177631810968,-0.01917585319778514,-0.07742588051404957,-0.14753930394040793,0.07487019799786865,-0.0918049416824089,-0.048810572539259384,-0.10505893016611928,-0.12541275787981415,-0.14541290314043134,-0.06778145268285782,-0.08408124020441332,-0.05743273900004516,0.22601169900887666,0.10549574416379223,0.10732779637758949,-0.03443876096699877,0.09477802583143412,-0.18819201538495745,-0.05920625148112546,-0.1715721023288765,0.0163184574922461,-0.01359988783547096,0.03559415528225356,-0.360985853924503,0.018874473036720296],[-0.03552522587508592,-0.23134992250142097,-0.014442639382349534,0.19194688837667628,-0.06038569181267335,0.09664189245172619,-0.15135185091007408,0.2213182932491842,-0.07610180894765042,-0.04802470505289531,-0.15131554288489502,0.1081357372863966,0.1063445369134576,-0.21357826568995072,0.09497740986125647,-0.20432297839455124,-0.03659043117028305,0.028495414423487506,0.01527852376899283,0.09492931700052663,-0.04958091622709491,0.08972075946890809,-0.04714365322457975,0.23017143512810412,0.2169927454404475,-0.08362670635357096,0.0045838297750391424,0.024994486094771624,0.18379080155655075,-0.21485577163593947,-0.03619766625619249,0.2025363608290704,0.15521661600144257,0.05669953165017871,-0.1846628955439513,0.016469258483720512,-0.09199827737658894,-0.013311267658904382,-0.09240364031752546,-0.35498665998675244,0.1795789241972274,0.011677539258376994,0.00010248729507721957,-0.11775811257414934,0.11270458051856502,-0.2027606671571145,0.02844454870218845,0.11638415532991914,-0.07921556817296649,0.016674374838172797,-0.07478175148251967,-0.10341495793141187,-0.2195316899966773,0.13998763450716892,-0.1696859837640386,0.10833524988076881,0.11015157484713743,-0.08537550283746713,0.08908087199561554,0.12961292072380332,-0.18028763193040293,0.035952172950263844,0.11797880082802323,0.3082379360298957,0.11738934953572484,0.017265145396308506,0.05292140764248906,0.07001694531591068,-0.2400954008577558,0.11299347613087252,-0.04477087723517104,0.04405990923713042,-0.06191799756314408,-0.06170356326975856,0.24269433514749322,-0.0033116824039799236,0.0772546257562301,0.03498965125628101,0.2056851863657335,-0.07813752589399942,0.02299475285694843],[0.10505976684268346,0.06972627736380059,0.04364774101324274,0.030777002419884375,-0.00392201293528555,-0.2764597460090239,0.07697152905110413,0.2256584687472116,-0.022986777067079963,0.04384284724070352,-0.12471260542405879,-0.006704368353514825,-0.08448076518782087,0.059963109339708776,-0.1455617116984729,-0.06622594569140156,-0.011667710444800139,0.19397193802816715,0.1552502882981527,-0.017794470243818333,0.16320467174738293,0.07069078339896745,-0.11814455147720068,-0.09238527314522683,-0.07781203105527308,0.050324874295561116,0.061756629386283575,-0.02916897229154251,-0.08066960494156653,-0.114744228569874,-0.09649182488497297,-0.028806749379366475,-0.0074362537156184285,-0.043841348836329466,0.07129331445483754,0.06989330271233828,-0.07685020372588325,-0.16676088822420027,-0.18814847416840982,0.09236723064605805,-0.06981950321885669,0.048372503959685516,-0.01676568402128661,-0.03753814564344501,0.03825032553442028,0.24537485031287898,0.010884387920666294,-0.16153666987884058,-0.09957083132220695,-0.15179979205622432,-0.12650547360874678,-0.16291823041044728,-0.16933983233204522,0.0190120534142204,-0.0540411463208159,0.0057733553414918,-0.018519643314529547,-0.01086227302311548,-0.024495386075215154,