{"biasesHidden":[0,0,0,0,0,0,0,0,0,0,0,0,0,0,0,0,0,0,0,0,0,0,0,0,0,0,0,0,0,0,0,0,0,0,0,0,0,0,0,0,0,0,0,0,0,0,0,0,0,0,0,0,0,0,0,0,0,0,0,0,0,0,0,0],"biasesOutput":[0,0,0,0,0,0,0,0,0],"hiddenSize":64,"inputSize":81,"outputSize":9,"weightsHiddenOutput":[[0.10940663651183874,-0.03854293991420667,0.11298807914582713,-0.06612209875713902,0.004911386693952994,0.04060089412130021,0.057030886909967334,-0.1080753086453858,0.08585810352072416,0.2104735276330323,-0.3157779054267999,0.05166871611211887,-0.14107740358588375,-0.06015830955624862,0.09180364085675691,0.04686599083466057,0.1102934964582166,-0.030850556494006552,-0.094775843754093,-0.17461954570990093,0.024906585561192025,-0.13022155570421146,-0.1375332780823759,0.058617175232607885,-0.047570908648201064,0.0848576508701339,-0.07222901508408493,0.1156878140432403,-0.0517340201817763,-0.12192374164891302,0.1027388648705215,0.043217008201980406,-0.09075933763346068,-0.06013445476636213,-0.15403969546339996,-0.11730378577734968,-0.08979418876437555,-0.1188498587428894,0.1806278896337556,-0.0545766308022302,-0.08755613075212858,0.18049645137026082,0.04575128159855882,0.029919908337962514,-0.054021136859634444,0.057779997679991216,0.06223592828815033,-0.08709235787600049,-0.06660318766989835,-0.036667884372875624,0.15489149866352547,0.055117825753457306,-0.22872897396367814,0.04317792691594105,-0.056195629095049326,-0.08484095643873667,0.027816081730507116,-0.18695407238921435,0.029568164601624678,0.07881634960252872,0.06815637272202768,0.05234535655873695,-0.1310864926111958,0.07678754457512685],[-0.008108808948428923,0.03894837525114737,-0.07048314214398331,-0.12821477531144626,0.15096377123034857,-0.015553768237591721,-0.08542571946643847,-0.31263743822768325,-0.04267657172304285,-0.0323782615486419,0.08451274500836692,-0.12197480403917704,-0.13319587887156226,0.02448576505695522,-0.11629531962764679,0.0507162633229284,-0.15289760206558192,0.01126616584404745,-0.04874350993876579,0.04263329850266361,0.1065996831222806,-0.12155833422423662,-0.03836293050767694,-0.15357487377374524,-0.06705775337713454,-0.15603339319489637,-0.0025553859640079484,-0.06215361763624752,0.10365186084978707,-0.0009616639853954165,-0.12277393097973902,0.0029838594305564158,0.13342308747000262,-0.140009631195422,0.0719575091619619,0.044341711293092924,-0.14733065960131336,-0.094060061103099,-0.30031079670133437,0.1787083870739239,0.05659821253572692,-0.012704837250387615,0.12293751722952306,0.13461072653152983,0.08073952024323419,0.07115136138684795,-0.24702115308039652,-0.02151687789564071,0.10018393723318575,0.12301978767587458,-0.18639941036259977,0.09277727320679043,0.044425645871308025,0.15902940466501264,0.028123713212445268,-0.27963716157501484,0.1407779509166074,-0.06770433916797193,0.14405738082992098,-0.02894902642247183,0.017641284915090642,-0.050759320268988294,-0.07949106957208549,-0.10605612177529085],[-0.14998939247630994,0.32218045743454277,0.16464410187739667,0.03074895754895972,-0.08871121972868706,0.3179798425943525,-0.06310367764893826,0.12066915707099155,-0.06212765684954328,-0.11597183246912142,0.01311948354748378,-0.15734509880346673,-0.02599811220769197,-0.24609587033134764,0.09587057313246644,0.13740875982560216,0.1619619567786222,-0.07561223209038963,0.08854287655583654,0.057291073906286356,-0.08312527358883454,0.12884727019545048,0.0473816008366683,0.08580613998887199,-0.12119354995214471,0.13998010435731476,-0.09334687537909013,0.1408244773341366,0.018661367056120516,0.0652637333282249,0.039595059387924555,0.14570712420995,-0.027424629054963446,-0.10494632088412477,0.13971385678953507,0.1206320029861034,0.12034488635247959,0.08110174226710551,-0.13065677249215749,-0.0825190031719157,0.00006830973334111963,0.13254654425363854,-0.10193740030475285,-0.1403608617375268,0.14832541164168989,-0.14728761644351326,0.11862132040980466,-0.11405226853304508,0.155628627968306,-0.15972324901721782,-0.12067713429215646,0.00711992287222756,-0.06342986085355015,-0.15696357268723454,0.1032868994019697,-0.023475269261157037,0.06902308832507302,0.13254301841248964,0.10720523952369314,0.13468373023290928,-0.13917960055460032,0.08002606373549169,0.08616025070643944,0.04137900312841548],[0.003202305734846725,0.027918803759835714,-0.04122744095753007,0.05337322170648425,-0.04989969154189908,0.16371646460290656,0.07069223393288535,0.03964970754855334,0.1307127552243,-0.09796454276207694,-0.025522192055787603,0.04643082739034713,-0.12680146056171204,0.019815576193789635,0.16288360118878403,-0.15876629083318844,-0.14789365430102697,0.1506432757612316,-0.04465841231237805,0.024539610198588132,0.0555414406844012,0.11504020812727421,0.12223710785574035,0.06541368014474006,0.13566755976286363,0.16016056080084431,-0.045559914323414066,0.010522729087482498,-0.0443447343032263,-0.17443101881875503,-0.05730869288825173,-0.16886523206901777,-0.030784251537456068,0.1675100931192425,0.05880937910332077,0.03388584971582918,-0.04449507202897271,0.00497089176782358,0.04167514800812964,0.1285337266205045,0.005511723464885323,-0.06758520520776623,0.08800923959812608,-0.08142976415627479,-0.034553015925485354,-0.06749804915327443,0.0022488647609746355,0.17028275966973141,0.029883758187961847,-0.09702471863829161,0.044812834487366775,-0.1172809277461381,-0.04973780630003597,-0.12006657562390727,-0.05287393011359491,0.006978058718329562,0.03059720868172583,-0.00967539920882106,0.012690094197572088,-0.14530914626322922,-0.10129898654574768,-0.012225376687301682,-0.16447370666466088,0.10950684660334983],[0.08555392762706646,0.16153809375251585,-0.028058629452064898,0.11130584345608029,-0.09040989801965253,-0.05942269645132629,0.09098403527290663,0.1307106323106579,-0.07318331170109617,-0.1339165410066823,-0.10856357499422131,0.20734589513129828,0.13573804822269972,-0.045803078903931926,-0.1329315250579983,0.06134824231430411,-0.15664022208347236,-0.05924622061898487,-0.06658428982820563,0.09423504194870679,0.014450195535097621,0.012057243577149527,-0.37761355729386714,-0.03374040995684247,0.11594312330337372,-0.07252379043300357,0.010670088563684033,0.06865784037126983,-0.13010933261746194,-0.06535466140908495,-0.0829167510166662,-0.16941312444188922,-0.004375742537467614,-0.013661862748500833,-0.02808218718409867,-0.016580995042728384,-0.03900967736519692,-0.011177092490988826,-0.027425492240305115,-0.05601475841008782,0.19168847296189162,0.07344400144159645,0.13337060146669252,-0.3012576371896195,0.06570451567528944,0.2163907682638259,0.07928909609132408,-0.10105608941013235,0.04727161810219304,0.05184186527660065,-0.020016459524287187,-0.005739354995066221,0.02342417599706842,-0.15350348215389906,0.022229565622810993,-0.05334153228710807,0.10659396629590834,0.08568691721025813,-0.32559651087575114,0.09223932584847216,0.10075011477529992,-0.07685571531374395,0.1139925532803435,-0.002296822237366678],[-0.04776747548731787,0.1464413478179305,-0.11796916332131427,0.09411626334031169,-0.0170642811026184,-0.06817905756762965,-0.13103198318643633,-0.1863328110620756,-0.23881400180740453,-0.029162008208899595,-0.10137089384665991,0.1229329849724471,0.05891978103991247,-0.01079346259859599,0.12929956840628976,0.024766843045789383,0.1898931096058967,-0.29229513262228213,0.01819913562928295,0.113833398839405,0.17147523836456902,-0.03001811993767566,-0.053559888557782896,0.10146857844858954,-0.12089215758536527,-0.09596751284266945,-0.3360791159141036,-0.1119886761462328,-0.3703963135887168,0.16355787783684791,0.11448112627612246,0.03762328221313793,-0.21542832596810374,-0.14665677199309585,0.1445907490971276,-0.07042504994914896,0.15791777996850148,-0.07519074281317285,-0.11578229119348955,0.16368524126626371,-0.052443033716774674,-0.12632704466222136,0.16540447049255422,-0.1119456979618603,0.06968227173470917,0.0015422080416462114,0.13312120275515446,-0.026204374232317515,0.05152595942544493,-0.14403277624045813,0.12317107408070481,-0.09535902933940991,-0.15983722390459576,0.11057883748078626,0.1057450343853692,-0.14169678128024338,-0.0747415561902028,0.08310069088150002,0.13791366075669637,-0.11261627318970159,-0.1472508650615946,-0.11328627933965722,-0.11075956765794169,0.20611523387094266],[-0.2834712698533492,0.15971119291748195,0.12141301246551331,-0.14340582107721608,0.1303776592501203,0.08978717052238276,0.004248868206084946,0.11860600278140832,-0.10149531012233014,-0.05614107249562095,0.05661293387650638,0.043472927028048954,0.10987495920054582,0.08885706178230439,-0.047196431316105875,-0.0581488949220041,-0.163735955830151,0.14000917968476762,-0.045486627099397416,0.027660273952991726,0.08865332348849098,-0.07646876851161546,-0.13431077049873902,0.13134724421372934,0.04956677054605831,0.054713524828292136,0.010863973303107998,-0.11053610398862723,0.005142949081946353,-0.0788753675741783,0.06183863828754613,0.13651928759689616,0.020382297575945934,-0.09022198077079423,0.09513692428215442,0.06032417392817617,-0.16391301819362822,-0.12983247633090786,0.06881858446562823,-0.15086005624493945,0.12058912811449495,0.07398764310486253,0.0014804125093863245,0.07225073390303037,-0.07464805399168281,0.09422977893830732,-0.03147192246472448,-0.06806630260311711,-0.15203935546353467,-0.1119972423884078,-0.00821034935729754,-0.15670151219379458,-0.1291593272733846,-0.1089047996634215,-0.07761492402085735,-0.09662250964225756,0.11249102947332949,-0.12083407029994286,-0.14941583631901828,0.07120669310344349,-0.12478101058704093,0.05963776468013115,0.05083750695724747,-0.06712542196169173],[0.03571021250171254,0.03912487781281762,0.12007547400698082,-0.09815445493697306,0.10180535273602971,-0.1567825457048024,-0.014909087174047158,-0.09255729104083656,-0.15554193909496075,-0.014566206991079054,-0.12704089557226847,0.07493838883119434,-0.1416845233349927,0.09496703118923613,0.024222876585028582,-0.08049889595244843,-0.021002438273231085,-0.12320524613247102,0.13554487256240094,-0.1343564187689489,-0.10669286934937418,0.2407686630497346,0.1173858113604503,0.0818415052304794,0.059410976632332475,-0.1006115339607404,0.024448420745343664,-0.12523774987483102,0.13196121242386274,0.07963881997363655,0.16270075454172447,-0.06561760174364563,0.03812879712854925,-0.08453054771383786,-0.08845551056369504,0.09947434910361362,-0.09218690252006742,0.00334693104863026,0.11687432491831765,-0.0754380999834129,0.0597068907116793,-0.03995179013856926,0.06497451341893876,0.06532675710622551,-0.10748507233622707,0.12447842988868889,0.07272160162490747,-0.01004629911974208,0.05150387718876484,0.09343246444862882,-0.13209891061075532,-0.1651036417727584,-0.15231656146911715,0.2491808743850907,-0.13827888424711693,-0.0007522526342807684,0.01354488031019621,0.04762137506156929,-0.07786953075194995,-0.059830848756604535,0.20345366457706898,-0.00880718813133462,0.03838231810914935,-0.16436658240484273],[0.13607491863731058,-0.02546490730854127,-0.13508274355176006,-0.03261373212699152,-0.04940145866774155,-0.1165594766523888,-0.05499745161325485,0.057191424453494094,-0.03135309485042815,-0.19471304053009658,0.13880981686888705,-0.15416687264096077,-0.0016430975013440863,-0.14548787809640962,0.0830577849991983,0.11934314510312595,0.05739707059000476,0.10609574483375937,-0.048309638787426425,0.07008437726041618,-0.14837052836137288,-0.13748443580571382,0.0327455597145913,0.04102113923204304,-0.04102616193505054,0.045877800332026895,0.04751711234410775,-0.05899984826243017,-0.0265578946541932,-0.20374348924009905,-0.13784530516657495,-0.13925145628113395,-0.32460980808896395,-0.017897069316035977,0.055736416991390196,0.06273883700794224,0.054256389008847314,0.05723833178671825,-0.1235115048537735,-0.05169319007584153,-0.025503219526204282,-0.016146088263520313,0.03635393768723695,0.053815152262320004,0.09183179103869452,-0.015198640029111669,0.06398383721343272,-0.09609644070019227,-0.02467989581436597,-0.06986528349501113,0.04469184145971737,-0.11957179001705281,-0.011763816109346492,0.07570330071822605,0.08856232231110012,0.13141519193342893,0.019961974420737553,0.07602381667832132,0.05340708471136697,0.14649413110096854,0.0008415502643087052,-0.33692209640339205,0.05273996804642969,-0.06770559771562816]],"weightsInputHidden":[[0.05316938258927958,0.16672341095171964,-0.028936110702141443,0.122416670495347,0.00344843857600467,0.029097279973187107,0.0811071372937612,0.02086342230564444,-0.021232565107867536,-0.015358421558758373,-0.1070257287943059,0.03208932352633416,0.03168813150668923,-0.022290301041841147,-0.00026618377366844866,-0.07139882482688985,-0.0023694287160960174,0.08182784133879374,0.04584113392300512,-0.0013040916845725931,-0.08109777744310281,-0.051289446460291155,0.09040115079178422,0.19792672817758614,0.04661995631589614,-0.003052708664757352,0.03467001191510527,-0.06697693286164906,0.049513957972219,-0.016810698301778376,0.07449232156421572,0.043922012235711023,0.014909865785038421,-0.06954910538719834,0.07079391463364294,-0.024559190225385746,0.03339433053814706,-0.14254057821665606,-0.0590300510019205,-0.0117482493469723,-0.07418874099505876,-0.04081807935631903,-0.05585318091693921,-0.13393092678256577,0.13737789113512658,-0.11291603157706724,-0.15614657666696494,-0.00773518268372574,-0.0669662503283614,0.03780349954272158,-0.04463752597575889,-0.08486011722522666,-0.0554217553862961,0.2339540245363731,0.05021505575106085,-0.14855304626169014,-0.09922793515936683,-0.17921178011217334,0.025834342374638428,-0.05448416930994698,0.08314846289514416,0.11374036466677315,0.11989754775733293,0.04168045679807144,-0.14317792281777514,-0.052704545845073114,0.20848423187372994,0.02483689769929795,-0.06578581937967203,0.09935827859198254,-0.0006427483182299446,-0.049978444685193676,-0.0048532265336252685,-0.05491319363605395,0.09742071301820063,0.09257439018186958,0.013114844013846164,0.11457798243985527,-0.1444234809096906,-0.042541367792774225,-0.04950682896110833],[-0.03903864666672367,-0.04117963685897817,-0.14277902475631837,0.0207065576688962,-0.023034977063761362,0.02488590287688781,0.06100605985352609,0.11080274453452975,-0.27948469555999556,-0.08830498880222006,0.0620343420287798,0.11053302499423837,0.07876221855350196,-0.09025546238040473,0.07580167705965997,0.05185927419703284,-0.04694579201102904,0.03515906844347494,0.08189042103375155,0.06475768809161593,0.09920794042600699,-0.07855185082822438,0.0678854168659715,-0.10255974063122592,-0.07424029492412203,0.02503854241332402,0.017108662951661694,0.10578757905045061,0.030895697737050337,-0.12740767383236723,0.04713810208544865,0.018598225557363388,-0.018753510868589323,0.06040896335850931,-0.10938326743230886,-0.0214140817813971,-0.07245361799872609,-0.08774546938116277,-0.04755888601962964,0.0070660839443922666,-0.10816105934952358,-0.23921845806269304,0.10081633371585835,-0.08463722385659281,0.05764071805715898,-0.07928077951149395,-0.07251985359455829,-0.033499890312489344,0.08802645727219671,0.1286470002557011,0.032098524605728124,0.06110673640713986,0.02777552436775658,-0.021654326159171542,-0.08366905620730013,-0.09444334158841025,-0.09012992205227846,-0.012381346429221169,0.08107014296457442,-0.14062984707296555,-0.08613677834509606,0.10997804512523777,-0.008182048398826936,-0.051593038064250626,-0.02917829557148311,0.17304574528082553,0.015249229326711463,0.10247594151007866,0.10818200650689261,-0.08573844780408985,-0.17053055456279753,-0.02927983795404067,-0.12118525944459628,0.022510383295426338,0.09812192847316438,0.11695963270192983,-0.014168457625063184,-0.034564349815562195,0.03053775588867984,-0.03258062402143357,-0.06392189198332629],[-0.0016480339087256357,0.24782901881646957,-0.020901182867036613,0.17350489621566934,-0.021265251885093383,-0.007037414657539164,0.03987498376853577,0.055284946232758626,0.0008969968829895109,-0.09000954315183365,-0.11051805369913566,0.019142647669087545,-0.021599266649748032,0.0791234438886173,0.0008411037425234663,-0.1222063276625281,0.003702412668446389,0.10757430747397341,-0.1103779432536643,-0.057032236709323,-0.006082175224988216,0.03563447313012089,0.00828789141506806,0.10288372194727491,0.07242071102610691,0.07423035867409351,0.06613877561159812,-0.06865344043356861,0.07120659916908827,-0.018957729588463236,0.04745909487918081,-0.27411825415894975,0.0011925045465926542,-0.17497750840331777,-0.054693293039170025,0.11277143637560898,0.08914857133514115,-0.04738456600091019,0.09991332371009405,0.10663818996153761,-0.05867778094023011,-0.07246079328729646,0.10994700554667838,0.10192950812207982,0.09255778505239357,0.10700594912281933,0.019411775694009568,-0.05249222005652466,0.09634041806019727,-0.11883488126854455,0.052789746751725514,0.0585461630882227,-0.03707601547870442,-0.38800310908505675,-0.14981232191638183,-0.04051684554972905,0.11516650979999642,-0.06948056490620484,0.03226326110651755,-0.1360353411331003,-0.02459738861505341,-0.05745329193537848,0.003003766313741983,-0.04797489599931095,-0.28278410290416767,0.0004035974251781621,0.051882003616857,-0.027085487677916558,-0.02744278268629234,-0.016220447291528835,0.03665464054257383,-0.0384502039362059,0.05652885967294718,0.11265450175292623,-0.0014750815297790583,-0.09155143086020169,-0.11009296506328828,0.11210023372150926,-0.04003059257401962,-0.09306468535569938,-0.07356061452861662],[-0.07810597161950772,-0.019591265423288227,-0.023932896536545737,-0.03870534430075778,0.06459147961444883,-0.1007539460316245,-0.07748202714910055,0.12457265264293918,0.171291257420494,-0.10024679183119024,-0.01980048964696577,-0.09619220604829447,0.09194203065627027,0.03397820838746086,0.046222305464610855,0.09914883884777326,0.031525825995388085,0.012894017757226624,-0.14436194390135676,-0.03727525408873252,-0.07179686032133699,-0.05069661135045479,-0.15881857338754984,-0.036064887618481,0.09724152788388012,0.11844399221425889,-0.0033740771040989583,0.06219101240550777,0.1061859956221937,-0.10016379101764507,-0.026186911297430643,0.03985020124601232,-0.0805992166410649,0.09924641326828675,-0.06916842638021604,-0.017754177556919205,0.07197389240968846,0.05451907565409753,0.058254534305315,-0.08761934242619351,-0.05239302893516442,0.043192170239849906,0.0898879186317288,0.0333846751131954,0.04206229679555208,-0.08951693232426809,-0.03444822529353813,-0.09391724105095917,-0.04993444647986866,0.12483821475154534,0.08104702808601247,-0.09307651972502175,-0.031340720687161615,-0.05859652320375565,0.04892293519027036,-0.26263948362136774,0.040262771808081355,-0.09799031481999794,0.04363590466326782,-0.11213868577770034,0.10150885317156996,0.10253311413471877,-0.01095788727235675,-0.07347192405444446,0.026564133019327467,0.07555350825552316,0.06976917943330503,-0.02143750578459721,0.12185559501063206,0.022321440135545798,-0.10130461294876075,0.15226739061785843,-0.10677923092430398,0.0972507711015001,-0.0072308851873758035,-0.06570329950266701,-0.02651180755424971,-0.17614805871793404,-0.16844996772793241,0.06984631849197204,-0.045844281860007524],[-0.09298588881497385,0.08014930832219462,0.07215196506183794,-0.07754444876230664,-0.09743106747526002,-0.13922702253354738,-0.10945398997057097,-0.05890346350200123,0.07395887790015528,0.03808156117036229,-0.11294759307396571,-0.037222829871135794,-0.0543182480493428,0.03226378153222839,0.0027021279577510303,0.042317359853127956,0.03108847829309477,0.05253666743889087,-0.16111351422533973,0.11222323727635614,-0.2781743143129612,-0.09644891394080474,-0.04956486246101504,-0.0025031037669593463,-0.04993358353522851,-0.03795883210314987,-0.051051025007467624,-0.01229617026408077,0.031363022543624275,-0.11181406344017397,0.03240286197786231,-0.11760937736477566,0.20624951299636113,-0.03587397608745124,0.004523076640463658,0.06905900209709954,-0.11031161250054068,-0.12020355939616273,0.13957314086868222,0.06728100069654076,0.22712637127939475,0.02707577041498123,0.011834715632336705,-0.010523046835289193,0.002976771235278682,-0.09429168754716116,-0.008434525445390254,-0.1055928606594483,0.2937290308776337,0.07782353986394593,-0.08672338657171476,-0.09476898865752106,0.028658886048735326,-0.07657555245240012,0.07780208240656782,0.13183597191737906,-0.07157722481572659,0.1132303965488057,-0.15426822841674964,0.008689918295027334,-0.05656883233928563,0.012013215552990434,-0.06071914635398658,-0.027374699924984473,-0.06637608674698887,-0.0840234913698464,-0.1935582699950624,0.06565261770917578,-0.04865336045024521,0.1988754626864755,-0.0057820827883999955,-0.11047325813239636,0.04098276096275328,0.05555237140393665,0.0871992687525849,-0.02205609662868697,0.13908304518388243,-0.0723687943402204,-0.028410077726891435,0.045981823663342275,-0.06761803047026059],[-0.036659619401556605,0.10481495715246929,-0.0862760555040769,0.03759551465954358,-0.09933784167422212,-0.040749173031144365,-0.05639346424320377,0.005020887729423357,-0.11447764680003104,-0.07605765666913589,-0.02032212026141397,0.02674726899543936,0.043455987424782024,-0.03335450997938628,0.03258035151123643,0.04443920032550236,-0.012117580762789248,0.11173443732750847,0.059288836036492064,0.032325238053779425,0.09725715532004273,-0.0907307118337121,-0.11746294571765042,-0.01705499136262623,-0.24865569081110006,0.20334065042537694,0.0603637871201906,-0.09632969463327833,-0.07430002907037563,-0.11044026836554426,-0.0709645975124661,0.13793087400024648,0.09974013442238168,-0.07957704236322091,-0.03588928640426744,-0.26280470100497694,-0.07970156216791072,0.07900764254006662,0.13662074909052743,0.07023415313631025,0.06534335540138439,0.08981448366351799,-0.07429949294723207,-0.1109847567248483,-0.1889619403449554,-0.055233746130808566,0.05152822011880647,-0.07721678126546103,0.06850234305219008,-0.05418842412718918,-0.04966629470179888,0.12276092855264674,-0.002611155149726319,-0.08228332199868903,-0.05799706458542973,0.029131738169122002,0.028252638145790588,-0.006197410344449152,0.051573810033517443,0.1266270953153317,-0.09194569654486932,-0.15199328336279683,0.07876274945654942,0.09312922036831611,-0.15380835885284022,-0.006085745402414689,0.10805579526515993,0.004355144538512661,-0.03762621323400057,0.08306068200054866,0.015013385654467318,0.04667719892030004,-0.015609745760591227,0.20469132166050405,0.06942898605656521,0.06500827243667362,0.2884242412623488,-0.08191657678826973,0.1852502633334188,-0.07340873069548084,0.06137577128777077],[-0.05059655623816345,-0.09622883040463369,-0.06154460030139214,0.05546389736875444,0.019972323298425135,0.06996471413729195,0.04509335138437241,-0.002289337284809459,-0.004923521580414097,-0.038678593099971445,-0.025631579404576922,0.029764509242456456,0.05144004242293215,-0.05836221381464376,-0.09571284447693523,0.007976016154377073,-0.004071440475640239,0.0663358377509871,0.08008562353531679,-0.04177993191015605,0.02909807063645345,0.06859372659650173,0.03528481418689643,0.06561064529256955,0.07615202646917069,-0.06703004910685081,-0.000846988700870752,0.0038769622286601514,0.08598140984405736,-0.09468955474061837,0.08606095562372347,-0.0421855314346569,0.011441629458180854,0.2191631487227789,-0.09266671900417243,-0.0955545193027811,-0.03252673346278463,0.023632879282928097,0.1306847154761173,0.057500843866939995,0.0687048183703903,-0.09950664535631741,0.006255460133844195,-0.050796203508797114,-0.102065025749212,0.11729687239614339,-0.038706655253322265,0.01843623344413537,0.0720963811455265,0.10578724616183413,-0.030524453101828466,0.03636717456109089,-0.04915889175573806,-0.045712673984589614,0.014912275394196779,-0.0419071340525208,0.07095676857331211,-0.09917205904552673,0.09292587171493938,0.012212682999024489,0.1115697270673499,-0.04517925627648546,0.11580527388898151,0.04873144343879061,0.0011691325639433725,-0.12989967216771392,0.17207709360359466,-0.029680551029270228,0.18340911735397608,0.14032441429369732,0.032580867427572914,0.09504564881006997,0.12376757056573783,0.07444205563408236,0.014045202517764397,-0.04405794366184224,-0.06064442464324197,0.08941865339160444,0.13065297587114857,0.01743723941854359,0.034994214644608675],[-0.04905022301714655,0.08576722168114359,0.01998562392237261,-0.021568266375600373,0.029248783501483452,0.11595726525885948,-0.04854977685011458,0.06000666943932741,-0.05479715416999854,-0.06619867570499177,0.08679041829952892,0.005866017964475905,0.09770954880425989,-0.16118035718216792,0.0844273283806151,-0.1473409197437788,-0.05307308263270217,-0.03389066493657022,0.004549675161161382,-0.05575615405172576,0.0972592649355918,-0.07847506743005925,-0.0920389466446499,0.01405196506571611,0.042024316692565414,0.04705938287538747,-0.07763408581514795,-0.11549441218883848,0.051649939000024986,0.11018301786082157,0.03512384252066799,0.07648655573803462,-0.04820145071325254,0.059348230355397255,-0.05038974955992352,-0.1008220847070982,-0.06730101680489071,-0.1130381614995733,-0.003445849077433422,0.18680994005460688,0.03116985913138814,-0.02406923239086727,-0.07143461709116966,-0.08071019542437449,-0.0694720483835665,0.18549236335812555,-0.05455014103931746,-0.09608642419075167,-0.08373937271507997,-0.026378936991374145,0.02701722964077441,0.10334700568939746,-0.09840847262956214,0.05413999552554507,-0.1002906690962615,0.07671106488495537,0.0018564745887483796,-0.1902332178079342,-0.011197508929128883,0.011978754642011286,0.10248025569950056,0.07692332070633683,-0.0013661256837426397,-0.10256877567050926,0.1474987496438123,0.07726510766195531,0.01323146212277629,0.11650949616881051,0.004319126832075681,0.08663184815132302,0.13329960107340366,0.13675377322827648,0.12164434240693138,-0.0501252315014492,0.07169626319353048,-0.08704127470596792,0.030045919281220954,-0.0415375856407166,0.009652693317107837,-0.06731140008618304,0.0639919071599045],[-0.06149710950596872,0.09436061835388684,0.004698097290941923,0.0764774250110411,0.10468456287058837,-0.017954441617039744,-0.08475136222066788,0.1332647176532576,0.06590674734851013,0.0664288735219819,0.11013312138580078,-0.09729131259162871,-0.09046427662256552,-0.24373690400671677,-0.027217558217151158,-0.0014441217782632139,-0.0805406745328103,0.10275747584895567,0.09598988706771028,0.0231747499204702,-0.08002837802964897,-0.19685306918186044,0.032518963776819926,0.04730222503284265,-0.04930454981895629,0.07172169742396657,-0.03391627743530406,0.09004964705267277,-0.0363292015233553,-0.0008002402308574477,-0.08367127876632004,-0.048378946464128866,0.07495810385821368,0.022315538675162717,0.08479791968800535,-0.009977358577492292,-0.06652627141426282,0.055236394549128716,0.0011355201794120736,0.11146933534091194,0.05885972191867914,-0.08566360436868607,0.07465264752664791,0.02422664544882153,-0.013795809149280221,-0.01547531414686949,-0.04170705547442301,-0.011730557053958052,-0.09560880315524173,-0.11129578929662945,0.03615982095777718,0.04280441710670443,0.03368953988862308,0.07722522676406178,0.15917685544021432,0.03765780018468261,-0.042061683475711764,0.010936596023463009,-0.0782575305064613,0.10044806277894266,0.11012161719117224,0.07193914677626181,-0.0767420047034099,-0.11035730888666023,0.22703653470391827,-0.10826289451524941,-0.013826545481992896,-0.02665028029039071,0.025877881973666254,-0.07871143787335355,0.051928675312118346,-0.029659145147996037,-0.18208120654487034,-0.0989798248255888,-0.06408591097190905,-0.013349842957326703,0.022746628613536633,0.014733183727294395,0.07012863515386902,0.06937708792848843,0.11267725594249364],[0.05291728897143658,-0.06082808518624609,-0.04639166675832084,0.007056419087978347,-0.0946883931066288,-0.09642442738879635,0.0671536819421308,0.0024172822288479993,0.024469445374179864,0.060845201048862346,-0.012339747892796136,-0.05705555792178872,-0.05224259092569274,-0.03294092510147212,-0.014982326466919672,0.1977191779885704,-0.026277258650266706,-0.1088134807169714,0.08972742718448128,0.18108495127490135,0.22962053122519827,-0.1011450210325298,-0.10162394727445032,-0.034475195105996094,-0.07315009556345237,-0.14630248633341625,-0.11088793222714785,0.026713239763394403,-0.01346088335376603,0.14470333099414748,-0.04516240610608856,0.05316646273862238,-0.011697795041546622,0.06129191976860821,0.18627051670445824,-0.026368465661484885,0.11462620916638333,-0.03675265768497028,-0.0925111139702413,-0.16388107373110994,0.05126239273272258,0.11677639773405754,-0.1275150057905695,0.042419259308072645,0.0018783340507879632,0.10065244697148584,0.08029872951990212,-0.08380790924927968,0.010800406036709164,-0.00206989485265178,-0.027211955960655714,0.11424923707242142,-0.0290540225592412,-0.04814165989783314,0.08867711415103545,-0.06112895614319347,-0.005880207072814948,-0.06511172036074539,-0.08150735328624414,0.08983782887107813,0.02623817422528517,-0.10938493269470138,0.0017661291309164543,-0.011355017019303894,0.08084543078571135,-0.006993453789406761,0.059268795390761554,0.09455580921803595,-0.08020915354717775,-0.06743035841786349,0.06750902069580228,-0.06044594999009195,-0.011220255667621346,0.12332987356477025,-0.0830933644595192,0.18338645072171567,-0.04208627972967916,0.026592533526581037,-0.090318007880293,-0.05910518151246198,0.2944386071489744],[0.184308087991809,0.07511301310403615,0.07223827118028955,-0.012004522028659861,-0.06577064688137482,0.049695178041598995,0.018367588166644678,0.040828189212819145,-0.06588149610236975,-0.10764858476398831,0.02560197949161304,-0.002395555661685671,0.06510649636693325,-0.03414277919385512,-0.1025821426197424,0.0813021658801061,-0.044001451033000176,-0.01367291096773865,-0.1038432430938662,0.027547973765631426,0.11473734679774722,0.04115844220547626,-0.10075840742861998,0.07423054205477837,-0.04744776998938925,0.16564082283784864,-0.0172288383239769,0.004539910429626578,-0.07702591139631827,0.31938032336545585,-0.2653645043165847,0.1374970752307982,-0.02325022842394399,0.041655114960595194,-0.005640705795922642,0.09197935630438715,-0.09042014822040226,0.08670098886273664,-0.03022264619868032,0.10371918966281561,0.2713411399001894,0.12393672634780692,0.11706409423216121,0.054609910028241955,0.1049676062932673,0.01028852831012953,0.09790743572692426,0.09934830629473458,-0.0702436964051957,-0.11913609794300949,-0.03680148464859532,0.05594394719426778,-0.10648134130327595,0.004029388285302196,-0.03244089639577028,-0.01641511240259439,0.06740829699526096,0.09293397765137706,0.08478795005169629,0.05703387454031068,-0.05449279921641274,-0.15027509688789212,-0.004240081058338891,0.15408618724537484,-0.046947742126539654,-0.004091885128554354,0.10225243243179707,-0.047669547581209074,-0.09331529591954092,0.29657583936114923,-0.04924825220940146,-0.09574084002955657,-0.030686002280459226,0.08926035154565758,-0.015670467313191626,0.016069839721825088,-0.11078421865518814,-0.10017826987034484,0.0313469131198955,-0.13707086124548967,-0.031302084742655806],[0.026775058689366846,-0.039434822416856245,0.007856901788062887,0.10501455445968871,0.0043303989501789,-0.04834344606002542,-0.10342741765920496,0.11097043803066646,-0.03082549718016514,-0.06170869977365536,0.116011621696958,0.08196121623117954,-0.09557210056430486,0.10631263557750552,-0.08503463216181505,-0.12691872978481328,0.01988341736696441,0.13021935545583044,0.06973076589673552,0.04372577564216426,-0.050210450810735226,-0.08203817018152147,-0.07609321398989019,-0.08656571190253103,-0.07841361863708272,0.28154115650756395,0.21923801347407154,-0.026534750743522094,0.060515437667324326,0.08016043131411464,-0.0002241379130151638,0.02620337490339105,0.08599346034147325,0.04183393816666028,0.09410757280228503,-0.00004306086101983231,-0.05571638231654336,0.014556879534973923,-0.01683283638847212,-0.08870551400770724,0.04908986525677083,-0.08050733323677578,0.06463915889551068,-0.010968727047182974,-0.02331967994418061,0.09747839273425006,-0.007200884886435834,-0.026534152538244173,0.06614203228986815,-0.11086611999712756,-0.0692332944278379,0.005681576661069854,-0.09229827892196632,-0.022582104360862956,0.11202831934223557,-0.10576731010505906,0.03863874551985806,-0.059293311673328804,0.05813977421297463,0.067985441476552,0.06711937909411331,-0.054354917846340146,-0.0471871676731375,-0.025862402879452014,-0.11957560652330261,-0.012389260863500213,-0.08938277987562394,-0.07598082949786383,-0.03276179907982946,-0.03693154729463009,-0.12079812409650571,-0.007346013389480506,-0.02537932420240944,-0.05417191291854136,0.05071573816513998,0.1425969142526684,0.042072174479510144,0.23351909643657154,-0.09051320184580419,-0.09064928361335008,-0.2157022879439083],[-0.0892571690595375,-0.05336043919002419,0.04812879227464771,0.050893522406537474,-0.07369711804661151,0.07653804585962021,0.021130900212698603,0.0687080599137444,-0.024687660977766236,-0.13733016382390337,-0.06158783142813998,0.072278694151842,0.11629046738302566,-0.040633894681912225,-0.07130815320009805,-0.11041241668235545,-0.04941885865673634,0.013894898702281925,-0.02981723310935542,-0.07190849062744284,-0.08262795832981917,0.004560060878079765,0.06130652796420361,-0.008091744719477757,-0.08468296409047484,-0.06638911598895986,0.08563061467317509,0.10124368353297343,-0.06343998928290581,0.011883697259448838,-0.11151015965163019,-0.01683467745066604,-0.036529629779286914,0.033586980137642226,0.042853547819443706,-0.01445021970268458,-0.021015754460122393,0.043755585690383104,0.08641243131744608,-0.05706688641576247,0.06996439717164372,0.013875607361300233,0.07660878485398866,-0.0016322703165853074,0.00662830724883949,-0.032866585359396794,-0.03619646856476932,-0.02256447582158379,0.02852723722040119,0.09046356433666494,-0.131737590834437,-0.20069843890856362,0.00047580999282323784,0.0927410359298454,-0.07989184055188787,-0.09899526297998702,-0.009606276527341006,-0.11352480083761426,0.07368919931585519,0.013070648141611962,0.017827525321449846,0.044203949204247514,-0.0985451424198141,-0.017995155141716842,0.16491725049040093,0.08240837353021609,0.056666146310130304,0.05579013525889026,0.11443448829173161,0.022746085580886102,-0.07296002881728116,-0.12631374869579937,0.01630076090843971,0.05485825047331058,-0.03320569687878293,-0.1259616191921062,0.013434224785690379,-0.11202429745248489,-0.04121250778748751,-0.026242442500533706,-0.08792554964993522],[0.11016504057041517,-0.010098431918442624,0.0251165344017919,-0.038147650225180255,-0.11701612269924522,0.03063786921253112,0.1083746642255354,-0.2505330842227764,-0.006048114796184569,-0.008907384964945057,0.11310441388803189,0.022949330283328594,0.004386853473905422,0.02918774667813598,0.18290680406572554,-0.0972614117285921,-0.03908274419823466,-0.09441932660125002,0.15145591186823276,-0.09493662773392944,-0.027253867111958187,-0.08350449502629095,0.08278664527791568,0.03247087736682748,-0.049571321486783435,0.07079996201592186,-0.3572628964847313,0.10501621854519491,-0.02363432447875813,-0.08911189248214842,-0.05774831643035396,0.07022138645959318,-0.05830727914490871,0.28009208041681855,0.04884742569021042,-0.11271874530808489,0.014042773244069674,0.0604517126037767,-0.009643178585681412,-0.09780730520262083,-0.014392725311718488,0.034613713044937246,-0.07816254744042225,0.033021952304546416,0.06921770600958234,-0.07120039170631672,0.09819047045658884,0.006899956910615037,0.08453230532601894,0.03205023179712816,-0.17392857613113263,-0.10746660935093864,-0.09846934858301476,-0.06617795598067679,0.05280220363937434,0.0504891537276985,-0.03112960947836036,0.09263131952849282,-0.04823899312965765,-0.03677094980176016,-0.07568389948951726,0.08818456815077566,-0.009893780701136811,0.09095739782829225,-0.06869816571079183,-0.0000403129277730245,-0.11354348529419164,0.08991270181671414,-0.06700488453303184,-0.06709707058097755,-0.02079923544584256,-0.028155565807820592,-0.035294555711878256,-0.03124032463006847,0.02518627207466729,-0.06689685450013394,0.016846969255015238,0.1052700704369986,0.056643788762194655,0.06663967612508528,0.18987494260817891],[-0.012467270550554375,-0.007824221218022087,-0.09089772513232411,-0.02323366953633491,-0.12431245230076934,-0.098903706847502,-0.0808833096816903,0.09303030068645647,0.11648927808799757,-0.07886580904186707,-0.09109604809154803,-0.1149548597217037,-0.03703891367399189,-0.017261849039469833,-0.10762828511909238,0.07168912356652579,-0.23005739632770364,0.09826775878623537,0.0313047498683643,0.07089452810677392,0.06059860445462514,0.02274985857320444,-0.09229894852919736,0.09990254274924525,-0.10226836809776858,0.015179891942076378,0.07513133504258931,-0.18343106805416978,0.11322630618666615,0.08540342080603434,0.10572299689503185,-0.09175245128080987,-0.10042382478238511,-0.2683197052808958,-0.01496542723441665,-0.05273889441329259,0.09775304153974991,-0.06244244688749534,0.0922441286232678,-0.017660473307239508,0.01490960952850824,0.09644809372735785,0.02310729240763844,-0.030319316191253876,0.05307871273851546,-0.23041460252985096,0.12854980489827303,0.04858474355129285,-0.1164396876143382,0.09227758062746959,0.03813646767310133,-0.11372041547669452,0.10278054476512401,-0.09369322158615874,0.008200823492295773,0.11263972365587943,0.07987437096965934,0.07763900819584589,-0.08674022317861282,0.07429915394297365,0.005844918138343902,0.005519426281071492,0.061363447323381136,-0.015366189833811375,-0.0279443143550851,0.051304476274300556,-0.05660616637372335,-0.0256259788554792,0.07069669687507943,-0.06668166591089107,-0.03293889565526409,-0.25064953621036457,0.05419379781602258,0.03543214379855473,-0.08719707164575072,-0.07894962270349545,0.09362760050974185,-0.008588272238378592,0.048882190231319664,0.04794127565493563,0.027180819982438143],[-0.11226413544556275,0.07357631079976787,0.002080559687373773,0.027508279802869837,-0.06568404671102024,-0.08222533666514416,0.1306011741395691,-0.02774467952655653,-0.008745126570494059,-0.004901177709584039,0.05359985756656442,0.07851061292962794,-0.04373133512425377,-0.038257021071009444,-0.08695092332316456,0.14047142423852113,0.017400319836972093,-0.06831689518069148,0.14431889783892166,0.19377601156242133,0.06973314345640877,-0.08744784641763106,0.07341036716351651,0.11614685741843753,-0.0747525390422683,0.07484811234980525,0.04176423746149205,-0.05303137826875932,-0.1035273491152356,-0.026674031275253807,-0.07509726769066699,-0.06659128137333735,0.23859333908923094,-0.04818240829882268,-0.05904366264643184,0.08794453173151426,0.08069045077794551,-0.030992724093670383,0.013585967382159642,0.019116135786635954,-0.11468593366891588,-0.032623236259618923,-0.010741707297017424,-0.07773057498031931,-0.08222004696229901,-0.11697592315375474,-0.033002038762396935,0.06658201184531119,-0.06258685911946762,0.02665462778112889,0.08358882891222295,0.12686827563247854,-0.08615928782081207,0.02516244301312193,-0.06135402405377558,-0.10033902264210214,-0.07041829369174502,-0.019785756976501232,0.1742442866621685,-0.11115879543588993,0.057713068196171474,0.05507849646673995,-0.029799857372587706,-0.08963620888991607,-0.04785079454171546,-0.03879487508878953,-0.2962682326010388,0.07084368407372763,-0.050601771340906154,0.051884355337918714,-0.016234463451753015,0.039817175286526486,0.036576141374590705,0.022514696167291546,0.06252158890632202,-0.006482343611218327,0.014721303923908564,0.09699434201908297,-0.056935606601679775,0.004242188939491016,-0.042443017707410526],[-0.03734799076030023,0.09394659982716651,0.07125220101571748,0.01146278727552382,-0.030085682846715537,-0.032982730508631666,-0.09812123021207049,-0.013689815422246366,-0.08498064898442668,-0.09780423481660841,-0.017720763705546302,0.0646175313548234,0.08231802491412889,0.0032345184026119325,0.10149868738337456,0.004346765170177062,-0.12109433225136518,-0.01965596981838076,0.0623350090172211,0.11230823090491021,-0.024692899331884264,0.025483642256202654,0.0735905841957985,0.1068871645195043,0.03430082631123642,-0.10253218974384883,-0.108065767570282,0.3192390933731192,0.08935658323805422,0.02122889474461597,-0.1076921461554253,0.11104072511796029,0.10194199108310176,-0.04926720876581804,0.11358247044253567,0.025788698031138438,0.11731636268761919,0.09418966787605428,0.03572051928220757,0.09523492581624285,-0.015581387005464754,-0.22652483424062966,-0.03610800327211496,-0.004796026606253683,0.0521225072344671,-0.13215311880296432,-0.07849709292703769,0.1534645390423138,0.10751097379302607,-0.11743808951562631,-0.2057375369778942,0.1097304386998727,0.012059006180706313,0.0048360071656145896,-0.08438728933168212,0.015198645313167121,0.064745412486709,-0.016070426788848787,0.0675580174358739,-0.05384152758187216,0.025139608762371694,-0.21675956777720526,-0.11060245919692537,-0.10098455498927834,-0.06005643082965946,0.11299027750398354,0.0659864623768765,0.14999798686425025,0.10601519755137723,-0.012821008932725517,-0.0659080560547642,0.11428117694658092,-0.040078273527630597,0.03051587452382548,-0.04948224276514062,-0.004475360261681064,0.03999677100049492,0.031641604357552935,-0.03777572926614343,-0.19131412308289783,-0.03047269828088767],[-0.02102248208701159,-0.10509868202264007,-0.03458369105530749,0.04476394531736379,-0.21162419302459,0.0720644734521888,0.08151139209166268,-0.002276232255391883,0.033928969675560104,0.11526688302834273,-0.07839219571573851,-0.04996092911742167,0.07679440141646814,-0.04370717528925942,-0.05400747747822142,0.07325999629858367,0.26006435962131247,0.17928135749704494,0.057832907848834554,0.08195080592801425,-0.025569496584633127,0.03624474434051994,-0.0070437822796892155,-0.08257232113795597,-0.0672752017249717,0.06919230529020015,0.061731255893052936,0.013896664107125704,0.026444485272756394,0.05272464152635035,-0.09063668865584583,-0.024081564207059324,-0.020184788298183005,-0.07649388983171378,-0.07344630798609142,-0.11987447694591848,-0.06149497187669361,0.09566903471523616,0.034746786462151284,0.0651894864777515,0.030208989242618618,0.03930101741221168,0.07482591813875737,0.02206613980574598,0.11525936346565839,-0.05249909000822981,0.05618137086473333,0.055853047567437905,0.2693759978998803,0.07811056419943298,0.039889600218449235,-0.007241039222730705,0.060145604919900696,-0.08910065909624022,0.18144864515433384,0.0014827185348649222,-0.11401704633657964,-0.0943458107263109,-0.003339850655929004,0.06006749383673039,-0.09900479224072749,-0.2329643127092581,-0.10575263587995276,-0.15875647268622067,0.0060036296917951055,0.06783031755677671,0.05377378693886095,-0.07260300256264254,-0.0632518372232859,0.10431376512871483,0.10139470286011892,0.013217389253901025,-0.1143983455029363,0.009610932294822664,0.15537965251660077,0.05762513852771918,0.022465785526984826,-0.1644507241221956,0.21052084488929793,0.11384592828876569,0.09683723652710086],[-0.12289822003815373,0.11403467334470625,-0.10949445986690881,-0.08126603155697322,-0.06704211750529783,0.07842901099895942,-0.009283488872186213,-0.22432205696078103,0.03141894524349543,-0.000025854147089257837,-0.08947880204080454,0.048884567957992175,-0.034278675019484735,0.03791442359211094,-0.04911445496130436,0.12968979292407773,0.009232747950809068,-0.1072241856599016,-0.04773672581704783,0.08309574875554801,0.10943555823909291,-0.002880554130660032,-0.17661650851214888,-0.0050179647654189545,-0.03589148446054612,0.11540952014563773,-0.058277662948932205,0.009170074932685948,0.06439669999744653,-0.08361776391850641,-0.2133753572840533,0.04613135897942155,-0.09065582317979916,0.1412893177812797,0.06318638618366897,0.054687681622171615,-0.12352125583413995,0.08975784976905192,-0.08818679356279868,-0.052994662417044994,-0.04932559856469158,-0.10142218576708004,0.055276622607537476,-0.04169573233553308,-0.0007309864518137479,0.03747386693886325,-0.02753043923436793,-0.09655121479887716,-0.11562803720220692,-0.07065135610845323,0.056090711580870645,0.23796642411910682,0.11577384767335025,-0.07626983423643285,0.06633608400018295,-0.07991131407954383,0.10528427792987063,-0.11271122226411802,0.1064577463304109,0.05632450412829993,-0.08305055451507795,0.0934625698946781,0.09688945011671249,0.04218584317126216,-0.031464894567331037,-0.10783271730710359,-0.011999714934329232,0.0681838814867495,0.08893077874265969,0.033976383641445874,-0.06452479182786275,-0.1154857004071753,-0.0390165995943007,-0.22889415173680755,0.09696297139855903,0.03255354625963944,0.1088591103069785,-0.0614109361789636,-0.11072913283420897,-0.001301237812520809,0.04513123496707747],[0.037914798391083894,-0.045117851935913895,0.061634548331015226,0.021264917081224126,-0.006428703268848287,0.07618802691084023,-0.0796370439029599,-0.05156050192658129,-0.036434365279384026,0.07004237761656021,0.07576496325180009,0.019957023240582485,-0.08019252843262746,-0.21624075562570313,0.021717063625084215,0.05682492813967048,0.03994531404453206,0.10620077039722912,0.07061989335935179,-0.11663600430606902,0.035102694865847425,0.10871718634144246,-0.01373067602917992,-0.10278079558977551,-0.062121066310506005,-0.056847612121463255,-0.09991396197834827,0.003417785275735227,0.10273934997695121,0.02333951841023958,0.08961836243909863,-0.005374712635841122,-0.02382352330370372,-0.037025488030392614,-0.056797621683140155,-0.09490421275047013,0.09965875848459221,-0.07747610671635446,-0.04641954271652001,-0.04210444812727409,-0.010432173813069986,0.010864470592424045,-0.06912292611668189,-0.02900219642570722,-0.0421538652389866,0.06532756846068294,0.07030867949247303,-0.033492605369895116,0.021279354638498102,0.10232727337827592,-0.1305309693728593,0.10057160884039969,0.063622778594363,-0.11639238426887312,-0.020215460286193993,0.04848741967206774,-0.01882381391187286,-0.11273893366146609,-0.0862078110233223,0.028350767153230257,-0.04832662529433407,-0.11683338783037635,0.004224558500229967,-0.006614640745075697,0.11203987315074532,-0.10203695578573127,0.06594385877759373,-0.08516387638562313,0.10925059492738848,-0.09625369540371179,0.25909202820509225,-0.08258799516859229,0.01810596137088301,-0.0238544270322726,-0.04697278557378225,-0.09607698323131475,0.08688849026068295,-0.0876454670127626,-0.05993891869361245,0.06502751817807155,-0.09409454936586674],[0.04529435628128566,0.10457265914442834,-0.07171197076055401,0.041301935259903506,0.10718114998232553,-0.037636383484322,0.06601867945175999,0.051023016804133174,-0.06766278544224318,0.08208773084085355,-0.030185560887634043,-0.02143128479719945,0.0031257227013921397,-0.08829573964305745,0.09832583041719271,0.06328178829984424,-0.010544454122886123,0.048635799166668034,-0.09649006933249862,0.05380304517606506,0.03702791215538398,0.080087776630526,0.11502012452423342,0.209154682256518,0.11433892338139992,-0.03300409694248181,-0.015523330299845952,-0.04763162477387793,-0.06667787965440927,-0.13953862775549308,0.0760551008053079,0.05129831323969971,0.11096866628133126,-0.11007656327891273,0.08114958475472024,-0.03568057702399358,0.07667421091507978,0.07136746756447022,0.06148263489308541,-0.06280522028979495,0.056705687447327874,-0.07005610218987586,0.04931254605779453,-0.31511028409414177,-0.042869129897969364,-0.04940932766406753,-0.01249230012374815,-0.045440182524571854,0.02421489065593621,-0.009705655608588626,-0.022895111454962393,-0.07712349091165227,0.046176588612614596,-0.11808996637950482,0.01851649153101196,-0.10395722673758913,-0.10727618813659527,-0.06531433409574557,0.0313718346451689,-0.07533239396868482,0.034778045612479595,0.07482689868488221,-0.05717029958372276,0.044951787383653664,0.052868926174751356,0.06238587686081353,-0.008475021405242452,0.08120655552023724,0.1136242276814459,-0.0018550327987006212,-0.07412575656090616,0.02634510036079525,0.0197095212929887,0.02735368954925851,-0.10704377130439904,-0.020276453121895674,-0.09029538788595105,-0.08476849628297385,-0.009554853248593275,-0.03799639876544379,-0.12195246003196353],[0.04255490644068769,-0.06963539920570903,0.10558264710776377,0.08466507348383513,-0.05175845868480343,0.013032913165435003,-0.15491012995593226,-0.011109108276853508,-0.07596920053721283,-0.015509288176673896,0.19140519127151057,-0.02687014726742873,0.08861804479007125,0.0827450861493776,-0.15319024276922052,-0.012861246941146667,-0.051152157481220054,0.013691499795295985,-0.047475441176466945,0.03629463155556244,-0.07040463269179234,-0.03090128615026758,0.07055128123923007,-0.10941006073745947,-0.09259043453875067,0.012994629527651902,-0.04281084925187411,-0.026010549880005,0.17974231075948305,0.18480937150216006,-0.046714965833411046,0.045526399847177185,-0.014525699171199877,-0.04819617895735121,-0.11651788317969698,0.09959145267797719,-0.3153066429003547,-0.09418288235444784,0.021078478022829222,0.0868110934336093,-0.2193345359038136,0.0940235241412498,-0.052107664551945716,-0.050434173123876616,-0.10891572575605282,-0.02171485694007731,0.2940325183287702,-0.015432580859751832,-0.09483461737551992,0.10035895943593195,-0.08644125703423675,0.08215738404075772,0.2409900555349604,0.10588925058357246,-0.11528852187297141,0.03526251203243287,0.05559844043299227,-0.021475698056000556,-0.060149498514883416,0.021828771814799485,0.03762941953567668,0.03157421416547993,-0.0032552862921741903,0.09342399151694732,-0.10351203678289472,-0.08609096341870753,-0.0375531782821641,0.059188782901198,-0.07267512345949934,0.0996343476827727,0.015204592638529673,-0.007356044852618037,0.059730058456399754,0.0784484484245975,0.07574384007832792,0.046462136979769454,-0.06762364838324403,-0.36316568554754686,-0.11611392616343756,0.07784756968437388,0.0704644260651466],[-0.09816059619903142,0.19045895285895514,-0.09207830331632888,-0.05143515514281485,-0.14985792528349026,0.01757023993560754,0.10108382838928125,-0.12590123689455163,0.08929229250995245,-0.10510241110684929,0.039501830088861954,0.0714899667102162,-0.10917645702665085,0.06436266284757752,-0.056522863034752124,0.2840242218456262,-0.0927610292274901,0.0011941436731775913,-0.03451121834024746,-0.055342499398067985,0.08211117020282482,0.046401017996984345,0.03599238898590897,0.1043038157793991,0.062007079530889075,-0.004605233184383434,0.16537201038726435,-0.0037368533372991583,0.04722213575382408,-0.0374209269029402,-0.09827412365100231,0.08922385446415461,0.08323419804454865,0.017992546825532113,0.03306026075622226,-0.06911399275594403,-0.059688980304095876,0.01500747146645896,-0.10508736586321495,0.017475934501946556,0.10959034995149577,0.11555061153715422,-0.07805455737216935,-0.17178529030553463,0.02446160739603952,0.08028462428582422,0.11382639274628588,-0.0220811248315852,-0.06772692659517036,-0.0271353899105399,0.03223498772172588,-0.0007840959708148027,-0.057036933094358686,-0.035874213397616,-0.03974624040205797,0.10174190817712465,0.04875605135466798,-0.10162484566387218,0.10981068886445343,-0.023180456274870496,0.0003347281483213486,0.05506455478300558,-0.09590525276481865,0.09347602085792392,0.07731019930019752,0.06443478190677207,0.15208041185007423,-0.08305778209923992,-0.0005455279563624675,-0.07815311332746747,0.02587973197130021,-0.10876501280937083,0.06008577191955422,0.0057415440767658345,-0.03718397027587259,0.021065352407332576,0.012505254151798807,0.11110367875150892,-0.11664336944037007,0.05112191946028888,0.14472046141874023],[-0.10062576600794845,0.03665984625595756,-0.06206597146052075,-0.05519290246557193,-0.0225438709962718,0.1986730393553506,0.02254258444326417,0.10541922739260262,0.09743598199764539,-0.058019628998758774,-0.000019043161745625547,-0.08413591663168594,0.011308976822084604,-0.050558461648109426,-0.04293827064030244,0.08202493918905059,-0.0985538087968474,-0.0626078308105408,-0.01553263210334679,-0.01197160143124913,-0.0247452265355448,-0.11118304343997151,-0.04593251025628281,0.09794892346683466,0.013170950371010518,0.009785716440680185,-0.054414597600668996,0.0008319644119089915,-0.07327928416569844,-0.05519636255666088,0.07860114903780081,-0.08462030811562157,-0.0035067028244564436,0.09303169664118015,-0.1038685212644737,0.0734866417883448,0.10416725408963098,0.07059926389198434,0.03469252625674553,-0.06592574239105362,0.07559367031638385,0.026802256577217784,0.009876617210939931,0.03433518835988141,-0.012593840108223604,-0.025656586682944325,0.006384418239219772,0.1080904751338377,-0.20048903722565933,-0.23602799749323702,-0.03290540471653329,-0.07839178289746121,-0.051344384239772646,0.07358036435625344,-0.03861723180151382,-0.04441234008463081,0.019562969784315584,0.03687608146887751,-0.024987161565417318,0.025704077733194698,0.021942761330898577,-0.003008821969289967,-0.08619188428353884,0.16744415452120395,-0.08318635587338573,-0.1245617192126323,0.05208469391931343,-0.015627311774299463,-0.109959782958154,-0.03161546177443083,-0.023325014752603342,-0.0996712870288932,0.006707435685247932,0.09536347038798308,-0.1912217579441663,-0.07759486921470396,-0.04276958627786595,0.1094636555996339,-0.00059874052352364,-0.016071404749505466,0.04611253330704496],[0.1584260234676749,0.19393618858335707,0.05749885390820524,-0.07251598331618771,-0.029349087125681565,-0.07981004548804956,0.057588129057479065,0.06778689145036548,0.08289021777232619,0.10654587756829721,0.03845969777923902,0.07676619415460481,-0.0770648175259124,-0.004096654113433635,-0.11450659610932962,0.19020396921327487,-0.012496081973421735,0.029257277661604356,-0.017714189422262647,0.1160933191919602,0.0038572317369607993,0.015553163720066496,-0.10606825591371233,0.1547239010320396,0.09038116436899814,-0.007373708344783519,-0.04951679220235649,-0.03845622341323303,0.026989368934350947,-0.01678523022900868,-0.19460326241643627,0.08383940567612162,0.003353867409763967,-0.02824202648444312,-0.029307199106352638,-0.07266992213823512,0.14294411410819474,-0.06442801985512797,0.05908000109186094,0.10175125812581343,0.0699705000610235,0.03990696802101714,0.04409821130717218,0.009624441429254286,-0.0018859360093926518,-0.03847475330201255,0.03929973786723106,0.22955461296563806,0.06752587722975284,-0.030169521302571226,-0.05293747034770104,-0.0636190462613045,0.06217162289325153,-0.04460989981041211,-0.05901528652439041,-0.0991920759227803,0.030706845066830902,0.03093653384149557,0.039543035153347846,-0.03175298540678864,-0.04194731315485052,0.09294527073320402,-0.033264150688684616,-0.117387881713767,0.05612220277718915,-0.12718006954003344,0.11681398558939868,0.07811289505141737,0.1165597056191821,-0.03344922156647131,0.11304356600294102,0.048082091191462395,0.28181670366898615,-0.0389564423016842,0.05346536309957627,-0.013100200110981803,0.15216119755970708,0.09477020935162554,-0.10961687182242848,-0.02746699594012817,-0.03179251956330182],[-0.017987802820512284,0.018724107979451142,0.10955167561319568,0.08317402725983525,-0.07424259660133302,-0.026906507084754713,0.034518599929929915,0.03136884058856616,-0.04223750133131931,0.08657918574187887,-0.09317510382867189,0.06514696592628484,-0.04444653879822844,0.1037011162823429,0.13994265485827853,0.35112119324402286,0.07674538043730661,-0.03641406935975177,-0.06844705929929867,-0.08070339015542788,0.05378735467868315,0.006437100042814265,0.019925439628903203,0.1832119226471779,0.09442386249634668,0.10586273020920627,0.1003649141180499,0.10943609984901838,-0.08076210107870073,-0.0023135581380973914,0.014237928885549268,-0.09392879915249473,0.10330860805149493,0.05860905451732484,-0.009119392587386222,-0.015444555893770553,-0.07876863710298568,0.008319979498520072,0.39841511059968987,0.07585862835495487,-0.1173940089763786,-0.0012166389330843766,-0.028444317205457443,-0.07089791591910137,-0.10728130201159615,0.00576808362726243,-0.007791347732178108,-0.0582459799985624,-0.08071511528707344,0.08081561598630185,0.08308396562027515,0.027049409574352277,0.08065576440354219,0.044873458716423044,-0.0730404418291098,-0.002701607223090627,0.12056091205981136,-0.07846691259127966,0.0007610822669516224,-0.09182900497653605,-0.09854431599516064,0.11401518587942591,-0.013215550870597507,-0.10673105755977233,0.020168104664071703,-0.07602828329306548,0.026280436031771322,0.09989313212195186,-0.10912527027428694,-0.06274666025627468,0.08148797233214797,-0.005456798382180423,0.17034440873044804,-0.06456425136747886,0.02963728924976983,0.038051797039749174,0.06398725140510687,0.037757184493969545,0.057969387772510456,-0.0837688825634019,-0.07892341871283591],[-0.055957232150266906,0.13220307526603584,0.0021603194839206977,0.13047045358409148,-0.10546482035092411,-0.09419874211941677,-0.09830325149249608,-0.09576657682000163,0.07296765166506798,0.1288625230065858,0.041891307282246805,0.03883163353451245,0.08758584497016693,0.04926977442445644,-0.18027064450391575,-0.213672220121928,-0.006858947784674846,0.11311679017891572,0.09328828992026982,0.114717027104188,0.11717709794875161,0.04963564983901607,-0.020607160492263875,0.0446986634316192,0.08574261771894628,0.023667688820894903,0.04316370660365525,-0.06802908093964034,0.038783336589533805,0.0917902601409984,0.1082679092491061,-0.20599324627789606,0.029303026229462768,-0.04016768574934933,0.06578431942685528,0.019333855448925494,-0.09120922809240407,0.15946175989157294,-0.04837129852630219,-0.029582895697786257,0.001323943606340447,-0.022168608731893233,-0.09291484510865962,0.07929849349045372,0.04282587176324211,-0.12402517289383773,0.011934609478395943,-0.07791302811390556,-0.08452321519498494,-0.07383176286774056,-0.10294189873480251,-0.0027027263428913216,0.022530235526670155,0.23858398787831406,-0.0365821041903092,0.03495702427723917,-0.04348225928444752,-0.09249865482228802,-0.03708155382927656,-0.28940502673359303,-0.08650919634885938,0.12898557145291933,0.05192075227863752,0.04897776912926172,-0.040794240452144,-0.09779714293958007,-0.0836746677010298,-0.06153994820194851,-0.033527580470385766,-0.1159650782805585,-0.06017962719868888,0.08282986165561845,0.01705683362706905,-0.03146765063165168,-0.06934721397185081,0.004354774470196886,-0.034925200357522945,-0.03460922305077546,0.07569448714912168,0.04240672366678282,0.11437645278264953],[-0.0745695341830395,-0.08761772329953396,0.036965956671512964,0.037813571945659694,0.09240746377170468,-0.037552079425511704,0.09536287854518233,0.08139622010654954,-0.03780370204217705,0.12041129320692892,-0.04240308866545528,-0.11396302243188379,0.10685334517538327,-0.019275971291689634,-0.08394470318752704,-0.09166505527662012,-0.0957809261341862,0.02275247001481098,0.014322091513198333,0.14086006615011212,0.08032643154021127,0.09992450252594415,0.0176500608232947,-0.04951723161451625,-0.05484438068220021,0.007343125378012282,0.07725706702322443,-0.01967967516675921,0.018712074410977306,-0.018344722104898535,0.019615628574934384,-0.004169252269200909,0.3124275521310319,0.10959719800457915,0.07774150155427238,0.08532291170076277,0.04348051879725156,-0.16786815195771065,0.011886680202907068,-0.014055660080696017,0.10560472902718751,-0.09337309805438074,0.1295594772865646,0.022462055249932472,0.012679875151267372,-0.03537812018859964,-0.022394244692260406,-0.06449756755079938,0.044476408266416946,0.06950371233267862,-0.1559817671326041,0.0897450615587256,0.043400616820653375,-0.05298209343615687,0.10840208667529855,0.020027426860975375,-0.06055587653890457,0.10298051603213436,-0.05614926149796059,-0.09555031617158154,0.054208823868496,-0.062128209614797765,-0.0913753396127591,-0.047138994061451306,0.0307589697091441,0.11481762848118827,0.06422914049881459,-0.0647237297921581,0.051276607980130014,-0.017232229293764393,0.08927092367791573,0.009091891480868556,0.022479822639424173,-0.024041212147819024,0.09891107567658489,-0.08781478124447441,0.011948975434142375,-0.07699601271768532,-0.027202198203620267,-0.1622666003436125,-0.09886391625472495],[0.01123936866919325,-0.07939395634429774,-0.1086742178673559,-0.06298583048759718,-0.0632968682577407,0.10400277535908181,-0.041580392459764165,-0.07950982691839593,-0.025572822013088265,0.04915736786209377,0.03425235154754908,0.048342822690432906,-0.028215850508062922,0.10677926912231898,0.004097383271785607,-0.02024815533339693,0.1256591765181217,-0.0005411535404573121,0.014946359813668632,-0.041178150026328526,0.014159945627450002,-0.004814333276763426,0.025246413016575313,0.048291516096131734,0.07139119729592375,-0.04569258572271863,-0.10104629119959911,0.12737458688080627,0.3263679963136615,-0.018242368178854256,0.04607068851873042,0.10187981000495965,0.21874525262387087,0.10479425768565792,-0.09421761839989964,0.08022434484712912,0.09350856668147442,0.0195365426266579,0.04720068438789156,-0.10947291965381802,-0.0369937829686401,0.10037019640526218,0.09859610291224762,-0.07204848440187005,0.08986559018992603,-0.04370262417210507,0.08762217368609805,-0.07177370488032375,0.0190980895653152,-0.036558012753363,-0.058780612574515244,0.0941603533442455,0.023366491619818044,-0.1185721071932283,0.14468392285945952,0.0704784892288041,-0.06389937203697107,-0.03457158029055817,-0.1786747761373996,-0.002768497055722961,0.06754620795670563,0.06976801038271979,-0.024109459087909343,0.05586155727112652,-0.05277163239895132,0.11619326093168966,-0.02040213806315868,0.009568389215407305,-0.039455409877641824,-0.00293136680078236,0.027080972496758962,-0.018925305923098348,0.056268542046092725,0.04897343624006798,-0.05414771810657434,0.1748843269998658,-0.08722270454159538,-0.010465770944399032,-0.06874468702399915,0.07802900997588925,0.05527596362836291],[-0.03331725750822662,-0.0503940858838276,0.029371074299188695,-0.10737032145123375,-0.08905984184424418,-0.03765102167597828,0.00499005335469379,-0.0145835720896167,-0.015635469541704288,0.05754142962831802,-0.018138421780304084,0.11161087907609507,0.13483867663298843,0.015012123622789447,0.011680202762872488,-0.0012084195343278561,-0.049471390533786144,0.008895789630002014,0.0020563060253198234,-0.16758304785156866,-0.00919220911367379,0.01645896293269107,0.009864806669493164,-0.11615847427928314,0.1334246662561312,-0.11376424396605933,-0.07429064350568342,-0.09364096772313778,0.08927167898656255,-0.010861908841874329,0.09795136052061856,-0.02221172387936703,-0.07346346264477946,0.10780475938299514,0.0949189088694363,0.028941195029407875,-0.010097802205894076,-0.020270564542621893,0.06117802295280671,0.06705716774390008,0.04478860946872531,0.03161364933249093,-0.10305913333072496,-0.09034083547481421,0.06197336613183516,-0.021641419442770475,0.053579532773721676,-0.08156431574419691,0.042141932737406365,-0.09489148420541108,0.11003637222572024,0.10110343270966753,0.0016970497767254242,0.1350129884825142,-0.007417642470408808,0.015855273465514207,0.2051096857359125,0.0597312374809909,-0.047193869165972735,-0.05281848846215764,0.03242535213100692,0.03769174633093242,0.11620399602449757,0.07856457412629222,0.020984043633511845,-0.03573795743613053,0.09815437302845613,0.039745015902152535,0.06942180556839514,-0.033420783090647894,-0.00996133347548936,0.0647621431107672,-0.05339432291001634,-0.05091889972404581,0.04670444325957759,-0.0518922894517293,-0.0704193068868278,-0.04833652086087599,0.11558324291276538,-0.11340055889312967,0.0115146855182821],[-0.06326458814708506,-0.13147009034803867,0.030465055991706406,-0.004461834720479897,-0.03842176477362059,0.15756063548347665,-0.0895885988318512,0.02267079981171632,0.14858280015403166,0.08188173488820566,0.11077380775486159,0.02730456458685416,-0.11398105597457658,0.10815370274390346,0.103166582071609,0.11626027245120972,0.022922453602986722,0.027642374950410064,0.12919150395085693,-0.052949854231456234,0.03531122318171716,0.10031324669036111,-0.11257281122536228,-0.06636480088071373,0.026688699977091494,-0.052735372949056517,0.059841215752595725,0.017979976694937408,-0.1732184882589974,-0.11205716054630002,0.06213769706302434,-0.013957620545720452,0.004741660681779637,0.22516817723624868,-0.05302920861859588,0.04742051430700913,0.07352605905508844,-0.030279931678631807,0.1348416588102079,0.00017694314614619613,0.015399361262621168,0.03961364258370526,-0.02884118743130385,0.08882462168844127,0.04954314905138155,0.11221157966113371,-0.17159910874082734,0.024407246171969602,0.017083808535674715,-0.131297129582351,-0.14003180239509624,0.11853971870548793,0.04443729872152071,-0.05074978283570416,-0.056338321374690366,-0.006102208631107166,0.09985435678558142,0.00834519779436859,0.016766268978310638,0.04545120083020208,0.031829483939356036,0.08440870280189146,-0.00010483110269097797,0.007721528786916822,0.025741038010376735,-0.11991072123552818,-0.07495880178954122,-0.12701801429710868,0.20571938250433067,0.08653801430703231,-0.08589358229832197,-0.06620090943884047,-0.04354152764939904,-0.030225775735566014,0.057571942105642475,0.008209563231846614,-0.20201497506725594,0.0905845841724091,0.03471463840319213,-0.09073548529956636,-0.09744788229530195],[-0.01914535572485386,-0.09041425560129189,-0.028409451400776737,-0.00447473546478617,0.01284831307981878,0.035280915015695635,-0.06029926902549816,-0.04925576139003465,0.03444851950212218,-0.037941276011484885,-0.17095098603687234,0.03249135393677284,0.024137839916640497,-0.03970311540591996,0.07049996842250505,-0.101132220361098,0.07915280697641786,-0.029758167672274308,0.06405917851355171,-0.049047279212071825,-0.10694872723244918,-0.09396576963059862,0.022604825154628493,0.06885900102553998,-0.09102511984510964,-0.04539628641906231,0.11056317386094187,-0.04216492354968466,-0.0357899523129955,0.16891430908244856,0.2631524199323728,0.11634027137418405,-0.06433590704281884,0.09156559009562072,0.07308624331141429,0.06827886649939487,-0.062172919841451124,-0.07387747688202646,0.0416678602964521,0.03588190221463496,-0.05738105830239669,-0.011703702963433408,0.10419618238868648,0.09189097766423412,0.11189624838971741,-0.1891732064086588,-0.10859052371826797,-0.0462084491335394,-0.0056031333283276434,-0.05289738391628187,0.05897544829666897,-0.11734557602447965,-0.06974378395534832,0.11589413413866778,0.033041904621657014,0.036203902830861286,0.23009918393627057,0.09442518509890453,0.0240271653099675,0.1338612315849356,-0.003865932402605302,0.1835178596073684,-0.013592418286613285,0.11910932191497745,0.09060830769325125,0.02492143785731572,-0.05256725617990949,0.09809220039525365,0.025672214977172283,-0.04374704707986018,-0.018421703295103255,-0.040611470772179595,-0.09238867877973646,0.049386968625407535,0.035641674229803036,0.04308258010861866,0.020697378110302356,-0.11453722438784739,-0.08626665950222287,-0.012452264521120634,0.016520017098019077],[0.03455706801159869,-0.10252405446666384,0.0690294099251559,-0.09228046409012691,0.08144654964686217,-0.053489578739327824,0.1140216723569894,0.21364606560771165,0.04517696413557259,0.17324283639342006,0.07044550369931486,-0.057821835671567755,-0.05324703289356657,-0.09641579188704194,-0.11141593221512348,0.05544147720172914,0.08514536141637188,-0.07917269092677381,0.09818944125067088,-0.04365345634517226,0.08482109209056284,0.11660913049728895,0.15515609843302394,0.018032706945234504,-0.09045331722111888,0.12332864808667464,-0.0716710794373012,0.010013542690972549,0.046181286194644136,-0.011881479799779257,-0.09782251551662904,-0.04340168552548797,-0.11524529884848843,-0.09899803716136697,-0.0446969515492887,-0.06645086770149872,-0.03166443464095656,0.05178764188953417,0.20231166280014828,-0.00293006557366535,0.011224397877121024,-0.021762002319848088,0.08524175432293724,-0.11155998719419438,-0.10283080412281738,0.03609384397536254,-0.0009463446675721895,0.060298781671813975,0.11376538165075326,0.028896574058835573,-0.12670752065918947,-0.06865523110105427,0.11658942894948353,0.00993866917662016,0.08666591525342836,0.049448300237989684,0.028353331955059787,0.033705675785011255,0.1616656896508772,-0.07895969979564856,-0.002615637915242938,-0.013523036819478656,-0.00021208500511017112,0.044881807139422386,-0.005564081082656662,-0.08905368219557175,0.009423285552022993,0.05034487026049831,0.014353594317528104,0.09082707796171643,-0.06132951678118032,-0.022926932118946378,0.18959241471313013,-0.05749083929997756,-0.004138431574900639,0.03388798257757722,0.012706910663899278,-0.06551869680943254,-0.052963175317783814,-0.09772356497191755,-0.2242926374399358],[0.05597508310208129,-0.07110215530783034,-0.04527971864749302,0.07089165194837868,0.08777999502979932,-0.09233794916132249,0.034043271547507456,-0.05626192595225381,0.06962140828030661,0.008068822961999563,0.09505927197869919,0.06571819477653267,-0.09903646551680159,0.018135484395514392,0.10202666787827144,0.0350622757066555,-0.09609598982772613,0.03485956025926207,0.12096917529313933,-0.02777424113758789,-0.014827008946800559,0.2018047747402247,0.06639423925496639,-0.014395754304217608,-0.050112333887355934,-0.10456879976874713,0.11058958042208825,-0.0024621417125219023,-0.07615348894853935,0.011924356748826245,0.046284266635134554,0.20193564214927903,0.08740620934197396,0.07949975759379557,-0.03488195595180594,-0.052185260671711635,0.10873985870953866,0.36886921413325496,0.0878003470410072,-0.3228300653127652,-0.05870616602991068,0.05605114508315885,-0.04671494158009967,0.04215068856794348,-0.09588980470927612,-0.028611903636986447,0.017174443289843282,-0.09424168831878049,-0.10932786711768513,-0.059571364044870706,-0.08459307167490626,0.009346112307255343,0.06907590321001114,0.1067448284886752,-0.010682512372571881,-0.0742899656123303,0.013231593090893704,-0.09160175637535065,-0.1924498329672082,-0.1101836879612366,0.05108731921304489,-0.08429229577369218,-0.09677501609734054,0.07299771961427803,0.04372985589648424,0.04142430713473885,-0.0036749632742824707,-0.06247759708932879,-0.03145180937427562,0.032748628956537774,-0.001810687820674052,-0.09668249218048808,-0.10281283046966642,0.03458914034338223,0.06925267784985208,0.08314036235939418,-0.09807251385569986,0.11380081708998299,-0.030687253327671943,-0.09236600479892171,0.02279705353507345],[0.10237340276343047,-0.10703430964315541,-0.08085246144840777,-0.23454139835291982,0.03697524645341279,-0.00864130518705199,0.003926567210979152,-0.05516122635204243,0.08914034137707577,0.013687819395548466,0.10713847566739722,0.0005898145132236016,0.08414810384016522,-0.03109559267618775,-0.1071513169298807,-0.07066880303952137,0.11012468472647503,-0.08536627846632294,0.07064478693221866,0.06065612588779293,-0.09671177745957556,0.10868305984209707,0.0010754334169760004,0.07099228899080309,0.08720381322410548,-0.08180736230016439,-0.018445594028734108,0.08303388750366728,0.09557283311172934,-0.07468103822696763,-0.01834776193907696,-0.038514363224477925,-0.18728671973436764,0.03550631224447145,0.048104556221854215,0.04160927519469523,0.11313073342284986,-0.04577505481295529,-0.02553963751854632,0.05912463374072514,0.15735868209623707,-0.10836823886450196,-0.04154876109371025,-0.0642639950589536,0.11171861673018926,0.029060682168834263,0.06270601393054673,-0.014841382388880836,-0.07027096736262625,0.007659121396738271,0.06713964007211873,-0.040226762839361274,-0.06471074646628049,0.11701536395199952,-0.017798856487322032,0.07608020693543699,0.04026204367656935,0.024455661640397353,0.03619869159617173,0.012760197378607225,-0.013838108555460025,0.13522980004865168,-0.056816477220346925,0.33730836688299004,-0.021187825159553197,0.10796957068618622,-0.03869926164043378,-0.025926140818553815,-0.008472528497248564,0.0783624884206722,0.10678254914780547,0.09822851260582653,-0.04817327559022192,-0.04196489824906468,-0.05280506658698992,-0.11631104671143264,-0.0640684849421821,0.11344392301942978,0.03624668911107789,-0.015116528156783441,0.03182557089966897],[-0.11472569952156932,-0.055108212595450845,0.012938255296716418,0.008643701797486027,-0.02546878420400526,0.031888113998474694,0.08834537239697096,-0.0600962609094669,-0.1288378653751049,0.046965211813677715,0.08023847321276124,-0.07508693633888909,-0.03894408881425073,0.01775985830368354,0.05313252949371027,0.021708348886409087,-0.11656426123577791,-0.05108229602235983,-0.012447246395662533,-0.027317906767235188,-0.06589333204658256,-0.04235318858013976,-0.13090369746247704,-0.07171736295324345,0.024277370011348637,0.058053647348416185,0.08362655739600561,-0.09369645854614957,-0.059127893218372515,0.03667131798981864,-0.046362887877729984,-0.05062714419928813,-0.08582198419492831,-0.07844394035954452,-0.011781697664160129,-0.11718995144003794,-0.035841271501772506,-0.059896132822176776,0.08358154962605555,-0.10248727450040077,-0.006924054641984903,-0.11061654003321636,0.04992775711967115,-0.023074188627548172,0.00224660183015607,0.04243152051181913,-0.07649009145253806,0.1131615790600648,0.01198408590999141,0.08517017494454014,0.03273660098949739,0.14391125269492402,0.06724645985483159,-0.04407377440235333,-0.07938366402545276,-0.06395022623935873,0.016312192100040205,0.025371967494341424,0.0008600596985930545,-0.08795121220981057,-0.09492127882397193,0.09664347578299193,-0.07918428050849433,0.06379639329692854,-0.022557196530764753,0.05933385611843134,-0.09925841084234213,-0.05579374600462796,0.01949076662891381,0.005235377067198686,0.04947759589383415,-0.06120225012693483,-0.03091300555683214,0.038644156051214726,0.058242510210800846,0.003703957726669824,0.07129983985856672,0.030253635626283713,-0.11151388682838725,-0.06285500576172619,-0.07054638720400479],[0.08629426670324118,0.00570200243475204,0.10954212188796944,0.08491673438971714,0.07635233701403565,-0.000522354546029141,0.09363091838550454,-0.011966094013356002,0.11554689820883064,-0.030302645483057503,0.24841037517486272,0.04086281162083663,0.03048371727883741,-0.07456200667237771,0.06565435338930482,0.055894356969265264,-0.024277286977112435,0.014403056273170609,-0.09210694095939556,0.06453296024078571,-0.002677452954616157,-0.10088465902531964,0.11426127461500245,-0.08167556585708471,0.06286259867412504,0.020795476533536677,0.03323521389679937,0.03740302521423861,-0.07857280014753885,-0.08288390808258231,-0.10208191751217995,0.03202530715663782,-0.10274796118447892,0.12459471262400844,0.005167798254079735,0.058356017272089854,0.08183927996967456,-0.06002809374685445,-0.02467845186589167,-0.16025129369967397,-0.10006769481013764,0.09416982093428561,0.08270414755981648,-0.03580987963376458,-0.10197705000807655,0.10309774306648217,0.0850346687476249,-0.19570590982609354,-0.03466792343195596,0.060218460402704115,-0.07588817834554049,-0.11182684670741937,-0.10602030796892721,0.0752530778181847,-0.30040080387202117,-0.08946444050182845,0.00013464325864267286,-0.10462249096390074,0.019178507018089874,-0.018842183008874882,-0.05057359050433249,0.037276757068400036,0.02902639376817013,0.10675186070303398,0.024096446583284435,0.11447675020454032,0.031297560354359606,0.04804365979477102,-0.005803185967323907,-0.08265025879302432,-0.06549792568392712,0.05351850202134166,-0.07089709652593051,-0.07542012955457807,0.0855542237406721,-0.10737002608306517,0.03840492513578396,-0.029256564171027132,0.1116586248682733,-0.10953453223380842,-0.053203030430838294],[-0.09215630298677895,-0.08165073986643027,0.06929008906261484,-0.05476348786959293,-0.019004372925879146,-0.03633421314441984,-0.026631909644254548,-0.003009699147276779,-0.057712144796819694,0.20689294633497243,0.05781553749482934,0.06185316680141153,-0.08439603149725051,0.024666309758917537,0.1114493393691451,-0.01629156455035451,0.1033311774987069,-0.06326030316066629,-0.08318144309812757,0.02361325253429277,-0.29913305298341325,-0.028909574420793564,0.02562128923449323,0.06381621865582295,0.031009477363632746,0.11256503805513764,-0.02274084943338654,0.08220169566521118,0.16108234454261186,-0.03552056973987941,0.007404471928797634,0.0638469239430298,-0.038803261029478266,-0.09418399610071188,0.07235101515781368,0.09974416843349693,-0.09557870111684064,0.17867643280953743,-0.08992074986132907,0.11805688988436078,-0.049273381258086085,-0.008521766518088825,0.10592022517095384,0.11447748687537554,-0.016720929752766463,-0.03985398187195833,0.030666117909106665,-0.054964656485326134,-0.04982209355517187,0.057830937067437874,-0.0004283783278625562,0.006719055268046181,-0.14623305287959693,-0.06804920333412136,-0.024926119295445522,-0.08299113375189537,-0.044697431781890666,-0.037064892778466266,0.016056371787149915,0.002333671289606164,-0.02076672806762677,0.08994180635256559,-0.071134201662525,0.19802831767551854,-0.045592983469170005,-0.0718627369653135,0.028513723647551524,-0.07255503525886504,0.09705440522455848,0.04085976049386839,-0.10822575152040231,-0.0037761792407649446,0.02629460388338609,0.09295584518835846,-0.06511310501662639,-0.09300306064661712,0.10790413306474556,0.07844284052761956,-0.11228346426629328,-0.08367678049812345,-0.023898101484693176],[-0.07295165160626851,-0.1728500057780073,-0.18873328266215356,-0.11488543318675978,-0.06359040297628146,-0.057327390058988584,-0.051684110258822184,0.03090359043818459,-0.0914084633708483,0.013125396716921815,-0.0009709111198837889,-0.051539577441649304,-0.09034160623912059,0.03277495250003793,-0.026740798675600728,-0.08389592561399263,-0.08142525885905859,0.10059269046907403,-0.11347210867146094,-0.05756080557355323,0.021888608317583512,0.08768528452075189,0.02346552997640578,0.0453336752894901,-0.047421901716587715,0.10744908925211981,-0.012068581821577952,0.11232720510447503,-0.06348783923930154,-0.0876205583613817,0.0487275610850917,-0.024637914031802478,-0.07592631802150748,-0.08419297889881759,0.09112347039452676,0.09243430989214249,-0.10303895084457827,-0.021430115262751136,0.07189532212617,0.07607765001257395,-0.06988217154903792,0.028361745000632262,0.10616027725536088,0.049747311033904645,0.07063836193734083,0.015491327710123072,-0.12604322274143498,-0.07454299550499717,0.029443879884160647,0.010566885267569196,-0.10242838749794446,-0.09927105393864287,-0.01811126525116641,-0.07006941651172871,-0.09183456583943757,-0.11197837646302983,0.1589245858721132,0.09990810345615511,-0.09077483431593221,-0.11119540268027436,0.0037342725712271943,-0.018384210728909084,0.012150804143235897,-0.07123807031138936,-0.10774413381814614,0.028902672440877086,0.03959438877381333,-0.08630567588565684,0.07588242660312998,-0.09535581475112129,0.02770880479085462,0.2360652496152216,-0.05555850948045204,0.09827264919602081,0.03152195828651336,-0.056444503839472214,0.04888981332908948,-0.018096462566491996,0.114767293291141,0.11309656854280449,-0.07507982143599899],[0.08197757425523253,-0.07055869955101889,-0.1592826452423285,0.1406055319663097,0.049160730055623776,0.11696979978039013,0.030462830137152643,-0.19814483531645308,-0.19005278375807486,0.1372509100039312,-0.10332952769687757,-0.05281820772104663,0.11894776620037882,-0.0495454742180042,-0.06608066842018209,-0.052231069657596364,0.09989672033639405,-0.07647176147841876,-0.0314118479290175,-0.15170500672804355,-0.04870910150521603,-0.010163495042056733,0.02323188320594179,-0.06259919485711644,0.048358581532707424,-0.04918090200367642,0.07218306372919743,0.14785261560525723,0.06191879707495137,0.025967615562975825,-0.028681308136011077,-0.06820351278480198,0.019987175594448726,0.18844065083578326,0.06407531844369163,-0.04034064810574494,-0.040132942188790786,-0.10506892538406051,-0.05070603629282327,-0.05991017674881757,-0.11120917673419749,0.07144874614228057,0.09649128795720117,0.08430898492984165,0.061434323944619326,-0.10269407832567054,0.11228700515804817,0.013166301835176036,0.09390648363249215,0.10171377415260485,-0.0444106017926392,-0.06732883294668367,0.0605416540077532,-0.022130288725223737,0.10523480072661122,-0.012166192321167035,-0.07615122001276452,-0.028394292903492133,-0.05299433181289655,-0.06407322889033863,-0.0910547420243669,0.10294834066763392,-0.07113023293695678,-0.033521387666316675,-0.015310035362705863,0.11187419194904899,-0.08078512141581415,0.025457811325934145,-0.005473396105349771,-0.03757626125256509,0.08815142907204061,-0.08877776200573505,0.18011080239058708,0.008952086730718666,-0.09035766550819703,0.14751794553002867,0.04942000741749035,0.015599610988464435,0.10384116652463786,-0.0070851171628732446,0.21192595230716774],[0.09098421663005749,-0.010092450580540112,0.06006593147095929,-0.09283587268906547,-0.030337780322933945,-0.012373733945177804,-0.013535554610709622,-0.09222145425129294,-0.03747777733361495,-0.0321585544370178,-0.10389533525166816,0.006883334876528881,0.061578745108531396,0.06861083093120231,0.05994222974106447,-0.04780280164953599,-0.058269290634759316,-0.037914034536673705,-0.010922969867295794,0.0826214854895132,0.0015483649372057145,-0.022144987650567122,0.050956285766084075,0.038731639463026074,-0.1246250756768318,-0.0067480982136950834,-0.06552662092809178,0.09531840272078382,-0.040340060474153824,-0.03591166085482702,-0.07221189107417608,-0.10124721153505566,-0.052415659741748416,-0.03941793719459903,-0.0873969930322021,-0.10934934589614184,-0.06058104161615018,-0.06902975571279513,-0.06795355780492965,0.029358261285332636,0.08002792815751675,0.07964961526421502,0.026065134796790138,0.018540321645338642,0.10124555718090664,-0.005652845640505114,0.014982894838251281,-0.12740529680746254,0.07647269003984233,-0.07840678644657023,-0.02372159255029765,-0.030493725118892485,0.019372963292424862,0.09438236100359075,-0.3298879731302937,0.014131482869904649,0.05641481482385151,-0.08521692688887457,-0.07535810120050432,0.06207374201727968,-0.03478435614742144,0.027323386482017223,-0.2001043596296121,-0.07734079812501017,0.06741687105817207,-0.03949349249062632,-0.009617334053048116,0.054786724690149176,-0.03205974190130391,0.09948822237805706,-0.08277268867990435,-0.09686295327534476,-0.10022798998947839,-0.09784613623681089,0.03372456921724444,-0.025172274081300024,0.10237311259904656,-0.047915115134353495,0.07583000608514352,-0.014524168115879645,0.103688721589638],[-0.073552244059829,0.013949383851749785,0.0133501105368111,0.053141920267607626,-0.2667185101957612,0.08682144254325559,-0.06911321949135174,-0.010525598135502185,-0.05383887592923568,0.04699853625758736,-0.046679897317936724,0.11547647076969463,0.06651333322209672,0.09114658949431259,0.11017724725930736,-0.0732747885580157,-0.0884064626747414,0.19011035642147817,0.027856734538985635,0.012673708713143942,0.04798157438960003,0.0826852114759569,-0.07068827809489715,0.16325106485047317,0.05475752327852217,-0.042163484349129476,0.2373347483416126,0.09918040529218371,-0.09549295544302089,0.09018432523184716,-0.0876082092881344,-0.11371671561353548,-0.10869514077030631,0.07967592197820225,-0.02419348741101127,-0.07318830632198714,0.08050005502755983,0.006351718210206144,-0.020505212855288585,-0.08702084067399782,0.029992990818916217,0.22951719324058928,-0.009154549420002146,0.012219882084674135,-0.027898424472564697,0.07059137746959103,-0.005676454702554834,0.1141995199099745,0.09540038711518341,-0.00948776126541404,-0.1106091276547865,0.0664288525445197,0.11360064801598863,-0.06429156550751232,0.10689055889945526,0.03967935867684657,0.10332457375801238,-0.005699693197476134,0.05527716137152079,0.016461448317218297,0.19791547129378823,-0.0054941415355068725,0.0625008760354189,-0.02708077283185407,-0.06993088525204347,-0.09937787273834352,-0.09347359739191148,-0.01355250472075872,0.08709632199087097,0.031235754053288066,0.02264108789381239,0.025905737382340855,-0.04430866148955381,-0.06099706852486404,-0.05720572814124513,0.09519647846010601,0.09718021847595898,-0.03421312554484405,0.09273482548053064,-0.01653809534847858,-0.18970483872066243],[0.02235921676794689,0.09034673361805758,-0.09123522612233427,-0.030899436450229918,-0.08843584524720491,0.11058163214395812,-0.051054725380915676,0.030872110895812613,-0.14624579324884598,-0.036201372832421155,0.04692385537031718,-0.06289811780383903,-0.10489053895723964,0.04732289362331858,-0.10343788245947995,0.091178129595495,-0.09039653150269264,0.002557877393218151,0.07978168740561653,0.13237977239990253,0.01036919933364457,-0.0509491212563711,0.10056099049666728,-0.053901374575651646,0.048476527185077965,0.07193150977531777,0.058073022884110606,-0.04998450474000307,0.017083084617730112,-0.10011991628275316,0.06971124117637963,0.025174219284185565,-0.12125893039496041,-0.11308054462904422,0.015181783741111182,-0.009603836755789862,-0.07128660041242767,-0.06450935023493538,-0.004234649458368361,-0.03296055934941261,0.015914234092837303,-0.04508696762337916,-0.08346411207618057,0.10809662451362467,0.034431131889086725,0.05707823649241376,-0.007173568908293455,0.08247375284861905,0.07385203810439048,-0.06193051326723324,-0.09559645238989631,-0.06355634381179225,-0.04291791914822138,-0.03870462704080101,0.14369747260882101,-0.017403176127570894,0.0829009423625992,-0.07973056261282435,-0.06203969761541994,-0.06298681219366192,-0.07006105177756985,-0.038158992871599726,0.018920230086850558,-0.117227988074548,-0.0027973151300482403,-0.11271580650683743,-0.013303471587754316,-0.07982477037749093,-0.023126101094497923,-0.26664551540398884,-0.10115896863224544,0.09198237634671214,-0.2183449258147855,0.09929026190904322,0.039537502717803256,0.08251963303356774,-0.014799002291744943,0.021638135184526786,-0.027421588721230884,0.10644046988847786,0.0466040474832636],[-0.11432131605080949,-0.022541348367952706,-0.1146622802018124,-0.18241321782935752,0.044288891941617246,0.08203460841399968,0.014782658942062262,-0.1169491467255106,0.05743820163826174,-0.05258260843054472,0.04323695958354807,-0.19269222214797982,-0.03341381266778365,-0.11323529015403812,-0.05514788582859436,0.17603186647781735,0.040552407587885496,0.06995219629261726,0.05167648482017262,0.028207005161206767,-0.02740613906903796,0.06626617769699901,0.060224434541596504,0.09962039868752937,-0.07171247896677063,0.03938350951926566,0.017861336061069235,0.11159036329069902,0.039211142731998064,-0.14652808546548193,0.08384442588747315,-0.003957072030830331,0.07154176465952848,-0.034906561917131325,0.01498249267887353,-0.08937257719513161,0.05695165753962414,0.10298897794270959,0.013902167265221737,0.021821417029660325,0.019227955839257023,0.09681935230712042,0.05062893567809261,0.08831325363564865,0.06366953008256264,-0.017936605906744684,-0.08183067732691886,0.0462134436842253,0.04819515352136773,-0.05138034772712109,0.0069032555537846966,0.017122829803634745,0.028695504291955828,-0.09607266113396098,0.1994591834981987,-0.01725559030804617,-0.08070622314488603,-0.009973808278999,-0.15569128040269434,-0.0014235744618112626,-0.015553812487291947,-0.03167318088794289,-0.08687297110542062,-0.0759290652791306,-0.09278696312619217,0.06693682888080227,-0.08815979981062576,-0.11207138064624382,0.09730779011091842,-0.09715385992696514,-0.0323348299752854,-0.04972669733678331,-0.026949987035274646,-0.19568849355312892,0.015330407517556264,-0.01401973737211454,-0.005299410266803706,0.05978390722173029,0.009667302649624416,0.007843197818139603,-0.024386023026355164],[0.0723585499799787,-0.0741996306977768,-0.05791521660735769,0.24971818268174706,0.11238569697365777,0.02693100583603421,0.1972826624539335,0.08824061412916706,0.046709243053802724,-0.0660031784946295,-0.07989212085499693,0.015391521294007292,0.10041707718961354,0.018223152324211758,0.11512260572743013,0.0253922489926592,-0.014254838942174655,-0.005944401564716969,0.08242385369234478,-0.10965664408518037,-0.080614737275606,-0.004397311923761426,0.004956002243852202,0.10484009056869213,-0.008699843936574558,0.30149184186983913,-0.03790587800224377,0.026084620542243513,-0.020498564162406484,0.021448335518369555,0.01656639761643333,0.0002888148437126475,0.08722201355176303,0.12620109333237428,-0.028673487827524272,-0.0791464380929731,0.08547451701016247,0.032814663778164395,-0.0683035514497654,-0.005748109498023044,-0.10826492521984987,0.0946711435338735,0.08089920990025341,-0.09052601584079815,-0.062398486373213186,0.12095730872536856,-0.019956225926186004,-0.04116158159117206,-0.019189404136222006,0.07421489052773265,0.05349446976991189,-0.039431432908274694,0.10398019824293887,-0.1049643321102849,0.08066515799596113,-0.08457043858128836,-0.08463103276824802,-0.049667008220193286,0.04632003384548307,0.07493788023340456,0.04462095072554676,-0.007741041268818064,-0.2117756890536211,0.01865175074286443,-0.06256158163148454,-0.11734235370041907,-0.12067394814710973,0.0927596387782523,0.004354500278246231,-0.08228193876132264,0.07319787921130973,-0.05640056935049741,0.03632702633591949,-0.14290094203744325,-0.08950565047137522,-0.09058680583591544,0.014963399470155304,-0.12297750721047128,-0.06542922463209408,-0.04116753357802654,0.04604608229076543],[0.034090391285811254,0.055272381612509774,-0.02964462713740427,0.10462615406861343,-0.08281795119668357,0.06389502140035302,0.02008696596705279,-0.028410462061167027,0.042681325960064874,-0.07954365094935446,-0.10353601592992176,0.018662252424692417,-0.13357481610234234,0.006594032719297705,0.12082638918582607,-0.0459822358832831,-0.03973981650900936,0.02970996457677344,-0.056761458784861836,0.06403827510638274,-0.057851370238905554,-0.026490279150414946,-0.04634514248849368,-0.09003961530209788,0.06410150773470515,0.11281771249755164,-0.05581995622638262,-0.06494236639062774,0.10543407964404718,0.08994822859123285,-0.11828856361180361,-0.06273375830212208,-0.024165438884406483,-0.11242031888499486,0.01339124654785302,-0.09495256361198177,0.10574253515042518,-0.06389400145970178,0.28894189161689765,-0.09622079632959009,-0.09239124125958176,0.04764150276593386,-0.06872737893326093,0.058233845087570554,0.11318269353775984,0.0832081646722948,-0.0009810243692601104,-0.07281828329184598,-0.07436491890942513,-0.10597808506565297,-0.044930450003162994,0.023854364687813365,0.10518614161539777,0.05402482474535095,-0.09842623585477442,-0.0915994174780048,0.17274027907362768,0.03103861449088912,-0.15632601522070427,-0.10472171620667721,0.001031149643156845,0.09019043599663229,-0.10295350378258541,0.041639895819090694,0.053375354162038105,0.03023416045201162,0.1209767061165383,-0.026940424310327366,-0.1105749760734864,-0.0466809051175654,0.016354297725801832,0.1162701928322951,0.0663657970074019,0.013991399984636173,-0.0600976118307693,0.09760737781932258,0.019047749219414795,0.001011476501968713,0.0651147677074595,0.09507655572520048,0.22197539855436785],[0.04076255187093564,-0.06594516330154462,-0.1144568880530057,-0.01745292172906429,-0.06892488192463352,-0.08686691417745193,-0.08459524046985897,-0.012836061714347107,-0.011917346291902645,-0.020128125923290576,-0.07402903471148699,0.1897278424584787,-0.012694097992483395,0.2998643835561609,0.0754535844356004,-0.10766999033525498,0.09887147852993963,-0.06836399787988984,-0.05414272472281667,0.02365154925590756,0.061532137244705715,0.05283973242167312,0.09532367548475695,0.034579538352458646,0.01789223796967391,-0.1529459462194122,-0.013771663983237767,-0.030910506826590224,0.11068646171661402,-0.05956736893657936,-0.03972476883648473,-0.19112639984191343,-0.10125458274168664,-0.01960712601376851,0.08858242197449413,0.17551296105212727,0.10182851009979672,0.01564348702357933,-0.04160150687281953,-0.11363330250147036,-0.060500698040273845,0.0004921128920311284,-0.113791528793639,0.05341378848509034,0.013134349718571572,0.027725356148576786,-0.057734072525054116,-0.10290224867477582,-0.07705780789473127,-0.07036658133020837,-0.023118430169310134,0.09761188024336784,0.05285228341965804,0.012962645346314909,-0.015214566306515416,-0.10072133973404815,-0.10152239802654983,0.007214950807671182,0.02300455428837023,-0.09218807697588807,-0.026652596022696904,0.0421470678667782,0.07711039115885764,0.08347448666872254,0.057887574505782684,-0.07674028928725517,-0.049054648994308045,-0.052878344318440476,0.16751234015193642,0.10429545318386589,-0.034734209057942354,-0.034853678050960055,0.08222087038547149,0.05550258552970142,0.19909266344702228,0.14484540041583888,0.01954190865469244,0.08377294295325946,-0.03416268958810618,0.04830832963226953,-0.04944888708681886],[-0.21052947858595045,-0.3011007036763684,-0.07443593357849464,0.018050743790765017,-0.09343319503645038,0.02000532784578118,0.03357117526152443,0.015318464340094923,0.10107022473084995,-0.10201125318916957,0.23401372102348583,0.07313696099181027,0.07445153923590267,0.22104038764112022,-0.03732673131217975,-0.059299239276032735,0.0827823429178694,-0.022219352798326972,-0.0831839956736101,0.0032706893421850392,-0.0379297932141697,-0.05585628408104625,0.11297925688965643,-0.017862569490327277,0.08278077166215649,0.16245649041750992,0.012014311065217127,-0.0455320675729554,0.27206584713616483,-0.11105164499571409,-0.08088092577986124,0.02161625244819802,0.03226610716921207,-0.10649216046791321,-0.035097049208455536,-0.19327178207840803,0.08268993663345492,0.03710286461999156,-0.1731687564267954,0.22995612978221094,-0.08101014998386116,0.08798515643225892,-0.07308528453479764,-0.18845532762521763,-0.0003315741591709584,-0.09951234897863459,0.1025621671567902,-0.06680067476719699,-0.00853300824174952,-0.007784579238579029,0.02498816436464849,-0.09221356598988908,0.028844779381062797,-0.10115062633088386,0.04029299121938766,0.10303361582418095,0.05391998607661369,0.010996042579538866,0.10669630573218834,-0.23267511901213864,0.017108962386952947,0.02468030262952715,-0.050705753385989843,0.0962910859852375,0.08597942932704157,-0.08906944021559676,0.061640768968466236,-0.13029017468491383,0.050564678133905326,-0.06560014187301566,-0.059361665374609775,-0.020639037964338892,0.00026365710950271786,-0.04860646819777729,-0.050929940226465915,-0.05566215636697166,-0.032467501896632285,0.03399031723934587,0.1952712821891981,-0.06383062405215395,-0.05659059659020956],[0.06805769761307892,-0.08513291794638003,0.09704949063836718,-0.009176508790143815,0.09103554441927963,-0.007038797148027735,-0.14004836735448348,-0.06661915926198056,-0.04535903047980207,-0.08611691991334859,0.02936164483284738,-0.043183210154805175,0.03784575260193175,-0.09199652923925766,-0.051837732817831744,0.09844773026812983,-0.06776692755890998,0.044045330163699103,0.12269741778435617,-0.046144575702062034,-0.17942127979884284,-0.03599400824980694,0.10687179309897571,0.009777835030290519,-0.027055729942073413,-0.08709640201839122,-0.02193546522138967,-0.1377193279534205,0.05350068344353439,0.02966355258222922,-0.06276247210402508,0.10120742535524242,-0.05569069150416912,0.09799717652705524,-0.007186752626893671,0.11085889552729826,0.04397627348897507,-0.05960287611161906,-0.0032665649051537887,0.06743953305832155,-0.07462571833205363,0.02290156709529661,-0.06259791767959973,-0.38117811804022933,-0.11470529359166427,-0.01619360801948416,0.09293785052684662,-0.07834588028850492,0.03090879696595434,0.08514114354472402,-0.05407253375088729,0.0038850630791190683,0.015385173297890183,-0.007544340359588874,-0.03647907110444047,-0.03933960030607638,-0.101044491933944,-0.1169470251458044,-0.12806461696349292,0.010450094531541228,-0.03357296392674966,0.10060836359236515,-0.1015268668113303,0.01777854596497057,-0.024479515706282238,0.15471595638242566,0.0005641664462917035,0.0049692018942904485,0.05668671704420395,-0.10088570060351876,0.0732627419412154,0.08792257038885923,0.10008791719442432,-0.07069823494561409,0.06791706799338493,-0.12615763669698893,-0.016579174940606473,-0.06148454867783114,0.20587142651541518,0.02588961358012438,0.10473760509822662],[0.09748485216482002,-0.03435775849819417,-0.07365701760704609,-0.07321886985740639,0.011869686262446858,-0.045236931593960486,-0.022239490177762906,-0.09741393616569462,0.05271047441101842,-0.016646867805972545,-0.02248885068633982,0.11365340519381711,-0.05182205989976156,0.11363162318525405,-0.0947563176561881,-0.1317598365641974,-0.05635493835326838,-0.08473258415184108,-0.0997443673413954,-0.2060722043052975,-0.021905735573839253,0.04060653967377586,0.0690140904312355,-0.10370260682540651,-0.03579892634194465,0.00036457946396321715,-0.09820290108822843,0.011974129988337585,0.015590900683223647,-0.043389779221789715,0.0824058527296174,0.13135469137064246,0.035092943470796355,-0.07466303808594417,-0.007178865663597263,-0.01883305758506717,-0.11709168798016402,0.053705173005172614,0.05498516885660535,0.0006835572417704815,0.0808154005099144,-0.08591994430388385,0.015509290820668546,-0.029259863116633526,0.10402641100025162,0.054389440370047164,-0.03771312739637688,-0.08194391014225687,0.14298594371208292,-0.05927271650594575,-0.10964368385778381,-0.0798075635911638,-0.09186929727671563,0.001976557644847138,-0.01974316077053586,0.08949863447315615,0.08543036317666444,-0.09428620804323466,-0.08462657816309237,0.07085617286611433,-0.062461135799840854,-0.07103186175657637,-0.03500308623079032,-0.021652456901511186,-0.0838283257511578,0.03934953066780915,-0.08791701455675117,-0.08241516670550332,-0.19247357203594492,-0.044085147282467416,-0.09358218153040554,-0.08662022091295785,-0.003592106460012042,0.01896127795147491,-0.10674325441278691,0.07657002095325847,-0.026499635127756216,-0.0548919231829785,0.010991406528629311,-0.1241406286108929,0.047741580168993415],[-0.15962475625332506,-0.17973721914346014,0.06305743393681557,0.05066156918003399,0.04289075153956414,-0.035092464162251064,-0.019279440428308838,0.04025334645963302,0.14508538129863216,0.03556843116561295,-0.03026410471327204,-0.12181158069069492,-0.008826217758027482,0.08391662207949475,-0.10360915659228256,-0.059172227560652706,-0.010085581213736252,0.054892866019458926,0.08561623118114511,-0.09730555156315471,0.0635916452301544,-0.008888251175997336,-0.027873945711055826,0.07016756242436431,-0.080072612048155,-0.009788866519156267,0.11364656370795637,-0.04185276930427822,-0.034108713051322244,-0.04245640940201013,0.10177270167609533,-0.015779104436323688,0.10651248567023786,-0.11798562899874042,0.05703555950811719,0.021625226071613164,-0.062234733456889464,-0.07677850755441709,-0.11534260301081731,-0.09983664747058936,-0.09088533323682627,0.01026551322540737,0.06970701539990144,-0.09202881226039775,-0.10941177208663447,0.015436602110993061,-0.27072992309408306,0.0940135662621232,0.06580515422124766,-0.09255568497952305,-0.014350669568043484,0.0032871977929355093,0.011074139856116537,0.201820279030562,0.06923211045990273,-0.09188092035490043,0.12179764808622871,0.16617983290563784,-0.1075949647006684,-0.05347087675084406,-0.07631159811255803,0.09149595492499829,0.1162647819739472,0.02190854544258068,-0.23996324262044086,0.033360802616336234,0.008554279651656073,-0.057879049302083874,-0.07872670725391243,-0.0971788087645648,-0.07217045369194526,-0.0648952570930655,-0.22897908045609908,-0.002409987362682595,-0.048405666164972785,-0.2281458464938889,0.1370060927822045,0.00699828723639401,-0.09965132674329223,-0.10498459609410042,0.02992104252291676],[-0.031920089815023624,-0.2162365490326507,0.045303994383334704,0.03655728130963725,-0.11545597360043339,0.007035413219323041,0.09160285130221284,-0.056465227464888766,0.1132939930549315,-0.07876901748702797,-0.07042828359862677,0.09761065663614749,-0.0033963555293243905,0.08657891376758396,-0.03478829975517888,-0.15612461177608544,-0.11428675160862176,0.004684105136036883,0.21374215949748845,-0.05487305055204097,-0.041497519388499625,0.04626141737318089,0.07080425915787054,0.058752990671536,0.08830001958466575,0.13701493002102566,-0.11048376676478777,0.09884761924611775,-0.0571054691441582,0.2004716773951034,0.0691773537066513,0.1993859481667144,0.06994245246462188,-0.06664046085755891,-0.11566245012061416,-0.01896908676698048,-0.08642125010538483,0.1513437188012846,0.08389397256973898,0.08452498021297015,0.05866548594907481,-0.0753518769295746,-0.06283607695760522,-0.11743743153480786,0.057327487546613216,0.04545433632288988,0.03917880835159695,-0.11696294138470126,-0.07758631290003469,-0.20800619921247576,0.13209518189069824,-0.038650915636584994,-0.08426813847007064,-0.08249966344459797,-0.09929946019379694,0.17331310177771167,0.11304330562926167,-0.048141549736049505,0.011952138430991643,-0.0427485819303387,0.06031224238863691,-0.03345755167965334,-0.021564560871991448,-0.10001850554839978,0.09153755472031595,0.09174828055571643,0.061351227993755676,-0.08653518590337428,-0.07925242476641244,0.07661226758604256,-0.12767055007783568,0.06547107467660752,-0.1377149738683008,0.06437220624727163,-0.16381386121739008,-0.0033116824039799236,0.01746094614677298,-0.24455290857428638,0.08106508618597917,0.08634303638727452,0.03765509666138249],[-0.11649943471675644,0.0848638301139125,0.10303179626946843,-0.09923423497831996,0.10735521469748922,-0.05524714257203967,0.10358749908146868,0.07085200544912491,-0.052438720374576635,0.04384284724070352,0.11642494157961476,-0.06414046679183438,0.11818106406040833,0.05377325825674547,0.009141602551577562,-0.101379323194929,0.042163863658663425,-0.04158595182186659,-0.0383528806932007,0.0038213483556333717,-0.10798583095503712,0.08973623957034042,-0.19181462781552502,-0.047289126992661634,0.0774997354521849,0.0907406373829199,0.0477563185939171,0.06247083431047866,0.11072135585016503,-0.0958273273770784,0.07843807538054878,-0.11648130050421111,