{"biasesHidden":[0,0,0,0,0,0,0,0,0,0,0,0,0,0,0,0,0,0,0,0,0,0,0,0,0,0,0,0,0,0,0,0,0,0,0,0,0,0,0,0,0,0,0,0,0,0,0,0,0,0,0,0,0,0,0,0,0,0,0,0,0,0,0,0],"biasesOutput":[0,0,0,0,0,0,0,0,0],"hiddenSize":64,"inputSize":81,"outputSize":9,"weightsHiddenOutput":[[-0.04757624442679582,0.1023071405401916,-0.03419854600682663,-0.01609742532771753,-0.04086007263251161,0.08599638520839399,0.11858128008727627,-0.16299710626290137,0.08873824127644826,-0.16812676779962848,-0.27979887618955007,0.0741726123142256,-0.3791361079115992,0.03694936663662188,-0.029537226073915065,0.06180392378113598,-0.07522312265477409,-0.02418240358084833,-0.15346795810954914,-0.03576647479436055,0.24930333567383997,-0.024638439223483567,-0.10227645417391328,-0.05735825762929092,0.28950063826579303,0.09821114679555831,0.19392058416887278,-0.02519917629794887,-0.05899446092386808,0.25297714973534174,-0.0729726557073631,-0.1491266492223223,0.36154610973552614,-0.1586762694577916,-0.040513761387602765,0.215497994516108,0.24419171953946242,-0.04304270063743448,-0.11233304216742024,-0.15294207805590695,0.04279880560260632,-0.09572034782951062,0.1569659322335569,0.033149147043303295,-0.11995826084299074,-0.19961667792945087,-0.020381597659400886,0.011612453089328251,0.11636782189996624,-0.23908221928909545,0.004829843971030106,-0.013700963119583541,-0.1743027311105074,0.054632524327704074,0.052012459543415934,-0.1836961099806093,-0.3709889204092009,-0.0004968432797048232,0.3705111720298174,-0.11470800731386538,-0.16071328715928546,0.019753097379017027,-0.023516138530549593,0.0074597322773114925],[-0.06491395555391057,-0.043158411235719736,-0.07245108731315873,-0.03648305686548444,-0.006088241058325465,0.2671993711101046,-0.21030165710919937,-0.08763252903066435,-0.08857270200640661,-0.09748401729253166,-0.12971962170232862,-0.04809101657036224,0.07018505589949915,0.12992473888741887,0.03351867035770424,0.10533312743285929,-0.014149304281125423,0.003316742199326485,0.2100105797722759,-0.0032957679636268686,0.04226330275380657,-0.010701291611405615,0.1202064486187567,0.1604986618571777,0.08644633108093275,-0.21330248193033288,0.08179664014558599,-0.13330193363906323,-0.06891261735888872,0.17479706958146765,0.22055815716762547,-0.04923619075492235,0.04919025350668038,0.0015908188630232238,-0.11879010134750302,0.13869723492910854,0.17107516972002412,-0.12732431318699164,-0.03456234965193895,-0.2894336396152199,0.06456106843364481,-0.18376046205144472,0.04042154572808297,0.1902818391680796,-0.13008116489668242,0.00798964671747697,0.0907444383261162,-0.16347675651348492,-0.02652249314837244,-0.01148617080070089,0.08569583479456822,-0.028889495744892902,-0.07032043841263103,-0.08974511224823681,-0.16235457219873164,-0.07230776822666421,0.029866094392339754,-0.006971707889101554,-0.002947036784277947,0.05519746329602362,-0.2147941789618141,-0.027995827579945898,-0.3927424059753891,0.10400562995981784],[0.0924033139610201,0.3178892085869156,0.1712619415215606,0.10298178200269129,0.10321134903714492,-0.012703103370840078,0.3039857534495435,0.20224699834794527,-0.07695374023362717,0.20512110184399196,0.06644743772709291,-0.012774318564136423,-0.06594927635867526,0.23104909993988443,0.02188152586400058,0.04747518797427126,-0.28865837825891877,0.03953058256053915,-0.09548344152239052,-0.1263718294118127,-0.13350184875116045,0.04383627541446504,0.16322834653428292,0.01008667578242067,0.14936015828558985,-0.13510200262845543,-0.05895527847477609,-0.05512876158592785,-0.045499525958209726,0.061285787805237,0.05544180437097012,-0.03216620069143251,0.15727067639542475,0.013040682230436912,-0.03676862361583677,-0.16329016748710093,0.11731097514217387,0.18009419027723983,-0.017043963890407937,0.18050454599512245,-0.3684222443724899,-0.03371258152499266,-0.016332046697953097,0.34719682643746097,-0.03262907383312512,0.10155941109144478,0.13660318251615414,-0.3143926957573967,-0.03767050300876818,0.09271956369915034,0.11803198282365877,0.05762574129897658,-0.02854957250370801,-0.1419394038233558,0.2854648531200841,-0.13704325571287704,0.03907949898434634,-0.09912196086007777,0.28925723754877375,0.049918467159553725,-0.03697451989250608,0.08500412804341974,0.033592995930035174,-0.19953920394899957],[0.02959649460186838,0.04793699816446683,-0.21156283646833743,0.1670434323688311,-0.1560480430947902,-0.041377631727253575,0.12310057165898641,0.045318559702675815,0.01215521498820614,-0.12585002220900293,0.01208534896244541,0.08562761493896293,0.0470212061671907,0.16140061745568668,-0.05044977006054011,0.2199073011341074,-0.20726350056440787,-0.12009640632452827,0.011675750998645387,0.0729528897431169,-0.11048114984273191,0.0627362056410154,0.1524255962219922,0.18410894084376617,0.04543005553285964,0.15675807074708575,-0.20959916053168876,0.06637962281472254,-0.03341952911935645,0.0871806779727725,-0.04780009668758186,-0.08613534807637625,0.22599760602540303,-0.2938989778483085,-0.10180418296326094,-0.19324210248361323,-0.09655500441876803,-0.11345854463188237,0.14100369797836884,-0.10232333854951328,0.04647530688464935,0.16385797662324667,-0.1673679724196371,0.11841589704287818,-0.10342613213998889,-0.2379920487778385,0.06450181824818357,0.07535523337392273,-0.08817559503071422,-0.11864100189791493,0.14683998849771032,0.09024932036117818,-0.14068269863822094,-0.13064975764903386,0.23357864969052822,0.1540335739844507,-0.09622570416862977,-0.1436338847908654,-0.1165600304389,0.02804478805574086,0.013470922775864,0.07562109912754501,0.11510770822598287,-0.08134642280383436],[0.02987413226956128,-0.15273719534314933,-0.11209650546199322,-0.1468032270887571,-0.10802103392941113,-0.04519545141877524,0.024595993469951484,-0.0957254596471632,0.014339560498838382,0.1040550132702645,-0.021650645365721984,0.12148469906987246,-0.011916200832821609,0.005753590108570029,0.24468270664629316,0.02682686197316186,-0.013649126469549014,0.12084720196800851,0.3800063428556368,0.0012939316724143951,0.018278434843473024,0.11391423567941494,-0.08911939201546046,0.08097499399053132,-0.037844525234731745,0.06608183444529604,-0.04773915201948541,-0.09734354636001831,-0.03476361972499412,0.0597779980973469,-0.0731563092733633,-0.17969337704592195,0.11823894619473013,-0.23109676225129294,0.016496906120744302,0.3801010028804178,-0.03974736654510972,-0.14774271176060413,0.1005251655450857,0.010615802773790615,0.09396110087809327,-0.1625061950859832,-0.10093657626369036,0.003540438995521649,0.026527475199333173,-0.10731115531514585,0.23812197078474207,0.1057598609440752,-0.3969596202215645,0.07748859508268724,-0.12729840476376142,-0.011241265506979091,0.08829202821730327,-0.1583605437092742,-0.18496205919078684,-0.24324336006903738,-0.11525891213064836,-0.15862544471328596,0.21648987261878117,-0.17821303819891246,-0.09118728062255158,-0.013221032643004936,0.3122020032573251,-0.1648193382010559],[-0.10032042063891299,-0.06780877161142368,-0.04874689267750515,-0.09318327825230033,-0.09967948018757262,0.0729954259178586,-0.08101297852433477,0.009003843423580193,-0.16549686055960933,-0.23749096246907905,0.023637676349186922,-0.2808484232625928,-0.019923507686595794,-0.07287917249203145,-0.07551393800795,-0.07751793056827588,-0.14361544045035543,-0.01774263151484127,0.15611766324209297,-0.35551574950767034,-0.24586123462658224,0.09465886337574514,0.1264698271706438,-0.14984595600968165,-0.09180258980818566,-0.06031113642560415,0.15502850715350092,0.10234941187235794,0.05982215574586302,-0.007429531853095244,-0.0323761449839782,0.15835991976116373,0.19125149473293754,-0.1563382267910655,-0.037869160606982394,0.22892883719776064,0.01184052894169433,0.056759891452665155,-0.19855233419946863,0.19817261489071533,0.008796170134132121,0.08610875494247536,0.16275009091357295,0.045854671724231445,0.22488452534537431,-0.15362768979944186,0.01907588112419341,0.1311778755604945,0.09135706309223406,-0.060532089212998366,0.1536225751515826,-0.04516879656708008,0.05499010876233553,0.1819047025699364,-0.07250186517912471,0.043470634927219774,-0.3057971050576345,0.10230495934312027,-0.1440071133756845,0.459705071877998,0.08284168963666164,0.047373027601156706,0.027766970391205847,-0.028352248952932972],[0.12061538329474539,0.052928347013029536,-0.06798176929570748,-0.09950168007649711,-0.32622981801406487,-0.10509634118094074,0.0771402374331377,0.02181771975224177,-0.009555947749191974,-0.028287682899649037,-0.21423268008509247,0.0148201366670001,0.009140733797517522,-0.002171141551493751,-0.04806112540233576,0.04061777548989621,-0.11377662624215823,-0.2793099636297806,-0.1268352809621607,-0.005761184307852756,0.01417239767167179,-0.13943215259601197,0.05126445243823123,-0.08347723079070617,0.029327690647604435,-0.17169642968958837,0.11940079683199903,-0.06814204336695984,-0.14223041736068148,0.09909104851988104,-0.09916271505209585,0.07075213134524894,-0.12440531082559333,0.4218302342674241,-0.0219879570888316,-0.057142461683060385,-0.1864795371997105,0.005505353814942417,-0.06302209138925122,-0.026383406723965226,0.02668533107940748,-0.0021016486205863894,0.0038333212560286833,0.38701433058355567,0.056285429967548414,0.05660395102745904,-0.019290906075446975,0.057084182231051245,-0.1646956087319373,0.20008765044474808,0.16583122859078966,-0.23494791084139527,0.17165081873972352,-0.03579447497162267,0.06677752198673993,0.07865876151569119,0.022934882450191683,0.0030483382327707404,-0.14930097684371496,0.16052723471487262,0.09999819532485392,-0.06974333571180576,-0.5564106887379173,0.22193736233159952],[-0.04365248555357075,-0.1473328597574621,0.0991243197538157,0.032432012391447336,-0.191497612670102,-0.1091743625600303,0.27386922846098866,0.2100071251057661,0.13363945420884982,0.04648260960609776,0.278671753659094,0.05964843519395102,-0.018607675989900287,-0.027893290794388778,0.13815706794273114,0.08743965785260469,0.127404258563196,0.09315457414690984,0.025436421605844715,-0.21989187956551953,0.004432376144508503,0.04215906649195363,-0.25910953905076467,-0.05781703000964088,-0.07733403446253957,0.09149519862564935,-0.08131789566232928,0.2536357360262892,-0.04177031502297651,-0.140021633954104,-0.05874860728479474,0.06494295782143841,0.06026433560612975,0.024354711526466715,-0.08872361046576463,-0.027764764397643665,-0.11871699247603285,-0.15620184695986047,0.007069132290459856,0.10190292965272067,-0.005060524755472393,-0.07652936746789235,-0.12725255074829722,-0.1763874637799786,-0.12787143547089552,-0.03416280851116742,0.023136176226234012,0.08572454950086024,0.02808350806633234,-0.017594477190361568,-0.14437227601472563,0.013686182705997266,0.11807435556554226,-0.2700025202006541,-0.1482371864995132,-0.2937198393775508,-0.0582205903295739,0.30411794129210235,0.28783128837484884,0.06627311106973768,0.024055617685238884,-0.00732440019336984,-0.08038748533375763,-0.12768717307776165],[0.19058034538864718,-0.015678923967742606,0.2110562699969719,-0.13298400461188764,-0.007102367120694564,-0.044461456531661496,-0.07940049050071402,-0.02138177800807369,-0.003939739006187425,-0.1092144848452506,0.12463598976670204,-0.10361331223085789,0.12786849173306497,-0.13033182116916542,-0.13681888175223622,-0.28404962980285803,0.03633434877463985,0.10609574483375937,0.017767537639236195,0.34069873674057394,-0.19440633503891275,-0.05557092418578226,0.04299253159125373,-0.09996445923755796,0.00880359211565744,0.10144664989122336,0.41756360828588646,-0.1843430841829862,-0.09300281213118651,-0.03899966442130302,0.2359500672830311,-0.03483948720664875,-0.13200207420449178,0.16668446030749207,0.025217230170660236,-0.12261780046155685,0.0750137679690375,0.015098194671193856,-0.013787407317828765,0.0043473613680419625,-0.0669475863959492,-0.09119568087237817,-0.0012717520937207518,-0.151921809828851,0.0685025319879318,0.22531931355522933,0.14899112073465687,-0.14643737988193126,-0.12855525874046278,-0.01867521680286123,-0.13629399631894995,-0.19122999942690241,-0.2855468783804284,-0.21198081623405185,0.04295394864474776,0.025806186107194762,-0.034052321765947934,0.20807211816651,-0.06501606753336804,0.0739796609086401,-0.09743833597420505,0.01944479414626088,0.16938506847963555,0.007941309492744382]],"weightsInputHidden":[[0.04496012240881087,0.06418248406737845,0.17658621497660162,-0.0469586957869512,-0.010966578242638312,0.0507504960218569,0.03238814086753973,-0.0820157648889557,0.03664112089800403,-0.05705469585437877,-0.03994543373092723,-0.00874630831871522,-0.05541099765745228,-0.04008741231096096,0.09061462266070507,0.07687058551062802,0.3520128463730473,-0.18429248144017138,0.11229632285550539,0.01484444382575778,0.20373617001262617,-0.20592204927033966,-0.2553564168687959,0.09775418644427626,-0.0480275651842768,-0.11199191158820603,0.05276201807731723,0.060353963084650464,-0.049254247503787915,0.1729614888498288,0.07386403806938364,0.11133477863732857,0.04471423750873727,0.11678427550116786,-0.01247147554215016,-0.07627470976454397,-0.10764717586906893,0.06713452440421344,-0.17192192815315652,-0.090354606578354,-0.052519288810510406,0.08811728623189014,-0.017110507086578495,0.08820656227009589,-0.08458149881124948,0.0771599937212816,0.16094537618638113,-0.00773518268372574,-0.07142346210491447,-0.07487472285996273,0.10928723025277172,-0.2788155282726841,-0.03905364569904977,-0.07107555747387637,0.21139903328360293,-0.026482091448859567,0.07981719221943111,0.12612001841727305,-0.1548443594482966,-0.1420758299736529,0.1963188505690653,0.06814609753257471,0.031492914465589494,0.011875441926616569,0.13045146217534664,-0.014382616225487648,0.07881102580738916,0.008731669857310529,-0.10381184223270007,-0.06392865722542622,-0.0006427483182299446,-0.14764444448591416,0.0645359292426564,0.18473584756618874,-0.12526858858958562,0.07927327457725629,0.04572655472925349,-0.08698079522779921,-0.03133082890690855,0.08694098358231526,0.019765001923185897],[-0.013822092028078355,-0.014699647610447359,-0.09523798124299787,0.07517100831045825,-0.053661369458059945,0.25532494633584485,0.15062523816571313,-0.10959310061268114,-0.05360630189452295,-0.008505755789914294,0.1290538184153976,0.05760988260350809,-0.17063398805964594,-0.09025546238040473,-0.0669965937225435,-0.04112694257782802,0.10772536706749689,-0.1472639826043804,0.013048960077005983,-0.05060007946718676,0.049834578457950855,0.029397317492209335,0.1063830596790123,-0.09842694018169566,0.12484587448390322,0.03475723684657383,-0.05907035586890123,-0.011500203283231996,-0.15452714871927753,0.038626937809524545,-0.032760337441833626,-0.16042351853550124,-0.11626927057661891,-0.1988123608779144,0.05332203676323923,0.11715307307385146,-0.14520994835268908,-0.1620267878941379,-0.08182051905946205,-0.017354176746759327,0.09819755411769242,-0.08169354607238705,0.13157363029208077,0.03586211231302241,0.05302665584973712,-0.1566502969861695,-0.09188420415834507,-0.36682002846012945,0.09406608835788494,0.07347122109602584,0.10703159111072995,-0.03258414019777814,-0.2420075970334029,-0.08756493719315836,0.09894781650553885,-0.09796920200349084,0.11080164694547034,-0.2730551230455295,0.03709620269125699,0.02694843026873849,0.17304964354256988,-0.04482327191522751,0.07943465172159225,0.10934683838193285,-0.06983678120161806,-0.1132195419320374,-0.0055138142765249415,0.08067144142682117,-0.22356379592531508,0.05250044376315506,0.29314836057245736,0.13043995090350102,-0.12296397084746961,-0.07251670977498004,-0.07485755149366441,-0.09340224276539642,0.15324793027572314,-0.23281319921013444,0.09853033864106803,0.007035140305973218,-0.17422688022037358],[0.04968106832747089,-0.12161208601305526,-0.05013819555067467,0.149056243372141,0.08556099627031158,-0.08165996243298533,0.1049337235858719,-0.014987793524228814,-0.16420872702616596,0.28804639186256986,0.21524315333874072,-0.23801233961118148,-0.016551225749673056,0.11427321720174845,-0.021801170157071493,-0.10679718595999876,0.014188411026133775,0.030703543933627807,0.0282167334070347,0.020648552626193237,-0.45135575498464364,-0.06585174026743389,-0.061658015961700785,0.28314672558071136,-0.3472743431023957,-0.17506410000600833,0.08183482853368108,-0.028446410863276813,-0.030772228478386475,-0.09396353127331049,-0.16370076930005126,0.10059708233627385,-0.11050470796278113,0.2085468047414768,0.10275097364082116,-0.04107867552063835,-0.16700302314068163,0.06344402814713804,0.046356217496978505,-0.049117805304206896,0.08379705089119889,0.17849911769724974,0.036609947868565786,0.11383822561254653,-0.06008345468224358,0.06338395323082532,-0.10010420178795923,0.04101858462846564,0.24140397327182564,-0.1506104973426629,0.04362324998380167,-0.0007835726505574967,0.0011001383917988957,-0.1754771992686248,-0.0342101489284911,0.1516523459270074,-0.050867003620982815,-0.2327934729299029,0.07112014467526202,0.11409283025821544,-0.1993922304296906,-0.02508629638163153,-0.0015324936008232427,0.04295837116705829,0.015305131305119292,-0.0557519439552224,0.09456864238116071,0.1709694269700733,-0.10604483820228174,-0.135767654861507,0.0724690183534433,0.17431981261603308,0.06361381777833183,-0.02136445518137134,0.11117839545917832,-0.10316727418705542,0.05711146000227588,-0.11636633598229666,0.33614777574468363,-0.0057203883963259355,0.12847725651436817],[-0.14479344956896842,-0.03187705128072454,-0.016997346322079106,0.07199284582217601,0.14229392457080808,-0.04728263749794752,0.1715740541202204,-0.1568821931550685,-0.24144184514671174,-0.04252044183239486,0.03498149633336051,0.1063912600620875,-0.10102788315101145,0.059772791926080676,-0.24512548716073113,0.03610869274088008,-0.03894045063787806,-0.02683236268200534,-0.16490920408963314,-0.10062474468610345,-0.03804083639866765,0.11981436608799241,0.0828826994158159,0.09328556716073978,0.11798085220436401,-0.2748718286793604,-0.06617092450897902,0.10861784758870457,0.08026128262950841,0.13870353119984763,0.07293125257072501,-0.061186421081828826,-0.08801242433249029,-0.09599511244689396,-0.026857902694954878,0.06484363102940426,0.1469840438396592,-0.09413213210191057,0.07508667615399868,0.025035427514590997,0.13956331810891742,0.18046873952715495,0.0018320739516626626,0.11411897490880551,0.07290409170303963,-0.09699371677453286,-0.15670972166753314,-0.10537730328747946,0.04071965178865844,0.27711153067383637,0.15959771904437897,0.05248250450685933,-0.044314770279164646,0.12697516077468818,0.035019849930966296,-0.11160851037238465,-0.33348106833526403,-0.020761338824004428,-0.06074819477454217,-0.1802609857532057,0.09344268875920153,0.06273488817750063,0.0918550560708079,0.005702150763331453,-0.03202812336557719,-0.028885792138313285,-0.011253321062845923,-0.16897961945772932,-0.09429088738895984,-0.08640755499300545,0.08592983336988173,0.35212367348140833,-0.03726298731888942,0.05600425529655471,-0.04375315621358959,-0.02042572333925427,-0.18975872687519266,-0.05218465751168181,0.02628139810304979,0.24454431046933092,0.020521917226790115],[0.10537341072428205,-0.1372024615676297,0.09372663401967442,-0.13964576426002973,-0.030129209624853135,0.034806930824129716,-0.009168710740951455,-0.18857673660397029,-0.35510502266966937,0.06444422350581445,-0.05468153449255043,-0.06163801122127178,-0.02562720095195299,0.15925819222206192,-0.042025242554236716,-0.06862700838266486,0.05048638451478031,-0.1357905270919237,-0.028512347254528943,0.14980623767218373,0.13076033783722557,0.11149136402750766,0.21227133132861611,0.07002976207309634,-0.06652142222002887,0.11855922959083101,0.025304715644103803,-0.03753312058838972,-0.10656934895849617,0.21941385074247866,-0.039907061741567905,0.008546450083019247,0.09778128036879907,-0.03165148189564989,0.0654370945091118,0.10977166560690434,-0.22087323833375638,-0.12155002758295719,0.015597286649684901,-0.07994737724435927,0.08388971601596792,-0.08456047215481133,-0.13866099407704294,0.19298711812342187,-0.18869552489451427,0.06941093735707911,0.06736883584477521,-0.08808794799434314,-0.0825747203731695,0.19699081986067854,-0.0741908890561726,-0.16093849433838936,0.028658886048735326,-0.05871185185275002,-0.10285197242519244,0.03415031038874805,0.10946349244750755,0.04547047401305754,-0.09296212955789354,0.022493409252404905,-0.0408685447248718,0.1007343599411896,-0.05322776267206198,0.07526570278656396,-0.15845838599646445,-0.12091958362858192,0.00909557449691668,0.13856546480540616,0.15328904658263115,0.14952275915377503,0.11668579049341098,-0.11322183963568312,-0.3691072256785829,-0.15653178850890268,0.015560662686979048,-0.19205212673253566,-0.010821710266238162,-0.03863090423179589,0.05873601365032745,0.08741941998470143,-0.02962251385716692],[-0.04959196529716335,-0.02889383667637074,0.064368311689169,0.12004345082705337,0.053457202452912043,-0.13719230092955115,-0.1507381924197012,-0.10675133043675579,0.0954089933651664,0.016929257154603777,-0.18441438911201236,0.011763723809597393,0.2737478559070253,-0.10349216012748368,0.05621556418359811,-0.001358256220055852,-0.05761388518435275,0.1160675656450719,0.01459493136869871,-0.12243641449284809,0.034984574423141776,-0.06567045718092314,-0.1404838971595386,-0.06953631308769369,0.034752632993357464,0.14904560288998125,-0.267191727480285,-0.038397575378571074,-0.03122924374977156,-0.08580989781189163,-0.06864080693935748,-0.132169976179118,-0.04265197549016657,-0.09219010585431986,-0.04457565333160287,-0.1056585937666686,0.0002579573923861966,-0.09410630713307858,-0.2528600520587442,-0.09282028041202786,-0.016978476395361326,0.028807984054889275,-0.05264586379447611,0.1339646985610118,-0.10766653705875287,-0.02819265251337719,0.1343105569945336,-0.07088240679348069,0.013107238413714938,-0.08065864395325444,0.06729345816500065,0.01965918561880527,-0.16773497583540803,0.09329099455633941,-0.07189289363841349,0.12904160076571844,-0.014557921042085632,-0.10158983311507434,0.06116391604299571,-0.06826025837665287,-0.11174778821527076,-0.0104548422150192,0.11236339940554399,0.03322018178759947,-0.0035898001176857966,-0.08154948951549684,0.005905781885353408,0.06445677964282058,0.02780756817580124,-0.02983486405040668,-0.0945204139061482,0.08993086560407616,0.08982105101142124,0.01912760271691871,0.01702292521508334,0.14702556608867107,0.07746224807930441,-0.09420612036666712,-0.17872184876368735,-0.06094445862755099,-0.03542003098944338],[0.18750546765239604,-0.02492997312221724,-0.06915823329943514,0.1215681148743118,-0.10633410132864017,-0.04192326512207769,0.11188120864304718,0.11600251117164462,-0.0727816974377198,-0.11537276020249543,-0.17308360023248567,0.10029015862999623,-0.016977052438440214,0.08619829813077363,-0.1118669775664294,-0.08732618687574151,-0.11748887435426202,0.001840974319032111,0.0469943393732764,0.16517742044000158,-0.09295554871018721,0.01934365824842087,-0.11260712108437934,-0.04609975395195018,0.1375547207753702,-0.17392343959739212,0.022363696651483293,0.019976178397847977,0.11094940291878806,-0.2659852712424034,-0.010931344496450656,0.23543677650825504,-0.08440152262618111,0.024134621858958594,-0.08428640767517463,0.09641831980255876,-0.05656060852213295,-0.06338796966029997,-0.036512796597910346,-0.14782702419109417,0.07018968160572127,0.04272697769103392,-0.003632054682869585,-0.15231949013277776,0.10714763682218457,0.32628805742288447,0.09149190883224669,0.06378854861738355,0.06525096834274993,0.0653755957823667,-0.33644667154606,-0.08074864731975426,0.05499727966824043,-0.18113645292704628,0.08831387466249187,0.03184914362496079,0.2669768734617433,-0.2087402433577131,-0.04969368617235084,0.029409849815285858,-0.06984678550457517,-0.18992502885105791,-0.007153478486862749,0.08463836292151461,-0.1710622665562999,-0.08423743295038569,-0.07207407493634276,0.04509610243401776,0.3146126691877788,-0.26994113846730017,-0.04501595121327613,0.11468631799703362,0.06880697463489688,0.0976267200646284,-0.010585029027193996,-0.22321078983760248,-0.08536871027247916,0.005824361022808107,-0.09318370528421153,-0.0033141533399714744,0.1331433231873054],[-0.018781920629690446,0.15119778354777105,0.03518368692015089,0.17910155436716207,-0.23210692455558016,-0.0992327088701835,-0.0997176162424443,0.025385089487072385,-0.05418959805386349,-0.12799553265429192,0.15121260498306535,-0.10265268007068522,-0.1375752825808349,-0.05441909662208924,0.008604112435215012,0.1192269325644135,0.17087182177863341,0.10384274638466688,0.0528267193028955,-0.2589318839004028,0.09706006417893502,-0.02539305012427796,0.10852795267736405,0.04170972043700963,0.1670756232051445,0.030166800478171645,0.041304072394047396,-0.19759492199199785,-0.06333294048572255,-0.06029703606903557,0.039090298820311654,0.11441502912669091,-0.04820145071325254,0.08202933966652637,-0.05774024935456476,0.05749044176656046,0.10720760217986651,-0.2676976124420961,0.029062943731979755,0.0005272921305389737,0.03998567542632985,0.16100981365767522,0.1709107288757004,0.00812393142095047,-0.07146597367023237,0.356325388094602,0.01765368394389699,0.08600856691603556,0.08490240443556082,0.026996542996720985,0.03292869788733248,-0.21540840741932485,0.04593077196700281,-0.10435147200493125,0.2633455296233031,-0.23679716851085916,-0.07282796107670067,-0.12192658026768827,0.07324776907213246,-0.06922591735873354,0.08085851326868666,0.0982391136171432,0.0606853512049598,-0.15398465727036806,-0.3122770806273407,0.01840114253084432,0.05493293898898278,-0.013745424264236687,-0.3981578194450033,0.06027089427068226,-0.08650810439169951,-0.10781957456137924,0.030722108949492347,-0.0501252315014492,-0.00267172616975268,0.09922163990402887,0.04971758253883813,-0.03812412305864689,0.06017108920201175,-0.009129913071974886,0.39762396329063143],[-0.0007586421795816602,0.1014016532991099,-0.07284927268690018,-0.058091245070332816,0.10608953571633367,-0.035255308017160494,-0.06640544037402164,-0.16959412872742877,-0.024538841905265247,-0.10394705715444302,0.03625155233054371,-0.01781196738552281,0.038287684637745185,0.054764708146224916,-0.035541661973598114,0.053317924097510766,0.04070531844509211,0.15086367817935586,0.29732765649271825,0.03630869787567704,-0.09006001635188565,-0.10409187603100795,0.0799286728981706,-0.046491306456673875,0.08055272598957922,0.00809760817362946,0.08279636129887571,0.1246726546877271,-0.06302324571466784,-0.050950022107177556,-0.017419677126482902,0.03987852149398347,-0.0717957448099522,-0.1830133892930128,0.23870000220906198,0.03215623494366561,-0.1297925101328314,0.025883065509665668,-0.048165734866462945,0.16033277478092228,0.08474663583040189,-0.15236549120837078,0.0406209245223627,0.10473237351164792,0.15330669644717834,-0.25847339976799194,0.00048538239747459953,0.0021518358872919434,0.09578329657721539,0.1843794302077476,0.17299892890558605,-0.13074747891339467,-0.13182050793089295,0.1534374375393342,0.014433877965760284,-0.15460525246090803,-0.170762345504037,0.11154364165945248,-0.09686940981818279,-0.18985727834125513,-0.17778016162422733,0.05783296624919938,0.6281717606501286,0.049037579781776634,-0.009868094121753586,-0.1374080297817261,0.12261369733811177,0.06735117768757656,0.022759618890044808,0.12187381324617809,-0.0892473607691595,-0.057747077484490004,-0.11605453843173044,-0.0647841586742184,-0.009570262684210984,0.009079765188857563,0.22561481188820615,0.09026936455957925,-0.03391714961358186,0.11683731278644854,0.049224142701820885],[-0.10993818395668173,0.016144318855770105,0.1463107835214723,-0.07105399351254303,0.06749465628584486,0.08792041100789023,-0.04344727478655616,0.05402973380229593,0.024469445374179864,-0.01818262450404191,0.09577969645667521,-0.03148736751679775,-0.18718785929445814,0.010508245441051771,-0.08813582000582415,0.17601368897030759,-0.17645564306398592,-0.019573335289900625,-0.05421593816534824,-0.04073669941309934,0.0830034170874299,-0.042848558007930325,-0.11345454916843412,0.043298406300947445,0.035110040372724756,0.11446806955229157,-0.07625781013439425,-0.10243992949004452,-0.016070135715929645,-0.16323172548500203,0.04964552924348204,-0.02875119493767411,0.001160793102599402,0.06673647353761195,0.11409833371107242,0.025543326502528583,-0.024036385348976345,0.1479353216496957,-0.1024202815245515,-0.06463653676842693,0.17877283838696828,0.09440026910302445,0.10370813143491604,0.021374344812141493,-0.0017558091147948129,-0.06647280324851315,-0.04641010248760564,-0.035135751311957585,-0.1021569561157592,-0.12565361377560494,0.11259437257953891,0.05999113450994221,0.09942947644881694,-0.04814165989783314,-0.1784810477791323,-0.1316962892599881,-0.06378027717399878,-0.03506241314796992,0.0927784350498444,0.08151687436291218,-0.2945730887606232,-0.05120740064954597,0.07913580080809801,0.2601184966515772,-0.11227413585202282,-0.31660893233750775,-0.021503410555623305,0.06208501807295803,-0.13114761678911133,-0.04733774967649776,-0.03774933352319336,-0.1756110220194268,0.016534903097607776,0.060106093100487534,0.005916815754560357,-0.006770483695344713,-0.17564661798744619,0.10999390543670798,0.03933450111455959,-0.0024168163595930294,0.0022280101534201706],[0.12429978823267067,0.05972676549234187,0.08978613416893674,0.023686862636666414,-0.045426553583027184,-0.08907230576228697,0.26428508586396277,0.1871115674015081,0.2530254711468417,0.1145534027322428,-0.2135974957301358,0.098346663214988,-0.08317661180347294,-0.042877433804960674,-0.0928508823761275,-0.04492576678013772,0.07331271094750177,-0.04241488270702787,0.10564970678734854,-0.12801629760390135,0.08483533092514699,0.2763054458540189,-0.3266595459395794,0.0796707886281541,0.08067705197565773,-0.09207692617975154,-0.24488593672679515,-0.07725017375731029,-0.25827814804231086,-0.07426272436128245,0.06936475352551771,-0.04772186017828946,0.04169577143926919,0.18726448291040623,0.09740863008983609,-0.20222059086199665,0.026626530000554927,0.19835541272311633,-0.2742548917656081,-0.25872072670689206,-0.04683802196789196,0.0419209178688696,-0.06387948113795902,-0.0853884760358543,-0.12717342699632847,0.010142402983262173,-0.028742410537754264,-0.11576257757036044,0.026793048281716338,-0.05374407424929965,0.09109079877173043,0.0697496066022051,0.2578336726839433,0.08333305851312486,-0.1662394025861249,0.057202701024291105,0.1456272832287463,-0.028637436609337045,-0.08264662799501198,0.10117084227804424,-0.09121907844497923,0.02864149084001926,-0.19682453956104612,-0.20811205497116694,0.034042789146798785,-0.1735021942898198,-0.05212135287395705,0.06350483727534158,-0.17276715738530873,0.08062707765171394,-0.008845344190689065,0.3409778023419728,0.026677838270219863,-0.1494973577955832,0.1495312408911217,-0.13379130575036868,-0.12224722838931912,-0.0134794239345506,-0.06170437634278696,-0.331641061811887,0.09742917224104862],[-0.1100210022097952,0.23594420579957937,-0.3535804943465839,0.08415286132484462,-0.11138657686638652,-0.16688561526414544,0.12490887704028947,0.010596926638417025,0.18577494248875148,0.034309236943100174,0.022111417122459044,-0.0021128915762002837,-0.09501368943438397,0.11788586836270591,-0.18910573642303388,0.014967438887522663,0.32703363061539864,-0.08708434051217034,-0.13755883803180027,0.07093772394990604,-0.10112037758049032,0.05901684666228119,-0.05137957285544201,0.1354969646604165,0.08902742067046163,-0.024863996327962167,-0.055068120371571036,0.04752880074693725,-0.049522745326337214,0.019690757397031914,-0.06619988266752684,-0.013979668711152226,-0.1731306489801437,0.27630542266345876,0.10111838292111863,0.12023636136992759,0.015361975501842371,0.04515256133564611,0.14640159623129237,-0.10827184612909949,0.09028521934396712,-0.06429443833936636,0.049445284744039183,-0.04631239298581701,0.0728254030854277,-0.01637464573715936,-0.09516158835253512,0.05728651052207788,-0.07212857800566853,0.04079943351804914,0.2736320050035208,0.10376968207947718,-0.01597432168070786,-0.11788099269752204,0.04102145980406079,0.0886816476001398,-0.41430372128136617,-0.059293311673328804,-0.12018433405363892,-0.11359404770242901,-0.06685512092346745,0.15200991408742603,0.04516895202006562,0.03807658330354817,0.035478192271704394,-0.16423807388976328,0.07425282116900672,-0.08418305901438083,0.026440311963116615,0.009029954502157756,-0.020807976871848464,0.027849992733326414,-0.12285201935026405,-0.05417191291854136,0.21551808530245944,-0.4140742267125232,-0.26305380144428564,0.007528580551282389,0.07123245902533477,-0.09215001413361827,-0.11043121781727488],[0.018457262868641574,-0.10882017411585967,0.2918071835000427,-0.14527305903072243,0.002980109361301725,0.08421259566785251,0.10502092964426848,0.056896896127758695,0.0301195124612407,0.14517795592894592,0.2646490497553897,0.08852177979806082,0.026745787633034923,-0.20684256744729396,-0.04251209777041325,-0.10763462202777808,0.1871211111340033,-0.06699202293072738,0.03660637298761038,0.1719471012372817,0.11911180503533335,0.06384797658928912,0.006705182673846743,0.014190762202510872,-0.09148615872008474,-0.1865670988827538,0.08150447336819557,0.24377033897821831,0.019204541943740713,-0.04147688569707215,-0.11293390731925013,0.38370765093059583,0.09785224948813476,0.31648009326800897,0.05661364265163791,-0.019670109426318392,0.2528949810076995,0.2790528046864307,0.004362841398404418,0.36341107292792063,-0.11537761583627264,-0.06728757571819285,-0.425082126901473,-0.045733350469484,-0.07933658028291297,0.03581188887501394,-0.0009753821379632646,-0.06591809510919765,-0.01847653154569327,-0.09122861328054996,-0.1338236636387529,0.20382895365573975,-0.18744694932483222,-0.16443766834205725,-0.01665327709731543,-0.08325027314194774,0.10466419662701756,-0.22241955561421325,0.04747197513370478,-0.19967266490685165,0.04525512404175345,0.06986692281744858,-0.03677203382713225,0.057456758806359025,-0.039442604157118824,-0.12059103407322716,0.08405654338729893,0.09912815705982138,-0.07501546943926647,0.013003450156379229,-0.10293113333399445,-0.002764844013291129,-0.2722372025577314,-0.027360615363406754,0.02769155360104866,0.005823576542407204,0.30697080856997117,0.11191686812925516,0.05144029229179687,-0.026242442500533706,-0.05847140000738524],[0.04969172154984399,0.08176074256070132,-0.09890136513500285,-0.012645498305199837,0.13289749127628028,-0.09545003898615413,0.02124818799912918,0.13812761296313208,0.21994326258356608,0.08024567178440163,-0.07918089639558841,-0.0842233556520429,0.10421788143833219,-0.005155271471891708,-0.09903476334174881,0.05058206731893637,0.07943758454934087,-0.09533925025193975,0.010288394664344617,-0.11223766009408179,0.19945179073678096,-0.024687687237491946,-0.3011211290615929,-0.0833629664344075,0.02381952151735396,-0.09555275770210304,-0.10253713100020694,-0.005516291038966951,-0.061323846182877055,0.15216030180540274,-0.0021260822746486706,-0.10037996836557116,-0.004837259860879994,0.21963754963160054,0.23123298719339708,-0.15411157066570047,-0.10539298366290444,-0.006485127069930704,-0.12029191498187133,-0.02851782805645958,-0.07450171356231092,0.10530682659012007,-0.10250235646271677,-0.02175710299147326,-0.16750692308015902,-0.09840026049138963,0.1988277000411167,-0.044822458930989496,-0.04735023435321259,0.16227463518108293,0.0789446772527479,-0.14694970963492332,0.03724297540261419,0.050007615044993396,0.08074830802480412,0.10207082936595506,0.050062546407357245,-0.1452289236986586,-0.07684233326413337,0.07537542760778564,0.1232492651366984,0.17632533404685766,-0.0010983708885917466,0.16181695931213613,0.022836601569463988,-0.1093502858872584,0.1286792752227056,0.07548211608865098,-0.09028321115828832,-0.08117059625683412,-0.03864083866676539,0.07361781082407377,0.005537882266959141,0.15459019236669555,-0.005625083533411532,0.09713802885415639,0.17704369541867213,0.1708574087054592,0.00927865622050249,-0.4382970528743882,0.02577460008580239],[0.048003286316757016,0.17369412544149207,-0.08612467962661076,-0.17635945238792006,0.1815079199579326,-0.0674525598809196,0.26436548772004603,-0.03565707748077226,0.10136557486563919,-0.15098803671383185,-0.008341897361630586,0.06431183283901667,0.1711582738844208,0.1175577462606095,0.0015337464836084889,-0.09926916241623752,0.10759400702676977,0.016469053444748454,0.0313047498683643,-0.3123661072463526,0.09007083840752257,0.12807290997838008,-0.20547741908010983,0.05888948986516475,0.001773953455420245,0.015179891942076378,0.14368960450113383,0.008602303075030796,-0.3814239669113864,-0.08887611094612424,-0.0544745266541618,-0.14998902060534375,-0.05256699832802063,-0.1364048413604707,0.0573794280613238,0.017046759618457467,-0.1310227748470518,-0.0288027992071948,0.058215112580564866,0.10218687815887656,0.03817091206888636,0.1841062678238867,-0.17477525346434197,0.24453082108236796,-0.11577563166941322,0.05277263756113048,-0.10477809011715716,0.003963030257084541,0.16952115946484295,0.12613470696501408,-0.006976034340803182,-0.05866674138521749,-0.02850612131024504,-0.05710821283017477,-0.065947152476342,-0.03876989875550187,-0.08642456812414248,-0.062489190592556636,0.14088340144471506,0.02029560191585972,-0.028093182214727716,-0.022378603795847985,-0.06997790378502756,0.08240249176025606,-0.09310606739565724,0.10181240618039152,0.07777309402245308,-0.0765185253306113,0.004385665236483949,0.007799778798669295,0.04558368889342577,0.03168492825284149,0.1749747208459349,-0.15944447398430084,0.040011285417333606,-0.09078710113486774,0.0655829208558102,-0.15977187510254162,-0.10642017940174116,-0.10484174335696003,-0.0012189981865792533],[-0.04017022646259203,-0.11178864878344005,-0.041290185248685184,-0.09258315960183125,-0.07845907354177466,0.2736347672606516,0.09002851234765366,0.031312003934349346,0.07469417869209272,-0.10133058015499465,0.1094368748506971,0.021671072045131468,0.0029233563369668153,0.12857594010468593,-0.13841320745956526,0.1480139049366269,-0.023073276587318996,0.057394760400179115,-0.0027735900301889163,0.043243507395084944,0.03393428529300265,0.20572685565521384,0.04251443113424469,-0.054982271610885786,0.09614973810730279,-0.07667849118800556,0.007216474581630994,0.037549317473695755,-0.1035273491152356,-0.010741572307042355,-0.20840072376298016,0.1562909613696837,-0.2908308860614965,-0.03980151400119945,-0.038591079865325305,0.09992260702059994,0.06644180257948826,0.020579197833676576,-0.10201129858014543,-0.018962803592968393,-0.06890269429879982,0.22259379183477976,0.1228290596911216,0.03608604309961229,0.034725925098137926,0.15619756408386656,-0.1962153805457577,-0.3344693370039755,-0.310305251287211,0.05051960357344478,-0.29465737265390995,0.0058957020564508215,0.05319638655858163,0.12166407375938752,-0.21756475970448205,0.0177417560351549,0.25304718504626056,0.1281204105764105,0.11558963536199422,-0.19319533852229337,-0.1174449734862596,-0.12407945902186057,0.08960531046049428,-0.08472259665382592,0.0754974191711726,-0.06068542010965036,0.09934357655966555,-0.007620025237661835,0.07250928121248267,-0.20808421604093563,-0.016234463451753015,-0.10845044347102556,-0.09424159474225922,-0.08701023640072504,0.25900989410046227,-0.23415386131932803,-0.08571398330962628,-0.0481842752392447,0.12136068816250815,-0.20250495068102292,-0.07217875554037029],[0.02924676496226841,0.09359207979037126,0.16095361901579525,-0.24311061172758996,0.09633424213907307,0.14063621266397647,0.04310675672550918,-0.09334108386724498,-0.1408788527690654,-0.19239294720616137,0.21533551951786573,-0.07845745267015246,0.07118329754175647,-0.14440450954694686,0.08821043461635833,0.09020383933648744,-0.1342019142768383,-0.19532621535753325,-0.07113751461186524,-0.09998568228817879,0.18365214240838637,0.01895642869316338,0.0910646653628332,-0.09873970140988854,-0.04094696884059482,0.14048926962689637,0.023523665545549733,-0.04659140981899247,0.21445282485159944,-0.07436679314780369,0.14697287452024002,-0.11848939701494585,0.04878983115985431,-0.038095559343705315,-0.02867197222040791,0.15657657592988264,-0.03526699113816773,-0.13307655060874782,0.12650132044322518,-0.11515494561569299,0.038888648867110624,0.008157156180504532,0.11438754897706956,-0.004796026606253683,0.018560292410218393,0.016212789470867052,-0.17181447156071017,0.1047025231324403,0.09457893463666305,-0.03693071927319605,-0.0759642239131445,-0.30017262225156366,0.022244359644698897,-0.006731730895690288,-0.05866442952255159,-0.09513730087772879,-0.1678643597625201,0.12334314066352102,-0.10694240565892811,-0.05969552133389499,0.12940326459423404,0.027844645323636216,0.16560098231441497,0.319915198112816,-0.06534936820439011,0.005996069462027509,0.009485798379412817,0.07073028976817883,0.13915915882022417,0.03556729584497409,0.020596898593531303,0.04884133133517817,0.04045736715407186,-0.10989919539200016,-0.022753451132007132,0.0022145127647119206,-0.20589181390825037,-0.03487237096217213,0.05177327355211881,0.05176672830526945,-0.07934081308426837],[0.032858898259631036,0.07674675366318234,-0.11602494810416179,-0.25504015124465457,0.026947259751395166,-0.007071242605773995,-0.1401830468470301,0.06696069786872041,0.15475137021112667,0.1718007006225817,0.03398242267165775,0.07135655294925046,-0.3085772935829789,0.012906042718836658,-0.09020751437722571,-0.13496471618198191,0.019848528910531633,-0.11162534461322088,0.14214404000822234,0.17348237657890872,0.2667951584296769,-0.36463144655260027,0.08347100647833101,-0.08257232113795597,0.0021428439302353555,0.0781263328280801,0.1591830384959165,0.2899883533274701,-0.18606341686777206,-0.022854665622544408,0.014372688083581539,-0.060333139533494465,-0.06974361583693092,-0.10678368372202326,-0.06797179628840129,-0.05149060118832961,0.03937889935486623,-0.09857203632129727,0.12532311989704475,-0.14004379392700664,-0.2833243333611566,0.10063859204239917,-0.057300628513779796,0.08709790457483325,0.12459185896855439,0.09887495991245004,0.033361055978225404,0.026830002468568096,-0.07099373209365344,0.04791193198790886,0.07072434840707008,-0.013123425218851589,-0.007391114462635044,0.12777749451457887,-0.07773628635053552,-0.11151863831774331,0.03164172753283938,-0.208149044062717,-0.0009505720964211524,-0.02563797010857152,0.050120519366793556,-0.16845957699075614,-0.15056109415820357,-0.06961551536029094,0.009016168124396874,-0.08529446996734649,0.1909119365006566,0.06718487338920659,0.04502718154494076,-0.06697259911065265,-0.07114612736189091,-0.10978159537278064,-0.02028935284785865,0.011398755557066724,-0.04691466694176722,-0.062118544665087295,0.08793641315862881,0.02153283571545004,0.020891086960841826,-0.09440711994010496,-0.22166161040919122],[-0.08264535758345264,-0.37772625957967476,-0.0028201460233397797,0.2901977529173428,-0.02312752264713708,0.09163663284440214,-0.1264892954939503,-0.03786536694273644,-0.07735809195037222,0.2096542753902533,-0.02478990082908299,0.036497583894320125,-0.14246355173040437,-0.11862661647310362,0.26390383329577616,-0.061429174117643835,-0.1426264148741591,0.29045645971063005,-0.011983807300886412,-0.021241641935790673,-0.05375534634917842,-0.05628652197679215,0.24218211948187082,-0.07401537853183983,-0.0074766889810591285,-0.18803595353568645,-0.08774809493956512,-0.2574388318915473,0.10932144590711426,0.044010455689916225,-0.1015033052058601,-0.17884388375160723,0.24070126452726162,0.06339641894859016,0.052794486590318976,-0.09440156731972617,0.10746259692008525,0.028510589987573866,-0.15644291587715262,-0.056598865021237316,-0.3033790407107984,0.06465173987641007,-0.023868064342170904,-0.09677647369354922,-0.37241811838142325,-0.15340083827503803,0.03101487182133587,-0.38585214385816563,0.014437032584871102,0.11379920208036137,-0.07812391976599918,0.05714444352121149,0.018273817485958643,0.15167500750819488,0.11012848539559164,-0.052741562455182314,0.06066462256672472,-0.23041339343015022,0.08210235157532284,0.09594349147360166,0.1791392497542586,-0.032745312588017925,0.06804714485822637,0.0937559975133628,-0.17027440316257797,0.35351969022980406,-0.22275732123049677,-0.08291840367282621,0.08039288018261792,0.03514048813558904,-0.05426233362543304,0.011350949713452465,-0.07489026209647918,-0.18600834527900295,0.10893129323706707,-0.015057332652492846,-0.037294915568738804,0.044976105248381096,-0.03419546959378649,-0.1903515104007549,0.264068387540499],[0.10153417286633622,-0.03058579261425519,0.09733213385463549,-0.10686912360598587,0.07541964183511411,0.06675411012731967,0.07193240999164911,0.02561656471969046,-0.06417326640543808,0.08916597380570061,0.044330491458063795,0.0930393324268249,0.05710535171431803,-0.05352470570004224,0.05867267240365386,0.014091299569795171,0.12080418614713653,-0.0731323304627432,0.1045134456029131,0.03613902650143239,-0.059351192520034915,0.06888408021063645,0.008004440859705421,0.11594806382849136,0.056352480521095226,-0.24628235378995447,0.10118690128818981,0.004419038342084474,0.1629010920093757,0.04190212116782102,-0.22476962021366723,0.08745875242532061,0.1075599133089044,-0.2007282814879209,-0.16389765073156912,0.11296268015570461,0.15365584543388722,-0.07747610671635446,0.1497472139760872,-0.05481528583990188,-0.00012635868226841795,-0.11109068652924732,0.10515500387286157,-0.05349017036399976,-0.016128770093876758,-0.12421668414693689,0.07835738418243254,0.04772157215673457,-0.2871224517556247,0.0370316765660832,0.2418967549272299,-0.06488971433289441,0.046197723388493914,0.12234632691981227,0.0851813883353721,0.1875167626402309,-0.08793090190401588,0.03073109963735418,-0.003136328667920492,0.05173973681885823,0.10023997638148224,0.05554216097665206,-0.12295749455149127,-0.06899077990135152,-0.03250125024295166,0.06831144173054092,0.1135274542583761,-0.14725261242833895,0.06995046319750292,-0.03996530336962985,-0.04787203979479817,0.01187799406627178,0.09443778352917201,0.11678088782693168,-0.04697278557378225,-0.08393869162505967,-0.4795537684132623,-0.0908124330073552,-0.07301090338896564,0.10850788381943267,0.1739831252042441],[0.1889455155274005,0.1094137463376422,-0.03957715589390546,-0.031352650267018216,0.06448208322813588,-0.08404836045235121,0.037945065231438445,-0.05613058652225882,0.20180858519272765,-0.03435394753025936,0.04174649121013081,0.06216495647805085,0.3010127462818593,-0.0801342626087949,-0.016213902094113462,0.10698051281224943,0.22165619814753995,0.27143203212884237,0.02708602752401309,-0.02472813487577857,0.035699075748017076,-0.06108761092088243,0.22125801164752504,-0.07179877724252219,-0.1612491046180303,0.006602481431287704,-0.07969574342890817,-0.04631794394217476,0.043703129634918125,0.01451918817467722,-0.30229927207379625,0.014364139477915903,0.11777960758707229,0.1611500396039734,-0.2436402921293859,-0.06320009538785461,0.025948756952876448,-0.03441517598974096,-0.038645874137219684,-0.04050767888875215,-0.15411558283112245,-0.03715083147716939,-0.014201851867798713,-0.1559390790940263,0.07278634233031206,-0.07450235413849339,-0.02367773353685035,-0.10983279534920408,-0.0362203373624288,-0.12402392696805117,0.08484554236966528,-0.020179226523409158,-0.04348606721143104,-0.09699044402450889,-0.095781918593789,-0.23611471815340634,0.010416799762189583,0.0875647323509806,0.11501057951800965,-0.15216479025922475,-0.048523929962592784,-0.05000265789450753,0.1856801502731951,-0.014755246215674301,0.10411856382621026,-0.09118107150226885,0.2723739786162071,0.04480428836235156,0.1420625417960443,0.06310027656549846,-0.04025643933598801,0.059860973608978164,-0.1243300814826118,-0.25588200988299203,-0.10519106141744601,0.05251615062096337,-0.13462727296478846,0.058580038569563966,0.18092509042580918,0.07759750125237089,0.10963805806613043],[0.029289811827335158,-0.09670855359590898,-0.17513810295498736,-0.2519635464343897,-0.010998603224970122,-0.06064248570543605,0.03264828276222903,-0.25672570671107403,-0.11068640028667112,-0.013090879291754313,-0.08582502247121863,0.12784157922060418,-0.02054164775247711,-0.09392384652511362,0.08274499681968601,-0.058854175581980604,0.03635939837617863,-0.06383830320164853,-0.0373704154935754,-0.023487485817027625,-0.06338059991312991,0.08262407540205523,0.011277427814552701,-0.11083490762821029,0.10221609708542605,0.2677820678936028,-0.03132053339522601,0.024107723478105147,-0.07433372376417251,-0.050315937031268826,-0.016291864777964085,0.06505677148156766,0.2770665589067497,0.1227897383336121,0.02983621200814529,0.39512520936048867,-0.3286119117568898,-0.03942031811921429,-0.0950263678629791,0.04973583991453851,-0.15912588656874851,-0.03671399920142796,0.13120450272021464,0.08456526478075073,-0.09245868410462842,0.16235071604924553,0.08555807481659104,-0.13672604803042704,-0.07449430486823103,-0.06176044909056646,-0.15811570189695265,-0.29330011879407064,-0.07748368364621959,0.02020041684910173,-0.03181216419323185,-0.07432004047036929,-0.03624632704209438,0.02638667706861538,-0.24528450728970808,-0.20676839934709484,0.14358898463873213,0.15226296436219247,0.08099958847631412,0.03484659993898788,0.1236285007309172,0.1313620619367542,-0.0675142464972811,-0.3449052554052843,0.015153133410983812,-0.03936978444650139,-0.07190317874526424,0.028596149112284138,0.053642634339938725,-0.12360752740470284,0.06274244104421733,0.04643720697438014,0.031688828076362835,0.07925271103249863,-0.11611392616343756,0.053764278660852864,0.026718792450820653],[-0.10527601647435889,0.248292368589174,-0.19791165599880406,0.10910068271013762,0.09859719111256893,0.16944594171240548,0.08290211506174283,-0.027512930187625066,-0.02060354012125868,-0.04941205622793146,0.0008165107283677879,0.1700550829549034,0.09336094734890961,-0.013754494326605447,0.09529234360064931,-0.050095510471222855,0.04763239382550794,0.04113489661289142,0.07462826800187256,-0.0007078948954162048,-0.11095983050867854,0.0000890424869146664,0.13991775248266733,-0.0017369472333161743,0.01401121663629066,-0.13518209470859624,0.09178149402092664,0.05934378320513867,-0.10561841142002087,0.031542392491383665,0.24790399606926408,-0.21264104966925906,-0.03278353491201692,0.05733220875002429,0.12715059239386156,0.2264675143912522,-0.03148307014837579,-0.04969981303563055,0.05757333406233721,0.0009053790500764811,0.10959034995149577,0.20128260316278845,-0.11627994837335229,-0.05075178888407134,0.06890077470400942,-0.023826247323736185,-0.3537043544816171,-0.21817649089057978,0.17554317583210796,0.0969304069933011,0.01575039596847048,0.15119847678510434,0.07241782530018794,-0.22195342928541256,-0.03546726169612916,0.11308624277918648,-0.028100563073287642,0.08782461712009444,0.18054749681093585,0.2662069466956354,0.0019017421161310372,-0.029109657338810796,-0.06643165717089122,0.10063159739185158,-0.04237333940946633,-0.07766375657988443,-0.07561116053516537,-0.10765083862153806,0.04714356642420918,-0.028926776749699876,0.004189359517650235,0.03494148738723048,-0.02159871023693553,0.054240865148747985,-0.11326330537342155,0.2741993867725363,-0.057474207608019356,0.18885794025611993,-0.009500879419192212,-0.014211008970833338,-0.3701095050398738],[0.08090059009801095,0.026893301724478662,-0.014154282606526881,-0.11456964860735767,-0.06369258196764185,-0.0744088361833385,0.0034701345724904944,-0.028686998796398744,0.07610364038414083,-0.032427508720362104,-0.06467850192220252,-0.17220001082033418,0.021909843931851827,0.09669455116883313,-0.11180305181809048,0.08656266692783617,0.20080835635361774,0.11620844420022683,-0.08681296252645647,0.004043755704652205,0.05255546568962385,-0.11118304343997151,0.11778989116015112,-0.00947671881664312,0.1784862443210836,0.11316643529534702,0.07327287113724085,-0.07149384317883843,0.1888863095341212,-0.03288866596962318,0.3986048738004279,-0.008390329853361238,-0.07308271841179445,-0.1868781935546632,0.03220741192977505,-0.010886875754075483,-0.23783539530532855,-0.2323694957520749,0.0031926564324508593,0.06918437675932401,-0.07776783138243154,0.10882605955604868,-0.026272112895281044,0.07448469973489073,0.04653869509273857,-0.20559869784936213,0.2529929347305176,-0.06202873935560979,-0.0274188766646984,-0.08394763086827896,-0.057839192342228424,0.14732115615533936,-0.1076644910497968,0.19827685314271778,0.02247016842826073,-0.052402331912589355,0.1700488270435764,-0.06279001902039735,0.06073107994233267,-0.1665700718558331,-0.030217580369728807,0.10116162926700605,0.019489804221264295,0.17321223329852103,-0.09878960501484751,0.009893883896812982,0.006228404776161606,0.06214723560934323,-0.04719588846964364,-0.021387830873833617,-0.1416560244144647,-0.001023152236692486,0.04182923887040583,0.10912046971235173,-0.01613135865620321,-0.14034734407683191,-0.19514567815834732,0.0009837687058337188,-0.12069966588183731,-0.0630131925119917,-0.08032284728676735],[0.028900173641526493,-0.004401189046636209,0.023492028713242945,0.03247341610005614,0.09251023094446967,-0.11000967567656053,-0.03650246855908881,0.058560268400713475,-0.15163212789279068,0.15753191849517675,0.237977496830817,-0.13157112099204377,-0.0770648175259124,0.039319019924961285,0.06490854073492815,0.0524615910200947,0.22146816716415826,0.007072239187356287,-0.02279189697742542,-0.06298796861983515,0.09275278109973431,0.1676538307385352,-0.03823669785372056,0.1678804475947674,0.016547280302902843,0.08199175256739837,0.05929576801533532,-0.05691285279881743,0.09565143068263138,-0.12170581822080007,0.16467972383499074,0.08383940567612162,0.03319427669747902,-0.018721575569854283,-0.19446740227744655,-0.0969907749200742,0.029283334537652094,-0.08691214241960768,-0.07545401334079968,0.01888442881812588,-0.13973503335271278,-0.08663926314687437,-0.06727864269447595,0.009624441429254286,0.03538601498837054,-0.031339666085449795,0.00772036323865345,0.05033449619252141,-0.09667483008339725,0.13035492665184556,0.06894667820334277,-0.06764338218083805,-0.09658928451006993,0.08923088623865466,-0.1762705755652094,-0.048601067435449556,-0.0015361465723532062,0.16793455027963633,-0.16154683438815023,0.08664126209111983,0.13082110675414302,0.03910661163231592,0.016486282580033304,0.0454158616370984,0.12893605832142244,0.09202307129984026,0.08937508294405021,0.12897694990033695,-0.07983810665746535,-0.2365959301524197,0.08435052711115795,0.012047997684677833,0.019875515762277148,0.08274184967487426,-0.04306472623387243,-0.10994142936031377,-0.024170546670989446,0.025231694443991117,0.06356065326804058,0.03969530884923261,-0.22189701543758125],[0.1077689844503666,-0.13317305417110564,0.10676622487488965,-0.3832579646455549,-0.04119782423772949,-0.05549638044234383,-0.03591712714095282,0.13986473810820382,-0.07016523037363037,0.01585927090308621,-0.011385885963898073,-0.13346193984889704,0.19352936586784406,0.167902771697336,-0.03118257430769567,-0.21410651779327597,0.032315115766988076,-0.03804254828209528,-0.06208739872975032,0.04120703820358973,-0.11019157569131754,-0.021453360783146126,-0.025294505728856505,0.13309872342348747,-0.053550866904514514,0.19476613000583,-0.08482291292921364,-0.005559167172441888,0.17158800693889834,-0.15037981928214056,-0.01994903756706445,-0.08419285096645161,0.03395061000925724,0.18178811472501524,-0.0132959985247654,-0.1393094209598864,0.02663880665930386,-0.00360107256394316,-0.08630608383330517,0.0951869319028694,-0.06126700955032107,-0.047935980519127355,0.04856286772482321,-0.12995709104776385,-0.08008781041391659,-0.07713663311560921,-0.04137911041245366,0.1621697785952679,-0.04055388897546963,0.23770945633215743,-0.06504447149444713,-0.058408801900732756,0.08520259736791312,-0.1988866146710686,-0.07539991097703028,0.03697486133251747,0.003318335486882858,-0.27952142853604395,0.03693964864280329,-0.09492160761481692,0.02467565765676362,-0.215138619432412,0.03827506217233103,0.14035697247928508,-0.0717019540032982,0.15608992034893443,-0.10158771554962967,-0.07863021458016255,-0.02373863967580549,-0.04975774485201983,-0.1438944675116217,0.46890454999437675,0.12464124217609804,0.026893215754194368,0.08940594422255299,-0.09569551038854819,-0.010320971036053301,-0.06922834897791338,0.037116469811797045,-0.31053733399879424,0.18143412877648044],[-0.09537145046590406,-0.06467103243027943,-0.14866740725219255,-0.23348246764314917,0.03359403378435532,-0.09419874211941677,-0.2098625137384208,0.03631780223920608,-0.0010462792771709145,0.03944267468307739,-0.10018799068622392,-0.11833219132041214,-0.03657634790312269,0.11887080061007388,-0.019645855952030732,0.08880141052323381,-0.027528223587339844,0.03534065580776688,-0.020990120686418184,-0.013324139253635734,-0.10707462352343505,0.02564800629535945,0.04453891457473212,0.14206860417640615,0.23920706434806063,-0.2386445806762658,-0.07058659096618979,-0.21580579560058838,-0.19055715072826002,-0.07238698812456895,-0.12799116334664457,0.06543073503741131,-0.08068107224291471,-0.03346116248725975,-0.008234278360937047,-0.023847688765163275,0.09696312557361556,0.004190553541964024,0.026176728481233667,-0.10246936979373118,-0.05345949415232056,0.21619939221518858,-0.061955334841055365,0.06069164355331608,-0.12839892188166838,-0.09052422255889221,0.11060606948762404,0.052288078587273565,0.149084989401188,-0.12629805152264403,0.09285333778799475,0.1311929549242921,0.12737466988126347,-0.07509838696083791,0.05357580713449021,0.07169775683857102,0.03293941769481292,0.1007895225610209,-0.3205829193693476,0.05611773913380515,0.17900516005457848,0.1256936821971086,-0.02197217239521092,0.1304574219162418,0.2494164267927138,-0.007235130156734484,-0.0836746677010298,-0.010665588545915355,0.044209201187773474,0.10948174159089565,-0.08506187074361053,0.054888706127070176,-0.07357164812131506,0.23202188197196602,-0.07482288616038588,-0.11910499380145953,0.029133658292569344,0.03165566920619362,-0.018888613722234954,0.049896212812328186,0.060342274110252406],[-0.11374941690181155,0.007609294879563862,-0.11298161649244554,0.07140428529542125,-0.045732186647320705,0.010213243694093342,0.013921287996278786,0.19936484875093965,-0.061441421516055535,0.10497666227398271,0.13994924717478155,-0.1698663295782433,0.03336664031162622,-0.05494428771008204,0.027872616896925936,-0.0634059113175603,0.1869427020783757,0.06476308093073675,-0.0795695886260003,0.09198835732553823,0.09707756379362031,-0.07693869690410744,0.026033291335411705,-0.055968085620815754,0.15723891174853713,-0.20219364701054318,0.019782739563527565,-0.18996694473781267,-0.06647539548077253,0.020063406486748554,-0.04261766120027844,-0.23154879192588895,-0.1240480805719124,-0.11249291133361812,-0.02116730938028985,-0.07124566601590279,-0.06406647897256026,-0.16286359109624682,0.04983957578645464,-0.05610140078844985,0.04619749008520973,0.10303455171368031,0.07353787072756275,-0.08392396851752665,0.058324990334848364,-0.07632758304798797,-0.0050106384527306355,-0.024653636879281925,0.10617012378870007,0.10957329513609272,0.1578776192577865,-0.10501357915651538,0.007202479015585817,-0.09250834335948137,0.05589287772644786,0.05578163759896408,-0.1080625891322928,0.06877293794763326,-0.008560143435252038,0.09478328331357905,0.08145710355211369,-0.04630909306069803,0.0694804740404639,0.4795289797292038,-0.06022905973083406,0.1122599821617192,-0.09025348442460468,0.0551338699505547,-0.2650585222813197,0.009584603277961538,0.09099614752609839,-0.46889564981237875,0.046829799453173705,-0.21316081209704213,0.14671731553907133,-0.09220492353471363,0.07860535066145186,0.04182179010963173,0.0555380667613896,-0.09902402458951104,0.0006011938121384574],[-0.08565578137645921,-0.13474163951160675,-0.12365409748441943,0.13245071054080582,-0.015092137337534513,0.03259157150803528,0.08450459061018029,-0.3956921916140023,0.06295012128272084,-0.2110479191301562,-0.035291391309422215,-0.1398023953910551,0.06897622917001187,0.1168975488591428,-0.024168645918402554,-0.08044323320323046,0.05532975444737397,-0.06028154213972998,-0.07138731668691015,0.11701383848395083,-0.07571177098628268,-0.013512431847500428,0.011026423339643621,-0.044384996811109224,-0.09878757272475834,-0.20475571420390218,-0.08656008644799326,0.022070723153318136,0.024320178966980896,0.11920264531843773,-0.0675692139037602,0.15769754350713722,0.01390803068651068,-0.09087163480406954,-0.09421761839989964,0.08793546111288957,0.03356287490710215,0.14061095679261745,-0.010998848486313398,-0.03430477656211613,-0.09185491187415468,0.06170512797781802,-0.020828918622545146,-0.09236390041240694,-0.1388034053943885,-0.03652111469640891,0.15538454579399344,-0.17967402035445404,0.30041332926531017,-0.2772091847561797,-0.060278329830057674,-0.0639872078715635,-0.07135813742159573,-0.10283858893251942,-0.012383465335718196,0.017281007341244183,0.13517542933690666,-0.03457158029055817,0.15750390796248345,0.113200888713541,-0.15592723801457867,-0.02342829543814449,-0.1447549188204289,-0.10790515029135368,-0.007489080876598408,0.007074523857976799,0.13514724395068087,-0.3404067426232047,-0.009066261715939272,-0.00293136680078236,0.09562670909932594,0.24669286363873796,0.034900582940777615,-0.03479446822313239,-0.0888621878275333,-0.015149505370509275,0.27268344588038107,0.030261850987248963,0.0782552497437394,-0.18316841161355463,-0.04986667251644294],[-0.0006827453602108399,0.1720264482720436,0.017068989845171675,-0.43785932203797767,0.2475844783785316,0.1334945771487457,-0.029696458857484384,0.05961784430318333,-0.27326122449982687,-0.11055651700726385,-0.006495030590513983,0.040051447453991376,-0.15285551556108237,0.10239658117945408,0.11567940205648793,-0.061312527397094134,-0.19341481788706905,0.28003332686194526,0.0626408335302543,-0.02892807620411759,0.08915867282350703,-0.11066090508173002,0.04400619992000945,0.019394478412932695,0.19167560948645154,0.09014267641755443,0.09166937060959528,-0.2150391258655012,0.07738929023150294,0.16493405129994926,-0.08856613025160634,-0.11410890298720643,-0.02530814450109093,0.11599547389855866,-0.04773656316325956,-0.23001158548769118,-0.19493501900549248,-0.07596935626332323,0.0014589284875427778,-0.03944829272034922,0.023523197635033802,0.07177435794593215,0.11092345186775528,-0.008478592911810863,0.10767865589641329,-0.11944386771257663,0.06825871887086528,0.028897505850571225,0.006051124146402111,-0.011184058784195022,0.10613657722006015,0.2836135312514938,0.29136978029888844,0.1023208412080395,0.10797555743057079,0.05484616418330592,-0.08827417675297479,-0.04066201359635268,-0.03047511426694677,0.07644797648400264,0.08444121685400863,-0.017849825782461658,0.11527511075965861,-0.012216649176694525,-0.067077743650183,-0.0852501112952918,-0.462747207826113,0.039745015902152535,0.01340733591933937,0.23112895221900795,-0.10806425571591338,0.000933349934084424,0.010716382064901879,0.02637115341013829,0.04670444325957759,0.07489071805055789,0.057362201479311654,-0.009673136675659147,0.11276167909286752,0.0014086366109977986,-0.07585125642686087],[-0.04611160308855985,-0.004894632250007335,0.1679950450566081,-0.06948162932148291,-0.10596162218109935,-0.18878086253522441,0.02433159872202276,-0.1859379419190518,-0.11801291436261406,-0.18219895632352895,0.1414577624727001,0.11669337766248222,-0.14096211807031547,0.0007210707007241515,0.09701047063902027,-0.025496924471570835,-0.032964390617599926,0.04022738011707383,0.0183174722487308,0.040886057109748776,0.11424750836041497,0.06827638033663003,-0.14932925669684302,0.17630465892352593,0.16039197035730457,-0.010671381334407646,0.019647843537767294,0.009885728633334744,0.07066672365623293,-0.144527324398608,0.10953204549931786,-0.10059952741732214,-0.17276763331808004,-0.10196095446963786,-0.15116153346426428,-0.0734158267370031,-0.041285508595232556,0.10956664355848221,-0.0762973527840242,0.06410178691633635,-0.022420349003234995,0.07917914494058348,0.08514619355810445,-0.07419187044321457,-0.08959450015159816,0.08518988141669091,-0.06537934702103025,0.12072465366233257,0.18739007370622968,0.02475920166292658,0.044762377624240894,-0.05656434249350491,-0.03310887731026536,-0.21796434448635066,0.0285304714637665,0.1017053435018877,-0.12635705658231228,0.0870946502163781,0.16320989099448857,0.1258625419748145,0.027491041487831307,-0.00781850757024407,0.1268102802021053,0.192036946178057,0.07732561745009489,0.08086359339652474,0.16442155683009443,-0.054699660966421475,0.08002426580133569,0.016761452829295292,-0.153664189591047,-0.24912700887516226,0.010693141627190341,-0.16191868880162621,-0.1793436681788688,-0.25011761736259064,0.08351275113494533,-0.09274546719794721,0.022606363703777662,0.06043393330256405,-0.06978676638983017],[0.025744514900846338,-0.07983027229593322,-0.04935446510453638,0.06554355477381985,-0.09149735462818738,0.03450995576831435,0.006480403839098547,0.08906171874626062,-0.11205187258976558,0.11448560701383974,-0.3211699066049748,-0.016661771362095405,0.007336468636900863,0.041705005043698805,-0.17807176611506034,0.03319724451602543,-0.14914485076365985,0.11513476807570446,-0.03336202253215326,0.010150850437465548,0.0525285187126452,0.0817415835211421,-0.07820139295240208,-0.27587242695407915,-0.09102511984510964,0.014931552756381057,0.0034681623729251546,0.04651628467019425,0.07540488731950784,-0.04101408467790911,-0.18176740868425897,0.15085099564684934,-0.03268707351674019,-0.0010257312989526322,-0.0049035357469900875,-0.0026212027788186506,-0.06825897021832653,0.16186428285395202,-0.11285460108455281,0.1291650781789354,0.08093411293718387,-0.11940493567556922,-0.01286893774702792,0.05113844721259174,-0.12080050295573613,0.08403352686900235,-0.1506993222093129,-0.09430962357889312,-0.11200407769906243,0.4181991652376912,0.085236923355711,-0.25700672862181895,-0.07042413373653898,0.0334782723852498,0.022292625425060185,-0.08305448684337481,-0.5699747454258582,-0.2570106040253391,-0.0014565255914854825,0.2226818561802301,0.1625095259692856,-0.14082645455273363,0.14708346998819813,0.0046917550367031775,-0.06462164465619355,-0.08710766242201091,0.1284706016799543,0.09809220039525365,0.09943198464085277,0.03423496214762708,-0.013099181811736194,-0.13329674418234969,-0.08017507178524547,-0.24050613779076258,0.17465979226896938,-0.032130250071827356,0.13844961057563518,-0.06838448002779692,-0.007058541550575435,0.057906151539502765,-0.09558917721738568],[0.05909035660300577,0.01070236393384636,0.0010628992002623358,-0.09228046409012691,-0.11734015624977753,-0.02427301296469501,0.0957357302092747,-0.24487078503752227,0.2023670071945805,-0.01673337168320333,0.14241677120390608,-0.009399932491070528,0.04918486211389658,-0.1253605616943943,-0.10889649830180094,0.062220470896193356,-0.06569088772582303,0.05366951253618127,0.12718043593249342,-0.03315519874638528,0.07488442385912737,0.2008925864856729,-0.13780396122493055,0.04626412666213176,-0.07653288506347329,-0.13455795687991223,-0.07059441442720293,0.26714329065798,-0.20617557616209015,0.10508773030799164,-0.12121582273321442,0.013782158280191093,-0.17615163105827872,-0.08723007364059027,0.030666756705749417,0.27627340418261676,-0.04475610774743914,-0.010505397118193833,0.15351020555959644,-0.2154117124637045,-0.1632475417463664,0.09999639653909685,0.00812549308984024,0.035004400494719236,0.056317002155990344,0.01989870173798369,0.010950984716778878,-0.09314575776237821,0.05839214081046471,0.04518245234967821,0.10521050828182527,0.25251689233283076,-0.11885742109376836,-0.05695246867245735,-0.03454785111875121,-0.08676585636966397,0.09699211538103036,-0.08508276037944228,0.13151622746776803,0.07360600137450106,0.030295674090500102,-0.09541927565569476,0.09647419193966682,-0.015038020951694495,-0.08258161661066196,-0.1285826317251223,-0.042287418669408404,-0.3460692335420537,0.11408239557707459,-0.11788571840235139,0.02334653083531339,-0.1699158976631289,-0.05487799125274623,-0.07850176199404886,0.2245095027900942,-0.15869532620909552,-0.060249599065289317,-0.26730555543180623,0.05032261416786068,0.13544221582608232,0.001057863609112752],[0.3068938687454556,-0.20583932054936221,0.015002567754612929,0.04346645764842594,0.12690454685097,-0.021323711973312308,-0.03024021123927484,-0.04008451741113138,0.20520084170582312,-0.009481957571407866,-0.19365105818829134,-0.10620507376397649,0.2554796647884095,0.006625033943603252,-0.11134810675155958,0.008485076251473236,-0.08783033221279754,0.049429309551791735,-0.10657702967883909,0.1592296924628442,-0.05166382873111634,-0.21791661011242264,-0.3102255416240901,-0.015117869726738752,0.09203600577813766,0.01689892608534865,-0.03050533622325408,-0.11231723932370194,-0.08985031233801943,-0.09499466896208524,-0.052214083374027734,0.2602682452521746,0.15607659914722982,-0.13905186801041283,-0.15733512599106683,0.15287494585402234,0.09507244006184964,-0.03157459284953436,-0.11955474059617854,-0.045700124701039645,0.2832137135932385,-0.11632590206442928,0.09159258415691394,0.004161150970151505,0.0621774115860392,0.04034415049899996,-0.07237312526525615,-0.24071457605991928,-0.2274189845690323,-0.07530494690583904,0.28563413754712424,0.04957039502818801,0.03362464595212996,0.08339097782622024,-0.08597256335709692,0.009938910207676763,-0.2319365500485284,0.0670646744453494,0.0446491281588916,-0.033181580354451214,-0.22284484431105184,0.22527760559323756,-0.04028275425855293,-0.12569602025165538,-0.056079004609128964,-0.062055581817051966,-0.09393413403461968,0.09755544640059065,-0.06467516889575411,0.06799079221915076,-0.055543727852763444,0.13076930620242178,0.18419536601790262,-0.005167032504002974,-0.11706980238836799,0.08981579344480965,0.14066975644823418,-0.1978778326283033,0.14077154317970134,-0.06155759689723732,-0.21304190386730426],[0.014072174781400123,-0.06652911938311283,-0.2982250887080585,0.16878978442297582,-0.0007540380584650165,-0.11049679654174455,-0.05424038517635884,-0.10288920268210022,-0.15441106071291016,0.1972124678222037,-0.02646653012749676,0.2087224789123676,0.03305136730064348,-0.009389426379868978,0.2542604869001598,0.031607355170668934,-0.4685198291689899,-0.11689612654244173,0.052425342320932516,0.1825193631504155,0.048193839747080996,-0.0896210359557653,0.06270531801465229,-0.10168717825788137,0.06222059425040978,-0.1483302613431305,0.2606938623522526,-0.15804534606571688,0.08135679583828648,0.29520435292869096,0.23342944170884355,0.021998864813849696,-0.031602036160164965,0.0392702436736731,-0.0784369658744337,0.036070238985432934,-0.08775801447448882,0.0068425076050797765,0.060470441488961045,0.008722416393081892,-0.015255999678474491,-0.09094894146656607,0.05018594192880171,0.013916026192930411,-0.19551832831296778,0.20198588051793567,-0.012379793322947748,-0.014841382388880836,-0.15055962333397152,-0.001352682994312532,-0.16009347631766935,0.17839901763536928,-0.02949453244472171,0.03135846412827082,-0.010454456991867301,0.012799370296325725,-0.06647476079489754,0.049894585237335365,0.06354955537730218,-0.10837691078789397,-0.08980185484885793,0.08571573376556224,-0.07358637572534382,-0.05471934092855913,0.0867538847453578,0.11649370674209435,0.08786945084083755,0.09702009566268605,0.33188030234671134,0.060442235109459556,0.09412374971369106,0.06704361080129896,-0.07139867111791322,-0.1883785210495489,-0.25297663461087366,-0.007471175254912502,-0.06622871525313445,0.08457742686473209,0.10390272833828705,-0.07924602224538668,-0.008585340412391215],[-0.06094484562872462,-0.2929100770351646,-0.10392416243541822,0.010172641568316274,-0.2447011197677038,0.13785383744982582,-0.016739276152790816,0.05807791468659676,-0.1304188962464902,0.05289053554734862,-0.17861135609705042,-0.11232615227731468,-0.0032671634861220016,0.1516938954141759,0.013657415270352405,0.01192862661825714,-0.02711847992225235,-0.001494005449824007,0.03512037398124753,0.17923813828193821,-0.031655901230885894,0.20389682908472959,-0.030567021234009735,0.0320383149494836,0.09362929648910144,0.058053647348416185,-0.11942170892585079,-0.015125728620718093,-0.10451712785935922,-0.04103421538015512,-0.09608379229970267,0.045541929875588166,-0.18770523542132325,0.01212284055866609,-0.08156734803508911,-0.08176362280174888,-0.04002003543307965,0.02626213764086378,0.03462851762599084,0.21494765767951818,-0.07645045802918626,-0.14921595754655176,-0.20107759486736548,-0.040982406276138104,0.03437265840753978,0.12216112541270337,-0.07859753906377978,-0.23545541249114915,-0.0893355920349722,-0.05182663536633974,-0.07368498327324599,0.09702815091038682,-0.0015855329928815842,0.014396171933118202,0.09311652858618374,0.02149296611882412,-0.09965926051251396,-0.10602284004569842,-0.03781245443023924,-0.10115090804310563,0.05992217951218656,0.09793596794735289,0.10804154031835002,-0.020187683530547607,0.2946169373319672,0.09652971782434062,-0.046925802613441106,0.02625950205988852,0.1384434599030698,0.14959499540736193,-0.0588721171318876,-0.11625733957323231,-0.1767596679983787,-0.09966160443707307,0.11955565483488036,-0.04793528210280619,0.28407598632264436,-0.05762898505802154,-0.2093302241325292,-0.14553261734410416,-0.09149402729170102],[0.054788852927986666,0.011713923407878302,0.0729044391854817,0.11919169757237102,0.14411077046707066,-0.10854728630958249,-0.09466512927491613,0.09575597580883535,-0.22651484559320872,0.0067996682517377045,0.11410900129768908,0.013899354230388093,-0.15059196343519202,0.11448625849363217,-0.06210526614499812,-0.13868068903419317,-0.08899739607782986,0.081173794843395,0.014812694582825069,-0.11498452747878665,-0.15437836176471326,0.04480543163807216,-0.1816973468131614,0.04863885042728665,0.09137859203169733,-0.07137045385204495,0.25362436856893383,0.10255298860240067,-0.07810162645058683,-0.09961632385842972,0.01726636233464913,0.0413117673260593,-0.1799393927375643,-0.11083625001329475,-0.11431364192782306,0.12954201075804164,-0.16655872213279696,0.440950888672949,-0.11323071745776965,0.149926060081801,-0.10577747945952123,0.09416982093428561,0.08030378690571581,0.050982892040111895,-0.16895407437777235,-0.08905942170484146,0.03184452131983725,-0.23303045497291267,-0.0366347875101098,0.042209615037493486,-0.20848716539661905,0.09295511828714086,0.0062795287467475765,0.12092581982040508,-0.06516228497546378,-0.05201202445873096,-0.3315296368356107,0.17343389509255655,-0.09386066931443743,0.13077621187893157,-0.17123128955839073,-0.0368331192545466,-0.04613723188040025,0.08026935991827078,-0.030455677767849694,-0.11768019462018642,0.025260690747258365,-0.0362723496197563,-0.18479672018858093,-0.02257839003474743,0.02370133622907562,0.024236308243507414,-0.06486053898309677,0.029585802153089553,-0.25739627646478713,0.06664167898998219,0.07287073637026621,-0.09609889633063133,-0.11075237978304049,-0.21929249140291457,0.022412383211247014],[-0.11156400498205582,0.07766401893106151,-0.10362728373106761,-0.1546339707929096,0.09060108099454962,0.3797392260778638,-0.12345139879653153,-0.167688543815548,-0.18188146960372356,0.06584979422427849,-0.04254538422503429,-0.10793790778965742,-0.04670996673136459,-0.1280974469566489,0.045940771632134676,0.1395201922068586,0.11539671001824559,-0.05683352841788277,-0.14166947412057862,-0.015241780001048392,0.26331423197120823,0.023174917835636466,0.06335275094587044,-0.0791478405489911,0.06022341973526406,0.19602067105993667,-0.02274084943338654,0.006428308851436834,-0.2511437438462914,0.09137307821660309,0.21884225138987745,0.005373049709424882,0.1015569538345841,-0.23701652039049512,0.3401976157655337,-0.12979083786530496,-0.1687922810619555,0.10805646655998286,-0.05519211898160502,0.039380616937452546,-0.16892348097160004,-0.18369880163718572,-0.12910873553724317,0.10189736828633518,-0.05779374683340795,-0.03228081138812234,0.028652933151047215,-0.11752509993029714,0.015212103246073628,0.050179301468947196,-0.046961396266044834,-0.04138972927657992,-0.28707884917913296,0.07479933561459981,-0.0069044153115821825,0.16286366888998077,-0.10886236025113646,-0.10588848050884668,0.20959662740744567,0.2725074919491848,-0.08514431333923264,0.022467159859061798,0.10454610172116927,0.0664227742203419,0.12213162470832768,-0.06828080293422423,-0.24718892731422007,-0.07177635218554859,0.02980210854727791,-0.006465931314500849,-0.04749257217835062,-0.11452678045476612,-0.04294133077556355,-0.09866856616789824,0.07374946650082993,-0.0742220314387752,-0.06815585662543154,0.24062612906914596,0.03693964081429536,0.009649440756736283,-0.17547136647857575],[-0.05890677297881844,-0.04942276627989644,0.005579250746157516,-0.07363020335490311,0.07516694802980242,-0.16966623568283482,0.01354230432180874,0.16896381730175355,0.10136273715283359,0.11739975581312173,0.10730584874171852,-0.13021914584078925,-0.07024549900706403,0.2892637657470213,0.007788018806138442,-0.054467401712898655,-0.13366495179877855,-0.08371349751538379,0.11647058185440064,0.004914570889103208,-0.09005696439763494,0.08430635611451755,0.10347367270223637,0.1283409720321586,-0.07808990620747246,-0.10222539955310848,0.004474506065967108,-0.0135133460593258,-0.24369738459095544,0.18742668148215755,-0.048430525466684055,-0.04840973959813888,0.40691923320772694,-0.2085891539268949,0.06578217897971728,0.06773518548097214,-0.22101142169260976,-0.05923461981284989,-0.24383383104589446,-0.07053881881722568,0.22288585358276014,0.04045804547217853,0.13139133458159663,0.035366639825768646,0.048699792644286255,-0.038345137289343134,-0.02021089386908215,0.057592847509574524,0.029443879884160647,0.05480872656715776,0.1413543095223895,0.04127499892004601,0.496971863216388,0.24160233107825252,0.2319318609139658,0.10746635960045928,0.03994093808774719,0.09338882707253053,0.0686676046408728,-0.28817932682491604,0.090379333359846,-0.03037294398792637,0.02164055307746204,0.13193734152256908,0.1849610141128283,0.06377585514477052,-0.029229285378124616,-0.09187452923623173,-0.06131428897991939,-0.09658880731560777,0.11463136677138815,0.032793851074880837,0.0289077320958637,-0.07588603288104753,0.003119389832164753,0.401588519659147,-0.04833710490006176,0.10603711357284322,-0.08816258677889116,-0.02870022451279032,0.07619697029421973],[-0.3138072229803869,-0.3157471753246338,-0.16031279237960927,0.04669605981655524,0.00826339822339506,0.11696979978039013,0.061759240329806016,-0.10074591632468034,-0.02764583896454821,0.053333465719000765,0.03302135239467088,0.22140797831669903,0.05428539366245948,-0.014458601403610771,0.01684338219521098,-0.06112711312537537,0.06154194341695704,0.17095512083266212,-0.09106344492893581,0.05319027231432527,-0.07781914644496098,-0.11117717421611392,-0.08029116995876304,-0.07337429440636044,0.0068446781844369595,0.13408338510315132,-0.11475385951813878,0.09533909960119592,-0.0740501531944775,0.1172849757802742,0.08406782142213527,-0.2737410592531425,-0.09987081902571962,-0.08520679478849512,0.010942174846465745,-0.27167233562888504,-0.040132942188790786,-0.2861862859529115,-0.31142916557496747,-0.038152536390637266,-0.029355670666652053,0.2120806179908917,-0.21488889417537851,-0.039439800309605526,-0.0016430078888375894,0.05127243349529732,-0.025859419149358114,-0.07563422903088356,-0.15705615035875475,0.06752103253125061,-0.07767808409365745,-0.07784971352795042,-0.11321836535763415,-0.0009963138942564174,0.007120630076887576,0.035580011155293266,-0.09141750428855056,-0.13288885400625472,-0.07694498226632797,0.25192466095292076,0.10007241444574234,0.15506208450948591,0.05037788209941469,0.053050289148231095,0.15667460103016018,0.034505427161612326,-0.11550860032223866,0.1018777943812236,-0.09528740832079081,0.04513088149311836,0.011940163632177783,0.017274970077717625,-0.032652823556472435,0.20144314605157693,-0.10719172823114313,0.03947965413496165,-0.06546317263904058,0.004955452134050794,0.10056704433118999,-0.04593226614149373,0.07231811343650718],[-0.12286387082671514,0.11482819544877639,0.020516398886040687,0.05034453168967551,0.08389588152244523,-0.041323472577276414,0.04643284151405184,-0.33250830151572736,0.08876042788517556,-0.16964602991809685,-0.040964947984698824,-0.10207509772704543,-0.21134310124695088,0.22588195063975555,0.11173699908769191,0.02591425973387353,-0.06747902667944908,0.3297382219165856,-0.1707321642706137,0.03718181494751708,0.08283113358835571,-0.06943633069119694,-0.027288999264640363,-0.1732015692120386,0.13975165249307683,0.02856632457664489,-0.03565087827899006,0.10328516201198294,-0.08729912346518588,0.17722687295728556,0.048465361052012525,-0.09474710434164224,0.05332036637084235,-0.0587634901163479,-0.058448662662413074,-0.05023523752650886,0.12718574610791578,0.22887523612960536,-0.0564172575244056,-0.15556111509584494,-0.061426254087286455,-0.14917868211893404,-0.028585617043878818,0.024529696593226645,-0.051136383300782864,-0.08315640296609347,0.08664397495536572,0.029240772002339044,-0.13006243548284072,0.029298627376443776,0.09381760232787287,0.18977490079962603,0.07466110894788136,0.10186777845563733,0.14275821335958225,-0.27236376953907215,-0.08434663957426275,0.10074667874911772,-0.05888554565238115,0.062368511080918496,-0.13282768309166643,-0.029379269443455314,0.061568849733212264,-0.028877077509038788,0.009120176182264888,-0.02326680644524929,-0.03501293271328475,0.023072639512585428,-0.03205974190130391,-0.10166136407308274,0.16662202982024749,0.22577809669393692,0.17688729415458426,0.09652146820129007,-0.0791493633795952,-0.029398203456995897,0.09429386859510938,0.06597650355212839,-0.11367664620004353,-0.278634701616349,0.11317943231799042],[0.10479507934546431,-0.022408506549330097,0.19618341081376744,0.15379370784187193,0.00010870319167524183,0.1003939122553496,0.0019446663996597622,0.08275771574176179,-0.1584715893386595,-0.10599589176465404,-0.026988003078108964,-0.09727540554934545,0.05569757984698371,-0.06139645257059934,0.014916811925656148,-0.035624902028212155,-0.2566122341827856,-0.26212857789959293,0.09582500598435864,-0.06122577720529309,0.033134338458079185,0.05592042435007659,-0.003372301584120281,-0.008908870559110271,0.05859620985717775,-0.08093190573700995,-0.3034789977808808,0.012958468874531469,-0.19910909844400554,-0.03422931877823643,-0.035877090200518776,-0.029305242809002513,0.0858047747130071,0.12480378383967507,-0.14179100847570075,0.04186386452769918,0.0817424374965712,-0.06877666489973862,0.21151930912954178,0.03908754529733963,0.19558385655035987,0.046273804494000315,-0.13087724403897308,-0.05707537228862162,0.13691745554428117,-0.031557068586242076,0.06774738044026198,0.09358800852353846,-0.04236655787471134,-0.030180895894971332,0.053441423349401586,-0.035790103094735584,0.3730872972719605,-0.038183987483804645,0.0005442597744316585,0.11482087944812555,0.24553017728328916,-0.15550059698737104,0.1133101143406269,0.11529444359671474,-0.12696840980766638,-0.1747725175736693,0.18904183934784835,-0.07891158420786819,0.11170478512292803,-0.002310282426438447,0.024586045437146948,-0.08269201018677122,0.043096074260797916,0.09022197841882958,0.1729265334329135,0.29827972012583936,0.10862544539268955,-0.5331567464969655,0.14132428829934646,-0.234740346570992,0.07655199179197111,-0.11837071684608692,-0.09552825086951344,0.29069598713524614,0.08937096909182644],[0.0891315654236137,0.05855548165938923,-0.03209209771217688,-0.043324933340117576,-0.0670414391928378,-0.20163279085620486,-0.06613535130991129,0.27269046754599424,0.06850125139820734,-0.10615112561125162,0.04762625196599314,0.04080269709532843,-0.1168895523130855,0.06587409588368356,-0.10886925941476536,0.09400065982763996,0.021030813305568614,0.002557877393218151,-0.04770801083856876,0.1818730837007327,-0.143580193853604,0.014941701903933163,-0.11322927971212321,0.07678949252803792,-0.02276264002178707,-0.009118202226688231,-0.004980398536508347,0.07854857236148803,0.04699539496715146,-0.10107656713049248,0.15122064550557263,-0.20141278758535547,-0.19366062376595536,0.16103561191180685,0.033994071277622856,-0.13190490441672564,-0.06332203126704071,-0.10431587860914562,-0.06532165466451252,0.04075895831230287,-0.1420619972755607,-0.11788721744980721,0.10755041925351604,0.04645664109207014,0.053662670984062376,-0.06318143874374006,0.12501811094015258,-0.14631430269446555,0.11332952925136237,0.04534619492413396,-0.0842985004599488,-0.13481433610500448,-0.05682161473914549,0.023142034228491898,-0.022166723302325258,-0.06634625891786759,-0.0831683373166216,-0.12655971625190351,-0.025981178818227032,-0.21125081688787814,-0.07594535367874512,-0.2353491687967877,-0.02321810728897465,-0.14097052885723496,-0.020135144003313055,0.1793750415231596,-0.08365824157421045,-0.022392168991514493,-0.29357825020894684,-0.3857300940603256,0.09461452195685154,-0.05998686893599039,-0.06336620820566871,0.037294197082168794,0.13391688198407448,0.08357630055619725,-0.014799002291744943,0.010673204767229785,0.05794000937464853,0.035520433345034054,-0.11860871136272907],[-0.0333563986815418,0.11719020660467126,-0.07145431707796045,0.026925753714674167,-0.003272093218292214,-0.03518638943791455,0.3009147531434656,-0.09820416481791536,-0.08498999454073054,-0.08123806229280475,-0.19412673540966913,0.2816261028821786,-0.23652741401181393,0.05971989174418458,-0.04262694686739638,0.05223262373469312,0.2686623548073189,0.15741432733156469,0.06358438752273075,-0.015712369075961807,-0.07336005502592183,-0.16003734391436547,-0.10091103653527221,0.0036865255083842036,-0.1094292254612774,-0.16794876453788082,-0.027309581778612528,0.18010478560623427,-0.1341676534250708,0.06337241005500972,-0.047433414267673904,0.1306155858116725,-0.06175814252270609,-0.031344026182018224,-0.295313135698652,-0.15099459580373148,0.010567715418799445,-0.08136417365729222,0.0011818566343430234,0.00234206127275417,0.1111865037474562,-0.014103409827764918,0.08714600095024216,-0.0557418586508417,0.1635803171411824,-0.052858399381095135,0.014248419383650363,-0.1312168811716649,0.15351400001734278,0.05274880471256328,0.2444058149803254,0.0021434657100939175,0.0682423475122094,-0.21227861107962034,-0.12095770939396573,0.10727534686627334,-0.08431057663888981,-0.03689261983841409,0.08603744437235515,0.05232454310832325,-0.18145273583536173,-0.17111823787088842,-0.2065011154241779,0.04273608892183485,0.04260297786132327,-0.14996355379033383,-0.005166859667773578,-0.11207138064624382,-0.2381918069981956,0.2735511284370611,-0.12935039693798212,0.04738526621924732,-0.10859987133796267,-0.24221267143737435,0.08783608042248717,-0.044102455482389724,0.03344973634924267,-0.02671048851597489,-0.07191345167919135,0.24440835403301,-0.007184746182601969],[-0.023183931420392528,-0.09176438509591368,-0.04088372002161183,0.0660944156872562,0.02965118148453357,-0.022939720056851177,-0.025010191010468193,-0.005979528580069701,-0.11427841592507554,-0.053573876334095195,0.05294808614365216,0.07306579934818525,-0.006946434937913269,-0.016248829988970617,-0.027015859558508274,0.07479636577693227,0.08092557675997825,-0.3696487756609675,0.05018766196826199,-0.20362008271740634,0.08996997351120424,-0.04671715070852073,-0.09647451807350148,0.15150958744600465,0.14281324841322207,0.08613494044912592,-0.1318205015048635,-0.08017964434128798,-0.03953907590566606,-0.31597520166878323,0.14775697736192858,-0.01933909836624019,-0.07217166058478769,-0.0013986770248412784,0.004081222079933116,-0.06482536470620605,0.03462780792764561,0.017373022985600034,0.1721148252225665,-0.12069282533294401,-0.1059416308424601,-0.058116437962661804,0.08089920990025341,-0.018167757090998517,0.12945035160006502,0.10478849613258057,0.1770764537044649,0.18505712612242686,0.41244667008023583,0.15377604075913875,-0.006805597874204733,-0.008371848368368748,-0.07297930423529916,0.16124558281599122,0.032472062662990776,-0.11128950446369118,0.10498489199375624,0.09619829416983859,0.04632003384548307,-0.14848398541880198,-0.23963797154787259,-0.015460188088837245,0.07137656264088503,0.01865175074286443,-0.07874842896712528,-0.0008266850340908408,-0.13300350347316373,0.06526177565839258,0.036769172680503164,-0.13874818593247362,-0.005727979106221851,0.2814565479462297,0.03298537876370391,-0.04484855514419261,0.01773858075506336,0.11182955278102229,0.14533295287905437,-0.08402554086160355,-0.016053524737561817,-0.1494567886624014,0.1893678505723108],[0.10341101692411217,-0.07034394018828503,-0.04864853921047262,-0.08691418042459656,-0.19771383438982798,0.03599238182428843,-0.03917229899633667,-0.04240482475638499,0.1867454485351635,0.18893970870582458,-0.1525023927751409,0.06341294388764271,-0.28420744929187486,0.053922645351692666,0.07070424139986096,-0.049017499606214716,0.21383334939769927,-0.07424808248342094,-0.050080360212447175,-0.05394790876798039,0.15492513653269352,-0.026490279150414946,0.041203429986558314,-0.0400064087890505,-0.21930018985672167,-0.014940916814349363,-0.1175950460399224,0.021145054152096457,0.04331938399934866,0.040466311360228345,0.09450458528928289,-0.0718054280996742,-0.05813997008411139,-0.06141482943678642,0.009141499339523957,0.09500573912480721,0.07082261374653363,-0.09244984112094115,0.2050076147760858,0.10490672221833805,0.12416492855034127,0.0037645028782924985,0.292970595311489,-0.10068280134558327,0.0522022328611205,-0.0398752518095823,-0.02440551265626649,0.2701669346612219,-0.05385203674629003,-0.08391824156714697,-0.010158500570750737,-0.09907035933049961,-0.10746079333379287,-0.27082296419390917,0.07419723436959866,-0.0920755831407217,-0.045488676009314624,0.00017768636002763832,0.05419980004319353,0.004354016188889373,0.052257601702235944,-0.05803480189742992,-0.04087804186506139,-0.1468777948421021,0.14147781933874004,-0.03313926837926574,0.12389104125485169,-0.026940424310327366,-0.25506992897808106,0.038554815284215914,-0.024381577040863984,0.16221899301525064,0.10725466770889765,-0.011142955692972906,-0.05711759713491174,0.014957809438895953,0.08123769403185993,-0.1251402013908542,0.018143872982655813,0.04140956049952262,-0.04639758142371367],[0.11734493875442403,0.08778778074371713,-0.08545610615639786,0.13990764242010706,0.1112684731557791,-0.18080929757534756,0.025101503725678598,-0.10746254818454981,-0.08541568370602974,-0.08429592527080795,-0.021154226107149017,0.2888049908076922,-0.12319697088032407,0.02093372360976436,0.07523111497334407,-0.06136559587959846,0.20178766974716894,-0.09771742915538804,0.1064206450192301,0.02627777171541893,-0.04270005762275372,-0.04866733046899568,-0.03575224407694762,-0.02096432703272943,-0.16292601426768175,-0.024805815329744713,-0.09169561703985217,-0.10066395109029609,-0.13314691603738754,-0.021009391027343196,-0.2625570652273166,-0.10744415912582508,0.14864871431616744,0.056729935420687445,-0.04063965323756202,-0.07596121047708244,-0.08754249249029135,0.25256984209059863,0.10474441573628504,0.15219627706650013,0.3629924193865929,0.040653103779507205,0.18861690118810004,0.06887838736530366,0.15436798222521772,0.05550843173907074,-0.022337459146872247,-0.10696069341563273,-0.10261710051281735,-0.2515124756423959,0.00747371464890929,-0.17370597852631903,0.25377420968273384,0.0033077140566237107,0.10031800914925405,0.011306525523957386,0.07927911314096121,0.05022313028123506,0.10152340132326607,-0.17352357311480185,0.12066732367898557,0.16926605740448192,-0.0768134149566899,-0.10609201498837602,0.045362197929337225,-0.06823090092776954,0.14848859667477748,-0.01085640568324111,-0.041946897241738126,0.0213020851807737,-0.06671432755664139,-0.040855781639017874,-0.08105070761544071,-0.011840456363169376,-0.1547458374540347,0.05800006979099139,0.10398514013546391,0.25191704421302397,0.2814074958127291,0.23047120861693293,0.04667622833289108],[0.009936739378311799,-0.2508050119950771,-0.07042585450650417,-0.09101469936762484,0.2317034596297617,0.0251370723777936,0.1179695747999239,0.010819699877827046,-0.05824395521266278,-0.03724676622028201,0.049549035857466686,-0.018371449521625158,-0.13438551948257868,0.20958389177557568,0.16167541108550312,0.0992711346692619,0.11465525170099827,0.09667147302434975,-0.04933812550744802,-0.010145950223217156,-0.01933106623134468,0.007357504602893592,0.11297925688965643,0.1071978869372261,-0.045839504649934346,0.09920661932754585,0.18437764664074127,-0.09616786892010788,-0.2894755214582124,0.06763982792503268,0.2931549947820092,0.016036214250992997,0.011720243037760276,0.11450239625906668,0.08563823836209963,-0.12114178017664268,-0.1920326277272335,-0.27144181420318875,-0.09380500971962573,0.0752163990998402,-0.03624812276374167,-0.00865129538028965,0.06994965457038779,0.0924593354834083,-0.31721045832199024,0.11387421789386767,0.1509369468154412,-0.09197156258120627,-0.22159470798885966,-0.08177275722395982,0.03481262551652766,-0.11950620154896033,-0.10742214761870068,-0.13886591479033247,0.07472510833478252,-0.04727881215206907,-0.11447115254844044,0.04217650003053898,-0.07974525129206998,-0.07553397952371359,-0.03367612345383204,-0.07170607699872454,0.3034713652669138,0.2263235812866581,-0.2786350543704324,-0.21820712851142968,0.030484377876015767,-0.03282104033756011,0.051485742238894495,0.03484446711167508,-0.10903811538219688,0.10967150260871332,-0.293139330545005,0.03423752521965046,0.014217191325191223,0.20396619682708877,-0.08614340832655085,-0.08658462506796415,-0.0712868982910245,0.04458337647756155,-0.09984528366603905],[0.19302388948516497,-0.0696815203618551,0.08378132047760703,0.082791419124026,-0.12034042932839911,0.1935082106575883,0.00858480275773578,-0.08457628141501754,0.04168834183938928,0.28868669517068407,-0.16157259133047402,0.009771047479389948,0.11882495462127025,0.0789109736261236,0.07489216461738922,0.014034113515178958,-0.26196470527727417,-0.10120218396624515,-0.06147188593558843,-0.0786843545782374,-0.07748228555917015,-0.10520268776493485,0.3135866485666078,-0.005546170926539932,-0.03727220912912405,-0.043021263717363416,0.3301961659623299,0.06373251272675005,-0.11516870604310626,0.04273009730271378,-0.1907834304112213,0.2817564943607826,-0.05419621368384822,0.04334641396374917,-0.026150703634830696,-0.09492975955755793,-0.03667814780616379,-0.000564580689889266,-0.16778104870394156,0.10659908688393863,-0.1653851914738084,0.2603326107786069,0.11132041143539637,0.07672074692016707,-0.07770348843028563,0.1553833170340353,-0.14715406276913254,-0.05741458469726873,0.1652965867655014,0.19808256576509053,0.06634101992096393,0.10308734446093347,0.16935178342619342,0.05679967793790896,0.06104590375820927,-0.12122576419068706,0.08064691075442953,-0.08837309080787698,0.05542793055863566,0.11894250058325925,-0.08476854719923865,-0.14278588781590765,-0.026356552806038724,-0.04357007176013903,-0.14053943565725652,-0.05674090236322404,0.11551109027743225,0.06691870499917855,-0.04800831851349922,0.10152844151455914,-0.08359852737376579,-0.001099331767993917,0.19761649597708644,-0.14522618005497773,-0.060368945580507156,-0.1562295013529023,0.0683404959637896,0.25520963308293293,0.009678942267290668,0.11104749324449474,0.005926621437790442],[-0.10327967100735504,-0.057592542074035934,0.1264190630400504,0.0564866293944444,0.051601121194011106,0.003794612277067968,-0.018661660131148394,-0.11385889885501739,-0.04285240280355871,-0.014398947794508503,-0.040061517491133306,-0.3596639840980873,-0.15080576256526676,-0.2545069347997406,0.08034654564857423,0.07715502935222415,-0.06043145461732885,0.0462198867792448,-0.029674694507561047,-0.04066864975266082,-0.023800185110711077,0.10884051110799016,-0.17314709508950438,0.05621780226102456,0.11759586398123799,0.06854249754007831,0.05101049367359646,0.028574859852179682,0.013750286242259923,0.08223044268484482,-0.04980234403957803,-0.007207540744097615,0.027602105705866947,-0.23365327132742547,-0.037361338876508686,0.13626413858758074,0.004648129908847564,0.10287842614638998,-0.004549328824068104,-0.018495013007954468,-0.08222780540395437,0.07867267007779835,-0.05466924057254011,0.09472026612049464,-0.04566378190484944,0.022954289509532124,-0.17612269481791332,0.1258291345438137,-0.05026103894824287,0.02002525683159639,0.05808644533402953,-0.09556607978315684,0.3204480299111333,-0.22221574725415888,-0.12545387968260246,0.10983812006738519,0.027497964645978364,-0.09233284824639677,-0.050430828248753924,0.1540652818301301,0.11993278966479053,-0.18098170832939808,-0.05622509995167136,-0.08052830871962391,0.44666983024999507,-0.11209461121094537,0.16030296353923318,0.008379157396551942,-0.10735516754708122,-0.05787250473669837,-0.08046177096098792,0.018032178266553404,0.2500582556798048,0.01674578625237479,-0.054369988474508586,0.043411265570557606,-0.09110789314214483,-0.09133739154808915,-0.3156057381796467,-0.11089212960305883,-0.03235492128155054],[-0.008375055528724739,-0.13117275386966187,-0.17677279013364122,0.19656068852003414,0.152219944379704,0.10377102157511135,-0.13919686347746918,-0.10587385845831078,0.3007212063164568,-0.0948846848701532,-0.19112193430954416,-0.11160700653666128,0.04109467835099001,-0.19109697502964954,-0.037197575603479076,0.02437808655856918,0.10651308421898704,-0.09281326411289446,0.1205090738111717,0.019651639212651995,0.06256399414218353,-0.10671509919436008,-0.1574122026171836,-0.044414847327660344,0.035019250458305395,0.2070818904904767,-0.0037078941851068758,-0.1048061210708838,-0.01039648990022153,-0.01177234508075481,-0.06943168629663843,0.0694587925523057,0.010032371053348074,0.05130236399032139,-0.029280108071365992,0.09029368858344114,0.10480188007663382,-0.03660753318491066,0.06211784629934608,-0.007512051698072934,-0.10276291680963268,-0.1946383358228464,0.2964415324126811,0.14000063940120733,0.04237810239727158,-0.012300793236050043,0.0885082258966057,-0.012233991871854944,0.2536214688494118,-0.2617803865101322,0.06418441385902378,0.050335620328199694,0.39003349078309985,0.028223027935715787,0.05127460818339402,-0.06548177631810968,0.06554687660959378,0.11674584689578345,-0.06489956013322619,0.07468664517440222,-0.05714333727194983,-0.03709185548694914,-0.09829904741588388,-0.12541275787981415,0.04736299610776489,-0.10924728038005958,0.008554279651656073,0.014780331550510437,-0.006553998845928197,0.06194665787586311,-0.16872488728655674,-0.05166839388336798,-0.10683222354746058,-0.11425740389512523,-0.18117774256318545,0.11569804540040014,0.05284195646319234,0.08771897870610576,-0.07669111004040897,-0.03635605901899884,-0.049922086157754064],[-0.00037025865821835617,-0.09328275174971305,-0.043969451441843256,0.06197749241411871,-0.09727873152497184,0.16727614409106104,-0.10350687337940287,-0.06734544432801226,-0.0556340285963607,-0.0021994869582268755,-0.11602316339256451,-0.07434793094731573,0.19951192332735598,-0.10858537948744669,0.09497740986125647,0.15457026693948167,0.11359787011029221,0.028495414423487506,0.09504336217047914,-0.04080985161487687,0.16676560709484775,-0.10982332901912793,-0.051474389531072,0.14977869611553624,-0.10814365280392788,0.04649761319646539,0.09495341573852366,-0.08132081814957995,0.0035187484373577693,-0.0832991779680951,-0.08701393746369149,-0.2568572583421005,-0.0622760247547049,0.05669953165017871,-0.13810337503183912,-0.002667890566971895,-0.09199827737658894,-0.026385521769240562,-0.06460069625985766,0.1251152528168741,0.2534928023572939,-0.10773795698687909,-0.04746193216688505,-0.05158425101262438,0.014675881388855661,0.11321414134780208,0.058115989236234504,-0.11251748494458454,0.0928208271560404,-0.14738024508533948,-0.0377652820794821,0.10538922590107673,0.2913649556939042,-0.0433669376503829,0.0008842028600988283,0.022063067431327896,0.11304330562926167,0.23304581232560923,0.07675762129285672,-0.11125717226815461,0.1969241364599201,-0.092416933198796,-0.0036016192472405235,0.0903246728113157,0.15985356895488134,0.08530911105362635,-0.14935464009149355,0.08871895248202065,-0.22410862884,-0.05727590816913975,0.006735310720962956,0.06547107467660752,-0.04511866876164148,0.08994650498271037,0.06422241241870448,0.05312906044109291,0.14673940124073642,-0.1617686453012501,0.09606332619702691,-0.048623405885097684,0.04920899078213495],[-0.08357387010262202,-0.05475375459662873,0.049712315433464584,-0.024440882955844043,0.14928897003911948,-0.02201742045730244,-0.051912235325936085,-0.04882918595954723,-0.1837775403187365,0.04353804092670833,0.031965784593912305,-0.0033521466645020288,-0.0035885733044988205,0.1382882997903771,0.08173024557188185,0.09452572103986497,-0.0826746118096391,-0.005460435852223779,0.08527438308446371,-0.10314669102890478,-0.059377594523038854,0.07069078339896745,-0.09587382048940513,0.13498432970592428,0.05643221883978435,-0.07129500830620568,0.024378062588558576,0.02723404872299505,0.07312942046576723,0.07427162685352628,0.012991579116500528,0.00787194366664777,0.020037636737374933,-0.003045520906847915,0.07709441933073272,0.10488675369811294,0.19877018118852197,0.06579644204250942,-0.33043184619461413,0.0886326752449736,0.07754713193312347,-0.45909681014257897,0.026448818944063934,0.02711817752956151,-0.1832360467256287,0.09029666319634548,-0.08686424060754025,0.0557238246543852,-0.09957083132220695,-0.08402820191102411,0.3060615088371591,0.03582022281675305,-0.29081273011157466,0.08113791195106335,-0.0149678921052698,0.20190485796375673,