{"biasOutput":0,"biasesHidden":[0,0,0,0,0,0,0,0,0,0,0,0,0,0,0,0,0,0,0,0,0,0,0,0,0,0,0,0,0,0,0,0,0,0,0,0,0,0,0,0,0,0,0,0,0,0,0,0,0,0,0,0,0,0,0,0,0,0,0,0,0,0,0,0,0,0,0,0,0,0,0,0,0,0,0,0,0,0,0,0,0,0,0,0,0,0,0,0,0,0,0,0,0,0,0,0],"hiddenSize":96,"inputSize":81,"weightsHiddenOutput":[[0.07797464879718752,0.005235922304103402,0.030423824954341802,-0.1738455162174797,-0.025556542985197387,0.0940676089306061,0.12973735363783007,0.22454045882361007,0.05082676473847402,0.20254203326615391,-0.06389742639186972,0.06220834744374988,-0.002663420357374502,0.19186557085197872,-0.227619728889365,0.2664103687877435,0.2113651534590247,-0.1811451863875415,-0.17860743616862135,-0.003445423074974056,-0.048761163348842014,-0.08823113008984504,0.019283258804355583,-0.031619594061899875,-0.13468090177220604,0.04073019140095579,-0.142257216531795,0.18439252430774566,-0.09150550364047019,-0.1371369528677291,-0.04697058853243271,-0.18639605608111867,0.068733838568955,0.028108047828367313,-0.07051375949889785,0.0045397400064725365,-0.07712028749516875,0.010223187969135733,0.10683421331204768,0.2019157426146414,0.06860142398200472,0.1594367630155859,-0.03908750667979942,-0.21555643697324942,-0.14911925940920523,0.5672887436937504,0.12530393394969036,0.041179249876154116,0.078441778120298,-0.11362849151009936,0.018432240058626252,0.06516227920037898,-0.03354063962876076,-0.12609844518959656,-0.13719249918279505,0.09316429343537705,-0.014653763399207691,-0.06767001727567937,-0.17435088467268176,-0.5262369334548678,-0.13236873995521392,0.17156635415346444,-0.014624860222613983,0.07673602530695325,-0.031173330492615735,-0.0654553828405517,0.09835035415754777,-0.1073789476989814,0.054684798483395594,0.2973612512862995,0.12244177428767146,0.2709420519289019,-0.10723346487578059,0.06353054418419668,-0.2151486327876845,0.15236936976454846,0.0899338590825417,0.09780978680014323,0.056839779266487256,-0.13506992676282542,0.1587148385570362,0.08073525575383382,-0.12959754110005342,-0.12244570120075672,0.006251565985043241,0.1273491825442817,-0.07483977346882373,-0.12698962016317095,0.15313839730333342,0.10146986596803007,0.2489039209422901,0.06138730033571804,-0.07881949593438987,-0.22448460429115216,-0.17111752933531468,-0.2514074541652749]],"weightsInputHidden":[[-0.05884234019300079,0.22923052878066913,0.07207420920556493,0.11531787908760463,-0.07241994355049641,0.06565082238939388,0.07003819242677259,-0.032021451553428996,-0.07027109667851496,-0.08576485309763632,0.07419261064223402,0.08545616613613215,0.08324307928766696,0.09341372654045436,-0.02085861340775563,0.10063465875128608,-0.3125145321980091,0.0881153843866878,-0.056800511649007894,-0.2788417244223641,0.2457951950838716,0.09276031221262622,0.07588342916219472,-0.21016612881980076,0.036469459746173216,0.10007576243322594,0.17598634801757249,0.0996691456494541,0.4363083961260901,-0.16584996704501817,-0.030286459524987163,0.1608936956191905,-0.3204246779577013,0.05188046045458978,0.00015230352762571738,0.04722662040403262,-0.016363309222660133,0.05249540055810209,0.12677847284433724,0.12257879063327498,-0.15440249145585075,0.08374747999516116,-0.01847390918911403,0.08693335676252259,-0.17120566336583948,0.022010097611835915,0.06730864139235627,0.10485548478241989,-0.11766427370665945,0.07204668301049262,-0.007644076423323677,-0.21966789760943484,0.06774173760381737,-0.019788520132759013,0.11039945582796715,0.000662651610939427,-0.01490824969199568,0.020119345052623715,-0.02303390050002387,-0.04534508619371491,-0.2687192291208421,-0.003038832011321629,0.07454353356650986,0.09875770543312087,0.10949741810571266,-0.01809746534151798,0.01807715775281269,-0.14741051812108105,-0.050225389415848004,-0.18249391605202878,0.15264016620684576,-0.06714367407082641,0.0017637563471831178,-0.09456736363487941,0.08451544973240445,-0.24826858886220643,0.12800866564246113,0.37678548693098696,0.14387383811502882,-0.009890423692326367,0.07323161202555427],[-0.09736469657417106,0.04517481439366635,0.06308695020290898,-0.04369099021440635,-0.0981197868981289,0.053398307260108406,0.19323660378344854,0.05707446577125002,-0.17938458944528057,0.04674675971319738,0.025744385432345508,0.006736833149034578,-0.01599497582506904,0.29842666474817076,0.02496231424427104,-0.01083228355994895,0.10814030011892645,-0.015178772136531748,0.16850914212545517,-0.11695606614728823,-0.023587759399605692,-0.10418032606261135,0.021460473762292823,-0.01615220946139488,0.09154446341120538,0.04089766246949142,0.02679721525268117,0.01853850674677069,0.15262843698891096,0.03793052230255815,-0.05432797986526548,-0.023031999376132154,-0.13548741496830868,0.008759127761976645,0.04733997842637401,0.08245941874182065,0.08357427438546285,-0.14952418958169839,-0.19581061167447095,-0.4035317754968881,0.08664755103020645,0.0588463158772984,-0.018321418776829163,0.172088480608685,-0.07968510079822183,-0.024580465436027838,0.26421759875962075,0.0035736947193753823,0.0077713873105643,-0.1338277990591464,0.4103746076108758,0.09568222895316217,-0.09729752568484845,-0.026290083302985486,-0.10947602660430693,0.030152125996808322,0.07591971908613288,-0.06513483005927735,0.23381619500663922,0.026348618162945796,-0.12859201867063877,-0.06293275782882966,-0.03501514568631412,-0.062135604443894425,0.02905930729289085,-0.06617426027446979,-0.1031764404916409,0.07916801528734065,-0.06694258517632744,-0.08717522153351384,-0.04095407268736059,-0.4194104247958816,0.22476790560018836,-0.10833212887290203,0.004527934190023633,-0.25619772515562905,0.06029427300610353,-0.09066151423119448,-0.07664264608705108,0.06997151256197828,-0.07083116840783768],[-0.0238612652760905,-0.0690698430399743,-0.02186822454292057,-0.02179789497523158,0.07336936077893948,-0.174115580696611,-0.07551108705275592,0.08451390124718718,-0.3059188081692033,0.13308751280119563,-0.20099606545559745,-0.20363693333890356,0.043102068391283846,-0.2382213598742492,-0.12449265387491734,0.07076760867747578,-0.1588730908761652,0.16099439024142304,0.039650132110292016,0.21300232330870714,0.005250204542781126,0.021200937768252416,0.060393043206670514,0.2568776409195511,-0.05010301444285726,-0.05336978479966545,-0.013699396966518316,0.03360699443164669,0.01363947034002454,-0.013019439444242635,-0.010214055994245333,0.2318741441737352,-0.0005345990276559216,-0.24179172823286516,0.26511117606646617,0.23499308589798953,-0.12396161806429219,-0.02955774394091869,-0.07033350059318808,0.3125298112759193,-0.09150291026948139,-0.0011952213562034645,-0.024351125345982313,0.051090123602084384,0.052715077881981647,-0.014268719619994371,-0.008588660861405558,0.08066027586604249,0.020686871909263417,-0.1850557561093862,0.041568582584310385,0.06470618577887663,-0.027377265222499888,0.014809928036635014,-0.028553191762876524,-0.12294362663642047,0.2400201209930867,-0.04835739757899278,0.13818365746473033,-0.06630909256458502,0.11940955161574986,0.17287577013506006,-0.15565107327554087,0.1866802445616573,0.20003519898021233,-0.15489365406480377,-0.014529593700531768,-0.11329059404760616,-0.052811370858639274,-0.033200260694637954,0.00436010058997017,-0.17324895378675612,-0.07323102070885212,0.013095391995633122,-0.04905600413070116,-0.0796055616709943,-0.06097420681747705,-0.03439501674957776,0.019826406634484612,-0.07149246302931435,0.09137476070388621],[0.09763599976521883,0.02850762048026107,0.10473210661649733,-0.3758565078002017,0.26493368855359994,0.03585449706282081,0.0008288946619117783,0.1506134029467614,0.03678000933348482,0.040702324645865644,-0.12739173933859885,0.233517205730025,-0.024193933570043624,-0.03565340621382002,0.09666118846070379,-0.10421605331220468,-0.0462086967429092,-0.11252783593117871,-0.0756519374487811,-0.21959969893586054,0.11769728050322187,0.0001317035874658347,-0.4355170382087564,-0.24102550034113762,-0.10031674654479536,-0.06641914136834791,0.08150450250464938,0.14250913544486243,-0.07613254045776519,-0.07578607433722069,0.1341845220090676,0.3095418454735136,0.002046848624738197,-0.09179562481735737,0.03566155812461859,-0.1656905885072604,0.006633105641901261,-0.01689814762475678,0.1035474329145549,-0.44530729210544395,-0.019581313214512414,0.046867966346339274,-0.46548573975967983,-0.10330798889010988,-0.10356814937400682,0.15890310059696988,0.11506749367599231,-0.07877237748012336,0.0622649221604724,0.014097456988745939,0.3108206775794344,0.17735082114819584,-0.04686119244631322,0.17212457769429876,-0.10512902229541074,0.0216393294344598,0.08725245328654643,0.01712303066851285,0.3232949389067,0.08880621688327073,-0.1700396325519533,-0.030388342320156688,-0.18456611897682226,-0.07251052671592803,-0.01866893277682896,-0.0189730417274055,-0.13222694260234308,-0.14766899134669803,0.2338364472666055,-0.0731341819472182,0.09064597133720315,-0.01890182452820976,0.037927377273412666,0.051093329714175933,-0.18742241379117158,-0.036247442924571265,0.08700173725668366,-0.11730918837789457,-0.08190123843135226,-0.08614480478125101,-0.15078770036950195],[-0.21857949271944782,-0.036478172196951035,-0.001399521423001485,-0.09624241069357171,0.08127726250554351,0.29975254461212153,0.06938434693320339,-0.02182446339668743,0.04856412460729518,-0.09660684821025788,0.05761147884513792,0.030822275768732085,0.12338299456215966,-0.2287843859682189,0.09461146354962795,0.04752913028967042,-0.10644493411919342,-0.3473288659972614,0.10260880840167926,-0.3375612936869085,0.06897940751315983,0.11227701123456307,-0.17084832914234946,0.13506188907512837,-0.11874225528194558,-0.5330795686511381,-0.0018897084636669064,0.10455320096701622,0.00415926306042381,-0.06866257795262018,0.1933753201611714,-0.04380772910014487,-0.025548935295955307,-0.07758444614651387,0.38917843586259443,-0.0750255157450756,0.13793834069937627,-0.04486777540547953,-0.015769128622177254,0.10993305954267472,0.026723725834991302,0.09880653787332346,0.08308008650127698,0.13790090227326254,-0.05388915087366265,0.24337884870644808,-0.04804695626597695,0.14794614466518546,0.07945325498489901,-0.0005768783611880093,0.1805965943332475,-0.05057301900009975,-0.06519090597985999,-0.11034174963212087,-0.005044444365984252,0.14843775933309392,0.10138414455887239,0.11213923271210133,0.06373661579395513,0.028676186455097386,0.1112526789932981,0.09612788433541064,-0.001624520323445762,0.054890258775008346,-0.058903287516377204,0.04514623478022639,0.17568956498553762,0.022482972124944597,-0.047659881916545806,0.11086637473818117,-0.08982648960675169,0.15921907874762453,-0.1135348214895896,0.023041774556004146,0.0697381222590102,0.0108074137248767,0.0031172336974913855,-0.3348807842308587,0.004294658545617312,-0.027913203886839297,-0.2697676007807269],[-0.167159646095901,0.127666325199007,0.2856358271504082,-0.03115632861194274,-0.04320125222082686,0.16355063088471647,-0.2396997247360394,0.07883276033482503,-0.25766463546519847,0.13130627786788882,-0.05249223065493027,-0.0226223716762844,-0.01848718676168307,0.050123582078358084,-0.04907114453387174,0.08749465328321804,-0.10518345107614872,0.32534202185742994,0.3201472911290683,0.003158392097876901,0.0002727064265903874,-0.004468211393717,0.2241770998942807,0.06665416456500259,-0.039716092758722545,-0.07378067398792366,0.0015605457595502963,-0.024327982433572426,-0.1986045201967738,-0.0010494353696373286,0.02691679544995851,-0.09711544509035612,-0.10583027846326964,0.015129019850069522,0.27399983567461195,0.08382320119516967,0.07011030160486884,0.03409574989229138,0.07439306663043332,0.12090784941225581,0.2783924319467809,0.0024711593777893164,-0.07513464546393359,0.03222383294794302,0.3713619061612704,-0.04345049174984366,-0.049180909081919036,0.0983339640970599,0.05129514696990032,0.056729974260982495,0.030253037684648102,0.0611359773447657,0.05293464327789486,0.23134013542251627,-0.07680115730203226,0.017415658984435145,-0.3741867693031679,0.04990782951168865,-0.2834929458133672,-0.10285464250677319,-0.12979753889389545,0.12505213273509783,0.21569598447530652,-0.022054221932238213,-0.07088174476176508,-0.007217786169940102,-0.30311305268786704,0.013994536761008767,0.03399928570364673,-0.07002825935863095,-0.15772848201402265,0.25770298218324983,-0.11306466736163374,-0.1589680677985902,-0.21229826132725238,-0.1062203711775511,-0.0921005546675306,0.020200383736020337,0.18655717795991056,-0.03597779183881609,-0.08142947493123218],[0.06633967962607372,0.25771449423785253,0.09184785433457301,0.3274468568262376,-0.04349612706304274,0.12361649938222322,-0.09198723163051263,-0.1023544230992802,-0.05723690307633625,-0.10451455742519246,-0.129408320239081,0.1981616502337041,-0.14260027957889068,-0.11591151686442705,-0.047161078192474365,-0.06522115498116418,-0.14790695903172682,-0.021498820601836333,-0.2438415603001913,0.2895683333640854,-0.12685740482106614,0.0999464320938426,0.03866397891975614,-0.24555378778603235,0.008116435016362975,0.1464818270960443,0.06956371378385436,-0.506061288417856,0.05530598267976925,-0.029911478112507127,0.2472527609312734,-0.1296956189219491,-0.05037972525135045,-0.25735997146893935,-0.08632355632890383,-0.053937302385263716,0.26112662947537996,-0.16118911267721528,-0.17619593523318697,-0.11855708715565738,0.11473417234106603,0.14891852006654388,-0.03917180347468025,0.022710649863829764,0.20338332025484132,0.06282912271544418,0.04382026962601156,-0.1912556524894263,0.002824966997442741,0.09986599606805292,0.0016292821432328315,0.09157632233093622,0.07113606607893831,-0.12498130832973935,0.0669157728105196,0.08707643214480004,-0.11761823000069001,-0.07437951883228684,0.3197038017056525,-0.03340602845712999,0.08659166473023017,-0.43018685821499963,-0.08663860499180037,-0.02158342915556143,0.01673876475448039,-0.045873978016385264,0.0845375286341606,0.18476874133761534,0.09311820161578613,-0.10742066169270759,-0.12966059761019819,-0.013552479508852674,-0.045599825970244486,0.18422554391968982,0.057616796602078676,0.10168791711207853,0.05023968055050101,0.38894750450364046,0.037431488591816144,0.06359043159912176,0.10450632468565836],[0.03662026716893046,-0.002577545176150262,0.0597634609786267,0.1413052656754341,0.0928712425469824,0.049682232398717524,0.03975799876299662,-0.034867432273255464,0.066145641370579,0.0702485952746051,0.23095255296845243,0.23074091743950548,0.04749971583412949,-0.08153069327237321,0.313039866512771,-0.004746648757619791,-0.13672015650118377,-0.040608518901015994,0.16308587943863606,0.05036589677516098,0.06725188356841637,-0.026523808337883314,-0.017218493344562696,0.02701928301204757,0.02793290966671585,-0.1771122366534165,-0.056889694459895404,-0.14048271235678475,0.025553931504538503,0.10193695500147941,0.07829542113843706,0.14169982381528062,0.05729851533528087,-0.08594362310589755,0.08614345808215883,-0.28267015804860274,-0.1678218701094267,-0.03371646429619405,0.1821685057625693,-0.025128747177745415,-0.03014679049449097,0.10117831666869703,0.1340493572807753,0.01788765083462593,-0.011534391381583872,-0.042572644329066586,-0.18823361215913967,0.3115197749347809,0.2438830085942461,0.0245322542023811,0.11136162762937804,0.1622757107387775,0.16893627142830786,-0.10007876305187678,-0.057636215804026406,-0.17902905750203427,-0.13856665201203983,0.27193901241806345,-0.04612732816630868,0.024975691356568595,-0.02575692490473674,0.3897331776065813,0.008313428879740362,0.05241909254143601,0.15273684459910106,-0.18447863354520502,-0.2442968002270061,0.13587893543978047,-0.025734373852399756,-0.24854054400575668,0.09239687429868629,0.2074263956353672,0.09719338897439635,0.08555530166913243,-0.07348493290417314,-0.12060000546042685,-0.34780265534357285,0.024684815280591018,-0.4374189279533156,-0.03210146953047893,-0.08294345527386657],[0.0016143719985588494,-0.07794767620806559,0.1600223325247829,-0.20463426278293448,0.07354019710660868,0.016476583839245648,0.08437207755778574,-0.026383283974372094,-0.136040831587168,-0.029016823714435088,0.2264649644128758,-0.011101312051196594,-0.012078577689682532,-0.02199177305979094,0.0811331842461417,0.012555357090401805,0.2576314204449551,-0.03834317101189196,-0.017916077243667658,0.19092390359256756,0.04763864617794137,0.14038714547691666,-0.07573369579534696,-0.015304302064853809,0.3544789985537777,0.045359480253204486,0.06448856758150365,-0.14165643290044377,0.20837356161505935,-0.0950993040717082,-0.00483238317989481,0.0977085966228953,0.057096548620084925,-0.03279580866680769,0.052720987800501516,-0.029365981712722585,-0.025991798522173357,-0.15422416767996178,-0.0534640096019815,-0.24565578434523808,0.08620962221661777,-0.08554631537499362,-0.05587841423791479,0.1218713386218223,0.0198904467024982,0.08913208225117031,-0.01997197368008581,-0.026908361832472454,-0.15789071502759658,0.16388726998598724,0.028124564430592795,0.09592779502223543,0.11880514466015345,0.08534360699442045,0.21330526368925357,-0.22405747586977784,-0.2180467149309086,0.11231328466744989,-0.3238050946224291,-0.03899349730400605,0.02120421078949828,-0.07179027837417391,-0.16293914333164833,0.11791737827237667,-0.00676751123709161,0.07236022934992599,0.07363675088757787,-0.01442190275735456,-0.056468837575496464,-0.49031460114998526,0.0063854265784238605,-0.10480147834360859,0.014760284129982848,-0.29477703960345575,-0.18179966361062358,0.004052833491466908,-0.001917508384905566,-0.04501783071035441,-0.4156442023377008,0.01927411406107233,0.002461071281715028],[0.09885792561355686,-0.1814791656986609,0.08689283793177628,-0.09223160410151446,0.055295778109717156,0.25612367068503367,-0.08312915572822706,-0.2649104168205378,-0.011411777979350286,-0.14063833925367739,-0.0641720272925133,0.00542882253995182,-0.012214101433200432,-0.24661229492987222,-0.10006305144565084,-0.04949266450108144,-0.0886497300162935,0.09315270324122446,-0.19739726876954872,-0.12405881796126643,-0.15181692071714242,-0.05213759257313838,0.1060130817765838,0.29907095340886247,0.026426954870333565,0.15548509790070858,0.10232406260357424,0.07709285911677217,-0.14100197809931733,-0.01915128517463421,-0.28717257556568987,-0.06343554711898279,-0.11639035340431692,-0.03917959017778444,-0.025601447122821173,-0.1415212192645622,-0.02898695168369448,-0.06940392063262033,-0.08795729931685656,-0.0860217995172039,-0.34646449737830953,-0.28113775653541745,-0.12046670484292486,-0.019638187023352682,-0.14231270330186438,0.018727385016312395,0.39358908414848154,-0.033354258381092065,-0.0672663043745419,-0.00524819236854622,-0.2844493423492807,0.22278283757565298,0.13849994461149276,0.10782038707189215,-0.0237442070594175,-0.0013289415992251078,-0.13938402450784873,-0.07426906899931685,-0.34876927597209234,0.09575393922337978,-0.29255532035505566,-0.1378908791192705,-0.11470986163065088,0.15593639282208596,-0.005717866730419335,0.04528556879694802,0.06597910781618084,-0.04998401182008559,0.25678713515291407,-0.06223139964433502,-0.10016959667566507,0.12555993913535923,-0.09380547286463528,0.014195970453923323,0.028263190031956785,0.054569466710945654,0.03984563618635502,0.11514943774019838,-0.18456894230261167,-0.12141060856572393,0.08876241091653876],[-0.03338110450126788,0.06619597834513745,-0.0503479020160655,-0.11893836245709802,-0.10541931947267855,-0.07639150637280813,0.00025145031009371965,-0.030064978774249275,0.007808169225119138,0.1574103292104951,0.020249923949000447,-0.11031215545704413,-0.15591292832415107,0.07851825293988733,0.07911117364900694,-0.06452516422503426,0.10888153180738804,0.0018257964781044486,0.03427196054045462,-0.32096206474503775,0.20481786155222645,-0.10368832501844252,0.1769797634323604,-0.08965726698190128,-0.1305350398979748,-0.040784566604958446,0.058556735310650844,0.03143534795546925,-0.12963480064101435,-0.05425554265220897,0.059296590746126365,0.08492402404586138,0.08573256715598593,0.15004868785191985,-0.16943202041412644,0.03217807036178312,-0.11934326024505067,-0.13245686711420884,-0.08129888368227602,-0.07349956155944007,-0.030606082258986263,-0.04239156024786127,0.2292005964512716,-0.17060022647016052,-0.02601519364439726,-0.05307049653237545,-0.049184810905038866,-0.046914169059942966,-0.08263295794715671,0.014659296847948804,-0.17039810545372905,0.07175903534466134,-0.13922416987040745,-0.25558985982446025,-0.08394847451450363,0.0867217462801843,0.2818158981623677,0.027599396470905816,-0.12759289679801863,-0.0704517595714519,-0.07483292227250436,0.06488128775760542,0.1509639143517612,-0.12289517874671539,-0.17160652626105483,-0.20222994119870688,0.14642909389286451,-0.014141056567171156,0.1382856472881699,0.021286274264288772,0.007325001485376217,-0.11134151033574483,0.18381324469281785,0.014766004271404481,0.2579580083526438,0.21418984573050062,0.13739086876467985,-0.10254658873388015,-0.004238697892560062,-0.15393540964358562,-0.1259069766385937],[0.0664758781500375,-0.13281761457668967,0.07822244716234218,-0.07584688276481875,0.04298898412687281,0.36525936829026995,0.07126654377018152,0.10322294191263694,-0.1889135537124779,-0.06371637774481143,0.2304794109808083,-0.0018369116377236173,0.10249561909177368,-0.028162400941682705,-0.005189771528229125,-0.04561066246650676,0.05579695184210428,0.0030248881411038073,0.1769153216338227,0.0004730164165981275,-0.011434008837089102,-0.04530680556393051,-0.19355908541461062,-0.0037040125035838526,-0.10509324762338701,-0.19057634569624302,-0.1420026064655514,0.04492700339518492,-0.06617792708169129,0.050362964624341436,0.10270701960398831,-0.0473799310958181,-0.06202042224150044,0.10199025461127796,-0.04756495342527999,-0.06218502919939101,0.035318805519918534,-0.3988967992522477,-0.05026720494624386,0.0706361164278734,-0.19665146488626245,0.018848643458247598,0.30280120093647417,-0.10449076999371838,0.06809305176934327,0.142136965168395,-0.18909665395609732,-0.17469264469320492,0.13970942993021118,-0.13286551719554032,-0.08895425414522591,-0.0659545091511937,-0.06661162604431219,-0.05487010634078999,-0.14854623437526432,0.1411509872364785,-0.1700825208525326,0.054864623185178034,0.004596334522021403,0.20687779564966832,-0.06700106841849897,0.10132131556994949,0.050123908424141675,-0.17056148031841176,0.33323037976802733,-0.1457733855113144,-0.0203329677628152,-0.03647018746770376,0.032298915018214434,-0.08654046297563013,0.11431469598796185,-0.3218937821225674,0.34645237089073,-0.06755782624823892,0.17554518812896885,-0.11073877175948103,-0.06353206402099287,-0.09524121505399816,0.021547852524574144,-0.030705329329322805,0.012228074876011387],[-0.2390007655039944,0.10940994315432231,0.07856321093505846,-0.04845370179554156,-0.0795169279560707,-0.003354932257745779,0.26268106725450757,-0.008357292894317015,0.02406170165431989,0.04257270589335472,-0.10829484815835475,-0.024212768844535947,0.0946942432740805,0.16114098862993506,-0.12315981100233912,0.16145918080336005,0.218455724558226,-0.0945143175847338,0.022765651833100375,0.1712684102128261,-0.03362117596943414,0.07357373195610391,-0.13643145107670646,-0.3097894154683903,0.08354611241430457,0.05025517166790632,0.004372997778837674,0.0017764385674984803,-0.04879949362342637,0.2644700981480668,0.14180124612195624,-0.08688988966355607,-0.21439486993555218,0.11711791910907166,0.20875071777817894,-0.11582044886768378,-0.01947809616933371,-0.25555029755098985,0.008235219565615086,-0.23255102422498805,-0.12737189475921254,0.3513329697434092,0.07591004236977227,0.14694466627939637,0.04836934553369617,-0.13662579401608665,-0.10805624343834427,-0.36504546393919785,-0.0005133262669967455,-0.07106758991546339,0.07881760640588578,-0.0746054163235698,-0.32487000188948095,-0.10657715408660023,0.03967175024206496,0.04398744008667269,-0.09587365852436935,0.10317961477460068,0.003767560863581995,0.1643118224476472,-0.026298360913331736,-0.000012634141629301158,-0.2358468859141187,0.08162486405261299,-0.001937956740125483,0.06922611842341786,-0.018128030991507445,-0.1907803963861132,0.04742251241307254,0.009475529255688096,0.18945721682720007,0.1574405300075077,-0.030919140641764514,0.2994669682559023,0.13321962185221717,-0.09110691827021207,0.0784090029972893,0.05076043183820511,-0.19464784814488653,0.27415940370433645,-0.21135223019447144],[-0.1490500653573623,0.023995160631825017,-0.08795089562758353,0.04643005286762035,0.018158584140250386,-0.0017271112471133705,-0.019232124011875892,0.011067096054248916,-0.03030007159852682,0.1324907437925188,-0.19604898222329142,0.19610887019312098,0.02326300855443809,-0.07454720067826359,0.11637427438892903,0.07547963653815817,0.04636011461989409,-0.07878502353954535,0.04652263808536355,-0.01715245445414451,0.08478832854603367,0.10370899140214775,-0.11188454502089948,0.0659264195593103,0.04382738421926243,-0.12594347898498914,-0.19667094835645632,0.02762168026417312,-0.025279012268570756,-0.05718689291013679,0.2702260790684238,0.12623886144454247,-0.00729662297743536,-0.08833783355158008,0.042705701135057804,-0.21158577888029467,0.23282602330692362,0.1758116165383209,-0.024123807389466848,0.010669399976072936,-0.05560901300501827,0.2849381408331187,0.09126176703737593,-0.14149256814175107,0.17719277190184893,-0.2411603796887695,0.008509070006047456,0.21921438180820726,-0.22678732388662332,0.03400696757807933,0.4155763771101008,0.0013219797979384796,0.08276789868750223,-0.0215108709015025,-0.22817652858073215,0.030376280881677473,-0.05493869118761071,0.052488659120045904,0.013364829308840847,0.09088339276801038,0.28010408595281905,0.0015994268941724927,0.08789037721409054,0.004588155124218595,0.12851168805850474,0.019502334447500828,0.06767231137122744,-0.030487133442174567,0.05739480301381202,0.14910535380261009,0.18783550073867317,-0.03195012495970824,-0.00038644574646955155,0.24091912168616852,-0.0638932127036369,0.034673026329012306,-0.056282913866273335,-0.04901882934128251,-0.09395739446960405,0.06236706561442162,0.006623644404256504],[-0.02341189332687231,0.26839936076540666,-0.21568906533141696,-0.0538852547425877,-0.02476792120847767,-0.0087836635055081,-0.08923747846260512,-0.17890446165257362,0.08223864218606589,0.17076691883093292,-0.1577792659395928,-0.09476249449926212,0.15148268044864413,0.1951337737856424,-0.030019866732288382,0.13443626048292773,-0.05022878905500049,0.1388444305749425,-0.014779764277447727,-0.19359304127027127,0.10984620520635249,0.182577509362202,-0.29940908521797127,-0.037762834979535705,-0.013032265726439,0.15922547780620008,0.10394956883406917,-0.06221654707596691,0.05195748713905859,0.10610317649533818,0.17485700323632944,0.06372732664193216,0.2139923955252403,-0.046446865085880654,-0.07618480192332655,-0.058229637044295214,0.15865355454738037,-0.13052278943460974,-0.0038724123168502878,0.011744244611608777,0.0018946086759812225,0.11906561737616639,-0.22783388890744302,-0.1781576250440423,-0.06174570385620514,0.12086826625594663,0.04049825341764233,-0.09336155294056016,0.1986427422758527,-0.05115064290673227,0.3331527664957354,0.0751016098525297,0.022512785418615594,0.08529915906054836,-0.024322345669512496,0.08003353434133122,-0.11175095513596058,0.4443177174498245,0.2870620584510921,-0.2330893220220484,-0.1064908554958965,-0.01751620551372303,-0.01935067139237834,0.0799441952995225,-0.08533274490426379,-0.0052407843218402386,-0.2603714067190749,-0.01426136483751229,0.15098012832701513,0.03722478587333986,-0.019693464986885262,0.1778888913709483,0.07958323406964012,-0.08967402103798014,0.2073865354065229,0.027929329685867157,0.02241327143412417,-0.038970948372623535,-0.30926403655112766,-0.035361751817365165,0.05264271113134658],[0.16522239066273411,-0.08798633014150742,-0.15016039069683149,-0.03243610746907227,-0.03641667660177889,-0.08277167232428603,-0.07463984911619889,0.10224315780468718,-0.0009578216966501589,0.0722631990413088,-0.015520945063976076,-0.08661442811875145,-0.2266832844497801,0.008040168021337207,-0.035159840620933296,-0.31874453965954513,-0.0012807605317621152,0.1401143083321971,0.07890490285215844,0.18284841259397186,0.14215755435697133,0.06256754903419502,-0.08039655008480646,-0.06721078847136111,0.14361711185935339,-0.18959886389136973,-0.007983269367832354,-0.1560475510881323,0.042372337844111346,-0.0834553739885776,0.007193227320442713,-0.039387975200188094,-0.030702572190927712,-0.09267005311033845,0.014709781582215756,0.16027147740486097,0.034092037607093624,-0.058875814232777525,-0.21913730136277926,0.22428051733249868,-0.07211606688835011,0.13742390994706308,-0.10349293123459995,-0.09714647534929649,0.09070235969723667,0.19216425379149202,0.030621542620989095,0.016432539002696585,0.047040040609291664,0.019471807284919537,0.06806106825499442,-0.21325709826093925,-0.11015387187271906,-0.0392055136662589,0.044988247597053346,0.014227174061451894,0.0739023952941403,-0.11626910494067212,0.09343886135600005,-0.045580478827819,0.08294469477568295,-0.08670437004077983,-0.04251745900333023,-0.05034024488430594,-0.02492650231371921,0.12035791588716124,-0.04203124780320655,-0.07933962394884002,0.03825298966102337,-0.03736531965957592,-0.09694505225362074,-0.1584926068146849,-0.15063586086780922,-0.21397108601879114,0.08450212258930984,-0.26176323801010204,-0.07431572161653055,-0.07823636655320447,0.098933619073155,-0.02734387030381813,0.18916191271245122],[0.15334492424175497,-0.17510960482824375,0.011431722196983385,0.092660196045094,0.020520848479700763,0.022461870433161456,-0.26308610743734445,-0.3138222690212005,0.10382711597023563,0.15813527927732796,-0.07471785465063135,0.031238214045212643,0.034659337397693765,-0.1857213153803126,0.002530506576348861,0.020103066689747318,0.1420499083428072,-0.029039528330436867,-0.0405301059718288,0.11473252698973362,-0.006095729037603694,-0.06580081945613565,0.03392037085339151,0.3184066319171477,-0.03524557719099097,0.049850155571212675,-0.14173356782952973,0.07154265548957071,0.07020013889694193,0.31760866650805264,-0.09530929021600465,-0.37550422725699834,0.15882814464814432,-0.21811531410028923,0.1255608469659322,-0.09373611384835377,0.1485040744815059,0.0175024764783866,0.18236447424476468,-0.24855587254853134,0.16758935133854727,-0.11061289029921562,-0.14283182024341473,-0.1476291970894656,-0.19280616414785978,0.13452113183902528,-0.11399699895267956,0.0036146916677466966,-0.17450753062520002,0.0232817692516793,0.23391119525537943,-0.1471901013212615,-0.06304221147302484,-0.08389751239947275,0.058311504205847534,-0.09033499365423284,0.02669984019473914,-0.028803777116909603,0.07882778846334716,-0.1419368556538939,-0.1965009406064955,-0.06578419901681182,-0.1903930878880219,-0.08537260950202512,-0.02668404190014363,-0.08115774923417027,-0.05120165998273522,-0.04724365209779074,-0.0410687152513827,-0.2266173539862351,0.18962556369609485,-0.055097657763160696,-0.03294171689872325,0.09592357192489787,0.06477314729990769,-0.0996605195193644,0.06656803916173944,0.0184059785310267,-0.17091967156592924,0.004870736178966382,-0.07656118114309357],[-0.0017345533122920301,0.07660408368244274,-0.03479050783818081,-0.05189279647480116,0.06709077661248682,-0.03396819715086785,0.24109815415367095,-0.11020293716658945,0.04433643058102201,-0.05977345074878675,-0.05105208989526324,0.061591059260174594,-0.036858461621601224,-0.0002489272472377614,-0.032562961871961164,0.14817157306388035,0.024872656817958534,-0.05385201028538122,-0.025694148587041166,-0.30973419341585545,-0.012994064895438705,-0.09740525492738113,-0.012307931928235424,-0.12483407220271854,-0.2614900773574888,-0.18738903530090958,0.16001383139570519,0.19360861024114656,-0.02355018158122732,-0.2777499772201493,0.0029666976339255092,-0.17049635011175163,-0.09982371228416005,-0.23067503847564402,0.10353986222305649,0.24955385175577133,0.07239205749708498,0.11275247769538346,-0.09564765357486865,-0.32572063781067545,-0.006423255304769088,-0.1898378592587639,-0.20426939369182576,-0.06958542476193774,-0.11790615061527708,-0.0715371258803239,0.10387181332277604,0.1937794775404319,-0.12070435422813014,-0.2090403978277557,-0.08684201615535078,0.08901431050985836,-0.07216151628995475,-0.03434689844975515,-0.0861527928095799,0.01991012391040897,0.06631350953160257,-0.09164125744721448,-0.08917173045534185,0.0931153608578293,0.29617381850178215,-0.023574248798244067,0.03264897867024231,-0.014811090626836838,-0.07349014420789882,-0.3323476157725241,-0.006294196572057649,0.13971794174604404,-0.02095100016012161,0.07368452861293155,0.13737745202115434,-0.09963156489264521,-0.09415317847615955,-0.16468431695994773,-0.0009718801901912379,0.10552163028641559,0.18094400129605187,-0.195844717777274,0.04923767269013621,-0.17311198207113723,-0.10187492884981428],[0.10983914322368656,-0.12362821450835651,0.09927786723544013,0.206763415616267,0.29978572334519266,0.07162366938408385,0.026589316526695828,-0.0025220324691239584,0.10707363614509409,0.03939753484405103,-0.07297793245203095,0.12574240562677758,-0.09946035913914135,0.0069179979755553235,-0.09874507376823947,0.10135858162774686,-0.003588177566137989,-0.3026239916761761,0.007893655712031846,-0.02939933668562274,0.10063200778417447,0.04338230182264289,-0.06709993032382605,0.23150095445606636,0.003560803349544006,0.10797689252621369,-0.10663947702214713,0.08584048806576816,0.10418760589464746,0.07663051574081609,-0.19692368129551505,0.011650301301095296,0.1479235503191796,0.0965261610483126,-0.05090351386266046,0.04597141159240424,0.2103763416378998,-0.057781403137356316,-0.03993052168134171,-0.001752924800839438,0.07485721486524524,0.21388204424715235,-0.013277564198782394,-0.08666259837541304,-0.05948361459107743,0.018132543014687592,0.15890187840324013,-0.0821660584661835,-0.16058796002315476,-0.09398200124023201,0.0065298923226688515,0.15066097006007717,0.021481879354927975,-0.018433304556399265,0.06232928953982831,-0.04391250337602651,-0.037786249216845785,-0.005274914800669581,0.03344349964444616,0.09440794628702637,0.3469772494398353,0.2834681797373065,-0.13270631701969493,0.05496536983568302,-0.19580216640190018,-0.0581346543999888,-0.1812149359616662,0.18477195648460584,0.04135821670315057,-0.22525806727965303,0.09239251336534052,0.19530505643630539,-0.14740381848349204,0.10011779832658046,0.07094620650300487,-0.18271032314117072,-0.05423781205803201,-0.17980085243206284,-0.0486329506885752,0.06593773112569022,0.13268529586157357],[0.3307504309455571,0.05221693626953429,0.09498185640791766,0.03233181567047005,-0.13727939376539963,0.04847815530470062,-0.04196222697352004,0.04672814913656203,0.0354044115041746,0.351549176830751,-0.09833465509804246,0.01977268246311379,-0.025028819144400742,-0.10925286570996563,-0.1339871952134133,0.0015343736455860051,-0.08622326246357818,0.10241261324848688,-0.14233131323154458,0.25278673046281264,0.048957263409038804,-0.02627650099067167,0.0465123981965903,-0.14086261749721668,-0.14700374269761893,0.10209598400133091,0.014240583628761919,-0.19506617017919278,-0.050091634824802986,-0.09090577479222095,-0.005642622327340456,0.16924598796925533,-0.1710521055845492,0.47436049801399127,-0.1418194561164947,-0.17128821738024455,-0.0796692168738062,-0.3352945818225898,0.028438094290288977,-0.05014174911901082,-0.03178657632185151,-0.3358345628456324,-0.3084617660309896,-0.09688323638954122,-0.02652440737221401,0.024466007856414233,0.010195341962491524,0.03056340471259951,-0.11511003333530646,0.040366796777551825,0.020787775346727634,-0.34020704331800394,-0.12549686677223768,-0.011154386963048591,-0.0387404060879178,-0.04832046958437028,0.24081952748607477,0.09650480444275501,0.04757896220804729,0.12123514425615958,-0.17203174261245274,0.10213266695407215,0.33277351871004035,-0.21311342628981148,-0.09123865497843348,0.2120888105853653,-0.12576390866926168,0.06110951760978008,-0.08806854203238977,-0.0687404630735718,0.1809707915297552,0.01289535406535936,0.02789852852617627,0.038657170603643584,0.00632684678588772,0.009921928579162713,0.043198676707083924,-0.030245560513854575,-0.08264007488649096,-0.03370051659565326,-0.2052898235122546],[-0.001669662863982786,0.41950313762853675,-0.02722773218847567,0.15144770826380308,0.35230068474345416,-0.06820753697536225,0.006640124044798203,-0.01630335021639779,-0.03582587408526812,-0.10241642178360713,0.06027179387679942,0.12754388878703748,0.08873288965820891,-0.041605303075562095,-0.17140945360549742,-0.04799816330379053,-0.016600740600752714,-0.010864867629594734,-0.12124688162263224,0.0045132003955364215,0.12579244567345915,-0.03603800690656778,-0.000701326662364559,-0.07305448945235846,-0.07243459538022488,-0.051352511807062254,-0.0887293945635783,0.10228344682874703,0.10755514546492546,0.010073065408966186,0.038037734021636675,0.01677001323665207,0.15705210880607678,0.07801692630660717,-0.19386591429214864,0.2756962957351799,0.017055893279692026,-0.21656389104166582,-0.06207693907333809,0.07441587351571925,0.10106641249839814,-0.02979085483519609,0.04057983434203872,0.03367633446472622,0.0899807988115165,-0.3066835167819722,-0.02336790327316892,-0.07331453326536842,-0.133248094911616,0.04267707822502959,-0.07712833723545119,0.07395374610607953,-0.15116039944942639,-0.13040139740471987,0.24859738176418633,-0.09372061597149334,0.13858722520309663,-0.09591187327494409,0.05839572206262349,0.036399743745608365,-0.06510663117375803,0.3406505169193869,0.18336520699057873,0.11731082516533987,0.012678369507412274,0.08324554780492324,0.0725826549489782,0.020676407953507864,-0.14593382919482223,-0.2067595448104924,0.3156186450278177,0.1366939239184949,-0.05401023165190462,-0.11722224315961403,0.09413475388673019,-0.08483868779359198,0.15546753795396348,-0.12293009987899481,0.0331029689800176,0.043786097431875885,0.02747746081319396],[-0.2867964989259617,0.3064467620856488,-0.17683672538162512,-0.13358257620109235,0.13738947381007266,-0.3023089866767399,0.020113403978544067,0.04001009064566751,-0.21872561175032784,0.03317232395948272,-0.17325612394261633,0.22807921365297928,-0.17114546971693495,0.10127443367444476,0.1197225360467072,-0.041144002938814386,-0.06623117843782658,0.06866873656930174,0.07300444364193825,0.08688314722181313,0.08490649805940174,-0.18127794940890748,0.151538052303618,-0.16127731170104623,-0.22115964010715197,-0.031960419868130266,0.3780192487270754,0.027027109475371566,-0.06916655631761927,0.08322462938910738,0.115332071529438,-0.15708122110890407,-0.01771098163464506,-0.09998316126674081,0.03110942932585667,-0.0019315218215391733,-0.34661191732236823,-0.1555718609633798,-0.01345109345888074,0.20238414211687425,0.03183376849686242,0.19874007194220497,-0.14817910494512015,0.10597757396146891,0.012706338691857524,-0.06394560150452092,-0.002662959281309764,-0.16661202849761952,-0.17721322876257792,0.009188275971949078,0.02835963854261606,0.004459811017135487,0.256958549067295,-0.08374395363482813,-0.14159842451019047,-0.11313650168138353,-0.07127877700939135,0.10482895208040645,0.08700490984687222,-0.06929828937493143,0.013210681023109053,-0.10798491851830817,0.09819545339859581,0.08147170711490198,0.16953476133033615,0.2794557487636924,-0.008892889925329965,0.037355033475825174,0.08860349218255843,-0.021333765206908658,0.017444064614376645,-0.09691262904033365,-0.18498029096392743,-0.22864811208559402,-0.1273667875650759,0.11991496896801326,0.17440810247331037,0.10326438569192282,-0.16074019863185396,-0.06922868984727502,-0.012977425559776405],[-0.07798944358677895,-0.07064266362485977,-0.034437861958100446,0.02620772476092648,0.13338670344963344,0.19422430373712454,-0.11109450322467077,0.04400960770492162,0.032841603536408456,-0.07610083917152312,0.001253049772303844,0.01203824834710867,-0.24768978539928824,-0.10538679313898058,0.0516623257369794,0.15718254343718221,-0.014123490833031924,0.3081609073005742,0.040625430356422985,-0.050877210185554814,0.10256091521585348,0.16326821572043776,-0.03655123318294053,0.018660489511201275,0.08880025932751391,-0.19578853321757428,0.1568326150552621,-0.032628262090421106,-0.06764609466169753,-0.022982854795476487,-0.036272530738623715,0.040046197044073154,-0.06215473404582607,-0.06253752094072891,0.17456455234432436,0.16109348199680762,-0.16775956701965875,0.043360121135033076,-0.0460120216675827,-0.11200364159301884,-0.23402370180280527,0.3425491126443062,-0.0580537549969336,0.15642128839637987,-0.15048115492940228,-0.009294710262106421,0.0775081148420992,0.09836007743336754,-0.2555631842833509,0.03501050612500964,0.05141972830518712,-0.0610022123490117,0.037785239125042586,0.17608125058619675,-0.05828712235237603,0.17494499575418546,-0.10247690303074222,-0.035055403177138976,-0.07133297534587911,-0.22577613241558064,0.295378596113118,0.04907440006464094,0.08016155471945352,-0.09573363573725627,-0.07174277851893109,-0.08391589940650891,0.19028911947124616,0.006641425371544128,0.16687473282351759,0.2192490710351375,0.05766757136167982,0.006615192169571204,0.07663952300025216,-0.005999654524656702,-0.07900784143468122,-0.19384955390616784,0.315088641757829,0.09662330551380921,0.167172216329494,0.16920253261542498,-0.21909590173232324],[0.051367982178597664,-0.02118787062609213,0.068811003585422,-0.07647572555614442,-0.010195976148920984,0.0294844386955473,0.05067060222923686,0.06094353001316527,-0.02475959254701019,-0.1301998783368908,-0.1700829722276063,-0.03703911930160278,0.08936054063997885,-0.27914475138052525,0.054180723130161874,-0.3766632732194491,-0.022197129805342334,-0.11303610357564041,-0.09319433815070086,-0.016124990041902782,-0.13856778317405247,-0.016417309439890615,0.01653908535071015,0.1541694299093729,0.1943004711617213,0.0650607192606802,0.10985697028727223,-0.20511566050734983,-0.09487301208249786,0.10524220147352932,-0.06792823919017195,0.09171695015900952,0.11412211514954461,-0.10627513316848507,0.03493496491294016,-0.2870154797348247,0.06407073649962024,-0.10541704307963423,-0.06112047978049173,-0.15603454277523635,0.014207090714610893,0.26892304517871185,0.2022386739036157,0.2047147820028001,-0.14664868465823058,-0.004005887964686784,0.20100170065913156,0.23451079011745976,-0.08604614308097558,0.016278208349035022,-0.08740496965309773,0.09735138766411584,-0.036905421309403524,0.33973347428000206,-0.09980289680663323,-0.08968460337911784,-0.07283632575165137,0.08132747332777077,-0.27861491159893764,-0.07911806910373742,-0.020742518992175336,0.051662339128938195,0.12140008964424387,-0.2232680672336946,0.23960444779318069,-0.14532254276749565,0.10112622804505966,-0.059343639351619765,-0.2029012341541291,0.14542041614262374,-0.211420486335468,0.024646108337955514,0.008988451132355128,-0.1972274699936366,0.02444305123044708,0.012391706811275001,0.058387263915241065,-0.18407075117461902,-0.07326862192279739,0.009029572634503059,0.022237523061061106],[0.10704666301552196,0.16300403984626705,0.18399377294335947,0.12843493222348207,-0.01136478363781365,-0.02574480584972215,-0.050454459115301595,-0.07449178454010903,0.19183615478515756,0.09195129319836541,-0.12497115098095722,0.06525827033043491,0.460482332403429,-0.03348181922646967,0.02764040152766187,-0.166451901211465,-0.05323215457307846,-0.0069288439171291075,0.038063423377719306,-0.18024329273101578,0.014569571546226939,0.11122748198319961,-0.10264549717593248,0.07928599470137326,0.04443475191700531,-0.10481362313050505,0.24827801074559144,0.3560925759232753,-0.17291714098142585,-0.164131072204915,-0.0857282214577361,0.024895368481659956,-0.3718556261987639,-0.008585795266013208,0.019664268010385247,-0.2109199572070425,-0.056204958761951675,-0.14205572416850318,0.18747289602940004,0.4019452527016336,0.14825399388884533,0.20885669853866465,0.12902600905168976,-0.006081031848083893,-0.05867268551091906,-0.062138093194984166,0.12293920472780474,-0.19394118341895009,-0.1498042570613442,0.05553285150313114,0.44650044965385943,0.09493777002423678,-0.10050361644989568,-0.08523363415328922,0.20724234816996379,0.07418302633983802,0.012122831944825723,0.029734834574020444,-0.01784187621835266,0.06706439076937061,-0.1710360450129246,0.07729801264232868,0.23239273960874904,-0.17066971952622953,-0.0746329837038089,0.09253563760240846,0.02233717378510288,-0.026071695290002646,-0.09939276413858661,0.04854697139344466,0.2993185285191503,-0.024872022686322385,0.169850739271009,0.16538349905587638,-0.08803716475604662,0.19038914324486186,-0.021807324371818412,0.001175000684108358,0.06507350498123252,-0.09764634511813795,-0.38867466515425797],[-0.5491273932567985,0.22033029699491516,0.19734710991536564,-0.47521101558216017,0.07044682677309645,-0.14091097418812465,-0.10632587851594805,0.000355887924802055,-0.07133508689559283,-0.014741591434353867,0.056765768199060145,-0.08488841884203824,-0.03293334997407687,0.003026261848276789,-0.11466005942971695,-0.20786060571481008,0.01654266025652897,-0.17237982406991398,0.11308317702238645,0.006671137558585113,-0.11321105282056669,0.16250981036434137,-0.055532990466238934,-0.05826763355493221,-0.1337207177833823,-0.00397127549533597,0.01915756543721215,-0.03042883862202217,0.2393214578848854,0.04516674030492511,0.053231500011526114,-0.1265717343789247,-0.03333601067218952,-0.08579099444510019,0.06768134127482343,0.1958115392855973,-0.23984404782791832,-0.13666151473889931,-0.029042646289569964,-0.05536027584240486,0.0150889646345697,0.06125268410665797,-0.08889394758011716,-0.3289213506834492,-0.18371446494064156,-0.03995898939409621,-0.03112394854389719,-0.0628614440287963,0.03937374193025329,0.05704907112203513,-0.025324856144594062,0.07707371444521229,0.037828027875897535,0.34722657046669425,0.1311989643443347,-0.06403984330411949,0.17604144058692692,-0.07421471493337681,0.12657273353924356,0.08981265090103108,-0.012560230081864028,-0.039663518423755775,0.21293486847743412,-0.2287720054894403,-0.031199570735364474,-0.030329651653005333,0.1353981191703051,0.1958276412599871,-0.06786741735203614,0.14850501951702638,-0.010587184427797287,-0.24819438985336073,0.23190631949917886,-0.019394225361077728,-0.21820548293652461,0.0870004995370207,-0.07687317824785113,-0.030344840063975732,0.019747083170766948,-0.04994903994723007,0.06558871086734841],[-0.0038534428085801424,-0.21830108363385595,-0.046161259454024016,0.09561280799545249,-0.10842573725753281,-0.09986333044801618,0.0793606853767481,-0.16503892184973284,0.00261666938828521,-0.10276572440908374,-0.1659468738252269,0.015913010813751773,0.14556543101143274,0.03701946895602677,0.038288702495575914,0.24095323664000423,-0.05273394385443571,-0.13615199892903954,0.10979962447121325,0.10448086179157651,-0.07765949637208437,-0.03153267339866028,0.05537860721011455,-0.21572659809042113,0.12272345123650191,0.033889124151985146,0.029458279689916538,0.04839365949831718,0.07459493653236446,-0.036564225982360817,-0.04565260356302392,0.07490312597757218,-0.03932109784067353,-0.06904638380988366,-0.026651149149939726,-0.30331534119158876,-0.021301876064566946,0.21028278412422158,0.08230301313258039,-0.27208328590475384,0.08910156942352702,0.03334515236825265,0.07408710185938122,-0.3096353949185497,-0.04844452389864576,-0.0960810068053339,-0.07803081230100471,-0.035109444757251196,0.16187406926745251,0.03494508352077517,0.23845287978144536,0.33209910810428295,-0.18993412130260928,0.3299347789866907,-0.13222824886645562,-0.09524608849589401,0.10797607756692947,-0.09109292577575405,0.0680626846630481,-0.0036654773737550012,-0.16937276947749175,0.06493642641788325,0.1336560048737047,0.19064029746722508,0.04366839231602968,-0.02956764922839818,0.09087680420039698,0.07070765963328436,0.035494203580235716,-0.14982654060503303,-0.0897984407665747,-0.040760358869859244,0.09494426804721565,-0.12811312602628172,-0.2428255431695708,0.11045563328012258,0.027752312559720813,0.13819037803838286,-0.09586633382588733,0.10111513806552165,-0.16164668047277841],[-0.1580458725359058,0.03257566679465095,0.20118489634592962,-0.058490130347851284,0.0634204425868472,0.022033321388933762,-0.19935548562014335,0.0045954638753139985,-0.24011296228083795,-0.029335369230916737,-0.008735267796971627,-0.04065663740335617,0.07293805247112213,-0.20531934988133058,0.0018465574763231378,-0.0594342913811549,0.07636354438534179,0.0034133404035984623,0.01453674845753156,0.017160109971443075,-0.13294981922308083,-0.021258549343207405,0.027038191635048947,0.0737428984564576,0.04565204893435176,0.43651179363970494,0.10037025958799847,0.059601599904074654,-0.10070314722001358,-0.07602741426578581,0.24836902743183087,-0.13669650648639445,0.16202472175503546,-0.04356899487986019,0.055738573685522326,-0.027621832585456595,0.07841947609267472,-0.05704946957291675,0.2265030146005742,0.018050398395812836,0.07233305369930561,-0.027987425787711098,-0.08111766058005054,0.20305348435023143,0.20252929515373708,0.05483738253917541,-0.17307070244695674,0.11635338056098149,-0.13665049950457994,0.055606070895154805,0.06507719346801501,-0.06506954299960384,-0.14587559659515867,0.18493264071587034,0.2422142773030471,0.11380077724067329,0.038031285586762234,0.015570346942405137,0.07847460796746793,-0.05975440271973491,-0.06784398990802103,0.2774376868523391,0.029953575417374152,-0.002460485228279141,-0.0397670750672484,-0.09786068754462846,0.03204080908434851,0.1534242362593359,0.1541458228744238,-0.1285824135399299,0.10926070298615655,-0.0846065335819205,-0.04321028498025705,0.07743140260790009,-0.06880570089021576,0.017152871932805482,0.06488373120551633,-0.08462366995923495,-0.053488017257395805,-0.06528382455606428,0.028150078685108965],[0.18302946182510713,-0.020391913662596763,-0.12903036103156487,-0.029804384775741873,-0.04637687090447118,0.02325831835992251,0.2145337507712041,0.2693744294210017,-0.03180154231219458,-0.004622761599286527,-0.040982529037221514,0.11897592187348673,0.17626269966021602,0.08126105318719115,-0.24088270853256796,0.18314971635485802,0.06600229726805543,0.007228177073715597,0.1806888089928168,0.010660305705295326,-0.05029097119454196,0.09768187759605122,0.05506304230193584,0.11408442570177474,0.04241029094742187,-0.1154904384966291,0.052305687904231464,-0.010835210123093452,-0.08993519952151288,-0.12180499961679937,0.06765372450928,-0.12277845725460136,-0.18720881765820044,0.06491424646087375,0.19337274288437334,-0.39922384889594537,-0.08415642913813551,-0.27121992595300815,-0.25251595488914835,-0.21324549233463552,0.1467748641762688,-0.06657234135268292,-0.006232123666708289,0.07604919775169394,0.14841953019491821,-0.07129382231025513,-0.12345214757524835,-0.09604299568417825,0.007526986758539508,-0.09869654825136552,0.0651916588036921,-0.14916233243114316,0.22180455575129118,-0.06830652072248015,0.0490045742637695,-0.004442039343393416,0.25678899963875446,0.04137005442516205,-0.07729296239269451,-0.030375464358215254,0.048959285164662796,0.049296427225661035,-0.04357004014815738,-0.02813647943787294,-0.11671994526259952,-0.09338704836212966,0.04728031127905071,0.10056254122116424,-0.19483738718008947,0.014355071190474246,0.04665743345824353,0.028771793196556712,0.09440800517361363,-0.12860105543855435,-0.08687969134998667,-0.036899663496519367,0.059839319189878476,-0.20319567116119275,-0.020468220330419166,0.049560970276103594,0.15067369887782106],[-0.20552140774558209,0.12522603816407402,0.10196485083164178,-0.05289598211513151,-0.06098499651337229,-0.028611861414693074,-0.014282949321570213,-0.003214110659220048,0.0030773390946430366,0.36034115470674594,0.04507480615294442,0.056420362663769,-0.052658836991180846,0.01591309504710067,0.2121847053449332,-0.004006720028858389,-0.07983086639117301,-0.012885693150039769,-0.1142965636376648,0.07273513822084664,-0.07017555340602592,0.037215682060127715,0.0043441173597979195,-0.09386054408370495,-0.03330190966799501,-0.21425846521702202,-0.05777262905323805,-0.08731953434719787,-0.009395025450581067,0.036574924795803064,-0.025621398990465193,0.034762843792892933,0.0960607455922988,0.06327464534739087,-0.10048356603216671,-0.24936590592072577,-0.12769023838501115,0.005379002814711327,-0.008043087364736537,-0.13919655650151297,-0.26849459368840106,0.0511322361792837,0.07614156512031799,-0.12508672594034165,-0.057270843233489674,-0.10615010131772051,0.06437007323485094,0.1654634104198358,-0.06971765179274374,0.06531356873450543,0.19354630110194873,0.09115823168099811,0.06760954430275172,0.18219440005103527,0.015116298475965313,0.014478079789297632,0.03824329685441992,-0.10688348660737715,-0.09380173232280847,-0.18492936927359688,-0.054887837004221764,-0.041375935636449916,-0.1855754893448673,-0.13510937054568836,0.05091704465134744,0.038723536775843816,-0.52722653496093,0.053794371741666874,-0.09719637514313467,-0.005862420789841183,-0.0956993514971295,-0.03381510857037094,0.030596720228525234,-0.03316976594946454,-0.005383876627396636,0.09420991449577973,-0.08000051359713584,0.2264320025541624,-0.0534415905690185,-0.010209925079897904,-0.046486759220638135],[-0.04660205749988926,-0.0014333518297459785,0.10971595157707502,0.2678826574880992,0.014533016659823334,-0.1585842014674659,-0.24437141218734626,0.0895126433809481,0.020538484765641133,-0.06672880474874417,-0.09597115739223354,-0.052488321567830426,0.21873724296656175,-0.023446748733747393,-0.01302934614320492,-0.14469172369484767,0.20559593000336757,-0.09100241663922455,-0.08767454735919786,-0.3932919126220288,-0.333358725705894,-0.08566630939109403,-0.023337666778729758,0.060902949196531116,-0.10315317924631363,0.14398980845653156,-0.020332805226018744,0.10454739695382834,-0.09308405124189302,-0.09848949381446678,-0.11015475149319216,0.04155289321837427,-0.30110956439451836,0.06731635216260111,0.2673798766829235,-0.19136750672422057,0.16385219777824922,-0.021708442846525962,0.032789321772766215,0.06286050050624145,0.15250655380482853,-0.01068398616792889,-0.032531380461849294,-0.07773318750950314,-0.025278094460024363,0.09230646061139496,0.06922611621555469,0.12621063527305587,0.09880121746420126,0.3492024718531684,-0.07177030002948206,0.14192396100100194,0.08877570370014817,-0.018416339135616886,0.03481535857500984,0.08829623131420475,-0.09601466388205605,-0.039712103437050214,0.234456189865547,0.06337860482162164,-0.0200931169424071,0.1445787146616143,0.002774386484180426,0.0754875298915622,-0.0439475215981679,0.007467665807430223,0.25685542735365957,0.1397654685255227,0.07290126142602181,-0.05617867650303609,0.33430278206194997,-0.0692887787069149,0.028197401626730786,-0.16491853390004232,-0.09241327771944252,-0.08097460188580893,0.18119662321058233,0.038071801236976614,0.0005971140063436239,0.43181720998161355,-0.1356473704373133],[-0.034798104859441015,0.054413469238155224,-0.1527009947623957,0.14716993124410013,0.03271602221408415,0.11424008885628331,0.18829885057840837,-0.15064759881857917,-0.025454074254189465,-0.03120461597736142,0.082736141573489,-0.23515505073019602,0.04953177815108095,-0.05102639350965247,0.1251193011998476,-0.06294041526636683,-0.3849206253045662,0.012119624386273559,0.025173019874264083,0.021582413605111397,-0.11415322170395892,0.1939007978579414,-0.13987804976912988,0.02879961074025388,0.08537756578460388,-0.19209149574711315,-0.0008327191439164624,-0.047905877439937745,-0.009867561737536033,0.0760805384469962,0.04625605896495164,-0.02601724397089339,-0.01632211900752134,0.07318821496201007,-0.06491898143655765,-0.05749923227788725,-0.20542978619156638,-0.44245508924705906,0.0223668881464639,0.05012646108614381,0.13587625029394085,0.013911416993514157,0.0524533069735476,0.19548862149521562,0.1657783614986546,0.32190035674902184,0.21107279937009948,-0.029610889043407203,0.09809815686121091,0.06765767940273569,-0.20872060231374975,-0.05726588180346024,0.08705171934142061,-0.06869049943247854,-0.04853372103792687,0.07954420510578226,0.13783761426490213,0.09202340858244938,-0.04152283841166587,0.07669486565774815,-0.038873688119590154,-0.09127882825993375,-0.07734215651457069,-0.12590035960688997,-0.03561780358712745,-0.05366278653980628,0.005090108019681202,0.045268535063222703,-0.07109801991724743,-0.00558426356949261,0.004957132144738108,0.13351261441329176,0.1674522787242966,0.03558660634310107,-0.15753241908174137,-0.01972781994637748,-0.22048398255515897,0.22897838296797524,-0.1622685547688572,0.009793899542896634,-0.2591410518177135],[0.04124449617065476,0.03658676022901628,0.06757921305825522,-0.2864633313850519,0.14187994328246284,0.15276472480509995,0.0218645634539166,-0.0686850999885928,-0.04880623209555588,0.3005915087867226,0.1070691400025017,-0.020845589766067388,0.11554524012483029,-0.29384847522955393,0.2907662238020077,-0.12233696804957465,-0.18065301702711933,0.12847442984627472,0.16267343935652645,-0.02768626420549208,0.16383056834957957,-0.07434895980239536,0.0868101268170343,0.044454587661494196,0.1313452147963559,0.05995464025998565,0.0775747254349225,0.004394192676352357,-0.3117060398637893,-0.23491616903254672,-0.08156423011074562,-0.012554256503147957,-0.028782979104945244,0.16733538441951257,0.18203796107513845,0.24362920637798957,-0.07415314064437326,0.08298584777001378,-0.046060755667402406,0.0695221494453736,0.07926067491076433,-0.18924230669746636,-0.18978922306649573,0.06287597640818621,-0.05519510279793798,0.09673246712056802,-0.17468407563499255,-0.038564514177216125,-0.08435097266601775,0.07270011956974318,-0.022555791070887215,-0.046445573798480855,-0.36536468374055875,-0.011741075663059796,0.02209570054560953,0.11843902518302261,0.23296413976380353,-0.07239395993525496,0.0682721970578377,-0.042806902854110276,-0.23593480866644012,-0.17223244560391354,-0.23262797630272436,0.02766681411925535,-0.14725582307233512,0.08352636216493317,0.06858556100546005,-0.05641466278500443,-0.12563750005603228,-0.11939266429868797,0.03498839331413761,0.04567689508091287,-0.1092386278327104,-0.007456461712243538,0.06965896509255493,-0.034888103979364316,0.06973748469144413,0.11975769117701575,0.001742142772837524,0.13447066219128814,-0.15498304329689327],[0.08530755565125377,-0.05901075019841161,0.16421981855362439,0.06381687006305543,0.17716015229991974,0.07765803403048302,0.22166025882307205,-0.031022085806612854,0.038649140643979146,-0.05652340985540804,-0.038499038109569755,0.0718039061250353,0.05579749131459547,-0.059673596409487675,-0.13899589569705512,-0.07278256299843237,-0.10888415981279541,-0.35413619972427135,-0.10424273625709835,0.2691446565139961,0.007595658648772847,0.18824290031035934,-0.07868019238509924,-0.05582624821020492,0.05416324979452183,-0.10140449638618386,-0.038141389799887446,0.007385562354381544,0.2000559669486566,-0.06225471469016257,-0.053764456003726036,0.2535866276598671,-0.10847632008243543,0.33197057049469386,-0.04932693399166422,0.05471923297063047,-0.02487698546334653,-0.15119072931880798,-0.023430514066300666,0.28597818496104205,0.07665027334358167,-0.07474136240950043,0.09600781372743733,0.051636127533915784,-0.3530578493056645,0.3628454280923238,-0.08365987967162297,0.05381670303520697,0.1350494519798785,0.10416518626518921,0.07041105912616696,0.01453822674694117,-0.114162891011949,0.1025900642401974,-0.1058759626076059,0.17121062221539243,0.022453065438365755,0.02950131500129285,-0.006795624232236547,-0.0770808555121834,0.03245055427593514,-0.024561075831283478,-0.19781959812925712,0.450693152290468,-0.03748996171606479,-0.08751484209833489,-0.1415836567571483,0.0008832603520625583,0.050308562701907686,-0.27200325439878925,0.16702241604105225,-0.018894039536099142,0.02613897106444882,-0.0502239535829232,0.018680396806915456,-0.07930486134869856,-0.15782466725534816,0.19377710341319593,-0.09573086926997569,0.04490527601277779,-0.0653119862737454],[-0.05274092733665373,-0.07924346813387192,-0.0416849188093704,0.09892839823393382,-0.3739052524715785,0.006336719600722798,0.03760469401593194,-0.10602431094376374,-0.15108630327970504,-0.08080710578867077,0.1288143874162794,-0.045126666157820815,-0.08832891918503778,-0.2629371901011871,0.06072976521726737,-0.5056063709149533,-0.0906751619693931,-0.16428351439236025,-0.09929449413683977,0.017826346695729762,0.12725267655830627,-0.057503910112530796,-0.0062121460064158305,0.17767231191685662,0.0626353140811856,0.006050753269056002,0.02827064036548819,0.034922214466330904,0.2376218098197708,0.03752599385316152,0.24986879544421753,-0.046182691875451015,-0.02711658614978042,-0.07962938897179146,-0.028493276011258287,0.27391310637656646,0.04787178340547674,-0.10875728509389623,0.058343796777116944,0.16069657943175866,0.22018826768337,-0.3332053497184303,0.155797745879206,-0.0731268335882792,0.0067048487481797,0.08659273950188855,-0.02739674919400238,-0.11951820617117967,-0.08870170841350022,-0.08407148563159679,0.2064699217681044,0.06475010538104783,-0.18327675597618434,-0.10157679445675571,0.004160608937577478,-0.022786686232778925,-0.040873623791339915,0.00641950267048398,0.07969283810308853,0.0816500524811962,0.11452089487270452,-0.18225698167739834,0.17271742615045124,-0.06471611885494537,-0.14742355379395128,0.03273963395352405,-0.5448524130844966,-0.08861424978223849,-0.02590408292765768,0.17481509699948017,-0.24951094538768703,0.10953530692404242,-0.2788040171560968,0.10286326551503013,0.16203513158303334,0.08623946423065765,0.009173179987823932,-0.13357911145458382,0.0018567731472826981,0.04120492056660875,0.16407291349399455],[0.08856341807098683,-0.09545941100855726,0.03127655361203061,0.26933942404270694,-0.049536738531745006,0.043144443090309945,0.18661101733012955,0.18411518004426936,0.19121189456113544,0.11897869983826055,0.03359953265795129,-0.4365962819968822,-0.120000220588311,-0.09912629899947267,0.09939818717931713,0.24125773608749382,0.03338197045914146,-0.13683969947178212,0.19933197504910816,0.07672719185287107,0.11629569922357541,-0.1595728810644885,-0.0184210135397579,0.1775593721258204,-0.027870002858781502,-0.009566918696997186,0.0854402697819939,-0.004527197076979727,0.07708349043560418,0.037502084980746954,-0.17738420272772845,0.2956282006978584,0.057055107906994335,0.019617425723225494,-0.11353404606862338,-0.07474820620295704,0.09741208355099037,-0.22893811915903914,0.027331860887710856,-0.14990030373417879,0.3263180183888025,0.08024857575814608,-0.022632646203992367,-0.0065417785043433065,0.0746233713547345,0.11215738410814385,-0.17602956539195563,0.23168531890620425,-0.026852682848476805,-0.08149967683745493,0.4252923113928409,0.08980209014783744,0.04758600999440445,0.17745617197348004,0.13137296111734664,-0.09803796590827878,0.02251260085349608,0.10844376519519355,0.07368949717879544,-0.09953675861459028,0.021981250928470798,-0.23275452954558545,-0.24344802526941095,0.203138975451997,-0.03350729049747547,-0.0767594933531369,-0.2770866615735838,-0.24580743930474291,0.03185821504530189,0.005543097069526036,0.01494859045705094,-0.24615013814054643,0.04262510460037222,0.014408385546353524,0.09044636226811624,0.03285811789160502,-0.10896872160998966,0.013060298013422946,0.07037634245075103,0.04208089505092939,-0.06875727036746294],[-0.05964823635745839,-0.09975350455330982,-0.08629766567689695,-0.006845455267764306,-0.08660046027853203,0.045735892910108766,-0.10503764782802917,-0.005099714214959978,-0.27417119194913214,0.018167494676435605,0.03441010641635627,-0.07398999710612951,0.012741804710304684,0.03750187332505862,-0.0008541622511895662,-0.05332584374073503,-0.15189040555956573,0.16719952622399328,-0.1645488543643518,-0.0635643141484832,0.04882551552358982,0.057335328870584325,-0.04164755710266425,0.09154490861685367,-0.051306700123734145,-0.07857993423439125,-0.04305795638261004,0.024331758618754272,0.07528954473783928,0.07864142143104984,-0.002840951292679442,0.014574742405902827,-0.0582677582859387,-0.023951388621075285,0.0705301782450768,0.1205668673330847,0.026106157875396014,0.0633936376684991,-0.09104705842181732,0.13313831044872385,0.06697718921009421,0.3520290849493543,-0.035360349195046464,0.13082047795619892,-0.027653252833240195,0.05190415616593438,0.10519004765116147,0.024015513098398018,0.03871742589127374,-0.08768012049891623,0.0494225415986694,0.07353262562888531,0.09906656321111182,-0.03944056297972766,0.008606677641598101,-0.07129675639186714,-0.1341880306548841,0.024459142868111475,-0.25275829859208016,0.30366515329198895,-0.03137696101931192,0.10600870559330065,-0.037267477720606325,-0.18043200336724938,-0.02558162651465016,-0.0699371136542276,-0.07121138001995843,0.02837488759550398,-0.12722227233881211,0.20081586994710232,0.04935434792231851,0.025098509958611962,0.09888755589339757,-0.2803028109594559,0.06827438387879849,-0.14817415420238472,0.2342082770721685,0.20428524060612024,0.05052998314765114,-0.019882710699420263,-0.06956422682805662],[0.031457398070138004,0.07915091928616447,0.09773925219907101,0.050445034432508196,-0.01784491722493415,-0.07649081068416298,-0.17720061856832472,-0.12202127221062463,0.17444065124976715,-0.012310168541594581,-0.013909997089348699,0.007000977116383897,-0.10244239037396942,-0.09468309960448969,0.05292350546270331,0.1289490205647027,0.00595589806661198,-0.10556692755311943,0.0022442340116212386,-0.03770299007486113,0.053334324851545,0.39260229551420683,-0.06560087489531125,0.036569252925604055,0.06497036144462048,-0.19758490935820472,0.1071498605405741,-0.16334141569047114,-0.1411194238821248,-0.13125642630859594,-0.2531340991095263,-0.19348444708484921,0.021632105865494102,-0.22007273097658803,-0.10666341578312429,0.08007741067134157,0.11323006351911917,-0.06016835782489407,-0.007810567896388732,-0.14745011056851035,0.13786949898365913,0.2017325736897242,-0.018926249960157498,0.14314980770118485,-0.22782957942011525,0.24222451003938952,-0.09450297736430967,0.0014448308395774777,-0.23985235451052977,0.04982224019098585,-0.05387542970180985,0.2917217053854536,0.14952706783531847,0.4125129431754246,-0.033659579158168,-0.08020133867657084,0.033408306868143146,0.06147979409633479,-0.0438406527875472,0.1336690783277544,0.3078012960522067,0.0525509824714693,0.09646342615104217,-0.2753351627994056,0.08328961353016914,-0.12530431910492337,-0.05236595382847535,0.09948600244181596,0.14776456701085264,-0.08479463142656483,-0.1582379524385502,0.08749425294299952,0.07707613870715523,0.26644843616830927,0.11138759029203958,-0.2100161057442472,-0.025745453081775577,0.3173998659789486,-0.13919398919842205,0.12862710462873903,-0.1435793438083382],[-0.2526782605289469,-0.0727224653821807,-0.055419263895690844,-0.05143332993382355,0.06901286216500639,-0.039142509116865336,0.25991588921560926,-0.4091781175427073,-0.2901910175498967,-0.021192639361336068,-0.17678745275146138,-0.012818441518159073,-0.13352407974319724,-0.0562442172783808,-0.18783558240540635,-0.1683855731229173,-0.1522013181858014,0.039616392758740425,-0.0177294711166833,0.3051696840181659,0.009131390548891206,-0.07318168900679672,-0.1777078995987859,0.2615841554927584,-0.04827841484546202,-0.024758412554539613,0.044580931985553324,0.060258365511233376,0.021613031277454106,-0.03699408326782525,-0.08035459788088979,0.02310315407619956,0.03119963830391251,-0.2221880479868925,-0.16579128432581,-0.007134519656186007,-0.05921470982160108,0.16115254005516524,0.06467958738490832,-0.03605297110835238,-0.1723247608075776,-0.050653884429330436,-0.08822981395658759,-0.27971521643572084,0.1393952580204628,0.06852148303718983,-0.2635153698148369,-0.20666917286637318,0.0896713809108079,0.1312145342544645,0.04303512416093493,-0.08333751241187422,-0.03545968255555907,0.0031788607448901833,-0.23257555850876052,-0.047587524809178036,-0.11660064143414545,-0.06291458507610675,-0.11511686900985163,0.2661002371505526,-0.04789363072864824,0.22025284732294703,0.16534774034583044,0.07391682743329107,0.24460374263317047,-0.13756928269532923,0.03529616927050606,0.013052362477634673,0.30208636914588366,-0.06990370366969814,-0.09659597228713876,-0.15603228939219754,-0.13294226058563818,-0.3045319889887033,0.07197183302271493,-0.0029962080380398484,0.29334124487148777,-0.037034325649165374,0.17946575394498024,-0.6009723314169824,-0.03786566503251162],[-0.15037336390968167,0.0003515853514403355,-0.08167870462803274,0.07177645054148461,-0.20167652765796515,0.05067716288674306,0.21937114464863403,-0.05032188766555184,-0.18514824946350322,0.16621861431758764,0.1917207213225996,0.10149445949332915,0.015999284218320798,0.18254363904349052,0.04987007867113595,0.017091434658575485,0.04100748344642308,-0.23331161136682116,0.08128739088012266,0.1049527948372686,-0.05673962969872627,0.16975494583963363,-0.21219910522562901,0.031560520894456906,-0.006353226557898938,0.06215849491685677,-0.041372470291738385,0.06026833166072474,0.026947029098948472,-0.06554714191865457,-0.1371006531548946,-0.10494127542151807,-0.03901770971470591,-0.06810515250891608,-0.03236397598256185,-0.145276673792176,-0.055486317375411605,0.08792142146277736,-0.4268443557106083,-0.06436464543193224,-0.010738777999021964,0.0024539591003519415,-0.20656632605664596,0.16160001082019357,0.1064206797014202,0.09534391229910688,0.22507272285718288,-0.02701585165104439,-0.034557992278610186,0.09364731914026043,0.06996158907435848,0.1336480243379452,-0.06387143551081818,-0.02590995751028384,-0.1380311519638379,-0.07959163052154619,-0.13341275269800468,-0.057802810084894886,-0.1643435249938848,0.10850078222790023,-0.053608285239290336,-0.12597823050478518,0.0183933145941678,-0.04000680302420055,-0.06768889824477452,-0.05467351734450996,0.0452312645339636,-0.05406530665373508,0.02243647811980015,0.166199954150673,-0.09080674497195354,0.033149384789455554,-0.027869262221880173,-0.10583458296470893,0.0731533109480911,0.057565167288634554,-0.013447461272178024,-0.07925636518462043,0.34668812373225,-0.10223742642595789,-0.27133399364600164],[-0.08205297052912065,0.4399787446487445,0.06719778797136598,0.19546038823207418,-0.0017910889644881336,0.041844979723510756,0.05745552643682395,-0.19443180328527468,-0.08525350538415188,-0.05103401900477563,0.006179334921236921,-0.08468375535952542,-0.12496632236374175,0.05352378452586672,-0.04325940422699461,-0.10869630097999076,0.0004542072341046232,-0.04780039501291673,-0.02538781782098826,-0.02630570860091378,0.04393390854720245,0.0015634589003792473,-0.03240855636983184,-0.06522639575703622,-0.0033596589205211816,-0.04447519187999194,0.004382389122887092,-0.1842120197944921,0.08790823573552722,-0.029446178475156248,0.08813598704433437,0.03830873095966981,0.0532905342139378,0.19295002107806056,0.05404071440117831,-0.00762622204207359,0.07669777465587763,-0.028071205707141063,0.01801152500474047,-0.20121195560218907,-0.18700932630119577,0.004831103622635822,0.049829616474460034,0.19129015535174862,-0.3231797271569351,-0.06008338120322105,0.058991270558636906,0.017337282502139263,0.033134874364038336,-0.08750076531118257,-0.055847230545501274,-0.015638846223810798,-0.09049562811278633,0.14458602709328838,0.0657441020984528,0.3226234682450896,0.04473156972568124,0.023617711997609675,-0.0447183914751784,-0.012821081008375977,-0.09271040160683783,0.04864254057865046,0.21427343264556298,0.17604341598105216,0.12339469375464979,-0.03492465564302991,0.2822839669498831,-0.3218285718714361,-0.12910952709717108,0.0017260416623108765,-0.03784133735430303,-0.009159327892504506,-0.21436468938478162,-0.005774886514704452,0.030900033976621163,-0.13880025312523228,0.1318753112756031,0.08960435417691572,0.04966251520652254,0.08267410749101617,0.0723154015335035],[-0.06009286081922141,-0.27078109928076616,0.18910678139869294,-0.07597769830926329,0.057400459326842804,0.023415462450267627,0.10013211259306469,-0.08627442239351556,0.09966177681072629,-0.2387573079772457,0.03282507994065377,0.023551591768247122,-0.09833614710451284,0.08493539429659591,-0.06121975371088295,-0.002167527730933074,-0.0695762792135415,-0.09639743927782948,-0.05913097436957313,-0.025916502290163086,-0.04795803703508047,-0.3493158438507114,0.16146253310502706,0.0002949843763695494,0.09705315506499981,-0.11248412990906705,-0.15749174757543008,0.07668783102244052,-0.09560210511651646,-0.038541732436838096,0.020179141481980658,-0.00764146260097906,-0.0312027371050427,-0.0003174008239292129,-0.4774857928427738,-0.001088716874141927,-0.019010324549777104,-0.09027405047580969,-0.3274730461577221,0.07753857672471463,0.1364839882449741,0.14585495778499294,-0.06607354427747618,-0.4486984416006178,-0.0663763625050146,0.009467522133102917,-0.08392232766185748,0.10245013078289163,-0.08529051161544095,-0.0046671820271445156,0.07066996211325277,-0.02188507751596677,-0.13166923049664186,-0.22570656729916,0.05105260416791584,0.08576879324232939,-0.26427348908375486,0.2131171276354912,0.08337793798608219,0.1810298617430861,-0.027242085987805833,0.07210554558327834,0.09695910698008899,0.07447096218033908,0.08635383002088319,-0.05606234352914376,0.1390499190977041,-0.025645548291698524,0.06522502198156392,-0.24600486932382057,-0.08850813754217064,-0.08708932269564708,0.007721025561608179,-0.10599580862134018,0.05943758480004048,0.26539804357631774,0.013755189620312613,0.027902979529576582,-0.061136044391578964,0.23844170550903585,0.09772340112905796],[-0.7351558368985928,-0.0428192252370432,-0.32030708303988886,0.018545132889617594,-0.02278510345660895,0.22560490638480982,-0.034196685144903455,0.030961704866104334,0.03162208315080203,-0.09046725501236726,0.08249737523382712,0.011859155623169077,0.08344345837628302,-0.03743129728624849,0.05452608114474143,-0.07295843394532063,-0.060873698222886644,-0.01813110433868771,-0.022567027250011217,-0.20757879888981404,0.02633544404159367,-0.05921503758120984,0.10403156935279571,0.003196340993390563,-0.07594316186045955,0.009585824966579377,-0.5531576343178187,0.025121829015226152,-0.5111837632289571,-0.040602928301791054,-0.018136564563291623,0.023370472262700073,0.24903013771459429,-0.09378762863570465,0.1600454592556925,0.21081968865414819,-0.08580439137855025,0.16269815765483384,0.08273182818797871,0.012780632831030946,0.13264179026851458,-0.21351947777657104,-0.053022072281049173,-0.2681272416700777,0.01952409187139533,0.18755171142855825,0.19732873803949788,-0.061965565600928064,0.10208342306810736,-0.025786143013988277,-0.10168572561222179,0.028968820888678946,-0.027262374186682814,-0.10210292714016747,0.23493105065029046,0.13488653543016396,0.06137232071803037,-0.036725475235953035,0.0017348202026692,0.012033277416012537,-0.18118735280073245,0.20070233228154963,0.032724457495494734,0.12856547365801738,-0.09586653924981753,0.008311894964497678,-0.1208067716560305,-0.1777851718714889,-0.03982522352147039,0.04487677336631063,0.05427536859228136,0.1626580286412708,0.10333171401111849,0.0493344200355946,0.03671016535518914,-0.0780611220648132,-0.03221949208957176,0.02414333988629749,0.13564234362723687,0.018848096255619375,-0.20886497651519276],[0.069751211523953,-0.013309706426534248,-0.09028353129139279,-0.05243821864171153,0.07990313496326289,-0.06414207122368192,-0.012631738811836019,0.012238879876803358,-0.2017673306031856,-0.08062801430065399,-0.040768573846391175,0.13342407699140899,0.1044001765137733,-0.06785965738491911,0.22078826173413266,-0.04535851371646221,-0.0032693642390945834,-0.0008992431827534588,-0.10744621148975066,-0.053230891933736674,0.04570403015167145,-0.11886778138611798,0.09984608885104893,0.2542558442745695,0.015223390043212427,-0.20356018222662273,-0.10602473638283565,-0.05329067029891182,-0.09374616182624879,0.1876455193553662,-0.0866462041302145,0.03810994557917374,0.030422710554190463,0.23259609335174447,-0.22601358137528385,0.09803073956655455,0.04808508028097826,-0.11708749772253292,-0.11285097876824614,0.18693060798462913,0.15506447750730465,-0.055824030316776796,-0.15439402797515542,-0.013434679981683031,0.0858598949170536,0.21238311378398167,0.0066076775359825745,0.03980434975357968,0.19517489782438532,-0.12307126690474586,0.02172900947868489,-0.2357780534095383,-0.07223646724843798,-0.31300790111622195,0.10850938091883995,-0.19401944960706982,-0.0809807841806462,-0.05646073291550668,0.17285372676857366,0.10926755519941156,0.07639577516448723,-0.36332769961695194,0.04482767579188815,0.09442063428698966,0.06346746503253216,0.0883642457431747,-0.05533609700890088,-0.08945726546292564,-0.1599760398566986,-0.1355166432264401,-0.0487270408366542,0.07403430585522427,0.016489860104101712,-0.13553477708932749,0.05417787513422727,0.2065321843010595,-0.2549598993652389,-0.0004883911192782322,-0.1963897582913367,-0.18591326279278278,0.09793256326053555],[-0.09448379970897186,-0.11948718009667227,-0.07030810422792706,-0.027741495943623906,0.033706662786110266,-0.23036396433738834,-0.01628328210236395,-0.048985723916235756,-0.18420851262573004,-0.06470200956610264,0.08379975177301217,0.05317856480304522,-0.17981423356668239,0.0317493871535698,0.006979282235231075,0.06263416105403903,0.15718126355039277,-0.1776406581887489,-0.19460546909515028,-0.07201829213116714,0.09284020459789329,0.17873711891478708,-0.03635685018118864,0.15556539891555068,-0.06035455263537842,0.12125324312609059,0.11830875545883522,-0.1597625157990705,0.10164122173984412,0.2921439791835474,0.19886780099982818,0.12497044146074789,-0.037636631232646975,-0.10820909704278396,0.08168726389996049,0.1028748707202357,0.012505681329299608,-0.01602931868563686,-0.12896599660489955,-0.0810569090312951,-0.05223120478028345,-0.08950880577385376,0.06645180485170099,0.07437482363824034,-0.1154873572243019,0.044895130992875294,0.038365841159571944,-0.03324228950194641,0.11924788748756598,0.09550461257951773,-0.4801161340534089,-0.10209312592208501,-0.3011704277616872,-0.13879994704588375,-0.1097423362392647,-0.05247438417306165,0.07430934890496445,0.1941928392173654,-0.10452332916204082,-0.22591721048721475,-0.06468492036956867,-0.10319644245564581,0.041062874314364756,0.033152670295788035,0.1445683933265263,-0.009412960278069227,-0.09720324615378019,0.1450705519187764,0.11537128321568026,-0.09851605884055759,-0.1139106141520365,-0.24999175748500174,-0.26253244253515257,-0.012556138986855068,-0.023542746261305657,-0.1345970371477075,0.1393281721599843,0.29101486617498223,-0.10230338377227892,-0.0042289413740050335,0.18089518778138164],[0.003998101012442183,0.09216574596007103,0.008103039602152156,0.0021372099299184107,0.10846723605991009,-0.007794333115950038,0.02627244257223561,0.11286832651156403,-0.029560636471068373,0.08399453892814139,0.0573995841869896,0.11211167414534993,0.015491031031011742,-0.08846940107616935,0.0781779016433261,-0.008509683318219406,0.02828865920473764,0.11888236547388148,-0.023287720186694054,-0.1521012384390156,-0.026054647298357245,0.001056255951450534,-0.04623814554604528,-0.11236735750094591,-0.24866591996409057,0.14192848224716573,-0.10814718533806099,0.18914393443087887,0.029089173758850638,0.26001719242125293,-0.09946934897558894,-0.10244215703337975,0.046926501248013744,0.07385208100128715,-0.13521703442727523,-0.14117976514405686,-0.03891267113841471,0.01026893744016986,0.005567914944862085,-0.01722358147180647,-0.2612136130952358,0.02071702915654944,0.0058169142123231125,0.06654668894803392,0.07151656460207567,-0.02495010236648255,-0.022129723388166815,0.052013264448476176,-0.014245003782449871,-0.24907691566703238,-0.10701637041449001,-0.019000670155551465,0.05490939055307835,-0.11557011870955015,0.02807135331738683,0.028428105245128715,0.04241217704098243,0.05309275410667926,-0.026429518801763002,-0.06043022269447525,-0.04775811279392911,0.05644254464448276,-0.0524086532389522,-0.07405110517954092,0.025892349778750635,-0.034053902903643005,0.3151704339104749,0.35119430374321714,0.04545267790682733,-0.014468468789085089,-0.1944678431642196,0.19680259622839555,-0.08523991650805855,0.0772336201292964,0.020210157408834854,0.18357082571730374,-0.04949278859570248,-0.28299240923888025,0.15062592415226467,-0.04977303231381933,0.05835604428138024],[0.09018380175136037,-0.11495950746176387,-0.12660199813306922,0.03331706766075123,-0.007399345887585515,0.06363248231877632,0.06571408367193504,-0.07008764729493402,0.030705618603566742,-0.3224022422654465,-0.44088303959991826,-0.03118134458098837,0.058613624903010524,0.004781522110780037,0.34694385655279847,-0.024696338071980285,-0.2616009391979185,-0.01910574243782201,-0.0512692597943971,-0.14320603494709683,-0.009498615360988458,-0.08975785272934522,0.2414289562428594,-0.034380697475685465,-0.10264774956554776,-0.16106812101494358,0.09240891625342953,0.101714589483812,-0.3109400945033192,0.055245882612181635,0.03290556502459533,-0.06557078978117838,0.1241032957809005,0.003972117963481094,0.06370694205302722,-0.03537877128747902,-0.014952461769369913,0.11814502943224583,-0.05993461885742329,0.07776020948751466,-0.005743641599879925,0.09930370933563293,0.035418217593885123,0.08826877641944963,0.20920442351508067,-0.09831132718516394,-0.046516818315135176,-0.08028531282623469,0.047280152117380965,-0.06516775555856087,0.07909884614828395,-0.14784078189286334,-0.14150347792148804,0.36329687627243257,-0.26449713928303464,0.07127485988258755,-0.1445664381739928,-0.028544998945815005,0.2632282060745097,0.13722980480567457,0.10569044615274702,0.10001981754327789,0.02075871632144408,-0.02997330021474106,0.08138500725609484,0.2025695980909067,-0.0033568217102300448,0.06943946968441443,-0.07546758465282938,-0.07726727475570976,0.10259670880190469,-0.22476924592843223,0.03308357530153534,-0.2100519232442753,0.1727768247946436,-0.06901198366079,0.20243415507295823,-0.14060461277688588,-0.05358301354789468,0.31343915058651967,-0.3154482508766333],[0.033069693513992526,-0.14366453283933261,-0.18877665133833949,-0.07531745546263591,-0.0009285202313823597,0.07264823512673271,-0.06759471950528702,0.028381432840291536,0.1678488289168574,0.15448210258383854,-0.03656609274917533,-0.031070591988997674,-0.07306237757642783,0.02503886465557009,0.21859646878263683,-0.19006392760349924,0.14046539255259238,0.10719059007360275,-0.06905932218598504,-0.06426608006870493,-0.04326545143431158,-0.09248071508827294,-0.2877429553056543,0.22285923284866738,-0.33546506668350534,0.09017901214509189,0.08929995034429046,-0.3035379153245177,-0.14764402878168778,-0.007289312297391291,-0.031346534590409834,-0.18248714993916418,0.07406234997651917,-0.03815437757212739,0.018367794086590783,-0.11437380615691134,-0.01981264479732956,0.012685559147854865,-0.005187802129642058,-0.016785582088653307,-0.0909586236258127,0.06784684477969186,-0.05465814318668219,0.0989817950578025,-0.15726734547109703,-0.39355560755970503,0.1258636580075324,-0.07214706309862992,0.0615310701046744,0.019689547485468802,-0.19993902801581165,0.08140461736399311,-0.024303903916695725,0.0779328804944659,0.0776044265834403,-0.0016469730839576543,-0.058600371950482434,-0.0530668476483283,-0.034755441982185296,-0.04986261293609313,-0.1330656449927588,0.06294460138917897,0.18357728576493973,-0.015148403434149445,-0.10184366614083917,0.04793902102912329,0.2820246703572901,-0.004922700009164472,0.07023674134365579,0.13615440586710376,0.16338458210937054,-0.009895371097277351,-0.41719640104232986,0.18337575095727368,0.1171429728268565,-0.11417288958733339,-0.08380025597022539,-0.15779344570553264,0.07483480850405361,0.04832480631660194,0.23887044844600538],[-0.08320814883015223,-0.030311633067156868,0.006727499913132878,0.12813155912665775,0.2141995847854193,-0.11558801455156284,-0.06675155622683325,0.06991963497214423,0.06438738289454111,0.042341311152062924,0.16193607896099854,0.06965553232648959,-0.22317737588734526,0.047160511167824354,0.023967759557334704,-0.22913089191958796,-0.04175299802464389,-0.15343936402941843,-0.04658437984103907,0.0997811317491321,-0.11024099689650058,-0.04152555882455417,-0.057891361098244734,0.03471112652242626,-0.08268849727274422,-0.03225277496150393,-0.2151315006416756,0.18155112821118505,-0.21987875552059477,0.04301321928480545,0.17103680240286495,-0.09352180061480823,0.0515852324741708,0.01773000783296865,-0.01765218656830811,0.25744000185285765,0.3835845007918072,-0.09221108252932228,0.117369894538188,0.15223983518066955,0.13207363790333507,-0.09711567134710225,-0.09037918080037917,0.020000925152386453,0.08218085189768862,0.11716379342005549,-0.176262061488648,0.018338204213699694,-0.016159073067503086,-0.288332521454032,0.13220919611679466,0.13421390645716041,-0.17177185200756878,-0.050004549533542345,-0.10421848516897403,0.2044290371817555,0.1050446500530214,0.12581700092746415,-0.015941295955885764,-0.08206240538565623,-0.10171683258031433,-0.05835501813836379,0.12680941772400936,-0.03275032696008353,-0.00002866618606239896,-0.0655114442022491,-0.1198233026080685,0.03758174807648698,0.08682568401940874,0.03540741495998052,0.04398242613835014,-0.10272410689731308,-0.019896465850774824,0.18704905339174066,0.002579464641510823,0.029174336151526956,0.16649363642704618,-0.16835866858434556,0.05349869376607499,-0.02725219243687845,-0.16763584225074943],[0.0654238923068643,0.06718346400496636,0.0413604021514884,0.18929705509289216,-0.3996527346896526,0.3874385994630463,0.07378078016103161,-0.041437501379285015,-0.08789818897937861,-0.019810578307164387,0.12440242591370522,-0.0801883148043749,-0.19362283770502794,0.11937579225989486,-0.05738791388799423,0.05020246531487682,0.11330604665461251,-0.04495657017405216,-0.0745811239519458,-0.395078204482296,-0.11109842207407612,-0.006072211088428656,-0.06474483094129137,-0.25165290682733826,0.21968590827110848,-0.026123291466940486,-0.04776933811154051,-0.03476267121901367,0.11926280531350363,-0.1341374697878623,-0.18700271120831724,0.061045286170603515,0.21590540703159442,0.08921805573943431,0.06834150044208331,-0.09575516017841898,-0.08261648233048308,0.07115347504000767,0.09284520050557192,-0.0705310715716022,0.5299386311314069,-0.0825609470746372,0.1930537674638832,0.09129351179728802,-0.007438388955252268,0.0952998340340274,-0.005037143515222809,-0.0893685725757613,-0.10063482027041455,0.027121900349386063,0.16276915154824148,0.26401022769112625,0.02698547332857464,0.07790976909775157,-0.024325571160904613,0.055095983678335445,-0.042792409398975405,0.006184842841081026,-0.315803567179253,-0.032902778789196195,0.25088977155084896,-0.03355282282337294,-0.13865617813693526,-0.09900186575754,-0.34920655246412224,0.09804200324616866,0.016749095295939806,0.1302392554975121,-0.14627186895285815,0.03910109557896652,-0.004267259019756617,0.42496719426569757,0.05943744450078039,0.006095948239958979,0.04696299069241168,0.05933287655677055,0.08989057463830205,0.011869619485452553,-0.0772396592038806,-0.23484417848989833,0.05814135471263534],[-0.08096198396598929,0.006078275422892404,-0.5270392351040203,0.23547137600132104,0.05071288293300494,-0.05188723820884555,-0.016133817643422706,0.053612971595037445,0.13524946062929788,0.001185997195165585,0.01353909752478657,0.3594758056075956,0.24821597174508503,0.20059487774216253,0.037129749738315065,-0.20726533747808829,-0.03376293649980869,-0.046969891321561645,0.16397053885335447,-0.3186038672795269,-0.15693696322323433,0.10442129204683319,0.08756087280352486,-0.06420168947702279,-0.06421957656819534,-0.0383812377405355,0.06930988230418138,0.015995456058649687,0.014147041744447907,0.1937702644285481,0.03490828404118553,0.20106091109090535,-0.013880173325071066,-0.13313833504594763,-0.08004020467238582,-0.040017692457832606,-0.181826666022876,-0.09331497561670703,-0.27918266351137405,-0.2032738699646193,0.06683326574604775,-0.004272319626220756,-0.05257650628471021,-0.010195791270782259,0.08099471591511656,0.008527935108618781,-0.019127137837135034,-0.14060144359732457,0.05398320224438252,-0.08689868663676757,-0.41330918407255635,0.36344507641478735,0.157326878939395,-0.023845504397085972,0.049138422852128646,-0.04678741732200597,0.16625998216995996,0.06914329225669084,0.05681502201323079,-0.06301972876555467,-0.24475785851757156,0.1660241753767277,0.04031941554892925,-0.07033393952170068,-0.0821523686640774,-0.12814615463597526,0.0800305282009608,-0.11803228444984477,0.1163335270804381,-0.1289203140621078,-0.07444442969892207,0.006582240942792672,0.05754630796844138,-0.031114877306335546,-0.2162446680897591,-0.06683309180470187,0.17067028757451538,0.020333846172492263,-0.23880690511333572,0.07508313615835835,-0.025687703325017207],[0.05393070195959623,0.007515579223795481,0.07331875211234068,-0.005644960474828504,0.3037942183404168,-0.2873146628032802,-0.11233266044868076,0.1404020592366339,0.0873189925396646,0.23815694902095838,0.11298071780442946,0.03514808938545338,0.04624150089031065,0.08963976322397231,0.04108990941541847,0.134233462637978,0.0630173998255429,-0.024939250636545958,-0.06477228225720605,0.07579007807238668,0.1551014537119352,0.09737707153898754,-0.04587557229770858,-0.1900222305858338,-0.1780615715912013,-0.052973513076858846,-0.09463013510634813,0.06758120828499813,0.10786271193486265,-0.024792905445368038,0.0499283599776408,0.09572863208475195,-0.02694324225367835,-0.3441266098665665,-0.004585389665401418,0.021589555074179843,0.2081603033631518,-0.010176480168775533,0.19389825885219095,0.02073341413633931,-0.06297239145561048,-0.1540664728124975,-0.003343273085096596,-0.005744465278665287,0.37390912949876043,0.09829042622637461,0.016743590301394037,-0.11391754998029063,-0.03955273407751384,-0.08444295499385425,0.042202552012013166,-0.10672855299861456,-0.1382638467942556,0.04336036045551534,0.06145549677603853,0.15245989373425498,0.009829225166567907,-0.01456683503321745,-0.17314482307100007,-0.05751793038532043,-0.07984417440304123,0.002520655507987766,0.013797501806378051,0.22418584807880415,-0.10324439195229966,0.24475256199251016,-0.11150477806286348,0.10555164043598352,-0.16464186662030864,-0.02613967172571462,0.08993498492793729,0.02275185266985756,-0.04043159663992725,-0.027472552031706104,0.008914351950856226,-0.000006620768835956867,-0.09789755211808009,-0.030244463024046254,-0.05548407681325103,-0.016242749827380405,-0.010418093311814149],[0.10404851310464502,-0.030377267712221757,0.053182136698672416,0.06810194415544824,0.015200254474077532,0.13975292030676503,0.1428967243219575,0.3339267454186042,-0.2642566218295479,0.13289459990386474,-0.1935614690909933,-0.04352013272925749,-0.09025369350870613,-0.018021899164355218,-0.24694015168693864,0.04584848287803451,0.17720079020132362,-0.07665897247741599,0.01955758968829084,0.001136047169620364,0.08995129974588519,-0.02189061084606246,-0.09990966192586377,0.005148548131267565,0.36462692600067353,0.0470765601254328,0.1160865451570698,0.06508085605848436,-0.10047354116116143,0.13243580453686,0.4106197916503878,0.1507999828810887,0.2527548014239615,0.009427770301046879,0.23062366332561662,0.09142374946038503,0.06942308949933348,-0.08300802190485368,-0.05156332390635079,-0.010640402744740957,-0.09314399898414019,0.030621914723581264,0.11530274674018481,-0.0059351154828647555,0.062459764074970926,0.15376756796605526,-0.057595876183137155,0.25309957639639047,0.034741677182039715,-0.019009755195336785,-0.09038069641487967,-0.12966848415725232,0.012317787774353071,-0.4531655033888511,0.07859295665071685,-0.1956753046665628,0.1695419333407926,-0.041840878860403496,0.0464883530567455,0.13457301861784438,0.12484481581443287,-0.050965495461026314,0.0003567471079634582,-0.1134818101837509,0.10159931668375245,0.05817419295760725,-0.11623675209089945,0.059847482194821666,-0.23592188846040713,-0.11671119390635427,-0.07384497920690175,-0.16393916663074914,-0.08732158734060734,-0.0506356536222418,0.10244516175121221,-0.11505201970361217,-0.053886663712974334,-0.14297427398249915,-0.06960292647902229,0.00418016865738177,-0.3870708860125584],[-0.04535984787768637,0.06061611387455739,0.005643830008499264,-0.010547440765326335,-0.06901322541815622,-0.22580312339802708,0.09005101318384033,-0.1845237605894105,-0.06723062826431142,0.02541086491859083,-0.00014825453497232846,-0.1457606896885642,0.22073358976122787,0.4073401921979283,0.3560760148775959,0.09572016389657585,-0.004447014666635068,0.003186149424498386,0.13957999840011784,0.16421738209335804,-0.05798971046400841,0.09720172399890503,0.03267044309561923,0.022014292877263565,0.029375677678372843,-0.029225083688244616,0.18365673013908076,-0.03892891051616866,-0.026632818399191637,-0.030818719866375216,0.01212225942329157,0.0824315683433662,0.057757374890992995,0.062217494019951275,-0.3033788709333838,0.047411687492774024,-0.0470029990912008,0.16909064536935126,0.025257705364565338,-0.024362655710765176,0.20760650198940667,0.027136079449495407,-0.044295240646818924,-0.0028615010337861503,-0.16595528804811016,-0.14570746233488988,-0.05427832271846904,-0.03990551358820174,-0.1908955507571212,-0.16990543435458438,0.0756412933459599,-0.03039645289586101,-0.022292500385744332,0.0020704261910898148,-0.15466615144374202,-0.010705535175539597,0.05480023554602097,0.02671433937973546,0.06714479554248842,-0.12042761655230244,0.021569330718359658,-0.08517100973240771,0.2130733840302096,0.06998301929747028,-0.19180066634217374,0.08206805576711244,0.07148445652357396,0.10369608527631849,0.043916345364254705,0.024756148250067746,-0.09674731884320184,0.5303660330774134,0.05868166327551527,-0.23268436306399184,-0.15109531035381263,0.0038899460440436247,0.1880277857402581,0.009223078349538682,0.300672151520962,-0.07196389110058726,-0.060437238777518366],[0.13879204306718154,0.07945898875693637,-0.018965032349401265,-0.00890906659152094,0.04099440892432169,-0.031158015424201917,-0.06653443984401657,0.03909609151336418,0.00689437658791424,0.06187856821180235,0.06335809495098217,0.0731453224125369,0.04877121871842733,-0.10283434904441038,0.048501390522669184,-0.0008226657419071193,0.15374546548956466,-0.029717107580183286,0.19744338317307547,0.30717044745365013,-0.10275822352917509,-0.11866917887448887,0.44763501857323024,-0.12899966388893952,-0.12076642245355998,-0.1375787672316227,0.014412653361625354,0.2502592109289959,-0.17999020689895154,-0.13181471515312507,-0.056767652875722496,0.2444209261898906,-0.20051971284957057,0.29615314456334335,0.06452865446209242,-0.08152018657900034,0.0635084502322414,0.09702232929284262,0.0003009085923483574,0.1244247558543126,0.25501481852901486,-0.15124224356045424,-0.02990542657958334,-0.031239891441571743,-0.08317670997205012,-0.09290876426817536,-0.2293636558701882,-0.08467362568865848,-0.037172579966296734,-0.25105252275626533,-0.08616699866169096,-0.011752585334532384,-0.056157231767889684,0.017599246359307097,0.013720287657134738,0.1376356616649713,0.027813102338200814,-0.06264109262892065,0.12114524951704626,0.00783695841967057,-0.07596612496853541,-0.06467577994285319,-0.059298593234731155,-0.07877305663260563,-0.14272441866950547,0.11030920476961753,0.032696080708013595,0.14520219318253288,-0.07199216741270047,-0.1465277769820589,-0.08943650071917646,0.07020387592537485,0.17421517308982215,0.009754881307913939,0.2165631694620335,-0.08620216736385394,-0.05362520239550386,0.15584252244269403,-0.1242414837138011,-0.014435940614443848,-0.10730107380755535],[-0.12799262557868193,-0.23335486290920257,-0.13962991193384686,0.24337799768217194,-0.0407764688292017,0.40307343870656376,0.1822281451421036,-0.07541381758127497,-0.1831174507215852,-0.06982311651169543,0.029451619511122358,-0.06803245419331974,0.37752826402080103,-0.020273724616625736,0.18791801085274537,-0.1530823920013274,-0.04872532447988707,-0.0031549923767501564,-0.08807163992415672,0.0414150767606536,0.10436260180212101,-0.046772395594610716,-0.011621271533688696,-0.011655181395047851,0.40432972242467274,-0.08570543198811598,-0.06677657685719567,0.1952213322635243,0.013982884072123303,0.10084517712252684,0.1756095030369732,0.056963631889973984,-0.010142699161279262,-0.19206287168523714,0.023202390438319214,0.1168579608914372,0.04699032887279094,0.25676789455152405,0.2871414901459042,0.10311840488629666,-0.004109369545294281,-0.00933613647841003,0.4310047400566979,-0.05024499086611671,-0.017857830374411313,-0.14444763587512646,-0.03891087864682057,0.036706117078740746,-0.004098850405337159,-0.13052088694957337,-0.08306475313775535,-0.08012900226850805,-0.005325742861838411,-0.053822203557707844,-0.14369592083791333,0.2727306341513688,0.004607987094535877,0.15334760569180125,-0.0067017440607433625,0.08669223679870203,-0.14737543928246222,0.08440646081240094,0.07376684122528546,-0.08821592018545955,-0.04780664754515747,0.023453372356388662,-0.05902366647785024,0.1436666799563377,-0.2237227342864671,-0.052084612313106834,-0.07842939137641457,0.29836987360477496,0.02218772632414597,0.44844006696216054,-0.0365123848791251,0.0375884661840961,0.19098621466737112,-0.17757017759174162,-0.32977788599629065,-0.06290333334221411,0.043534331238760916],[0.012674347351484611,-0.005714318823276558,-0.25769270900028524,-0.20742514332555706,0.0766858129592456,0.22552151833366477,0.08191591497400515,0.10859105937826882,0.1537942407547839,0.22896825324076117,-0.016566480187338313,0.17068680754347257,0.23930061756524657,-0.053150756686437206,-0.09770540728189941,0.06072497993945116,0.19210892902646254,0.08734532568726007,-0.24724713818493058,-0.11488406260203479,0.04193973915072592,-0.20729254521729193,0.1370414558039946,0.13301959915737538,0.1363703687610086,0.03509779383103588,-0.0509766859187513,-0.11975295899674586,0.08845705729800366,-0.02074478876225546,-0.5389438931730807,0.07259553111242875,-0.023178917114953363,-0.056526116616516436,0.02456010996940889,0.049088520078577495,0.13213501590948193,-0.12810834906717233,0.059222745554847106,-0.07388264756698948,-0.011925687210023584,-0.27677454809523805,-0.07106180682723624,0.022414280796309465,0.038860320762100914,-0.22706791945460447,0.36287143305131647,0.0300832434162277,-0.0718396085604604,0.21073044121325832,-0.13871767152475195,-0.08524699224806466,-0.09114206774654975,-0.11781332958859714,0.028409588940136992,0.00520914894695745,0.1526431187648573,0.0572040741680899,0.05779244596603898,0.056120578966701355,0.03967725163228157,-0.05750694105769131,0.10265663902853653,-0.2751079003024442,-0.11757061898095027,0.0773043309051761,-0.21148181626151116,-0.055147708003374776,-0.3164762630910951,-0.030621907826052848,-0.13767291984792124,0.17085427585761045,0.03254202741995009,-0.038178478988524306,0.20186381527192993,0.11984931969090983,-0.07318438806922331,-0.06721298161233744,-0.15519481939730895,-0.19845839915419614,0.10210373314214014],[-0.11618840447169354,-0.03858928529002751,-0.057276058656792105,0.12694043408612793,-0.1010411997753804,-0.06400407473943205,0.21483762711798218,0.09018495362701108,-0.040223578802530705,-0.23378777246514457,0.06944549124944406,0.08571417157991934,-0.04155182817341794,-0.23806240173580337,0.06052986543733772,-0.0314261211520587,0.08617932299474798,0.10183725073494106,-0.05089851668890093,-0.03208170476357399,0.189960567708538,0.027333473936931516,-0.14015403764924125,0.07502432695679699,0.41275337411525975,0.2320723812634434,0.08236737234887592,0.10321317397818196,0.2712854263277042,0.16280440370984456,0.13183559354038443,0.010933542626745844,-0.008334484978002496,-0.27567258441815357,-0.16559889131605537,-0.08502134089869604,0.03790251254111798,0.0021199959679895734,-0.07268694371125507,0.0760787393310728,-0.11183529085006633,-0.0541992890065494,0.1983239764944026,0.15978428233521497,0.0361707967477648,-0.02541374517833384,0.022061571934587028,-0.18257839823250882,-0.012593784484122515,-0.050733510259879384,0.16709789535559288,-0.1417081460454615,-0.00036885740409230833,-0.04906446537276429,0.04549099271745404,-0.20425234840171866,0.1415685342862876,0.01193623188961399,-0.020696898014889845,0.15336857016889288,-0.045801125432550015,-0.08491687446182421,0.25188902229318727,-0.1422109431640946,0.02776052130848877,-0.08807036007940638,0.055185940795712,-0.05515642090022191,-0.20984411244296203,-0.4136904109590843,-0.010142126232791471,-0.04384406754706323,0.0938077283251893,-0.0898199011709244,0.002056480269830584,0.08983788868127092,0.18702030547226173,-0.07979770422585634,-0.1321255136603258,0.2223920685037924,-0.05157800969763508],[-0.27325720815058047,0.02397002867647891,-0.18060850919344168,0.14038362516427236,0.022647108214009958,-0.07855869252491877,0.059201543808286836,0.25083645787671,-0.12309681114442944,-0.06758594507391488,-0.12652579051051,-0.31166805518147545,-0.17589508661658007,0.26814280357070136,0.16060575701751756,0.3041674923507433,0.3484390387353989,-0.16745812611032768,-0.038233862101006204,0.06995441033670001,-0.20545566017540073,-0.029780440717492543,0.294619823446204,-0.07427234472684571,-0.01091162978572742,-0.2099702304478861,0.010936591124093405,0.023981403289803818,-0.0872758596803156,-0.08461847688041495,0.097501128439542,0.0869281925962631,-0.05281466338421535,-0.008873960409234057,0.052637088188735234,-0.0762688563739013,0.06568767122858554,0.18683165651224132,0.021275786601418194,-0.053435456390409745,0.1054230431763412,-0.07792308217247078,-0.06551338894467215,-0.10385169982886035,-0.08957276434474644,-0.04210880749150506,-0.10689258470018614,0.06737710276432357,0.20848713356315066,