{"biasesHidden":[0,0,0,0,0,0,0,0,0,0,0,0,0,0,0,0,0,0,0,0,0,0,0,0,0,0,0,0,0,0,0,0,0,0,0,0,0,0,0,0,0,0,0,0,0,0,0,0,0,0,0,0,0,0,0,0,0,0,0,0,0,0,0,0],"biasesOutput":[0,0,0,0,0,0,0,0,0],"hiddenSize":64,"inputSize":81,"outputSize":9,"weightsHiddenOutput":[[-0.05419534730349014,0.21883033729200704,0.031608765934248745,0.11386578990105727,-0.1511523042838251,0.05903478511371056,0.28749130459623456,-0.014540933829205273,-0.10766704913517164,-0.15525206804575786,0.0450347522932393,-0.32672563164551116,-0.17263514435967442,0.06834424068570571,-0.15002427353238781,0.037838366971519204,-0.006385141309878269,0.030555694253005847,-0.15413807073136956,0.2241823600792824,0.11978556617061753,0.07398368322950999,-0.09734005116949529,0.043938231540036635,-0.19813937279566735,0.04358377355195378,-0.13885755243397319,0.11236596737868847,-0.06777329283199657,0.06019524042145401,-0.016090663354909687,-0.03203324650439192,0.06051240723189297,0.005584442030764953,0.2825564587008979,-0.16921139863803267,-0.04984775997303794,0.0017418730558218208,0.10201012326333438,0.1455256468892705,0.03701747800045548,-0.48895542715436685,-0.1211981765931795,-0.24306393524134629,0.07022325431570862,0.18036873901834707,-0.12027497351455314,0.34041721760288185,0.2820453115292441,-0.08556988126471185,0.09909223400022793,-0.45801983827744,-0.05567117327403142,-0.014357505949072959,0.1456744555852957,0.3174366410513083,-0.03541655816281917,-0.29582481637574015,-0.33463562117152035,0.11197313445718529,0.08348451672632902,0.14152933886942248,-0.032044990663972386,0.10940352345373443],[0.0873820787793033,-0.01602366378121765,-0.13874610412526978,-0.1671540637349191,0.2665788385726806,-0.18643127406411986,-0.2629035132805579,0.1151497316532799,0.24011432292793497,0.13376762478676685,-0.044872399677563804,-0.041752679857233244,-0.06970935140767703,0.0010671465971771928,-0.20695437783855603,-0.11211071472695673,-0.1689014122376795,0.36342031853091633,-0.024768587080334827,-0.14561787944948493,0.004865750758580818,-0.10782489265348012,0.013865561287720825,-0.059804462298296626,-0.08947994695297425,-0.03164407134497594,0.09658137317953472,-0.18692461026915003,0.1509072001262546,-0.17644767548460705,-0.021643590107264587,0.07543847430399762,0.018848804544780978,0.1251401051358862,0.15435753000899083,0.27646034049104823,-0.2238843153783549,0.03931468963068031,-0.43664572759734954,-0.006192209020640546,-0.03646989449276138,-0.2628024993932735,-0.043552163945115054,-0.04523481560887788,-0.18088538708375174,0.15691998584972391,0.12593255085494506,-0.23645720251240543,-0.12195575970123776,0.09874280092689172,-0.15420483714202154,-0.16264096728811625,-0.04004159098795949,0.028304670890773636,-0.03638493387495226,0.045383184528272176,0.058064486392404566,0.15539153230083752,-0.16273211950995076,-0.04794711542158712,0.39393233641149733,0.08084534469524061,0.07754189201817648,0.015027746613948352],[-0.20394135891033982,-0.022426691011002274,0.03939513089965828,0.08903631524619005,0.010107315742676554,0.15471255463205083,0.1726768248856827,-0.1753705931255558,0.5223735439474472,-0.25542186868886735,-0.04177386556955482,-0.1278232200459876,-0.1525246186617292,0.3134927771601226,-0.16484658889693574,0.101198776044811,0.08016664319183837,-0.10666355696388344,-0.08217281094568625,-0.052548971572253814,-0.17375190997633094,0.25038446774645745,-0.1340550976481745,0.48450721465004876,-0.019720044996190754,0.1625510071267514,0.16489240093817456,0.2080189129609529,-0.0289257208283279,0.04033350049997761,0.041596965261142115,-0.35109411827796805,0.07363071730598032,-0.014071969668446968,0.0850955394848396,-0.0717728341185714,0.09051771322679451,-0.06015864206957364,0.003634325287106395,-0.032581876140799576,-0.21057976589419516,-0.1755213678052453,-0.08139525369381995,-0.22080431293592778,0.16014335578908453,0.0017001114606841582,-0.10936196647890672,-0.04886304897712278,0.08298119771030647,0.011345935888727654,0.17770696532276548,-0.06347040362271875,0.20752950965812086,-0.05784575492264932,0.11963478714216653,0.2179428645098474,-0.2608289520179426,-0.012131477343727142,-0.0962599348519602,0.07564879148578556,0.11732249530023744,-0.022226300562742687,0.009567588958787733,-0.04002007970862255],[-0.09406396615430002,-0.04649907580667761,-0.19966857047284908,-0.2590073272022541,0.1446992565556852,-0.1590336294653763,0.17246684103021098,-0.14413519534850525,0.06331078465706357,-0.11709217842392672,-0.06829782208505386,-0.061558709820671104,0.27132686857554544,-0.20790655956336904,-0.12284103588994313,-0.1431489243343733,-0.09456086989579525,-0.2844019356482563,0.01727442897277062,0.15913937762533434,-0.10116642119122914,0.006186684206446677,-0.06359061609893445,-0.0684462361970563,-0.13773317552154787,0.10543973644919791,0.10263621278584753,-0.005286244008255094,-0.2058798125045961,0.23441110280928942,0.16505275862076987,0.0497218202835666,0.029146334442921994,0.34243394508652925,0.15117472598958512,-0.06064112474885522,0.1586461112144598,0.19537933034847982,0.011132641111419863,0.15936818886962123,0.051197539478933934,-0.21580022796300707,-0.33514277963674816,-0.07121888213139793,-0.12713029812301999,0.2552337309459794,0.025656288583488805,0.13901686647438483,0.19926440992062225,-0.024747871856687892,0.3580818784832822,0.0019686039696822574,-0.015731499626664622,-0.2948427351358817,0.14510828713820953,0.08020242462192995,0.014440723837911264,0.05567132895054219,-0.07886747923139123,0.03808621424279167,-0.2182958887878631,0.06003202965471247,-0.3757344839486468,0.010097784689618618],[-0.015007426343655686,0.14617780657392612,0.03600020356697823,-0.04639971563678073,-0.2452816480252668,-0.01011119600240007,-0.33922287496642534,-0.007914987185302752,0.03743310176945122,-0.07431683816309728,0.30944001710357877,0.07134458238992132,-0.10475766147926441,0.04342967103100654,0.2999844937274252,-0.3659296856228685,-0.10214627350565356,0.03963784329811275,0.33213547491842216,-0.07407680606334885,-0.04217669552406919,0.25520367780691533,0.11946843309271413,0.020598205756323137,0.12830889751301688,-0.19063797542115254,-0.042490771886976864,-0.005798328172879084,-0.017552388784714545,0.011832829077787701,-0.03427577452016211,-0.015966269044827,-0.09736613838870714,-0.11818401068235612,-0.10323740862794945,-0.026003733742964035,-0.0959726828038155,0.02975933354886294,0.1198526940573899,0.0862153330659308,-0.19483003158339712,-0.3126630934263334,0.24888151760436164,-0.023681289682865734,0.09845623285068801,0.1954731143869944,-0.04874542237167074,-0.11531782207201889,0.2502357456159998,-0.10610075789433247,0.062020552591880704,0.11420525840731287,-0.21323392215956322,-0.32848730409517685,0.08138868391285442,-0.003524595680893772,-0.07992399361319216,0.1051218890454211,-0.04542658850529882,0.006288388151859678,-0.14760253383407732,-0.021874815208133634,-0.10706249250445923,-0.04435725750879333],[-0.015731329989478522,0.12313056391167634,-0.07033365984027193,0.09071309184529448,0.14685397086177193,-0.06417289533569977,0.25947539260483266,-0.0195548969446719,-0.100530128887462,0.2902512635783488,0.13560447950824606,0.2039106126500208,-0.0564604464886895,0.1031826167398608,0.20677428212717172,0.3581586207838743,-0.15271865338410673,0.02285766361602142,0.13182646265611092,-0.12848440398077593,0.01792022505923578,0.054437975662061176,-0.055093822158415594,0.13921966417952714,0.04820520272778095,0.000519484462550311,-0.19508756109644493,0.16757420664823444,-0.09157577513317491,0.0738620899504288,-0.03466740739763085,-0.06734909110052673,-0.22482202596306433,-0.24003304473242718,-0.004429568289556851,-0.03707837719682471,-0.015421259273246017,0.17466590299385404,0.0655130769282346,-0.1869000049830412,0.10157806895633686,0.11662111901376851,0.14892589458936137,-0.1435201688650011,0.32541241687341177,0.09785293291812563,-0.06615890145487449,-0.3717999729594182,0.18500432662571847,0.11202123353666431,-0.02205515851908294,0.1481650270702709,-0.15117495013014298,0.04248986823919979,-0.27555758565170757,0.004310970916329571,-0.029754888945540375,-0.1716716604816228,-0.05441298078008898,-0.1271464193476859,0.12314608750314089,-0.17023977862272957,0.08701540161792565,-0.15436984459868755],[-0.04928640353182506,0.09836057704613799,0.09613255574241719,0.1867334907839045,0.09860152107828143,-0.3838482986457076,-0.048890274449844305,-0.11832915665677543,-0.07501288104278446,0.01109864983231296,-0.14120552196050365,-0.10105695273814957,-0.004265384452352637,0.056555159706438936,-0.11851648610932075,0.12088421645549235,0.10889273788134259,-0.023562361421215688,0.058397873944648154,-0.05902028893908942,0.0019910946639369684,0.23204229343544375,0.29339856055303704,0.014434146765378972,0.3464218645663028,-0.027943205371627835,0.05908944237225265,0.049589679979401516,-0.013272346382516297,0.08718794715544935,-0.08863952929765814,0.04462825158411707,-0.1328470198108617,-0.0842626253011246,0.029873842263888922,0.11770225936304886,-0.1437209318094116,-0.118249093305436,-0.07463106912119885,-0.07167667090872636,-0.14190427298158342,0.08242549096637103,-0.24820369449726565,-0.06545814481257928,0.17786550523875055,-0.06598513277712326,0.04583383408667437,0.09922728274014016,-0.23411010627180032,-0.09433669215280413,0.07619525467007773,0.1296065298316114,-0.0714758559305272,0.04863975453482222,0.0027405373175664015,0.018052648604120727,0.058569084286807606,-0.1421103229768058,0.02572148297004008,-0.0868432214169503,0.03104172112772934,0.26767364524050685,-0.12941046072115986,-0.3336019538765817],[0.21585377348499699,0.46860092170225337,-0.10701681636835145,-0.04336970593051855,0.13434414234160857,0.2909916711053517,0.1148829324891655,0.04771822792119353,-0.056154394447720024,0.08371537945310424,-0.05353252254034639,-0.1342982221506573,-0.17797973954791935,0.25555466882974043,0.15838990127123095,-0.2527350285259048,0.07018500972105321,-0.06638481980889822,0.07608451284866011,-0.005476565354580802,0.008729535509776825,-0.20609026794777915,0.21044384686144882,0.1618999850867733,0.03471094496542148,0.003031459157065559,-0.10311310135592602,-0.06409664523944089,0.012870799069817163,0.09674745723221195,0.08046440335423644,-0.08822748239331295,-0.07140556582409788,0.06246347168122275,-0.1506931059985884,0.009871495101668798,0.2163561584549084,0.10989130959581467,0.08102911324560932,-0.17937775383338347,0.0004190605854183362,0.26368892820583867,-0.03523351866687699,0.1993856680268263,0.1280721300324715,0.01404683303180659,0.3047004408192874,0.004096092640026274,-0.1559929522199164,-0.05761752846675707,-0.011944072196219322,-0.0965727821889903,0.11909463493204336,-0.09890533403194608,0.2372233814859064,-0.050410895637477596,0.030122563138402152,0.2571777107526274,0.16019462893751327,-0.20492696847449865,0.16519709694415435,-0.23656958940400133,-0.33582805118075815,-0.11247128654053129],[-0.07476585675394368,0.25199127740251215,-0.08723828138008997,0.1457347416822622,-0.22070846714680092,-0.28140211380596375,-0.016053614420644007,-0.17848022918095427,-0.07053251329709133,-0.11511506923083917,0.10106384227767112,-0.20784306565217625,0.08985200507455768,0.23692808854653022,-0.0255846501831679,-0.19070919543499007,0.10998844486356708,0.019157232587795763,-0.18009688182393235,0.17059887443403607,-0.01479623279218854,0.16053509888178163,-0.3002931667306563,-0.036312341507475185,0.02830643887360823,0.2992195589433836,-0.052346206408329085,-0.056731475975769136,0.049014811415174483,-0.03397708512306594,0.0026119608644159763,0.08947761893348641,-0.1242734319646694,-0.008404472623564361,-0.002593710430986025,-0.15568835740592085,-0.12961290468638884,0.16761013927743593,-0.10791173137264533,-0.15156659836473307,0.11305420846448216,-0.00002328602344975921,-0.15036159334935334,0.4309843853882787,0.22776267046904242,-0.05966750496670672,0.16571600416178492,-0.014744128078154908,-0.0634917645124973,0.3015517006462606,-0.00012963067727316349,-0.033975519462472105,0.09176318245990193,-0.175736650305821,-0.1382079851851144,0.47736271845879474,0.1756387606264144,0.19482366352749628,0.2289915755220477,0.11322172306197678,0.056371236655864784,0.22988608202496916,0.06721986663907394,-0.09983068094284803]],"weightsInputHidden":[[0.19980816448974895,0.012629309340688325,-0.04321862856160685,0.11089048549705159,0.03558557236192591,-0.15727686686684797,-0.0018703411328612055,-0.10439341597078802,-0.5182649274208527,0.06684450377386163,-0.00007007402568264344,0.03834089320243995,0.02286824233242921,0.036997904201967295,-0.11647054815416666,0.15222271219594313,0.0993628946806197,-0.19386967270045555,0.3551692327111809,0.08342276318461499,-0.05550655404029771,-0.033579304999404085,-0.12051107065869557,-0.08958700501400682,0.05932241669662,0.10851755163997756,0.0892173201840482,0.14566763906192437,0.3012299920647077,-0.11157081324918994,-0.0459514529574432,0.21331654082602727,-0.1280145211791099,0.0761649768253885,0.2622849544233501,0.03587280034426443,0.033098963303800785,-0.044827266559240124,0.015131667387927311,0.10525301144134029,-0.06097619293228109,-0.21036503390030956,0.11282942837806018,0.054972001111554626,0.03132233151260902,0.21300983742763163,0.09141371512035017,-0.039633824811314944,0.12051902841169551,0.04296649655843572,0.07755692358104965,-0.14458715922486193,-0.022653591894522505,-0.07131818169735159,-0.1761595044094733,0.06917245642108745,-0.02651806737674784,-0.07732155818802769,0.07298809309685174,0.048240491144656096,-0.02942097363450703,0.19014198726989567,0.08014044922408879,0.0927597730199751,-0.16050234257147328,-0.27374253309192376,0.05776280888104611,0.15925140945137503,-0.07750060811270258,0.20428939993338138,-0.11778084679586691,0.07433166039016025,0.05182944799198454,-0.10327242868964209,-0.124556795152999,-0.10272118341566186,0.21331550082327422,0.07360862886889598,0.10232161137872059,-0.09200245132995796,0.20674441763390106],[0.18476020724415573,0.07896453491437225,-0.1459357891265967,-0.03892897109937967,0.06029143742425907,0.20267421819336148,0.24030130406048744,-0.17458373864019805,0.15255803975073415,0.03634445804356327,0.11448334413274273,-0.08281725745296771,0.07084265424417413,0.02661788277455084,0.008222683580512494,-0.030153961623183963,0.022528125468845143,0.14257688954621509,0.00037018508929656204,0.2169107912975078,-0.048147646876884505,-0.11554451594497854,0.022776392065077047,-0.07434758986302686,0.0700788190182726,0.06936902269050838,-0.1320177487789288,-0.2568900893120112,-0.06026240589332304,0.20421009018509861,-0.08285938614362914,0.12763749023120466,0.30955647924975593,0.1115755550687972,-0.27593978835118643,0.02230540284777676,-0.05141958002559324,0.07691957580514874,-0.19490399298801628,0.2930801214007899,0.18483043151880515,0.044215431487735164,-0.012020095042396844,-0.00839968985862122,0.06083586745470428,0.12116594732325321,-0.03674548706219389,0.048313753188255947,-0.11862869688761853,-0.018615537133830618,-0.10058838149951735,-0.272239194684527,0.14914139509170415,0.14144192419789237,0.09228298963389722,-0.10882352710728224,0.023954196678468313,0.16353772189810034,0.4891984112894679,0.053140902088586045,-0.19691366692792486,0.056307782544318695,-0.07400990970374832,0.23228873714945053,0.08978588502532954,0.27174370054766483,0.052973827106056415,-0.11083906217193375,-0.10980091697077843,-0.0447956658375826,0.054548674217777295,-0.10324218825838347,-0.00996061300290694,0.24308057947900613,-0.1751658862694653,0.09487548219266817,0.3523901737293773,-0.010137492232926516,-0.09279627871500874,0.03913203328380607,-0.042101875294717796],[-0.1460630965607043,-0.07016082868609161,0.03281430884666833,0.26814769778266057,0.09682376840271818,0.26944775867759074,-0.3719409810676371,0.04613675796426526,-0.007093870242954544,0.01102684365301435,-0.16535553623284224,-0.21233726440984166,-0.3999084536376516,0.2145826406683687,0.04594548509643015,-0.035521742470437365,-0.04961675509791248,0.02890394732671943,0.030763429798262736,0.13289045525370857,-0.05669404371674928,0.10652861063812537,-0.11511981096045505,0.2927712753678164,0.06485835479292672,-0.14744079848410557,0.05094560573947668,0.10079239378438952,-0.24231294074538062,-0.058628253645373024,0.19803331439466682,0.1068711111743337,0.09760363120787893,0.009290333979052084,-0.04280152283262307,-0.013969653251920011,-0.18098750121777987,0.055858669403581016,0.26145344274060844,0.04035180799429578,0.1400900158223072,-0.13822701450318797,0.277231590341376,0.18151482334725555,0.06527082223763421,-0.18604758445830427,-0.15323964189414216,0.061766117107903265,0.0955367563394539,0.13447645435281216,0.03397128641036378,0.05532451932180159,-0.31918368283327964,-0.03297467336419119,0.023023678847616955,-0.05501335072979367,-0.06498274081310647,0.10576743266973314,-0.004812452138481524,-0.051296853467562735,0.26959136613358314,0.04796228159212115,0.09350423782323192,0.00782017017592574,-0.06007400569689923,0.2086102270541233,0.20953637845784298,-0.2486217746766983,0.04562170810539133,0.08171381243622765,0.07592353050616413,-0.44506256218671336,0.22107865714091404,-0.09226124551222074,0.04771274120236106,-0.2075892946533994,-0.23030676430447755,-0.03748427405014036,-0.016986129089096257,0.12942676162064468,0.2756484074231959],[-0.06930169367487003,-0.09001020471470288,0.20051590177492237,0.03846606990861431,0.5479382629118791,0.09777684013346838,0.1823948863166428,0.1568329189702487,-0.05746764520661267,-0.062493357315632846,0.11403591975396514,0.1461576171146383,0.020609481818028796,-0.24235327574767987,0.21098457328331888,0.021512339102852895,0.05745319613369374,-0.05060343043125166,-0.07744286804803749,-0.04949102516827782,-0.02825778785523042,0.023258526022175686,0.10920242799525215,-0.20981940779771222,-0.00890802593966727,-0.0503546935820097,-0.03999860639090028,-0.06954276511154338,0.0315166630680949,0.04868758099737307,0.05313925615459951,-0.08678292823209104,-0.08686255384648615,0.0071804972534916,-0.10437828021678675,-0.182108396639418,0.1936456327302652,-0.11269464201412761,-0.1629114107513754,-0.0398731663974134,-0.09611046229442133,0.022538222728495007,-0.07456120770191198,-0.08972833883641222,0.06760347286845597,0.2962922485005854,-0.1739661693312464,0.09221628896417243,0.32089567744041253,0.11633939706079031,0.09620227297558608,0.17885574952305527,0.08068648990956763,0.05761605130509369,0.08723281327754652,-0.00024094614218519913,0.027429123813085234,-0.11035428704010933,-0.4736324775010112,0.05680869910036892,-0.15690384858049838,-0.020778104990607414,0.46320828616612814,-0.049327453896911504,-0.055538684530730124,-0.09941086680208308,0.029244096911909576,-0.5652011663219462,0.04837012082051975,0.11488067473928402,-0.0653395409698945,-0.05446588336414622,-0.0961672275862817,0.05113175865320479,-0.2821253923092641,0.06721043551776139,0.10299974026000855,0.1424834394178023,0.16675522734883083,0.0000812069892610286,0.26840286736781904],[0.10197269460496625,0.008572618324818733,0.07131029055099858,-0.23504870306234021,0.05300284183399811,0.058175345337204164,-0.21319657164264877,-0.11046416948019638,0.025933515439646115,-0.009802900987651433,-0.20569255678149612,-0.1230536025310878,-0.09435383898885909,0.0076364567421595714,-0.060275741133115464,0.09073381626563377,0.11587869386583352,-0.22550017745472392,0.08089378757652692,-0.04775812008970969,-0.009464938519984697,0.14974875066010576,0.007392941314733175,-0.08718910435905064,-0.2856159930577314,-0.003088365129243355,-0.07162269242580808,0.09729199252618678,-0.04457039538129633,-0.1112602535833573,0.021973162988078814,-0.1394010674795342,0.14055593409297928,-0.1315341328233573,-0.07635324442322472,0.13768067270035672,0.20727793194125674,0.27911525304067775,0.11705167311280364,-0.02687071467687379,0.11024944975875942,0.04060017829521566,0.18357253862387832,0.07671940493460593,-0.10509453991217203,0.13182074227575408,-0.2578413560880387,0.08172869462158097,0.25224875509508243,-0.4295659504034308,-0.15937798229521397,-0.05387813087638185,0.4132639263903168,-0.09945465817310438,-0.17002151326247383,-0.12800190730093872,-0.0632244400922882,-0.1990300755739697,0.0983325481897411,-0.07173186690222884,-0.17953864833097838,0.10384580353124252,-0.03526803116689559,0.21256178064812797,-0.0036845240925281616,0.038928393907513306,0.012061460968678602,0.09112531008998133,0.2843835814908062,0.07562028224610431,-0.059277201239199453,0.4246434561116875,0.061440261489752394,0.20515811409531376,-0.06766666627548693,0.3765229162400698,0.10211792678295932,-0.16990254275076486,0.24949714483697769,-0.09040325506734508,0.17980207233605733],[-0.12377798115352207,0.09106614543295209,-0.1374685775021022,0.271411380209407,0.25478499131682764,0.11282143522221988,-0.26674564353379776,-0.005507116011989653,0.1654173358364209,0.07343570568099995,-0.07561980159708036,-0.043023659765898274,-0.026151704767376646,0.0184622213690753,0.06213762706265333,-0.04049598715388455,-0.09287986367009467,0.0930240107804879,-0.028355348440325272,-0.08301058503541588,-0.12423543059265896,0.05781899393278198,-0.06553370838262433,-0.08148524512406181,0.1083616691569917,-0.13811496436654885,0.45906025435190784,-0.04315388030826035,0.04315788038262207,0.18998436644537672,0.08600223759214665,-0.27773965564796654,0.2552645344312848,0.07169867475597143,-0.1815933262371525,-0.02652793191157662,-0.24313239265037298,-0.08281895057577286,-0.08546439063526327,-0.26710252934434,0.17465857882609268,0.6275010876589802,-0.29036680344696414,0.007366991267616603,0.1462245483965708,-0.016008938904286684,0.09415760106508231,-0.47553343801731274,-0.018245628746116082,0.09973461585129992,-0.08143157959798666,0.06265146765199532,-0.24530336872884886,0.05647051315589676,-0.03985166936497621,0.07823993298573487,-0.1125670017665547,-0.026769347549030056,-0.039826586213170256,0.07208629050677545,-0.08034235396890739,-0.10355334155173994,0.05525249000537093,-0.0005193208201812619,-0.03331753823158103,0.26451695229256195,-0.06573382654503043,-0.1876728499361651,0.28286302787327056,0.0015403328817266782,-0.03070505913095436,-0.10650888841868028,-0.0117743041263572,-0.09836079242488699,-0.10315820689653686,0.04839079306220446,-0.0038983037018621046,-0.09839175655141452,-0.2098736033381873,0.06290155744718641,-0.14989231584284654],[-0.1034770800263808,0.035295928434148874,0.0970250587057886,-0.24859268544111474,-0.1181886407299786,-0.09051539788490859,0.0603505275441165,-0.03688499376070654,0.10796898059773961,0.018753922444673797,-0.08391799660730843,0.20333982958684388,0.05861897003386787,-0.05538461614640212,-0.045059146958576095,-0.22751490388675927,0.04760105974358589,0.16308930656315482,0.07591000333302161,-0.056661596605320504,-0.15171185730464684,0.2962310473469996,0.3153743832121301,0.12236991178697808,-0.35636792144912877,0.12223344033168863,-0.10931843443562796,0.06839557069586795,0.08485614448337829,-0.07702138271166119,0.06716539180094938,-0.07718395112869428,0.07758138143749703,0.11074107801344597,-0.04984429956024742,0.07627214734219494,0.06374280133382394,0.1311882724125718,-0.21644775360388566,-0.18320807966163824,0.10913280648238204,0.016746336867985597,0.050922753963128495,0.06174157828396499,0.11580655339895479,0.06406682430218494,0.04423917519352841,0.1643448889280943,-0.06364804658785175,0.06907347165671858,-0.029561318447183495,0.16048387983551607,-0.10284019438022572,-0.04414160340053151,-0.010714073067495458,-0.13857163061647992,-0.1400555833642361,-0.14262767197178364,0.1838375240951495,0.3163165933785973,-0.07917103577581999,0.029516307200231236,-0.3919464458773338,0.050318223588880086,-0.48201644450997877,0.07612958526572956,-0.0737285618480318,-0.10252366477631901,0.11536440968881181,-0.1953531964412859,-0.07241444836042918,0.12485903997957833,-0.015461434932494765,0.009514135041263349,0.015353910378871799,0.06542735579682427,0.3441658135336478,-0.16719412084372626,-0.291442686438975,-0.275215958412611,-0.026475457420190293],[-0.04080055952640344,-0.0548613371044702,-0.009895778585817883,-0.010172749747806156,-0.3526255800440765,0.11853431778350061,0.0871342095808678,-0.05248908919938086,0.10673447717122106,-0.04554110977662157,-0.23987558299396497,-0.04753244856488405,0.10759303141693385,0.03729475832245195,-0.03094998419921455,-0.15315322081904836,0.13986771696138836,0.2613398628244341,-0.2921795431292793,-0.023345592769345027,0.03727534474311852,0.09421555980260225,-0.05828123206215895,-0.1285017475261181,-0.10791245352784448,-0.032152738370364996,0.05046692627964653,0.04374520142051,0.0764006477720113,-0.0833324172602497,-0.006000745634901367,-0.022620650057898407,-0.06613896765284988,0.11344345797074705,-0.17155039587892104,0.25553994423162535,0.04389197491658843,0.09735986410286357,-0.019119217842121776,-0.03773043159510414,0.1462927199241788,-0.02811377360895251,0.056747486982191,-0.08760016893728934,-0.26393780794374133,0.08122794523502556,0.27645852318049907,-0.12403190575743611,-0.11616897824086898,-0.03653074549641885,-0.11327155915071602,-0.007297409869039753,-0.059457785323751,0.03704007325227899,-0.18041275978387025,0.11583847114997636,-0.09954268222002695,0.011465529557124121,0.010585774936549774,-0.0773365237129909,-0.22450611874619758,-0.043189700797642096,0.06445378625057818,0.10514264523903807,0.08172714575789278,-0.17134861319235675,0.14505809085800117,0.08520914246561456,0.09683441202907918,0.07050083372411511,0.07755570178155595,0.3460984751197949,-0.06964424679646673,0.04530669861037992,0.029834137450920346,0.024646060396697107,0.028216644594647688,-0.22742893983970683,-0.03762648218273225,0.216204517128043,-0.10714140317901168],[0.10564673408325626,-0.18862402200688952,0.09770894702047057,0.010165324143632361,-0.07856760825991506,-0.007998293926894195,0.07431392110405904,-0.0853470792194153,0.09082975104165997,-0.011705824830204386,0.040177869615615244,0.015256775652992428,-0.11350293498158782,0.1809658665153632,-0.08820723591347872,-0.09100659029491277,-0.0973128134668252,-0.03289274664608487,-0.04971632208805824,-0.28726164799065074,0.11211269521406887,-0.13724322250347096,0.08604908608230684,-0.06980142169806916,-0.05445408686531003,-0.19867094508764652,0.14298106760460275,-0.4510216507441064,0.015209339948761034,0.08750140388131147,0.10439960840866655,0.056621866193052046,0.021320276809141933,0.10136880534134866,-0.05227651898097211,-0.044099240951489205,0.03660908749887415,-0.0306918744630593,-0.056517005359650686,-0.013334201158542665,-0.37136361763002673,-0.28353513188783713,0.11339182142653163,-0.015809028013475432,0.058877578915626734,0.18803749714997928,-0.19113715201991716,-0.03534692106940772,0.0362472350561482,-0.12627007613181554,-0.25459151115727524,-0.1746360112171322,-0.09011507164591526,-0.048729542230505005,-0.02999371747018606,0.10561765343735188,0.26307818783958237,0.1730627368675377,-0.0616355806502619,-0.1015330611807465,0.023525142027770042,0.185261844571402,0.217480156082223,-0.19018626042770953,0.08178197103196494,0.12586695680442536,-0.22265342112966274,0.1672791008941976,-0.1632042861092934,0.01943997271127078,-0.20779729614221504,-0.08829684457318271,0.11436647976285207,0.042233440046595606,-0.10126037008486723,0.129549668812858,-0.14464906923074367,-0.0680232701782031,0.0375460062266856,0.16636434543606268,-0.010281785828333494],[-0.04642954698006477,0.16787185065416343,0.21779970299301052,0.07034703445474608,-0.23727051847244252,0.18410564901615786,0.007094953948764301,0.09831104903842472,0.15371376929411174,-0.007729495968816368,-0.0236440955675339,0.06938775773930195,0.09690430577803899,0.033148104181675145,0.04028651242506101,-0.05677531184874717,0.0113519407394012,0.08539606401707625,0.1288252704205928,-0.19119769707301504,-0.27024762230075494,-0.15401659658259437,0.0014056503055219131,0.28792260429206973,0.18232951562338243,0.21026041811226678,-0.06077135231862754,0.0021747718817417046,0.1705284927754659,0.23741613763799865,-0.10237293915859937,-0.008479043777328419,0.08922290260117001,-0.20298082349640334,0.003533141607972193,0.03382116663300974,-0.2632982104251525,-0.09060191018101925,0.17577742688394934,-0.09113833131469584,-0.06746153876965187,-0.06708328354915136,-0.0656920990809742,-0.19861218373142345,-0.10163444324320343,0.0462397627430165,0.023221231742238405,-0.014387612181869016,-0.07929796833858514,-0.030087840417260134,0.07254677813641176,0.03941322034736803,-0.09960241652665772,-0.027632886999903492,0.27599599106022943,0.0942462130291929,-0.19681161262035274,-0.024527753014292435,0.08359095513459694,-0.09352571312228226,0.17977874710412034,0.0534927053253153,-0.24009812422134644,0.21381672609596902,0.10150857196341871,-0.11282157055401205,-0.1642729158122736,0.20416928150052494,0.18022699209805942,0.26959634391959647,-0.09454005655316648,-0.08071177565489282,0.26144218221561566,-0.11312128745234429,0.2869711599544416,-0.17984382444888297,-0.08237033089011433,-0.06444212289188783,0.07630035520486965,0.28060681578833824,0.00504093575756273],[0.19582663844615428,-0.015476181541209447,-0.0028408545251369663,0.11690971543876137,-0.08326302991598776,0.049448850294206356,-0.03440248287073756,-0.009222852850209233,-0.05766935629408435,-0.05768603750817078,-0.45951286063086316,0.1397049707662992,0.2950249579917766,-0.15432539996163147,-0.2487106454142442,-0.05980557481254705,0.06811153987633085,-0.07954426449216385,-0.06386964119418956,-0.041678319458224485,0.18388327903444793,-0.10390459305147354,0.06966717746315608,-0.10888103631767512,-0.44107488846928544,-0.07037194366720571,0.0035544767367674287,0.11842231211491742,-0.14174047785359722,0.04308483830940648,-0.08772266493180661,-0.14317219186861468,0.0563212641335538,0.08305985101244837,0.04791688189772241,-0.3424643583313636,-0.04985517896457388,0.03921084498803999,-0.14432208611341776,-0.0916466486733642,0.026946172451523195,0.10180208228652571,-0.05421185714675289,0.03411079482883209,-0.14251935302218546,-0.10094269767506013,-0.04833043002413543,-0.024794925707207524,0.11439744963010778,0.2120092178862611,0.01971379645028804,0.026037497449876868,-0.04874069792866139,0.11690215119662088,0.21427350326861438,0.02605943365726898,0.0022482160116434587,0.33946651028992963,-0.15302360102279236,-0.029367964405236976,-0.05805299896376241,0.020934806082539996,-0.16720131155035728,-0.23782926231112964,-0.03200920013425258,-0.0904757660755436,0.0035080437017447254,0.21252343642687113,-0.08883818503529702,-0.04358955617637579,-0.16740784712313236,-0.20517167516475998,0.10911504437349169,-0.11994867316977388,-0.3345694920044636,-0.009998824160018845,-0.04236405391249892,-0.24699859126910664,-0.10700234690663624,0.15164823734369542,0.0046918221357700705],[0.01051485676609441,0.4200481179567824,-0.05989933377045798,0.008630249498641484,0.15137103051302087,-0.09292123611574504,0.07480719004497023,0.2914285347642185,0.16157132422121762,-0.010251694668933295,-0.18156768820878127,-0.07096011302610952,0.1223311207665449,-0.01835193077066212,-0.3785791728345288,0.07435814203128503,-0.09058505511928767,0.12636972522375783,0.005601270510011167,0.03167742053794043,-0.41272936313193515,-0.14809954999084754,-0.03735462540103215,0.0072363578253573126,0.02747565239983817,0.10861710733615486,-0.0254401542099599,-0.10455025793661303,-0.12334118008740749,-0.01168171192782787,-0.07343445257562461,-0.017099962379991708,-0.37622253050933024,-0.009061056685682144,0.0048923415107465255,0.22816961174877026,0.10991456011048542,0.17171760268968123,-0.4848802175448386,-0.0073763722213784555,0.165301530304812,-0.19530089077824997,-0.02554074412305563,0.004484344647130253,-0.3397602451052988,-0.19736888589210552,0.20904092818874018,0.03834056378599069,0.44748843416161993,-0.16334037650223848,0.16782023057667814,0.1358002959695837,-0.22977889675541843,0.1129250394991872,-0.035021156317336856,0.021425160505926903,0.06287245040113883,0.04160117834304806,0.20388727424020892,-0.14387817016807936,0.006642178223256641,-0.03331244200304583,-0.2532883243086324,0.27344798116756575,-0.08467998456769928,-0.0767812024953317,0.19496146432833453,-0.09754573964360536,-0.014903683132925222,-0.11576505672962831,-0.2569623731337905,-0.06319577258798836,-0.04497965795367861,0.03205950064751657,0.08405607742586327,-0.08072428214802134,-0.13592329830566913,-0.012572219858103612,-0.2330809835002953,-0.031075780124229076,0.09000847549497278],[-0.16905969584099118,0.01056542027539879,0.22113586174844377,0.12116938047367092,0.34329986586366895,0.2343566996720513,-0.10943431586459784,-0.031779104647645544,0.062300398130864826,0.0988846150260992,-0.003312463150197959,-0.009185527026059034,0.17872617010602465,-0.11625949801731751,0.21302118185104277,0.05246539825949424,0.25309184223673087,0.25339804243204683,0.04761734989694399,-0.05024530643540312,-0.5736209432649731,-0.027852538834121143,-0.15326164039044468,0.11514247451316172,0.10882290745374691,-0.097275764112938,-0.10679142778677483,0.31882131249516193,-0.07483595993629975,-0.1113556655832107,0.009835368796872688,-0.1287205713092707,-0.05320130656971952,0.11671007562177302,-0.052610605338762204,0.11206079075737678,0.019188025420347116,-0.1723662107327332,0.11464312247824474,-0.4720133288136557,0.043341115528740363,0.05636468504182996,0.041219335896948484,0.02110997899386697,-0.043298432715252945,0.26377086967249735,-0.080754031879824,-0.24404186633021016,-0.12925594854838376,-0.2632208576180029,-0.06253491709944312,0.11308432976781398,0.11707593816205081,-0.07962185125793811,0.07766105542534144,-0.050889554688836325,-0.1090512688070697,-0.07855784476298984,-0.28604494204805814,-0.057894829005484295,-0.11297244412102603,-0.03308568276220284,-0.05361062539203178,0.04802314843639539,0.009046305751850194,-0.018975880203621648,-0.2733015779002011,0.0018337483362723414,-0.1962203988955982,0.0184915466807701,-0.24506292823795092,-0.00387863775522841,-0.01096874708097967,-0.12891476726327972,0.2474137375547986,-0.013028988601614486,0.4828742023014983,-0.07033442677267135,0.15519712410577227,-0.22916547602426177,-0.19876329776229598],[0.0007016254633080622,0.11168192979296906,0.15355770209647357,-0.2617023230289676,0.11350408106778251,-0.11582763479189766,0.19899065221693416,-0.06666243001425544,-0.16951280720154585,0.09627509950834683,-0.047932793304569336,0.11739625057115695,0.14840651663474716,-0.03269062311936061,0.002706706477359601,0.22014531307152765,-0.010084124607993173,-0.3420632628504666,-0.11277897661074494,0.3235159627924147,-0.036173432201131304,-0.08612236161965674,-0.011380607243991694,0.28611948817559196,-0.015581227092100159,-0.25981928800464427,0.1809705863111102,-0.24012378943727422,-0.12807948250209683,-0.025659849589100482,-0.018542934497879564,0.0024319460524278953,-0.13162391435659507,-0.15528447152646976,0.1467959592419996,0.28972033549832443,0.013700449004639256,0.0012254445964880148,0.10258287250126341,-0.06142395307589861,0.10426997398545017,-0.009168787870077221,0.06191120089783379,0.08888888831039227,0.019622868457651873,0.07197012975642567,-0.17776033161639412,-0.16739971251797436,-0.1307546648652398,-0.06880927306060892,0.04934623980773809,0.17904312093089808,-0.019797876736806583,-0.3170592664139876,0.13759206228833823,0.1434242251750153,-0.000318866093647257,-0.09414347580359315,0.09869603109436088,-0.011675103236942949,0.06305740917094362,-0.009625873174596844,-0.37189893733479107,0.07102516210200466,0.06454399283910464,-0.2632943379818407,-0.006871681350900312,-0.065275468104842,-0.16538349984005257,0.010963177549281262,-0.0799841664872974,-0.0558307079456545,0.03478420212389721,0.04114075405599465,0.019487867626896454,0.1625268420260674,-0.10143110564663914,0.033355295748215955,-0.17923504030261284,-0.1496204377790579,-0.04581719857494302],[0.060549426860306364,0.04502065228241643,-0.027831581078166325,-0.14434981456876136,-0.06024732602816424,-0.1860986539408507,-0.16841850519814366,-0.25713997304000497,-0.04398108565810068,-0.07662213971600297,0.003058445221728701,0.07510550776106757,0.37176559625023703,0.12202556705276449,0.09512638261021801,0.1534170057101832,-0.1471235730729447,0.10766826527575372,0.311032429798406,-0.05057803291758209,-0.32751098631177233,-0.06901803110830014,0.055001854179860865,0.022755422676139378,0.1817254031339202,-0.03851340421135752,0.10477807915245708,0.08237423752396214,-0.14522809852712212,-0.0012665863534301965,-0.25398395561638526,-0.1375918214774563,0.10051038820696613,0.19752548249792304,-0.04029670375123677,0.1496393117809733,-0.058118866613863125,0.12678061272092012,0.01717765516313744,0.02747788110920152,-0.13160178934720118,0.007305416681599163,-0.023612130027323798,-0.025141849463336075,0.030192498239086152,0.15240282241781677,-0.05611026758329076,0.026904415898335903,0.36264490887585227,-0.02933663568923339,-0.044471274389300756,-0.19063053238152972,0.08586267403654711,-0.37064854535078007,-0.09337691939262166,-0.4996216549288879,0.08182025785633862,0.20711796853512537,0.0719259623690963,-0.03912475996197254,0.11161743720339215,0.2577101862435885,0.23439503222657243,0.19575652521284534,-0.2116684320251063,0.0030026772180327217,-0.13372538278775628,0.14519959746686967,-0.21799728435866084,0.21571203953071222,-0.15728784351367306,-0.006970305643207756,-0.02614299834669005,0.21486012070009977,0.06078844467954021,-0.004509771985066332,0.04967087689013357,-0.1673139638097318,0.05370677769474951,-0.08142924070660369,-0.003175721366013366],[0.038359755998532946,-0.03560678712145443,-0.07292676039193027,-0.001511624167014852,0.11644388851179936,0.07219504154984237,-0.33242731237649886,0.08205047002864399,0.27369940638740303,-0.029746744955490626,0.2532996797235405,-0.04704807589795685,0.005777388063327568,0.126299716945801,0.17751456310224065,0.03026963890071355,-0.00901754760282574,-0.03050156526882166,-0.10254126127164505,0.0031473818767437157,-0.030885962822506104,0.055895667939652206,-0.10091325276149865,0.04869645742329457,-0.004091033564386647,-0.014723608106653794,-0.015452044143101045,-0.046841974725946645,0.2011095874477629,0.08313004432572776,-0.12518803201521822,-0.1875546783707629,-0.0353806268569575,-0.08668375146556155,0.25927963016100175,-0.00007312350682058035,0.14959482739950644,-0.035299323418463764,0.05069428986712765,-0.015164750933828366,-0.030560425917798315,-0.0900930255352438,0.04682538435374097,0.025488169863255743,0.04649628970256777,0.228423270100747,-0.12044428016267933,-0.2006879149022912,-0.062382440049226724,-0.08338741253163989,-0.026746812040523277,-0.09780592920836148,0.13608641435381166,0.15110968108893794,0.10587395923976767,-0.07823980422514953,0.08108505163045521,0.10645862524121544,-0.3571812600470155,0.28887239306216,-0.020477636891540814,-0.1217680229627561,0.09159311925705861,0.06683636401437615,-0.11351738732664574,-0.154806977457925,0.5836795379490886,-0.14058418704627276,-0.0005549244240138978,0.12668055207969067,-0.2219384139489634,0.12515579707120164,0.08344493953936163,0.09187972376729812,0.026331424422142757,0.10217484103160622,-0.06667900903584767,0.060683693792657006,0.10809255548165256,0.026680420156870225,0.10911627638842675],[0.12039160073052368,0.19076595697950324,-0.08066509056866451,-0.07813987558621244,-0.23475734819391803,-0.13070647610595948,0.04281488586949122,-0.03927694037171385,0.059493174129986205,-0.008927568054264536,-0.3675205963149247,0.019622013681769006,-0.014214496803743523,0.03786245933503922,-0.08003313613523476,-0.01546065528344128,0.049461723507460614,-0.1661553702226668,-0.11605198318682544,-0.19744438044776244,-0.03625046279453031,0.04916399327470006,-0.04204342145176602,0.033671041261544264,-0.08510972680374683,0.25701760001649077,-0.03012180482480882,0.06781619563090051,0.040128028608045464,0.21677338346077535,0.05728187300956305,0.09033933563077226,-0.09741360303914752,0.08194049285862572,0.034021072466567055,0.11880182868004778,-0.3196901054050903,0.14322422284042233,0.02871101020292428,0.31007033570143283,-0.11259237628004591,-0.1152255779845963,-0.062208630505371475,-0.03673567632867857,-0.012458570434275264,0.05851289115311357,0.057596893212923383,-0.29350748994267506,0.24918519818092683,0.153604957637308,-0.24515430659834048,-0.13790606908745395,-0.06691950876491501,0.06804585490982742,-0.07170906340836879,-0.02249396727691544,0.09065392908043292,-0.12118505893183579,0.13355642520390865,-0.06084369767396168,0.17175956671926026,-0.12907143576918903,-0.034720582861111196,-0.1696832601309538,0.006345807809021221,-0.04041717226403026,-0.018953819356788908,0.05660649891284015,-0.07671219015372674,0.02003716332823501,0.032585551418537,0.6234701247062309,0.15854226166782215,0.11232384712637684,-0.1131729631376235,-0.018652244545823628,0.08159628974913294,-0.050797531658545,-0.10382754908975576,0.002404633714078643,0.10664784225742889],[-0.010971501215856747,-0.0274635942159044,-0.008496485077953937,-0.19034959473914584,0.06730641260947583,0.054048489717902326,0.00790840915258123,0.041334467434389316,-0.009592199296745034,-0.14702329169104417,0.02810325212752378,0.07413982995921153,0.03773899022841433,0.007670254541321041,0.01419423061997904,-0.21968272944674055,-0.040220778228300086,-0.13499615166919332,-0.047789368583875835,0.19355993239040067,-0.05523043155071961,0.013851336555533,0.20602744142363008,-0.08448951798336457,-0.1811812040610737,-0.15810743507658626,0.08634870874451392,0.11670354377177308,0.002381338606868289,-0.13545163636383198,-0.2570594643578219,0.24418742264231894,0.00027326910945627757,-0.02043252118846564,-0.024778482376375636,-0.353241176771134,0.18092660024938684,0.00707994540777952,-0.10936030456499304,0.07223379542170417,-0.08259341600325969,0.014947522396971924,-0.054526968222458415,0.09596833475039336,-0.08367845459721865,0.1833568106556272,0.024130358920502363,-0.0024522388805966705,0.060565648211979746,0.09223607824218648,0.058990362556766346,0.12231222579528175,0.05162972570013212,0.11159865847488343,0.0012909079698253225,-0.17262322874844674,0.1651877950250263,0.029422766476675688,-0.033354853161489624,0.32943526004181795,0.011566077907891503,0.0729817643311073,0.0611556921451391,0.07861354537211578,0.024055559517430134,-0.40830932349131155,0.11537268639013834,-0.06153443808521726,0.034723563153950546,0.04866012147112746,0.11055221503378676,0.05191166583012312,-0.11800568755914835,-0.006351854000368766,-0.0750907163623964,-0.10176667032220188,-0.01083789945192605,0.0934141086417145,0.11951884884045527,-0.01921629237766795,-0.09608547023219938],[0.03639219303348221,0.399395950729571,0.11092812357448227,-0.2166999487095762,0.2637927866555758,-0.07742001669783798,-0.06906586640035241,0.10666219873357344,0.0770800279671715,0.1274696781634641,0.3361315035803193,0.4162296391660067,0.14949741054552937,-0.08946018232509223,-0.02023875742186035,-0.035928112270757054,-0.0013807031974060787,-0.09723964002491367,-0.02457585067628104,0.007471064691799122,0.13067150720624968,-0.03819507256425154,0.02155942641168417,0.10330979277005597,-0.041606272346344814,0.028402171792821097,0.037085147586966086,-0.15754193366345554,0.04239529001688858,-0.17772714774915704,-0.22700949301015896,0.07157359237949906,-0.04676529510037653,-0.011517494167907153,0.25863245105370186,0.07105223145264104,0.008733937224760817,-0.000252718218539201,0.06128396696257036,0.028496083900828296,-0.1511262580643595,-0.07620682111138048,0.0734254075739337,-0.02338106708663287,-0.027038332283532293,0.03482281611990634,-0.046323354984347816,-0.15189469466781247,0.03692217616843286,0.07826691558729595,-0.1608803205462608,-0.3218848164533609,-0.11629716975898038,0.011991507707613718,-0.03603980100496489,-0.21286085194966622,-0.04223747990372564,0.005657990847543841,-0.1520907548391287,0.10713712415468667,0.09670021650704512,-0.27748836285021766,0.07426614075750923,0.0745515896195393,-0.04169410200509653,0.1648977880974916,-0.17991426042992598,-0.10075483957486589,-0.12140269307048954,-0.06438939388522753,0.2986474545977546,0.12876705859824086,-0.38686449953002017,0.3859859916456835,0.011358819948851798,0.1011561819952492,0.08945457710970166,0.04145104971699056,0.08925178436679211,0.17323220382088467,0.15490677727949023],[-0.09487281645282432,0.0738033985962699,-0.11152970704017731,0.003231583822738237,-0.042258815006110194,-0.13252442910146162,0.0983382401713707,-0.27121494671238927,-0.37105066607463144,-0.02681001091868892,-0.11478889465671857,-0.016592351652730833,-0.16452925944408212,0.11300677249368911,0.08392152173099883,0.12694008862056494,0.013221142867050244,0.09181247366073364,-0.10165846333221096,0.11481003231280813,0.26554356423336206,0.044823667159746124,0.053543098499232965,0.017008476720728843,0.07443967753648435,-0.1045841428465094,0.21226196102991718,-0.046441003505818645,0.16496680166920524,-0.06506594389533912,0.17075821611871708,0.16914787134236023,0.04720188150467361,0.019655442719372168,-0.11213265004479739,-0.08280066864158096,-0.08175544938509458,-0.09265805254218852,0.052203255060256,-0.43659463626861816,0.08295888812291256,0.18294452376750442,0.13377943986088828,0.025893277360059436,0.001040314464870969,-0.09336150815627081,0.02540511074592018,-0.013796834075995211,0.10134040445958085,-0.11544262306414024,0.04539964481063285,0.042930164295298286,-0.542778165978185,-0.09799268578379464,0.043656857460513836,0.15992640632429464,-0.00965424330476432,-0.08419158962093999,0.033284712022549304,-0.11757827392304357,0.030447566003662784,-0.09917600733031195,-0.009963078398005787,0.023109875926161184,-0.10835429800135406,-0.2390278427959406,-0.031698716373776546,0.05106006970954472,-0.11683618852180042,-0.013364236077415792,-0.09798354019505563,-0.027087355735184625,-0.12525702037024627,-0.13124926614105797,0.016314233443665095,-0.0032276202922076245,-0.07997991289546331,0.354585293870624,0.23322071223681612,-0.001702849541180197,0.04503556785000623],[-0.43868762548440904,-0.043275380652102936,0.11957553515001837,-0.07376484680714555,0.11476933332964898,0.05226929019001759,-0.006483492125291541,-0.05521965570584935,0.10717957294896606,-0.052853786267008054,-0.013159878723285515,0.04726308275339682,0.11326747590788079,-0.11707620382366059,-0.09436887001109277,0.1825489857464164,-0.06630456254031766,-0.03794940996319958,-0.18743820760009836,-0.039508068147573204,0.16529320072620887,-0.03181097594154988,0.09624282747863198,-0.05402988738526156,0.08639816660716791,0.09632828900158902,0.0020418504188246156,0.16105890875775566,0.02347140039828975,0.3127643529747998,-0.25186283980776736,0.2124992554193816,0.06164459565906332,0.08298799691899655,-0.06095567523851424,0.04474803539799961,0.14965876053590868,-0.022743504621708738,0.08429399584299505,0.026345813783666502,-0.02220178189240683,-0.038823811029630576,-0.021822592792149376,0.02114920839212724,0.0433652783771737,-0.0764162838467599,0.19775314619061954,0.04366212027066329,0.21385717056108788,-0.28540220868529087,0.13487812911931424,0.097480511580913,-0.019651408056566153,-0.0006402779502113389,0.010022117546725036,0.07441238394202321,-0.14012127172060523,0.01937214921447411,0.011430286116688447,-0.014320995666566933,0.01917922450121626,-0.13459322299338072,0.09049048374880143,-0.03032074722171897,0.20133529700606548,0.04451123371717467,0.08040461162664807,0.202628266843351,-0.29066686717259355,-0.022041552179885862,-0.0050527279410246696,0.13224912049487653,-0.0974687469708423,0.02912028646197361,-0.03735641182466537,-0.16733108051749104,0.021446216192402025,-0.11054627700497979,0.07510710677616332,0.027320647103237106,-0.04787178978836475],[-0.01895805410069706,0.23602919640192227,-0.32833852844984773,-0.40760812878375347,-0.024809208944989544,0.04804245483693377,0.07628259086801491,-0.044345356943354924,-0.07587648554711963,-0.01978414601659814,0.2256836186720801,-0.3090941466920521,-0.1417183984020727,0.04143585142378424,-0.10064560255202125,-0.12734327712932567,-0.17437604001245927,0.22302553272775383,0.19562056052069116,0.07630795159527069,-0.004264732592997735,0.055676119667721916,0.002856470189226211,0.05395357644359486,-0.10483293561135312,0.040463787937794655,0.027872565286067064,-0.2142838500910883,0.25392506750628413,0.06630053207293937,-0.20309839391853313,0.0851087450447467,0.2170333442366893,0.09434992966405989,0.004968340830126493,-0.03387728331889211,0.0835450336382847,-0.04948029065777869,-0.17674590355057826,-0.21595471804851316,-0.16626312838704038,-0.12401945855278583,-0.07729164615418752,-0.0983553522777162,-0.1348670831196359,-0.034040334715868883,0.40678726720980685,-0.012270548424212463,-0.05207126215596997,0.015989513352498274,0.12184968440646009,0.3857510970928884,-0.04723005207110534,-0.04396451153215913,-0.00905913369051268,-0.21670516767624817,0.07672210087066601,0.09057875508873399,0.13236773791022705,-0.058693927845184526,0.05489436497877652,0.06156923036577263,0.035336823753083946,0.2100994137691752,-0.35310692419364104,0.03937478570597355,0.0725134786357615,-0.23526465146871495,0.08299723097555861,0.24785903970225576,-0.29551212424771434,-0.09761955412665985,0.3072547108275679,-0.12928582921203152,0.1340423160093767,-0.16393865246780953,-0.21151338530154987,0.008919723281676955,0.185964371522356,0.08850645239851727,-0.005887139781694164],[-0.05207024426663066,0.09200606128064254,-0.15126280808220413,0.311927075038214,0.08613808338255692,-0.09742931954261835,-0.08734640255077325,0.04280096269663512,0.14165810394756298,-0.039514958788825584,0.2687525821963365,-0.007074693552881609,-0.1061046202801204,-0.02753806035071864,-0.016662747362814468,0.06950744820867237,-0.05100229634947175,-0.27589968057854003,-0.08344146198515877,0.03842442087628741,0.025526767723271095,-0.215105939440788,0.2806207554017278,0.04662816985290916,-0.03564345872428153,0.20141863500043253,-0.10787189544547293,-0.23612338107082337,0.006753920944055472,0.17222303644912462,0.05361887936375001,0.029899265979879058,0.3257702764977266,0.023090953279480273,0.060133934756853365,-0.010876961761418797,-0.2061375792018564,0.05908134493756595,0.1449329107980292,-0.09213454322086027,0.05184558606689322,0.0260242168832626,0.14004712815383383,0.023622817079674573,0.01003226954838567,-0.0331724402174202,-0.11615046684531831,-0.04613715230885339,-0.0345589114590124,0.03151309133376538,-0.0788192694681232,0.3519876722647826,0.16038691239785235,0.08046832985253595,0.05117647480007054,0.09133320052124833,-0.09639489653787962,-0.18928381928754734,-0.27687083913661886,-0.07515582608796725,0.1704991211843196,-0.1480920038661242,0.11501663827806939,0.042278557583148066,0.042762775127794105,-0.012189600876466365,0.012318524547862262,0.07668780621019891,-0.07870274772464533,-0.13251711855516088,-0.3163799662515924,-0.17380018395162594,0.144474601681865,0.0052258340619153005,-0.05066060055466694,-0.17836093823978172,0.1989273448444458,-0.009222830796061595,0.13927181174573075,-0.09606472254901907,-0.01585934234079035],[-0.22847579899580178,-0.00045483216544017313,0.007737906913213328,-0.002951662756978258,-0.1926007617674862,0.29297807338626525,-0.023283711983464996,-0.048117071723598644,-0.044622784870023094,0.1415441441298276,-0.027473970629716304,0.08017644708663779,0.07115770626940657,0.08790270620179615,-0.05848424433568618,0.1577534662865306,0.01609975822688848,-0.10142408879300575,-0.0847534995382706,-0.04284373817860119,-0.1926468063902712,-0.2322242793085891,-0.10328422564474427,0.001196813405304134,-0.1491897803366002,0.03164039773368381,0.11104415747751131,0.11857526839765543,-0.10179710323179988,0.102471412418836,0.0964543041840505,0.29265313506191354,0.09682065172310446,-0.07992504376569219,-0.004473107896041146,-0.1018090774190763,-0.08746865976277843,-0.009698032239521016,0.03699465513307491,-0.29032397441783064,0.14133226289431325,0.4605813997133081,0.09899224630247451,0.040571520567936704,-0.009963656256408913,-0.03860460979820551,-0.04351521873086496,0.20685529657542018,-0.01317796933552843,0.10943068131218486,-0.09906635930533843,-0.13251659335512855,-0.030436159971957765,-0.001960429344379445,0.027043595635971435,0.12168936153659207,0.13246486728548068,-0.3067197683986356,-0.0475226321354826,0.03390994931557356,-0.10646324759033317,-0.09481189210274862,-0.046766500385301106,0.060900161110077164,-0.01680509077101373,0.0952604334373204,-0.010124480443064245,-0.10846612923345662,-0.024664775817114355,0.06026386883131397,-0.11112964539573579,0.0818207388936619,-0.1645726666140056,0.12391568412408452,0.08838779156936359,-0.43249718644137164,0.0874394259025673,-0.06957777564125232,-0.1806736925200675,-0.12729884473269834,0.042628551571990456],[-0.09490197589767096,0.17459566867148676,0.050343180509217586,0.057829524572832504,-0.3347580129067563,0.11422317588994187,-0.10423672705932668,-0.12170349391845767,-0.0874279931475616,0.07982784490572904,0.259653332594733,0.03299011300018212,-0.06013239728891737,0.2342816275916974,0.04596321276447022,-0.06398709729772561,-0.10732959824302635,-0.1085257373070628,-0.013453526501625273,0.06164205937855666,0.22949378241144305,0.14474930299000838,-0.08481519579905608,0.04751104627089999,0.015008744630910141,0.27340916356788714,-0.09073433651433582,-0.11220419257757326,-0.08977709845677317,0.1112801799295382,-0.2715998639192619,0.046558143973638576,0.2038894091206162,0.23928077245091103,0.03441326080657046,-0.1859499927890515,0.06999909903725458,-0.4233529403665754,-0.2823942050310227,-0.41137942316352916,0.0012502109012350862,-0.07918966530224825,0.08591484220159352,0.062318835433237206,-0.02028821432976742,0.25191931495657677,0.17034551047719879,-0.22331752823323858,-0.0003775611063389868,-0.06184053224207908,-0.04830146836103823,0.16634743929586168,0.0007825155470593973,0.10749866783051341,-0.006378748541279125,0.0017304191150953427,-0.06497532469545285,-0.01710872306902547,0.1037164464023109,-0.1494987050321104,0.061001102687069986,-0.1653263085635776,-0.09399045895790469,0.12944609342972344,-0.06257940902578074,-0.17432357185322186,-0.15964119765468085,-0.0109242102888178,0.2348198040781804,0.12261701244643837,0.09014487189267036,0.06680568664635585,0.010211425955749398,-0.05776770922063949,-0.1947751128658163,-0.19912420695859195,0.21205018695255545,0.06409220419124295,0.04075300140171148,-0.1952551565629137,0.07661395442775606],[-0.05191093300639017,0.1990688084871166,0.03495581551312461,0.010842335798052594,0.14965980627900732,-0.11076543754135018,0.014225625328393575,-0.06627057938549959,-0.08807933605482418,-0.027223850682262775,0.16690150234920262,-0.051483706697927754,0.011636422929604304,0.030837604933027403,0.16217416160628467,0.15172934768752105,0.04501525299198579,-0.16590833322566692,0.009510303230337086,-0.11088997146885728,-0.022834264567336445,0.007154060391420375,-0.008827069135893251,0.00042971056084935234,-0.12233250406416096,-0.22382667158402578,-0.015530166165295973,-0.10010454577681839,0.11136718105374002,-0.10362288397739182,-0.004397416452647189,-0.00806244209975535,0.01930451925011752,0.04669128746638539,0.07225331064628712,0.032694151203799204,-0.16746323850271524,0.3114924143100285,0.0009627752581030293,-0.2545518311008927,-0.17767703943910879,0.00023622037969264583,0.16954188608695578,-0.15140219832953777,-0.03884449263456043,-0.004991176843477126,0.15479579617126044,-0.020801123452257285,-0.16941941525767967,0.06974431434716392,-0.04408690043960517,0.011195580579407867,0.10926986174741771,0.07294454626663799,-0.06929160524924878,0.013070423481745001,-0.11709608018011242,-0.02794712087192035,-0.2549631776064769,-0.03747264429783706,0.3885584138194816,0.0016747300378771516,0.032449555084424334,0.10242211367143764,-0.08035653623773459,0.02494183800731525,-0.07194350118996021,0.17236558347143988,-0.0022616457005853706,-0.27405422460217727,-0.19124271753794533,-0.08748101288149024,0.008445584422730813,0.03618508860237599,-0.015394020177319848,0.1801449709506308,-0.23135003254809117,-0.12846622002547267,-0.04360951381835517,0.013866064985348873,0.1119345470862994],[-0.15112092919407963,0.08248905429591293,-0.01297428067408748,0.10616838321275773,0.2154680396153055,0.00719042527492307,0.15953942649672634,-0.0771262625706601,0.08216577042053999,0.13659074486225511,0.09200444560496283,0.3546984061906689,0.2724175309714044,-0.11135561695338254,-0.11521722643626336,0.1297193928529558,0.1187809684293127,0.2958823139379027,-0.03268806176219421,-0.019299366766016554,0.18093052939779272,0.06130258071947246,0.09242269388310934,-0.19352559727892496,-0.10617337271732274,-0.09458490008631623,-0.08556765862499899,-0.05969075761075455,0.06596427428217884,0.028191159724889912,0.14831729358588322,-0.09186278142374125,-0.17392313856785047,0.19157322485394968,-0.06139901424112489,-0.07147144425326421,-0.014367009286223462,0.19301048425632328,0.15907800921492174,0.42340533671950875,0.12656051421054113,-0.1084895795558623,0.017369007022805985,-0.08238639245496837,-0.18506350494397084,-0.06490371165312663,0.016666308030823376,0.20106845161863812,-0.1453070135021559,0.04663542416092058,0.037096972688688806,0.06368650281377772,-0.1587609183862603,-0.45217287415065655,0.23120511499721066,-0.1006458334422362,0.10658286618526076,-0.1929733776903968,-0.1047190878169008,0.010812130681342852,0.14462217996922094,-0.10698656718071999,0.2203142476805419,0.295027213071302,-0.02658085753987064,-0.06847554415879473,0.12954311680655511,0.2651805198352212,0.15387342088316877,-0.1892228025131941,0.03431769529374114,0.036506567408265626,0.002449886931295309,0.08461720872302698,0.19441974349058633,-0.19297463923998112,-0.043271124960054724,0.10489957142056773,-0.06493965015654093,0.16854496431411659,-0.025488264755167144],[-0.010836436268561313,-0.08935083168532466,0.0032117599233898553,-0.13758689088389758,-0.005262381106909635,-0.12657301275925537,-0.05105168897807019,0.11549160920801244,-0.0950728931789467,-0.07464106859296932,-0.06426108463300682,-0.06998880208245628,0.3453917783508966,0.0784980213263364,-0.1154319699786045,0.062230992544077234,0.11595700921383365,-0.18981351201249835,0.18749287750747,0.03070121722723482,-0.11180946382980493,0.04418735676681596,0.045009826983347594,0.12107246507121118,0.014151345154024272,0.001790947207583311,-0.01795766465795138,0.2189623836912383,0.03370031270179282,-0.01961377768157319,0.11010554694277763,0.018423058021764208,-0.0008785485160237351,-0.1857470229220787,0.2842896589398327,-0.028292047070364645,0.04271894023085757,0.0953334462529317,-0.0682023815745998,-0.2951727384993951,0.012874057950682144,-0.10803767085234296,-0.10173597259043177,0.09313589745540206,0.047703527948387024,-0.044653330003353295,-0.08398195446953621,-0.1744724317667476,-0.008362776572006882,-0.005131436128498619,0.1902019623860287,-0.10323554627633776,-0.06537649151297828,0.0016370521934502458,-0.10688961532353126,-0.04365515449165215,0.00516159316936955,-0.031052167468638026,0.22781214523291918,0.01797182136779793,0.03137617144489704,0.006483386515146896,0.10473927121885827,-0.13550659415187372,-0.01755784505868879,0.17017580313199415,-0.1800873522347726,0.21233315512684942,-0.013417306188750342,0.02838202188611143,0.06497790921839756,0.25008150714504584,0.5041940515800094,0.04120960577430408,0.031100695018399366,-0.024058367706032816,0.40333817278347806,0.01631996515046433,0.1033872556780523,-0.1003136954099229,-0.03620134675048135],[-0.012092840045920402,-0.003406562967975579,0.20396763978754262,0.060394692293880455,0.07778304780643971,-0.12806086667262037,-0.08995155034873263,-0.04391691267533327,-0.08499581474046346,-0.09852546907520698,-0.5871864815317557,-0.1349378199446043,-0.15443899303867362,0.31834422300496074,-0.003172432509762306,0.08835616459913331,0.01014318076893331,-0.04999756872871021,0.11318270355250912,-0.009690207153220476,0.1913728897902755,-0.05307607547165162,0.045077067241385,0.060323314887410995,0.21944061570929219,0.013300447750015924,-0.007885381754436817,-0.1391251373485114,-0.08787284164856178,0.13598675155045103,-0.12796157968318791,-0.021535915321335967,-0.005595069507512217,-0.022560449424944107,0.05955395425180139,0.09974288653237537,0.15485284447285677,-0.04119393265267313,-0.08711076643106459,0.015324606337357962,0.06524613262023148,0.14164826360264843,-0.04133480310533016,0.17023106560158163,0.13892670737363333,0.08899707751220447,-0.061906984199939175,-0.16968158511853043,-0.13775323233608916,0.3639412498434016,-0.04946645497807927,-0.3881882078595086,0.44100592080632267,-0.11724293810898903,0.009372992476543825,-0.1911881365920392,0.12272596231429925,0.007805631844747211,-0.02292554366514021,0.14454719319197432,-0.2906883662898493,-0.05767917373073863,0.05681915396038049,-0.001038740194386435,0.09836227980388941,0.0918055315589423,-0.04917273053761489,0.12858932612123788,-0.2602946949005814,-0.17826387512995626,-0.11136106976499996,-0.033351744976900695,0.017491175467112444,0.0563879959969734,-0.058429255905344465,0.07320653888736818,-0.4368299778364917,-0.08272531237178916,0.07268119610960636,-0.15496261700200648,0.05665929090982642],[0.1083991640619165,0.06912435679802038,0.03381795667091194,-0.17360190773089365,0.1523260483408767,0.2935483838077246,0.06982790218185894,0.01063833939186779,-0.022864910263550225,-0.10543853540307623,0.0653142498558879,0.06349842964588974,0.17658044930007696,-0.17202162340761293,-0.07887474969256653,-0.0024868239037029024,-0.22210649951439876,-0.003727955923643043,-0.2293350982330246,0.126812284314254,0.0358329349431796,0.306579686484498,-0.06661915464016277,-0.13695900927211355,-0.08226607103763889,-0.04136263970990257,0.1207177535521415,0.07118368325006566,0.04520912976103763,0.20506495589139626,0.13045576293076727,0.04195528654445615,0.13420045958470928,-0.05644577551578788,0.15266106327553153,0.01678053988792242,-0.20166650581758921,0.0659755050455194,-0.08946511497460671,-0.05315119178891748,0.007749783969725223,-0.12037277260394427,0.0996070313508465,0.02578512219974177,-0.05018193710055577,-0.08999432944940057,-0.2582253681494429,-0.3920058612500453,-0.10593124386027931,0.03579957643137746,0.003442838572976325,0.026379430322966496,0.10250805000286477,-0.11289479592183596,-0.070324308237828,-0.15496097342482748,-0.08555323461042827,0.08418401691653565,0.07179883421966436,0.08460210271749086,-0.08048073149069211,0.12360262135235951,-0.15129114516778727,0.06052759462707659,0.028882006684678965,-0.2445860334668505,-0.047840216912322785,-0.07713091102509084,0.01813777855353352,0.024939837241398567,-0.04400251329627273,-0.08110369206317963,-0.10310443280887295,0.16489176936363217,0.036707225519063025,0.09329493411414705,0.24785531942450997,0.04972304978948866,0.10139787776209688,0.21638244092910466,0.11158978886786648],[0.06161894820893907,0.1615663380893666,-0.1141721768016287,-0.020034251167394997,-0.25778515254665146,-0.04103564361068778,-0.037761891416909533,0.3899138114235801,0.0810384668275471,0.038759487590292546,0.12107620395846123,0.09243397758131718,-0.1176212630503186,0.15188547806294259,0.09346234021011768,-0.26072238577938933,-0.0490596124309098,0.08583577825244731,0.15166246880651899,-0.11558758057645954,0.06531875026292741,0.03187785824304367,-0.009205826288357581,0.10602094833860874,-0.055129952968228285,0.10607790343684927,-0.08494150654016695,-0.09612236891288298,-0.06939124715063583,-0.12802665683596262,0.03243542259619587,0.007023513619037462,0.10107771096475257,-0.08745050165808842,-0.030238640776041475,-0.08780380423804282,0.10505293993938557,0.12804371909249382,0.17762791433021355,-0.04770305702853859,-0.14804958655110753,0.03851865108212268,-0.1521395216816834,0.08220593517907968,-0.0725615137474537,0.08984637618290818,0.03523345282143259,0.014451261295495009,0.1054856474826246,-0.03117780708282277,0.14144156348521855,0.19097989333481333,-0.10902705381667512,0.28148254346769513,0.11841320009632512,-0.17133217274047424,-0.04741867784773042,0.05780789016706672,-0.1017514578177193,-0.17155595450803224,-0.43059699705888527,-0.1546966406562573,-0.013513540431305598,0.19237362019037954,-0.03077947737600062,0.09664041190090854,-0.08447035739972542,-0.06488179100901822,0.14764609194777345,-0.06692080744770665,-0.11341781744568716,0.1010808334080104,-0.008224234823857061,0.1130144082911303,0.09057521460403396,-0.15953653072165772,-0.05691987715674821,0.024582453996005976,-0.03591728743742036,-0.025036861191150544,0.26307948014003923],[-0.0214173458168504,-0.030620305465138803,-0.026920066076636395,-0.08315811615820562,-0.09829966317377828,-0.16118227294498355,0.1988864265024939,-0.0829665882565544,0.1138023985642627,0.005017864285842532,-0.1391347000433343,0.0856277285761764,0.031133687701174192,-0.0843909112253847,0.07374514118459707,0.0012069697936376812,0.3006036763580411,-0.010094811718508562,0.021509681378043655,0.08976985694901675,0.0038696174775316393,-0.22950638574529422,-0.01563555166312249,-0.05363242841174042,-0.18162750027818916,0.031707781675629855,-0.1471924092045426,-0.022129567566144433,-0.07032765947204032,0.0877299864223171,-0.19364869572069707,0.049454969422133094,0.11637760163538466,-0.05253725779733181,0.18285525597537983,-0.3790990186276222,0.0360897801292978,-0.009698815366112955,0.13798756921717897,-0.00891187209584718,0.10492337702841159,-0.007419747646904349,-0.08953016348893127,0.29226051790467433,0.0450906454282143,-0.18560940013442517,-0.09624309785091181,0.35809741625647723,0.011155380208563919,0.23841936718292406,-0.11642273880816201,-0.07924580774374268,-0.026509793303340197,-0.08847652667837222,-0.0007490163558819112,-0.195247464554965,-0.025567633121189995,0.10370704783222794,-0.05533392370490077,0.14880828813569283,0.02347309753853096,0.09654751929486424,-0.06332558515401655,0.006368934741555203,-0.10094237325045627,-0.03153949679037822,0.15710684568769284,-0.037853288378759335,-0.056680403731190855,-0.10293062487359352,-0.1998323495029008,-0.022372907292100442,-0.050532340358921075,0.046404437657172004,-0.0016073063601451186,0.045051336246640816,0.059044268523826396,-0.21910823159834789,-0.05946727844947892,0.025701979909519897,-0.022930551966587855],[-0.0378191524746076,0.046098438118949106,0.1974661073773074,-0.011854801887199094,0.08982204815112789,0.05667485636671678,-0.23364440063597536,-0.10764603992637933,0.1737778271523328,-0.2647726232292927,-0.05113186252256873,0.10984417978257453,-0.08284942733061859,0.19885392375718167,0.007741524804535952,-0.258398191771202,-0.14081468806268732,0.13373730207298648,0.057132168698624766,0.09914250467969063,-0.030107551792510786,-0.13576814055944295,0.07307207459866903,-0.18191626293248112,0.11021824616913899,0.0663609975903795,-0.08882895547483631,-0.09349647416755315,0.12883086788667653,-0.09431102354144295,-0.3975277490076145,-0.11778537990679624,-0.055278804191122834,0.18307129900311375,0.032563008326296605,0.09599169322237995,0.22532290392349935,-0.005858829252995815,0.02764538773036387,0.00026171287713251315,0.07359310988046869,-0.0029322906225722535,0.09643545588635863,0.4178897761625206,0.042023687651232794,-0.06070805789737639,0.04137188239026147,0.006187447612138013,0.15952825701516532,-0.13330050656773382,0.35585279448407764,0.05808147127863685,0.04811916232444206,0.08932589240692548,-0.19774110857577312,0.16004521479993403,0.08124927624191335,0.10041245531916501,-0.026661303777736872,0.22901231877795947,-0.054649720113502366,-0.024496415698794686,0.01047601616400446,0.057389370874981756,0.04684272310904463,-0.003287578421820401,0.09428702770851088,-0.08731247602818873,0.04064831291406242,-0.1349525137059841,-0.08068009519686972,0.09317983317886788,0.07970654933285581,0.04764942675372324,-0.23916555693345917,0.10717019503575019,-0.11953104786069123,0.3157648785205107,-0.10510027359127654,-0.1074869551174174,-0.01765249732046945],[0.1636673006945397,-0.11322565342345237,0.08032127081649426,-0.10904143425863391,-0.05690339724807169,0.08434246911537763,-0.007627537323582132,0.01923179449234813,-0.1233883811632579,-0.09129992163148123,0.1065137645251843,-0.10667099882581646,0.06956877389452978,-0.1064247760475301,-0.1264719015447381,0.18273917185358146,-0.12313653513619223,0.026034167257020978,0.10686612753080472,0.0768827555382305,0.4652976301903088,-0.04660645353529884,-0.19634572111068618,-0.17615184080719995,-0.11684356303027364,0.006578192345894819,0.21038044077048623,-0.08880251785898262,-0.15935716084126145,-0.01231070395300323,-0.06710530697552791,-0.1269487256606503,-0.031519980938339305,0.09756755801858306,-0.07038071626243278,-0.24070825975173435,0.09724530187032251,0.117153467715589,0.10125683709653145,0.09593292112919675,0.047204182421797296,0.04293938883440494,-0.09864565374121065,-0.21837648683189284,0.09658843083032015,-0.021517272321938934,0.004325066745357997,0.2818194088229167,0.1573499425997895,-0.02114379686731559,-0.044596106257317344,0.06148351865946013,-0.07768043355156368,-0.5053302345977307,-0.09876735030566834,0.09165435742106168,0.20235083861937617,-0.10194750385822786,0.030816435656284055,0.14805362274766648,-0.1418904781052014,-0.04096087409463963,0.1686119942451085,-0.29449815376657834,-0.0069159640373693465,-0.07419527133719558,0.03977282743084251,0.03388296888322624,-0.2377407698483473,-0.1857811087109121,-0.5075708357355373,0.14237483531571496,0.08327361477074885,0.13221228544726893,-0.11334200355685273,0.0031749398328202896,-0.06763128869017822,-0.06986965287089945,0.055839937603633365,0.0156799211980649,-0.1988773758775767],[-0.023480315943788983,0.05214731301800929,0.07584666326145896,0.02721919886669421,0.17059316273371963,-0.04327525703342207,-0.14331663148228077,0.08789858998477298,0.005783808732850785,-0.15587278625910295,-0.11701934555253735,0.10193447405836907,-0.028238794619528627,0.058115136566838074,-0.132480971878477,0.2543345864020274,0.058239356505523386,-0.029216109264664593,-0.023843802608617657,0.18496580147589214,0.32004154291567516,0.04781520997891721,0.06772884970621593,0.051426160239544084,-0.03916718320851114,-0.13305518626405724,0.09413278291746273,-0.040362110751355006,0.1325548628846434,-0.08197511071639622,-0.10108883554808697,-0.1313000419423081,-0.21688417648024058,0.05132789689393844,0.04897044629030924,0.04881808777964833,-0.06773814289396408,-0.01999927168262187,-0.2263436892251771,-0.01820518288745101,-0.23983045838165076,-0.0715213818493057,-0.2152282797109118,0.043408578525255134,-0.05104734528445685,0.007950980434932526,-0.18796334756771274,0.2539794224699391,-0.006354929414778769,0.032609235338908305,0.05817069867592998,0.08826988321813446,0.024673368155710983,0.2584709499542859,0.02370709354406918,0.07766793151559433,-0.13808835478327275,0.11269258758583955,0.11796689948339001,-0.04879795694996375,0.2270306382085439,-0.051887531521248566,0.01733893653320258,0.10188905590723918,-0.07521283363837816,-0.04424953196439242,-0.02586469774954861,0.3049513890723399,-0.05115745235687941,0.1817338614917379,0.11345718958635283,0.04046120368004735,-0.06743835186126736,0.04432675691464047,0.12070082835241402,-0.21564808019577927,-0.050889892192116565,-0.08227560108176361,0.091529782222237,-0.03709770863477664,0.08589812524176962],[0.1390143310272542,0.028673637353313675,-0.11477620536703449,0.018328930658481398,0.0018977562240830457,-0.0031789460207406087,-0.00675886017614648,0.1566701209229005,-0.42027642858209907,0.36100425865128744,-0.2097508061774009,-0.20723875830256008,0.0921954630518489,-0.04763204082827357,0.10144022306257744,-0.10287029156723035,0.046294470323940885,-0.04063008534079725,-0.024430518997168884,-0.000522040165826739,-0.038897578229626646,-0.036908906039772996,-0.11777493236841706,0.052012886226127666,0.08447098191714597,0.07481790153302745,-0.13256960416598146,0.08076241931685321,0.05839528532459126,0.08969791741313596,-0.034191094052613426,-0.33118486359904536,0.10848828272624114,0.06006763421015125,0.11831279405024,-0.036811452895890606,-0.2467363438720718,-0.17788684143703348,-0.0436751497621795,0.2281418666002045,0.04176853977008077,-0.12360277547777034,0.041825229471285516,0.11236130984925995,-0.02996002763216471,-0.09658067543287598,-0.03704757909951718,0.047707186118273695,0.08492086477418714,-0.0323964426905213,0.12409767860436664,0.09274929572887207,-0.04850160635179022,-0.2891725170880774,-0.06294958658589922,0.13335603180820835,-0.11119848217020796,0.09778426391478139,-0.044148129184207824,-0.011462927413934003,-0.004182468303930645,-0.25107406074890243,-0.04789785250869822,0.0502353741108177,0.008988147701650146,0.050072821434005835,-0.027387578257282937,0.09959076909305145,-0.03583144656886425,-0.37313771579663413,0.22686624440645137,0.12936071328234885,0.48295815830012756,-0.38895481575115876,0.035697581778524,0.14136522544491872,0.03851386015842505,-0.15251708584147014,-0.11265764066200076,0.0017505440395384068,0.034417372829794284],[-0.22850270513035112,0.07693839932542519,0.21749715782793058,-0.24740978987051143,-0.30330759358331594,-0.3143298578281846,-0.024240441359097305,-0.07437362909368818,0.1994510255755752,0.010039565583949472,-0.22279257685029785,0.1554901138312689,-0.009580459768210514,-0.027358129281221076,0.09842777539085783,0.17846124538596891,0.32043299531893105,0.09956354639237543,-0.07251843920958344,0.026183441005288674,0.09633879511204296,-0.27294630408033616,-0.061576890769426816,0.08454221638814904,0.034257785471708546,0.12137603723061316,0.08049538256167492,0.15421674112962008,0.1834379600500118,-0.06146808601447663,-0.1138897602475206,-0.07521751864957972,-0.20357071331323262,-0.154792677963023,-0.2760532926130002,-0.023593349523358904,-0.0454796611055186,-0.10791396296500992,-0.11369840086767498,0.006652270242087585,0.011073077512940762,-0.2748683515403726,-0.09610890631196493,0.025794857942034212,-0.20693284074723825,0.09625117166955731,0.09726199208003308,0.08390572978878998,0.04334998199367427,-0.07510192695133788,-0.1689543543478197,-0.01571350618440285,0.06947743495045036,-0.07950091467788396,-0.13078871628654706,-0.04180920359018073,0.09610351748746096,0.019950378252275122,0.02579879836389077,0.004190966172809464,0.022145151099285578,0.04749662366256092,0.00650291406336665,-0.20753314897232975,0.002752993091948047,0.10889204147248686,0.10888776057632459,0.1196364890252632,-0.02464422907882476,0.1454024500906829,0.0899369080835941,0.034226492971780466,0.2767394621553944,-0.1870596779501526,0.07041080965080863,0.04225508037877408,-0.13975399437774294,-0.11396308585692849,0.1329922852824587,0.03147344284180249,-0.10431967605714475],[-0.04541967703156307,0.020903531905403824,0.05092892710154957,-0.009228206699345511,0.0756527749130941,-0.21950804443298894,0.05967390313797745,0.2347109655792566,0.28694983739574376,-0.1065722459935247,-0.02347247863804011,0.7139312052979483,0.22578369501875006,-0.1339604586769223,0.022946105584140387,0.03050477821170961,-0.22072459677687584,-0.06034796340150395,0.10459291024375114,-0.0962640434114642,0.046935967591852305,0.01886240946564938,0.035090152101753834,-0.04404447041222751,0.09828464947856276,0.007096637736530268,-0.1590921086686745,-0.16936593819800078,0.0330645706152344,-0.11060811890463772,0.04418809214854236,-0.08200253470915263,-0.042244042926444715,0.18487664044066418,-0.05847461461233849,0.05649083966753135,-0.020993823909494756,-0.12452238926180179,-0.007428126994034477,0.04160964297833448,0.023622683474919262,-0.2874675955643068,0.07145088884755839,-0.11088059475743779,0.19442587568363154,0.13245244998135264,-0.07583270068111413,-0.29305715127484644,0.03130089732571563,-0.5400969814133882,-0.0628736529412389,0.23047338456251096,-0.11468901343936998,0.19743281102003388,0.055660676941716676,-0.08726132554416334,-0.055773884444293084,0.05720815099063811,0.01567978597209422,0.05704188931284872,0.13713829071607783,0.28445163032188886,0.0006092268755968226,0.045061110213570135,0.10028852162074071,0.13731982562661127,-0.029401775555639345,0.07496141423529908,0.03631183739736549,-0.007489294047410605,0.08459406818953052,-0.2109230836167193,-0.030362172008431804,0.04533749325286348,0.031629346352972924,-0.13491063658239677,-0.08115884012641926,-0.15459420065429816,-0.21183033436786214,-0.1265820173237438,0.028923720492006606],[0.0525725593735595,-0.18225720644958726,-0.24232007072778175,-0.14707490966919243,-0.030576643933147185,-0.16604881234940622,-0.2446685716711052,0.10526214407111663,-0.0004661459232021631,-0.1013741649875191,-0.10222817757855067,-0.06343169746636866,0.09826049800788499,-0.11517237097570979,-0.005783260859799814,-0.3710384721264751,0.20986304800229663,0.06674716737077593,-0.1027734821426829,-0.016408287375787662,-0.1157269055248186,-0.20512937124840638,-0.08493014739248625,-0.049682312301170824,0.25729481489409445,-0.054820495141214565,-0.11473789334218815,0.07310526569003455,0.309519709639072,0.23915099245455457,-0.020492528551817973,-0.01599616029046998,-0.053542301722119164,-0.33483410033118777,-0.18899310076643555,-0.1071976806583397,0.20778131902461106,0.10038411330005251,0.0629073794169583,0.0067344770297374755,-0.012866976575358563,0.08291377068512568,0.09570788253186537,0.12182290078773234,0.10257120784025295,-0.08985569123750595,-0.08615634862177857,0.005462066083464813,-0.015438231495542978,0.012059033349314215,0.049618212616084144,-0.05210922284444219,0.05635694077302627,0.08996284922803258,0.06305422617403293,-0.0760261770292519,-0.03431389890587934,0.047647496835385675,0.08440635366064446,0.003586304573825791,-0.12840724485701147,0.006983321616105191,0.24560303619981602,-0.03311305647939826,-0.2095162541104793,-0.03521019092119861,-0.1376124083278829,0.057430697883681124,0.18585382058888392,0.08699585837673349,0.05774435257758293,0.10485820317913473,0.2226664188116639,0.15665763105873326,-0.004232331003849136,0.2833983856663211,-0.24820144227172333,0.0462957378132174,-0.09343420164506479,0.012052629132425899,0.07769993822969454],[0.2198919478597755,-0.20759399361269482,-0.03063271371058412,-0.02391621086093008,0.22408134513574252,0.07892239145517392,-0.09272616965073138,0.22421367807166268,0.17559288124263514,-0.036156645761974394,-0.26272374992455716,0.07322058613931862,0.18640707564871264,-0.1763893884719262,0.03784564384104571,0.0182867563347688,-0.008124667913976924,0.07308357640323979,0.08440444245043205,0.017829227234069985,0.44521930033142776,0.07813151292431748,0.07436683125614484,-0.13384264157795384,-0.15928819965044572,-0.136728863035857,0.13845488968627603,-0.2193170753737934,-0.23704613741902986,-0.22216963576810436,0.2681285809314932,0.22035811072250056,0.032932734283631394,0.013453733121388044,-0.05231157908394644,0.09112780290219943,0.11415030766828131,-0.26503444792288955,-0.04082415300222565,0.1537068237199449,0.39059402807487287,-0.08792040224356688,0.21213996200215848,-0.3197571835492922,0.002873066447189625,0.12506815448769204,0.26986408956398555,0.26178485081999314,-0.06075242443857222,-0.02639028744366398,-0.09554899479675104,0.24375925368776016,-0.10019108721093106,-0.26698288806921794,-0.11691496669197408,0.3821304506013253,0.21343476917063503,0.15932371076577348,0.011534889722903834,0.032657823218567104,0.1530085158792397,0.12779063832502954,0.10749674289826626,0.08388561356631731,0.09657281897403722,-0.16743095978546718,-0.033936693315597774,0.140933127905124,0.2635479977015746,-0.3102618896777286,0.03596327061061853,-0.029452762029396905,-0.07233424727435868,0.017591881244412917,-0.06350584758517765,0.07321664446345619,-0.05590315969204098,0.017923087725774774,-0.022106195031585195,-0.08644675697701457,-0.15130460111522623],[0.00382677192928169,-0.034225677134243404,-0.008011218800694855,0.06461649149871872,0.013420677240834641,-0.14041983572374556,0.0028384488293750677,0.2474714498536107,0.2769865222399192,-0.22816070330495936,-0.09004743343793176,-0.17356632477676748,0.17276009041025256,-0.12457581584485375,-0.11680802708378477,-0.01847337648457904,0.051229098991876686,0.25203948909808027,0.02299800344492708,-0.04713554456187867,-0.00732506005144384,0.22905431779908234,-0.4582292363325899,0.05614350611568974,0.009625101687605683,0.16665539474858082,0.11700042299783334,-0.14306329010422816,-0.0008986257047043624,-0.1338816819122219,0.0932611020339658,-0.05953817360466086,-0.1887264251846182,-0.31617754488579586,0.05632675231734672,0.00995356118253637,0.21785130733015534,-0.023510689432110425,0.24586341407903364,-0.02948385288364947,0.03466876233659321,-0.08589307372477727,-0.10244250290064114,0.2299859519195441,-0.21365823822460905,-0.19232527239306507,0.21628646647350291,-0.07391965172563532,0.25806518927117417,-0.11185638605460613,0.07761405965707063,0.1836034969965062,0.029531069024227127,0.24429123512312995,-0.0067841720779673684,-0.2791988863529916,0.09652175483079943,0.026238528097815177,-0.0275476540598761,-0.03821981098915335,-0.08165674024833143,0.1689118606612369,0.01775022239061134,0.05856219676344557,-0.11744185615985103,-0.06878080225712128,-0.0652168081903623,0.058783853203976895,-0.1833684771456422,0.15418456740488184,0.22219622002982226,0.036827058807365025,-0.19974398883865682,-0.09993333712891143,-0.3198554607869625,-0.052134179486919445,-0.0274120217425388,0.01914206656417104,-0.2820659785945819,-0.11031831106119419,0.12455318579542538],[-0.07203170797061614,-0.3385275401949949,-0.02390969586593034,0.25958800839187046,-0.3355298343241313,0.18429125327685775,0.2672231879147437,-0.030900806070349163,-0.2002128688568285,0.11126084393891383,0.012232897246919573,-0.03959805969404142,0.0023198645692038087,0.14145040574533124,0.1147494492694053,0.09223565829361535,0.15259962809164446,-0.4188288637916972,0.03193939056200517,0.12333965195961932,0.20056489906446773,0.08885288798038625,-0.18096213732561742,-0.03522553866884245,-0.13251996093420462,0.32284611643872796,-0.1879862591821847,-0.023903162153861013,-0.0698975789392259,-0.039437196914384694,0.018580834619751612,-0.1129929148757351,0.01961061291710105,-0.01738635768660544,-0.1354240960041713,-0.004342903174715354,0.07301200105110121,0.025318479038641987,-0.16461598216483642,0.13109669255343095,0.15409806445051955,0.004495874686621728,0.12059114495368084,-0.016033736500111258,-0.14009619258941403,-0.0440350008596757,0.07609790785926833,-0.009120364661924419,-0.0497518715044479,0.05355848708609477,0.09055657065307458,-0.06680227765868958,-0.05959256502190811,-0.025679225814611427,-0.11200400121192923,0.16210895979801146,0.05219257835387927,0.08538005082174509,0.22589738228123651,0.010284321727968764,0.1053531593663409,-0.1088565493096454,-0.22642261847456066,0.05871935388892802,-0.07434858491876513,0.05300864981422318,-0.07943880970924456,0.16078029070611982,-0.16135950802581991,-0.2036884744203784,-0.03446070399043466,-0.00022100153323592131,0.03529938854396907,0.024982037627474037,0.04108047334411616,0.13180603099670743,0.0701035467266675,0.028743973654807,0.031383794902016926,0.05638218705153126,-0.034010001183855075],[0.04777570568981041,0.1346922269275935,-0.017602408652437323,-0.028496593477557106,0.01608927055181018,0.1882727162881396,0.1577571058157388,0.19996978280503405,0.4842189846148452,-0.05003854390741398,-0.020118798999123905,0.01903687262222888,0.04068726930196186,-0.12328579620503907,-0.30608477229002556,-0.11343299572075362,-0.19918345403983798,0.04310128642536984,0.08009763677811614,0.09004393176870244,0.09770110887824306,-0.11218425309438902,-0.1791905073384354,0.15343729220448826,-0.04791872019755163,-0.08264294850901764,0.027774968949790903,-0.07249564359538067,-0.23598156688289437,-0.011396309115234182,0.17660158507536633,0.2106320395322658,0.3417953924299843,-0.002886551791316212,-0.09570242883912543,-0.2122933796230396,0.15339267280036553,-0.09482150753227502,-0.03254122651664534,-0.3698775050741482,0.09637535671712183,-0.06501371104494312,0.07221442413929956,-0.02468916771215736,-0.09279686377966534,0.02392179768017691,0.06747944813007128,0.036285658176431645,0.05900709136703137,-0.035283334647632586,0.11030425829984179,-0.00807269884151374,0.2057940521957614,0.08338612966747459,0.16466340988086653,0.11011433449219293,0.03870412145616651,-0.12134761423859307,-0.01803385552651362,0.06159669976856727,0.053269495141629764,-0.24771507739651494,-0.04287430094130734,0.041020380646869185,0.19519234306409158,-0.029878347540803322,0.0639470699131298,0.09645114088704965,0.023417613106522687,0.2446940005689275,0.3987162571318594,0.048356983332296835,0.05696903947696976,-0.18811215475750703,0.032855786829329124,0.08878481291519111,-0.14375364900407422,-0.02994674553125706,0.28774153850697975,0.014986940629181553,0.03195786674486735],[-0.05224892937315343,0.040454499304074236,0.2900317667072618,0.20199054408594036,-0.25920376321680055,-0.004106969104229053,-0.004360167327523985,-0.2978136876098272,-0.21618799140787878,0.35570523574820967,0.006949136221391399,0.023115484160978635,0.14907373835038487,0.42198100865836013,-0.014303837294919172,-0.0463806913146341,0.2536677182275299,-0.002818862097006696,-0.0528406751833351,-0.1652982883788808,0.041419524266364,0.06943015880128257,-0.008508697619487166,-0.11087533476600489,-0.014451895879573145,0.03517809752149896,-0.020934429871045004,-0.21320744341045614,0.1041178004400358,-0.06785838670073327,0.23873352173213677,-0.08743427234349987,0.05187855063103475,-0.025398884372961308,0.0150093514795388,-0.05859083301553553,0.10501506596099275,0.02606764633726085,0.07629920356196278,0.09255492534340239,0.08028051730550387,0.13889788639981424,-0.0955726682728655,-0.32244776631415606,-0.2070902274919196,-0.025805991154539375,0.045168971287965015,0.21377490910133956,-0.20880980840677052,-0.03989362694804462,-0.05446241894379574,0.3239931708682736,-0.09592552480884654,-0.04873556671706385,-0.03543730112343444,0.06577924189497884,-0.16695940595901954,0.4319835335019336,0.11320460613366157,0.05437462453196665,0.2987661476939132,0.10224101247606132,-0.12480486382166668,-0.18193203649332518,0.32474862102760754,-0.06747980820415399,0.17754855050695442,0.032236464050937275,-0.04431835601315175,0.03140313466297753,0.06828460668442123,0.10233855652752094,0.40059153290472566,-0.14554360744778327,-0.0461074969092522,-0.1346620126790273,-0.22699685184785992,0.07864671806354402,-0.04498949010466209,0.08775741403083383,0.05369787939725381],[-0.03561767304887344,-0.0355063775790421,-0.085107620757276,-0.020129941930443387,-0.10412365010039412,-0.07494449198859103,0.03740649878144861,0.03359802636496615,-0.31777467591854164,-0.27045783154776476,-0.2513267329119536,0.031102356452536395,-0.0691527418490701,-0.16954166176644286,-0.25956684501887345,0.11497822600641411,-0.06382226352335936,-0.04855328752835518,-0.020193869254947552,-0.046219178898125185,0.2904295471914043,0.05229758376129015,-0.1711879655828844,-0.018894716177059137,0.08757228252818784,-0.13849874021272973,-0.14747601382978526,0.04542433133013792,-0.12522062944477447,0.02908527068076449,0.0692144899785976,0.12055751563957431,-0.14825453699127067,-0.08131611421217613,-0.12095354072099682,-0.1067391126740868,0.02940779303062062,-0.07157114032877812,-0.24377456372981818,0.07754740353012292,-0.10790104535355984,0.16434802551593003,0.006308008433922025,-0.07144731374617756,0.1846266790298348,-0.24257642024426299,0.010362950366579752,-0.004983398412447399,-0.17625563155105203,-0.10682952002198566,-0.2395023670166303,-0.07358649829533173,-0.1099687617724974,-0.0515751057660825,-0.051715783092884736,0.15155155036697215,0.10686552736284953,0.10403807938107484,0.16831784725283824,0.05387652809738632,-0.09296571958775607,0.33471187234819705,0.10670124118752454,0.18990825623494478,0.1999030993483679,-0.11779259837538632,0.10230726823835455,0.39433865006371105,-0.08050939785106516,-0.03342385179794213,-0.07348012042975091,0.021453463896415052,0.014324313853233612,-0.052115642811114575,0.010980033085210797,-0.07088755813007024,0.11759543621157344,-0.04754487420529435,-0.16588236012427757,-0.015957376824838332,0.11183467933173746],[0.1862591397470639,-0.16539900229071172,-0.04245219228229183,0.06759554990299127,0.10012086048171706,0.03867226838711168,-0.00022549874388173944,-0.10642887594980927,0.14036310659593784,0.20027542715947225,0.05438420618747778,0.0330316105810406,0.03753686108348135,0.11712874639869543,0.030987502544231518,0.003835807279159062,-0.06540235361882797,-0.02215048376796673,-0.08342529646700367,-0.0819555886307869,-0.10571418011543529,-0.21440219092312696,-0.010754346140258322,-0.17665588487262793,-0.012662689331238952,0.04452296312196839,-0.0583919031452743,0.14997758339935283,0.21985598577759924,0.3005779109574154,0.1596008261527758,0.0320612237252326,-0.06773136947155939,0.007389052529652856,0.19087618618884133,0.15164810479018037,0.12521386471087695,0.21496208073866782,-0.22677851318000636,-0.02566911311763138,-0.46493889925361165,0.16440604980638784,-0.06499939437295744,-0.04893546820421498,0.12093473329479948,-0.010148016359132475,0.09969003885996264,0.11597533853936938,-0.0036525864008529812,0.2374748988668904,-0.010888622425801619,0.05616030863162428,-0.3952337001694337,0.012009552500279144,-0.06287277980053219,0.17600388557544042,0.3347279101284169,-0.03493224254623272,-0.15298479461983525,0.14915165493613816,0.20654796061605776,0.0503813876781558,0.08961134426626083,-0.08497507576222438,-0.1754765554413891,0.07760172451406341,-0.06932093817371097,-0.25982159638381014,-0.040092122963323505,-0.02515605777152931,0.12782208314637108,-0.04017086489313773,-0.2561188454043903,-0.22051141874868696,-0.009111297861847691,0.022588684735215442,-0.09211740641627943,0.052085026662817405,-0.027224626687972563,-0.15714799982918212,0.25179333238562246],[-0.09919538266272493,0.03950072598476173,0.032863421913227074,-0.015787132371640884,-0.11952678604463857,0.22571708515945235,-0.09350825115521075,0.03939919650864872,0.05986892589604933,0.012647972382479424,0.006870419942920135,-0.09945956872659707,0.06918504417910322,-0.12266528615751245,0.10744174571694469,0.1501557442713373,0.09325594906525396,0.14437983618138933,0.07143239594512259,-0.14986041511347448,0.02529513158909966,-0.08799764165755979,-0.12572767436868118,-0.07364436617138635,-0.18726024329595728,-0.0557882721650577,0.12353950846972403,0.007447459007198973,-0.058218593330090954,-0.0052537914765050505,0.436293099240887,-0.16493427375819447,-0.14919483699258904,-0.03691552497680183,-0.09807726840452367,0.014228581690743274,-0.15199784768937993,-0.11702429441710431,-0.2100785959313022,-0.05992298039734337,-0.035981881690273554,0.008628406895083299,-0.06245608312843212,0.16141312452803386,-0.026897467450546345,-0.059534602204805165,-0.04772988339615138,-0.18908906586182136,-0.051131854065470064,0.14090656395064838,-0.01561768392326303,-0.021455614761776997,0.059505217724776724,0.05549614934611377,-0.20030001920148469,-0.034140973629441594,0.23072191017290875,-0.05759285815828683,0.09362966881553667,-0.22612699760325647,0.17346176967661334,-0.11651786923161805,-0.28373065050975405,-0.011111631815762212,0.2033840016936083,-0.325052620644964,0.26511824915258697,-0.09960960381176799,0.08451490762666565,-0.016270544408165836,-0.12442314771526533,-0.02238626864639504,0.41832005352255064,-0.026276087560285502,-0.10257579220015968,0.11171722008455653,0.026325824146370146,0.19876770090073898,-0.17285662786265002,0.23594701561320597,-0.2542630663255847],[-0.24063809291478475,0.15621481479797525,0.0750135967570065,0.049113141054624936,0.08358657983055731,0.08340214603939296,0.1020395944779381,0.5187652518871583,0.013819454820665926,-0.03773137900528861,-0.0905577442695583,-0.16687918646931882,0.15303795677620127,-0.022781811532016704,0.05464298804421208,0.04158168208473886,0.046970369830897585,-0.11952226374750131,-0.01995787903519912,0.009975229825448934,-0.2248986902166627,-0.029607070556917404,0.20747425138315645,-0.08984902067081564,0.04085182982024632,0.03359259123719295,-0.013324181528812783,0.01432878507556552,0.27603382242491964,0.3722957801830105,0.01354742590742109,-0.05119223534084722,-0.08638461806243701,-0.10488693751773721,0.03952249247397687,-0.012289204164430932,0.09027854539819886,0.14955839936252538,-0.10439941582237512,-0.11225164362895848,-0.05645098471150471,-0.1707144765407144,-0.12071090253121602,-0.0015170159209761415,0.03415481981347001,0.07594232960016466,-0.04733565196920105,-0.05255346547638962,-0.28718831952012475,0.03740975230458697,0.11066737048849752,0.11235753789807332,0.07742307602627276,-0.2104465883241511,0.10449326115133514,-0.006239724152117566,-0.012111817405710006,-0.28766994152423425,0.012427238544073174,-0.1439583482123243,-0.07170426180797579,-0.1152424676810022,0.033755523663868,0.009008731888262678,-0.23432216862878383,0.01619841272776809,0.13242996498482595,0.061025280808784395,-0.12952006291054532,-0.21406926486852132,-0.1639914657004343,-0.40309474062030937,-0.1474453880476225,-0.06618314561435401,-0.05936426817778884,-0.06945161063230303,-0.09049808317392932,0.04935954781613338,0.048810390959616215,-0.17709862573836782,0.27770962501934016],[0.027946056714476537,-0.0021688754088992476,-0.011598290320754262,0.053675409268890056,0.0816696344669988,0.08293825156934724,-0.03222267910691011,0.011936512016963444,0.10101176040941601,-0.1636375583963374,0.0025166278589154275,0.17245338458165674,0.009898564073266771,0.06452337021924666,-0.3124391452859893,-0.06516098031272274,0.018606146709570576,0.026512086918742205,-0.01803553927918067,0.19345029083699306,-0.05980649652793599,-0.12396867370329774,0.170189939879506,0.13406035177315037,-0.1829631066804878,0.10703928354494788,-0.0190107246899841,0.09457133432583363,0.08427456729581832,0.0279062855893048,-0.19332850673578364,0.04036596304611402,-0.02659145934738663,0.06444893522126457,0.02425173609112171,-0.11923887788106145,0.09869738643049013,0.04671404648208528,-0.005387414345816304,-0.05647003996159431,-0.07174938367088446,-0.09311081159072164,-0.14084988599020667,-0.030825301202221468,0.040247777067415495,-0.09854887680011871,0.07069612397723006,-0.11948047142395556,0.07549673321926254,0.3664824700092439,-0.10159526068516722,-0.01674536594646615,-0.08426849006371931,-0.08345757652145432,-0.04998182392012316,0.007503341466393925,0.004081236159526797,0.1064517515187982,0.07646315221716343,-0.039067707886940584,0.016296946068372,0.03035598579866837,-0.30210808201691003,-0.07881666279391975,-0.013051044903048275,0.12432381182732578,-0.10211703591008245,0.357214196111973,-0.1966188674705298,0.036557603405086285,0.08294387860360539,0.23474111382431598,-0.15361547644620663,0.16107383910547782,0.19013158490127738,-0.06583642253400826,0.07741151443,0.016976899178737237,0.03282615033127784,-0.05062065071677481,-0.11031637946146862],[0.01859605491091656,-0.15911044822299067,0.016306750473117585,0.06872765145645027,0.03337582519455208,0.0772952769785318,-0.02924296202458215,0.11771321047049968,-0.03679223928140592,-0.10904389956430632,-0.17408390184608313,0.03175480737994768,0.04630634830622951,-0.390431264376948,0.36003887164937537,0.09902620749775008,-0.19275349926856372,-0.007306961600313677,-0.08979828081196319,-0.08510516405393603,0.19886110638797416,-0.03477131098367294,-0.13192505585964534,-0.19627221410325546,-0.02715847409288684,0.25033321786713386,0.1320096034586554,0.08001734856003624,0.09157398610445978,-0.14683515227399171,-0.18111501039583572,0.32860649805426617,-0.040959246910097356,-0.05335437678103776,-0.019888881351770277,-0.03868118672410745,-0.07478980169262696,0.10116762927847579,-0.0714403442761481,-0.14422527653118528,-0.21966854909818928,0.17432435339879454,-0.08839460730197327,-0.09485508247506705,0.04030949568905372,0.009272592261777778,-0.2813501146732163,-0.016582777943735014,0.09165002369860156,0.008112637526051177,-0.029840122543026027,0.07456763978725897,-0.1639152665371652,-0.06412711101942946,-0.2799797797835883,0.02995142416904754,-0.10155699985559334,0.1425210359122652,0.12148144835085455,-0.11356879289559578,-0.05817995326910911,0.047067710514813524,-0.005202476202263481,0.11830233927667395,-0.009697089921830314,-0.040488862075077056,0.11695250146846109,-0.09714856198267258,0.11267448159421928,0.44898956257325917,0.029759603637527957,0.1156440373878347,-0.10767571747252462,0.2398129498419645,-0.05536238591050101,0.16520236787939668,0.10136664833414384,-0.08968049120254827,0.040637456269461046,0.09994059969959923,0.2611549491695738],[0.19532178906206404,0.08484554939106612,-0.08314135570136769,0.06719824368303805,-0.07721727270507825,0.2874631970451619,-0.031015557840541268,0.028739936159675548,0.006115932931152591,0.03745129749517015,-0.07581370555472769,0.04813951184877252,-0.13447234091621812,0.3841901195213088,-0.06036826688173928,-0.0663513808478686,0.16280612087443377,0.04307491348681371,-0.11446861246901649,-0.054163724928326176,0.09481437870784376,-0.07805687336428148,-0.14255877440503342,0.1079415192057745,-0.04728599945720694,0.23805194535466226,-0.3078968859905709,-0.24984271073534306,-0.014501383766653827,0.10494798934738708,0.1413897684792581,0.023476127730036937,-0.0827154087431142,-0.13000617897038422,0.028810421226022807,0.0027023878215258535,0.09419572967087657,0.25664138473882964,0.04754724667624575,0.032524468806183336,0.07421823468086822,0.1883126249231559,-0.037979085722868,-0.07658513755261229,0.06138202600388035,-0.02971215261644746,-0.14706416747789433,0.07003157921184398,-0.005441443641003732,-0.08464495712813516,0.34501531110909506,-0.00006770058113183415,-0.07838580174477412,-0.11354777247945183,-0.01166898331075516,0.12496594825991492,-0.12283264590910666,-0.18996628586769765,-0.1426397121997293,-0.025879195994457895,0.04562425912206845,0.14981337009406687,0.04573298193299379,-0.08297094899369721,-0.016328141483076864,-0.12441962069147589,-0.29379150470282006,0.13015442266612554,0.09022081119848593,-0.17403215246298948,-0.06996897120951577,-0.08411108605405529,0.1563517897075559,-0.2190057779938815,0.05580583576572914,0.0561460233015885,0.0022897255520641915,0.13805563220694936,0.029433070525253534,-0.00974629474399623,0.01370380570038513],[-0.09890250138249929,0.015669648189692294,-0.0033010250344488244,0.023003178701296943,0.024783253202266042,0.05229071926136555,0.06174381564081581,0.04164656026279708,-0.02028511402791602,0.1149290657550255,0.03865306456689407,-0.2553166871559508,0.015610275397286292,0.25573663612743197,0.07070288178550074,0.12616959416068138,-0.05425648261849864,0.21416141648861725,0.1007065955046175,0.08270361988616726,0.19775867700835523,0.037324577003081214,0.1260622120422321,-0.07218854167947625,-0.21551258099740195,-0.09113852106422063,-0.06443696504131924,-0.09808180830986116,0.08426157235645036,0.01977981969745124,0.07286214218870897,0.03432646189094939,0.25989341463077786,0.06949885548720683,-0.056938619095680064,-0.04415999370598551,0.011122403269251799,-0.018439399651202854,-0.1644683324257283,-0.13207311632456875,0.13271669326300864,-0.17600586810475255,0.14081286892889935,0.23597495953720818,0.2430612482869368,-0.40001642779024416,-0.08339207300386937,0.032608671042116455,-0.10565470462664153,-0.09876223820956795,0.17768630693699616,0.12997598030427726,0.04834098209233411,-0.31113545133738607,0.05231141685931615,-0.08713955381660911,0.10064085608867028,0.049533467166071016,-0.3004183884894643,0.19578987928919128,0.14051005472625708,0.045610542186008636,0.14115837783824434,0.03294096936833271,0.4242156335533349,-0.00432047244036914,-0.17833254377271435,0.2005745765200655,0.07200118248371698,-0.33052968704118435,-0.17464815417361795,-0.19644634337869737,0.0667243637280248,0.06797262129386802,0.24859567072615968,-0.1612349223093665,-0.3683089730105718,-0.09012201485660426,0.1592304148274584,-0.05448397352510234,0.12201326924123489],[0.10650126229589997,0.057833493793804924,-0.0610166527975999,-0.020968016081695382,0.10294818332265389,0.18308594418046611,0.013930774296318709,-0.014205053861970723,0.0759799814725944,0.18085949997650724,-0.07939107509218454,-0.02063156278830809,-0.15892037077921012,0.04599279140200105,-0.0028280643137417035,-0.10922113642327495,0.18720672975199815,0.025782114480179547,0.058474206891941195,-0.08805115835357988,-0.1724398647396259,0.04568459374466303,-0.007220859434075244,-0.018200224924896816,0.08795293015385956,-0.0037945157440063553,-0.258115972216813,-0.2099765651664619,0.051770214312254016,0.07653362426882415,-0.125401502997329,0.011019515284006545,0.27821750025955144,-0.015187071710251732,0.08414511189688416,-0.02989475166504228,-0.08849492962349238,0.01927022260751185,-0.19101432406898086,-0.1353188686180528,-0.06584765425885376,0.18775086027428603,-0.09359610751650844,0.005342334423409385,0.29264752983469444,-0.011841278913658155,-0.27912043432756095,0.0654209919424198,-0.019166119578457274,-0.04493105027505791,0.12132938003145569,0.13131699468790758,-0.1798251505697261,-0.02454735683361132,0.014305599554693852,0.1978322547156679,0.18056888121369827,-0.19387850126884423,0.11403180978971696,0.06995410834695195,-0.11478428698228597,-0.006844417570369364,-0.05998932601742129,0.03316661310816114,