{"biasesHidden":[0,0,0,0,0,0,0,0,0,0,0,0,0,0,0,0,0,0,0,0,0,0,0,0,0,0,0,0,0,0,0,0,0,0,0,0,0,0,0,0,0,0,0,0,0,0,0,0,0,0,0,0,0,0,0,0,0,0,0,0,0,0,0,0,0,0,0,0,0,0,0,0,0,0,0,0,0,0,0,0,0,0,0,0,0,0,0,0,0,0,0,0,0,0,0,0],"biasesOutput":[0,0,0,0,0,0,0,0,0],"hiddenSize":96,"inputSize":81,"outputSize":9,"weightsHiddenOutput":[[0.19600187303345487,0.16011688198339144,0.1795609504616406,-0.15632652980774006,-0.08735022264513363,-0.033241402759366705,-0.017506563598129854,-0.09320470533898684,-0.017472149438439534,0.10813821641094216,0.08221646792166169,0.22576976213202593,-0.020010329206055156,-0.04342002308079908,0.015145186091433328,-0.11705165458381897,-0.061082717774392246,-0.292110878708993,0.018424514253497126,-0.33881771086674145,-0.22441442989966282,-0.15441210238402908,-0.007545392459469729,-0.012979083569371568,-0.13514309491823165,-0.238923444845636,-0.13399387058545026,-0.011477634616731536,-0.025614573284064825,0.28631958623096565,0.030606159522230683,-0.16682288521331676,-0.2130458828229621,-0.09408321991590037,0.4038655807596061,0.04992336181946946,0.06461375901678262,-0.05943203103955692,0.02446665724069251,0.15708487367867627,-0.01991487659355566,-0.12244492253909754,0.08307069278983771,-0.05661505132111163,0.15427954595027288,0.11280591382840538,-0.20452815944940855,0.24909544612782378,0.0440909959916504,0.009192150999058873,0.1285923194339264,-0.018124208865658877,-0.31530527646249445,-0.1565183461531005,-0.17881667498528336,0.30522925641483795,-0.014530583573299165,0.0778741486512703,-0.2533865033817061,-0.03165416422003474,-0.011301099241177419,-0.07702913089870062,-0.0020545648294754294,0.10608947379119471,0.1656106145937052,-0.10381851594506031,0.0022357028366966725,0.07036502357060517,-0.060803133092180064,-0.13608021849278654,0.15173908649059503,-0.19256979920829134,0.2156187591891834,-0.0934060167498328,-0.14901282481246125,0.12687764594824216,0.1466622435604479,0.031041924301052636,0.053447068750092266,0.05921164675339272,0.02921702478568742,-0.01587540927075539,0.06703014373540851,-0.3807139389614594,0.09256429402611537,0.3372552307483643,-0.08983897773228672,0.058602531268422235,-0.08644675157893769,-0.15570774468906565,0.39231776723169126,-0.02566606678671252,0.16857394846640167,-0.08696863513228843,0.14438089595737777,-0.2715481189426104],[-0.2467912681693211,0.023385379140881377,-0.019266999630381,-0.08720270547035229,-0.19863646545313648,0.007205595150567955,-0.10930989708763791,-0.10995979140058532,0.09449538953915218,-0.03302405279973459,0.052837207731193735,-0.06410674521518045,0.2536421971240365,-0.045245695202603325,-0.0769072692188944,0.07751695649331801,-0.17416909788484003,0.17991014186454315,0.02202865845812674,0.21431466241037944,-0.3592909147895741,-0.051901885317961284,-0.09410810204797854,0.12363503468332054,0.14771788050881912,-0.028710684806952883,-0.03454880804227433,0.11229111164571313,-0.38202535495236534,0.19020081967353544,0.060503384021816355,0.0318085721873979,-0.08499881754066238,0.11565155651291606,-0.26716044254702886,0.04977688493769781,0.09616798536783487,-0.13381747918308748,-0.12617524486921639,-0.013174178350160508,-0.028318032891904595,0.0046853941911553605,-0.31741468259507205,-0.2895691048508061,-0.12825753572404291,0.09570691122499836,0.10139240439578863,0.014846861518408467,-0.21607784245410158,-0.11790019838807743,-0.051600018800143393,-0.04118133040289651,0.15062564548902854,0.19256323220591295,0.09192860943783034,0.2996785479778057,0.09219287534574114,-0.005757822057058978,-0.07477461626467886,-0.19867483030538563,0.4378214906150055,-0.2513219466880508,0.2847280494752436,0.07796139178139715,0.18655716348392073,-0.20405759413327532,0.058614729980958555,0.05001968347234528,0.06185529130729225,0.12562115370147373,-0.03762436745271699,0.09009693628315543,-0.3372391259882371,-0.09898138293383225,0.026150259531042105,-0.03505182043408788,-0.21239200349021994,-0.12942715020096193,0.25126630373865294,-0.08339910440221135,0.13490228318456374,-0.04661717415884974,-0.059398321941749994,0.08257175759390545,-0.31896470201685306,-0.2399543510178107,-0.0076683034342272995,0.028403318847278692,0.13519347968932605,0.09035730237544533,-0.20379834809788386,-0.33283118965014125,-0.03857957710056007,-0.06036549623362795,-0.009843157337642875,0.0779338383696603],[0.06825718123740722,0.12929846837333447,-0.015737535703634405,0.06442138607475918,-0.0010163780929866614,0.07280832126311172,0.10294504722611549,-0.24109872491032597,0.01808126333292571,0.07380825057324529,-0.11383325475403235,-0.0532490376456585,0.04074901081686208,0.042059265047589195,0.1845622715115442,-0.11374611248832596,-0.015516447591356569,0.13191645253831918,-0.09185540928401406,-0.046468092909056076,-0.022837251003191218,-0.21819100355636034,0.09883790580505344,-0.0907807562745205,-0.26216292872412145,0.1064598494016204,-0.37237457539273855,0.03142379644663481,0.1398947103744979,-0.039053686196870115,-0.3004593230687734,-0.08152220421416156,-0.028030073252488862,-0.12866444542499855,0.13056992041075982,-0.0982932643229777,0.2026656159842006,0.3077055584454081,-0.14959030349683214,0.05102151259733548,-0.022319615482520833,-0.023489595910828817,0.24538694157681898,-0.11454499651818052,0.20465910706871826,0.2397371858746898,-0.22395316557692166,0.17947046374688563,0.1351394124382527,0.1550848513229925,-0.3227664451253284,-0.35527013716575007,-0.03271859471253542,-0.19513489874840176,-0.0320530355537301,-0.20158561720053697,0.05594893915467075,-0.3197996981320053,-0.03498056905296563,-0.01967650060554703,-0.1598291017781714,-0.10613567086306004,0.06588124843228911,0.30570783716963784,0.18739861573325312,-0.0035482327937810592,-0.11376038223599673,-0.020107013287282205,-0.040163565511672744,0.11297885222680094,0.28721792007848995,-0.03643281008715024,-0.06904780017989554,0.12008820992731602,-0.1394839261932913,0.01873716636908777,0.13589473670246713,-0.10980972665443849,-0.05081919245271124,0.10010232963696694,-0.03148562437684266,0.20008091882459947,-0.04897579885720167,-0.07435343979610108,-0.028792540643678362,-0.2918673762879001,-0.045792222283876395,-0.09912706931134468,0.08358495570631508,-0.03918322915387887,0.14606581895287735,0.3647540407566377,0.01947404004166123,-0.05074744705760188,0.18722610549033003,0.22279145108314488],[0.04551599442072565,0.0469177953483546,-0.06390383294031599,-0.16743460525724352,-0.014832738041959174,0.06093212589843562,-0.10574847297442912,0.04999329170520982,-0.23429623150633727,0.11201142489667942,-0.0850974335136675,0.1773883243453577,-0.10319635660777585,-0.176454138759405,-0.26698770382813053,-0.0042310991074394864,-0.08012968329820379,-0.0698477599980364,0.0013680556649374464,-0.20068237945077919,-0.0037276003315667213,0.25928560865665295,0.010911295755126687,-0.011218172515182213,-0.016271124845641294,0.055796800502110465,0.05990775040869819,-0.11129103416271789,-0.09010671844556122,0.0063605740632181095,0.11902407585083213,0.15711667849877575,0.1405256778556911,-0.2786249893301522,0.0015213005270199582,0.02757791183960637,0.2918537943854446,0.2083850908315045,0.2544094812256873,0.11595205232011438,-0.0942046430788587,0.0584156355818223,0.08122032123178835,-0.028514681125559025,0.08352787012821404,-0.026764189002216006,-0.2032381028996274,0.017048116018673332,-0.1083107270911989,-0.09335888304014343,-0.026581299004302523,0.12882608188425237,0.048823280279473025,0.452606761824863,-0.04375500879755555,-0.1721134191274668,-0.028076589276451798,0.24354914917114162,-0.12443983470676077,-0.13932123794248807,0.042678957113601854,0.0972115238228552,-0.2389204499238812,0.19795639407280732,0.12312001116490026,0.003082219973612502,-0.050116047131568475,0.20700692828751122,-0.08169404559747323,-0.11875944735812455,0.1336364208612853,-0.17002248604891054,0.025906818401188865,-0.049613120204321765,0.06556527803603332,-0.20797328519072836,0.21212986024102531,-0.0827317188629699,0.2640845710654779,0.1377313482433874,0.11997532572975889,-0.019886139975499536,-0.2643002361519221,-0.1345138037112479,0.13715410857606397,0.2245394336980275,-0.1619763528720817,0.0936376810355377,-0.1656811789613133,0.10178668601648842,-0.014542107821644992,0.16092143722447141,0.20515461301341875,0.0734006439363279,0.09970400640825804,0.05876105167227924],[-0.18734526724452344,0.012834976875330814,0.14091653213476507,-0.023103943614598884,0.045862824378668295,0.1519806612682343,-0.10260008945605545,0.13494686413295065,-0.09407870888081497,0.01581836908096584,-0.25313570921588396,0.04849971946176489,0.0007455329743217748,-0.028048537902808868,-0.3266835626917971,-0.08635076745163131,-0.03983495005208082,0.06820010978478325,0.03801711051562883,-0.11628377890936056,0.041811082440291004,0.10402238461702205,-0.05682182695731581,0.09282921582369263,0.028810588085939583,-0.10407518620886581,-0.29437195172924596,-0.034311562973532925,0.18472659194450472,-0.03390010965920267,-0.2600646693549195,0.253060368561654,0.31048001286203747,-0.05544573956674271,-0.22803675695976958,0.08558720751912727,0.08492911315122541,0.12281324725984472,0.08794658787068312,0.049079916008970305,0.04961037901752746,-0.02902445505987799,-0.08225643259292162,-0.3326212754323636,-0.11765308429625637,-0.09971682466946773,-0.32077896641013487,0.03309043483419496,0.24759851859736504,0.023440980676311746,0.3803617461165069,-0.010213406336794018,0.1260795767602914,-0.3067246521005733,0.033015999726593685,0.09382766642835459,0.22277836744861032,-0.04251329088908796,-0.21382587948142676,0.004109460553972881,-0.1336959495420474,-0.26297301322340294,-0.035924988813615576,-0.0008988490211977798,-0.04791977400592009,0.06033222845866425,-0.010614291895984165,0.184156871923524,-0.03408047360717016,0.17252907435595313,-0.09080441545646503,0.12378554446232698,-0.3725855951542559,-0.07690836659032868,-0.03172957442963834,0.12975417392339633,0.12879516581874736,0.14134565866016327,-0.12076194896481399,-0.0003729858801647866,-0.1782833476502511,0.23623245736400583,0.058217266529553995,-0.11157711743624907,0.025780517522717317,-0.08607868163132873,0.08123317889148994,0.03198646639545876,-0.1504374682131689,-0.105911474010226,0.11883431682520379,-0.4772029798651497,-0.11904380151766557,-0.09549592802374741,0.09235450184039912,-0.00988235733928989],[-0.029096064448938013,0.09182814550676104,-0.1370748698041165,0.035790807841390104,-0.09626369487011929,-0.4049797461922765,0.09513647608270379,-0.18346271683430934,-0.022806248824806127,-0.12287394711013636,0.05403786374639629,0.03003702268094791,-0.05818420616265277,-0.4356467866855216,0.05316273899564316,-0.1317293658785582,0.03382561812854748,0.1381679038125781,0.1716056216539598,-0.16574902426389776,-0.061887466930681305,-0.0821712634863595,-0.32695252698618227,-0.026759712904550485,-0.061363870111975104,0.29083794620179537,0.07029020187990981,0.07570006055065003,-0.12173123867367454,-0.15612503831837568,-0.08116630744341327,0.027667042595024772,0.11043907480328603,0.16017201425008645,0.086736917494514,-0.15776249699205452,-0.2490508731573842,0.10734096568432622,-0.18876720164693764,0.5580260838817093,-0.26951935436000024,-0.16302809735606508,-0.27971013461855976,-0.027156096037268554,-0.0007787212850144967,-0.37725560077051107,-0.04001219237361662,0.014746947056349737,0.008764269058380472,0.5714390470786166,0.4223354268553254,-0.01355920316639896,0.3166049199756431,-0.22594439949126355,0.0746849572918107,0.30982364719349387,0.005692054927647777,-0.023366828627575078,-0.3038113265924823,-0.15404975815994068,-0.004217428710439446,0.0959851878031496,0.07165523130127899,-0.06242556670259438,0.18014185884658565,-0.07352570541694886,0.0021727349262093483,-0.33517692014871087,0.5248227672135952,-0.01810161252582191,-0.02785254293527087,0.16830663412001212,0.14385722284527525,-0.07453349202155707,0.13770403819985702,0.374914314338446,0.24596453324520207,-0.14822663007545403,-0.2585275206858634,-0.1778402268034375,-0.07210297765046436,-0.05569906318417389,-0.4107845964943033,0.04224330037158162,-0.0060590928364181095,-0.045263984646431825,0.025867413651751433,-0.11771245509841073,-0.03376121264833129,-0.10413520074030372,0.12826422599207482,0.23502971099771794,0.13844746924456125,-0.044203739629800454,0.09143010769280598,-0.03228677555753427],[0.0951892103516502,0.018366310801534013,0.11791952826813014,-0.05325936961547305,0.30615337151892386,-0.08126401581944068,0.11386327563749604,0.064036025185654,-0.09886743517350004,0.17123560231125218,-0.010092681304924295,0.18556680193759761,0.049102015216903994,0.12402277707851014,0.06924888952372907,-0.11922652944827776,0.17218504191299516,-0.059166527199630295,-0.1073102575292337,0.06275807438467576,0.2205680620157035,-0.2094305117653181,0.08688320645614057,0.19506254362089523,-0.22030186949103114,0.024719129157124205,0.4632625669434196,-0.01818408207224521,0.14246422346496898,-0.11751749667582274,0.09752613162857103,-0.04973111165492849,-0.02320928021286919,-0.19741502935620273,-0.31949036463158315,0.2489336306457128,0.08135141691237625,-0.2759449867805015,0.03777167794902868,-0.07032771933762622,-0.2511902031163437,-0.039855184719531075,0.24048355794442813,0.1674488779844995,0.19226350874917209,0.19090343858175787,0.10038630338645808,0.2972036465816926,-0.06431234830879086,-0.13553175199015227,-0.12798263255872824,0.10558806758612602,0.1332633898332991,0.004933978864310191,0.1458352036895061,0.2227566300695751,-0.009146271625217793,0.03353826382047025,-0.16089204024446663,-0.24662139905193406,0.006723812448895538,0.13571629343668917,0.16131319232499988,-0.39384866830001436,-0.24273559954687798,0.04195145717297516,-0.13360530613960678,-0.05618552638206122,-0.007325462716736416,0.021420907012205295,0.34812029172530123,0.034754339386956566,0.06983668040971622,0.12862658647114414,0.1728686129740197,-0.0016763562956664967,0.12208736010688276,0.11971971533741514,-0.14177065768174985,-0.14016620763461515,-0.01999722674208191,-0.03938108702163601,0.15095056550829766,0.09307344392245512,-0.1280086336943951,0.2280180387008457,0.08833031907681728,0.27725588635067744,-0.09512779226735943,0.06837464401087612,0.2387925864016084,-0.16387098263328723,0.028391473690157435,0.10514869824365995,-0.1476550701402879,0.18884835131557562],[0.13573837566840047,-0.18553264796234148,-0.11751693764776168,0.33636646121776215,-0.12675177274777377,-0.020456534855853144,0.013345163872248277,0.2013598552443594,-0.42561500329522284,-0.02212873652248956,-0.03474642069555905,-0.053305461521571416,0.13630579959683964,0.21866781396751486,0.20630904172947434,-0.09806239721026143,-0.09009966712949799,-0.06137423287981664,-0.0019761716751130884,0.002476533347857804,-0.10786935429616823,-0.020772994677225872,-0.02573848701079863,0.3269240239161311,0.2257211636506449,0.10467012346836665,0.26227894416013114,-0.059551102435942624,0.11738810404895964,0.24303643033460987,-0.10665242792862296,-0.1688113998759249,0.06172757805867133,0.05150719075514551,-0.07177469978568547,-0.036893346569261964,0.266901660680396,-0.009096478807506907,0.0058544229931072845,-0.015975798429224995,0.08574180385383542,-0.06586758367029535,0.038132968334014514,0.08286852009087692,0.1009975056804522,0.10864369932417688,0.07652836677944033,-0.18790767960522414,-0.11122776399861144,-0.06550499345992718,0.16842860908323284,0.2536667252825776,-0.03449453261122232,0.000412710563983323,0.2530590409989871,-0.225973383284294,0.13624154464583396,-0.07929522388538152,-0.30723478107003177,-0.14355643673465465,-0.09674193623979664,0.0060049516859121905,0.1449348207277055,0.07505069517310213,-0.4431818352639553,-0.06755839396237924,0.011857990574958451,0.15825182446463895,0.18885925491568575,-0.12861531096784937,0.14537897972969896,-0.4162846499478485,0.0803121358449257,-0.1573846153342119,-0.0010348891610716423,0.09178164461088488,-0.2709119254003861,-0.17686842363337996,0.27289756235920365,0.17487076423779654,-0.04874059537014295,0.12887135612154918,-0.2296207232370917,0.04715153382832801,-0.2874207050659157,0.004652152790411559,0.2166134672371532,-0.12113687306330592,-0.11703171731783475,-0.0052898279162700325,0.0404832997230538,0.09854294617083204,-0.15019727133720032,-0.055828605956156914,0.19903615937697197,-0.04675575950338448],[-0.07061160361608092,0.010252725131915361,-0.1620731296891643,-0.30053797813223293,0.036705777464507795,0.2556559335404297,0.21013839080855515,0.06647423195041449,0.07665092788880794,-0.64068266544815,0.015253604272856255,0.03505236249003585,-0.23101179040179443,-0.09243217262972342,-0.06924712863659505,-0.0828033179430937,-0.15093574185400607,-0.07131395235144068,-0.12032787883817372,0.24921051051147813,0.016408963958264813,0.0018182331761368762,0.12801192710471065,-0.22459117155790162,0.2427606201348547,0.05924758473466352,-0.19768434764637086,0.2742411277952151,-0.10585188378619667,-0.04513261199987377,-0.062291067703517354,0.12371639683115007,-0.06303102412727989,-0.08739841113906675,0.13519350076894046,-0.2538222013436584,-0.007506280616328069,-0.0157269982039186,-0.1221163956932235,-0.3940843118495763,-0.13068610092151253,0.07686713769522108,0.0790551235311704,0.07857297024471907,-0.19216439305654434,-0.03550494077213632,0.0770479600101343,0.04283163125526738,0.24422965493751755,0.03190376715644686,-0.2463474645904056,-0.051811809218371925,-0.3466988911032776,0.10411866829846222,0.15114094494347083,-0.1716624387051581,-0.03310177161088051,-0.06953663061066331,0.22682871330292237,0.07961553044282964,-0.09709967774351976,0.04182796719473303,0.18326957495657212,-0.02778303767970174,0.11508074216939349,-0.004572232366110992,0.004322829928566063,0.1730404816700189,0.06230155860070284,-0.10842435291154193,0.045921975809577235,0.10941384225853165,0.16173029998070543,0.06916193425212781,-0.18394493530105652,-0.0456047006237245,-0.08298578436988865,-0.01941410607571,0.27829524750208773,0.1804053970887985,0.22042943472579693,-0.036597515717706114,0.20788528407114387,-0.016869669630964774,-0.07276698366743967,-0.30430829166512674,0.17848623393637653,-0.22412414303114384,0.08087080279641594,0.19851269333922483,0.04266938492366946,-0.2019264180165399,0.1917549372586593,-0.03789332222344223,0.05209111068101834,0.1257567437987735]],"weightsInputHidden":[[0.11233258038622386,-0.03445591247608375,-0.034938004805138395,-0.029967721557430767,0.020681830039396533,0.18485695664669838,-0.25922591118945704,0.07898301438433744,0.02834380312619656,0.15436963289945274,0.207092919670052,0.17375284809785455,0.12785819415683605,-0.023131885699665962,-0.0855267718259802,0.10035742322001695,0.058987602618324204,0.16573191536237145,0.05356466014017614,-0.08542817147349482,-0.09646043020330443,0.05018879840682718,-0.19850793252971166,-0.3504242862658038,-0.06370374977115907,-0.3256442025842406,0.3312021134416886,0.2183747179160317,0.1456276059833734,-0.07969298529287111,-0.39491353239072763,-0.39742642073366635,0.028891137911899623,-0.05098638132414672,0.32106048520074576,0.07763054406226538,-0.023730311381274058,0.03578577980927207,0.17387480195799437,0.02702102535057964,-0.07391794439037566,0.015247212656192157,-0.02804399953593443,-0.40068691863281847,0.07167851502162458,-0.18032300969317153,-0.08521946921156781,0.0855676583910688,0.34311036551708557,0.1572986724649306,0.147864929367176,-0.011032915790021252,-0.2309790509009242,-0.21917571753045306,0.05678281961909873,0.15466291633187026,-0.06756428045233769,0.4857180762058148,-0.026973120803034198,0.2461022242883067,-0.03346444928563065,-0.20671550865594873,0.30096904716072,0.061163129203439866,-0.23854869791737265,0.24216217591347472,0.03358529975432071,0.016429541978341417,-0.12793667290339816,-0.07154562754008979,-0.18545339929338447,-0.04746586347172573,-0.06712189966226795,-0.061014372478163825,0.14083578951589773,0.12284741616964258,-0.02035109241065494,0.24317267296624862,-0.09738586857212463,-0.13899996239777332,-0.25789443405993107],[-0.01765506017409542,-0.36080678131184096,0.03351662787954653,-0.2006231065574846,0.05352369161363377,-0.19465978776167298,-0.21232557080082598,0.43723336032631116,-0.2594882315140525,0.17370212684095934,0.06120719459812753,-0.2008762227666838,-0.17761827599399743,0.4352604529093768,0.3721624266832054,0.08249609039821953,-0.23126969458340857,-0.12441483888475388,0.17884378239391535,0.18306947263156012,0.19629708194981565,-0.03536810881601419,-0.2818135445235703,0.022321046936044763,0.07169652038354093,-0.3079601724485749,0.0983401588630843,0.018409675036906027,-0.06014568419794765,-0.3633070490389896,-0.16887341987263146,0.10080007542555836,0.1302234334927701,-0.29036275390349614,0.2294443545135566,0.09960229234948266,-0.06446807775944588,-0.06293843747623724,0.006278825924768333,-0.33660970149172914,-0.2897368457446129,-0.24953413899505214,0.23056813302080334,0.005979348858790978,-0.12451001694539438,-0.14697670312575772,0.11063603972955065,-0.2458338240034718,-0.09740965200216062,-0.11607918617089652,-0.07819459196976179,0.20627229285937476,0.24135708447671,0.03932466419448982,-0.03248192906981009,-0.13066282655907513,0.16246616171420514,0.02289115934562863,-0.05492452738637699,-0.04452870156103175,-0.3080913361725583,0.2273169470862646,0.013712287488966737,-0.10730350701040124,-0.09797776133711864,0.04696371507604295,0.11162749035540065,0.0386555389057966,-0.07323442865834422,0.3167269442119067,0.08714423401870565,0.08268072865506701,0.09290993409932205,0.02941675343780261,0.31262156633751836,0.04595023296911936,-0.023963546803833658,-0.08735683984653587,0.1667048052507949,0.0022852497298773444,0.11493833680559325],[-0.09263286406801248,0.05202502831834432,-0.17698886953173162,0.07845062733907994,-0.015445545534721824,-0.10592855579421105,0.05382068272323586,-0.06754904956160401,-0.05007342561951815,0.12955212002729447,-0.02598380695635915,-0.07336987493579124,-0.0382532484853787,0.22836052866344353,-0.12111388839234509,0.03149035285944603,0.33477876867022227,-0.12025828214862755,0.05698172488445071,-0.2937279075855967,0.009314966754806203,0.25778456465246075,0.20594313858659136,-0.44926622090257495,0.0005071426437718558,0.04724948263550728,0.1767850037300339,0.08659516730662788,0.07075040130730469,-0.04876472944045949,0.0292024135706153,-0.06252205538648334,0.1434710097672085,0.08154931538718382,-0.07849739334992904,0.2550057883093923,-0.0802581272273815,0.03383600300033221,-0.14502755134223094,0.08547148231785236,-0.01676325516335597,0.08259682257580886,0.006910808965121285,0.02364705234125229,0.017151262109616046,0.060259624646137315,0.011245348951550022,0.034865928550316505,-0.24699209617246493,-0.10554249807979577,-0.26294499198108706,-0.3874830252498332,0.010566591700768044,0.021124749296097672,-0.09860908231533155,-0.11137458544499035,0.05837716781355089,0.06703933615964112,-0.07887578503336114,0.21240671333712516,-0.020444306390152395,-0.1462779783942788,-0.09190556123879094,-0.10612927039445544,0.031877402178668954,-0.030923382404122166,0.11254657290867277,0.13781592815138652,0.02572449124883271,-0.11158875384594637,0.3743100363229899,-0.1988952198251313,0.1467071710214848,0.4165726512013514,0.1085364271506484,-0.19769036408281446,-0.10827504690839353,-0.006746305225639923,0.062326712376461806,-0.06175355611522597,0.012310624214075857],[-0.1825194047525393,-0.010895024625109238,-0.11864849879205858,-0.13736727306872626,-0.0971262990852264,0.04638792557347738,-0.42218962812125216,0.054229416995749805,-0.033966619092037104,0.050473421308642415,0.021512648192770618,0.15532976945388338,0.03766208249140647,-0.06647852351487663,-0.01554960225589548,0.13656173273968933,-0.026428675764342408,0.11315162876315879,0.20038283016619338,-0.09162926213019253,-0.08033309264919695,0.04918353803083527,-0.022118747104188017,0.06607597555344688,0.2308297611164384,0.15373961125134838,0.08288314871072022,-0.19747405804850085,0.11499793110687281,-0.051348290524642445,0.02901394109005286,-0.12970360209086526,-0.04949922000146371,0.037346967177096395,0.28058897836185803,-0.10414963109340503,-0.01873790899409436,0.005383373433070764,-0.06012517471075226,0.15991801740531128,-0.05111980158849095,-0.004147773417768171,0.09908032450286872,-0.08223480288769033,0.056900389817202954,-0.0319956788339622,-0.015428695309302897,-0.22109801642522883,0.19041326706360065,-0.16515930859968297,0.001736771185689944,0.05540452247019669,0.0028247686803657196,-0.030097600686580347,0.1871390014587981,-0.0652594609707781,-0.26324639072631073,-0.13129918585429468,0.1986115494181976,0.16088002157174064,0.03099437211996602,0.20848618832759763,-0.0027384054533074937,-0.15851275870298392,0.16933795189853587,-0.08496718352344193,0.19760798865676707,0.06267793204853099,0.09288899556692348,-0.044882251545940936,-0.056720477972033057,-0.05962880019476697,-0.11671387865707963,0.2365838877995946,-0.1428093266420122,0.44672252991494305,-0.07012986562277047,0.14024564600073544,0.268004748792134,0.01935832179806851,0.001187745670299396],[-0.08785888077543323,-0.2804122273104033,-0.10085204865938874,-0.22314014738488,0.03673042515731443,-0.05038872272793413,-0.17199327245804005,0.03218317379951405,0.08259600603057679,0.10387158915002417,-0.2331863997964128,-0.1868605125413862,0.1329458638378705,-0.15954014923601573,-0.08677745567316533,0.097111719799008,0.007604087089584556,-0.06852613327217831,-0.03376188187648931,-0.04150113652485704,-0.26114932654046813,-0.07993766516677117,-0.0588934209840548,-0.05442570622450785,0.18076349029524375,0.1314915316654231,0.381846068132564,0.10355843394267862,-0.1608799359493718,-0.0032405347326603597,0.019057991382289103,-0.017940367718761743,-0.0005787200820912834,-0.34860566341283056,-0.0684634839797793,0.1304466755262337,-0.08280947021121537,0.09963707279947642,-0.11537322270016258,0.002485951369171052,-0.11342965034391245,-0.06461720394466615,0.005237804223889404,-0.027825435836154253,0.18033373162094432,-0.34896675770183067,0.016096884563287613,-0.012019088826218114,0.1951821081111768,-0.04561805293596821,0.1196683700536435,0.07206107674130575,-0.05610722805796388,0.08029039407889121,0.18999332956753712,0.026170882015847947,-0.06496499187366125,-0.016553899466815385,0.25665025519675605,0.22670987793394412,-0.12722602916123102,-0.22647603140848496,-0.21560168432745228,-0.15035416869278015,0.013410821822288433,0.29137338624154047,-0.52888524518822,0.03443663657275279,-0.2550772090913111,0.03614744593838618,-0.10520113607279515,-0.3571307970511408,-0.28467266549493153,-0.31172287550276273,0.142939090280454,-0.08049979887386391,0.02265462888458574,-0.04277056830065966,-0.21309153574694323,-0.278959931562561,0.09205299698850901],[0.007982511410140905,-0.07099213148296961,-0.3073805096547252,-0.09672294423576583,-0.03930137261824684,0.018618046262971092,-0.09177334697180929,0.08731439155295591,0.014385675541335949,0.23779818078266968,0.010121078686577537,0.1335323910931334,-0.012419167302284592,0.05066375217855425,-0.09995341963836482,-0.03196326165196789,-0.35930584637284696,-0.01864418691724176,0.18051269944968476,0.004558439363011724,0.14099928279691867,0.003448861384188511,-0.10426579969532786,0.0012532824268457377,-0.27549376587339447,0.042146425069898706,-0.02115838349519304,-0.3009215648369569,-0.018958889357048862,0.012827587838074743,0.08992570066518002,-0.02341830115924545,0.23530913413172053,0.39619257787465356,-0.04804861924383123,0.07681991032901185,0.02507617179495849,0.15100240505231585,-0.08619164653373501,0.012554350329343376,0.039847897215239333,0.007162552790441903,-0.0774580168970353,0.16629281471570784,-0.02748428109851842,-0.021955809201024717,0.11063399539393694,-0.12498945314991491,-0.1052724007348683,-0.3729817943655672,-0.014437328783041825,0.12485621314510226,-0.23267944315143668,0.13584715543511722,-0.10757394440791625,0.12377173263206295,-0.003087941023400717,0.03851013395190475,0.1139978051379737,0.122071381535868,-0.11879741090712671,0.26159141603453306,0.004745443852919993,-0.26404238607377806,0.15293397445289217,0.06529954296777808,-0.10623257736832996,-0.016407761875453803,0.06027513009054041,0.38249192000256493,0.13758745508979808,-0.3192434180106613,0.08674408452495128,-0.15937150827014443,0.4992770195063065,-0.0583482450561353,0.10693933292585295,-0.07652514863513585,0.1145644971350335,-0.046992632779378894,0.07780622582936612],[-0.20671588299778157,-0.20021407300290864,-0.13498721935545854,0.12084461972513028,-0.10566153993004931,-0.15113564943412947,-0.07737499793714978,0.021181119214448485,0.21071030134409513,0.08406574689252297,0.001675724228405851,-0.008113790081927577,-0.024011001981793498,0.0957832419198311,0.058503178929890834,0.34927896156448,-0.12914245311076664,0.013652253192633294,0.025419152484273455,-0.16453257372574973,0.06275414286523463,0.016425199858430183,-0.26570284596598487,-0.14890029801410035,0.09559369516779768,0.026600352695253206,0.016510879391683397,-0.07688354874476372,0.11358873145582385,-0.2276611131151287,-0.4174762416458478,0.04816149280873862,0.023636498935213118,-0.15463172677801965,-0.04712539822364413,0.07359447282491614,0.15487401078554677,0.01544117610447656,-0.13452730794533813,-0.2059819353425346,0.17045632569759647,-0.04856555900331846,-0.001955426207196136,0.033965317132382926,0.1464886516445106,-0.26563843120703684,0.12490327992927397,0.18990524117894575,-0.16090230210241546,-0.20967102873201948,0.07940633491531433,0.03961102998191183,-0.052670627826105224,0.17868159307401085,-0.011250403963026682,0.4756276067978893,-0.1256036856429331,0.23965763031097936,0.1322450488522588,0.02087743485781449,0.10120843894794389,-0.15906401771768222,0.32164592996286706,0.1384659408436021,-0.16673519591364527,0.0020268431547139512,0.05900432951690368,0.27016970824463893,-0.06056017781597427,0.004008574098563568,0.045392485721527966,-0.272232746199726,0.03506287831934583,-0.2705782643822753,-0.020629067380267718,-0.02768567711996815,-0.11296070709325969,-0.17473054507050495,0.2443132013541269,-0.11651494642256319,-0.32271536760926944],[0.0757076114432642,0.03963760077632512,-0.055932802122481654,0.046647420792620235,-0.47927765889523016,0.011417283969601602,0.008893329714893584,0.011828850125981108,-0.3056778577891534,-0.10180742909148816,0.21906374790806163,0.21019116104787053,0.25425212025752286,-0.09076408286757978,-0.023815671442756172,-0.07417008117613696,0.011042188797028993,0.05642194870383893,0.16283805847841593,0.006916509221353858,-0.11372250697938982,-0.07516807917048622,0.02007218909181213,0.14541126586644018,-0.11296401879739183,0.20285329856769652,0.037254869002213226,0.020293109746347505,-0.059624961819007,-0.046934842670206776,-0.10600093969688389,0.06833577203991051,-0.06349078307321614,-0.3615559893712868,0.05526902437439475,-0.47151489474782177,-0.13460522771585648,0.05684224018693065,0.0038120940800520416,0.1282724396778409,0.15831384525850647,-0.16732593134225104,-0.021001457259719268,0.07537839801244645,-0.17554462145791055,-0.09371211143102536,-0.0293699683546385,0.22399371633446732,0.02329239386530129,0.11109927534377512,0.15057607698425599,-0.21553413892920426,0.049835305646894035,-0.013740434935437232,-0.12618180269451995,-0.03689902558106887,-0.09487030407167807,0.03979711862171498,0.030113321293817902,-0.23000044833928826,0.022976352231724978,-0.182296043446299,0.12097015257289517,-0.03595058282975033,-0.06325664098006285,0.0052520070867571175,0.006939068682504064,-0.130285465008587,0.02439520864953536,0.07918652193715311,-0.4102808331676316,0.28962338816176064,-0.4665577286684585,-0.01900756330706385,0.09123161707087041,0.14472694823741905,-0.08685836552342417,-0.10491121546819362,-0.09266982047508393,0.10045372530595238,-0.18425642011358262],[-0.008384964497771874,-0.37942815120918555,-0.2553248685671535,0.08990336593122887,-0.001517213534743935,0.04432953662538454,-0.6281852991547083,-0.136804847035476,0.19511725114473685,0.04914252790731141,0.04293735381423916,0.013432245495164521,-0.35272702009664864,-0.13350401109053156,0.002082698131923638,-0.11680369224934863,-0.07343657207506898,-0.1196973866384309,-0.3553896809244474,-0.07862626146413715,-0.3244243905146326,0.01557807728594774,-0.00039165547146015523,-0.3905129694602235,-0.0550601197994667,-0.30573851103656446,-0.1883267884024052,0.11140082074443745,0.12052503394990369,0.01819042053835208,-0.2796255367449619,0.3491313063614505,-0.16872646789831336,-0.06340226363606186,-0.06676336585655375,0.04262730860181685,0.268460818899555,0.3946336727594377,-0.2130149112245321,0.20912449906413816,-0.05442710341789803,0.04062122191532351,0.14291389400580606,-0.010552613015050834,0.11882302307120077,0.15068431743895103,0.04543761713341699,-0.17875815320867416,-0.07791598986922371,0.02378071524902309,-0.34666017442798164,0.134717983154309,0.11272527493189664,-0.22621669896435612,0.04706673351084504,-0.3368091184471797,-0.11084363228918749,-0.2961504531209086,0.03695196208515791,-0.21130821525881527,0.06551906314451937,0.03369573930998734,-0.15803014083921524,0.036385069437759585,0.08146114945006855,-0.11370848584501846,-0.3729852155402545,0.028881136373985688,0.06158747354701131,-0.0037393939971346705,-0.1573700820372726,0.13666094627971695,0.1195987364602347,-0.013356360769002632,-0.2714754488327098,-0.17450189918897216,0.09588935179176732,0.01247487862509123,-0.1532388642328361,0.12077580284845241,-0.024770664243160042],[0.0003218875002470564,-0.035867867387804175,-0.023023552662910875,0.09635310612924573,0.00704392558745343,0.027690888124157174,-0.03856624463333597,0.23795248347754122,0.01581961084484599,-0.05617724078527302,0.07573705734583004,-0.0023578512842461615,0.268297679447391,0.13979018648977637,0.01937018761289114,0.18893249347167923,-0.26060881285339255,0.09730139730776975,-0.061620829955247744,0.20999523473234963,0.04074461997974063,0.040835517355832525,-0.10417365588657215,0.11449180563882155,-0.02609363861745181,0.14608351477759715,0.02215338001958377,0.030262728444345126,0.24925816164590708,-0.04682664215276389,0.33741203542429243,0.045774888518641865,-0.08256651571697182,0.08158026229466717,-0.05598788541132863,0.06648330811139738,0.07509116973691804,-0.007891741041833353,0.09843832280477305,0.22327428961919307,-0.0014055211191434114,0.08052552801849104,0.0905590821746804,-0.33226571317707204,-0.2777146150106771,0.06443171672173834,-0.06200893172638231,-0.06718095336663303,-0.09596268688806246,0.20590205581846235,-0.0737533248783097,0.2294807392822198,0.05956234733493886,-0.06400744479980239,-0.044007240785613355,-0.03822222034843219,0.09767757233261094,0.1807087783931026,-0.06695061515296202,-0.022312964487606602,0.20583964195909352,-0.26394439854168783,-0.09727133171622843,-0.4229698767849957,-0.018748469921510785,-0.06391842630631991,0.11821352061362231,0.10438295207118137,-0.18529621712522146,-0.08790122109246093,-0.13170248520062763,-0.09358598710081861,0.0034908736679999924,-0.21213118900664107,0.008157100973847134,0.16175859423418634,-0.11101174645791526,0.17641054270507533,-0.20797883128537484,-0.1706925308253833,-0.053424597995164386],[0.01683451688816812,0.0693645317791908,0.12494956469988887,-0.1369667535597074,-0.017295087295428068,0.020837476217564748,-0.02437833321844496,0.1657400666470794,0.5012109501343464,-0.05609878697456487,0.19730638809258094,0.1414256472670811,0.07319071522417797,-0.04021189163577155,0.1441362627998279,0.02496394438240517,-0.002569597782642979,0.22280855965822932,-0.13006424278077325,0.14705053590486528,-0.13757643755955115,0.12990360427280476,0.1497858968958815,0.26046992459087753,-0.04845738739155692,-0.1032213730520387,-0.045758620402534846,0.150615248787563,-0.071550036793698,0.04511580797248482,-0.22044483395929132,-0.052758069069742224,0.06807619248028765,-0.014441288816351778,0.3403299305595804,-0.03563617220030195,-0.19283280090568208,0.04833601511989914,0.14920413146153522,-0.024661939700057537,0.11241832745219758,-0.08584262359306807,0.0437008771537962,0.5084004984073438,0.1372792113625657,-0.10182787498422126,0.06792348077441923,-0.014426430880136414,0.2940418791518954,0.08718622139385514,0.012287505546122084,-0.03332455825771298,0.17374228286670157,-0.011358881506881267,-0.018064990522866718,-0.24086430670369305,0.3301667245163579,0.018291443793720035,-0.14032642200271553,-0.4598471178270873,0.16846080932514793,-0.014240823458154483,0.02836628845054475,-0.27724914952300095,-0.22534326597847731,0.1450206856134992,-0.06632436733559371,0.12430582028086096,0.025622095839635765,-0.08373551921646576,0.031021865398683016,-0.18099072800386398,-0.44260137796556226,0.08339426071017136,-0.3681417228720566,0.14435561249287768,0.11893203663416321,0.2233493760670173,0.22623224689552776,0.0229879979591057,-0.16471597459316276],[-0.03792988996627012,-0.02210314002605734,-0.007821237147039419,0.0026675882065747758,0.10024226084337075,-0.03814176450799958,-0.04363820628933754,0.13909521682933879,-0.030338974545903945,0.2813360708407754,-0.0673514193064773,0.10276624814713148,0.19936241998061296,-0.2702759186324153,-0.11496962708364483,-0.017110717842950044,-0.08164382305627582,-0.019106438679035335,0.028367260820887443,0.11714955881533588,0.039450931808908456,-0.14157361744126398,0.13556774210850986,0.2342436168255281,-0.10314808561913277,0.1374234104416098,0.10784983910947435,0.21521239929645536,0.30039572532801856,-0.034933126101506964,0.08267116693124983,-0.11395833644281012,0.08316550752932313,-0.025653708276646606,0.057027311681299986,-0.2586039562147698,-0.12748177945976016,-0.031105566118400978,0.07212485718927024,0.2312437311796731,0.09400700265160457,0.0156570239532882,-0.013199761628750367,-0.1792551560694132,-0.08071894076644501,0.034723848449193996,0.21001733807036269,-0.0527642020468556,-0.015823054480659696,-0.20698363019125637,-0.3757935932992137,0.04627407440141161,-0.41356223473212145,0.13527407634731822,-0.14190234065298596,0.2432571223866161,0.05644105529920421,-0.022889355962751816,-0.035562723838185664,0.08848854604482544,0.031077804657025036,-0.03991598217923874,-0.001971159370563891,-0.05658857387092168,-0.003182991304429529,0.08178952299025626,-0.18184714000371444,-0.3775716757609188,-0.0014625522758542695,-0.16872532751202052,0.168218569907044,-0.10136251261114469,-0.12219012055435408,-0.0792316409550794,0.14432810096355786,-0.03860644160108951,0.07578741892704835,-0.0036814992312684106,0.06301018380490855,0.17786319963834926,-0.1251072395890279],[-0.1843784108395976,-0.13377249132194022,0.20443242172441717,0.04063648179584662,0.1437309059495437,-0.32330899775381294,0.040064974162452846,0.3311517068945052,0.00391361612847564,-0.04113397366986826,-0.11520084962215453,0.03388481600254875,0.023793733151165973,0.21757670690729747,0.11618112995093542,0.09015728437916476,0.1533462621447868,-0.07916442462070546,-0.31316674437049147,0.11854342835488747,0.023337105785974473,0.08653652604705994,0.1614151113671513,0.2502188752140146,0.06993452132289465,0.05770301301900413,0.05903664593947863,0.13007329277733384,-0.0878709412922812,0.0904009397594556,-0.03675727679477028,0.16477556038410637,-0.05899889127179636,-0.1878252507612885,0.23124718041657197,0.06648833695681833,0.1064906604872254,-0.11575649464944669,-0.02665180620410551,0.08450768597279161,-0.08952706601740248,0.06479999653401458,0.09507733315393717,-0.07914574621274331,0.036399284123027245,-0.029151635344516123,0.05719426576787673,-0.10504583789903574,-0.09313615655741911,-0.0827052759964451,-0.12068011687183652,-0.10664198363244361,0.06515611074531327,-0.1327549415998058,0.08367792926007632,0.04912095534827604,0.2864815167086,0.1398675646024879,0.13013754310540282,-0.014959564451806412,-0.05437753958143795,0.1460956843765666,-0.09986035728616813,0.027486572868532833,-0.1072228325007557,-0.012013447183680524,0.18796824606124032,-0.10140099963005406,-0.03440469839980945,-0.011316481414188423,0.08043594613156074,0.1739440494043008,0.1382355718807331,-0.07002978834058289,0.041085714220230996,0.2506251930409764,0.011710624888278854,-0.20866185193621553,-0.375095838625413,0.15481479257699596,-0.1860708702963024],[-0.27434365887585616,0.17387931114805527,-0.017315191802565886,-0.041557702680959575,0.032257867831256906,-0.04317442594483194,-0.15811145698274473,0.04721659010675634,-0.007254223688516532,0.12351879088301486,-0.010338746014309612,-0.10887218567768235,0.07846690031807135,0.03374684182312922,0.027678799987972905,-0.13984260661074227,-0.04032200259944705,0.05007034318807033,-0.4132371969340189,-0.07604745389361206,0.03656087385670384,0.01881756364115265,-0.07039433387707428,0.11589801581136207,0.0804910007691646,0.2688262839221885,-0.15607970278334374,-0.096425971380639,-0.010598271341190377,-0.10352012390031722,-0.045274075770462406,0.05479597092384972,-0.05705988263267597,-0.12153877176772081,-0.03544819020046594,-0.2455098291515095,-0.09884029565810967,0.06355572416622453,0.3056267560401575,0.09969006220426754,-0.0010500550056428675,0.16600415865809975,-0.10908170897824745,-0.13520060051396113,-0.054838470756620246,0.059970543562043614,0.08319887716646043,0.17122053959280137,-0.18815546848362114,-0.02010507910170395,0.17096760457684151,-0.13452790884768565,0.12835346432067526,0.018605002933555777,-0.06468418494137174,-0.003650170576657558,0.130765851580418,0.18162150052011736,-0.22368182252954147,-0.131011251185158,0.10822202477469316,-0.16098254228367664,-0.1157801913071318,-0.1576290007259978,0.22753801571059884,0.31449862105565213,-0.25821741623262184,-0.2495010098360774,-0.13458068208885074,-0.2214797351844729,-0.1036124465110134,0.13396960365660032,0.14943741118141238,-0.10938853165705,-0.1637791316477435,-0.21257708119225932,0.03474958964402859,-0.21781278421805098,0.15346894290282706,-0.0012975384628636465,-0.1140167051930132],[-0.0054130569077148,-0.08090517374383394,0.0838181920951072,0.045648947981146874,-0.09847071293637823,-0.3139564155004965,0.0848884932679914,-0.07022393704635362,0.1571273144577903,0.06075179750142572,-0.12601801129895854,0.175711484567975,-0.002458820996843285,0.14475829889819314,0.32369305706045737,-0.23942819029979087,0.05634689452204291,-0.020511334361717037,0.03371436252792927,0.03179855000211935,0.03506129627066395,0.040717294202536225,0.18735917536895028,0.05220768560202845,0.21433699942487824,-0.16641488216755862,0.15425817494851646,-0.18515113238669456,0.06094112311559649,-0.10745676654506414,-0.08927578455877662,-0.15267311407507037,-0.08241834874639721,-0.14224732702748707,0.3313363548581624,0.057335283074873185,-0.14786878867311012,0.06507560752369555,0.37185255342875445,0.01684176108704164,-0.09398789927544261,0.0598458026552387,-0.0435249409199219,0.021246632162856924,-0.122527658363183,0.11152194031262452,-0.13049277454230832,0.39930019857840515,0.07993127742699331,0.08487071592147181,0.16736481776831066,0.10673596351977042,0.17284967851512453,-0.06978197179412404,0.1848442304140705,0.22880435946234412,0.10079538712779289,0.10336852968836636,-0.044200935221066336,-0.09892441391187304,0.15395267055895134,-0.1334201326050486,0.0017028364624711563,-0.07896013472791827,-0.027412746189708147,0.2268849873484894,0.0599916716222341,-0.03903740057242068,-0.06486105911488128,0.08082649143867612,0.026828905806010727,-0.16346275046137324,0.03397302228433623,0.078619398215584,0.08517222361381681,-0.05642693553765907,-0.10402351455074016,0.010932631341342107,-0.09635127596024265,-0.14702587237519463,0.09153437253271836],[-0.11760252029202105,0.17752240586437706,0.020881306877438312,-0.024318439973633216,-0.2336571159877804,-0.029031159884591453,-0.03532270899255073,-0.02455445630806402,-0.42900766457621503,-0.19074250951705582,0.009328930572719196,0.04328377977987433,-0.08886587478975647,-0.025804954590086863,-0.028776226397985577,0.20623548340744455,-0.07255844558010563,0.15727783133428286,-0.23210809845229421,-0.1507206527054954,-0.08354418315979184,-0.31829166954415683,0.14604957662087995,-0.21894306780346132,0.10761312698449171,0.16639269785634075,-0.05239220173692761,0.2194739721286075,-0.22900002553782955,0.14019025979952723,-0.010377586173123319,0.041545353998390745,-0.01369474391179198,0.09895121720887573,0.25107184051298087,0.03807650432890343,-0.058921216855494014,0.013899810200242729,0.5841086272318542,0.33523483867057857,-0.27910220205839387,-0.007063328242997853,0.07717789803654272,0.14599613280599424,0.059459450694525705,0.15291333308198804,0.12252164453847815,-0.14971746769921648,-0.23118310347034438,-0.1392138929381928,0.06005730343333254,-0.10087404444731561,0.0817467670773681,0.1312276046078445,0.05655837846679329,-0.0038975261897043795,-0.06967202686443201,-0.012333058194734509,-0.22117693036538288,0.05032925222954062,-0.10885067139618193,-0.2830154171084791,-0.20906656326042444,-0.07343568389128885,0.015861989250703798,0.016695928293782712,0.042434154440312045,0.0860231010032942,0.25573939275225593,0.16203119607467872,0.02032783813279263,-0.055905813209396055,0.023062864532182044,-0.08219485710460271,-0.12376964542959389,0.168071129603471,0.13489846130306837,0.08073566643948481,0.0006347529668571681,-0.24152110834806487,0.144906481949158],[-0.20010627125314964,-0.26745718311838806,-0.10364713263225607,-0.024155576512203705,-0.015430145986393017,0.1844269272372576,-0.1043151821753773,0.11636490438486417,-0.19101281855411006,0.1614019995387948,0.36457038857577045,0.3939114608353347,0.00632035543547949,-0.014280535345861899,-0.1439210111770524,0.09269779002720796,-0.01916017545508436,-0.144633643029508,-0.05352347217267831,-0.05737816332906794,-0.04088316117149392,0.029820733346988457,-0.03809332067379231,0.09157491222510311,-0.27471357413870673,0.004426050457009648,0.25290053761682635,0.03985946089454315,0.21182689785316028,-0.158536069626115,0.04485422452018039,0.2804159663641543,-0.29459339368007004,0.11717886206854555,0.08364517374346297,0.19682690923002935,0.18626930528815017,-0.0545872546812882,-0.10924177457901392,-0.09170901235378516,-0.04738945002487682,-0.2046502105539808,-0.10562508509866497,0.26050674454418565,0.12386521951072071,0.15497586335155195,-0.09682657883211501,-0.10429520550594297,-0.14448965062737326,-0.07436518074729247,-0.012847728385629654,0.10234906488092944,-0.16056783109786676,0.07444105360685264,-0.2361837933987373,-0.07663744985301194,0.17587657517387442,0.03791345109950303,-0.06045853512267428,0.0724933214024933,-0.25719249599489746,0.06370509207404994,0.3318146607172023,-0.05663301614144893,0.16585965128333066,0.09170743909681642,0.13839681121187866,0.22399568416573948,0.12326273014055061,0.06274308378861372,-0.17789279175902944,0.05739458294642003,-0.03425517445623744,-0.11895417071467253,0.07758204808844578,-0.04573277815394498,-0.301044909303035,0.00024155706099870632,0.005643540413326474,-0.06624663582039084,0.0768455405655381],[-0.0031012890165245223,0.05285753584280656,0.19460066598106995,-0.1364481186412795,0.16253931251233072,0.19606081800030914,0.04940123816324333,-0.02500519983410077,-0.4791738509579036,-0.1552270141219229,0.23926561854815506,-0.08242453196326809,-0.014538946268682894,0.014942641678783,-0.16334266713799112,0.1092037100239725,0.013808744536862122,-0.06882750760797639,0.10207888257959517,-0.14549363859187772,0.1650402793613842,0.0018230070962884676,-0.2597294997956263,0.05027614714499843,0.04566685711990844,0.3758546147130251,-0.011812859302660843,0.2296083916047032,0.08872008591394007,0.044072052384497205,0.11391618156369489,0.12238994830560634,-0.11252936506466174,-0.007365286976446057,0.08702518915474532,-0.06197908238906719,0.13012358050696288,0.15153618346546843,-0.027007027100219842,0.15303894324440379,0.05023667947801048,-0.12767233103415035,0.037765346041265045,0.08734140135723258,0.2243720358800417,-0.24668957901520963,-0.17137482396448084,0.06510953384563552,0.12829267891888319,0.21039537958528304,0.3190988329262992,-0.06958235181747256,-0.20181626494880348,0.023106576864115342,-0.1015501277027074,0.25688583057030245,0.0355312686669557,0.237861622795849,-0.09125670485600862,0.10520949488583803,-0.11350436162302002,0.24906241536047774,0.1744481519882678,0.09062798080703671,-0.0478114114307744,0.142214912305432,0.02802060668919067,-0.07571071826549616,-0.015139479112395288,0.1706791183658564,0.17565365529806318,-0.17437541178842214,-0.12800601061431793,0.0272057889129666,-0.07781575783798945,-0.16234485341566585,0.20896004770448431,-0.010394596008886352,0.2375143253763617,-0.0058938477208435895,0.006198174341080282],[0.0470862127036293,-0.1205592889802467,-0.1319179874293989,0.2090262715972131,0.19719396280511728,-0.2057965401024551,-0.12601193340457026,-0.08152323680793046,0.0033540880039894874,-0.020458032488313644,0.050023080712760896,0.0016597321528706817,0.26760051618203895,0.20519488468284364,0.13373222103825916,0.043333989964254666,-0.11022119228927839,-0.06400003090685921,0.0005669634943161904,-0.1422496407279243,-0.08277221893257451,0.3672679662177038,-0.23489538735487103,0.1314714275990276,0.1299227663117741,0.13888257808731647,0.1989724567080851,0.0006687192116654836,-0.16447132892175376,0.014123303911695938,0.05042318036729773,0.007248411717501973,0.06852595458787797,0.05039371645740071,0.02197713201565988,-0.018772246596393104,-0.3629955189929422,-0.3071324028826738,-0.2732979749293737,-0.05300299054804968,0.1663694380608042,-0.18419752801043293,0.09980636891385213,0.06826897013777165,-0.25239470528301744,0.2107562904496603,-0.279108395854736,0.1307165320867389,0.36851670669674425,0.10475592710792944,-0.02693622329585248,0.2305208574101768,-0.08397223399184302,-0.1340216592463782,-0.2524066386068833,-0.24178276342879948,0.012270885199890731,-0.08699325145151762,-0.3203499589220294,0.10690473748941044,0.13498664062236732,-0.13105886380726411,0.04166291314323988,0.24499200324127077,-0.12695272958418155,-0.43935355083704086,-0.09636396358368532,0.0810868995702032,-0.09400835610375327,-0.1035053637792434,0.033315143427969554,0.05596453757768528,-0.1001224890924872,0.0776597124691032,-0.11453203836820051,-0.04546415909654843,0.020202379194297137,-0.04035550837278667,-0.16710167759988584,-0.3915611536179702,-0.11597733899772276],[-0.15527208469782505,0.05886219814281191,0.10586583474841675,-0.625566058255745,-0.2968827514758093,0.1939034449698561,-0.0468251984039177,0.14724708231185688,0.14793662986957387,-0.2505039594481175,0.019704374164902342,0.03725906814986139,-0.012871597298424999,-0.24811588514963798,-0.15506373653850022,-0.05121109220889198,-0.11402383665661855,-0.07956997135148486,0.23177812800124695,0.04434657578770263,-0.16257399335674255,-0.021558585647492197,0.019770655454374016,-0.19663266634627405,0.31614371363632393,0.19457910526486924,0.059219019908539706,0.01865893041582482,0.15567174893189778,0.1302354145368434,-0.07909386346449324,-0.04936832431681925,0.03891795896061122,-0.08014475516077059,0.004938616512928355,-0.025666356734190158,0.05296483828675242,-0.2669726955482479,-0.02152075813822131,0.011162777313164732,-0.19922442341917304,-0.056441821841635,0.19985691476674744,0.223455459051564,-0.2692055360761974,0.21430575327455728,0.17083663951912245,-0.15498184989529726,-0.04922529244347541,-0.1186405459895336,0.002257059345014309,-0.2443043323781038,-0.020949121126015786,-0.004708568803651184,-0.037866188462246715,0.1277534453188771,0.31876892405983875,0.056922060145586,-0.07112481742209065,0.09050720672533263,0.09928078238300589,0.00301490003970248,-0.13703490058674161,0.0012916962226435925,0.15108799619601,0.186978833610465,-0.03640430178677072,-0.1469727667284315,-0.23911806729261567,0.25764761063338903,-0.038699937344395835,0.009336064168791375,0.10894062881857665,-0.07430641858085135,0.17894314802377387,0.15652347651423484,0.16797759098727802,-0.3022341951875168,-0.09649547670568519,-0.025258678685686025,-0.025151531162611512],[-0.14952834674497986,-0.005878616311794051,-0.07176916318582752,0.0809385774660129,-0.42053536579769485,-0.15260841305977535,0.40685872235277665,-0.14669460917440655,-0.18907791030780893,-0.1324983107444149,0.12664872120993878,-0.18608550043586775,-0.35080211006406514,0.028613662652790757,-0.07248602682700962,-0.08785764787565932,0.13681261304296732,0.060136170276187124,0.03796370009418183,-0.23808129922961777,-0.3661328395004632,0.009936982229907387,0.10277822581793153,0.009932013551271077,-0.14915544726046964,-0.3276092708515012,-0.06368782067996008,-0.10314399850329238,0.015384590640098865,-0.11743260686810277,-0.0794407003520214,0.05188062057563261,-0.10579686308293064,0.12922131719640179,-0.03956020557442746,-0.13327947273010415,0.22128708821981644,-0.14417490965812851,-0.15415074517195815,0.06469075029531193,0.23714977678580987,-0.03665421143299047,-0.12537931832889,-0.06896605137580919,0.040000016715533326,-0.05655816203114403,0.15243091340770293,-0.06647995381654198,-0.0065118761703861034,0.13893021982170606,0.3405493313354951,0.09935767165597381,-0.00900649696143115,0.00709790937617543,-0.04823052719650893,-0.259369165944862,-0.03265821283514987,-0.006219698118315823,-0.14527101700295317,0.09981541009731226,-0.014478474985806063,0.3117156775379997,0.011389888956604219,0.12240403353382356,-0.2639338304847063,-0.04001777809779553,-0.07750345846212008,-0.05495368525960552,0.08522191254409181,-0.029956445582018078,-0.028537948058956365,0.3243926613890748,-0.17415074411170162,-0.2927668630498045,-0.0910959246096255,0.251835918969524,0.09639951392334063,0.12469049815829637,0.14579465736834146,0.04935834846746974,-0.27426158148180146],[0.4375121191069551,-0.14918180595487995,-0.07991572671435916,-0.08648330356926569,0.41624945398860497,0.0933208802503035,0.029571986983918618,-0.02027490178941709,0.021049788748029555,-0.043287190387012675,-0.056565191291843675,0.07863755862468816,0.12176208771117855,-0.8087712546023509,0.07316509242887367,0.14227167232956472,-0.1218189373936429,-0.183278213286107,0.05930896872034893,0.45268274841876643,-0.20298046250810844,-0.3929319571988976,-0.15140056570839683,-0.07308557590507508,0.04601911701725615,0.22225519863668375,0.07493756149370326,0.02377316469658726,-0.06124501587193914,0.06889820653213485,-0.10596219488149726,0.035025386931434914,0.252095942696864,0.011253144345447589,-0.01864458010672451,0.03375839690529466,0.07450644649932209,-0.2340713567709254,-0.2058591128385406,-0.34269497898299134,0.21615166812380235,0.052414510032757856,0.08704328798218851,0.1393179684605567,-0.17527290484302463,-0.3491281228198769,0.008330414695997247,0.09301903512467288,0.046439949463839204,0.024211613513765818,-0.008235711212188943,-0.036879208117338684,-0.005612747590828492,-0.01780618262121767,0.06307715470559563,-0.011248857993585853,-0.014895166586150628,-0.0071768808434523644,0.3088650856700687,-0.10619445141206131,-0.3050301273729875,-0.02478070790731152,0.1814128071511347,0.29102165556990894,0.1266558465334443,0.3551925027475221,0.1405492608190439,0.1448767947946504,-0.024299884538393546,0.10080017764492244,-0.22325271548503287,0.20638292991939763,0.11012952343046427,0.2127460005074139,-0.026615325378268676,-0.22547687774479033,-0.18959862255628454,0.2818034373739986,0.00634212834375789,0.04978260567477419,0.0420407754221465],[-0.21529244927511854,0.0993578621432553,0.014476162829344939,0.05483331358987548,0.280844227240064,-0.3912277784644521,-0.08056099455652982,0.1465314404341046,-0.0005194673377906764,0.016712551138188626,0.11588246330661015,-0.07510042348338056,0.039593811647693704,0.1295921099260004,0.14949308732072258,0.2332983486000397,-0.14856477242091223,-0.07942185978413163,0.09998340565702303,-0.004093160772767914,0.10051447023784679,0.024499161440111585,0.006813635467402628,0.35735580749989165,-0.10202264793431096,-0.11392030706825425,-0.17738784257052143,-0.016724450743904013,0.17466239526454053,0.08387797506298685,0.012098971514225858,-0.08050266192270814,0.13464333915824406,-0.2029279040653515,-0.12848689864732382,-0.0662829941182608,0.08326250500355215,-0.24120957327759493,0.025849158480428867,0.009714015714072984,-0.05483893679934474,0.0506816414139528,-0.1399197584397737,0.20587474129408176,0.14953656867626544,0.05668260587611105,-0.07043154624180259,0.0763682637092709,-0.03890414722265299,-0.04279120357514774,0.1425414754864938,-0.1011637923208709,0.10057648204952203,0.005401255695404473,0.0980173730990669,-0.30292852126267766,0.03739571059481388,-0.12001762799593339,0.14595959425463095,-0.033062790621546614,-0.06847804639951162,0.03195225427862446,-0.029780797001774648,-0.17967772464801926,0.06443393558305324,0.071762627513406,-0.016295627701614825,-0.1885568396797992,0.04956947156097858,-0.1397420080770925,0.058851229688159375,0.30526553795789935,-0.07761398026754857,-0.026467856174789202,-0.26026304201376677,-0.07113585044742729,0.03349940428111244,0.07087511577436235,0.07824204421492169,0.06480951435115215,-0.1839767984534515],[0.0843676501959881,0.1072858298084498,0.20737550116058398,0.05391451876482142,-0.18110502371307213,-0.024349555269683316,-0.0928346110442655,0.031061851447977844,-0.14763545117641927,0.3112929129065069,0.08715490737325404,-0.3977227994614896,0.3648744681419355,-0.15657244432373743,-0.16705343959305374,0.030108812690931686,-0.07671008878974593,0.010794676125739339,-0.00951671036374321,-0.05297302753676531,0.2963778159550069,-0.1178641787154657,-0.045781316959762224,-0.3797638126620256,-0.1593149532493069,0.20679368312402072,-0.1565570123317711,-0.10557279661405022,-0.051832952834580635,0.06247713529241153,-0.09490745498866159,0.040459926060557434,-0.1600374747146838,0.04146293847988877,-0.18291006604303311,-0.06603146164935617,0.1846728867160241,0.4178244651292247,0.016519473323319427,0.281685302975252,0.0867845453248422,-0.01758771820595894,-0.02195908656336124,-0.400593163223282,-0.03959255381432683,-0.16659605576484707,-0.3129979653111705,0.016721491517608517,0.1294802744238717,0.026875997614213755,-0.23176595927570423,0.08864075678589271,-0.19271309803637215,-0.042960190510117575,-0.25697502281961043,0.13461014158017998,-0.15506532667555786,-0.019463426866300725,-0.22260037000966498,0.06825187433905655,0.0395354123590676,0.06591309676602167,-0.14197285163437903,-0.07198955271057271,0.21584078883816024,-0.04301699090509648,-0.09347846607813963,0.04433397134133054,0.009779869395346587,0.02046457020659077,-0.19079323596116002,-0.0986135340417346,0.07300541276325623,0.0617564155666999,-0.030707598346337475,-0.20657376817706624,-0.09337359222038694,0.04326362768204082,-0.18628962881147534,0.2434776109457406,-0.3035877399351023],[-0.01400983041018117,0.030431832547410206,0.39269677666626357,-0.09152850310080274,0.005435711875687628,-0.16546700478050108,-0.015094245891674614,0.24950904740669613,-0.12521534673048937,-0.23573308021603814,-0.006991079641052768,-0.007004560023949776,-0.05733899086931776,0.002651287358762066,0.07591244090710775,0.06264521518903743,0.23555649320888603,-0.04818114511867377,-0.06451888394298189,0.3399049729072662,-0.0007621500257664154,-0.012240880256268991,-0.07215283211746154,-0.09334269550600188,0.1611984284620794,0.13568919922889006,-0.2075965168326147,-0.05053112854811646,-0.04258961068177737,0.013292771454770931,0.19386705741456178,0.08634797626204287,0.15007132636736129,0.06675927417545574,-0.04402583443690208,-0.04097824528275719,-0.43740963245968434,0.04674443860081029,0.03454635208891864,0.31951994003423323,0.0396580950140613,-0.11187863125590865,0.04810314097593116,-0.051993033352158595,-0.14259967140674057,-0.07499518221426285,0.1464079771680058,-0.2223429548589509,-0.055360558144110006,0.21414217003810113,0.26535675054897984,-0.06567127949427067,0.12151728476348077,-0.07963617195708363,-0.020691078805551766,-0.004965151339401038,0.2257357461922642,-0.14265785126567013,-0.21566262772600647,0.0013361885435714494,0.004994109713766914,-0.25649221047671955,-0.04939520473812048,0.09659650724305881,0.06712244405603097,-0.08527627754194225,0.023316273352825743,-0.10043882301112167,0.23058802184284063,-0.06362417301556333,0.16852474414083357,0.15357523238082874,0.008913543867330658,0.003157538877171999,0.13096414472236817,0.29176692618933564,-0.23369451905340144,-0.23873808123424187,-0.010317248624500818,0.1673426341593241,0.0490935003210456],[-0.13042855688816846,0.054895201107655646,-0.004121208769297953,-0.4624151105312875,-0.21423886256207367,0.19535804595090805,-0.09129760240451973,0.1353108679135499,-0.1340487373053475,0.21686385494075627,-0.38033062576035054,-0.02582809127225276,-0.023162551652833263,-0.1409286522248115,-0.014801064393535643,0.009748165032642343,-0.2231784171275328,-0.13424714963989115,0.02367863198608361,-0.0056200906243096226,-0.09337132101360361,0.14346300872759543,-0.21651383709764677,-0.1392690528609066,0.027688408872431382,0.23189723117984504,0.007069122848970488,-0.09435831546275525,-0.2798815776445775,-0.10342821798019416,-0.17610142019194416,-0.026896815114915137,0.043366214614082355,0.1372079761422399,0.07564305059930035,0.2546592459499052,-0.049264504907609794,0.13445099726483453,-0.2687558187945329,0.03420156592486993,-0.18703256984889058,-0.14030814970301184,0.27268551288707515,0.11276003605795355,-0.06101545656689014,-0.18009542269720472,0.0981628316594479,-0.1982487281641689,0.2789479943503159,0.18213485219993553,0.07077214724375724,-0.020120811492204432,0.013529873300837564,-0.07800400613415626,-0.029645744091958248,-0.11956316514385652,-0.14530871648736035,0.13102861655823653,0.06337081673231616,-0.02806130388213214,-0.06922779018655577,-0.29119687350747187,-0.12562677474797446,-0.028188531571084363,-0.10141975608804925,-0.025758699825126387,-0.06018593005182992,-0.30783448271967356,-0.09875582373383446,-0.030854726016159063,0.24919264599280463,0.12474870106452117,0.2154282358856642,-0.06694698104338512,-0.32584778847943713,0.23373254405498492,-0.022157904445809524,0.08898955463400143,0.33098320956417854,-0.054843084535366696,-0.003719879941049579],[0.027341595283281294,-0.40255685094650706,0.1139430038878506,0.0683101754991029,0.1072732711671249,-0.019244916826859707,0.3437004104298891,-0.09778614483645912,-0.007400623315990434,0.014210912731771053,0.3489139275965894,0.13194176811375335,0.28347964401036824,-0.005336124824889488,0.21087073086810867,0.21037020361641612,-0.32811434503522663,0.032706125228091645,0.1206179471830491,-0.41718666341606997,0.16852114824274494,0.05523831976309425,0.022519167180836845,0.06668399505898165,0.006362118575806646,-0.20131372552703727,-0.06509819252157176,-0.048836453281261925,-0.4847241546631937,-0.07131478657508591,0.282507661995385,0.14674186345415346,-0.10380688456781544,0.14420194790639468,-0.08192135235735434,-0.052173900259375953,-0.058446968490154065,-0.046093983883115607,-0.09252911337589288,-0.28096843040820235,0.27111620102991985,0.03988935570271701,-0.18534056847007183,0.2554179301395913,-0.15845387678648143,0.03664210681835709,-0.010288828329720324,-0.06529013087792936,0.055625618289665585,0.1569440247810527,-0.06652573944466439,-0.008273921778725744,0.09111650812040185,-0.005951225134045439,-0.049841792051595925,-0.04078891761676742,0.02554013892565614,0.04201621090358043,-0.15599269656047784,-0.020498611667729198,0.1935563561566153,0.058670137405292096,-0.03316056884536078,0.19961615522717308,-0.11829704395256017,-0.18809228020497984,0.15282458834961857,-0.13393588955072494,-0.0586967144881579,0.014216052664364461,-0.29111810666110954,0.1770275358130581,0.09957727353983237,-0.04797358387901504,-0.17027601969151918,-0.1297766258824651,0.10054396504308293,0.059236578509926766,0.3075497505450849,-0.13701287586832475,-0.13732709992531414],[0.18246383282523504,-0.2727472320242205,-0.14966037643571653,0.0513613864704021,0.031208122665870783,-0.2311077378552691,0.048909464278695754,0.19387590437505914,0.34125985203063575,0.05400366099759158,0.07151007999519736,-0.0977979550737562,-0.03593813047027119,-0.18136659940999228,0.10104250665569413,0.01819724406934516,-0.06605048467798774,-0.1680994461167837,0.06036432570622525,-0.008139546706861612,0.0740638729099422,0.12148757428305476,-0.05526618824671674,-0.3002863010629923,-0.012113900114322831,-0.4610987164920331,-0.013714066214872096,-0.15796648612410913,0.036544241913642306,-0.14583912448226488,-0.037636368700697406,-0.016972383045962644,0.016757843231935302,0.1026636236177102,0.20202090116803711,0.106207259586064,-0.050958373925095085,-0.06548645557736792,-0.256684430246122,0.28541113676083263,0.13919055809690584,-0.15179847980012562,0.02576584842891024,0.039631646842178,-0.007921061807682202,-0.22394824129578003,-0.15201920434609512,-0.054796931104922716,0.315254906369397,0.042686441068485494,-0.12022527843690485,0.12500915330707435,-0.031009635489379905,-0.215424432425459,-0.3095323978844798,0.028316656279875507,-0.15214669447556572,0.05219711638298576,0.14213039871641073,0.3427676950152518,-0.28772384520440525,0.031237975407120217,0.04642258460154978,0.3461798553617804,-0.05360900113121992,-0.06547610201258103,0.051406061018561267,-0.12198343775800247,-0.05367614490930722,0.12214597556764839,-0.1007972671946272,-0.09976717266084792,0.017466757441248315,-0.009739660096104445,-0.19845242996236565,0.06458599224256163,-0.3863351158450732,0.3766567320914876,-0.18401937766890586,0.09671673721576696,0.18809367157490295],[-0.0038946578360202415,-0.03994553144763309,-0.10949539574563663,-0.04141709979346911,0.084529799148306,0.2989899597096618,-0.16382547604345118,-0.20300920949037263,-0.1927578346714425,-0.15964030188612624,0.016815786430801363,0.22143269742347,-0.6166272994983722,0.12289365964016147,-0.00539529868039342,0.3878982219157651,-0.16120885550398822,-0.11591543672979583,-0.09189271784581304,0.005913182697944029,0.14485240010786435,-0.21077418195106895,0.02883900515511593,0.004529379985754742,0.15803241173577212,0.1602357144219219,-0.23766211547028282,-0.029334023215814062,0.06512160550746628,0.035429977507399325,-0.2565457552552119,0.13995928072789757,-0.3104755935927926,0.14442493237880422,0.11012038620054389,0.08090994046511114,-0.17251019955336241,-0.1926259909632115,0.01783582141912537,0.13219637601364873,0.17904184831405345,0.004402964002114694,0.14872859676441222,0.060131100979348484,0.24129007651338819,-0.31829387514066654,-0.10839593737932544,-0.10594928995419228,-0.06626895041299348,0.015944789059009104,-0.34362863972289737,0.2685083361933605,0.17763724182070878,0.1501737655116052,0.15665555026866881,-0.0820925339668282,0.049374531931777044,0.036450715552007,0.02196823422477966,0.10609380422445575,0.06291311965501738,0.045343021058589575,-0.06847986179234507,0.00036109187996781895,-0.1517806885171983,-0.16499323533663796,-0.07019817843937858,-0.07240403590300573,-0.024456449359249698,0.15232653216955588,0.054126776272325046,-0.15447400939868688,0.11134352422482155,0.06050287716273076,0.2744848852208285,-0.19517651091593724,-0.08041245400074838,-0.18821292887394508,-0.17117943698692203,0.033448122639245355,0.0011512850056116563],[0.09542376544881737,-0.12354185524913458,-0.24647395409364303,0.05802637629623823,-0.20944438654191025,-0.15628140968524243,0.169321423090362,0.15471575189098513,-0.2492302526177564,0.004202842295253957,0.18080299806847053,-0.2443699003282363,0.12031513993612587,0.035043376441249934,-0.1961212927993137,0.05657381880512667,0.017236044263971226,0.07175332863934175,0.10044634030751694,-0.07508227808394297,0.28568666796733777,0.17579645326716414,0.25696973282787827,0.004731412139023886,-0.16260324539593282,0.0028795016412834756,-0.36566086008319604,-0.1412794338840987,-0.04069723692461324,-0.11330397677881751,0.033302248137313105,-0.174238448932966,-0.05237723489528356,-0.2471663337097945,-0.12476678923611328,0.05639094570023626,0.20645599406101914,-0.03182550458415219,-0.024293132160178154,0.018803078567541567,0.010658392025242243,0.3371724993990061,-0.28089703891588025,0.017578537742332777,-0.0007667686138470743,0.12352868353844336,-0.3495420149478547,-0.003208319398001595,0.09935727242168342,0.02075098469885774,-0.020204614464318583,-0.1523865533014165,0.0927297477210128,0.18149055224278335,0.015860610581897333,0.17366357850647224,0.15110622859996795,0.265234974600045,-0.3814565061630455,0.06268064839436188,0.11884981868675512,0.02822643847711123,-0.0048323546652940755,-0.08064937353394681,-0.08469446951449135,0.07177485839272627,0.09118566332501368,-0.041948266390305335,0.007402689269806764,-0.06359696673272784,-0.03281275536643612,-0.010597796184946395,0.040013863388795784,-0.1757392658469361,-0.018965072263898285,-0.07520802940304323,0.019923049769761614,0.09712534692496436,0.06601496139576613,0.027228634607029352,-0.07179910539254043],[0.26165866986242176,0.10709747760474556,-0.14358127597038686,0.20200388114649495,0.05891768606619708,-0.021168607037139093,0.011267887755095114,0.010834507352510066,-0.10172163364922016,-0.0949135749199916,0.05168778796861256,-0.13682872584321829,0.19617665740964127,0.06387052780555347,-0.19694266812557842,0.03338307788985862,-0.054367683845571946,0.068272780914291,-0.09472945314612827,0.2433732772831599,0.34859879110682573,0.12629713905048598,-0.08127355722664403,-0.0666750598960705,0.20912008546589964,0.231690165911186,0.22815648532366972,0.20393094656968963,-0.22012403514409884,-0.16600254314926408,-0.028316993723474595,-0.16193982386663183,-0.07916931669692204,0.2073670656726332,-0.3277256654493728,0.012721542970271052,-0.18771675418558342,0.09626075940734717,0.0317770202011734,-0.07282707362727774,0.2610556809270166,0.03673326719111057,0.036585738506776364,-0.3251210603601348,-0.4631650389913351,0.11667685026011212,0.039613992569827894,-0.06646624668653722,-0.08083493928510199,-0.30979688560384466,-0.5388643887412454,-0.06421272753756598,-0.035305400309551586,-0.03641956402315842,-0.5536586020847821,-0.11911707109595639,0.03656944456897657,0.1430006408343923,0.18531974793153327,0.18944019137644583,-0.15627526063734273,-0.059995499778559995,0.19200118919971176,-0.013425500065776013,0.06107742540436924,0.14679430150086728,-0.04380022881385927,-0.28221121176468056,-0.00014393085589578357,0.1035295989333485,0.0147109295364389,0.1043297969289563,-0.11267966285524182,-0.016696700635439574,-0.2132485727711858,0.01908025594693857,0.35243027590979237,-0.03804691894998721,-0.2606222382462478,-0.2380876753881084,0.13990268114697457],[-0.17585525657820683,-0.09563366274507834,0.13818138463151114,-0.08176344994775765,0.06027523726367922,-0.2744831017615716,-0.05473304249850049,-0.16719039577583267,-0.07878895286906504,-0.17418561937572008,0.06880871135351393,-0.03770742368977757,0.14312004556898353,0.08385721435602769,0.2792840130376409,-0.07437687940524973,-0.15464790127237885,0.4567219324657323,0.23955371621977878,0.38700741773546327,-0.0156735985330865,-0.006139391266298203,-0.13222678680666117,0.08711687222019063,-0.057820734064700036,0.11758752297998108,-0.06816382655620327,-0.21481518386118706,0.01812805754592013,0.14921556651153778,0.10390892389937688,0.0209622515975713,-0.06797256862978561,0.08265102109828065,-0.007270302508273443,0.039657222536367595,0.2539236795675622,0.028799351459157827,0.1832802124830548,0.05235142406453232,-0.012803489345570794,0.006088723305239178,0.04349104781931492,-0.25130466221518455,-0.054519793522954704,-0.11035135058507108,-0.40832975919368075,0.2021818990599081,-0.06169910025074305,0.021719524159266927,-0.009434186927918033,-0.13556259402434234,-0.12718421201996444,-0.05480310063350525,-0.12174865793370458,0.009858230757060054,0.48274905626106623,-0.027119956544762264,0.033607194903800965,-0.23128260529862554,0.1293319831620755,-0.06342834542680742,-0.10943477712854154,-0.05679377451132358,-0.22386241778479807,0.0421755106564953,0.08567845999888611,0.20815288665817677,0.26036364265682355,0.11236389004983943,-0.5361897647481811,-0.1480468287254086,-0.13791116918838925,-0.12223219661635272,0.2941367989314863,-0.22672947027739865,0.03965211739101203,-0.022077569788107664,-0.05708840251386127,-0.05166820372309768,-0.14062462352469],[-0.0429708457866671,-0.0371138949355439,-0.15018010343318042,-0.26187077287362204,-0.044260534431062884,-0.02241583802094541,0.05867161506880125,0.05452264134148027,0.09296753490166615,-0.009102697805303313,-0.22946154399598886,0.06669024885300091,0.14559258309675485,0.23066755630711083,0.14877809040123433,0.20015160981793512,0.07484426972240747,0.3086252226358132,-0.06316614365685472,-0.0055339864306989065,0.08800466212770514,0.005147749323436224,-0.35173688007030546,-0.008025625629213266,-0.08159056076330701,-0.06770626459454145,-0.01915460728604248,-0.0286946612229908,-0.05122580386791824,0.05355873895909053,0.04440438748016996,-0.0910166495807524,-0.09698285727912297,-0.07671748710217789,0.026946436452783676,0.04359787509618737,0.07217482766552037,0.11148457970166502,-0.056127520286250794,-0.041070222052079414,0.015996252640493095,0.16172110572106402,-0.3129278608526327,-0.3086979034437626,-0.09870011550948474,-0.019476855181812355,-0.1635311591253743,0.197999946418006,-0.20905474697484908,0.0599479975906334,0.15416237868056498,-0.1252261824918048,0.0695771474210379,0.12884955453887323,-0.22987673864454872,-0.21846256791273996,0.07920218783959665,0.2604089579505377,0.0060020770780030465,-0.1408038849753024,-0.011562737021277575,-0.10330331085727047,-0.28746966767114557,-0.07343990705046252,0.08502211415958537,0.05197889734401904,-0.13845419608240797,-0.23564870070733274,0.0741580320932089,0.14305825800176164,0.015606548825350092,0.24601365716232962,0.21680898154259742,0.06694894707555117,-0.12863148348926456,0.16135485881794548,0.11906093091394016,0.058232699003696514,0.07156030711555661,-0.06264370636841497,-0.10964441957712434],[-0.25093005067195945,0.15682389733378768,0.08241365029957165,-0.029563857639817778,0.2343659675425238,0.0049929481769262814,-0.33881382528559567,-0.03468424391754051,0.24397655296275944,-0.04804341128071057,-0.23708192547901522,-0.21887797796539085,-0.15206347363023398,-0.12815440771984413,-0.13579966790609546,0.05162125656630876,-0.13167469785421823,0.02439746365557328,-0.06990182855710438,-0.07447983385027278,-0.04194734150276672,-0.17898465389554732,-0.05374942709867949,0.26114416787202505,0.11612634836551036,0.22392785307987595,-0.12814333123213212,-0.09681378497353106,0.11688772204194561,0.042983666238241264,-0.06454397351951123,0.1896277414825459,0.234163583909884,-0.06002517635545629,-0.24045341322154726,-0.4234327590710097,0.19081867106092562,0.13298407952890226,0.28074730138532794,-0.20512031096737815,0.2739268397750704,-0.10015546757706305,0.09479885231950032,0.3766223919368632,0.015370595155943986,-0.16350176975778535,0.0769122881273696,-0.11454097231722457,-0.03203069923058244,-0.2440171874272178,0.0997103392335799,-0.10126334250630324,-0.0247969118214501,-0.049283407645692716,-0.04216945727147187,-0.1346678030678272,0.17527284421498526,-0.13015511928644916,0.37202421476748293,0.25430128049737916,0.1896683969595393,0.14945210223789132,-0.10015142571006795,0.2712837743327803,-0.04526518561149207,0.20143979126895165,0.029744455985581276,-0.06751013661287562,-0.019471798887610584,0.049281488766357774,0.28639418419687784,0.16873632885396997,-0.011250773799224659,-0.10335491828303056,-0.29751891372290734,-0.05924284325603592,0.10026257791950566,-0.003018846568014859,0.12569306574607078,-0.09077244872774218,-0.19844963017765213],[-0.024643390557175227,-0.014311014656517688,-0.06468762395320463,0.11160451321049306,-0.3021740144365557,0.05257174522670187,-0.1115876952726254,0.2569895924777422,0.31487507924728336,0.09850342383956456,0.31696324123161146,0.04120448563472156,0.10053342819523052,-0.09240800507555272,-0.04398724499124213,0.21957558149440887,0.14799003160025645,0.015016943731591716,-0.01623907205408474,0.19155983152414954,-0.10856596822934149,0.026343923153288214,0.058453237182467435,-0.05145801818994325,0.15881544427682798,0.0873831836854601,-0.10528010411055701,0.13919913502915843,-0.12176125884917972,-0.0011426243398087006,0.22177922747781942,0.01204515697114537,-0.09023284020218604,0.11157915565902049,0.32609007328861095,-0.01389090248598584,0.0024830644536338545,-0.2731799135742485,-0.199509624564103,0.2399318420326339,-0.03628338170729304,-0.06243565823493552,-0.04903865252658964,-0.052724580032102945,-0.001708435555179048,0.03779321357809017,0.34924061085860286,0.13048927641222877,0.18785767452739593,-0.04769159920789877,0.0021423153050842345,0.02303928031385154,0.035417021354530294,0.20368599014873426,0.020719674884789582,0.3195729649169873,0.28113519934699077,-0.2633089929030831,-0.05809547647462339,-0.2701491057914631,0.07506740706966361,-0.19994589496672438,0.10378231640543682,-0.04703434311665483,-0.0019169332160835966,0.004448374181773265,-0.03290196708343363,0.28630617283426113,0.2044005803111822,0.14193735453516212,-0.18746094494696153,-0.02534958144335762,-0.061584423387056796,0.2635199212994519,-0.08358233789581179,-0.05954014202628369,-0.018644042709762793,-0.06398114131909582,0.06767794932304542,-0.19772086201304748,-0.19369445291748244],[-0.0668080325128939,0.21157027499237308,0.0047370506855128995,0.07293664778982427,0.07850939052343246,-0.12665498449567417,0.08201581651520105,0.08817977687061956,0.053706770468232766,0.26766257797731613,-0.18979079232339188,0.418965202007619,-0.22206927007525012,0.06530744746530169,-0.06998063765412578,-0.0764656539985756,-0.09830888606084315,0.2044764259689995,0.07320020702334737,-0.05478447485328712,-0.010860497656436445,-0.05351348721526683,0.07636084982818529,-0.18998813858439265,0.19580214701667584,-0.019826329582685646,0.09783138744716521,0.052587387367020434,-0.023885237177816106,0.05983346938030341,-0.22268749399945334,-0.06254686741723597,0.01588554896079994,0.114323182067142,0.13055792281398126,0.08311829224696732,-0.19462573004905828,-0.137924132032036,0.24363543827798878,-0.01956672070680689,-0.320385217297132,-0.156567430470291,-0.08478050315198409,0.5578777987425926,-0.07398050689830898,0.233142599212988,-0.0977623919895712,0.0016564842798777006,-0.011056335224586454,0.00958329382878263,0.14568337309194132,-0.005796466838428786,0.07988325361713382,-0.09027438142592878,-0.03695159041873347,0.0025614087952427604,0.07948266992242253,0.07852988613392306,0.0832967964464585,-0.036337047453162276,-0.08370511308945877,-0.017403544829735294,-0.1032555605547148,-0.20823402522086606,-0.03917755202739507,-0.1639295826221692,0.021558092810130672,-0.013002682031107052,0.08684179793131912,0.0754379920207584,-0.016732901056784797,0.2551492448139845,-0.027354926493740946,0.4159521700753069,-0.20017104138167077,-0.1902608245673057,0.06891772021171233,0.19978971303190968,0.02063922416334096,0.12349314656689558,0.039275283313349],[0.07005598910095472,0.0363231825522356,0.02641030648581858,0.18360183990950737,-0.061290809705588124,0.39928585212160916,0.029908300907959456,-0.3196498139543982,0.044983315953572016,-0.3081662762193584,0.07476671210480107,-0.26579159752287373,-0.24992406755433566,0.11355235456646069,0.027453510082107932,0.34830720490719697,0.18522827471311948,0.007812600140629239,-0.013966165671601045,0.07073256250766918,-0.22680950214745585,-0.02958534365469545,-0.04685120475209723,0.013927016550818976,0.2573760660333128,0.0009407431879419239,0.16625101668922138,-0.08729457222090901,0.04851590317308379,-0.15515375317128346,0.13515539493018455,0.3032518583554824,-0.029975502008456004,0.008265854871156778,0.2714017565705738,0.08808153127327255,-0.10623431915886596,-0.1203467725822078,0.04031812732920601,-0.13377239343853356,0.3955763415286022,0.15903129985861209,-0.18669706919025306,0.05796848067986301,-0.24716791171384594,-0.09175726353788585,0.46901108827500887,0.45204729048143955,0.16560641880921526,-0.034849892096622294,0.12500583750078365,-0.1213860730354662,-0.11697142887102585,0.38959915383672933,0.05783922996103975,0.007719106140521965,0.18066433748460384,-0.08741741601708851,0.06729541563318164,0.012593938865084283,-0.1759398140659978,0.0223160743769498,-0.05499036976081791,-0.06590617998111889,0.08775459824278455,-0.1247755128073751,0.06848698872601879,0.023453412522068336,0.04849436344283091,0.4176543043522107,-0.04779173475599497,0.13602633205099704,-0.2790953910165785,0.30372624591832365,0.19281788662246568,-0.23623816595490588,-0.06531333424587608,0.08047056006820152,-0.14702855682546967,-0.4686916111681562,-0.042303939361213294],[0.03121424546155148,0.026401776434679846,0.07409156644041408,-0.20489008038082254,0.03075782112647372,0.135556787887219,0.04280470627445112,0.06011244190277187,0.06409677400828573,0.1300014757570744,0.19768401248284587,0.10446962178952425,0.13612864139824865,-0.03142822067296929,-0.2544106350707489,-0.09546075527176653,-0.17408469258894793,-0.05173188736077925,0.18527126925403045,-0.21827072150089943,-0.055154060222133365,-0.31014462334545234,-0.02341419168709428,0.06383703186986323,0.3073801108433486,0.00830040036922208,0.18994569854503643,-0.07107377267463008,0.06233015671106107,0.20907813868391872,-0.07516695368885129,-0.04571798897115377,-0.20182030693357464,-0.07824572978321262,0.1409470611778004,0.060232259993962145,-0.04121473203114653,0.052387903361747666,0.42586214287042806,-0.05229612093515029,-0.18644767416320118,0.2568018645747733,-0.11055895617576161,-0.007804470966625566,-0.08708866856153866,-0.1151006269753239,-0.00511948962327962,-0.12158133717451235,-0.005261958683390891,-0.2880434241792164,0.19058272469988535,-0.19589542484774913,0.14104616060984312,-0.011453941848157448,0.02171593114334771,0.25314120323122646,-0.04013993552724553,0.09754526115300294,-0.002880723384198904,-0.1453249609575222,-0.06737781506061795,0.09537698133300207,0.033111826570058706,0.14843256975769475,0.00018585318789391916,-0.22364659425612257,-0.006897383393693065,0.2875338055108643,-0.09931828335284427,-0.14636101441254915,0.3474784087276953,-0.05082400310208533,-0.010774928041986046,-0.09163583151717394,-0.27440253962394945,-0.009774835224023105,-0.039123865746426074,0.06674595703627861,-0.20746285454228147,-0.1377969191088679,0.004885269784383678],[-0.105429933869147,0.03652847333749598,-0.1722398110810885,0.04794989706651498,-0.0908511172985707,0.30440562997897236,-0.08405834169669038,-0.13643792110274242,0.05127569017359045,0.20520660904821147,-0.20617429699629275,-0.11399582473203367,-0.151073498998103,0.15083955028192425,-0.19430248656203386,-0.21883313754697614,0.16923555598395307,-0.12296515876083712,-0.1701404688489045,0.020003256013221216,-0.05318342541441884,0.08090644073180736,0.07008866320690096,0.03529534969411975,-0.07825813499916351,-0.14978264690862325,0.22308716114356067,-0.07124367347203965,-0.11123883314892345,-0.04467123746806925,0.028042859857487064,-0.09173429115367163,0.1209601342861362,0.025630989474211753,0.01649822620908623,-0.008267225928407515,0.32481922592680146,-0.07876960427588102,-0.11988666046475295,-0.007847579451926592,0.30012819560869897,-0.04849793844628274,0.08638561259183855,0.09827465566494246,-0.26018297521707145,0.05143700341462964,0.16691044266457813,-0.12054689362048673,-0.04346300559995456,-0.06850166292102587,-0.23387922743461095,0.037338783394065066,-0.023168647408251676,0.07239730110448507,0.1475201127324671,0.1044696646323584,0.04323618112982574,-0.041647637497031424,0.0438241592292533,-0.11761665513052331,0.12527286374491534,-0.0456015255795154,0.2739477639390582,-0.08366326052655759,0.04942799948289224,0.5138940324167145,0.08618943595552292,-0.12113246743620652,0.06703042778303833,0.19901479973197808,-0.06365301073127502,-0.10086080689501029,-0.052309361538812806,0.002700464892721255,0.12819555622524523,-0.040241174678742025,0.08294238937008787,0.1270936128558931,-0.0630329015762802,0.10394648281436174,0.027597353452376853],[-0.42226039656062825,-0.07623105041450619,-0.27436546025589625,0.21694323808974084,-0.07265186652498569,0.04312272070755275,-0.15074680496227463,-0.03605707404564722,0.16629656462314496,0.0773319881027128,-0.15974110822423623,-0.4256867548133296,0.23560364002848638,-0.10421782635979111,-0.0116073633117469,0.3309548205655897,0.03250986389215169,-0.04581120384056581,0.4298209284157617,-0.2159954493823852,0.04582340513884745,-0.07296471344553072,-0.14449501176609708,0.04417085318183526,0.040533709161389694,0.18729552628204807,0.14624930665247976,-0.19926118726243422,0.17716652774681518,0.3260255636081979,0.13399409546889723,-0.09177331662760763,0.01855615411532582,-0.06633289533130712,0.23789462134812417,0.1267324741511503,0.2707632406384417,0.02571853642186916,-0.10436401388244568,0.24963845314215327,0.102875986962527,0.04977340933866574,-0.06462672943757813,0.0463928337337152,-0.05134623843293878,-0.1047570609430798,-0.18164847743430393,-0.11590951570087038,0.09214260002995542,-0.07647870003998258,-0.04207786941114144,0.00902934704466116,-0.2321683467197495,0.028103420598838864,-0.17287886705465236,-0.1929605211959484,-0.12233034423332403,-0.26165856356752515,-0.07361206503019327,-0.02172443153783756,0.14159312849394454,0.15746319721505342,0.1887605197079721,-0.14530470767437886,-0.039487951806132814,0.339254356583142,0.11957419263095427,-0.35264946945506537,-0.027010353219878623,-0.01715305600764674,-0.06121006114325688,-0.2544593458085193,0.06098828636934887,0.24558555536707097,-0.010033048427038272,0.14143806326767705,0.10109168026773142,-0.12639384676940565,-0.2754915116584864,0.0666128108426617,-0.4527752637168405],[0.027866966622448402,-0.18174749998975528,0.012245711320084398,-0.07905280511002838,-0.15424640923599633,0.2245226330290114,-0.08686089268675272,0.151029463163381,-0.036318724298191746,-0.19518588020080693,0.05648405143273909,0.06638543424193266,0.13581566613175455,0.2760697922606783,-0.08679104088278498,0.07904080331057749,-0.034952202241351524,0.06409934254104373,0.18795408562534782,0.079317992827414,0.04063197820464346,-0.05409174475913595,-0.08524027013385609,-0.0027817309936453293,0.08342186235813039,0.10980555198190649,-0.3013215575474373,0.08167965273389739,-0.09042348319458042,0.09105741342439268,-0.15463580489302464,0.14314591063123766,0.008477100515179789,0.1463481026635155,0.16115012634867812,-0.026598557315663456,0.13216405133553977,0.1499871577220778,-0.13024141060262726,0.0007268358064238473,-0.07872397449485803,-0.04708308522047827,-0.0745860904697904,0.12597683247514016,0.05202434391461109,0.06089985327343238,0.2078650559828124,-0.3809379306136775,-0.3648722992392592,0.013866422950304956,-0.050442333065081994,0.1561158983551659,0.027887163395681105,-0.05215906252438861,-0.4059683278796076,0.06617722160200044,0.02843765411024101,0.228114215739076,-0.09183424364317505,-0.09262070297919689,0.23011889032347174,-0.055831780368070585,-0.2196976600353956,0.017302407982856392,-0.08760987657608658,-0.0032868687807574943,0.1453817532697263,0.011502599410779997,-0.16182525945756862,0.16796385125103702,0.2982425539375532,-0.14504911800530487,0.1686464625459255,0.07231970114692989,0.08342895055043234,-0.12179299394132341,-0.005005379912063289,0.09738795281007688,-0.09323651831842501,0.10897243537509439,-0.060706860664983216],[0.21462658543934116,-0.05359095828725964,-0.13175778603982993,-0.1614789537988073,0.0809406106011079,0.10591774547250843,-0.025697027387507593,-0.10062585561979873,-0.04105193003413184,0.09406578520262715,0.029186719855868827,0.30064542185299203,0.10261332416579519,0.010627721453800735,0.16953441392935067,0.05670629710015952,-0.14810962575089245,-0.15304362119489373,0.34399815622792285,0.10475221054904003,0.06309069851722432,0.2397403961031144,-0.17948553525253172,0.17982275709594717,-0.12112675818615994,0.08522240665941232,-0.05842294003041293,0.2855601958786053,-0.04031968134036967,0.18440357330195664,0.5019000556196311,-0.025761742706585718,-0.12129903399253034,-0.018101003265745205,-0.03581696001029481,0.12061673860835298,0.0711383104329564,-0.19516148824551585,0.09480931248989434,-0.04999113116064759,-0.00975671565039614,-0.4686893859396659,-0.30784073035948933,0.23691472505526984,0.4160564496568211,-0.09288248826170391,-0.011837910205776691,0.1182692044720392,0.13549385773598396,-0.029000970407676567,-0.17752848447821815,0.1287329055733813,0.18448954688645997,-0.164644391511053,-0.15830470527624324,0.020417191469636747,0.11578218913649212,0.08189823740625414,0.01574620524789862,0.010525859303894207,-0.06630817379769632,0.08706725863151155,-0.04843371007837598,0.04355474688889378,-0.09644007260447912,-0.054278506322190105,0.16087204847962208,0.10585200038876354,-0.04704934711007007,0.052218936751367094,0.010409445733457475,0.3683059960357918,-0.0756789907032308,-0.03491596002361047,-0.03380165809164902,-0.014970264155427548,-0.08082814651212429,0.16758370319999297,-0.05266590128658554,-0.06471217808175794,0.14482270226427152],[0.5816369752096873,-0.010647707797898726,0.1615879477413969,-0.009376582312915648,0.08714630348982365,-0.19424333200341873,0.10690601319364984,-0.06820863388721898,-0.24237052127791836,0.014502504273524732,0.010360436714962697,0.06734750103225777,-0.0875630365727909,0.09608857633363888,0.3609346325592479,0.1712790933449048,-0.03938698978713922,-0.137403968300115,-0.01046705467985618,-0.2352869137759277,-0.2478614725729739,-0.09948924099539598,-0.02224548461421798,-0.06349831166641444,-0.15809550808989842,0.09731112747316006,-0.005852285068651343,0.15265754359622025,0.09788801219816508,-0.006568751081610275,0.043630999442929225,0.29589568429756385,0.29186782854947085,-0.04698519618850234,-0.28470085573687953,0.08576332352427524,-0.05215364333360327,0.19276212962551967,0.3155859579874881,0.25202691311581943,-0.06134522228285235,-0.16853077571688405,0.324940366056036,0.17882699355224196,-0.2732021688489875,-0.2928213030335142,0.10286715622221129,-0.5634575589794812,0.08185640253735721,-0.01319359206798135,-0.2398659481839341,-0.12544403553455527,0.14198506410556047,0.30480413065141915,-0.13070587265304803,-0.17276913836864025,0.07385738328975106,-0.08464951194899933,0.0014527725805039728,-0.11721667399285488,0.04460243497839376,0.13032502585097855,0.08593479509081099,-0.016424314097079066,0.03406883764570214,-0.09988500971112749,0.09808259106743766,-0.3722136445681117,0.04884545530938418,0.04351669815134062,0.10050736929261163,0.09192417850177248,0.22245933350301564,0.2218006561342865,0.08713901804703854,0.24035738182436517,0.07653136102767576,-0.09047058454372103,-0.43298909977245315,-0.059469754288874,-0.18633564721157636],[-0.052975856143968804,-0.07471615693980811,-0.07819727280786708,-0.0015190290801509211,0.10175192830870536,0.08904464941728402,0.03136261840392151,0.1087476982520438,-0.025385986627944033,-0.09226472314043987,-0.06804788458131165,0.05962518143883666,-0.21582813915562518,-0.038534517324015936,-0.03896905865160868,0.12666324914221513,-0.2230388528576044,-0.0896504560568847,0.24186949837876612,0.2712783877146843,-0.1438691995508943,0.17780394783519524,0.2693482102454164,-0.07593784710328899,-0.3012033059670477,-0.05620736995264757,-0.00779841208989254,0.1340513695046269,0.06428292939329618,-0.12168143692718814,-0.2593288494221866,-0.02576757447997607,0.06827268858064874,-0.24052455132109812,-0.054999017654135514,0.028677781243991066,0.021980558838428928,-0.0928515335083295,0.10225909136460444,-0.07116456366036047,0.08665798464875271,0.18377876693414316,0.14934754584963253,-0.15450746538263027,0.04629636370311506,-0.08755985654350838,0.2593488690305292,0.11007088690366112,0.18194851658985195,0.11896843317593833,-0.03842403602495879,-0.059728651644659236,-0.2061298426318975,0.2445472213043446,-0.02455640684481496,0.06971111262238663,-0.07104559431175596,-0.1424866879278931,-0.010107246389857147,0.013535867896794854,-0.2871044830319128,0.14231595552058307,-0.09605101182163714,0.06941463798013456,0.006884564619147595,0.17052708932103902,0.006235466151421841,-0.37301398096116445,-0.11093187509428387,-0.033260268438738506,-0.0060077681917371185,-0.08493910453714704,0.0695276773412132,0.3826668217632198,0.29330390021280256,-0.04649143272251355,-0.34965218406539444,0.05628450830686735,-0.12389619728822236,0.2378740804397746,0.128024518018329],[0.19156409759376783,0.20885772133113023,-0.02233780078509679,-0.09794546394805059,-0.07642076192107049,0.10050825207267772,0.33047119728766405,-0.22734129432593034,-0.12867251623490764,0.03774026976189376,-0.015083093005621653,-0.19039600415125593,-0.07597540738131085,0.0925275771005938,0.024923611649308005,0.03161151864703812,-0.02743496866908826,-0.06512072200381559,0.051013539807476645,-0.06510445610943269,-0.016502322861359,-0.048546378496404946,0.05281213625687033,-0.059956820270454333,-0.13039344410885148,0.06395959485114143,0.11892296025663272,0.006887794200436787,0.0023205977694956844,0.006405921873243859,-0.15462894406546582,-0.08136539462362584,-0.13544494980692395,-0.02113686694243568,-0.16945410254477788,0.049596335216922284,0.07997684374126907,-0.008530390145902409,0.08686356113482195,-0.26746377388492226,0.026330219226278817,-0.1113054361573189,0.1606487663203357,-0.0013316400549825943,-0.0344886249336608,0.023975257862109425,0.019617678555320477,0.032873099375484424,-0.1010706492650974,-0.02668870019595312,-0.030243031758937746,0.23356230448748347,0.12799747949307932,-0.23346569857290808,0.07367168059426721,-0.06590801082390874,-0.08333175264481121,-0.20453392677372137,-0.005761940301940266,-0.22120722124487507,0.005510765305956882,0.34535952968499595,-0.209697564162781,-0.13772430050716852,0.19264930398231925,-0.18384141137580057,-0.14897089407791647,-0.04698197325987282,-0.13580507304874848,-0.027024612727893742,-0.0212859938320781,-0.34795467038113426,0.14430096847229773,-0.002796267831853288,0.1420455399143101,-0.14663385920798322,-0.22605133689515902,0.3076340041525479,0.2819817388108618,0.08107351316969713,-0.18385154277285615],[-0.49826684477877975,0.226071542606173,-0.12187119736042111,-0.03206771327252224,-0.33430667957144994,-0.037721305922572494,0.01213296300113489,0.20342906136066488,-0.015011225883239622,-0.19949631706450932,0.31590468045453163,0.027162806659182387,0.14927796789091,0.3623687132135682,0.013759411489511552,-0.05837148880581568,0.02493968777022123,-0.06636304663559442,0.03614399527631704,-0.18749839078623862,0.13810573111980678,0.08509612221639194,-0.24137211154774857,0.26864730956695737,0.15687327215676886,0.1032054409915471,-0.07133309021324533,-0.0873564991373153,0.11314534617199043,-0.07377346265869705,0.30550330338613396,0.049216924695083535,0.38099607467119034,0.16127584045939872,-0.011837749958978431,0.2066101976829996,-0.21407236166169408,0.27540967511390757,-0.0064548160532602716,0.01848827719653918,-0.018500436102397086,-0.0170770299720066,-0.17529831047545735,-0.05040340372083658,0.07581465441265653,-0.1881663893198542,0.0859638690649724,0.011522164454563225,-0.02850310787908101,0.1954501032572099,0.207813303626427,0.06298982831509448,-0.21011260042640448,0.13801203087972225,-0.24022105555248097,-0.014411411733016318,0.15956217685766944,0.058376420596112526,-0.01735908849239486,0.10561200142282766,-0.06574656224611174,0.13551231051120938,-0.10940549163407656,0.09743880116368661,-0.026671583349104584,-0.043819493696473304,-0.09248196876551511,0.08132953706126536,-0.317608385539295,-0.09377966507605066,-0.14380351494262283,-0.1623607610382825,-0.1005569376993257,-0.08728489714834316,-0.026212247325856676,0.3392903245945451,0.08186750160234937,0.030451321252524498,-0.07763380294287683,0.19809345890517835,0.05442187026290015],[0.3217711205124292,-0.3106079187977888,0.04506954528430713,-0.0010941999992242941,0.08772979427027087,0.029469513706192583,0.2563842387466815,-0.04510290921737577,0.24529028637689543,-0.12943129870205985,-0.14968075297189298,0.14637964680829682,0.052139658434198176,0.08735830776200917,0.009663820092791662,0.021850251868964436,-0.09020309210006303,-0.06681555680001258,-0.03600786855844911,-0.023938893654977495,-0.2753280331090794,-0.0888129244046736,0.10604486932902545,-0.29941156070666375,-0.01905855394434158,-0.14275972654746935,0.11227581376546923,-0.08009154871900506,-0.07163457720993817,0.10958985616376757,-0.10491467889059233,-0.17137272764855832,0.1391539486279674,0.3609007775477229,0.04713058833569143,-0.07968588644696054,-0.08474331125091598,-0.15821596971008536,0.06750260641653417,-0.105083919109052,-0.250025183594171,0.24657206969510723,0.002182296068622021,-0.15463156739275408,0.11548273837443634,-0.13599063078186513,-0.15944366907021224,-0.052948566165117034,-0.03775773487232285,0.37075337909153405,-0.05090771442760207,0.06387285935956077,-0.036218629330038554,0.1104942604971891,-0.2874297819634496,0.10932009331030244,0.24672970034664823,0.13854648929884603,0.13070795642573535,-0.04825255873892318,0.14228131820175768,-0.008028414544179073,-0.20090169222444443,0.11796837943790416,-0.07213303002467954,0.06292888662727489,-0.050910432540936405,-0.29216221378216206,0.15364442521198546,0.08792407038313421,-0.021172975888458987,-0.2000213848533945,0.23160131208929072,0.1959580395663315,-0.0011356538776833612,0.1438412682660263,-0.013381934323889884,-0.3082513480297031,-0.0965117223760036,-0.042233955347777435,0.09288293710335974],[0.061706963259404495,0.03762131790307585,0.02088575693007567,-0.08406485874130064,0.3001999915746806,-0.29968335609876273,0.04796834928482062,-0.3509328177731903,-0.24815884771418362,-0.20037274791637325,-0.24648759066620032,0.0692288287214977,0.002951638378276182,-0.01516861279673806,0.07352219780207263,-0.0260449057920322,-0.14079343798708985,-0.08671958152881869,-0.059264751517716575,-0.012073328239755285,0.26954374620098553,-0.26702624740236414,0.1715203029109519,0.022017243598553917,0.25115982175433216,0.21569864979149156,-0.21007658436768706,-0.3073215578611358,0.2874510538425511,0.006277319688533441,-0.02676290179486309,0.08981979750661497,0.08288118917055749,-0.20487841725379746,0.039886997082286345,-0.06283487286637106,-0.23616733203710238,-0.03546920244583944,0.23339723317276856,-0.1339063978861559,-0.04400026675601893,0.010407979241708566,-0.01827660343030934,0.16593971728039608,-0.11693807617993694,-0.21283483988945942,-0.3575214467765099,0.017085525573681332,-0.12349224708875867,0.2351663841454218,-0.0123367810482991,0.14947059237823593,-0.3333114809960306,0.2604737022101628,-0.009866867715533063,-0.06155999350771946,-0.11482553592102868,0.06640556443526356,-0.00392380150315987,0.026800922585140823,0.17045824047266317,0.08798497648306151,-0.30119355144453264,0.12364415319800062,-0.13684572377300405,0.14438834539937276,0.14046802901807623,-0.49625841487470873,0.039808415617922595,-0.18568023280485366,0.04964193585903615,0.04774008624245601,0.121962232107392,0.18966940695159124,0.3135591848996166,-0.2244897198196921,0.07842187023875821,-0.2677585257207438,0.03271321841104994,0.047343020207163314,-0.1315427818226374],[-0.22105039651074426,0.17261239411311594,0.08730375610155858,0.003920156296387779,-0.27148943676275733,0.13053472696322224,-0.04883939166178708,-0.09588798029326674,-0.2229508383996071,-0.2941815351821861,-0.09644092512355984,-0.00483291080952111,-0.0398430889849271,0.05309338054466112,0.00512791740055001,0.01790831365714975,0.12459864907742425,-0.022834765034410277,-0.10091455188613949,0.16554527868317995,-0.013406103625805679,0.023243147943770925,-0.020134314321063367,0.4215301013192285,0.2660485836171023,-0.015581008042837755,-0.027896853097925677,-0.12488025487065414,-0.20309990879682724,-0.09599537236392543,-0.025065988500548853,-0.12805378861350952,-0.2581270832343297,0.24432898231392447,-0.11305334452741868,-0.23867237539312688,0.17027860464582906,0.0446812935663638,0.07382766023657884,-0.021592814228044096,-0.17943948013531313,0.08190952057751645,0.06844792428215787,-0.1708263058456398,-0.3421583239299119,-0.0074601951495709105,0.027167314568933364,0.05489303585906622,-0.03291723575175443,0.14241708665571778,0.07105345030657645,-0.4154149765757595,-0.1763056123958118,-0.11652835086962762,-0.11932941614281242,0.10577806896961961,-0.15431619276319358,0.26599281528445073,0.3670894827722039,-0.0411836278082829,0.0075020287809739504,-0.006235116467245112,-0.025199611610404443,0.004306924368733556,-0.0959440315341963,-0.039846420741925535,0.13329320229512714,-0.028773164445674706,-0.23280781522262933,0.06262086240012034,-0.2298756041606685,-0.06979080539130696,-0.1254392155213483,0.003496009558059428,0.12315993399808896,-0.11610822602867711,0.20604954023963437,-0.11055909857748457,0.10126184949506638,0.11219115281855951,-0.09272618986042375],[0.019593217398529487,0.49438974826824883,0.12303379406376985,-0.056259481657428174,-0.06087152445949557,-0.04453082997286702,0.05280966669772618,0.2315704495922705,-0.0907762867438078,-0.005307803083233672,-0.10798387431600232,0.005205047555009605,0.3060634735916873,0.028954132794943348,0.2310283921389612,0.15748921700206597,0.19135721839291356,-0.07406562974451762,0.307740773655337,-0.014941859796106082,0.1106428110297509,0.015499660469713931,0.3128115637451275,-0.10092487592365898,0.06151836477702236,0.33531257872193515,