{"biasesHidden":[0,0,0,0,0,0,0,0,0,0,0,0,0,0,0,0,0,0,0,0,0,0,0,0,0,0,0,0,0,0,0,0,0,0,0,0,0,0,0,0,0,0,0,0,0,0,0,0,0,0,0,0,0,0,0,0,0,0,0,0,0,0,0,0],"biasesOutput":[0,0,0,0,0,0,0,0,0],"hiddenSize":64,"inputSize":81,"outputSize":9,"weightsHiddenOutput":[[-0.028305703007810202,0.0962549409000934,0.1593402132667551,0.010369472145051021,-0.04980418520217856,0.0842488070611046,-0.12449201996545008,-0.07933445777956936,-0.026806440672502617,-0.0906233722773097,-0.027129581700388792,0.11969142114710936,-0.010540037554896593,0.0395544152802785,-0.1566611383424255,-0.13910901929490055,-0.039863400409533074,-0.06008560907385129,0.0633972641057891,-0.014282606785287807,-0.13638952601385695,-0.09358436595833618,0.022750287967775753,-0.051281067483731686,-0.09362669769940518,0.10252118255171676,0.10638908462442247,-0.05811863842861269,0.040995804501092616,0.12799070315592018,-0.14642016164789182,0.11229703808139437,0.053937394633612946,-0.08729375966386026,-0.05513526669576166,0.1463167027783627,-0.15003409263664433,0.2550555052341908,0.08408733253953557,0.09683097622906771,-0.17166300650339947,0.017947246959734056,0.001999720074071728,0.18822918120262727,0.11880300234325873,0.1418092668001656,-0.1198554544992414,-0.09733559734658724,0.15557645889983507,-0.20217120131568583,0.13453712300496867,-0.20748939243387554,0.04085529084149065,-0.10900446266712244,-0.07055162999549432,0.005876527053353305,-0.15373883629170287,0.1583006806110842,-0.15002341338453348,-0.08306379370084152,0.05107700486456471,0.050276471674814596,0.132744811086406,0.05971162992693458],[0.10409993222390784,-0.07797945290974696,-0.018555138669126222,-0.008835099896552765,0.007270717280042999,-0.009612346431181624,-0.011238864608739194,0.006190103867407611,-0.06113128485346795,0.11177004211191438,-0.22883645850970238,0.030551426705857487,-0.1835877983684068,-0.18164734643800295,0.2949085456479359,-0.14008518659804167,-0.11887062619388115,0.01283777441401954,0.06021668223847179,0.08328376803306606,0.11226996768553947,0.23352693483430403,0.004517193550911547,0.023704307247571346,0.12963702446528372,-0.03164407134497594,-0.018588310685888457,-0.15380365943500332,-0.02278306688631044,0.08347664707775397,-0.1462728667273636,0.057104073001331176,0.0748261670593285,0.12109952616156826,0.4049615520013179,-0.09305323672942524,-0.118853848326556,0.14480366014843407,-0.07401575128540083,-0.1146365015653399,0.08417023167963593,0.07903190834631395,-0.04756731853593757,0.0810085416122336,-0.03931366270568817,0.10560007994897679,0.05708855228962056,-0.2844226795134253,-0.09878813478839532,-0.16086819581679881,-0.13198561826053848,0.12653802212427903,0.2185093201019241,0.1321219528944946,-0.3849942624749766,0.156558753110612,0.14028203556818136,0.08341122407214943,0.08506105042764889,-0.18636975103541442,0.1772187203975005,-0.09619857564947829,-0.05550431565989238,-0.11581888029303487],[0.06344520343487893,-0.256546714700474,-0.1347643607526556,-0.14864190484139136,-0.07003207173683917,-0.06626121110293776,-0.04982542186613707,-0.1192662461940889,0.08711865816357349,-0.01843331804356506,-0.1645096088605786,0.011582840664564342,-0.03799525171549934,0.12684484783097333,-0.028607165664832387,-0.06577007153156396,0.005796169524042684,0.1344458444895239,-0.08217281094568625,0.14071365511818262,-0.09923960481115857,-0.02403264283349667,-0.07672310864366137,0.13648867149501154,-0.04328182424560665,0.025551197367116456,0.10284181636698367,-0.011638914443053,0.11539186758583624,0.17975621043764756,0.06809469801039154,-0.18521808667143724,0.015410045511039088,-0.062140977970688814,0.06314763054227823,0.08516848356590584,0.08431002055846054,-0.12232475453266477,0.14301592859721135,-0.03796670907786671,-0.055963177439375365,0.14342270667517815,0.081426256119482,0.07234574728852045,-0.024987066204236918,0.07938045012447138,-0.07650960571827278,0.05900931629298386,-0.03630716508397341,-0.04115868419992881,0.0309008986812298,-0.16345525846595188,0.16205378928778555,0.0026236577180199505,0.1282423233476659,0.02183492208310451,0.0010822726536252269,-0.14581485797507526,0.12618941658428215,0.18075482384108424,0.16546130413752788,-0.10141033215435856,-0.10126049866656467,-0.04002007970862255],[0.0649067915918098,-0.21298316178603507,-0.09573510214581103,0.14882718885791507,-0.04154192193472441,0.1651999465751745,-0.026118694114333506,0.03274984446511414,0.07456217399300485,-0.29021799873875265,-0.05132792011065018,0.05260600280281417,0.13695154196083875,-0.054039526077151984,-0.11799271238533642,0.2080365200849814,0.04159496961149936,0.0927346794168063,0.04836882195254463,-0.12163684867686428,0.03918916930309633,0.07362535458916124,-0.17970504195362808,-0.013937733444823536,-0.16363205840423412,0.018052284705526087,0.11084034559645792,0.04933378046739527,0.13558342799696313,0.10444880533923592,0.15695124695429527,-0.008539316778859742,0.08691092405729353,-0.0894890724513395,-0.1432563523759088,-0.0637800912439496,-0.059266643019422305,-0.16370887999404665,-0.02173628269798645,-0.009166831078427336,0.029014952055617455,-0.14318422405891837,-0.002437012132797641,-0.08487556994620084,-0.08481872997081649,-0.09640094066650658,0.16317441669078592,0.006954936655809388,-0.07062336587171693,-0.11140654547972396,-0.035012849149930254,-0.08187473584278995,0.005209546907039886,-0.08196793228778597,-0.13194356507566057,-0.3657074963853026,0.014440723837911264,-0.10798458976178058,0.017465875798585082,0.07911923601688482,-0.11281670598810614,-0.15655825412507,0.11247600854712504,0.028328504322474978],[0.014125368736220065,-0.29154306570952565,-0.010100182161507137,-0.20358661494121186,0.11086473952739703,0.029328597177178707,-0.14539133518868785,0.15013048809603174,-0.09647338461819893,-0.10325970864059962,-0.08180574607766315,-0.07100906459395098,0.08937695438841176,0.12439120850020766,0.05048058043093027,-0.1640709536693648,0.03342088084871223,-0.10589074271636645,0.020584018593452356,-0.13154506233840982,0.1015589752614189,-0.02086248176349453,0.08000121789228715,0.14227449122333652,0.12830889751301688,0.052710081304548226,0.11618433620975627,0.018871491782868514,-0.11379982200214718,-0.1001464803859251,0.11947448567821335,-0.13631497002423695,0.060123986083104736,0.01642285180026887,-0.03464024919242499,0.03486911614680054,0.14123264042783104,0.13947858748669653,0.1853618683759377,-0.04309731667655699,-0.03154604429231985,-0.016296204029701156,-0.15222351819384167,-0.07448278696023249,-0.3298529525990058,0.04469615212403857,-0.008586119142243217,0.03586192417301138,0.27695958053148007,-0.10166381046074767,0.0673162818565457,0.05832328494676098,-0.21652143777368155,-0.09786662406941009,0.22021204399015132,-0.022350977817179686,-0.026130129003241794,-0.22689489294393816,0.159751910602046,0.08334732398705451,0.3735469335111983,-0.09785004632729959,0.03343659696530474,-0.11098661050288976],[0.28429664039900937,0.08209629203796129,-0.046788943181383394,0.031954802818843275,-0.08413112383041915,0.06902123591032483,0.22310104519770027,-0.1964184991814745,-0.09835089896760024,-0.026293718961732455,0.11983589909904892,0.22707613685901348,-0.1466142859639425,-0.11522897424600238,-0.2696450449078409,-0.2689646482669356,-0.22805767989690875,0.18884161133365757,-0.0369826811585961,-0.12848440398077593,-0.10767184119627311,0.014485628827681868,-0.07950840110287925,0.16006859266088047,0.05047971927882081,0.06970930627522694,-0.08105488472021484,-0.0422509053817746,0.14105915911468844,-0.022988618589771803,-0.0041619581668574926,0.06890803246552613,0.319118871848144,0.11850612515057976,-0.07948630853946556,-0.05024307789517812,-0.08448764953820594,-0.01799866299128711,-0.21173006233031283,-0.07422858629149354,-0.030631230253273037,-0.12609497296413907,0.12479721898031211,0.4400491245054988,0.0684795211368526,-0.09272531901293217,0.1199113079995038,0.15953576677691692,-0.13361404377053793,-0.07118418873859063,0.13809512216340442,-0.2170542248493976,0.2726984266866873,0.03969356067203359,-0.040797902296062484,0.02659866689572023,-0.04968500828452763,-0.08680337262678099,-0.2094630060410184,-0.06991115224575302,0.14899459803953127,-0.030347581977086403,-0.30422668432163086,0.015845171271190527],[0.11771979091598266,-0.03776149165109249,0.06998023019643819,0.14453917154270923,-0.047956644259562906,-0.02795821222944736,-0.027369711296739572,-0.15785202922863856,0.1279127651341069,0.14519312112333255,-0.1581248203160186,-0.13645614593566213,0.24810459641938934,0.15739688101458263,-0.1504103044499605,-0.010565484534067787,-0.01653877475560327,0.055430150675758426,-0.09755430557100288,-0.14061020337476487,0.105040297124386,-0.13830942339786145,-0.1332355320570687,0.15925717744227852,0.08165435397127405,-0.10236696127056337,-0.1033879589575064,-0.2717505216969487,-0.15025900097085867,-0.13336788349283785,-0.07765559571302197,0.0031208170523709918,0.025504108166340904,-0.042130740546834675,0.0161297268253686,-0.1353114365379016,-0.12985228823534853,-0.15778360082270926,-0.08742019993702985,-0.24516170010339994,-0.06177287416549457,0.01906878921578196,0.06102277169696112,-0.035961599321806606,0.20664496748835834,-0.1256584613340977,-0.07758012535050798,0.1393294583468073,-0.004078137658625572,0.19804187896014167,0.04307498870169695,-0.12679589458770357,-0.07196093447517744,-0.060803254593975814,-0.05787993464115657,-0.2787486999653633,0.11528321776722468,0.045447167996474,0.030903867978451027,-0.0584797460487801,-0.10690541167970083,0.1556303295713418,-0.22793595705418843,0.04877078917142557],[-0.04074682586084744,0.002017154426738028,-0.05000080474401382,-0.06525801351819176,-0.0004294306385103507,0.07403869517363984,-0.13714938833636217,-0.1635102420698328,-0.1766863004816855,-0.14755151521734786,-0.42021962232696364,-0.10450388720351622,0.007249484535500222,0.2193224089570521,-0.15794682064128407,0.069334691822605,0.10447401344904168,0.030526249859993436,0.1449336689710926,-0.0760338379864848,0.10605077852265438,0.14392769433102304,0.15530638953469275,-0.013929911169731479,0.07249821203912543,0.07652565970359647,-0.14358458572590962,-0.15560682165764442,0.02556467861447139,0.0476982601384411,0.02546164687127169,0.08856504039091083,0.07339216364884925,-0.07187208392918833,0.04113916094980359,-0.02647669160127327,0.14745176771828739,-0.3473117463148993,-0.06046879558537126,0.055326757393273286,-0.1899143495843191,0.0076285682440109534,-0.13994265670744033,0.08687009228615715,0.008954433188806926,-0.13657634854671427,0.09912925705694689,0.4402399275106719,-0.028613906451136418,-0.08419157130423792,-0.15078152523808672,0.11368436564101034,0.10278056675049019,-0.16524847452592983,0.051247792040579984,-0.13719600379244143,0.03524583763709594,0.027112861629067873,-0.052141888209436486,-0.1431111074924497,-0.142412036065318,-0.09167576035094725,0.32428280555441946,0.10167887626259818],[0.15094701849320094,0.14323624725177703,-0.15085074177679408,0.09749674448763214,-0.09285960677900652,0.0003413077188175176,0.05845122393403285,0.06986878747347279,-0.023264043036885125,0.32510996904755013,-0.12158953512020301,-0.01724927994306271,0.09204595115418819,-0.07529660760453498,0.031060937565644597,-0.1717732662311424,0.09561764815701594,-0.023251927949393156,-0.08538262870424762,-0.15038632228854523,-0.07966084548617346,-0.026765770502414854,-0.02495563222460489,0.0979406168727507,-0.08915579979174601,-0.11923235825600782,0.09599684091752733,0.00014634710022961482,-0.1668106602878687,0.060785577598077935,-0.058236942184569436,-0.07544669692316489,0.07719437193123713,0.04509974417034799,-0.032148884527695445,-0.0029409027574427062,-0.03669466272379897,-0.0380935005328395,0.15743580513526229,-0.1367820418487406,-0.12773457892623563,-0.017293105677096108,-0.11220265277249153,-0.014815097160351596,-0.2859656249427728,-0.13735392005547387,-0.11140895098779145,-0.11650614940647713,-0.018115174737289897,0.1678328728719047,0.05893758179405459,0.0667835522430459,-0.003209879603034492,0.010640501280539935,0.015517665493559233,0.1629522447378711,0.01534410962125883,0.1951227528847045,-0.13220951510779733,-0.024723583745303864,-0.07225544740839057,-0.0030276292958094676,-0.08149496065366246,0.26933991165775606]],"weightsInputHidden":[[-0.07851942957692412,-0.09488349127056418,0.07833107564389025,0.09917196407909634,-0.06660848590979529,-0.04911383668595703,-0.21172604550346444,-0.0347044938996109,-0.026923467725728154,-0.044264153238526,-0.018004987993821542,0.13105016715168305,-0.05364202009270703,0.22155644821835946,0.021778180875939055,0.0948232692018973,0.13367313972020095,-0.09155167242130395,-0.0558111920470572,0.08961169298478618,-0.05503390714128169,-0.06594276037369216,0.03240051830188775,-0.2626528466244258,0.09576481738483705,-0.07383138817675794,0.06898888174533198,-0.08729585404229265,0.010896552186460772,0.001541911720851962,-0.22546492885694866,-0.019518399094908004,0.0969241178078727,-0.04244883568868025,0.07573985234982795,-0.05306759144474467,0.24750450216900785,0.01843125588621428,-0.06720965941293862,0.09666259334964625,-0.025042433137854016,0.07671721119627042,0.03405989158401306,0.08503858666439236,0.08782330449201663,0.29045749883886385,0.0324335772124772,0.04168123293916328,0.057748943129161866,-0.12248058866557697,0.08706038318343651,0.09273412353141858,0.3695392219307299,0.005236737613314018,-0.121329380996408,0.09590564390944056,0.07365436664379241,-0.03217237200564213,0.023046795609669407,0.008126906297504894,-0.08013296062638496,0.19014198726989567,0.07758364573826992,0.001901944488839194,0.15510557119638183,0.07276500536723543,0.08379222333936284,0.07986285703346355,-0.15242202665224014,0.041147217782673044,-0.11778084679586691,-0.03047711983653243,0.012458280477774277,-0.13836625056006563,0.07137052845841432,-0.0073051500359376876,0.059374144369221574,-0.022718311921953553,-0.2690796578093003,-0.09174016431778859,0.09028963014579729],[-0.09581274074629424,-0.07705355071973646,0.026502363586588928,-0.014452569438452894,0.0822511812943512,-0.04950959430616102,0.004040010715677866,-0.07925900048159076,0.07305980322176109,0.09151841977859727,-0.02452781653079742,-0.09919457178324448,0.10578847165782679,0.01955677190133527,-0.1170194126761219,-0.030153961623183963,0.07464833847526599,0.12125552640583417,-0.005070085862524805,-0.018744468825669738,-0.10839173069907802,-0.08403165398268451,-0.08603421629358474,-0.03708938229567075,-0.10066992428221311,0.11248751432634757,0.04300223921005242,0.02924821321696499,-0.0014414875254894113,0.10761445377249905,0.10973697254399294,0.1681041985434085,-0.08293964327380195,0.026373222030031472,0.14395017994339596,0.19231578732350846,-0.09933751736687632,0.06765281665854224,-0.1424019441919375,0.043016138346007836,-0.07803376799678266,0.08848587541585753,-0.001550793647610165,0.41492524079709586,-0.04258596100352183,0.0283377250204643,0.031056350667562405,-0.07401938027537852,0.011984356618246168,0.07730071184899572,0.0789681932199704,0.11891105543109187,-0.07316567474878675,-0.005051705980476134,0.10637572010081274,0.09975237872777054,0.06575949568236776,-0.10557854479913661,0.09369501923766711,-0.014823628446211216,0.062042061221394294,0.056307782544318695,0.005669509988566224,0.0391786327762763,-0.167600591807664,-0.04304580691769533,0.11508159280936471,-0.03434804676379446,0.028187073696728866,0.006795740734913025,-0.2611213471038653,-0.030836201536668002,-0.06282958490367188,-0.06309774037390041,-0.005284134279321788,0.10433629173635338,-0.29216445506776095,-0.0702788185073675,-0.033637317882913235,0.06467411232296656,-0.11637006824937186],[-0.09434530830253487,0.07973850673926469,-0.06595694172955908,0.1617077361962505,-0.059086929844118154,-0.008866563558283132,-0.0984125865222725,0.23538928458639571,-0.0878473130857015,0.07114631980255645,-0.0590564571636467,-0.02215993039291304,-0.10416375950418133,0.03540150167657846,-0.001940173644332413,-0.03808157026741494,-0.05527662921181518,0.09080704675502951,0.07606851228696479,-0.08016964616572135,0.06638658690068044,-0.1524925125436531,-0.11511981096045505,-0.04345762137497466,-0.06269519018645504,-0.2393375497179547,-0.004958518492233732,-0.016512714069463526,-0.09086350521811734,-0.024852233322657565,0.07039413803151506,0.22593668989315704,0.06647204216179577,0.22445126352096978,-0.07330611912963136,-0.13265863671329228,-0.088312729465315,0.053152291768207884,0.13118953681547696,-0.011864375571414135,-0.012605204561049832,-0.007604850547462687,-0.025985041878301536,-0.10601219111439755,-0.012247622742217768,0.1979495779162079,-0.17395941353927674,-0.11493506882905559,0.022580531900290027,0.09906169519852225,0.09338996913751568,0.01297161740472742,-0.07868039880563572,0.021314239205003208,0.11103178331848523,-0.004703669035307137,0.13477089254668828,0.08223983936785761,0.10790655475736156,0.03217685765651653,0.08259333119077367,0.05938106541861987,0.12753231682037455,0.16751637337214353,0.08772200993135645,0.11548288850597957,-0.02231523968114942,-0.03960397269415045,0.04103738474530942,-0.0470173483448082,0.03543257039478661,0.06007603374073401,-0.1015690321296121,0.01870504444737847,-0.02305508689496897,-0.04578032066060952,-0.0862273322032592,-0.03741345986214734,-0.04022801046313686,-0.0033760550552612736,0.11142717941901611],[0.14270154402382446,-0.27866495538403896,0.11089154648729373,-0.38041736595886155,0.013391005450485967,-0.01706790561809616,-0.1194228676591462,-0.10136375159296718,-0.05746764520661267,0.0443687851468763,-0.00917318225024543,0.003955974324313192,0.1430458799723293,0.03578102552279933,-0.10181314740075947,0.01607924651010836,0.045391294430063886,0.058789019217070616,0.058264455299403176,-0.06396295506088188,-0.029077773060256457,0.08240656491372822,-0.24866751952013957,-0.08596080873506351,0.01603854586972794,0.0014949157874947349,0.017937054315502424,-0.07221247015784711,-0.08450102957965117,0.27210348601491785,0.047918261906557,0.1643952365170849,0.07205437398281042,0.1803246036063869,-0.03857717944468928,-0.10747185938537109,0.07707897495929901,0.1113924474949335,0.11076373569872357,-0.014203746058303867,-0.013826762047889858,-0.10080656861004209,-0.45124434438609584,-0.098665070002277,-0.0833651154665047,0.055965737470884944,-0.030329333677668064,0.013316572479426358,0.00931975825630269,0.11633939706079031,-0.11263540995455423,0.08740524814120726,0.03877650039519989,-0.012625967574617522,-0.16343645997465753,0.19857811557358926,0.00677000125062597,0.02750581896734518,0.0069783619138180895,0.06699901274238157,0.2514296646701675,-0.05509844257779539,0.07959092034601542,0.061926659876292194,-0.055538684530730124,-0.04379321228408034,0.08920462469579751,-0.08898928188244679,-0.048884551747641114,0.08763595321765527,0.16826626868539749,-0.0005600392074130569,-0.03708813767912529,0.04143768180721674,0.015395252801396298,0.08491682055512363,-0.04335556789224108,-0.0488990485656931,0.018301793183583166,0.028278654011085584,-0.08542612811112707],[-0.09265035837730358,0.08352220357743674,-0.06421843402952243,-0.06752051659712074,0.0244957061519325,0.1107829104659365,-0.02275948525224298,0.2958221438726286,0.0014669169304480701,0.07577250043157287,-0.0443147912339,-0.023077067624823658,-0.008974941131129751,0.08447666760497342,0.0987073872065992,-0.0035629056353632506,0.02757244112603969,0.052678894178730916,0.04813202806807143,-0.08012172828710692,0.003510465060108893,-0.15214478135345436,0.009970594533749426,-0.0940164525823733,0.0607418909209883,0.05582214862921941,0.055945327743252615,0.09974021802743492,-0.07672565130863214,-0.03354463106268608,-0.06076551145633337,0.06763546907174875,0.19065265187996325,-0.1769692322800306,-0.07908950736028615,-0.05886921841051404,0.012337543182597105,0.1412245053617374,0.21503853572554768,-0.23885966428614652,-0.010213808805053135,-0.055920879678000114,0.06713093189833871,-0.14060915500735244,0.09758862622047408,-0.01837151439131543,-0.10269247103798057,0.0014796666054914186,0.035683368996311006,0.05757660401334914,-0.005325604701333533,-0.0589155691835795,-0.2238250554727268,0.33393119868408916,0.02000742476622919,-0.13826366580992341,-0.0632244400922882,-0.03612219416926406,-0.07618338720046375,-0.11018909685858333,-0.05400762296505411,-0.05740562339912442,-0.06990167513948647,0.04604718701200865,0.025228296678818717,-0.18467547921986124,-0.000120043406598531,-0.07520065420423185,-0.09591448931798617,0.015120463890584012,0.11601527485185131,0.1422557140723622,0.18771033665473758,-0.05300157980953796,-0.08111658244706008,0.016693613306538468,0.09971884408557309,-0.09271213387531974,0.03689057520589154,-0.0005521647410595283,-0.18719713088959913],[0.04489308967166361,0.12428716390929223,-0.0011931071079408213,-0.0431633587589059,0.010329971297324044,0.001148598133875039,0.08467629250839415,-0.03186404044367565,-0.24276453327500375,0.11406862569939773,0.12322345117658089,-0.020590448658267514,-0.012767426886140002,-0.21049397172312106,-0.14942971710081407,-0.1895085876937238,-0.013925273638646245,-0.01913533848981905,0.07051262744791131,0.09552112499672304,0.14608339109853885,0.010790572244512818,-0.07400545357526493,-0.2915253179307213,-0.05063831666734991,0.04936072053817497,0.15833761500623095,0.2154075308719433,-0.3181901824160726,-0.06340982464444479,0.07335323801353419,0.061123482319769495,0.0527497687708414,-0.04801526293180081,0.0072922163453440535,0.10555119665210964,-0.03594911723520019,0.05524054481639734,-0.012182782011138949,0.09948768899480788,0.36929509465374183,0.11662628912490394,-0.15951229932838143,-0.056536081162484854,0.15642038712640727,0.10680360227492072,0.04321963928217838,0.11364214084638288,0.10809584938963651,-0.06434750015293246,0.07861151243661951,0.20335662327921347,-0.001900041541786127,-0.04552525061310858,0.06505671089464664,0.07889335021071527,-0.11710959845187772,0.015779218053326313,0.003439980298994347,0.06657882816434256,-0.27494683409674886,0.13556795881812375,-0.14235394033894921,0.15264889824612857,-0.16754607037635053,0.08874977670865627,-0.0754630486964297,-0.025284007993863804,0.08030849288569376,0.10521308275020606,0.025403789177758956,-0.008077351338951544,0.07296437826286171,0.1484474427575342,-0.17715464152940733,0.09242256361332998,0.045841581496125244,-0.10576629208901078,-0.048124840033628206,-0.05264994022481588,-0.10038253194505058],[-0.1034770800263808,0.05053438019203699,-0.08315158502588446,-0.061365755126052156,0.07964650797373471,-0.0750352650495835,0.051663275896562603,-0.024250674092701385,-0.013691387361821777,-0.044201412798888,0.20455989931954777,-0.016628952812675353,-0.11105599071360155,-0.15093769195707057,-0.03304207267682995,-0.11675681842225814,-0.03343798409618566,0.09864574811779868,0.1042070294242424,0.045160224426579125,0.19815137998288662,0.09535327340786696,-0.0359025535343836,0.12236991178697808,0.0033336840221215498,0.05459860525027651,0.11051736612786824,0.04082285004685735,-0.09502724972296128,0.030900426332905198,-0.076006379230816,-0.05859761750374983,0.044107189406526394,0.11074107801344597,-0.10031200143042723,-0.009068954140239385,0.10707538972054943,0.03303079416200162,-0.0491405646362982,-0.02049430735577072,-0.0285760377771178,0.08950658382911272,-0.07675361484085312,0.09626425983798163,-0.10117229672953569,0.3369461518801323,0.06524733725363277,0.10111300611993354,0.0787495383637052,-0.18114832882159118,-0.058479642362892104,0.062181636627914934,0.10851700054027337,-0.08837270601589299,0.1801506980775196,-0.039975494248196276,0.03610398131037241,0.08914881766706637,0.004572325959617011,0.08911559491949039,0.13823985861199192,-0.05759274757158589,-0.016711155461541165,0.06459106010663966,0.03818984700515568,0.11074256368924593,-0.03471064404228031,0.04135933698656703,-0.07760942187290598,-0.049599010359745684,-0.1007362125022626,-0.14284899107462673,-0.012840093534987112,0.014673291635069056,0.16439979665101298,0.10070291896631013,0.2531011270460506,0.0885034026163182,0.06913817636359555,-0.030682898481325476,0.10804756551874808],[-0.045946519330095165,-0.11644528497175442,-0.06800404975988653,-0.059842581889674555,-0.24523345357719023,0.006213912022596846,-0.011710290571850865,-0.01578319199027296,0.10673447717122106,-0.04554110977662157,-0.08972294967953241,-0.10578972758044579,-0.036376784711396076,0.11461639113829639,-0.09362454283662287,-0.08258373901742366,-0.28764691445996293,-0.0015491965286561747,-0.026209539932208783,-0.04179760319065505,0.004716854255326845,-0.07441360491325714,0.03254228579053636,-0.09420558246942484,-0.051461700796817514,-0.11545935359095075,0.06285745286950026,0.023087613177596777,0.06989812048734252,-0.058274277329456003,0.0005841637628710946,0.02122938407671621,0.011946415827699485,0.031614112027381146,-0.03831875780703669,-0.17324409900410048,0.0026434970112064232,0.11864100182977648,0.07034812696029909,-0.0012193962574564964,-0.16959695928548985,-0.07716095838837825,-0.16687145776895163,-0.018142865217290513,-0.0765453978014058,0.08122794523502556,-0.03735033798828209,-0.1060617202741423,0.014041730286293437,0.03352077725669185,0.14320482997738898,0.01756274879330418,0.04937070201528924,-0.06851655123384026,0.22842734371042783,-0.05436891711613531,-0.15971516150600035,0.04485039939165104,-0.01942097192886932,-0.0773365237129909,0.08006201252347178,0.09047785933467888,-0.0766692099305172,0.005626658103253743,0.07288198436412144,0.10156660245574052,-0.24367186114408668,-0.06607862795678807,-0.051028050773830165,-0.08254389595433687,0.009492287299224385,-0.05653586442294257,0.03217494321643925,-0.25683387217046694,0.06849029289556634,-0.13682688979580512,-0.09967152785844723,-0.018174410776245,-0.18507817975381927,0.12486034695300126,-0.08198276574437731],[0.10564673408325626,-0.04546455719809765,-0.05918850958719496,0.13572697889704113,-0.09644135107849756,-0.007998293926894195,-0.062328010549407266,-0.05065178120924673,-0.12716301899837448,-0.0587279470648765,0.043234561394917714,-0.05313520927682568,-0.09243713811542818,0.10528700976289689,-0.08314923041115845,0.10810658903792796,0.0968539817772724,0.07351678457267732,0.06595656423846007,0.21711027190854476,0.0021132360307353796,-0.16877728704130052,-0.024228856039806457,0.02344254984567552,-0.04253025835161997,0.06860869816928443,0.09421002111389985,-0.0159504487580012,0.050614644903146204,0.11934657531999796,0.022099888959671563,0.02343215725645785,-0.026113071491525697,-0.054675123445042786,-0.0747057139571166,-0.006830694924292155,-0.011877197894865847,-0.3062192711950914,-0.1535880530936004,-0.006876026924722236,-0.00919708157201838,0.029702172320580544,0.03510130175194189,-0.11153108327782614,-0.0025706640792881883,0.0003102797600553078,0.12545321529432055,-0.07784298938341537,-0.07386616620422026,0.03532760710943474,-0.11666810333124342,-0.12034405037702708,0.08762547542982362,0.056715655889640025,-0.08997385311500322,0.04572838916296912,-0.09261634819686258,-0.06670667668715209,-0.008946962185957568,0.08950513876935091,0.08928387878151879,0.0694263295354484,-0.13034469629801543,-0.13246345367732287,-0.056521774395279736,-0.06325240851943005,-0.035501720890965004,0.03597224809192544,0.023658698486858105,0.10751623905011173,0.14705112837795128,0.06372770199883851,-0.14916573521205542,0.03765547964559268,0.04941485692932734,-0.04940885740766072,0.10267990389940933,-0.02812055436233576,0.003465621705773834,-0.3149274900587893,-0.060216357189225495],[-0.11343305164895189,0.011649686844378723,0.06994611447002794,-0.05334401609378684,-0.04651078817409544,-0.04622937769662933,-0.15689936750474584,-0.07390226424870067,0.17433852338932931,-0.152346038675047,0.044457492914632746,-0.12198690913836444,0.1567440312677161,0.26803736626126556,0.08813010224162932,0.0028881822248100074,-0.00421630689350773,0.07543697951347184,-0.14722082820992857,0.0817956241108118,-0.059030401488986056,-0.05967739648827694,0.08714489422690617,0.15068258095712248,0.09671078764943412,-0.021271951647715674,0.05435445091359135,-0.02750028156708725,0.09401786622886023,0.06345582065565053,-0.07760728464912613,0.16770373552904602,-0.04499484564445788,0.03541726513144196,0.07251099244876998,0.1739529616496649,0.13203531960552484,0.030246413322191912,0.01284201202446592,-0.19884923863537537,0.0463091957710648,-0.06708328354915136,-0.020454585078760457,0.08058497848530816,-0.11430198224158132,0.07469626707936608,0.023221231742238405,-0.01808864067394087,-0.06400623458587101,-0.07978502379488316,0.014256068904544677,-0.01946012098001453,-0.26916741027196445,-0.06646981792758874,0.13342347548794625,-0.10021186346383193,-0.07526626703106556,0.057837406417487844,0.0005060956018770019,-0.022896740883931455,-0.10629235911585831,-0.01477024614184701,-0.08447679939096027,0.18780398431065007,0.047562926567047685,0.023633139264186805,-0.12510249018791014,0.01851744800565133,-0.307317192778795,0.07458763652192492,0.0241488221704281,0.004710637694804282,-0.11630446709551687,0.12510549926094766,0.11642001610180432,-0.18285260646328494,0.07179198312429208,0.1275886538142698,-0.15131623673014158,0.0701898502938146,-0.054436857459031505],[-0.055589957678480593,-0.09024611958344704,-0.08017224172724162,0.037452658809698676,-0.08326302991598776,0.06163231852758511,-0.038360894387383396,0.000250455221847642,0.122157164795379,-0.07636554506636666,-0.5793977002447264,0.06456577643662749,-0.04282282075789192,-0.140424369474685,0.08992368020205296,-0.0469068307764137,0.039749322440734106,0.009122879845819344,-0.07982259677376065,-0.05219414875637491,-0.21061004318569732,0.028062218667949862,-0.04507254103154773,-0.10682177807570072,-0.21481106672674666,-0.15816307159784304,0.10057194220800487,-0.06256125385025806,-0.0584980071124027,0.14188704989408682,0.03596880096963929,-0.031456784230734725,0.1357489311817779,0.103502730471083,-0.09095826952749203,0.07310428725057928,-0.0288387638116458,0.06797500539720076,0.02795263971366532,0.007865226940055047,0.023984373779757668,-0.1297769455708058,0.023041796127312858,-0.08565061726209168,0.06354942358682064,0.06972687863535262,-0.0016794077575474336,-0.07698226596762572,-0.15327236143421774,0.09884838884240876,0.06339753210842472,0.024195836844268934,-0.017132781495138246,0.02837747353973321,-0.04069530322050685,-0.01711034613737415,-0.05662629964055625,0.1106502118650862,0.05440830319937954,-0.115045031928128,-0.05805299896376241,-0.08230587732598839,0.32288337607472156,0.026414861944368623,0.01798212570969763,0.020883070428900863,-0.013374617932433006,-0.021487899194804302,0.09980078273007971,0.0870085183563084,0.10748607744081395,-0.06739539426379178,-0.07351200303949174,0.04636578632738297,-0.025204135461148438,-0.11222188307371539,0.09408517545139602,0.0012933812153065843,-0.03871612479826663,0.09122172505065634,0.2378806776199532],[-0.13315952707937137,0.09615543322573543,0.2110918461814654,-0.08805809244612312,-0.22747508129696395,-0.012939717918927087,-0.00025012987125419187,-0.08807012953802468,0.04540057838312064,-0.17540093269078877,0.040537450498504886,-0.11100733494300809,0.019218415279281986,0.05375425541300832,-0.02547045220330696,0.11436062804425794,0.03625822791108546,-0.1012211403512916,-0.09858642016185863,0.03167742053794043,-0.15002281533995707,0.2523463350291518,-0.11091953681043115,0.023468214322775342,0.04755984879016381,-0.07369856332422942,-0.005157029542659859,0.09925378444155056,-0.13795629464014275,0.0730644444242735,-0.14497999164131134,0.09556956175301523,0.1006512316394584,0.05891503632735755,-0.11293643362847028,-0.2606223877532683,0.17671298471332342,-0.1403440710587114,-0.056603890029630066,0.019569959789580402,-0.11446918804135653,0.10091652332610908,0.10277711412587244,-0.01288555474534389,-0.0338105423304981,-0.005944078722340738,-0.07069491792048706,-0.10024702993005012,-0.01055268093010988,0.08560476927892531,0.02579960450845212,-0.02419797005270061,-0.06226261793511419,-0.023846786427170204,0.08567052942391734,0.02059182482641773,-0.21852159735995907,-0.0063156879618645944,0.11195993585281315,0.008174664958803458,0.03234322931097473,0.0186731866071515,0.028139223217312086,-0.11091977346301095,-0.015819527791795133,-0.06769171318172361,-0.09140374718776942,0.015111785693697399,-0.13993344296866284,-0.1169616582460811,0.40169890416157406,-0.09882073326030165,0.07768719967399063,-0.042045074236580486,0.05613919836518685,0.19540179560698048,-0.08379845043702029,0.05970007496433137,0.11036615918264323,-0.08009054999731396,0.1002444575823841],[-0.027109390752728356,0.11472447613968692,0.028417260456790477,0.099766734765876,-0.05750861692068463,0.043582966120023575,0.19244019187214534,-0.11735320968810792,-0.3800042757975515,-0.07918444111411509,0.04666087096531459,-0.10428141637484097,-0.05988917647157524,-0.01944754765396454,-0.11478495828826002,0.05217607071538761,0.08083065492568998,-0.027346664160395016,-0.037229582314452524,0.05858222612781989,0.03401880313033349,-0.0867645490518626,-0.07891953844450239,0.16003323541094114,0.08030654330900933,0.09825943773212548,0.22524177203721052,-0.021822465988013563,0.08458013965643399,0.01317482169814108,0.10469085505064385,0.02863144260737421,0.05762013290671035,0.0961385978104147,0.09973323670700486,-0.12538204935122005,-0.11735943502275276,-0.08567913473855064,0.1388531783377684,0.11186683869658053,-0.04253193445671153,-0.07754973297098061,-0.19927839168777,0.10863662695295107,-0.06473239127729825,0.015735477758280228,-0.05607798687574044,-0.12012799822600069,0.07756995900809724,-0.07844125637481177,-0.05152716527627558,0.06661485706287149,0.08421612018606268,-0.16396406968914062,-0.00219563593144272,-0.04374984938421466,-0.11134397776693215,-0.27768144578567633,0.03232297618713024,0.05781984996568881,-0.03516679174574813,-0.11266961601563905,-0.08984623681408867,-0.11698245303708747,0.06911349894225363,0.09707133521039985,-0.032101878488468044,0.035323395480592754,-0.19359972800139943,0.09471882398421694,0.32081293724594356,0.05530342685013259,-0.011074677182065127,-0.08805347004912115,0.011862260474761351,-0.048010337865087405,0.04014203892350537,0.08248562568966146,-0.131727031337652,0.048255266780709016,-0.03291202737763367],[0.05943341946209068,-0.050129769668729514,0.15355770209647357,0.014875856840268646,-0.0032252456339154825,0.08222325667449952,0.1043045826228706,0.1149285289972163,-0.049580269420125334,-0.0899620036337554,-0.047932793304569336,0.11739625057115695,0.19563417499270547,-0.20237705550486818,-0.07721938719237019,0.10872188440635033,0.026384405017249698,0.1158623458551003,-0.09177180295316761,-0.1935707493158525,-0.001236712070008715,-0.010416218005020681,0.04092647471306249,-0.10560463428576213,0.055524814294497515,-0.17768675480698373,0.004321451245377625,-0.11062469276182138,0.09137250670229442,-0.05308817020742138,0.008778957427706964,0.04657827745225271,0.11612206037659922,-0.017829224514126663,-0.07484291122238058,0.16206489118402853,0.0060470702104040335,-0.10580040240429442,0.1537608953589266,-0.10340342528177204,0.09701808898856236,-0.32445089558700285,0.045792174953063404,-0.0012124003994941858,0.04056526003801513,0.08148832848392909,-0.14204136601583567,0.012099225700561206,0.0881908919879169,0.1011072263227423,-0.09935922107676227,0.11315904327210465,-0.08813249709631062,0.03996599919625231,0.08204777322593133,0.030505762912175945,0.27579405405009794,-0.048345294134437986,-0.21281634163613847,-0.10792630094319318,0.07625954291357799,0.03985218934961573,-0.11663761706919057,-0.08063817977135981,0.024953186947696094,-0.09925434530102636,-0.0021876935716220553,-0.06456423883634668,0.004157228680372757,0.010963177549281262,0.15480792982338315,0.15612456485798343,-0.2419436152890444,-0.0982114772150002,-0.08635382771968621,0.06822686734619046,-0.019054301190746078,0.03633517556184343,0.10279501461600472,-0.06376688971970791,0.012994637228400685],[0.06804501279806804,-0.026568113193079893,-0.014662810809674857,-0.011723456017181118,0.09265863701575931,-0.037161342796262174,-0.11999760417769416,-0.04249646691227227,-0.1406431216392818,0.10269357969055,0.043159348933126965,0.10538489633240149,-0.06831548230218973,0.16096835471908977,0.09156854334209262,0.07224423629953476,0.19038636209534235,-0.08327019431000147,-0.09019937373685867,0.06982121273780097,0.03256601097859972,0.039544536427384515,0.009232105892229569,-0.0034067991342150773,-0.10959236513698166,0.02505201150493341,-0.07153806408681958,0.08237423752396214,0.03315380953727697,0.05270107451471036,-0.20453094111250414,-0.09551600641588869,0.09378027677951743,0.020970277221177867,-0.014174025344748018,0.03316657852006197,0.17049522112965726,-0.03914432128620639,-0.07533799768112161,0.0628928982175632,0.17280903653739438,0.30886296696748167,-0.09389096684051654,-0.017489181298329874,-0.07648517000673835,-0.0504248726626161,-0.09681374600509547,0.0016836580098838574,-0.04004496268086284,0.08441376279809092,-0.2963552925918643,0.07225715225176668,0.10494284733546994,-0.058606325829076794,-0.06761698106396338,-0.007202593174146227,0.031205917544393093,-0.03785499962907047,-0.029890762014931953,0.03855988519656158,0.08848118275190729,0.1469518425620723,-0.11373444849861862,0.18428965534675407,0.04307312221442147,0.043328764717748894,-0.031190789973552676,-0.02156982204205115,0.06440863767078035,0.10087402040292139,0.0213139644381044,-0.03535629153458967,-0.047772587194981786,-0.04771256827925973,0.03773295313224518,0.024270745768605818,0.13701382487296157,-0.1149872548911697,-0.0759688215843532,-0.08601555449384513,0.11293521633518465],[-0.04866840026058978,-0.1968322297624446,-0.23099622114274326,0.002161490271401416,0.05619309578406204,0.07796317957428614,-0.11583184807464263,0.0372074048583225,0.2506798532350081,0.0014127405425878915,-0.06163810260219101,0.037576729301805896,-0.20450191490409722,0.09355265217389663,0.039602761875303406,0.08465382498441855,-0.050267147598006816,-0.1905993712282766,-0.05772286161761143,0.11008236268213753,0.054984382029459405,0.06519374424395241,-0.11579968083856819,-0.031204781890405504,0.018251448955043395,0.19068031044074116,-0.023309772664485095,0.0272414732073059,0.08260778752537677,0.1136358461069902,0.07275742478814227,0.06912690476052605,0.08995520791994303,0.20486286941431245,-0.035662918684929636,-0.09347157629044484,-0.09758691241546393,0.05238965217059205,0.11124923174506134,0.048338598131405,0.10556654871159468,0.06903330003712402,-0.09941930713345082,-0.13873870455795348,0.11133626081291154,0.04030477055476762,0.15417814394947824,-0.007405243502130294,-0.06734483683727317,0.0546689457543973,0.11022621065795073,0.005777347128611144,-0.12653108453835152,-0.015766856600072123,0.0988004078486585,-0.06455191069832461,-0.09265686184750191,-0.008504753007571525,-0.08644816301337167,-0.09187101083412874,-0.10763659636186315,0.07575237675437368,0.12498149926237469,-0.09337257610805201,-0.018117375511319738,0.20689938431245838,-0.034703339019954656,0.048551212482580056,-0.0036762986553835328,-0.07907109146708494,-0.05311151895679605,-0.17356058499533186,0.06253811919339647,0.055104526581183796,-0.05273075209641485,0.02130152599995392,0.17557587842198064,0.060683693792657006,0.18831353056145522,-0.0075766616150350725,0.10911627638842675],[-0.11142295111004055,0.08048735682597233,-0.0866279984581964,0.05566283242533218,0.281114971206918,0.062300493751745976,0.09184368568005728,0.03309205437659077,-0.0312211374912883,0.05658141582432515,-0.025772220280057778,0.018054911936337622,0.08953580425519052,-0.05716093267021924,-0.008872802977440563,0.08476901835640314,-0.1855835945869401,0.10357450201787352,0.07399314723715449,-0.0057436496380788345,-0.11645380367030608,0.04361637475653546,0.03652096687313491,0.18904085875801444,-0.0884115118099393,-0.0003817444801117375,0.04370015539882545,0.06875958403260171,-0.09593669566704961,-0.11121555345083407,-0.13232235238104353,0.011206264023415081,-0.11072023972221429,-0.07481772924502807,0.08273075353228256,0.03863908229349791,0.13305756228511556,0.04837845573208755,0.06125425976273139,-0.05565550005187613,-0.0004242975641065713,-0.039541483135720035,-0.00423332470195556,0.09672760027616213,0.0888386786763772,0.18177272446915493,-0.03652146919927789,0.06325744786398166,-0.061585062253876936,0.11203048480398888,-0.08529892874016905,0.11646806915024202,-0.022101717676287738,-0.03485422151433513,-0.27526099012938104,0.03341531220207446,-0.04876170678404696,-0.07835759463502036,-0.011660764516757237,-0.0069429415634272885,-0.05302386592939597,0.0842175163776401,0.04093081167519626,-0.04088914824169541,-0.05121964813740009,0.07662683102750248,-0.13275490226958608,0.03955384340811669,0.07341940246294557,-0.12109999037835939,0.11629123132509762,0.08275628651802608,0.15854226166782215,-0.10065289379941195,-0.06907334335761653,0.06633578217391392,0.22298966343254994,0.08003510312184386,-0.1076924469976091,0.06830591808156179,-0.07615256819526794],[0.019945415594199437,-0.10857976746514722,-0.008496485077953937,-0.11086456469558754,0.062478651620274946,-0.10338124599096148,-0.10158954246145173,0.012461546975965482,-0.014104758127987109,0.027729477366432914,0.009390809286434381,0.009002148668156153,-0.07645803637061174,0.1118701014246558,-0.05499011671895245,0.22254012542922905,-0.024468124838226683,-0.09285190185201506,0.0598327347946014,0.22228743586983596,-0.004108412142520092,0.055707040148827394,0.033347562888511185,-0.37548561172172473,-0.029177284953802115,0.03385193621991256,0.04153344223115309,-0.09252512681302168,0.0451149374189984,-0.10718859565516439,-0.10351234310796854,0.18495543669858378,-0.10101505150411381,-0.005174124894357921,0.031187029693265953,-0.04665325775106949,0.07724206199740224,0.18536483396149864,0.0035365927508754407,0.16578639927792746,0.013839085225472851,0.1599564006486781,-0.054526968222458415,-0.005680690042906006,0.1252781093449808,-0.04480249802115745,-0.025337208880145217,-0.05719239014092845,-0.004103324162884592,0.05466398013000349,0.14407051528720305,0.09539620772661986,0.2049081483268073,-0.23800783613461132,0.016299887155207776,0.10302401931794404,-0.030084028722119162,0.11686011097844087,0.02905174400377368,-0.06980025418858295,-0.12559103439677546,0.06663098696346578,0.008920586600052089,-0.0846207849507529,-0.16714351117349463,0.010062767967233537,0.14687567930859713,-0.013169870696569394,0.11609564178824068,0.11706953083632311,-0.07585334324857336,0.005928066574749297,-0.03612871600459751,-0.022719757385851518,-0.0536546015792517,0.09473531048965624,0.10072994011948112,0.11115669560285392,-0.09815892105831889,-0.019757336781245208,-0.00015228467953204086],[0.03639219303348221,0.011180717643010705,0.19400521111197203,-0.05416012516178829,0.10401087927625356,0.007687121714721948,-0.0564284589799772,-0.044811069420096,0.2847197287254058,-0.00012231153687262893,-0.2764112811902948,-0.020128446230745653,0.019907220733778357,0.06694798686341417,-0.09582234826831408,-0.05240087916070929,0.05982702420165027,-0.01044580177553294,0.035260081212944036,-0.03899594097006437,0.006844668089527969,0.1100914296783257,0.09686642035010311,-0.09635206131307109,0.25431703289999635,0.08569609387236682,-0.10824927826854301,-0.05496301177601114,-0.20761396094333992,0.034275655006117775,0.061315337030910196,-0.11972644838249782,0.2168167718995721,0.050598968558903265,0.023183803260736987,0.05250734232291586,-0.0860337880393382,0.07291395024416952,0.030326063236087525,-0.1928864490708079,-0.05438968346666685,-0.0726668642947506,0.02585763385012914,0.09606729012914614,-0.17390869020363478,0.24738628601272267,0.004188408533649764,0.010910951598169863,-0.1074441295811676,0.0356443013548287,0.09248861865542136,0.053036208156237274,0.0076704448499009216,0.20085081330437782,-0.013978126771813927,-0.1959446913718462,0.005056762468160275,-0.05068438790782152,0.05974808298048139,-0.022234335655501754,-0.04445135888734933,0.020582004177074106,0.08446181036038251,-0.11099737010373155,0.010461797660061209,0.022030607876263767,0.12207307575312537,-0.028080774812502526,0.1053419844720987,0.05674057566987438,-0.1024874036755857,-0.28270209731078866,-0.2915946779611927,0.11166082706650582,0.10817865259078041,-0.04521843740878849,-0.14463410321905168,-0.008377619820444052,-0.07363887316636286,0.38414958297009194,-0.056666185120622145],[0.19352925563671133,0.0035383539753244884,0.25061279137849,0.002314345393216338,0.010062007000487734,-0.053883248100702975,-0.005503993498490069,0.14079515436051132,0.0010916123137868236,-0.036693835431929826,-0.03587922932286174,-0.03348496588003581,0.15841501118612003,-0.13162686707156915,0.09207220169227236,-0.05174488538493076,-0.0263113642019382,-0.1757677364498235,0.11573981061495078,0.36438966908492143,-0.042264335684790925,0.09844302437048609,0.03555318780253314,-0.004430097917813009,-0.29623321528062857,-0.059238702811989695,0.07705610694045881,0.030404028942506517,-0.048823470875614484,-0.002401246639590337,0.009369204803897928,-0.004031543080451116,0.03195975433548291,-0.06928559231511978,-0.05824003105634064,-0.1802121680092651,-0.0696161894713413,0.05397030466221144,-0.13844295308000518,-0.16473389451306675,-0.05101926961660477,-0.06739770272712309,0.022759716470957647,-0.05591929590259327,-0.13351741947298962,-0.11013677294784967,0.09408067267896944,-0.07685000772515466,0.007803144901455674,-0.11544262306414024,0.005428577324347708,0.05426319278230041,-0.029789540156406506,-0.05828329870138627,0.05518272364389083,-0.07455257780374375,-0.005882890067132361,0.04095870993869308,-0.003135735175079082,0.053706224517129454,0.18310217484629768,0.011255076360491044,0.18302165412964078,-0.012688892716118306,-0.025986443823282912,0.007767764751423303,0.06522149189181298,0.07897494793810729,-0.009350718613964058,-0.11019130298093945,0.08042029439531634,0.0446177208387242,0.027731523235100648,0.11613442761240547,0.0297808576620351,0.10119172525576758,-0.017417143738097926,-0.0866606057711327,0.11520482165057522,0.04827600749721199,-0.12259898903844474],[0.10448410191055732,0.10317885065490458,-0.003813355428158185,0.010855057143503764,-0.02554876533712767,0.07301765618594289,-0.041882125082278135,-0.0023260919807924787,0.28980249815943876,-0.052853786267008054,-0.07661650828466894,0.09099035430377773,-0.06983211503454302,-0.028115930408723604,-0.1895213954492848,0.04749891482207907,-0.02784204986480363,-0.03496717129647006,0.08750464062493137,-0.15564234439112798,-0.05987657233489989,-0.1092219028587182,0.001229266599863996,0.10926253003185078,0.0733373383354401,0.3825583460141177,-0.07163001332951838,0.08460451654954464,-0.16077545129725185,0.0009064720152060019,-0.05651885320328564,-0.0005064840760026182,0.10392711297198326,-0.05555928563099671,0.11441014874446832,0.30034515609346496,-0.018217738457019964,0.02993584879360933,-0.04141196592334015,0.20637820398580908,-0.23797449050615757,-0.06954916279097217,0.02208721711310938,0.1171013480251109,-0.16481804557966587,0.11191740778620769,-0.0559846071781766,0.030972393385339008,0.20473620677929086,0.007427383001246421,0.06845236848432576,-0.07310603366346427,-0.092564930709486,0.2987107379525036,-0.04377699006184135,0.005758393981526551,0.20168478206594304,-0.04590363091403808,-0.09221998111035669,0.11182989332574295,0.05277066483440693,0.010767412668259412,0.0729100264965118,-0.03838422189814572,0.08906007806935726,-0.03389795369039034,0.18454404671327462,0.03835964170765137,-0.06034018970789672,0.18722141049283936,0.0658144677639739,0.02048269876799868,0.15819074115483972,0.08530199236525815,0.09707111316128389,-0.01116211798673227,0.09266698515170746,0.054988605453868925,0.04396862197050452,-0.062179479037123925,-0.09655019010364388],[0.0838353529558599,0.060571922154356375,0.12618278932786645,0.06037532796933655,-0.04834985026332555,0.11638392100662888,0.03166466192837172,0.14846237260000528,0.07955503924702827,-0.05471826917362177,0.1317998483017676,0.10368903949285403,-0.1172257638474197,0.14856038713251807,-0.03934643138771541,0.04361020665608521,-0.02159450033267238,-0.17471309564579887,-0.31987500575071526,-0.017581971977683762,-0.09350640345350274,-0.11444366709904853,0.07544414051505542,0.0007700910544065939,-0.02093245096609053,0.11164171232323292,-0.046283854825653184,-0.004512800827316077,-0.03230119595861899,-0.04067244953948122,0.0324103341589653,-0.08090626867463376,0.2875306862793027,0.06149709978031844,0.08078371248676215,0.09567584694269052,0.2289261929145495,0.052473285133676564,-0.020505979369246977,-0.02830767671315689,0.1863987745917758,0.04743078835274789,-0.022368592299334605,-0.27186426258519925,0.020524286645440624,0.04995398498502343,0.1048043631379489,0.023476928960445297,-0.10567107797997746,0.14134277628915962,-0.04568172361915732,0.1156517418714854,-0.019232929961191164,-0.0820992478602871,-0.03297303854275326,0.11524854477102808,0.08465814533649978,-0.03155776253603615,0.02699528318601818,0.038207354910246356,0.02087851644206198,-0.10776125668694159,-0.17268642429413267,-0.011570264597206498,-0.040793275416488216,0.03790968096323761,0.03145330690359153,-0.07874794333432406,0.08299723097555861,0.06128139670721875,-0.34490166529974337,0.06550180748897441,0.09451628393315809,0.02550309906811556,-0.06131480551507324,0.16489423049780783,-0.011006560505244893,0.07139747385154523,0.04686950903668346,-0.053471722494633014,0.07265499750929928],[-0.10557060347343951,0.07514123144120144,-0.012524311204544255,-0.01049756349745211,0.005424646868131417,-0.10365862310028043,0.1848725472296618,0.10900218360933135,0.07979990796327258,-0.039514958788825584,-0.005791818892289881,0.07565822310231714,0.03298820296298871,-0.22328233310056517,0.1652930697214081,0.061542858203496906,0.06545602124240031,-0.09998221622630883,-0.05329191534329593,-0.04171710990488578,0.16035732592955027,0.04734683816595727,-0.22278372377974306,-0.04767834303083751,-0.005909435886788015,-0.026763711021744466,0.05541870371721688,0.06920961982458174,0.046110289359510295,-0.08625628800964107,0.0750707403277299,0.0007385861542520374,-0.11693630753527924,0.05161806533839092,-0.0860299665022309,-0.09621694896026814,-0.15307244186274546,-0.017772999048569802,0.1449329107980292,-0.19157306641052024,-0.06750050738511945,-0.08451089211403702,0.13931752992152432,-0.08957601765775841,0.040607706814622516,-0.0222175661619705,0.024646681232425936,0.06437545879519666,-0.33187694840084914,0.07480375880077635,-0.0601551672418851,0.03947070059316148,0.07229417701529127,0.09338238327955437,-0.13556811012682612,0.0037860896674046496,-0.03259980860250141,-0.09873645593983729,-0.020323288834072136,-0.09826653912345797,-0.1864258384305341,-0.16795111759316012,0.2803914635964925,-0.050807999203642394,-0.11522987654576346,-0.028755533123374765,-0.1143683395150746,0.07668780621019891,0.10601966430027611,-0.0204002156537597,0.10924429413265356,0.17531515952902535,0.09259411793108942,-0.06455626001818195,0.21164983945874236,0.09014379823902668,0.06013694737564308,0.02573773821531453,0.061223025800008664,0.20251516114100793,-0.22576942913278572],[0.3328421042604876,0.3219345428948258,-0.15170031036793988,0.08893689600318863,0.01630962719460895,0.010501151815408352,0.0341991859323288,0.061362731654256104,-0.044622784870023094,0.027110426257432436,0.10285992287425916,-0.09689336895440868,-0.040648310720217816,-0.04485272085691044,0.012487731383209398,0.0010126269057679775,0.09622226372897483,-0.10142408879300575,-0.0621171675132878,0.002773523771480916,-0.0989436029817738,0.0007462622554239611,-0.025934815932572568,0.05008595319636262,0.09228001575886895,0.19948347142316464,-0.07594184452423505,0.005985315316811775,0.13363832752994959,0.011074270023641447,0.09425214574445216,-0.2394229477484796,-0.06516482786798525,-0.09996590969789673,0.042761018385171906,-0.3244630556871921,0.1084164043931593,-0.06513258127249198,0.0007041613983073937,-0.11487086459032056,-0.03505783628845617,0.004430617120273993,-0.0403826757064263,0.11366907313133777,0.028998416995989432,0.048272082388576096,-0.031048351297099867,-0.14211918643744129,0.01799490328740289,0.03452528215028508,0.0006069823903013246,0.0998239319705182,-0.10326746261040658,-0.0311396844120025,0.19312521389073045,0.0027713981260262515,-0.09204048222423679,0.06406619576018877,-0.006113944517410925,0.039155060433112225,-0.15975539284348841,-0.027708297769635497,-0.17226233151070547,-0.0019795535437767396,0.12518491623872852,0.11339126330139009,-0.07641006386752718,-0.07951837777336464,-0.06644177063640683,0.00026515745412077513,-0.06974180110278459,0.0006773982240355092,-0.0921956279401182,0.08122089664433126,-0.08980264057863843,0.07877228842220362,0.0874394259025673,0.1555498554372563,0.10273078524718644,0.18076538554942723,0.02686501391309656],[-0.1849507279019539,0.10249265940358718,0.056081542712936645,0.07731814739407977,-0.1149265723922805,0.08236392442300494,0.22345308966146224,0.03580413334966133,-0.07298794866013016,0.0079805799310861,0.07637344002295382,-0.07481610171341183,0.11250144236743585,0.07680455690991644,-0.007677311246984308,-0.09915538127152136,-0.06681462326152351,0.1904151672544931,0.07369400667834325,0.07339591553054274,-0.007838721747935989,-0.07509675783183718,-0.1519871537183673,0.1990072540231577,0.07876871149259915,0.233395382224805,-0.35498972106449445,-0.20259967339923138,0.03953580732851591,0.015178252735446644,-0.05737897973127346,0.07050428265390953,-0.04315424114903967,0.10746368351814183,-0.10674474297414223,-0.10483288226186745,0.1161264636752731,-0.09139066455021655,-0.06630626805642148,0.04255233534412071,-0.04991339693672226,-0.15322736867886785,-0.1324719707070102,-0.08154136331130411,-0.04275721198434353,0.09107745531065511,-0.19201508660703456,0.06257280309883184,-0.1059106187268018,0.11049031769760431,-0.05818375281981017,-0.009493655587364975,-0.05481143637430602,0.03298048457544713,0.004195469468776517,-0.09142728764351923,-0.0032482979992723487,-0.06264521966547298,0.16010257888902468,0.07730729935081414,-0.02921530281049074,-0.08528490276420654,0.06405398687750188,-0.17386631605240693,-0.06270857962821448,-0.237152221299112,0.10862569409085407,-0.0109242102888178,-0.09723759615511698,0.08320896226515793,0.10167632141174822,-0.055745312772891,-0.18082930688099277,0.10426533363591,-0.08863488679731285,0.00456341742128886,0.027246037296998624,-0.06621481445101786,-0.055778211771945356,-0.012383158965927017,0.0579840689338347],[-0.046479677677757444,-0.02852247872728639,-0.07829314395936045,-0.07739703547471675,0.07078293208170106,-0.1290907148333616,-0.18152018781057846,0.1425208660839634,-0.015925148322088804,0.044903161590204944,0.03096424066348553,0.09319033400624939,0.03909961879870474,-0.011874015443435342,-0.20377277147415174,-0.17511964697483304,0.15982288500258643,-0.09778952999215722,-0.04269083590485978,0.22639732260684478,0.0841893747238858,0.000006948010759618876,0.0036643947087741375,-0.09675733646470076,0.03194701463375737,-0.00832446174775249,0.10997236804734613,-0.044256168282983996,-0.10548077355006141,0.371641476625783,-0.07522020667890804,-0.07989551386664845,-0.03748137460859723,-0.0031694681704140157,0.0416862426623945,0.1016709488479562,0.027031958480530097,0.10226473835980261,-0.14511393967293093,0.08416532447095953,-0.11014960619618108,0.09891112029763847,-0.10698487971010592,-0.35528745054144395,0.10584984953774582,-0.09406018073864848,0.02559893659938348,0.14591085890613545,0.03792154576804833,0.0959353009756411,0.001015362842472664,0.02352328337567014,0.02909255800400037,-0.17497710066420188,0.17361144474175771,0.00500190025047338,-0.10290090894221492,-0.10450902029397961,-0.03014750510298118,0.01376060873872309,0.03403460088481451,0.07679411061054271,-0.10929156630997698,0.13314470570388387,0.02175130032553228,-0.5109837491319675,0.05128427077103325,-0.010389019206012302,-0.08524444039428516,0.038681354826774775,-0.0010305172638975276,-0.24066445087582852,0.05742020688976182,0.07188016935306754,-0.06685058740450582,0.08408011801107372,0.053150973689198765,-0.03973561232861589,0.1538567551669146,0.2077073065689366,0.09422628088711477],[0.01635990433865738,0.09021734177828622,0.05577289739657603,-0.11271538614036593,-0.014050533727495781,-0.050961690581179185,0.06587611904032217,-0.03390335854571713,0.08216577042053999,-0.1748155568739562,-0.07605848154103154,0.06538841519780539,0.2724175309714044,0.18332295154065792,-0.13835952546108038,0.03387850638788613,0.011956111444795137,-0.0006519624623810321,0.31534076195976324,-0.12526490043386074,-0.04709570635418161,-0.05295429794878119,-0.13233705711379887,0.06414836018778657,0.04670626983095206,0.08406378501062868,-0.010089260899956192,0.11165867264567873,-0.009446531750458615,0.06116714474866845,0.07604579361353908,-0.09782673975588076,-0.11627890844527222,0.13216205419528995,-0.03543770111486251,0.08591530024019321,-0.06524252110401453,0.018556705696271027,0.15907800921492174,-0.046250809681740515,0.18842433225829755,-0.1084895795558623,-0.011029145800213034,-0.0838421639754406,0.05190049113674002,0.0328795670098472,0.044862270902011385,-0.07082524536593293,0.06954048154896436,-0.03731181175431308,-0.1740152612930785,-0.043591925891469194,0.03101321029530236,0.0011904625787082818,-0.06060716659887277,-0.08758779723873733,0.011130346941108583,-0.06389892569437386,-0.08407132497478233,-0.04222885391619828,0.08154098103731085,-0.019585542207986934,0.09596022150810385,-0.10093160313707715,-0.12396538552990903,-0.0450387970584171,0.0323308916154893,-0.0005413355398619465,0.33667125386471575,-0.049042781564215605,0.06716089211792416,-0.030170327395491945,-0.01607358053069038,-0.05081490423165779,0.039575128929070016,0.013033896061744984,0.3082404671790989,-0.19333189755808705,0.05651367366028778,-0.17087293050357458,0.08290206054259334],[-0.03558762841346604,0.0714887034835935,0.07476544117735877,0.02363474422889231,-0.006445349302484858,-0.11567308533678546,0.1406531886270665,0.11028362139270664,0.11256814186022598,0.06205128943134435,-0.23441432266668732,-0.12389938231796202,0.07258675059512261,0.03623921812041355,-0.03278242254529992,-0.009903022003348328,-0.1182091772813404,0.049321950559242614,0.14551818128275032,0.03856552143786821,0.06710545769998962,0.05178671741048379,-0.03915225446884209,0.06234052776534874,-0.049168053699428595,-0.03318254201368738,0.030824895449178383,0.07993686736001725,0.004627352695696909,0.03160661736708345,0.07520357118515324,0.09584216581129777,0.07823523343147577,-0.0004544025473870797,-0.026181857371581397,0.10374119368643082,-0.04320462615259006,0.005091347424368143,0.01588582969467496,0.03528311620612435,-0.09716647369965338,-0.0456225121403625,-0.11241493151828073,-0.048609502328075524,0.028959874654316337,-0.02707047630304735,0.055060364008326215,-0.07326219674550065,-0.16107497296208667,-0.011587154794144646,0.09732835856578392,0.03785628906879316,-0.005197981830100997,0.05623956649424475,-0.002074009180465182,0.05665328743177443,-0.11739564615788303,0.08896917424616073,0.025823624079481272,-0.02977566294828416,0.124973958192136,0.0903802263293347,-0.05208292285633416,-0.02321553435696564,-0.01755784505868879,0.10518848094904679,0.08848339916516065,0.03030297362397082,0.11414382833534137,0.03555328972154652,0.025868305618449838,0.07025876409632013,-0.08836269177289917,-0.057787342400856326,-0.10762046178654722,-0.09053119943894389,0.12102727078405268,-0.0459797685510498,-0.15065192308707603,-0.06948212583529455,-0.18709635481452255],[0.16791416472261234,0.005873136780358262,0.046699630854532624,0.06186942583294484,0.14232969702589593,0.0850092592298623,-0.2095571585043605,0.11515274728137785,0.0964761355035844,-0.10545105391222122,-0.04270527811739641,0.06745082852768179,-0.1093232737456677,-0.033822808057952784,-0.022111074864427354,-0.10724548083698004,0.06929154773994209,-0.05994628766267228,0.032818636680413835,-0.016427599424422287,0.055685520311723136,0.04037293079188467,0.06618994884134473,0.026919053183228948,0.09167574032791355,-0.02115463379874914,0.010366721307364516,-0.02304580857934938,-0.059214475696201536,-0.006085146563959001,0.1050440843320531,0.0474587443151341,0.14078824271776177,-0.022560449424944107,-0.04380757861977924,0.06415897601303891,-0.02474363907386891,-0.12886551604713684,-0.10910440446540237,0.022208606957441136,-0.2697246980286944,0.06994018090159829,-0.03622831803552966,0.042716986058125545,-0.02130062816481557,-0.07473719794225536,-0.2538125883007507,0.1620515157681331,-0.13775323233608916,0.23858585358963505,0.03201177950180723,-0.10291407690466364,0.006973282863848683,0.04215100510948253,-0.053563352968146606,0.212360285926772,0.11223414165792671,-0.015008290585027327,-0.0507634885388432,0.09339440249347285,0.015150816902545902,0.06354611577658068,-0.17420055468360934,-0.11297649194724475,0.04100744094459639,-0.03441969102515664,-0.037366536008611104,0.0778390044470874,-0.07146676377153693,-0.15159410490019873,-0.07945470901930995,-0.011068567639818838,-0.05768707040341088,-0.001656904402331412,-0.058429255905344465,-0.045468167583246406,0.0024061229995620314,-0.11006177814036,-0.020292205471796325,-0.08455091587325958,-0.04804534397809889],[0.05125488943246519,0.01498183026026536,-0.052855347347370726,0.09942374688523219,0.1642166406440905,-0.0024145316559865005,-0.09540279690792847,0.01063833939186779,-0.03693951467814032,0.0012906690629609354,0.0818551894190487,0.06349842964588974,-0.06720476016642438,-0.013767482627093113,-0.06811830577018069,0.08770344669895141,0.02302519591655088,-0.049680131383327115,-0.29319825228104807,0.023352778160154453,-0.03004625857297205,-0.09666128389645998,0.04379280561460002,0.11283937290171829,0.20607663087891148,0.07258885150128128,-0.05177998761803412,0.03452724637736848,-0.034471144832382394,0.02517679605615977,0.13045576293076727,-0.09843682301351346,-0.03899575696619994,0.024580119473807335,-0.0542151504375476,0.003970682001110803,0.09636823439748234,0.17065482734224538,0.09826821492546449,0.06288734529902952,0.011906060945098974,-0.17236204127051652,-0.10732595064491258,0.07242629950518567,-0.021618805077396355,-0.046576422116819845,-0.015283274627946269,-0.025526469881689915,0.3384773673480161,-0.049674366510301084,0.28612105953801586,-0.12193561780266517,-0.05325545903665782,-0.13049858724672206,0.1174327698678374,-0.0970899213093749,-0.11273993108439008,-0.09888308418273326,-0.011114917801384138,0.09896624867965208,-0.026001784738284947,-0.060550374470405975,-0.038043119218299344,0.09301481629142683,0.08579706634888298,0.02679071905194505,-0.07162218991343566,0.04610021132007892,-0.07333630481049723,0.05105977935907349,0.24369921467640196,-0.06965098848986237,0.033210864429068204,-0.08407285138072339,0.0431331054876391,0.04585633590094546,-0.034183246212552,-0.07979721165919966,0.2303278022622511,0.08236279197587143,-0.002655757203047202],[0.10581286591542226,-0.006867996330359857,0.11100647283739809,0.11660876016330594,-0.10622517850029378,-0.07868094322588086,-0.0011065485308241769,-0.21326304890048553,-0.008052661575306656,0.0868822072389602,0.02068198929195015,0.17812352267807052,0.09190613065160884,-0.017841609533089952,-0.07575948724475855,-0.09737118918104733,0.08028212867895589,-0.02402654739042571,-0.09960643929758375,0.05642464585466902,-0.08090726601108222,0.0155993914909223,0.0030980586494593772,-0.0043815082345164975,0.03769662558515675,-0.023119316029577418,0.3902507550908706,-0.05340052679237474,-0.07340230338523764,-0.052180143119675504,0.14415573846516772,-0.16845650242556404,-0.04188074477260693,0.06557854316253418,0.2469742892212569,-0.09810297837487242,0.05224368081651201,-0.2351235230791597,-0.013390854332266397,0.2109522846864501,0.10018718878079168,-0.10839327306521575,-0.11145589907774839,-0.005092617474725556,-0.03842470784631435,0.04480834021709531,0.03710743936587083,0.3541460749171588,-0.05370162457689284,0.015633285937054646,0.08066797856690744,-0.09578473371482335,0.0727711984430486,-0.027946656520803383,0.09399591078134616,0.0896386013223005,0.04483830358131383,-0.10892142076854697,-0.0496469054962557,-0.17145563655227733,-0.13956921581945866,-0.10751587853297379,-0.032052712581696445,-0.016395264698205105,-0.23903460921992903,-0.036462268976104585,0.04763943972486048,-0.1810869239009988,0.08976885282975135,0.04031000767091542,0.11597879109609985,-0.012573732713669197,-0.18545996357122072,0.0528974894352802,-0.05308602412784698,-0.17044326202869142,-0.0855626930779852,-0.19352482988456562,0.06637093095903329,-0.09613119440773038,-0.02277708236676494],[-0.04134062945024551,0.11629466129562843,0.04565588871295422,-0.08005107253979002,-0.0848878800515758,-0.045046607242507246,-0.03846118448269457,-0.11670864863968033,-0.04923039471960563,0.0722987068519514,0.2401540316822413,-0.10812622260244775,-0.02416316852156523,-0.016996896883689085,0.09644572353506484,0.33462937637426776,-0.04343491978513517,0.02626318124661605,-0.050052783003816374,0.047465053082277615,-0.05396836974611399,0.06817985577872424,-0.06497017977492398,0.03918261575539352,0.12917787821321924,0.17992148748018658,-0.05786968472859555,-0.10014798810680461,0.007878266969233107,-0.11116310561490711,-0.08706561470275505,-0.02530825769708677,-0.0406561097561048,-0.04255840683996027,0.1736505061119784,-0.007691194147902403,-0.09115298647907016,0.07640949462814672,-0.11484765371286305,-0.045077564361011006,0.0631304152482549,0.11105752486066832,-0.1380166136921916,0.1508866782104758,-0.029082171254507953,0.052910930286461294,-0.017631491666622284,-0.005018155214325569,0.08555793731486357,-0.07069253993224055,0.0899435285453168,0.29209258519225645,-0.10240126774653018,0.009334375684139312,-0.022889279203854786,0.04780320602541609,-0.09547898460917706,-0.0744752193343505,-0.03599820417863375,0.2200245270752548,-0.08886378877879458,0.09072318427423133,0.08820281974006446,0.031052442734531,0.1083628320416735,-0.0570307690939101,-0.07206980205789729,-0.011826504656315249,-0.09084043048004889,-0.052535266497526156,-0.11292088356658325,-0.089625936918428,-0.11641713135303443,-0.10432388719671956,-0.08796442758879783,-0.05294744282624086,-0.042709960424092475,0.04247174222696668,0.06437609336683335,-0.10881322655942632,-0.05763975420627044],[-0.10458622716743429,0.0301034370087483,-0.09991721839640069,0.10432784032615058,-0.08210749480519663,-0.11027374806470805,-0.061571042647522355,-0.08791832236087983,-0.002150690139011525,-0.06026636770588712,0.03607058777315254,0.0709872565319184,-0.09090033278750641,-0.1694201642780638,-0.10495246757593554,-0.060591806137349026,0.07128565726180766,0.07742166063910397,-0.024319322648784645,0.10149781522238122,0.026671089873146665,0.08961457612821759,-0.01739674201679559,0.07481229828678596,-0.02895834987254162,-0.11216162057520222,-0.10034060882632104,-0.10196800138522542,-0.19044607642686318,0.04914022890060812,0.02496459882715917,0.1231952619335437,0.004512589481387676,-0.039666467622181886,0.042424502391801525,-0.0490888246760377,0.10815258824293168,0.03933076837070898,0.05302181105131056,0.09769866109244178,-0.04334365461496258,-0.11152678590991864,0.10442833803015877,-0.05370635873076438,0.04646957385018023,0.1646169582856432,-0.037987123858398975,0.3605247354701215,-0.04728352618837959,-0.10724085316526648,0.032381613898614214,-0.03831345783111517,-0.02657413622903282,-0.03866750978388856,-0.11739353461539971,-0.10477183887989387,-0.022524880694330566,-0.06051775129425882,0.1839421632303247,0.11354344216046991,0.02209475330452631,-0.03570610825485061,-0.1001696250881302,-0.07036028957544359,-0.2450234054858172,0.03805424829620513,-0.05141226074581779,-0.0513204591590921,-0.06087764756475258,0.028865810733828427,-0.0854232655685927,-0.06511848820906181,0.013949903302235512,0.08171399680901809,0.0237562558234022,-0.09339068046410592,0.0933432551027887,-0.08911148547258348,0.0772181934566528,-0.17665521487067934,0.03585938935506364],[0.09862649798527016,0.0519953865905447,-0.19005785546598786,0.0784794206973529,0.06179319717847283,0.05591135295202663,-0.1877722251774717,-0.06717058271044578,-0.06585833084671584,0.0025706523910246706,0.05293730280864108,0.06504955618500351,-0.15055167875742248,0.034984559874767986,0.03559234609730049,-0.10385742541523844,0.008990717126184794,-0.030429671189825598,0.06802062880665657,0.020773016089794503,0.029591088785939183,-0.04603099598127741,-0.09909478161222644,0.24434648628254355,-0.06502127894669836,-0.15449199253661827,-0.06541409721047896,0.031647324103172704,0.22751088276612794,0.0034654248927827353,-0.046585305073789884,-0.03938131671587589,0.002367118656529405,0.0033821249637777115,-0.03385595323507832,0.2069447943445,0.05423407010590841,-0.046096992755187666,-0.09449688014758476,-0.1764916368342247,-0.04892610048504856,-0.0041672056362751925,-0.09864565374121065,0.027675836970250306,0.05362797794123926,-0.09680396032766268,-0.12499928527349383,0.013614372429038336,-0.10517965312047928,-0.06819561250408318,-0.1197345401639522,-0.07783467278814844,0.17257148121118518,-0.10287860984741258,0.11290494155058224,0.01725921806291066,0.06919903071161712,-0.0782406358057538,-0.08199147738277997,-0.07755576688555613,-0.12543329686257856,0.10206127950820437,0.1394618879578197,-0.12181340498924795,-0.11261616743631603,-0.06996124080305967,-0.01732769563275918,-0.024013286878188145,-0.06887395274350602,-0.1155782952006626,-0.11252950056066367,-0.17835049901543873,-0.08188890583920726,0.20745815779901863,0.03769872525207845,-0.16091109118536945,0.09229238336492784,0.11125952994635033,-0.008351026048115972,-0.26269324523493226,-0.06817875379861678],[0.08453092608210168,-0.027663772849266258,0.037898521261775384,-0.18334581288093937,0.06178364480934229,-0.002743656250907316,-0.05444131816890269,0.07973531579726036,-0.043841336780344305,-0.022438551099744693,-0.02143337576770674,-0.012979313922104269,0.04739620442008586,0.09087513815327856,0.07318340197200492,0.0816716039790716,-0.10070422538544975,-0.09142043278461748,0.021766354717337545,0.04714828596475755,0.015576371582168328,-0.06781544054115289,0.07494467382605616,-0.09077559690253229,-0.21354647602759025,-0.05273104671790233,-0.07001864627645896,0.039992220792464256,0.05953558072478191,-0.0031947378491059813,-0.34037732585860475,-0.0626204444587599,-0.01988531163264168,-0.10624130186575892,-0.034479312662207585,-0.06839548130839398,-0.11358036317646529,0.08130982027417612,-0.0875406878191714,-0.3852484033398983,0.08583293068525805,0.009162481111673603,-0.10019878624291084,-0.09214120321610092,0.014658841506581342,-0.02726483189555788,-0.19733641705826205,-0.048216119344997546,-0.00009335603844072721,0.10706238733299096,-0.04251825951075304,0.04391422755133342,0.16245848069012234,0.12059079242297022,-0.06317678709158009,0.08249048545314594,-0.01135730900308257,-0.10649637819874426,-0.10441556507384545,-0.020081230596720068,-0.010230280310972078,0.1070911591931534,-0.10569064722363186,0.04883993941959285,0.00747610522698923,-0.023378605399641067,-0.03293051533619969,-0.0076660189604831185,0.00984385267129559,0.12249793604583967,-0.14876113867457327,-0.05842752743053152,-0.11215117651207655,-0.06667608033333884,-0.06163854215624436,0.014815736028554048,0.0700800900139938,-0.06098555539863045,-0.049793590479801135,0.020808379102038064,0.08589812524176962],[0.07723330186215178,-0.05035654646258217,0.10930724833840383,0.2675938821209134,-0.03442937713504868,-0.03629318334105708,0.10450543171366725,-0.009496203257435545,0.06093691455380958,0.11126388069956443,0.07841084441046893,-0.014667631181259794,0.08530551034924314,0.2758727587855429,0.14015412622380527,0.06298572136924455,-0.24117313062484652,-0.01944359890514247,0.10001844724818595,-0.1731660605859746,0.13259918488237946,-0.10728210921589829,-0.09188775916732556,0.06383981197875278,-0.26463551577382644,0.07459319914881447,-0.02326495952775105,0.050928257769339444,-0.0771089755761655,-0.08387175377342507,-0.0492788523471623,-0.13903428631388992,0.14652740360593958,-0.10090066625683453,0.14200585739852592,0.11004930663973055,0.3171609406285705,-0.017073069595917277,-0.0436751497621795,0.07789311768540338,0.096237968447822,-0.040600747606034285,0.029945866675690463,0.26610499283759004,0.0015372069611897664,0.03661111566275788,0.06559730254843414,-0.018556713660858228,-0.0020525988710756527,0.09514525844158733,-0.1065034819058732,0.09274929572887207,0.050894261094971784,0.09434421813312925,0.015633447891595396,-0.026083601150171963,0.04053448872043447,0.09778426391478139,0.03628297316338274,0.029560309097806704,0.04262593327273754,0.1172980169862938,0.03422354077732968,-0.10534795405020635,0.008988147701650146,-0.08904177526494535,0.10534981197845927,-0.12081955641921495,0.11736265119817817,-0.023148889668833036,0.1412098304672278,-0.10859537574170415,0.06384950317093234,0.061702245500917824,-0.03634595289231576,0.15413271179700314,-0.028591091268630565,-0.06914265106793074,0.016163205439378995,-0.03270639781746744,0.07084540155602098],[-0.07661528681957996,-0.03623515049779664,-0.07759044493582865,0.03336166627800784,-0.10844513334306347,0.14786329758409622,0.09529759772067219,-0.010594292262610164,0.04967580353869077,-0.16335997120969284,0.012955299102288318,0.15255148847838718,-0.06508995836752551,0.03923914278321752,-0.09742793552457626,0.11720783051803499,0.003927125100319654,0.03970263142829012,0.0789668631999484,0.03448929510101976,-0.009698979014331113,-0.02100940870775416,-0.061576890769426816,-0.08958147802952715,0.022787856408291545,-0.14926702921450807,0.25972627826568284,-0.01534073077992332,0.11030238554570743,-0.019074040164954623,0.2881242177567666,-0.003205461043209964,-0.05722235663654544,0.10667631177147038,-0.0909550820995744,-0.034007653324634166,-0.2026336393147039,-0.08949807872173728,-0.08916255147571679,-0.07253702632178938,0.1109347679671375,0.027369016119159834,-0.09242976967575264,-0.06609478672098815,0.12144893553507694,-0.022575999412072372,0.02025529906620816,-0.03709331612525569,0.03753640043796054,-0.019749213499239752,-0.06193979722444579,0.12316077834105396,0.07850840907620908,0.11092978973006914,0.0009974243275355278,-0.0664360597331205,0.1342843987673928,0.050612656991434836,0.06960003434030972,-0.04849237867375096,-0.06050184016991873,-0.10284131757765028,-0.18064319203221962,-0.14129915865826262,-0.17510609826600643,0.19039374561675554,0.05338481381985683,0.05414320759565268,0.09685252811151833,-0.13571014711865018,-0.0749184532446006,-0.10144121368691168,-0.003367258044680772,0.050023209617768405,-0.10558916895697049,-0.024019595057652533,-0.0068170498338311885,-0.17216123401821934,0.09897240070798441,0.028729410432063732,-0.026272568537700533],[-0.052025528289160135,0.1548601077931236,0.09960343156690077,0.07496477887921765,0.04410994205873755,0.01881784683002004,-0.06464817579554683,0.131377644564189,0.0927304923152611,-0.16801240770405623,0.041111446749054814,0.10883043449854136,0.0731519591111422,0.04052215071311855,-0.11500956245431751,0.08952096845527802,0.03153727428643004,0.024312358127867088,-0.1165361113149485,-0.07639725037991552,-0.0008802915818494508,0.021877096253572387,0.12741852413997057,0.01279456835119269,0.4987070765891729,-0.02954904824531967,0.020409301605897594,0.08213147793586811,0.03276344888986587,0.2568783885367446,0.03055948193108744,0.0024112788430595564,-0.33126298057003345,-0.014152659896707203,0.009009675226652802,-0.013379866142514494,0.09517377211543245,0.10538891435736074,0.07994992553142674,0.015024435845513533,0.010430475780713119,-0.006600593212263173,0.16447759804691323,-0.11088059475743779,0.11430272047328259,0.17445147993853852,-0.14277278064926222,-0.023150856444681494,0.05452525566566176,0.07809638043135697,0.05370461551238193,-0.015980483883804384,-0.11468901343936998,-0.023277650282048187,0.1805732146717685,0.04893339445841508,-0.0847201558988549,-0.17887247821520688,0.08895490446396553,-0.04198635109063677,0.06655470765064352,0.013399616923139228,-0.07899133226413166,0.11582648494601176,-0.10842742664521263,0.008103323297632145,0.09013886288044531,0.022014364088469015,0.1505290101689086,0.2389110614380131,-0.30190309551802125,-0.02543297337344948,-0.2572397984391856,-0.20759975607093906,-0.06169756160413419,-0.060902424887893,-0.01177834270149906,-0.11387713900754208,-0.0033695283975480636,0.051079352825629795,0.113097059657149],[0.14307514529108026,0.03647678735587971,-0.017857972927449298,0.01076471178493336,-0.11062771682454753,0.09514911274960879,-0.06178138670057702,0.008250331699459596,-0.12037230520244874,0.08311060497833353,0.030240701377856696,0.10503955688960831,0.037337326286758024,0.08353121756725627,0.07507046076280625,-0.10272939380318553,-0.06688792176207965,-0.10499750617837085,-0.06326403164079071,0.08338161441032546,-0.008230889516082666,0.30719386206049965,-0.06670305838769101,0.2124457976877053,-0.0915819851424824,-0.054820495141214565,0.049778659350971435,-0.08907673284025278,-0.014275959428251581,0.10083317475939463,-0.009432566360822566,-0.06647421685906492,-0.15745462210517988,0.05824991658096799,0.04622086250856667,-0.21162675016735683,-0.055950193005644196,-0.039030483646687375,0.3413131616446724,-0.2590047462596613,0.061782583049922596,0.05894030214985422,0.22127559592672041,-0.061781055874412454,0.0025912319853390355,0.23261768970545066,-0.21731286285479381,0.27200115371771405,0.04715103131685252,0.03526421836355294,0.10477156078889818,0.251218445842855,-0.1473889826044606,0.10639622904556954,-0.027764563672383846,-0.03547865828825388,-0.1567189549494309,0.047647496835385675,-0.0810550445536056,0.0387498793763764,0.08827446136164613,-0.04749337415117824,0.020237460659881076,-0.07623647363514804,-0.0807517950103158,-0.07218342121578836,0.054260032768643676,0.047553418663250864,-0.010215334830522059,0.018005686547160234,0.07591162540165106,0.2461623795667119,0.0023499630451491453,0.018284492641862153,-0.13876632972600494,0.06986340377051406,0.19467132387947855,0.06899713739471171,0.012972037896207529,-0.006502830249276004,0.04753482205740206],[-0.04935041938394013,-0.08180366295756655,-0.02649558375327692,0.03109725091827184,-0.0647075343565623,-0.0008925180881703349,-0.11712329280317649,0.060454810048580464,0.058018569694074124,-0.012990472834127072,-0.00042010881429215615,-0.007358541470881865,-0.0016091471600079672,-0.008867970436352011,0.03784564384104571,0.10846291296001519,-0.008124667913976924,-0.1702518918832257,0.34624328669992827,0.006740119467523555,0.21541860071152055,-0.056810489824876624,0.06642004195145018,0.2211363404868683,-0.043876915587939824,-0.09418450978843954,0.3277204935702624,0.3933738466146865,0.06892861966457187,-0.03486309263936168,-0.06767497890337552,0.0730488604411759,-0.08558479336480242,-0.08128321297390681,-0.05231157908394644,-0.02787814938687485,-0.09032541097676061,0.016116671681205192,-0.07065969743306084,0.22421923942596061,-0.06517763907417293,-0.03651972697727287,0.0403507596970559,0.0866443131327402,-0.04768360330279216,-0.11676491231327475,-0.07157466253056473,-0.09800154884562193,-0.02894329492452678,0.05124865133161282,-0.07277618647853344,-0.013779112511714814,0.06792889814457308,-0.06828533337991322,0.1417841784292421,-0.07515295751914529,-0.041889468248441364,0.09914164785199743,-0.18456375375831843,0.025528492852792926,0.021693613495643554,-0.13794628455951718,-0.04513867725646402,0.023754727856577625,-0.1010063493614108,-0.0135967067053081,-0.05872086447389711,0.4096518272235822,-0.029655896350065977,0.053973487099443954,-0.1116111921623628,-0.11580113874408086,-0.08907538894947076,0.09102979372946376,0.10786713470025963,-0.01766105272671608,-0.04007091584438672,0.0975167796014821,0.13658806646044247,-0.040570575456611434,0.03909257202234587],[0.06929618463217406,0.011770164088233948,-0.016660472969268106,0.2247723085328074,-0.1485159566230461,-0.11031505569140546,0.13167568259683565,-0.07164960790639784,0.08286692577229118,-0.10794692254441396,0.00820163312440506,0.003487138113731019,0.07661772133392687,0.08805046019026706,0.03945573424159154,-0.008335015981061965,-0.05822426916091737,-0.10447933008068296,-0.03315433751577462,-0.08601466020386081,-0.008862432621477834,-0.10172810803585292,-0.09531115375545719,0.11405941700180211,0.07409760964103049,-0.10006011921604223,-0.1850947484610568,0.03398543208921961,-0.01371008992486918,-0.04576810279087285,0.0932611020339658,-0.06984101994319791,-0.05040837013581622,0.00025316943627713126,0.19750171037165856,-0.04275036398266269,-0.06486448815625732,0.11248271740216588,-0.0980587417134054,-0.12048611178702245,0.14278259914959476,0.07586883580733039,0.08246242415931865,-0.13360018822592765,-0.06325239875181092,0.04891619374838928,0.06725907559053984,0.05457192222476005,-0.06416330065183488,0.010963614066970379,0.06007735454354576,0.22746850192712817,0.04389704568417428,0.06482966570955496,-0.15955715474225837,-0.24336657516550755,0.047246242551921905,-0.17296748270767404,-0.11542353904632258,0.10797419299163227,-0.08418383159964242,-0.2844996541617726,-0.0034101310870551156,0.07432767845098759,-0.05926848128818102,-0.08990267168669998,0.13663104163881598,-0.10850275961147329,0.08269236685770706,-0.09047586307119708,0.10172539675430627,0.036827058807365025,0.041929408723905985,-0.09993333712891143,0.04015639628020757,-0.052134179486919445,0.07573250105207953,0.046476289951760195,-0.10937403285417993,0.0439205588415241,-0.21424378574819525],[0.10773388207498225,0.15115996989717936,0.09883653413564374,-0.018847358900442042,-0.0275658509668378,-0.003476574285281837,-0.10909141564509237,-0.15345830670824726,-0.06498209447256902,-0.08128320378805422,0.04787968372519279,-0.062004322362395656,0.017458810916371047,0.08780542457065196,-0.0942623844084519,-0.06965640476489758,-0.04152353275570728,-0.08926165450375,0.04358312301423688,-0.02994530491307814,-0.06903239675450487,-0.03279929713199083,-0.09184637852282765,0.04466160723474473,0.03159753421509013,0.10749212300602268,-0.07602489604743688,0.03351327873404989,0.05344096485195065,0.12311156182915696,-0.040350935740501526,-0.11144358650381489,-0.017462471317861224,0.041943190958886316,-0.16424314258600872,-0.0690919472625892,0.07301200105110121,0.019070434105095173,0.037929242427948075,0.06896044000577706,0.08868988428080787,0.004495874686621728,-0.022072321909039513,0.05988574498758444,-0.10162081422808279,-0.11470571147773313,0.04343463072611001,0.04730426329786764,0.010165878904873632,0.044370140513177,-0.07583506324100622,-0.09269439712742092,-0.05959256502190811,-0.10312385196076312,0.0016842010009528584,0.05953148502311078,0.11520515973897105,0.03329776362153885,-0.14115754893071836,-0.03008831051687276,0.017959372186484798,-0.1088565493096454,-0.07554863000848748,-0.009362268786289868,0.01681171183795201,0.16223087068136705,0.07428840170424557,-0.1472657338814199,-0.022760587625972505,-0.0838253732543645,-0.1302723319624749,0.036391040765847225,-0.038221445528673965,-0.04130109998322691,0.04012006335736304,0.03226996520961179,0.0701035467266675,0.07132656913838908,0.3579239742099149,0.15930499123585684,-0.04468323967277914],[-0.31112486368757364,0.04956446912765682,-0.033753035131925437,-0.11440037078920387,0.05312763392213067,-0.003982933696188319,0.020430673328344147,-0.05931722739519885,-0.07733493886299697,0.22984471028871195,-0.05205811434111468,0.17901606773924603,-0.004822471600874197,-0.09326521613410908,0.08931741073044477,-0.027534841220132958,-0.06975083854055161,-0.0628169077651267,0.045832489765965836,-0.025183201190888207,0.05815338697744447,0.2114181209760592,-0.0009162511213543044,-0.10818781422978907,0.08781670340292994,0.015335604885413037,-0.10818675670521315,0.10248415903852022,-0.0020175533654725195,-0.2013163291530023,-0.08944606184683053,-0.18862226644061245,0.10450720369437438,0.045161399746998974,0.05118617803040492,0.23082807876830488,-0.09471228683772456,0.13195953353499923,-0.07309795205139379,-0.0397196411114001,-0.07495091102251768,-0.10794063074190383,0.07454924969119074,0.35058418458275303,-0.24049714057074698,-0.03059648657394962,0.10321452219510953,0.0900545175993524,0.03253312796518386,-0.05477512692034376,0.034578280996895416,-0.027734516265997548,-0.016699083096560947,-0.18886817166213749,0.029395270361198007,-0.07727015658155312,0.002608617557355464,-0.03728636938064095,-0.06653764530906651,-0.08202932671940064,0.09239443792102056,0.07278386872905664,0.08244836297765107,-0.22453364695804934,0.08161938011041003,0.07898186540220167,-0.056529657722740094,0.06842243318613488,0.023417613106522687,-0.0877311092877412,0.12767864374772706,-0.11016717245173459,0.05269689917362186,-0.059828126256867925,-0.07823317429131918,0.033547278022587,-0.17351129722061318,0.03274188587836772,0.10942454504193164,0.05445425428362979,0.05907949920645127],[0.0337010604917163,-0.22353412294284095,0.018453583531036915,-0.06531083398253915,0.07189416541931098,0.03047217794073914,-0.04868209946588656,-0.1712925659292925,-0.021571063665065567,-0.09705545767476495,0.03162127476437963,-0.05257414438520788,0.012998482585248243,0.09662395437529236,0.05104993463602205,0.007303921782937158,0.2623205340245642,0.05714581757768951,0.11344163684361544,0.03811493952787099,0.03253129639650209,-0.0002336299550113109,-0.09529728289916878,-0.03816628403283147,-0.014451895879573145,-0.10093530584168185,0.03719074644540268,0.033089023675273846,0.06608754226961841,-0.15398843591680658,-0.05153722531994226,0.10281069735327263,-0.052290242198047975,-0.01684515419142816,0.029799700111786294,0.05514037257105869,0.0187145721461183,-0.08309312373208042,0.05335733842109968,0.03932318577216928,-0.03117756721782523,0.02860752920960485,-0.027793088167302173,-0.03482776750232165,-0.12677499168964004,0.0802968552503861,-0.11635220758714955,0.22845608623803648,-0.019116090842884386,0.029586465431839213,-0.1076398241558439,0.10255846852116944,-0.06574245006851376,-0.02325594643611901,0.03813026811225137,0.27696080290625025,0.032575760744929315,-0.17753806119332693,-0.046857682333616195,0.20487232054405208,-0.10137671220217649,-0.24484148952094237,0.11225674988962224,-0.049337077525276524,0.004406959175156256,0.062425712793068626,-0.08623516781984748,0.11400199542709767,0.10018833440006598,-0.003617465113436137,0.0037117874063509397,-0.15796157959989743,-0.016454891651721683,-0.029135411720629147,-0.03922590745688344,0.09031694721436943,0.07107798270023313,0.0564496029525129,0.10015408903607992,0.07754639853657892,0.04024371330473757],[0.29170616807147,-0.1597195484386932,0.03892389367805508,0.3832874027047024,-0.025771191299427957,-0.025178162933826975,0.029477766258483612,-0.10471007050048567,0.1471878729378305,0.04185280029937222,-0.058946294366628876,0.05095548006878398,-0.08818371306981496,-0.08488481909675483,-0.20557349116078003,0.059905850811991415,0.2254678087621147,-0.11118496204667454,-0.18733847501237455,0.008593134216167734,0.21465942172908653,0.030479403153065097,-0.022663261568004606,-0.018894716177059137,-0.06818536373709262,0.04701200471650646,-0.10933915528716726,0.060465134007058136,-0.07604143200452197,0.10495829003327717,-0.09735633992564541,-0.09392271791746809,-0.073859616474238,-0.23255209257285897,-0.31310557364160824,-0.018556909649703062,-0.028118709907988218,-0.0726458431322867,-0.29201023732941,0.08538467295919351,0.025701347994880316,0.11391287598494333,-0.02232501816469007,-0.07306454854561151,-0.1672323961805194,0.03519780249207803,-0.10397269137414095,-0.06675936160418801,-0.417155863580749,0.06335576992921838,0.04099322286280537,0.018961794016701273,-0.0297108754629916,0.0633491455587177,0.16204690768718077,-0.0937424963477775,-0.08800757768422038,0.03612732712323037,-0.08972169309940964,0.00227656835281392,0.023526420531447066,-0.006711044280560476,-0.018388760677048154,-0.0396650640497644,-0.05200802093191065,-0.18583049274048413,-0.1714284368930473,0.08774087832573758,-0.15331930822596995,0.13424080878124903,-0.013135960208364257,0.05406223929116496,0.11076987978603554,-0.1087307303858012,-0.10497002346975737,-0.07088755813007024,-0.04778635606361278,0.05397267786526916,-0.10414537880050778,0.15129995845829142,-0.040234613033334914],[-0.09784781369870753,-0.0393841037532166,-0.045999708893476994,-0.06496540869791521,0.03855881401738486,0.007242744112565821,0.07812545443143548,0.04470866059292391,-0.05429184885111163,0.07440270946972075,-0.015031177481812295,0.09685895059482137,0.06245517473467648,0.05733920392662998,0.055337762125632316,0.20121743345205798,0.030903391024807013,0.015600593153266545,0.07759934107608249,-0.01260551431045505,-0.03150947707723398,0.059030054182605714,0.08765501607984215,0.06573078181583535,0.11393831092163122,0.19107225645969025,-0.0951764057639724,-0.07969171167411275,0.04847663001600871,0.19063183106102968,-0.006018912648598076,-0.07242598395320843,-0.04944833511366936,0.032240511354501546,0.0884716348301946,0.008107379804351852,0.11406033615462997,-0.14176461797042442,-0.06511582692259774,-0.11093256503016818,0.1112138046119295,0.04362033721277657,0.009914346900364317,0.04375171473400516,-0.03296199492393042,-0.2748027835326565,0.06982206079820884,0.04298323722513412,-0.027931738426147653,-0.07846105262073827,-0.10615580824565164,0.04939237026247143,0.047106702565328826,-0.029162119386402067,-0.0520690581643491,-0.006545166014354839,-0.09763537601020894,0.18462756723691678,-0.05922868264365992,-0.22131357159931433,0.04511106629910008,0.09035140221559285,0.14544234551179672,-0.025723270830229242,-0.2896679769441837,-0.024497646242262527,-0.05092833517612452,-0.10558643362940916,-0.21298359778120615,0.004179530958643315,-0.11286784166624976,-0.0650122376449275,-0.12298506012735755,-0.09985124906319455,0.04712107366856648,0.0229455863273607,0.06302127439242514,0.009648556558420193,-0.016420276574128274,0.09824880752297782,0.0572962942095901],[-0.0758457396180971,-0.045940069751601594,-0.11642638743710475,-0.1271323254272296,-0.0005026340542831871,-0.08545894968546738,-0.10002244163256888,0.033851019552678566,0.05986892589604933,0.07958437373280605,0.012573849111267098,0.17780111169803073,-0.006875300094882536,-0.11936228541468319,0.10563935572839933,0.1501557442713373,0.06551135453384141,0.19310225537339695,-0.23434275638765467,0.19637831705012718,0.09877655457509137,-0.0333240531422126,-0.10821633662242613,-0.006779400610443258,-0.18726024329595728,0.2606382887404156,-0.05078592770276957,0.007447459007198973,0.011421226064852708,0.013407890417608507,0.01034025694662488,-0.21307107119069593,0.21381192205269356,-0.04236833191331433,-0.05470976773524452,-0.14220062861613963,0.10491414239129679,0.13137578451025805,-0.018081154599173505,-0.009126660933821992,-0.09424419938480195,0.01634128962171611,0.08547030547360161,0.0029910110521479054,-0.1540596700865864,-0.11103264020817388,0.10138282492134879,-0.04988067925228442,0.09596564544864632,0.10801611711083081,0.0023323194465931407,0.025769476771062037,0.06947929537412026,0.18643566393821714,0.09181064038481955,0.07460014208851012,0.07535558432777766,0.0016724744190020201,-0.03605508048504678,-0.016183534842046616,0.11671523800940067,0.09913529702379474,0.047269204725370356,-0.024038003839255424,-0.09308549630431154,0.08396510069922156,-0.027335157622084473,-0.03680114392492762,-0.03230319760274486,-0.018271267450014797,0.2657986226485833,-0.14592235342603593,0.131661647418455,-0.04613394971106356,-0.10519124565699377,0.0775463054976261,-0.0009969689758072618,0.05090056078430769,-0.1092368613509863,0.02508297337768721,-0.04995869204498264],[0.0742257646468385,-0.04459871396716863,0.08476023679421331,0.01275187292546406,0.08495437614445989,-0.21264461193907105,-0.45795911885732044,0.05983021358386209,-0.1073822585170227,0.03982716632154004,-0.07072025549508298,0.05857724546382855,-0.18405187587014404,0.060701181683722065,0.0544009961411188,-0.06070210781538707,0.13023437865246423,0.08286557735127216,-0.0917408944622731,0.042711964061808175,0.012102567489769362,-0.09265758724663599,0.2250306746996379,-0.08794636925600931,-0.04100185779386443,0.18147851213049956,0.0032454605564544788,-0.04630988761789604,0.05229869868910874,-0.05918728176894124,-0.1348962252438998,0.04201129114842864,0.11627369778505091,0.029130045046888205,0.0018190705817592685,0.05770769870380155,-0.0825064990688269,-0.1832729173998991,0.054094029819412824,-0.07093278158711337,-0.05645098471150471,-0.21895764033603335,-0.033142823736729596,0.023219748802876763,-0.10092758441328899,-0.10670353049137327,-0.025083349807872423,-0.10804866370041986,0.02184014546716231,-0.02212670208962459,0.0295287751393237,-0.06209161968440871,-0.034807150303578865,-0.05602578675150751,0.2570570998286054,0.11429164810710904,-0.12939578458206707,-0.0006821706499755357,-0.09283165503164167,-0.13530374016743393,-0.017358450064624952,0.10197110498938614,0.0050708156085452006,0.11743556566606547,-0.014102019367800988,0.08160983119953237,-0.10826561664979056,-0.10246931868002108,0.14673966597527546,0.004162128864960818,-0.015092351399386562,-0.014218434884204344,0.10804017682656608,0.01937168620608475,-0.005425877511784148,0.1948750877296057,-0.06617748647657083,-0.04459506539153271,-0.16746903644140765,-0.2122643048184523,-0.09216218829117331],[-0.09981807863725665,0.06505160388019303,-0.09172815637872392,-0.2495233544913409,0.184578638608182,0.05570093731247483,-0.15330358898577343,-0.08756640283288442,0.0715511564622392,-0.034819041277830656,-0.08035963531362057,-0.01404595670619603,-0.36652960531565354,0.07901263009261238,-0.0008682911001833847,-0.005073680804871876,-0.06031879847406154,-0.05157121961076212,-0.062132299370994445,-0.11125520427042097,0.03260633017785895,0.037647322800122125,0.06793713161781395,-0.03423249208374196,0.10368842134334413,-0.023854345614098594,-0.0984776832856379,-0.07328197703281399,-0.12334406665691382,-0.07438039114917402,-0.13280782621789405,0.0029329753191038184,-0.10840829492161243,0.0015167782114633957,-0.2541186132463985,0.13399674281264828,0.09148062612924952,0.023147709944485523,-0.24844976234588403,-0.02849789228314275,-0.019735788846712444,-0.1032079363507627,0.14498218736921542,0.09891180472685449,-0.12389754132163991,0.060068510709904245,0.04911703558272142,-0.000177679095849525,-0.08718821659977032,0.004044997014861276,-0.19597655327655392,-0.06896771763132266,-0.12384501058650407,0.09337693583899113,0.004099547720907173,0.09830012459398575,0.10929363722988414,0.04932922566080803,0.09887456443861288,0.038753386125530476,0.12555017403895402,0.04079754155731802,0.002850429048329439,0.02652006648142339,0.049838304322868815,0.054005863669316215,0.11418508640999958,-0.06542407050959798,0.08076227741996682,-0.08887186924054177,0.055188645559911084,0.005887252870970527,-0.17784817771787104,-0.09765658187860236,-0.12710990199576133,0.10038556834063075,0.06722954920756667,-0.02326013411997356,-0.06517847270360803,0.046439538135808645,0.27104399746579444],[-0.10236470519011796,0.10895502775404943,0.28702966394330126,-0.12040293790196058,-0.11545183604610128,0.0734615042942391,-0.0011911721024123745,0.14099590665379214,-0.056160648108045455,-0.037243067511308764,-0.005922157591538264,0.030760652802160855,0.007080975886566468,-0.08302113138760937,0.2563732656361282,-0.012150445570693396,-0.019367685690838223,-0.010492122019406845,-0.028062592183002756,0.11319687168275144,0.08066977947098276,-0.09506502083955935,0.007126158933043788,0.10890654631278326,-0.0678234219026092,0.043650018633834345,0.056119398212212596,0.004306908605190973,0.1802167143308208,0.06450107467170679,0.1654961343252129,0.12986726128174142,0.05170843998068662,0.0183525096731546,0.07816967648215976,-0.11779706885465632,0.10149686961553016,-0.008828391746917942,0.03077745745245158,0.17432026532186842,0.02992356151802702,-0.0065483340173254165,0.016581074000923502,-0.2723519389016855,0.09811210782898537,-0.05829477751642795,-0.042801748070583644,0.03424342297545265,0.09464936577136997,0.008112637526051177,-0.00428522203789784,0.25939234384294013,-0.012350740890169569,0.10362871048473409,0.1214447128062463,0.030535944185484543,0.0615647408428382,0.09097886114069949,-0.03649792979753631,-0.041507651864719344,-0.12449753064026046,0.031520774254019,-0.03897599792756599,-0.0727711927312676,-0.16525403241046607,0.0519718605499517,0.0833936959279725,-0.04266642401854325,-0.20577744789163824,0.10005454917111282,0.07735087006513257,0.018132296418138762,0.09534838527316865,-0.02477409421240659,-0.05536238591050101,0.0355664637956564,-0.03420025762053013,-0.13431625276151607,-0.05690426558368965,-0.04820852932850046,-0.027908471102744224],[0.17114515587911394,0.029616073406965832,0.11008197459623877,-0.018736097393128422,0.09940294238129666,-0.0957421724433568,0.05898220410043587,-0.0749050564236531,-0.08619313671919952,0.020984991413014412,-0.048896309162708956,0.02764711723229243,-0.1035584506172194,-0.006783567553223965,-0.05168980048522635,-0.10966390038115588,0.06049587525611536,-0.24284987410920236,0.26136616487563996,0.0002826202494540227,-0.11592413163890306,0.42692930730597506,-0.06498630354585734,0.027888586830179217,-0.08602562247868643,0.10074201205771698,-0.21866349709394128,-0.09453433634626845,-0.06892769417592683,0.06287322480154739,-0.06360943718240923,-0.03207095291924913,-0.007882498539766952,-0.2077866684052223,0.01741862037565121,-0.04677663698793867,0.022898820503959718,0.054047066880431205,-0.060216674260016444,-0.000512425926623146,0.047891092793600945,-0.014231324427614564,0.24749676245187138,-0.07220489457610903,-0.021343879803214703,-0.06103713548396831,-0.06759150003644102,0.08855886958428472,0.06111876570042475,-0.057436112998808325,0.08221799509288001,-0.050703125568475824,-0.091814966534434,0.0070062673358623215,-0.06922965857188985,-0.16174031424063953,-0.08467426323969382,0.0606962915750789,0.049463250193858256,0.17136510824691478,0.0846074433933577,-0.11081668111741569,0.011357461647681259,0.022509760097795744,0.10667097702516608,-0.000014053581520444102,-0.040522199709322526,0.049736583580751316,0.07607049015301619,-0.08912318345989452,0.0625153119843748,-0.027484733702361312,-0.09869019325789938,0.11038835626388263,-0.03872343235454614,-0.09307671684843549,0.177592136138987,0.10673425134409897,-0.04637595082112132,0.005424798794077348,0.09291976427463844],[-0.015989188416305717,-0.06694710118232947,0.08884861739851867,0.023003178701296943,0.03716549939302001,0.06338129919948228,-0.02082453091317336,-0.017282328868038273,-0.10282895331564229,-0.02441947235570123,-0.003194491583449423,-0.13052692222763904,0.0012113382551321651,-0.06614566168258884,-0.2048890730536637,0.07646118128267296,0.06082110123741726,0.08656317640655706,-0.19779067568769024,0.11656376339969803,0.09788989736122566,0.16123255867125078,0.19179625489264168,-0.04940519901201862,0.10422310406878135,-0.01809696163997439,0.05519077582608407,0.011231134166716015,-0.07012670911531367,0.01977981969745124,0.061994680865662025,0.09330139318159215,0.06698217548676336,0.005189898725026691,-0.11684579524653262,0.02475111481694823,-0.010474057013460816,0.04351044865051331,0.10498677663160201,-0.17745041017532476,0.04480380056869738,0.06773673176529942,0.11114190501662467,0.04760648179976897,-0.0072282610636269316,0.041964066036299784,0.045615379564884824,0.11260650362729968,0.04299626845148826,0.019599896122766722,-0.08249088076134198,0.07596656027090368,0.02737994603047558,-0.05714890943549968,0.11658476196061855,-0.061382805072842744,-0.10838636694677367,0.10400964903951282,0.08985872791516374,-0.08381633173074472,0.004309651620739934,-0.15627445672765106,0.06462493123638666,0.04126160804916479,-0.147729325745809,-0.01530077651608719,-0.019713330548236575,-0.009103550500560543,-0.10499706516465881,-0.011207721288915116,-0.05923958564335602,-0.08034827111085513,0.12591010177771253,0.010252527089388588,0.0691979651980335,0.04575940553129854,-0.04519873592999621,-0.12460042574432606,-0.05607671969161633,-0.015750962870576365,-0.0531419149729873],[0.1135087749541157,0.10487813990302733,0.032871420154203516,0.2693168373553606,0.03423705351629464,-0.0993725303944428,-0.016184667712037533,0.014000516599297604,0.09987527871663426,-0.3548420078732951,0.06505293667427499,0.00262579858709524,-0.09397911863140047,0.048162617935420704,0.014064399398366425,0.1122525530671888,0.11599541920930265,0.09711371864145171,0.015002135759689172,-0.023514423631295554,0.1708832371164715,-0.09051592896904162,-0.06330103706349537,-0.050533517243967624,0.07402654189285475,-0.15316965732189552,0.08068922867850006,0.13445108348331944,0.011982940605329593,0.04847852681710379,0.003774842655383167,0.0004929391865132622,-0.0998320263059531,-0.010015140202841749,0.09921697700031956,0.1115975992220047,-0.10703568446656961,-0.1153849121598226,0.0882591407457726,-0.07433480896627108,-0.03921443392198369,0.07481083504394666,-0.15578425105996274,