{"biasOutput":0,"biasesHidden":[0,0,0,0,0,0,0,0,0,0,0,0,0,0,0,0,0,0,0,0,0,0,0,0,0,0,0,0,0,0,0,0,0,0,0,0,0,0,0,0,0,0,0,0,0,0,0,0,0,0,0,0,0,0,0,0,0,0,0,0,0,0,0,0],"hiddenSize":64,"inputSize":81,"weightsHiddenOutput":[[-0.4035337107673076,0.2717121092181135,-0.1435691151629512,0.18678936302188853,0.07664106805273577,0.3015575621962531,0.31299761484148436,-0.03467194687967689,-0.16251949073335528,-0.2784935934871192,-0.03973377478039995,0.06598473623898392,0.436445164418546,0.1858615105693819,0.1050062249928737,0.1913083682410007,-0.02144541390790399,-0.042660582157373186,-0.1169506166375534,-0.10373458733541674,0.12201386390518922,0.297197224894005,-0.20019453781055346,0.18182427557425776,0.024946177984180133,0.14703172762344419,-0.5480049812120855,0.07016942317250861,0.1742954012469433,0.14672465513668953,-0.2991061084132521,-0.24593208233703082,-0.21301029004120778,0.023901282715255576,0.3522416929429536,0.15215929760378594,0.14667478995850497,0.1620524891887857,0.08839205462880599,-0.22588959761843505,-0.17430530525513474,0.3457411422760066,-0.14874030534619145,-0.27219799214174834,-0.027333994946633352,-0.04977016580967775,-0.09431458716998964,-0.3172081565832883,-0.05548514567688332,-0.0730688940474356,0.045738523499450935,0.1735624837360799,0.031170590087162033,0.2567503705775969,-0.02652039561797335,-0.04187962725769274,0.18992894689391238,0.0697362035632826,0.014407550458794171,-0.19154397813081173,-0.060173014611480585,0.01700833676653017,-0.12994844247895804,-0.1472114644497928]],"weightsInputHidden":[[-0.03353824550470825,0.008099229610259965,0.3350920522649767,-0.11648347178759577,-0.03872951251041162,-0.0464657343514328,0.10134286136578233,0.04067484331278832,0.0957961624365577,0.16123793945325798,-0.09155571297505977,-0.15172379310578976,0.15473957123428247,-0.06116410924438937,0.04185483808713745,-0.030359012524390636,0.08920228197701179,0.16695189444920164,-0.13578696148234207,-0.2803706338623149,0.19940172103454,-0.5928826660677723,-0.03781828437742455,-0.24285751827962335,-0.0018760664838558992,-0.1529814374412226,-0.12074249988105143,-0.1517401310551572,0.06520201644097384,-0.043725191627933764,0.016396908459746753,0.10084902168338088,-0.33328889456274235,-0.027650114694425274,-0.4276388127425128,-0.09710694161819561,0.016018857257041653,0.07326309765669858,-0.4898185244396831,-0.02987155923273751,0.16601394994869278,0.034759958667825844,0.034889014936003375,-0.0972752966095016,-0.07072318268900306,-0.2021657258360247,-0.2401097470381292,0.20878834823121872,0.07826053506843621,-0.06511515274326975,0.04853104488863604,-0.09783937328464984,0.010769419389467372,0.1842480231183505,0.03262239159369221,-0.042161560439861245,0.02762367119414714,-0.06424424269603544,0.1273027613086674,0.271227807330517,-0.04356770947276348,0.2865619828419152,0.17814754563967006,0.35746177589391076,0.13462515819306028,0.1108276177423136,0.1677969644436839,-0.028977576341181865,-0.08236955653943989,0.1794820355179983,-0.2618175639302388,-0.022420060410852,0.033134062347861176,-0.016821620383042094,-0.15030051604197706,0.03540227357353141,-0.04408983949260714,0.16852386860162505,-0.015150256745532137,0.14975343334303673,0.07080473960244996],[-0.08407970737760521,0.020104121722950438,0.35464342818143,-0.021405595950555835,0.10802353546603397,0.01809929785503747,0.10892754233803681,-0.05987622854842876,-0.033464094276972965,-0.023524352554506057,-0.3925960509075149,-0.1654397450668678,0.1855670325573229,0.1286280636616414,0.17441427337282292,-0.027512035292140226,-0.10455479108096473,-0.11404267460567186,0.061255211813445114,0.23294368524832906,-0.2663552341709175,0.060628599198152756,0.08106379525234009,-0.12973659404192664,-0.00976543828531744,0.030293306046531385,-0.13260241037194392,-0.10972086973672111,0.021107803395753598,0.030657281913916687,0.1142893839905662,-0.06379667934306484,-0.20644808570700066,-0.2810494601396867,-0.13692050981546383,0.053869439006974565,-0.05066828539922687,0.0014465713697586805,0.3577310912653671,-0.001390741000867402,0.22511964925778738,0.20317154623594827,0.14690554254133306,-0.013544377870254561,0.05570454569008158,0.13439787284313404,-0.014951351727689258,-0.02380034269025122,-0.1702754931494817,-0.341137425007481,0.35075035051331793,-0.02814500608459773,0.14404368159278574,-0.15426397080694174,0.028127342536187327,0.04061892131375136,0.2116050928252425,0.032208642876676005,-0.09674892917907203,0.0219151566585051,-0.22344038547627162,0.08032016983488519,-0.2900725451348148,0.008011215019949428,-0.055933086307966055,0.1169221523976746,-0.11988203798612632,0.21921141900330596,0.04513732801990803,0.1161034753474655,0.09675978023783416,-0.06973591556808409,-0.04502719339820307,-0.17954436522740938,-0.07932591623757039,0.29330104205197366,0.4643451425126971,-0.05234812783001933,-0.08582868257586214,0.20710054537754446,-0.04585128232372705],[-0.08840253594450348,-0.1921851077024217,0.003738084757936266,-0.173341916298581,-0.06418003494032003,-0.002056910675630965,0.02261735021998574,0.16358312946665346,0.28337091835509287,-0.17337167977788612,-0.20814495999106813,-0.19738053642337083,0.10318032603035047,0.18946298486177152,-0.013523440394733612,-0.031974400459142495,-0.0007019424625996179,0.04185221101785297,-0.07546736838677097,0.10392829712952424,-0.08127083241325786,0.045823956222870346,-0.1014206654989426,0.1820005142799018,0.1047736318879983,-0.022092404951696586,0.04755482541312079,-0.01608278841027033,-0.07462907592977523,0.003770200845827749,0.1169791819297117,0.057964413324028,0.20076246927753583,0.20829952101741442,0.0686587527358099,-0.025353539762648713,0.007062575209847623,0.012828315373929929,0.17445726725990707,-0.13798625457707162,0.13255709196559612,0.21214498909626098,0.03330563458968499,0.0689636026320272,-0.13827542545975813,-0.29038106277466724,-0.06785583963897332,0.010494255232354604,-0.2731843947228838,0.07736562367249995,-0.06787894785819366,-0.011422117751421717,0.00023788856353343117,0.14303825588937347,0.025879509846858478,-0.2431331026108574,-0.16463887349454018,-0.16910633644376355,0.08205197567435309,-0.13139089911973348,-0.03398876161723193,0.11398270278026257,0.07413426270354836,0.2918727931819774,-0.030166026927361703,-0.14051960948914205,-0.027210847940932998,-0.09341629944957633,0.26773463767321415,-0.05528284647474682,-0.0324071467075887,-0.06176591340674774,-0.23489471128367362,0.011358617044927027,-0.27120441975553944,0.05457099241195133,-0.004129374726305737,0.01880642677611102,0.021738270752734372,-0.06866499892012033,-0.19323128613065066],[0.06652785604022511,0.02491049647360699,0.14940126652864813,0.009976147752376806,-0.15388331595472385,-0.45934361112402006,0.09306597682256651,0.11567900308065336,0.11662846046146727,-0.03561220630773862,0.1376414085938415,0.035051552733136294,-0.23853885387103066,0.10936624152549396,-0.020325487293568457,-0.09661873953239239,0.1070166563319692,0.01949144813658189,0.08172434436155744,-0.08279080613149725,-0.1323308005814044,-0.058766978377749704,-0.05266383226896979,0.15107560662526492,-0.2166892129566619,-0.09123603270925998,0.027708483203768022,-0.04790115608399914,0.10745467444515881,-0.39086168878767685,-0.060361017465291,-0.10094259179629325,0.16977578453491032,-0.2667950868179391,0.10153998687894304,-0.2006479637217706,-0.028784935987272078,-0.040265820763417226,0.28598490537691174,0.27703553242852735,-0.03741091467089302,0.36705201328247933,0.11100715774948762,0.10411767279335436,0.05559670359087777,-0.24745215202619758,-0.2537603884578573,0.21195400284664437,0.18097621532394045,-0.029387175912549832,-0.051764060320437705,0.19095127159350167,-0.05265869290765418,-0.18511023559280188,0.24852084245006026,-0.2970575060151866,0.018147223750894365,0.029731223239367822,0.0074974639760272575,0.10557624295040936,-0.3028099977624358,-0.42543332277435714,-0.16270197054240065,0.12930893695118698,-0.2902021954032353,0.04026553407937024,0.476231914427267,-0.011454533404701988,-0.05122648680509311,-0.1221155112517723,-0.056851981047995985,0.28804876376388716,0.31812061243941864,0.29089923755698777,-0.020183003258928363,-0.053296550134105086,-0.29755171248072676,0.0669738222047306,0.14930151941994307,0.07018596980419797,-0.02703246414603648],[-0.0033988401781804064,0.21722360934431367,-0.1263931779845609,-0.15891207485724998,0.043873788774859444,-0.09043403293806147,0.0974686488709733,-0.06139683123789818,0.28280184310248085,-0.03222372824017462,0.07513018328605857,-0.05018993626739667,-0.09946495665366538,0.24736408733441342,0.31316247206662073,-0.113539698629529,0.24768647527862628,0.06220052822550436,0.2525492382475447,-0.189640411091863,-0.19649221876910544,0.4322923214501216,-0.04142228409335652,0.24475855209416444,0.010388357990283693,-0.09274726008248248,-0.1435169322060429,-0.02692145231750528,0.07642821754777127,0.24950108539204646,0.2693654837269717,-0.13648607787704123,0.05274204890441304,-0.06230163192176121,0.03718158461456473,-0.021097587914308037,0.11046810177466199,-0.24528686695922763,0.016021119949939416,-0.0010345854791946427,-0.1432715270879602,0.0864483287967782,-0.19273400043019925,0.03969394469192375,0.08057697261834636,0.08057399755428947,0.22982569089373917,0.026115020707400148,0.19672722004367424,0.10890243833857677,0.022186172234259203,-0.08572983477462666,-0.06991046753303888,-0.08527529843911133,0.2152290790625217,0.05158662347977421,-0.023878154480940265,0.009378257826178262,0.0033071090958043696,0.11571796487555527,0.31843295041022107,-0.10052477665930155,0.14702267696887839,-0.1863306587148176,0.13118539931984763,0.10528732117030962,0.15326295391245867,0.04881892483908272,-0.007363041265797499,-0.05602412043537455,0.007825856781916864,0.19941647200062057,-0.07631019128270178,0.06449219020159747,-0.09118034141535235,0.34543393441740966,0.03772744603788336,-0.19702519974392588,-0.1541157509949036,-0.22907482869457102,-0.13212211722736547],[0.059703808677853715,-0.048902010959007966,-0.007007403224689569,-0.026037830194030272,0.01786224140002294,-0.024486687591566317,0.09788494417190978,0.09402223175282186,-0.028400632489764974,0.10647569604930265,0.2667671187619833,0.076722425516186,0.06912504764498618,0.17746775147303082,-0.037386456215547995,0.14153899373687587,-0.11325602764397691,0.08396508575542443,-0.1236851612499479,-0.018437861478175353,-0.08319685889524818,0.17301876096617497,0.38170181799300285,-0.10571102638003474,-0.27507923037260074,0.17440475506749814,0.02502838586563894,0.07176142715749785,0.39177536483638026,-0.16252578919283103,-0.03384556574208764,-0.4038259233911995,-0.14134691134833413,-0.10185538530856413,0.024239939522099255,-0.07644282926451396,0.1663840095018991,0.2452790710498654,-0.026048258860393962,0.055132767751291265,0.10298829002806324,-0.02783887963483547,-0.067902099291229,-0.023364523507151777,-0.11055256740592108,0.17328547170227793,-0.010987315491497736,0.18106538830843108,-0.10228956567009047,-0.0017253789706662187,-0.11568695315511175,0.22365655704269188,-0.5625654250843805,0.4467269555409027,0.006797583940938438,0.074190479407425,-0.15323430750945813,0.1057854359596044,-0.08153750520444837,0.19115018729068192,-0.20024399870619594,-0.337026907148392,-0.004339745262684825,0.1131390760616505,-0.09075926502218275,-0.07886626255472001,-0.18033033562473502,-0.10319992421123568,-0.01412570266151722,-0.03704447251627917,-0.01980562504960774,0.161395188250877,0.08573230259578801,-0.07229450162199579,0.02338763823701996,-0.16047200874859877,0.05410905654923271,-0.18902669965013,0.06620911816987689,0.026475932903478654,0.07460918126084837],[0.06670724974530103,-0.0408851738339309,0.34657700375328565,0.3746469168399144,0.04688132518607498,0.21613109867788,0.2275295760478172,-0.31616039576236066,-0.12561379668387407,-0.05732600601269844,0.1698919099324245,0.18972441346116573,-0.18625780397135566,0.19866714926377313,0.04076493709850458,-0.1678335909181717,-0.07375307723929,-0.04369992461167369,-0.10729808963753522,0.07631325756823708,0.06599794102510477,-0.029479568905245022,-0.17651413425073023,0.20602848772298635,0.24676000187206215,0.05953802984823561,-0.41155922482704593,-0.05263338977880024,-0.03149908012723959,-0.12554853221326132,0.00958442270599631,-0.014462538618752269,-0.20281874051691226,-0.22975086995829483,0.23945307459072548,0.08292138649452561,0.11561446878426263,-0.20247666222253413,0.11738845432758954,-0.2027505521711537,-0.042648145460693426,-0.15344287394810488,0.039693855086324344,0.12057099566269851,-0.006573910877543848,0.08693853371558082,-0.15555824157456155,0.010366527990836809,0.055933714031624046,0.30689678400381526,0.28968526970703723,0.008511018891005195,0.04726184017242769,-0.040391140804814776,-0.12013334409029425,-0.10965368418950962,0.26374020457617164,0.08123792297627944,0.09142624458426361,-0.009497765828825572,0.2895211668557175,0.03317205953348547,-0.08750935563766421,-0.05555761596284902,0.01904642387139917,-0.051859014266910426,-0.0007938056806750819,-0.17906734487972745,-0.0421709439242147,-0.0842416308243544,-0.12442798655971543,-0.17970247610122292,-0.07625438227017009,0.10410249825858979,0.060718332831284354,-0.028451006747242196,0.05719390229730976,0.029034775593829262,0.12171912804612432,-0.11590297435183738,0.15163867393101232],[0.16311678222148684,-0.11524793953005946,-0.11362981483141348,-0.09649584221738464,-0.03849418252769072,-0.03293483958615568,-0.3916043834492201,0.05007147386825414,-0.0917392473841345,-0.046441527665102005,0.003263064909579319,-0.12293025434089563,-0.33937503032948435,-0.06754416290089074,0.29734923889726855,-0.2675598397676557,0.0975110936985965,-0.03669522934659817,-0.03805327351759996,-0.2394627252946459,-0.2910749923030137,-0.08314861408749699,0.2919644732302997,-0.390300867671865,0.13329900481484766,0.2144075422175102,0.25391161883357666,-0.03007481886022537,0.3075135287126687,-0.17793658263169299,0.11009414660739744,0.21559521352758226,0.12128168914189137,0.11387128957529805,-0.2151826482503963,0.08762403701267656,0.19107743594793383,0.01753980262289157,0.061625653737928596,0.05939048118364323,-0.02773928752363641,-0.06965718424819953,-0.06216379940953044,0.09944637998857671,-0.05064024938076198,0.039749978622515385,0.11262227514277676,-0.02800566579191926,0.17384352272089432,0.0033307473191486084,-0.029862082815641223,-0.08202238235644552,0.08774780592374125,-0.3547876979585148,0.007815947435546375,0.012697318926956587,0.08729705303319411,0.0741081156552847,-0.054246024272840164,-0.042482218042965036,0.2384617318277875,-0.33615782854779624,0.02713081783863083,0.010276865726076726,0.05753119412377281,0.03773945261730126,-0.28697359492211205,0.08988683461215825,0.031098995605753837,0.11234023141209332,-0.04947642225415134,0.04465329300763292,0.11126338994083088,0.021773627346895138,-0.1370701989496336,-0.053459491508718225,0.05705115542681357,0.06236018917759927,-0.0025023531537529727,0.11693973098497418,0.25023907875781753],[0.45166268245713775,-0.1688167136000473,-0.09755768537584748,0.13463856718944733,-0.07076196490297242,-0.13142869435318089,0.0933832693002912,0.03170939384819335,0.026636983777193087,-0.22043852086903284,-0.0775404091204474,0.13150771885517978,-0.06067604397346056,0.06549320204064894,-0.0521264135004885,-0.016960045363663457,-0.03051038886910855,0.19685152676312143,-0.20482238998372052,0.056967415102709404,-0.26486112711809523,0.01623378651000079,-0.004061661008845646,0.065408755662399,-0.09108669579786917,-0.07386982086218531,-0.19986573380394512,0.0016155483638691029,-0.16160650492024695,0.05996157037080036,0.2458326614466567,-0.10190652194458459,-0.04855495376265419,0.15708206352743173,-0.031513343663365376,-0.1346336368515602,-0.08533357400942267,0.2254020235505598,0.09382020912767658,-0.011688033047439579,0.21945808264299957,-0.008293678572099247,0.03095016641243361,-0.07037069753177434,-0.030422923775738357,-0.2293594635499576,-0.017140835725780162,-0.293706727590023,0.08609619366882466,-0.0940460745890542,0.04443974508632694,0.04802427685813989,0.3686137967404327,-0.37112799918217987,0.09636546649311682,-0.1114091574609041,-0.24527821024326388,-0.01941619638215864,-0.10394094572307887,-0.1683768962373876,0.5291701030176541,0.05010133753469094,0.0334786504621417,0.1302183596408581,-0.06563408686827518,-0.06971236061970952,-0.07162381535589853,0.0568596309992673,0.20019638998302006,-0.09838683522766245,-0.11115368450872082,0.0018161828863037107,0.11352356607251637,0.14386381993981526,-0.17155926303389724,-0.11508578277739576,0.06578298806049453,0.2693275155445623,0.04468525988414283,0.09549624115167585,0.01676801283240457],[-0.4641727441215662,0.14509643888095083,-0.00814016128449736,0.061086818540338525,-0.20848060954282097,-0.08833118342599547,0.09102773134550274,0.03720689874611568,-0.06023175550519321,-0.1739613301715741,0.08076425171839414,0.1234201497116871,-0.044352036714858156,0.027187497853673893,0.014711751186885355,-0.010963580156877472,0.1945545800812715,0.008464972264311596,-0.2603333370639963,0.05240505988740563,0.09360846949240513,0.08468714478884708,0.0062702785909525775,0.17352589274181937,0.01722390775895911,-0.25211343659596847,0.03902073805604795,0.01793386937970557,-0.14982920056269766,-0.012605069222756579,-0.03959292764585713,-0.2718361364482943,-0.02691873144319696,0.15734352917347777,0.058855049949958306,0.04867025512772265,-0.13561556894641297,-0.005493147973135289,-0.23869155093240182,0.11475816432230572,0.08908134469518382,0.13540663885642973,-0.16141789580630844,0.10088134267966364,-0.24590579259057366,-0.09870569614598644,-0.09223087383215789,-0.2008142792421474,-0.06752533365933207,-0.21991693566474246,-0.06109380558035994,-0.10748919613487039,0.0878831968594048,0.14014468909068978,0.3578570562190673,0.4943554921922447,-0.029886254242194668,-0.18834898406031755,-0.13857506976525674,-0.00016798556025418145,0.03481964538361086,-0.18752013591863262,-0.1250787309202141,0.04062152627208593,0.07605373542666578,0.12260442304191292,-0.15898096147629898,-0.10188675891181591,0.10381017474502896,-0.18824861816641122,-0.2897510140965007,0.09917129256248773,-0.08940598609680839,-0.10752106478919346,-0.026313803605977567,-0.029087264851535448,0.111689119722448,-0.05996753210940579,-0.06258133355683501,-0.3051915058074869,-0.06417156004492801],[0.23379594287017588,-0.23779553783447527,0.21991076324048828,0.10483166020327432,0.40505662162145684,-0.1365999930737282,0.14509651208434948,-0.1626913897071527,0.07142859198857031,-0.13686096275955115,0.07435704656324092,-0.025956585511114367,0.020112934712655378,0.22589191690304664,0.09586784775458615,0.25987361786892027,0.19540594770517566,0.10211769368427245,0.06351071702288995,-0.17495949858175164,0.05291062227443596,0.0510338569281371,0.1545356759189034,0.035490054598612195,-0.24579741061026567,0.11541487002687743,0.016239183341000062,-0.000535920135347369,-0.05133101540672245,0.08279048492826163,-0.08504291306120938,0.11239858810301488,0.20587783836447188,-0.01726817112142193,0.15327605625628507,-0.22806881744963384,0.3186426784217954,-0.04512495318725957,-0.1151688391626159,-0.050513993125481146,-0.11129246896348972,-0.04276488401919678,-0.04449703486953253,0.02993264357392285,0.24166066553088159,0.008052918353242748,-0.11199627368284944,0.07506930471503379,0.3666714359935229,-0.10024768337104423,0.12628668469962925,-0.020189533489218495,-0.0835573797409225,0.2499995860052086,-0.0956919237994493,-0.16955520212584393,0.07570810546511399,-0.008369501394186329,0.041417831020809204,-0.13176978300585754,-0.10340340915907828,0.12072376082690216,0.07760202480994331,-0.04087452556060431,0.02221281259429479,-0.08334657326810174,-0.1645267072369919,0.24608744738477015,0.2694504349755285,-0.058393868677263275,-0.06923867987219993,0.11426329269740382,0.09601078899297925,0.15098160579290698,-0.02221320039139558,0.056435750578610576,-0.12738369712881237,-0.09792879019490412,0.066747364098523,0.045164402252730974,-0.005691480567701411],[-0.2039083917045408,0.19695494505525732,-0.046403179040568905,0.09330298102665867,0.04206850866386874,-0.23254489172154252,-0.06445779374735416,0.1012311596681025,0.0687803002014709,-0.05455825835618078,0.04847360317975824,-0.22608051647835994,-0.0353136619371796,0.0318286034432158,0.07167287978712453,0.03254372873354425,0.14357220400998658,0.026790170973723583,0.07379388860720537,0.10823938808817146,-0.1419975553574398,-0.14106336749990842,0.4033858028141605,0.15354607051927568,0.04280057048642232,-0.1324734886700298,-0.12620910661945692,0.04862794102491331,-0.2526445926230541,-0.006023153593816864,-0.11476855955646817,0.040374246305522714,-0.07777783868442531,-0.123191381078215,0.020385151206593604,0.09746069265853068,-0.1941827753027988,0.18814259888048815,0.08980842167181048,0.2726068214276025,0.26747946063716654,-0.20325267092017515,-0.07001931796055313,-0.2288764346004237,-0.13022324701150437,-0.037992580669560044,0.00898554601733709,0.10168012542413044,-0.17674835018855653,-0.036425498887925734,-0.3051185081973768,0.39750651513604474,0.14220068772948427,-0.18433825297396844,-0.15317878735088522,-0.20090091072483174,-0.06566544541823167,-0.026262914931976612,-0.11862146511876218,0.04246630912066987,0.4359005598702217,0.1050287374561669,0.28805391582256495,-0.10276804145253288,-0.15490579741303295,0.11480635110150865,0.0332373785720761,0.1335594815156723,0.00044154282622739136,-0.16283575650369553,-0.08218669196483533,-0.026485804763226022,-0.17182319630557644,-0.16481113059125324,-0.24218185889728633,0.09036488754656881,-0.07456261123622492,0.1696153441464564,0.07102235961749824,0.023580377707872923,-0.08801955460288428],[-0.06753501193325653,-0.13434176168638734,-0.013525317499049535,-0.10096775231624958,0.11900977007046377,-0.04870810919279637,0.1947465199294699,0.1183094101862715,0.007220922976516279,0.04989908240567757,-0.15151285839507234,-0.05873858347524245,-0.021147235839189444,0.09693914126778488,0.17456799371945592,0.04770952990891284,-0.06810671132182904,-0.25542281067941985,0.05731223968711998,0.09123015106702777,0.09020788247078652,0.06527385266250382,-0.12468219639427454,-0.2088475120698338,0.2394065822361848,0.035005627903525946,-0.03794040220459695,-0.4297611310226741,0.17018324075728308,-0.11648902416119006,-0.21369075672205695,0.0356223366203004,0.07550028595921268,0.16653739796041211,-0.0036111877636201407,0.045867232584901156,0.10392590138313001,-0.16626013872343287,-0.08337905322275241,0.0517572129408314,0.3074763566236513,0.1706337920564241,-0.21299873542858666,-0.08180594198535429,-0.023875119486027854,0.11678191230607715,-0.32199395082917964,0.291370118083284,0.1270427215621809,-0.023641934110581887,0.17707953671682097,0.2881034427590791,0.12780497160955576,0.04280841105320771,-0.10945753219828387,-0.15058336800294136,0.08182702000287939,-0.033125001715275354,0.00817798482984275,-0.11699831600031527,-0.03896597329043534,-0.2537248737828155,-0.030010433787701334,0.13775084149898048,0.0547316755862312,-0.09331900040037097,-0.16307843389113907,-0.5844085089941001,0.018182880580460175,-0.017606287810652682,0.0005441841485019398,-0.10722421971588995,0.07972426384605062,0.13688551191469575,-0.04930075652846178,0.08479934183971133,-0.08917691635523028,0.2244852632078238,0.07192866928422988,-0.23117850378525245,-0.09761458012862029],[0.07562093751619642,-0.019268999907433793,-0.09395616394991288,0.2895747309170224,-0.06715502940971337,-0.18182502118243293,-0.031229615233478347,-0.009086635058864406,0.04344646939380462,-0.13048011166483392,-0.12466874910245776,0.08475300524004395,-0.05721627804628635,-0.14872738222614895,-0.41030144089819126,0.0352459926195789,0.06993575324782157,0.07981726517862354,-0.06502674134346695,-0.09784038356031706,-0.23658777886028678,-0.11191888171027262,-0.12539823314713874,0.02863091173164616,0.02694721846897171,0.105320142218225,-0.023230305071881917,-0.2867591481018999,-0.13542808351052932,-0.44594661592536045,-0.21443044001135472,-0.23040372834075323,-0.1839629023031068,0.22536197852534612,0.040043603089167296,0.0010339144355967732,-0.269330927321957,-0.21463297454882663,0.0791407477969015,0.05018842310667549,0.023931314131425834,0.16123077645098366,0.13701980974721573,0.12514243265989822,0.1483912008726414,0.021523526568479247,0.12759140803160443,0.1693054829798824,0.0865943005081693,0.005453350394927344,0.05055587064572315,0.10591425657731492,0.04467489685873012,0.061995514073459414,0.08257339640321557,0.0009853253397169338,-0.023646275154491615,-0.2487596776226939,0.11700648923614708,-0.22504069289209147,0.43449930234908846,0.028301378119706528,0.0710977810318334,0.07826208619879266,0.28913275657449017,-0.09060238456586134,0.015586583207688312,-0.08173153619107171,-0.0766855832713712,-0.03832489679319823,-0.008953233251849177,-0.09075878092545746,0.004915130653106075,0.05167755867775406,-0.048554343382834354,0.08387428308736637,0.22969573352366116,0.12432213410682236,-0.1453674524906276,0.16631128628584854,0.06003366310735187],[-0.004824385054263776,-0.10196389760348382,0.06155748047483574,0.2395029344386218,-0.07434055610233795,-0.04081515439678207,0.020657728846553657,-0.0058007891294069285,-0.1857126843672851,-0.1148330256808205,-0.31770720699628496,0.04241381094267243,-0.09295879036998378,-0.11974146892579804,-0.09086859820387161,-0.1422354012853187,0.03632138357938027,0.07438569005060673,-0.14205021927628683,0.014664560988042193,0.08249960277270926,-0.19638916373505966,0.22296147102658853,-0.1353014149853082,-0.044612107514500766,-0.03475227003986253,0.26333957318933804,-0.18803887244720727,0.2012372468112719,0.037686901336596634,0.00402588366551987,0.1411808392581343,0.17274330855709896,0.021397746478336085,-0.02963073941635475,-0.09972235920222627,0.23577094808053803,0.001631570590022567,-0.008720099219055569,-0.018536869310701146,0.00682996545200873,0.09717094800745958,0.008400772303305139,-0.10991259144595437,-0.21183479822389073,-0.057567905140250404,-0.04587678128782944,-0.42918833621283065,-0.2253398345905983,0.16778426434077,0.22036698547181402,-0.11571050425757459,-0.030389821506906195,-0.05883382397198529,0.01474621318873108,-0.0645022866558481,-0.06521676420665413,-0.11996869913255942,-0.14573775552237375,0.046619309159639195,0.14929627716783406,-0.21944258854085874,0.020666955495769863,0.15968818714308497,-0.018827871026209874,-0.01775504383157109,-0.06600545208956887,-0.06800388175908394,0.1387315952215927,0.06473806106575702,-0.16805682460014765,-0.00017760455310261228,0.2131565940962899,-0.1269861559708916,-0.1161112560848251,0.10456579495077167,-0.029439583717107774,-0.015127527470755424,-0.07215639677868374,0.04230660112578927,-0.13667487377174747],[0.03341140082822887,-0.18497417027910934,-0.07870680754302223,0.12398837210627926,-0.25898203261279873,0.15300251164538706,-0.10198501338264745,0.18440374361270775,0.4270068335356553,0.14082621429641787,0.014536927449112278,-0.02154690479180646,0.01912313048257087,-0.12523013818383336,-0.10494257748290071,0.0685220515526581,-0.02727664606474493,-0.12254302193298611,0.0019129226421295518,-0.08959939755030497,0.1718685547535674,-0.13381879492918997,0.06717804072252288,-0.0406898004730082,-0.017656744693782096,0.15128783721325076,-0.37795777423447857,0.17296554409544126,0.2599911414778012,-0.07125523353673886,0.0720628596435512,0.04835053117284136,0.2900123902580268,-0.0797888950005209,0.08304755410653389,0.04063891780844642,-0.06315765623687626,-0.10220236188434867,0.19558763782425947,0.06717035415175344,0.02644932137496838,-0.29125978710925243,-0.023136682766164842,0.18536166144877675,-0.11059549814424463,0.20414653308867695,0.047269132767714786,0.036969624434170886,0.003998020790730163,0.0058308457037426365,0.21929895818184242,-0.19111210889383812,0.17792458108000794,0.02663712946631943,0.0008939613912719084,0.30479080141877885,-0.2506403717860414,0.18501873374948397,-0.16364237153322106,0.12499588200836399,0.21395533976741965,-0.12250093303535846,-0.1281477479567921,0.060853450623081395,-0.02384834888617302,0.08040725922289885,-0.03912232965673748,-0.027533297197079833,-0.17479737857192176,-0.05319800154791302,-0.183198382380868,0.09690810765062204,0.08220143411315113,-0.16612433662301537,-0.11566274528633133,-0.03316396649678354,-0.19648421915622835,0.21494503782260588,-0.08224379064180261,0.01313697653616747,-0.06994221359504259],[0.13790692716683214,-0.24717522923106397,-0.18497096519501116,-0.06689061567512361,-0.03361714247814597,0.045865327699721056,-0.1277850749188056,-0.09291974939134853,-0.15002885389900034,-0.2911320404978475,0.1873410129087291,0.09101733053633336,0.32775348628481527,0.39154163641104006,-0.0030242755009246046,0.06735136618989788,-0.08828909295342097,-0.07787758935694823,-0.031039182438037334,0.33882774479921357,-0.08711984679105575,-0.18353200726614138,0.022744261587192463,-0.05533007848558308,-0.34477998546795297,0.21451277049699607,-0.04030953284213258,-0.16464584897457282,-0.17815848162944814,-0.09145889369917681,-0.023849431762695144,0.13935847277459815,-0.08927120207468017,-0.062259719303807276,0.06651647465787622,0.028690612713522076,-0.3598120306740327,-0.031462057106729585,-0.10410627349369807,0.10814004642453078,0.015757740601472395,0.025990387631681103,-0.10335523801061465,-0.281067278169335,-0.08927015863346043,0.07213699164679703,-0.04991930477030341,-0.08176898795602612,-0.015626947777002798,-0.0003785080014728691,0.12649835644575907,0.2953630179440564,0.06594664835689093,0.02802158321837869,-0.0508170921018094,-0.0337514393575416,-0.0363497418687313,-0.0017188970454710432,0.044896983402021966,0.06601825397496645,0.1759574575545107,-0.07548783202991843,-0.04264178823607695,-0.025327942031215443,0.04632018901117756,0.07218488193920758,0.03047332467831371,0.13110770409954686,-0.05258384097928384,-0.1388179986453837,0.12737945345482998,-0.16085500156374558,-0.026793671142262315,0.06321483265313767,0.062015850198583994,-0.0830663093453989,0.10011469165215754,0.05316979379137625,-0.17823236226802522,0.0040986996293961,-0.037977299685691045],[0.27710269272588345,-0.05158226626489589,0.018381977755163814,-0.2766972213269688,0.014806152164031739,-0.044150756774507416,0.118144962453798,-0.15515500000209895,0.049263796994672523,0.08404117805627478,-0.12866206230925029,0.3913771913504184,-0.13128752406877015,0.3322048966541982,0.0010379839529575962,-0.1566808065953762,0.0024120298894501984,0.029293840141337766,0.26219898631491256,-0.06593486866639386,-0.05599966063682551,-0.016878346430534763,0.11786631492391599,-0.06723260001778705,0.02624088567447331,0.04523940701436235,-0.11445502697029614,-0.09345837681337563,0.374244215871206,0.14048364470570285,-0.029095878504778492,0.09862500271633025,-0.23190202754374423,-0.3068822443296397,-0.08311214897445873,0.014458710258949273,0.010436217131206186,-0.012360093402805633,0.21586316703640815,0.03612783954536251,-0.004291247013500472,0.05123309606224403,-0.02462796676744845,-0.16473227841129562,-0.031209380705721487,0.1543005222387231,0.04649898003254356,-0.05963819199785919,0.02213549220952737,-0.2970060460834442,-0.10822668149522607,0.09853649174165613,-0.2778416283912823,0.09075986584225319,-0.3529245225069644,-0.2580403995406205,-0.06706581165853207,-0.0674398852008193,-0.0838896661175688,0.04896036894346105,-0.019999015146690734,-0.04111187238323604,0.02063943465668152,-0.08462076012567794,-0.2807856145581179,0.04802356626161894,0.04142585311943101,0.053231040605643064,0.12699622735213592,0.0038638561408659085,-0.24429700926051018,-0.015329487110113298,0.11193488599295365,-0.1217706564561175,0.09847116723209937,0.22407402691699743,-0.24407096340480336,-0.29945303010359214,-0.022809184935931592,-0.3807866294905856,0.13188877612460284],[-0.1628254377259712,0.029575174540254975,-0.019062513667503715,-0.09453311124623433,0.02005886952292485,0.021716185518819677,0.11991611117892183,-0.13871191431534294,0.21318629400180086,-0.19290327050766948,-0.03205717107942229,-0.009236576594951501,0.156286888206225,-0.09582915450657857,-0.08125518179538019,-0.196847385040352,0.2798175034408305,0.03520706535407048,-0.13107638753616507,0.14886634344706595,0.2170970289483028,-0.09599869081350659,-0.15319801940222427,-0.04174396338186538,0.04008719352832536,0.4164269612297942,-0.09562816276706727,-0.06884114320920195,-0.00044302906169103076,0.20293546984050298,-0.28436787741717623,-0.13701885080713672,-0.13415876936176718,-0.1628252955110273,-0.03055761635043016,-0.21332353064191592,-0.270728692247843,0.18708145308702928,0.0841235492359123,-0.042473146429598915,0.07260380774698523,0.09793718116988402,0.12138338759350718,-0.022011577360422148,0.19580512573441808,0.1662305787743176,-0.12465339124647169,0.09834372700395887,0.09509831208387173,-0.0006331021734466561,0.1633221046843686,0.13995404939453313,-0.0841123192192217,0.019401134644123637,-0.03476338251211586,0.10305367856198379,0.20208524253962362,-0.055441651651458534,-0.1137164004556544,-0.06676575612673744,0.020282520078620477,0.35574355986882594,0.027290912159474157,-0.057598235909765406,-0.23103447185424597,0.10717693543394743,-0.010410951687124921,0.2603579352962217,-0.010095655529031227,0.2808927290952449,-0.010566532651714835,0.08565400238120431,-0.1442238086257862,-0.14127380005481416,-0.05295191033885745,0.12978276443390396,0.18789386376601044,0.07655258469142641,-0.27559255409500416,-0.10734173195764567,0.0015344796198260141],[0.0651039587718941,-0.23233187633357988,0.019693995385241296,0.0556225111847205,0.28339865566040884,-0.041193732483708716,-0.11248823434405554,0.5166459643420716,-0.05237205416558196,-0.016378325087456316,-0.04254392387658138,-0.08872217981799017,0.19238613024040488,-0.25075088686767183,-0.11940503692223568,-0.08878428746140707,-0.16080360896061469,0.11887914920019393,-0.062366653433782115,-0.2720534206574654,-0.10669089129655786,-0.1882583145282589,-0.033711112848066285,-0.09591567103318083,0.18490993050853594,0.10827644104344752,-0.07610051736710431,0.02493368113493569,-0.1607452214472343,0.3165856648450978,0.09297211588745027,-0.17147208121341861,0.062125799834965904,-0.0025545815113957346,-0.08519244540861276,-0.009935650940472865,-0.11864037025076053,-0.02207640550660347,-0.023846778477880037,-0.16698102244604096,-0.11475693500315205,0.14719259039493138,-0.09963255440692122,-0.09526290389417084,0.029650198951436665,0.04199177714169961,0.16075539601020047,0.02536759358704716,0.12218637918191988,-0.11067734657848598,-0.07157164399182513,0.2628432574386914,0.21762760651616944,-0.17426108722259492,0.26578984158495006,0.11790209472870185,-0.039042657162997825,-0.05552470625052635,-0.1439204278274961,-0.031107142479246692,0.08905593265453879,0.15680805774665532,0.2662273633880509,-0.16393325981568083,-0.00827392021412407,-0.18590171846780273,0.045950208203360925,-0.18486765137166705,-0.03604844729997333,-0.18570140599062482,-0.09876922805291817,0.03864462042907383,-0.056315047990642804,-0.022998255336503844,-0.2477288032886508,0.08094736627473648,-0.0648449479357867,-0.13622828586343544,-0.26782367272824437,0.15809546123733095,0.24800213742960875],[-0.0030030641466835236,0.062417125105451755,0.21219006687336844,0.11379814502697948,0.04481746373351741,0.09298812003587449,-0.015378638646442023,0.047343505063042385,-0.14417558773996048,-0.014447975320914309,-0.20217713499191722,-0.06269447289390871,0.23541120142787264,0.12366208449246263,-0.043723949491092456,0.12987760266999127,0.2903537150973082,-0.04190461601187043,0.06396356611304443,0.2610780992522766,0.04278452161567342,-0.1941234990805842,-0.06959191318760198,-0.025736073034957303,-0.14695242433588498,0.30311869279828013,-0.07468813635237875,0.12004829816243347,-0.17034469021861318,0.19479607967805565,-0.03435361221200954,-0.1467739436177451,0.007640448563133785,0.31168557932425106,-0.20891148091332168,-0.615587011791649,0.041548818676920944,-0.05772066007480288,0.005432903465037934,0.1925249870381534,-0.11001993362698187,0.11067816620158914,0.018714620975622855,-0.24903222193937521,-0.007107366947092946,0.012211064573213592,0.1232512946059006,0.14403706455941231,0.043722722911486725,-0.27809432910228893,0.03778170312815972,-0.075591498503378,-0.37664059768168995,-0.14707984263813706,-0.08780983011516912,-0.2415727858277751,-0.05838480097277337,-0.0610136968679975,-0.21224909057277586,-0.24648973250181122,0.06929597303817216,0.07871235333640504,-0.023385780406472427,-0.12795858971932605,-0.11768592653259902,-0.11503795895131215,0.16195779343651448,-0.06002480203365047,-0.08976123822595697,-0.007983166893375776,0.008568197578874729,-0.10722962501933421,0.0813850661938736,0.10231150542931768,-0.2334014232595037,0.14778716303364822,-0.0147948460176504,0.19865430571517748,0.04944500320944396,0.20832880326240125,-0.0940842411651721],[-0.31689794036779995,0.05024397988402353,-0.059649569431884125,-0.039804573635056927,0.01630944255477309,0.25020194026601184,0.18017151422028374,0.21366601208548772,-0.030632305977362943,-0.10562563565326903,-0.11868287593152958,0.10508684771892321,-0.017856018177687796,0.13698897531895668,-0.2388568442806874,0.11156533443734144,-0.13867748472256805,-0.10601606795633763,-0.25802055016078607,-0.23730935759258884,-0.19502134531496074,-0.05088623814446785,-0.03273652693233953,0.054671676643285975,-0.07954587756903134,0.15797143775873446,0.016051184732180392,0.15523192680055145,0.07783935699515507,0.18276476529764374,0.21631507176333703,-0.0031516090792580763,0.031520443556772554,-0.21147382412144136,0.10392698927221919,-0.06322457565799734,0.12239169944394851,-0.23532231140058085,0.11576420122626915,0.05318370930357056,0.08472154960180146,-0.20899598387795162,-0.024993831191610607,0.004234831419955605,0.26075437263224965,0.10978682102519156,0.0012744765044059002,-0.0055425428632055,0.23813105002930557,0.07230572897633292,0.07149544956896893,-0.18067745265164778,-0.12987646264932953,-0.17579106706249104,0.004330058143875919,0.1732760882454298,-0.08445521137233772,0.12455898896662772,0.028142856286631303,-0.2314919199592962,0.14549128854172438,0.07685159347662283,-0.014566337618509988,0.02860677654990887,0.009927625751787565,-0.11915100529173092,0.015931944797498963,-0.28178738208349285,0.07499668427610148,0.10393961714637229,0.2825960691753785,-0.26719438561362663,0.10523209630061252,0.004871647086130754,0.16880703845262096,-0.05726920855760635,0.03283462134377257,0.03641629228397095,-0.06343918921474702,0.18990147779186714,-0.0816501202851436],[-0.2464013700707589,-0.12162981992612545,-0.08082424093055825,-0.04433992499850949,0.1527002060538186,0.208259919636689,0.020644715523632142,-0.11663157960988454,-0.08244777492333992,-0.1843030073150592,-0.13791279691847375,0.03425319823741589,0.009325281005188922,-0.11766131497436949,-0.013607769437539817,-0.19019335036070814,-0.08735644168288768,-0.021028308101712204,-0.09595713908630168,0.0659097636290483,0.1594712074342092,0.22395010688583067,0.1366777364276646,-0.1413316203132543,-0.0604883299617102,-0.01219467087722268,-0.042415691477233376,0.0758927277798904,0.17308251797291,-0.06816261271650365,0.12684440955998288,0.12388473894622844,0.18604925084761711,0.09516134374243733,0.061611559266485524,0.10902312021788574,-0.18803074410108578,-0.14447590340695185,0.017679089967370866,-0.1019156322022968,0.07674828784029387,-0.040410812100876395,-0.0050694331980364,0.052663273735683046,0.0737045813927273,-0.09672381877830638,0.006994906502782025,-0.08022061819476374,-0.1374929304614151,-0.11418669586829429,0.07708277368622853,0.048880152589836995,-0.2668995991166102,0.14347813188471323,-0.25704576698256754,-0.12810613368029575,0.059615964418167,0.4527291620783271,0.2712406838179537,-0.18689724719806164,0.08516465646496013,-0.04635128421608099,0.04032035322601555,-0.11008137122084585,0.0494099607474988,0.06823088587983892,0.14187610229242523,-0.26340826421552765,0.10991251872538796,0.07394223761048101,-0.4280915949488018,0.0021135307468961775,0.01995833080848874,-0.01031336651555149,-0.1019928331796111,0.03210913023674657,-0.23908649865704576,-0.1055087030337,0.2324841933802613,-0.23174309199325072,0.01616716515701445],[0.15789615544381905,0.013287489916838455,0.03750908129228167,0.10915351851992842,0.15225939652766518,-0.05663341567223086,0.3438327127896244,0.03419516093320846,-0.07036325008246279,-0.00016390224063223886,-0.2048561584150279,-0.03469707850310389,-0.011762903956038965,-0.015109785804122446,0.09072799945213873,0.3186793053608941,0.139703241317429,-0.04365253645329739,0.03401060174558975,0.008274293400039733,-0.33488815068573463,-0.09548483276566551,-0.20151320271119177,0.14729516909507337,0.10615855674136074,0.13976667074648094,-0.10911480236077187,0.13712785809196953,0.2844173183714074,0.07936674469139113,-0.01876203628970586,0.23809595334592373,0.0310292404854642,0.13656918507153717,0.004887392939397146,-0.10777969240438716,0.04813863016917408,0.06589486930083961,-0.017656361235270854,0.09035850007308431,-0.05258456765769752,0.06077867476596294,-0.1321470191477308,-0.11548276401412974,-0.17513485528394918,0.19777243775392125,0.1600686419508494,-0.4066459796900473,0.07343501629321901,0.03817212690018283,0.15491976412018196,-0.29699790505327217,-0.19918828908568945,0.08176096977961192,0.23604785914161897,-0.11839906980226947,0.2142717516367365,-0.1498359759642569,-0.08257975561419066,0.10192036750585577,0.009352021299160468,-0.16186511259543157,-0.020743087252553923,0.12946787085682962,-0.26707598000835864,0.19634415963950305,-0.10822265589630954,-0.10564154989470537,0.06854415311697856,0.02361629255278063,-0.02907815435058382,-0.24720093102627225,-0.2064181242862615,-0.10625224601134825,0.03237614329926735,0.07018145682002065,0.0063003876232496925,-0.08396722147775679,-0.05969960559721381,0.18020720782562463,0.04378802934115537],[0.099975597936327,0.1474985914689023,-0.09470775661861949,-0.13891037066760517,-0.09720355859809175,-0.032956542584977246,-0.10015807651471903,0.036095295850398564,-0.07700237286348803,0.09713823004217863,-0.20862709211367925,0.04575180401788765,0.053644090015582506,-0.16550430037336053,0.013277971806694497,0.051508738824344334,0.026275092318663037,0.2367653529734398,-0.04095717487245135,-0.13390714671251056,0.1127177781975272,0.04933860201256075,0.057236093084146455,0.14307591724052995,-0.0033187046391556603,-0.24083377163210795,0.07337941970327587,0.12456089839487607,-0.057076651840525995,0.09713542902569049,-0.08088508523342117,-0.0985227162016617,-0.06154797767162058,-0.008220062113014358,-0.13343793980009494,-0.1447338222440138,-0.20472532146454953,0.001469984327559732,-0.10906602609603044,0.18931426060117276,0.16498552500202343,-0.025219667960597877,0.028844795005857047,-0.05572328332187752,-0.446646705913358,0.10819000634253237,-0.21319899594673414,0.02799877499989488,-0.44644823890823476,-0.16163494776614604,-0.016993696953142293,0.2091703349440477,0.022916379006397508,-0.1668311206976153,-0.07472725583996612,-0.1707393032795573,0.03512300632520968,-0.01643608606307498,0.016068213459990474,-0.025231304494635624,0.18907977141672216,-0.037272576498829715,0.10204460278095262,0.04904374081023132,-0.27842223607390276,0.08540859096184421,-0.17478274284018336,-0.09930764219425477,0.12969907195757815,0.21846393846965917,0.2031280807771906,-0.30139407020322834,0.18449171081087934,0.10435311433994632,0.07546879765371463,-0.11430235926501958,-0.07971447494667436,-0.05520144577143691,0.3559731448976158,-0.3147260681282197,-0.1715480959403045],[0.11029447482202186,-0.10442821500585303,0.2587344154879765,0.1756999632368923,-0.06161833066583965,0.0037752825544450346,-0.08090217180084652,0.2370768639597309,-0.07764661016110647,-0.3728057627255913,-0.07958281211999473,-0.1515247510995945,-0.058996106487625,-0.1092679838338886,0.10702272504533333,0.1028075839000782,0.5367093165198352,0.20057302123900778,-0.056187859012329755,0.32957786846106063,-0.1434164710993554,0.2552087521525972,0.08882789493535333,0.00851043258039885,0.06462452325270425,-0.11714525044896532,0.08393036217470808,-0.01835099038894957,0.16140970353096293,-0.008302970978072569,-0.1533164404166055,0.008810955670625502,-0.054195854016051453,-0.19890204602204622,-0.11090250599191172,0.10801296515202737,-0.07638368958787956,-0.022854685618201007,-0.20157297666927546,-0.08187745440160571,0.01050799148945056,-0.03686601786275675,0.15940823615684002,0.11493651949218844,-0.1882444614384964,-0.12158872286633551,0.10759155733540651,-0.18474065906747286,-0.060237927058192926,0.021705985518943035,-0.08127310138306144,0.17258713022897706,0.09466897735040826,0.025082283511214387,0.1909611441262209,0.3371086825703414,0.009029809381489914,0.42332017123521576,0.12403702915281695,-0.08983696795520052,0.13950266527751592,0.10926618297188423,-0.14521839532718991,-0.2560149629646296,-0.1175255078694349,-0.11895202656886883,0.44411861376326783,-0.22203492740729028,0.018541041297412336,0.09918137584524925,0.02034753306646926,-0.07003686941451036,-0.07189249000342003,0.1528955070382647,0.08381989275349278,-0.15653275686891344,0.01777781205377687,-0.006603922956208057,-0.05013296989941215,0.197214580213811,-0.061465306615827706],[0.004057135002890072,-0.052823701725829654,0.054812281123590885,0.04358153086711457,0.009225342345644419,-0.006739740891236758,0.34912366675656137,0.13735546610769095,-0.2641888777078618,-0.08507559703577702,0.14723474568349995,0.3042275194071294,0.1585590081595692,0.21079187765679144,-0.09561736380959052,0.2503842355684935,0.1683114105159073,-0.051561457863343034,0.09673341224627116,0.1498847410416398,0.08032148105890292,-0.031951225112646926,-0.08335258573500619,0.12327139931074083,-0.2692628046426131,-0.07843132087508883,0.0012914931268710717,0.19465637404557964,-0.08040159973079647,0.04667481744058322,-0.01576556308065075,-0.07597547845647497,0.1175056273179369,-0.13514037747889215,-0.18716455480470837,-0.043425488035463394,0.23938264906027917,0.03307616310706953,-0.18338373471307573,0.05832157977113496,-0.06390400366627928,0.0009883762219768412,0.22932366611822147,-0.18088266993340235,0.39592868102260126,0.014364204398780339,-0.1178689723143668,0.08460367469963702,0.10780044027129551,-0.07267093824835835,-0.1541493417153144,-0.11407809275137407,-0.19425936995839702,-0.06266794808649873,0.009333130233883474,-0.1141530604988394,0.28129686060798387,-0.05624671216283201,0.10703045702779632,0.09687590538477896,-0.16073382341427353,-0.07424758976476392,-0.24321957537561098,-0.19584455296600908,0.09992690793496081,0.012762066304147552,0.08781077049693393,-0.03307210826992401,-0.11339838112584555,-0.24079347387198213,-0.2892826424533815,0.1573421097799387,0.08824539778473718,0.25706063305597726,0.4211519933105386,0.03291163755010738,-0.13522073877480836,-0.10864818529484466,0.08891939263881606,0.040694878549180594,-0.09917580110731973],[0.15150802522574602,-0.003753662400323677,-0.0607204432280874,-0.05379675398832578,-0.19850415154264825,0.2563914833012692,0.07942670036995407,0.04139366856009677,-0.036572308070793993,0.19061729856468151,0.2370678249651331,0.05108523620398511,-0.4727918111010307,-0.3735074959966604,0.055150340558613134,-0.10529089131951172,-0.04915795658221783,0.32671220837530307,-0.10849985527227017,-0.060408973835632755,0.1908540164703255,0.050719966805839234,-0.13390526499006877,-0.08272019424147563,0.025195803581407866,-0.11240574899949529,0.02670111870944694,-0.007707806354410832,-0.18445832788571923,0.23378632124682847,-0.13480298001776744,0.02684232320196389,-0.0786136091824087,0.008594072198161395,0.25402708166493027,-0.10306395828581617,-0.0853254702323164,-0.35413376148568665,0.05902654282287089,-0.2253287034110384,0.037780070132816,-0.03725811928649776,-0.10864057683880343,0.044118887316242014,-0.009952270107306024,-0.018478372083737503,0.1487657628854872,-0.11112757251689753,0.028005851030388218,-0.5298136636693781,-0.24185985807487617,-0.08023704693299723,0.06379343079666501,-0.07844483891271568,-0.07820216664195848,-0.2985717160972674,-0.022362028394579715,-0.04068600992801231,-0.016079131390794043,-0.21694671791035267,-0.10654440529191721,0.10326246627350007,0.5359400392478842,-0.2135838205841565,0.006140232891499528,0.16624362739514817,0.046932093014764795,-0.11554163041283017,-0.029119969530277033,-0.013145509613042212,0.22055882666633772,-0.20398788780112212,0.09126153783026547,-0.4567918906901337,0.20097630289841886,-0.08391103047294071,0.3995380853410427,0.48767767029442216,0.19743562973186277,0.07902679058961644,-0.006908623301506244],[-0.1028633934749602,0.022226074241160947,-0.1013452670609755,-0.26993254834317376,0.030244318434793898,-0.07157325000168892,0.07154541718185707,0.24470564112505003,-0.09990561252622414,0.07916585532223507,0.12385432340617446,-0.007215027377165643,0.17507433073291923,0.13231111618735847,0.31018893254198315,0.08737177046378819,0.31326230736253446,0.14573870908356706,0.0245798977972825,0.022469784181740844,-0.3420486889055645,-0.02800519966769444,0.14079474860360258,0.1199657299572217,0.19550966550942897,-0.048092613266811884,0.003972498948857209,-0.338245899886626,-0.018823032390739916,0.05721617722518182,0.0015551484418366433,-0.16274140840066792,0.11223714794431985,0.19171095692064205,0.10346876381212172,0.032707053299151724,-0.3220050263079792,-0.11053027223598204,0.05047807386894079,0.029231591006905557,0.02064418384768975,-0.07729866838851351,0.12345851422613392,0.17669992112359922,0.11748272202736623,0.06568664152847421,0.1055492010511315,0.15658296747270203,0.13272662173971134,-0.06025793339290391,-0.03817977406740463,0.0970038387486694,0.5599671466227261,0.022786153753142732,-0.016794165706511575,-0.021403251784789353,0.18053663308202852,-0.09068961300418728,0.3127682528250376,-0.14312748373006073,-0.06192182881395472,0.12078041322476404,0.03043651532884828,0.13275488575976546,-0.20445706486865436,0.15142486558393253,-0.0664870467540608,0.021674898113891346,-0.11158446883693823,-0.24490820501558172,-0.3410750339328857,-0.021885974991323946,-0.013624353062634157,-0.3078469732185175,0.1661918575604853,-0.04825262922352338,-0.07007983192937607,0.044039478761656266,-0.1045510941392132,-0.008690919737950269,-0.012681999245015672],[0.03252970592605628,-0.01601169332168089,-0.050410134904688125,0.023179561753310277,-0.195096217869463,0.018967269263209643,0.13874440160295154,0.06535210345146453,-0.03466447903376257,-0.12455382637452589,0.4030090497124492,0.0007163344300560267,-0.1470529794521551,-0.09212655561476715,0.024614799522770972,-0.04331489142390846,0.12262118434855525,0.16495593392530494,0.09241237928596839,-0.04687920299368506,0.008552441254719536,0.14029492408631508,-0.21699880469638072,0.09440154485326574,0.3325012340821143,0.21800723111647607,0.10559637422829138,-0.18524271914761992,0.09714785186840283,-0.001039829916030869,0.1713213178327925,0.11667322651392711,0.14698259394165933,-0.04734065114570301,-0.2012851908666417,-0.28036032638796426,-0.32296947712667556,0.16136450612226744,0.25709169836771417,-0.32725221941175464,-0.11403854812617842,0.4485181230847156,-0.07341436108891353,-0.012756796153881695,-0.040143951604897615,0.004983275826164021,0.01430582171764408,0.03845793752199129,0.08912225786954843,0.0021565147988671326,-0.12311652260089694,0.10961008126703643,0.055670839661537165,-0.22245716434244261,-0.014466060144084133,-0.02607695696995364,-0.05900610297292796,0.1681064447471996,0.39089488304094633,0.04276931340703749,0.22945055486350288,0.07077182456594967,-0.3084622623862265,-0.1239135468308604,-0.010859914240356141,-0.2429275875615612,0.27305063525910434,-0.12370678438753656,0.0930115427011262,0.19575160820891735,0.47504222742811286,-0.16605559111632856,0.052145302149542765,0.18576085332507397,-0.29041637059936853,-0.13450490300133375,0.22540210805913097,-0.23056839016107594,0.013800139220408488,-0.07927927002215412,-0.07372113109006086],[0.03743630044699713,-0.0035790972504074468,-0.20285702162573413,0.05272190312966246,0.06109764784149153,-0.0025976371100922425,-0.013069436699585164,0.4453459391609041,-0.03166067221005677,-0.09726881486250973,0.06816252501393706,-0.022142586494960547,-0.10675047808298928,0.25561537976623355,0.08071273167676081,0.14390220905742754,-0.12344326210131049,-0.4057802465694854,-0.2199032630557419,0.2751967747623807,0.015294504147442814,-0.16787405812893058,0.2107261457782469,0.21612949046720228,0.0070698246761270065,0.03458753500076401,-0.07325082237469409,-0.2708768192851796,0.21522562270566553,0.04524867669369078,-0.05438961736496792,-0.011054957594686518,0.17767460985291417,-0.10836410089573173,0.034579717067297684,0.3971016011233881,-0.29908070179657126,0.11432831858342825,0.049092662449875715,-0.21247732210564285,-0.018311756294395513,-0.18218805568100582,0.290236277615961,0.25758793011005765,0.09485013255041169,0.16434068121405693,0.05824980530451173,-0.15925752383616434,0.15573995983172506,-0.3077771727328573,0.1462418595706234,0.3387777302915327,0.10094425044772831,-0.020128601632788155,-0.010025218690267002,-0.0884462816206574,0.010470988822055783,0.4419716867932155,0.13730166479462558,0.27813148482793776,0.09353613338183295,0.13936931512109582,0.21894773199564316,-0.03825508332482652,0.14134028493886894,-0.03703866899904032,0.0004523556818157106,-0.06294817335338093,0.17348350026677117,-0.018914315214590482,0.0032839077495367256,-0.0022723510822355024,0.09584233143375998,-0.20772415321426715,-0.23952016607690135,0.06174177418993679,0.37932734323304224,-0.04301426368352811,0.32431740685497684,0.21676620228791327,0.141510660046546],[0.11378023050676414,0.05494464476092647,-0.3307232549091651,0.064632106535986,-0.08880719795714186,-0.11576838882912562,0.2691518000405564,0.060765401291571486,0.053117652133693585,-0.011440993325803926,0.05065143701728126,-0.05864578436344142,-0.03814519079260543,0.5112972737576227,-0.013769018114987888,-0.19801730130289988,0.05974511923383786,-0.0011066622665700469,0.036916967518562015,0.09919806078308643,-0.18097362351253318,-0.00027687472086650514,-0.07518383267016426,-0.0029657232983328866,0.08001850686602013,0.2101211527361522,0.05324982974398668,-0.07450816122954157,0.011406357532484158,-0.1045679487906831,-0.060420215060147164,0.3435295304325558,-0.21805994187629613,-0.09536906996253547,-0.10617812221801169,-0.12015873341344463,0.21007726939482912,0.036701891906820515,-0.0802248277004607,-0.024552377101229452,0.08919568193804223,0.013457898722265719,0.043776938068453695,-0.07453922293671923,0.0587454869383477,-0.16988734595137014,-0.3048184238806477,0.17080309333952734,-0.10081193019593519,-0.18169456644616103,-0.15230701077589018,0.13105771418766907,0.34002663739039896,-0.15792150784270476,-0.006629166499998955,-0.2900933136741498,-0.13926262103545892,-0.08409102197413516,0.14157782457786003,-0.0037156948906727073,-0.20200310157621224,0.06105949293413325,0.0577493214862464,0.1012197134684957,0.09080230570248307,0.02853667466511243,-0.10360628367042854,0.24524810247788234,0.15336006418602321,-0.09759146112659874,0.1609221921875375,-0.015155415936187059,-0.0035620472692835413,0.12200430580507568,0.048438652976659884,0.040919364628045934,-0.22489290162577263,-0.30288904215732404,-0.06973455074889694,0.08188986218783532,-0.13244628386848603],[-0.04294299747655415,-0.0327991602716845,-0.03585906614928837,-0.15663212654534966,-0.0913045516797141,0.08721033279903855,0.08028977484765044,-0.12844209473809012,0.059874741606774806,-0.29049780325412144,-0.17066823006811177,-0.1001394720892787,-0.08287558810063204,0.032454743083848964,-0.016583734388278933,0.09059676709170954,0.05481323209489483,-0.00797124707320089,0.09898313431296876,0.14875951093638462,0.2795657942431901,0.030766121484867768,0.08372842966008569,-0.15871631831525274,-0.00942137186063072,-0.09640572147129878,0.42137889992321814,0.10369470367368024,0.10463851829594269,-0.1119191644294479,0.19891442096036438,-0.03069491572337621,-0.0236352708537902,0.19363302276737673,-0.019998826944132048,0.07872579800309674,-0.3536154065250679,-0.1585825057620715,0.07921030817534197,-0.09088463579651347,-0.0372620046495721,0.04495921165360975,0.05380266680961022,0.0024308430322775307,0.09446763563058808,0.05105131643622188,-0.05378391435665823,-0.03633122518266296,-0.15593529419109942,0.05016048567936748,-0.013893843707563193,-0.047941369582754086,-0.07446976320521186,-0.1317777242507926,0.2220321610454518,-0.26978778892487804,-0.05546386000180502,-0.008067637916912203,0.10768135010094397,-0.2665788230727697,0.11908319917226873,-0.051178614856457215,-0.049316895645820466,0.1486434990188155,-0.1659210703740456,-0.046046896719685974,0.0019352640849477144,-0.02767515785045254,0.10271548953499382,0.1338386448610359,-0.15664228988799794,-0.022883325855462027,0.15637140672839886,-0.010605380409437917,-0.3517405009005758,0.13042007639960163,-0.0626938486106847,0.0870857046360707,0.2253981352719418,-0.03129921624296091,-0.14348872765248402],[-0.025084913118783043,0.016727123041035376,-0.16002351813599466,-0.009343232734936608,0.08786712695653588,-0.03059146985279239,-0.03092837040830899,0.09671610856099673,0.13920509595639322,0.027887532005849303,-0.07448016237326528,-0.1728787573364049,-0.19954196261281143,0.1160634094030641,0.3082043680650012,0.19645671730423794,0.0016479038565873978,-0.02188218217744293,0.0636636333196204,-0.016755909468951606,-0.10809583926634327,0.23912845996556154,0.0370658290447362,-0.054033539084663754,0.3373887827714207,-0.08006236590636173,0.13059473638258043,0.06589474897724289,-0.020277366796708853,0.25802286030007043,-0.3598357080673239,-0.4254054361274383,0.09841739843724338,-0.014203716649606579,-0.0020723303839030923,0.28277013322404665,0.024416291168871857,0.097295078774824,-0.1531848287744434,-0.05360646358612497,0.16215193147158868,0.17339079725403655,-0.005177188349302682,0.05652679044769271,0.11079610659075036,-0.255413386466112,0.07115044454298221,-0.09748798119656388,0.0022668607436143215,0.010698542153248575,0.23166840441390268,0.02626015413928706,-0.0655765233475539,0.1258127544746971,0.052828702540176936,-0.08040744657801804,0.3516446322474196,0.03806588005393596,0.04373234379648217,-0.1781751158556679,0.0942851742350166,0.37410863971005137,0.18804199144303596,-0.05646492289379623,0.042167142248319384,-0.055224391192829125,0.14536683512652435,-0.10331516958581002,0.18524808197023898,-0.13867551296538963,0.08353367270569798,0.005101595850982321,0.11412703272611306,-0.10452909143318243,0.05687871583234613,0.02794831293243062,-0.1895648189784249,-0.11720540554628563,-0.15121361610590897,-0.16181993951078064,-0.12015040298559919],[0.23011982717013146,-0.036127983061047225,-0.07580913414790169,0.2304340800180628,0.07919237096618702,-0.06797479730682272,0.07100800700818646,0.355970507327648,0.14915167546334412,-0.09527242868935067,0.046328107728361545,-0.2394148918178659,-0.054731738740387205,0.09133179657692987,-0.059920337860261144,0.18536188067236342,-0.002025611408201692,-0.1078527536286646,0.17349242682513089,-0.08657353027720593,0.05816039153132354,-0.0809595204653113,-0.018392541792790828,0.1673247770171973,-0.0849883357260315,0.012313972554601236,0.19863155418787756,0.2568047716605565,-0.08973080732251125,-0.06450296263431363,-0.10287924621330101,0.17197600704111937,0.3462905624134705,-0.10465917418278538,0.01507949401977711,0.1679983828812793,-0.12169906611796312,0.20380201690443553,-0.098474381888734,0.2626490344043295,-0.29706718314441966,-0.09413825135632918,0.16287213672044468,-0.01633176632598376,0.16626605191700483,0.10645432433517475,-0.027921682484006373,0.22487103575454484,-0.15040024135120528,0.04148697372104239,0.014993631137475334,0.3339671214134816,-0.06664109399489251,-0.18251804995272983,-0.04298733396397141,0.0706959582063987,-0.16534823827513248,0.0808226915696211,-0.26377917591058575,-0.17657161376026978,-0.07466473337851165,-0.08634203428321825,0.08414806736085782,0.16378326329489173,-0.011721109803420535,-0.375340952061344,0.0036189655420096594,-0.06141490647638543,-0.1069357457405826,0.3196967913131573,-0.022098251592487076,-0.002392084227418483,-0.0771550143471381,0.4231798676512372,0.048925193305469426,0.007884885660006995,0.09058778297936813,0.16882866344421765,0.1902238081112909,0.11034717890180379,0.03195617989575894],[0.10053955315810068,-0.007521461098110185,0.28480086858566406,-0.1384884153297997,0.012956814341873884,-0.10099804918891578,-0.36968576842517464,-0.16752472235308435,-0.16334644562223932,-0.06890719194964326,0.10544117341213288,-0.49932726069076055,-0.14011231976458668,0.315218958385222,0.04054308335377563,0.06519585319387242,-0.015370007255837276,0.08583806928985219,-0.017424740507673075,-0.019731901861451195,-0.25583921212193506,-0.05606295679651686,-0.10633999748907871,0.15266867459926828,-0.1747021662256223,0.041384842994954776,0.23269840359997804,0.004407271689211986,0.0953817094477315,0.06708285886501494,-0.14342634596123652,0.04804833115939375,0.027382667813110117,-0.11738876620729838,0.06390836869709304,-0.08860461324241346,0.1594130698844927,0.22172962154192633,0.019614044784126282,-0.1168289154214781,-0.003912885010856214,0.07624013952329473,-0.13876616751836782,0.14209211589130558,-0.11783113755032641,0.1324830828834413,0.061080064836160436,0.2846065093171961,-0.11353845132393295,-0.17899031058782086,-0.06842453782754918,-0.03844540466403755,0.13609487177386786,0.3845582838255577,-0.21990558784677416,0.14675853915764617,0.06485388708550187,-0.20400297015679436,0.04494722408034867,0.007101702719914819,0.07056226244845046,0.058742464198102244,-0.1511742335749918,0.011066408791939122,0.03449624460390297,-0.11365846849719748,0.36192983530093037,-0.11302275049172072,-0.02612443574661855,0.20429103095696394,0.07030700148104356,0.3331121507948991,0.027571915783075898,0.20838349021895053,0.06257906606951173,0.08176216796151194,-0.042453155156197304,-0.05570392914941537,-0.10338605910980163,0.042550357774434173,0.026775311470245432],[0.02215254483100003,-0.10427019667021267,0.1008536327854847,0.25403456794980417,0.21747847024499956,-0.21105601693322357,-0.27087706903339315,-0.11104086199289526,0.0644015155481371,0.10303682334844766,0.09886420554273963,0.06520436491633416,0.4161778331688914,0.176634509885325,-0.18254820158884283,-0.09131275623403924,-0.09790064963936239,0.19341046134955717,-0.09765861941934108,0.27329320333221624,0.10448875510420928,0.10484303324842005,-0.060351945956362264,-0.1403670383763546,-0.2882170479319017,-0.006614757419810766,-0.05590642661661471,0.13564597188455568,0.09127378801454977,-0.12148793614337056,0.21875440332754417,-0.08776078932741746,-0.42129425278612226,0.022461983390220597,-0.08497541536519099,-0.09702692321697197,-0.07498060728683975,-0.09673582160267694,-0.07652365990740527,0.17885355126741065,-0.24281818412931902,-0.08136152555246084,-0.17196020399895218,0.11620942259830183,0.23930954000353863,0.10488512580813937,0.23286814780900508,-0.12365795728414655,-0.009487597186096885,0.10014683270623168,0.36562105497009834,-0.10790087042310534,-0.12710581271982202,-0.10151481597859212,-0.013246822889963003,0.017974947151633624,0.0641854294382055,0.0011659558079793488,0.08625831338508753,-0.09997884398926402,0.11927571169360024,0.018148987943047545,-0.006483152460603338,0.14913985343246017,0.2654894723207409,0.10211560773797553,0.003984426341544037,0.10454273938984047,-0.2686791280208556,-0.2867818977457685,0.01575934321208719,-0.09219379618787328,-0.12153905094616363,-0.2510147682756965,-0.20053758343347552,-0.015273581250000041,-0.08081103106538444,-0.18978166397137247,0.06581258324986075,-0.016710795638899323,-0.10570969147180893],[-0.15311201680822084,0.28152784865311115,0.03162414756752193,-0.04850426191850034,0.17141807133399903,0.13830254006645926,-0.03717692180584049,-0.11367212436807897,0.1605409153009807,-0.06989487856390604,-0.15996329829820669,-0.03942347347992486,-0.06871750213640712,-0.17692260089912742,0.10324180984112635,-0.08855417628198632,-0.03775951775690563,0.15443382505686995,0.06141718998486934,-0.0687930858152509,-0.10338653076948903,-0.05743238634610442,-0.3012892710573629,-0.012119159135796385,0.22218686865101508,-0.19393418585027566,0.05862626987984509,-0.00876809125151237,0.07897105538297283,-0.17875567271395448,-0.06042320948938403,-0.4982065852057326,-0.07443338152910356,0.038914528487345175,0.007222347275455543,-0.030217661683475675,-0.06055625519517024,0.08549654247952913,0.11073214189190231,-0.056716480394991865,0.24470525303221505,0.17643599187610545,-0.03146894288018101,-0.04812089232811887,-0.12572504306719376,0.05198230949221085,0.1333299536321516,0.02348505606998728,-0.13336950331438846,0.06488901781083749,-0.13231221995149356,0.16542548812196542,0.12214941895909613,0.10216362411704417,-0.22467687648978193,0.1286926384690986,-0.0012235170729750007,-0.3219996505816798,-0.09351453045504612,-0.09497547202306354,0.10612909017349019,0.0024069469529871003,-0.31969985121067523,0.3971799299129988,0.34323830192021026,0.17327591017015403,0.05701765243561043,0.09664663083920462,-0.1932056501230733,-0.022152566229618583,0.4019934180257977,0.1957572427689002,-0.33025090226224724,0.10846616950595557,0.16455810973944135,-0.03804526669585562,0.09557483045938453,0.018172695383546027,-0.06536245150276225,0.022342638568062095,-0.09315800663992588],[0.024300622504198614,0.11542354688477748,-0.19969323731683283,-0.1981954968696336,-0.10518131823064429,0.16937842952021293,-0.2650731026603819,0.1658909975198529,-0.043633686412964466,-0.09611431510920142,-0.49413687688903424,-0.03534237589597354,-0.10743188613161694,0.06898366351494678,-0.09221939382270447,0.03676874546934918,-0.2626233559447542,0.18338775460957196,0.016320391062674112,0.3195593939702871,0.03807925949224956,0.025615280837467506,-0.0778143075201568,0.02579163078198951,-0.16866766334063152,0.031935920264969074,-0.004069738884008945,0.1317770933778047,-0.028764919686025018,-0.03427937531913409,0.007937122894489338,0.027547492283664175,0.2779992597808739,0.07683441675727368,-0.10850358198351813,-0.06113991173443424,0.19946826405753185,-0.09386463767752418,0.09135957680713179,-0.04146488931632095,-0.10435712380143931,0.20153344577082521,0.10375837782925686,0.01152164676558989,0.025641290696850425,-0.18306874162067832,0.07453537018663331,-0.11026539164910146,-0.15762465465142508,0.04981151588739958,-0.11554193276166702,-0.10377305710462675,0.020013205445527683,0.2929171891642254,0.0014663593023445498,-0.15112040838878082,0.0009342401600513363,-0.07943279588207644,-0.016380001931208196,0.12075669747369462,-0.14751498899986323,0.11613439009185807,-0.10166865205417534,0.04002518184316532,-0.08932320912498132,0.021376306414829332,0.07693596477318222,-0.005265660422130948,0.06721506279968596,-0.11372760084675619,-0.11825260699115485,-0.04104412329911508,0.024431896747953916,-0.025802381041614447,0.3076715161500069,0.11433165565743283,0.0014733528784446493,0.03892533992651703,-0.03271611545283992,0.0038448985279982795,-0.06398556180627075],[-0.08022504350167216,-0.08944382007481408,0.14046187623790352,-0.1447586749500784,-0.034815397161004506,-0.030495690361196492,-0.10608653108730358,-0.07057531879776827,-0.09705759961995816,-0.16507476671388188,0.06367718944725882,-0.0788933803189514,0.010600759113708549,0.1221682344595305,-0.09728190677455713,0.11467593570094717,0.022117705741407714,-0.08475026615504402,0.10289150209371947,0.5229593496749176,0.03370197511006839,-0.03554084883315142,-0.14721127242423265,-0.19471473358108438,-0.02537138523114308,0.028713113076998593,-0.03636826271906545,-0.13432726263254735,-0.11877285473212135,-0.08227113330056088,-0.10306182963694736,-0.06177012141589945,0.14659006192264842,0.003596079722169112,0.028062496731114998,0.06412679431828332,-0.19742179809017707,0.10900010141111219,-0.03149188608046584,0.2742195349354305,-0.10025391734207927,-0.17140745684682387,-0.06398673564054426,0.14028676165695073,0.405037168608285,0.030925370399052104,0.25332965525251705,0.2287229296685789,0.1527083036234212,0.0043593342880623555,0.08183946457124913,0.041383581001431115,-0.09092094462803564,0.14280438658751612,-0.013079123188173471,-0.07713874401511757,0.012786567369116339,-0.1568732859625855,-0.09068761057311282,0.07233959757050673,0.15050783365186557,0.18992170923410964,0.2041344216156038,-0.11215862236660278,0.28421440458166125,-0.05808237473465847,0.429307063160913,0.21443680021414166,0.05633240373999671,-0.3140219687240239,-0.1100660313195218,0.11302485400693792,-0.057669775967680234,-0.088311149942059,0.007306572190814447,0.10550338115868606,-0.20690449200209898,0.23411686853798694,0.0073568537254330695,0.07966400674832354,0.24445265409437886],[0.19076935732643777,-0.15255568120512067,0.1288066335226428,0.1112941394141167,0.025413668903790185,0.03334122939877534,-0.0398868372686163,0.1089735348977919,0.12588972216785538,0.1066500712053078,-0.012652420021723811,0.22569233374018657,-0.04133128729854337,-0.11976932267573023,-0.03678173158394033,0.07412632784831912,-0.07150003634189168,-0.06864585409656165,0.37919958042071217,-0.05788859013911892,-0.059476419297435655,-0.06640994626829318,0.12500338919018625,0.0821999093148079,0.1353429639594491,-0.05591200391336586,0.07910450040133452,-0.20369983612315642,0.05602287698437929,-0.07631793645083003,0.017848662984904732,0.01404464189430635,-0.10599619739166243,-0.43690218145674203,0.21160444487239902,-0.1717090492388635,0.01430274985406853,0.46583782509588867,-0.17042201096399315,-0.2970881421348691,0.08153542890323154,0.09349385152313335,-0.06285854054215895,-0.00835377107204738,0.03136917303143379,0.11231133885017464,-0.07472623498202656,-0.18842723448435286,0.07288809826476893,-0.04513245326758374,-0.12760080266520277,-0.24487066154604634,-0.19752509879478666,-0.1384485886843746,0.12794530692712291,0.08962020902840091,-0.09912359267100801,0.1340259436092045,-0.06210964985531275,-0.037621115518989216,-0.028456840583084064,0.05006533821964659,-0.012900994359413338,-0.06497491040182474,-0.018020827176740337,0.07428490856719865,0.1436261760824529,0.13796184265417316,-0.045897803727502025,0.15589184923680424,-0.1135491322362497,-0.13683514872595773,-0.09574572107998193,-0.10351412625436625,-0.013345818511425094,0.11842473744590896,-0.0919799502733733,0.056966541848212586,0.3780378430030923,-0.02125745750031687,0.041332862972048565],[0.05332429360284215,-0.10798951218758424,0.06012765675064617,-0.000905281363756415,-0.5172148884926068,-0.09943472903241293,-0.2787009392662401,0.09632662869482848,0.10842662446875652,-0.05818552306175526,0.10462654200786616,-0.07861676877787377,-0.10165868280257113,0.19471788706399729,0.0666310646643096,0.07414694290812189,0.16366499315114702,-0.17647655833480533,-0.05913191248316722,-0.33106621417916204,0.018778026175135337,-0.09018163768921182,0.10687275440504458,0.3810705420944172,-0.012772299273883543,-0.0022280811596096127,-0.023086446267675965,0.003937845553781503,-0.01809690226663612,0.05903363140721639,-0.1453349752573887,-0.15791346713368123,-0.00786548712012424,-0.11725876991207859,0.11211242763706733,0.006615047975438329,0.1086762281397755,-0.031006985751452942,0.013299989174022513,0.13363231816006735,-0.03346985338081461,-0.026623436092698606,-0.15884295151665354,-0.18628497062887853,-0.03131474498971036,-0.30758910252676525,-0.0756634063265184,-0.0996755987778257,0.027275166059318443,0.002642150233175129,0.2290848171146662,0.09580184258531077,0.025869844920867385,-0.16401985415429451,-0.08480262595198872,0.18682315264600075,0.11322198666210992,-0.02904684586217661,0.1337220338968105,0.0854918516562807,0.21374551776379735,0.10114917402152722,-0.020261878675544017,-0.03655615490072628,-0.054540073168558446,0.05454430614418028,0.1773816037567404,-0.490824607313537,-0.023278770291571493,-0.51278281760536,-0.04723501938723989,0.18428818488302273,-0.13746318392153017,-0.125551827799847,0.015563915043257432,0.17067473619853799,0.07411391968385268,0.013419308125500781,0.11216027119366534,0.03214640061085929,-0.05957043487718931],[-0.3749231555242943,0.11528083306944997,-0.02284095147613936,0.03015855405177628,-0.015509913792041722,0.22794493009335035,0.2806648280906226,-0.1595655733486179,0.15722423043154596,-0.0893490514580409,-0.2815957710389852,0.0312064611696344,-0.0361025316320629,-0.05098903740657501,-0.1219308659855573,-0.052320792752284996,-0.042406014109636535,0.02407178832402615,-0.0047402666302628835,-0.2197689205199114,0.019193658349943687,-0.11924534377909457,-0.2154690492594267,0.10494759748463357,-0.11622837432322693,-0.2489094826776634,0.08340788020549493,0.08626542072226541,0.0655595739408735,-0.10235552499046698,-0.3433535171335265,-0.02655556401959046,0.019986954916982488,0.20903965789931228,0.04458011231052991,0.10989195464491038,0.3908615796973523,-0.005486611487515472,0.07572414450111956,-0.2684864405740531,-0.1102977852357043,-0.06393751009562337,0.3079320004725683,-0.17868417299800765,-0.10099647805597141,-0.06294921122657111,0.08901582670620507,-0.0909691935456053,-0.09609643747619444,-0.0005763399887222917,-0.13485200739398334,0.02899538862835498,0.06597056782142698,-0.019327166930700843,-0.255624605723179,0.06619574384515878,0.03195536584876473,0.1102141799130603,-0.09779455217917002,0.010244148745965473,-0.230540117487342,-0.10713207104622535,-0.06372818833141992,-0.16570323353559946,-0.11765547554456321,-0.005288523447813014,-0.016141004119868477,-0.03592920662103906,0.003664614194453718,0.2289755703593045,-0.02095542714727327,0.06622699866104916,0.05247588594878503,-0.06674759169126761,0.03269177418539774,-0.0008436792925453209,-0.09029104608988704,-0.1559954322923794,0.05963573520295497,0.07234740449017622,-0.012110527774358237],[-0.45776591561412916,0.02356065071570028,0.38184844916978467,-0.12437069025634934,0.10892192476605264,-0.1572899073651399,0.09669444911746594,0.12460653546003835,0.41090139161418776,0.05379165801505171,0.10326165026348104,0.025929164548885993,-0.15230447172834455,-0.14894292871351203,0.15817427095159034,0.05132024108860137,-0.1093137970629156,0.046896799762902716,0.010829262422406815,-0.1140316440514745,0.1944018180546183,-0.13666722700810977,-0.009881352331502167,0.14394216600461998,-0.04097648859683794,0.1076878826222335,0.01970008752979118,0.23689742917519874,-0.16873559441440766,0.15006281132998223,0.05990796379239021,0.07559004842545942,0.0732843540893005,0.03359972181283137,-0.0952229223415793,-0.17949474001091498,0.26694349123200994,0.3543840588633951,0.07032146299436172,-0.0845534564622216,-0.043256871044691066,0.2427629194680695,-0.03453900099680738,0.05682290907332435,-0.09610439197954568,-0.024513142216229553,-0.027731302737322366,-0.005580468048604954,0.2505713226261429,-0.19725980920868433,0.02075770805974183,-0.13589699517726528,-0.06851587195382206,-0.1249142773433573,-0.06310025489197386,0.1651135813221736,0.12088705697557868,0.07483297187767352,-0.03372004067205656,-0.03975146918565893,-0.13819469403901172,-0.02240198013355396,-0.0573669147766614,0.3211887513039614,0.03321036117989302,-0.02204833310495814,0.027063647862721002,0.11618978508783441,-0.09777054578906194,0.13493179970985186,-0.0883084503131122,-0.10961092100909553,0.051774080495996314,-0.2932266710818594,0.12545447470554252,-0.5946828129853917,0.023941093979648418,-0.17319221694176323,0.04629414052548274,-0.05324062482139613,-0.008082168739228538],[-0.0637067977107733,0.07531717050728215,0.027913443166377554,0.10875561371184166,0.035707951124215535,0.07739917789292647,0.08390580523004619,0.041369858181759644,0.1276498911873642,0.06116992144247499,-0.1054304177767351,0.004189382260387633,-0.1350640591231956,-0.12008253822119097,-0.05522404121653058,0.09750893787511143,-0.09886166821459942,0.07396173175915004,-0.004925362090965156,-0.11413383048161417,-0.11578925436021106,-0.02948947795091558,0.1616336969144329,0.17995959617240143,0.0975418841648554,0.05635960545655527,0.07028674622103577,-0.0733077565751921,-0.19966101192483135,-0.22719214381934177,-0.07066257728966797,0.036287671220089655,-0.21503721396282577,0.08343907558557803,-0.039889154093063865,0.06494699285515182,0.1440254248256235,-0.04232645565640972,0.029544167930316296,-0.13247249302784,-0.1431494991527818,0.19468545119693484,-0.010459291187298252,0.21015593647658912,0.03545104488832818,-0.03118300991534999,-0.13705984106439406,0.3629691802891667,-0.39262789134167864,0.010110907288198667,-0.0186427442351016,-0.11438246360576595,-0.19910795459617783,-0.07761394190221493,0.3433159024392012,-0.0067884838210884955,0.13988763269698953,-0.08798099031560362,-0.10857491277470639,0.006798582275822666,0.036436559913725776,0.39282107993518733,0.06006864988155421,0.13530631446815217,0.06416627937367102,0.12096163825688892,0.020964534640164807,0.014559626429088606,-0.10863438240749018,-0.0421134556054755,-0.0659568788408632,-0.19918679899332592,0.10357345230783532,0.055601521297344095,-0.01529548724976516,-0.028013106953330622,0.021604155682698026,-0.1093281956295401,0.06230618562810647,-0.06968922978367093,0.15698840757052585],[0.14256123985763122,0.0031328179792338715,-0.05104034793592841,0.15492505350841876,0.10292696470024865,-0.1780477140272451,0.24493284701150803,-0.09814419921150697,0.16293569625178678,-0.16416509855018752,0.16514292359322164,0.029585850022332823,0.11134554384494619,-0.13403892042068427,0.20027480877783777,-0.10775319831570399,0.12978584146805533,-0.02472628065959683,0.1329066888963507,0.0582275908175541,-0.12578066483218214,-0.04285478699597021,0.008585779847611974,0.07656875357912435,-0.11358965168390585,-0.14573256276227234,-0.0057615427324171084,-0.19780370172019268,0.2932842688476483,0.3024494729670872,0.12437909692627717,0.0289006491892368,-0.1545892557403464,-0.17077215241232088,-0.13652440587365358,-0.10846207763016824,0.042329609793940105,0.07496193515806253,0.021105078302330275,-0.004600652003067586,0.08869436557408095,-0.16660471082471445,0.011585681736246106,-0.10387847357616363,0.26414789961496477,0.06914947968045225,-0.03405784584224268,-0.2764562609721147,0.036213199467890395,0.08611644673142699,-0.11116021045012968,-0.08643241707154628,-0.10300111999531429,0.06054699166573989,0.3461927981503682,0.04648958486620151,0.008081543035454391,0.05654247479207516,-0.11881791914899466,-0.008797089938997993,-0.05606297604896899,-0.10459846369076957,0.012051403559816943,-0.08767010036956137,0.07632863233211908,0.08349197773971567,-0.13114707139982518,0.22657120302597283,0.031743940196050494,0.09640538769575444,-0.3832831711248341,-0.43044006038434024,-0.08555309646728229,0.16291493296783857,0.29968540226074913,-0.016432028216567706,-0.15734697598139807,0.2081777331550543,-0.07745820414824528,0.16571294734235703,-0.06449231748465424],[-0.15504617825350617,-0.038914174690034734,0.05921655480797995,0.06296526780370772,-0.04686717732552781,-0.05743710892110629,0.03070911946502287,-0.03142653620232658,0.026583951096112918,0.05479459364842408,-0.08196375503323455,0.44751440277430676,0.08049872726966456,-0.06048340213259641,0.048413670014868765,-0.05694818583890023,-0.25081484217018035,-0.07868613339998345,-0.3472859931208041,-0.013471426911913675,0.030951381958674393,-0.33461386899470774,0.24834310627236322,-0.08152096399316666,0.11876312963775389,-0.06908646324137599,0.19723456780827933,0.09693793359209078,-0.09230520141409752,-0.026748964498299575,-0.044433369064421586,-0.0803367613617255,-0.09533592482763255,-0.059898462567918746,-0.08489085224176647,0.2516587398586495,0.01636586346252002,0.05629562327511839,0.012963839565813708,0.03531960619353163,-0.1905486500921353,-0.06362806616828832,0.032629051439726116,0.11930472013420956,-0.1743958247928256,-0.17415425952482858,0.12740159136365017,-0.33563352075207237,0.10801535125436215,0.13525613023204655,-0.020711184851087767,0.19526597444783697,-0.055099033270964694,-0.10360108564499802,0.23250835085776717,0.014999387659435022,0.11189466122921131,-0.11557174906377375,0.011519089148330776,-0.010367813868620186,0.11289003863155725,0.08935979247660415,0.12525913931587132,0.0875284044021653,0.03739507210887158,-0.014220875287136095,0.02324810372942403,-0.09378646850579732,-0.19267548284534644,-0.08006985297556586,0.286651240396509,0.08111076886813393,0.15198044014414733,0.0915138911785596,0.18972122160294758,0.07978862097146308,0.13492098406952788,0.11091178960415085,-0.11573279820272236,-0.20121438474498676,0.11392827537597146],[-0.21011578955929527,-0.04293378628415621,-0.09743409443993983,-0.08273381430501667,-0.06890016886764155,-0.18745187869706637,-0.0577212354243302,-0.09388620358358289,-0.03224046544426043,0.32027264576350156,-0.12923531380332962,0.18869524348876782,0.07163171800254656,0.020055079078457324,0.0009822430679837615,0.07325392304721605,-0.05466513874114238,0.10184092287750228,0.2152387575957179,0.3609369112407551,0.22524621092764813,-0.28004970612983704,0.14268132168592929,-0.0722047908188517,-0.1322256711025702,-0.11818910778892627,-0.0005991907220286937,0.2756619770894939,0.5864064200685059,-0.10764904565042566,0.02843831061386466,0.05558412443330979,-0.3843013941252266,0.189741930391422,0.09746776213080695,0.09804410102694158,-0.0722218232033244,-0.15893485516088407,0.016858478730586515,0.07902143681786411,-0.11219628888072923,-0.468798146789221,-0.24720022390468388,0.006708856069993643,0.0015385544004795197,0.12623707387701008,0.041986673128481505,0.13008910585976186,0.10000059753105567,0.017620253753173595,0.2805775324674045,-0.030822865269642296,-0.053810389628797105,-0.05966584433418287,-0.012518659006515368,0.08107702879732248,0.08005423772852266,0.02710841379741162,0.03489704276633206,0.01799064935362519,-0.045675324987136445,-0.05426799878541265,-0.08568206049699956,0.0632844162678312,0.0038055784079705874,-0.13101078821195625,-0.061365143513279506,0.01963318213650897,0.08644474555153744,-0.22124319144438298,-0.1338710274929179,0.09946965966471193,0.1437640404310314,0.03771509307740826,-0.07105761205369188,-0.07385323932842168,0.005188436705837131,-0.37413255467914247,0.289677099629876,0.0174857205627913,-0.024737616857995824],[-0.07202463053245545,-0.055640916593970705,-0.2415629736440221,0.13776735581511507,0.04659614311816141,0.18024485936782952,-0.03870732390094103,-0.05755276231175636,0.09303333478744107,-0.3905442210418269,0.18278757745261176,-0.0938669547310254,0.06480651993237775,-0.16292721291602225,-0.09485272151088738,0.02663458087242651,0.05283656000055146,0.16709274069273503,0.28193999422266597,-0.030932141132690827,0.043031022860439264,-0.13231079841830806,0.007540895332974549,0.25216960309144654,0.022374036662595586,0.1179749995428041,-0.20374346270748073,0.3262913766944551,-0.44113572874567597,-0.02542901838864841,0.012346183543520217,0.017768739489790797,0.02156516594631037,0.08102462946370398,0.13622872591543667,0.039078760968143667,0.006281543985597826,0.13161735954266968,-0.22520311737495563,0.10542012933321568,0.03109016784763565,0.18135907866081322,0.046208574543816584,0.07262709776903839,0.19706449689518596,0.14329752453249758,-0.25556829632715694,-0.031013444202349864,0.21498673865438758,-0.20576425139502855,0.14243155074399907,0.14749495775037264,-0.18775667094721296,-0.076989952675925,-0.11703871108050606,-0.026634697300020403,-0.08268340476816899,-0.07875901365221478,0.04304873437870678,0.09043171819148761,-0.09573999432902483,0.07480125284482293,-0.05395404165037855,-0.1613429172723016,0.003955993720993272,-0.19279461221207658,-0.27949626436094144,-0.09035589210558596,-0.06061065554428934,-0.03153214310627571,-0.1172714532022506,0.19859390274034233,0.0679376061847589,-0.005425995666213256,-0.10229226483813761,0.08858559375754786,-0.13743801461471167,-0.09664226698415429,0.13563100334137787,0.1671975544692249,0.12949925237652052],[0.05659934985151187,0.04638325035854131,-0.15120803340399339,0.048729692448139725,0.025943080314293026,-0.24570968697911147,0.10985840859847734,-0.11317491122344188,-0.048813048566062806,0.10174526599605724,0.09217260078770592,-0.15863269068370664,-0.03966886025493867,-0.0613901648165931,-0.26357022354737325,0.12209057140469223,-0.07799555344732231,-0.09715398853790823,0.12485326980865978,-0.1352691123954167,0.21026401834707747,-0.048927468258306225,-0.09063418422575252,0.07746552484714639,0.010678865085273435,-0.3837374047365896,-0.03497845109852713,0.016789211623758064,0.21160486208075047,0.25578977961481736,-0.29317656205384013,-0.12342473032843404,-0.2609612610099985,-0.05716967442261532,-0.2041282284636624,-0.06318620817843619,0.28289458329798467,-0.11510721933546382,0.27266804125347194,-0.05411929550217802,0.29698776735921284,-0.47448844364700093,0.1309200123920199,-0.3015474281119072,0.1403385581089843,0.02840973559777628,0.0704093945045207,-0.10004689233150356,-0.05670484175413958,0.033682590416881694,0.030045139295908338,-0.14133560531222944,-0.04822453832597542,0.052716393570801004,-0.16070664132728033,-0.10767122145224314,0.09733838634209374,-0.010917884605916908,0.13093013400563414,-0.14786371402101478,-0.18226630190948867,-0.05755516083625785,-0.1232885863576669,0.001345149274663338,-0.040283998781047534,-0.20360335132511198,-0.031741801624906064,0.1938723971831193,0.12812508255475946,0.22204811990986947,-0.12910534514308242,-0.04927505964425164,0.0030599665550648343,-0.11495194912644438,0.0010840408865048817,-0.1377146511869611,-0.2954409165301216,0.08180361165616165,0.06072780236996517,-0.16434813283522046,-0.09063251555122948],[-0.05548241308210702,-0.015298992719617356,0.0769769652054296,0.10095697987234371,-0.2299643008035792,-0.0379712117620645,0.024702919649008986,-0.0013531394435086956,0.015367671544762504,-0.06434274235408614,-0.007950881247291276,0.08186975410807017,-0.03304619815295278,0.1726278058708345,-0.14868224463110974,-0.2676234361297471,0.11333429282664842,0.00392332413770019,0.2862137672001536,0.027145579284836213,-0.11344246693283386,0.07387871828835248,-0.08778813366351779,-0.2324296827672646,0.11701132569326113,0.2984551052716864,-0.08716259897415572,-0.29602196172134293,-0.08595383569949681,-0.28117658209312757,-0.3911323458626794,0.2721273382603624,-0.0462519712143609,-0.0030964426668534935,-0.018833086332474328,0.0727579980828251,0.05169780641799487,-0.10382646834547458,-0.08959618597161591,-0.046533555128981025,-0.10999040318868826,0.1461744462452776,-0.16902954204543666,-0.07690098825847379,-0.08195063782676353,-0.33190316324575536,0.05233828152385699,-0.03316625823317052,-0.04648427520567222,-0.06944043463717323,0.033462646231275324,-0.08095086208070838,0.05519358442746273,-0.013789675854991855,-0.03978333049917611,0.00022939729135672079,0.0934297699647283,-0.1016469687247557,0.0701073395562522,-0.3421170214814842,-0.09287659311462668,0.03196101816470263,-0.12376385396579834,-0.019419671144877842,-0.18101593004978517,-0.03068771098303592,-0.15588375549313527,-0.1066762343606119,-0.00034783734917418906,-0.2987231123839341,0.06121413195811758,0.11235217249449791,-0.09527214706943614,-0.03642635809580489,-0.015925804052350518,-0.06628403681120802,-0.09120786381273402,0.08925937659875685,0.04501212041185965,0.2808680320923135,-0.10655691946289815],[0.2343492479932622,0.13756957134851813,-0.22854539486737221,0.4738978333189192,0.15044782227966158,-0.1328500554234634,0.035638880482337744,0.08689898804344728,0.017048739382601506,0.0792114984939722,-0.1090445081711441,-0.004290488889129628,-0.055006697484643645,-0.006427939549612544,0.057801909038268096,0.0983530325573666,0.01354302741490982,-0.0581326574164365,-0.0036298368672155598,-0.017875974347378833,0.2036417685993137,-0.02008169190389782,-0.055003851823001035,0.047474262692406115,0.16114209780377126,-0.03390308101024167,-0.08220447162786153,0.10164609790677132,-0.361290109322415,0.07142508832658027,-0.007316855650263009,0.3063984985156432,-0.21561082229902997,0.16296952037741838,-0.5267322810497224,-0.017079505561871124,0.23195616884418274,-0.03190616644269223,0.08948200067153823,-0.15784257283197695,0.016101366455659686,0.14147677097921266,-0.21406694408491886,0.0525243161957961,-0.033616182822841685,0.1207660204458213,-0.1229544914405337,0.31964080314936727,-0.08829424010582972,0.05687376885294842,0.06889167873943955,-0.04201941633132429,0.1451624530500639,0.03195617317552432,0.04271335297260276,0.20970851622921988,-0.07262888793830052,-0.24158160578539986,0.024557173391246346,-0.17018824291634038,-0.029945896080121867,-0.06489713766270462,-0.2862066013121652,-0.0313207338301344,-0.1697379160311716,-0.26341454478537635,-0.11123391041636332,0.15814850923940443,-0.0242488270735038,-0.21859642210058886,-0.08986831444091165,0.24877513247713479,-0.011264333995399688,0.019536041093561413,0.0031047873453033995,0.20668555815953915,0.10719535884461634,-0.12511110091513772,0.10817580565151856,-0.01245850166945985,-0.08694662049604782],[-0.004773700147921496,0.006894730231526118,-0.04594150365922868,0.07063621450763559,-0.17220057450175655,-0.04399923890559864,0.08559684777625307,-0.35230208480642344,-0.0020696692534352447,-0.07255429992121178,-0.04178786240288183,-0.0329874150148824,0.19735928823528376,-0.05732545196750681,-0.07426273296488661,0.2044710935693877,-0.22516739681990558,-0.0887372896742103,-0.010801501095759855,0.16838210443783203,0.035180264180118284,-0.11247794311094074,-0.09466554615888967,0.03967829106190459,-0.018769897491052585,0.34227736885382676,-0.07762581809422144,0.31181888639603267,0.08409986958038572,-0.2012199958790388,-0.06629350489913524,0.09579792656411387,0.1317346597751797,0.360457358427254,0.06595824551068113,0.017364366766580413,-0.17645092169245857,-0.1064058551148163,-0.09145519097336738,-0.09578987883669361,0.19926035932658948,-0.16197440336069166,-0.022174233061955574,0.012228319124274165,-0.5262183440609844,0.06165623181722513,-0.17913956179710733,0.2481373626814431,-0.14683347776170874,-0.376736897865529,0.07375093510641934,0.035707310714386514,0.07553910118645131,0.020436733195966315,0.0367648026733102,-0.05451961528590718,0.0727607945031426,0.026494310549107877,0.10433756523789474,-0.004859425487527284,-0.08065594930558168,-0.11466610569829871,0.07181228238401915,0.0554001841050403,0.08815749086182385,-0.07708497577330735,0.07834564553352193,0.16363026992699187,0.13170941923404916,-0.02218147261373001,0.07439538768441785,0.015589880507753137,-0.23618735795609075,-0.09596362881252112,0.1526433870178142,-0.10705111348717637,-0.24757522335242532,0.09570693711943704,-0.11691357406016442,0.2630727920252325,0.009935727801762944],[-0.028381359656429232,0.10731775959966766,0.18214352638549425,-0.40282320655312137,-0.10369239555872761,0.2569173739503429,0.3488929723425955,0.22433182206285415,-0.1721019502454131,-0.06331023811863767,0.07991549158271327,-0.08368758401502552,0.03288939377778055,-0.2003566937702764,-0.08907479944024012,-0.015488543353353396,-0.12819862348328823,-0.047738623225397854,-0.22820580170091223,0.1573807354126006,-0.19658165798066704,0.045514315144511,0.008470084850948821,0.027890455196205418,-0.12598113001269803,-0.19913177699236392,0.17003297484676264,0.000647727548846861,0.06836675829520297,0.17542309543608162,0.13495812808345783,-0.1413591881258459,0.11650170527334945,-0.08694333978865956,-0.07486786429320508,0.3711860373117002,0.07224479665658395,-0.038808494974818135,-0.19335061698419542,-0.03593332294405302,0.11701032595485014,-0.03607789343109798,-0.14527010330584492,-0.2668616671836309,-0.07774590689581343,-0.16468723889905382,-0.10811701601497202,0.021819645050530585,-0.35001345562703784,-0.11849160708868384,-0.22278550347397114,0.13957799300985835,0.1241750354903422,-0.4325521435289117,0.03934701202535159,0.147945628955175,0.1516319199892703,-0.14439326715984077,0.26426193314140384,-0.4326687147787909,0.2972124950767253,-0.07424169402067406,-0.03899724682984305,0.14953207044959096,0.07846079336456012,0.018999001327701964,-0.025595298621875723,0.1496123761209388,-0.35504481232568946,-0.11305359653823147,0.04631377910218884,0.20164391786002187,0.15267116303725914,0.03007341333121801,0.16100153409656673,-0.0045413593066558405,0.10958678381058676,-0.07149080198019439,-0.04289495922435177,0.197505624479305,-0.2032440858517129],[0.02457950130175604,-0.014207401081111036,-0.2397867047651966,-0.04795323485951327,0.027110159899847133,-0.0036460783256153056,-0.09644963034864082,-0.32289480836073553,-0.16712187019384894,-0.21948918142675605,-0.044209078817433446,-0.3280940896478535,-0.04039824271139604,0.15266891645466996,0.021262341331051215,-0.04945236610847096,-0.18614141549788843,0.12309747671505733,-0.029574158482024132,-0.18421384471842606,-0.1496519673799473,-0.2268060792441294,0.07833122495698776,-0.09438432045590527,-0.025279847305149147,-0.11720751888354233,0.05313382007305756,0.04412060690047081,-0.00012588159058795427,-0.17258514395832952,0.06391211653175892,0.17616518053119942,0.08813973121867757,0.001896615913150548,0.10487740085740495,-0.06530496257272682,0.13862997526057372,-0.21002117597130943,0.14793053394840266,-0.040105599636480006,0.03537345723032113,-0.18648274823330283,-0.0415799040045162,0.14800272225871183,-0.07098459134790981,0.10840580638674469,-0.1954596241095052,-0.25161420023874603,0.14384883330904624,-0.12587027908661716,0.12621670724131748,-0.20790012298408342,0.16390281452852312,-0.02062851576710562,-0.0742088490313398,0.3836358553465477,0.11879925595165215,0.3541500137410383,-0.34563105488569407,-0.010362483092101995,-0.29908058794149467,0.0380711047761823,-0.11541579060829675,-0.03304027191325632,-0.1378002526751857,-0.4273780667782239,-0.48451923613097336,-0.06132920278720412,-0.13366928144497314,-0.0001751559453859092,-0.31081513961071866,-0.05673001857468024,0.04384050175775146,-0.05425444718731799,-0.044009741389765475,0.2921049858891725,0.13757846757680423,-0.1535508534707691,-0.1705013338734443,-0.05170096643117917,-0.015011238124443061],[0.06505758646530388,-0.14666539114417335,-0.04750085003730743,0.043638755007183526,-0.11848395421189563,0.2712927284637354,-0.18728836964324788,0.09923332670430547,-0.05401508518224537,-0.09807878488345223,0.09484984276280774,-0.03413865869801858,0.13553342988554262,0.31713112909695057,-0.08874595556667073,-0.12591043636845903,0.03237790282449432,-0.253499444735512,-0.13119031172108545,0.023740529212890854,0.22777070233578384,-0.07872960828332129,-0.13464117284323227,0.01978963382069826,-0.02180708339808952,0.04519178966288083,0.19470016210350422,0.24230204522731544,0.2665143663191942,0.0613632002589644,0.10198279935157337,0.03796890106449369,0.13258881892715416,0.19707146175787993,-0.12065634571742925,-0.1604074295904124,-0.26747017143587226,0.0019449861323178246,0.16055046594325043,-0.07671254951676326,0.3047756151795536,-0.2634765871941239,0.06449593307642575,-0.14649764737695503,-0.06690604697866635,-0.10354683499601532,-0.1058598492465815,0.008470347696279324,-0.059540951853543765,0.03156226876836476,-0.05346622611661267,-0.049825209588689176,0.007700928209468918,0.14628495393534216,0.07277179734415602,0.1016696767831254,-0.008983469235242878,-0.2195701811994097,-0.03113864676177502,0.21462354316036367,-0.011002091903300903,0.0750881416402138,0.21379958421601528,0.10067073133628412,0.11432899633648815,-0.1359011062364375,-0.020625803362721108,-0.03709610989869124,0.10436768795108997,0.12996008613387225,-0.04262780620594408,-0.15107626225783438,-0.013480678210668067,0.21228072752579694,0.23174671787716636,-0.03751391546604746,-0.3114202081028326,-0.005147000243151191,-0.546323313132906,0.0077002726134967146,-0.01792445621537586],[0.039966240625334014,0.04592260806417516,0.08902705578138438,-0.05620966808822482,0.0760255708210686,-0.083359247923072,0.3172752639249665,-0.07679534674605319,0.09589674450218466,0.04406818655404402,-0.21237977723413679,-0.044588433487567025,0.08105883580396336,0.11137900665470679,0.1867185326287297,-0.16527209491308836,0.12430242969891225,0.030992947962094758,-0.07683881620404565,-0.005638871564830803,0.16114290316502283,0.019272599129588504,-0.07255183196706641,-0.09308124678287812,-0.1084946897071953,-0.029064295625753897,0.18205153941044544,0.26731977940643903,-0.2491282855331693,0.33357312014959156,0.011885494839751076,0.028770160335220302,-0.1073635909047164,0.09672264116853026,0.04951861662317444,0.052927576219349744,0.02371356270558676,0.0969760158211978,-0.1265603450423684,-0.018860023461792504,0.1370644170157291,-0.04747893688256867,-0.24561790228326313,-0.17927119055974064,-0.2322616241994162,0.20969578721430365,-0.29538733501946873,-0.0473404817560589,-0.06631478064927421,-0.015955966219021324,0.04929590840644284,-0.15656697792659133,-0.02251135350515706,0.042712577170936725,-0.42601824015875395,-0.16780363767349976,-0.24720738748013357,0.15411368281700097,0.06775499579855046,0.4296448311073048,-0.06616236295193381,0.007931046307734219,0.039109248629612035,-0.18901393685786547,0.16591940908135425,-0.3374262170794315,-0.21213410586380357,-0.03561846906088843,0.18544199313805895,0.011586139052510215,0.07138759421807198,0.03823422153119437,0.3014072588407447,0.09428203485960893,-0.04312741981477481,-0.1463101641083951,-0.15136373205291273,-0.27972141509219456,-0.008833242537649772,0.04255555784570325,0.1048155979997184],[-0.0459740692977998,0.09557544639935851,-0.04496151641583197,-0.12057573259770582,0.043694888157907785,-0.02711472245877187,0.1105753890585363,-0.07411193814354403,0.07473888335925716,-0.28398037022311834,-0.028919061897204307,0.13941250457832338,-0.0763240363528619,0.04379352609239425,-0.0036410169085787,0.01828605736136624,-0.2741849862055026,-0.07074687929050553,-0.08836204138861664,-0.13379047244757516,0.06340215444462846,-0.022447110049878944,0.19550964635681853,0.17048863167923992,-0.09905716965516095,0.08479464646051633,-0.09202704860252758,0.15831460969738384,-0.08754552270890328,-0.03677772993665482,-0.09205179478246105,0.038778481782177014,0.056746878106418625,0.0629760962011721,0.06827435341358373,0.05753265857199297,0.35981602373958355,0.012738380099894898,-0.06815345742872336,0.026703291703220083,-0.0974764865676201,0.026494615176351422,0.025507625558744296,-0.0395719997964738,-0.1271704687788892,0.015534075276954258,-0.15022959331104346,-0.0659506670837415,0.015452812605912821,0.05875943690869793,-0.034384494603438044,-0.23007271824660286,-0.11271177922074593,-0.25185766692079264,0.14126988866913018,-0.09966479162143765,0.1565613028302571,-0.10103231329207492,0.1315049171973198,0.27260449294929134,-0.19280790137668816,0.1722177677249575,-0.03223566232978907,-0.03699949722968266,0.10393330503514661,0.08324576389821586,-0.09710720872370046,0.0014702204666873916,0.2110928347191557,0.20495182216121532,-0.1754120322692488,0.19221994255090755,0.006251617081137154,0.05553931019498672,-0.011758250293048894,-0.06229693280261599,-0.4745219658985468,-0.06743120077379325,0.05573724506359586,-0.21888946366555131,0.02949942331142316],[0.38362503696620787,-0.06836551875172138,-0.01302930439195026,0.05432428734301338,-0.14542046251369156,0.15105849452056205,-0.09444674213842812,0.25541226063061184,0.16860104302379963,-0.1064824490574394,-0.15067267329595277,-0.02628067136665618,0.3097775925316002,-0.10897410414240716,0.04667044586930652,0.007916216251796232,-0.3422829524743467,-0.07321565973134153,0.13081656374135556,-0.19584023275151016,-0.00019658475407121142,0.14619026111266847,0.14840108636615437,0.08957587618786424,-0.2768392187871152,0.09625876563385756,-0.2872628405831221,-0.19474760794266108,0.08047696470611539,0.07161471427619298,0.09427252436006671,-0.17330803988700477,0.2682963762413895,0.054939207346196055,-0.07382670665425707,-0.0426406108759911,0.08241990507642573,0.05299895069124419,-0.19669119611388913,0.03472724836944499,0.014057747809352388,-0.009890963856483906,-0.025204839453027955,0.195889183665606,-0.08081101235770365,-0.20456235273432175,-0.10509692116645113,-0.017015786557606723,0.04849421758553363,0.0052996044513621944,0.23693116536782988,-0.32874685934267267,-0.0444452959508503,-0.11197121865599936,0.05972070174632083,-0.14219851638222192,-0.06854882267066795,0.24169047978927471,-0.005900246488101759,0.007997242333368544,0.05426666972803957,-0.06984754346019117,0.2536714096749856,-0.07373912963710097,-0.05044034698741193,0.4224742563650894,0.09616608434398675,-0.08205616037758869,0.03376030641703672,0.01720384098318668,-0.09222442400238787,-0.1486492410747266,0.06203716508568129,0.041478569324708024,0.06492378801482614,0.04985728960759061,0.09450607743363082,-0.13918318551803313,-0.07233610894575274,-0.3773589639453806,0.025433474112604788],[0.015295537672150073,-0.13129734169651658,0.0008646995545813574,0.01171382104146346,-0.10154584668791214,-0.049644678157921285,0.08404164688410455,-0.07003175469694911,-0.13556089298619098,0.07919618240287611,0.22619411192726163,0.05794180304526064,0.39096951035242533,-0.019792124221882423,