{"biasOutput":0,"biasesHidden":[0,0,0,0,0,0,0,0,0,0,0,0,0,0,0,0,0,0,0,0,0,0,0,0,0,0,0,0,0,0,0,0,0,0,0,0,0,0,0,0,0,0,0,0,0,0,0,0,0,0,0,0,0,0,0,0,0,0,0,0,0,0,0,0],"hiddenSize":64,"inputSize":81,"weightsHiddenOutput":[[-0.11912681991302031,-0.03863804663027979,0.09304277203098657,-0.07891210793417826,0.050308306595368384,-0.15177868919105802,0.1662503170945139,-0.05953875609177655,0.02838127997621249,0.03422718017733576,0.17463134263602875,-0.14909091892394136,-0.16223976532557333,-0.1714810092436723,-0.10468494236453608,0.1561146117335821,0.05203543550996385,0.061193544570498665,0.01800355232656127,0.013237157914792302,-0.13817491432160964,0.1731126543892622,-0.12248220230046476,0.10935163008901667,-0.09957953250660913,-0.1672158390907238,0.0034978930069154233,-0.0226195918859316,-0.14330935464332561,0.1280760754353634,-0.06259444847038245,-0.07083276009635762,0.008591311795077841,0.05889334814929746,-0.08982852108771847,-0.05754938731139119,0.1300802870916845,-0.13358442506995827,0.16845096142261268,0.15376909271045722,-0.12034469349493485,-0.08749583996868004,0.02560736649359476,0.035567432207917735,0.08247867043979323,-0.04933294437917723,-0.04528450132709476,-0.1406720478997596,-0.0010992970860220482,0.12237510752951888,0.1348412090142754,0.05642427749039101,-0.06126894863816799,0.08257376029731378,-0.07547211880466954,0.14868041803436732,-0.009014789371423266,-0.016583665916746083,0.047872393528974315,-0.15814792278601417,-0.16165397711460394,-0.10846877136836795,-0.1372438589134599,0.14180080383031549]],"weightsInputHidden":[[-0.08520397027045125,-0.062008776609888794,0.010177071917627031,-0.09468702516154813,-0.08398857265549109,0.09981288173393608,0.09238190238344897,0.03384521813339927,-0.057538508143593396,-0.10066175121144741,0.015287683223767468,0.04737317234607571,-0.013774203714656371,-0.1046552166044881,-0.035422039655561295,-0.022889307450430652,-0.0016786811693017545,0.06265188204548641,-0.08546054053498277,0.047716100014330486,-0.02553434620068003,0.05308907303026626,0.02130640196097598,-0.07676971343611763,0.08217931231240903,-0.009140310493675967,-0.021316927404928656,-0.003917405403090074,-0.10116398664255113,0.0010576699129327142,0.00839645292753741,-0.028113982229719527,0.06030063149835915,0.029087502245770502,0.04946439178477015,-0.04007658993812033,0.10404363172467543,-0.043209066122238744,0.07607256721132899,-0.11463615766596963,-0.05549627998670455,-0.02318990691603277,-0.1498766089284087,-0.022706020047427448,-0.10555809585918302,-0.02037144104854714,0.04216662794240543,0.015568194251746402,0.04595908236073352,-0.07914312545138642,-0.054476596373377005,-0.022097537841547357,0.07727438860931714,-0.017714839847749686,0.03603615724164791,0.013939182647357048,-0.018030095251704986,-0.05895384201938355,0.0763428089164956,-0.08345268652047139,0.07775492133129529,-0.10660476867758965,-0.020562038937365117,-0.08110956545663896,-0.06944599954181833,0.09744656908015126,-0.0917902008214674,0.01322419741623366,-0.06742929745106178,-0.01667174020361801,-0.04768743043285162,-0.011444436554415916,-0.0327092467697946,-0.01047900659868485,0.011741540141036356,0.032767089603551354,-0.04915604839811222,0.07936024059070396,0.01866642182774422,-0.0018269318686758487,-0.048964406138272014],[0.07449455286060142,0.0660807287833834,-0.1023128540417159,0.03187957287649531,-0.05881498249084777,-0.0034385121970962225,-0.06927929414139344,0.06154988217246913,-0.11105831347600062,-0.06972888909172152,-0.10811751378799948,0.055118188955446665,0.09411261560839053,0.18339028918264888,0.02955422702958569,0.03771222491788043,0.06850856958934969,0.040725356805842765,-0.18232186390190133,-0.0013746751250325567,0.10477388070219086,0.03822290939691638,0.020644419199496035,-0.0700070756469468,-0.07074545593311421,-0.08817809553019684,0.11517334709967511,0.03853607527168958,0.11539515762696932,0.036504344986737436,0.01684930927381081,0.0351187248543401,-0.001555874077058653,-0.14422634692463832,-0.03514371665694989,0.010742667916006428,-0.08268682416696815,0.07597385045284999,-0.023627442903999922,0.08292174022890729,-0.05474833709405827,-0.09276110774490127,-0.023892462866765385,-0.08277576267465508,-0.03154141575637184,-0.0010487529189118982,-0.10988796050066424,-0.044562993535106725,0.09955680351972898,-0.05355081757362876,0.048482018222745615,-0.024450984528227866,-0.010222585520583928,0.060280346242908074,0.04648253885994612,-0.0643029295661005,-0.054980564384021983,0.018052726907478465,-0.10571256238901905,0.10315933508354395,-0.02175660859665236,-0.10467356907940725,0.0979065679252448,-0.09708101868181092,-0.09351394083814736,-0.029981128593696636,0.09065627077871599,-0.030085866198347785,0.03490460874896085,-0.09480616308194947,-0.02965897956117381,0.09829406065081957,-0.128611189437391,-0.09707499625368442,0.10157223266226464,0.08826686426507341,0.029582119930327964,0.029823883025321334,0.05093927468758203,0.026296382208538603,-0.04684687439335846],[-0.025201102969556965,-0.06975673284975309,0.04709409895134206,0.07094921987162021,0.046738015125435226,0.06565074375487485,0.08753606310361456,0.0953299475533458,-0.025590206746831122,0.11496428358768351,-0.034903861866725686,0.08414326904825128,-0.04710086454061003,-0.031767097467965376,0.08621860328727525,-0.01529542289214089,-0.09734564290000573,0.1044715801047586,0.11602776796577968,-0.014660162267979834,-0.0651944881028133,-0.08886453864711677,0.1037740024050587,0.008648964299080884,-0.04292372210639876,-0.003105247208358964,-0.08185553198345583,-0.0858139991980577,-0.06367841485883424,-0.0723142056318872,-0.04691722346080298,-0.011894835472785675,0.09859258044572618,-0.07937928617182306,0.10420928288216055,0.10728823917756684,-0.038897183563129836,-0.08512279625665838,0.016479054491873056,-0.037635636441520334,0.10721413758827342,-0.03791885291133144,0.09909706506242291,-0.07715462351246498,0.06963958297038925,0.07599767948318721,-0.015133856587054672,0.08408535676332748,-0.06782171593718066,-0.032547649714503184,0.0905700728287236,-0.11397630159353542,-0.1132331714767091,-0.041311727130019564,0.036842242916574855,-0.10946691801898407,0.0953862981057007,0.1133863017347884,0.06368984653947879,-0.02925879325438752,-0.023448715391585998,0.019418571372343915,0.030980646657444315,-0.0021412611410774863,-0.0042080891045956316,0.07635294287167234,-0.07527442561993365,0.06911216376455558,-0.03731901907219898,-0.1761714929813153,0.02210610555811797,-0.03777017241268782,0.07774020179381985,-0.049018276742743366,0.01714563772132553,0.11504565703370696,-0.004129374726305737,-0.08174026168789532,-0.06644501503883969,0.08794550784465589,-0.0813384159326634],[0.08778556639575229,0.06159150147526499,-0.07609606806583169,0.0737608024686155,-0.01559645010667112,0.07516105108136756,-0.08395819228587355,0.0586526717071054,-0.07883448942193919,0.09580513373584877,0.0752472446622674,0.029638530021835804,0.009379754371631629,-0.020768474864172295,0.035319587700851966,-0.022556833173924436,0.03231195575501372,0.0817782982077878,0.01636690144020321,-0.04407829901467287,0.1076499993496809,-0.11466343642282781,-0.10949616909823116,-0.08624810386273989,0.06369498791092096,0.09646291135101755,0.09200608008801872,0.06124873444093696,-0.014269825150436963,0.049718921978266405,0.04288016497524545,0.09005072062834808,-0.014365346966656855,0.013386316747167561,-0.009909124214779753,-0.11622608536939485,0.050619134083834325,0.012506331909372085,0.10413014841090179,0.03740380426589661,0.03104064766393174,0.11284160333841024,0.061405047890476676,0.06935491077412985,0.01103523640355041,-0.039044089849843554,-0.052361797168827266,0.10132572256839821,0.04579229902545942,-0.046517614703715085,-0.020431017547711944,-0.08773756887161395,0.02007041327737142,0.025521429335160703,-0.11241169206586171,0.021908400889054793,0.030028808288279817,-0.05619607258033168,0.09102913226753957,-0.015670467317514754,-0.006122536992085168,-0.08736946958669771,0.09936071838610148,-0.042099949385545565,0.054069527881421525,0.11209820201610207,0.06243445640262285,-0.06205897114299792,-0.10241804708103086,-0.11594870293109315,0.011387762397159999,-0.04634191521213793,0.05423106503896702,0.08957196972378566,-0.08240725275249335,-0.032125228065976785,-0.06390888704085805,-0.003878750838728063,-0.10322508273033476,-0.116150213928604,-0.08386358172863187],[0.10876924961947988,-0.09335254848335786,-0.09614469458588878,-0.05347601734642224,0.04693779167891744,0.03484121849135273,0.08289795098535056,-0.0492422219031951,0.06903791364514696,0.0743828186698986,0.050469373471610283,-0.007866610791934065,-0.07482566158632735,-0.01512014866082647,0.054894004185546054,0.048468474242523034,0.0659708031122071,-0.09755748162143202,-0.08498910443729706,-0.11331827228853415,-0.1088849877628296,-0.07045201563405219,-0.06080311513489433,0.08444862368819638,0.10818658049721182,-0.10546554138213575,0.05867961795004825,-0.034019778329157285,0.005832174856664701,-0.00004598717406846192,0.05443878579391465,-0.030414230959619863,-0.09164037212468887,-0.08086748958032466,-0.009766597024934985,0.07731554579176543,0.052571204824005624,0.031636602126794325,-0.15369824087293313,0.006016033532488485,-0.10096892918308642,0.048742838509129006,0.05675552608083723,-0.10977402048982854,0.11557914257993453,-0.05516235569957539,0.013506522183883611,0.08643650280112583,0.10961764216654167,-0.0513467162388333,0.1030541002175895,0.03553618595600435,0.1042530359783585,-0.0214665088514731,0.009672432798778942,0.045758953776329075,0.0605822948144232,0.019734679903779546,-0.08378547327412947,-0.01886882058776574,0.05545311674372292,-0.10443301631506914,-0.10174356047120646,0.031929684789275846,-0.0741942556015275,-0.03115973511520204,0.07749516436028775,0.09414418506409003,0.00788247975990305,0.10648005730134384,-0.04985829636306527,0.07502559117067463,-0.07934578721612268,0.05695833265869016,-0.10593731006635242,0.009072608738842285,-0.11173723710455868,-0.024952578689893038,-0.10462230958454527,-0.008270126341513093,0.09689421519336809],[-0.025060550622716955,0.029677834448099783,-0.041977221259212,0.0034602881186220754,-0.02903289125017499,-0.11013693002485693,0.021155437545423744,0.06454827163205962,-0.00626653308006074,0.04539427793357212,0.02139505927076752,0.0010419998464433395,0.08552716029189425,-0.0755758857962638,0.10824990228795943,0.11419550312967795,-0.10996906794065428,-0.030996049539250014,-0.01855444944747896,0.08219678893504681,0.013458358318810206,0.07326526352058263,0.015916782291211354,0.08766244823580414,0.02318784149374075,0.02604712050143879,-0.10261747924456537,-0.07644953218725359,0.02948158792768605,-0.02261206448178331,0.01707878230140901,0.043225378370344174,-0.10833716934924624,0.004535732281007852,-0.0795316826067837,-0.09224033728477879,-0.014620787930612451,0.08496000914281154,-0.021185462668427284,0.10368503648019245,-0.03893590954148776,-0.06642654712530746,0.034424056515637534,0.02004454456379699,0.01526364680175736,0.04311952805292733,0.11555739365247396,0.04564690285073616,0.05511220347857846,0.0334259409063997,-0.06901310626428966,-0.03253873572084448,0.06049884744071092,-0.08115216190614263,0.01817819706219793,-0.0695266589801422,0.007750208756113059,-0.022264842940607137,0.06100112895894748,0.048798308993293085,-0.0007952159685130491,-0.02242645501447244,-0.06823363102256956,0.06615243792609855,-0.052032237346783534,-0.1086144342162714,0.05237913047182756,0.07424937297532129,0.09634559266264374,0.02587650878062217,-0.03639325896735946,-0.051833911868041,-0.007544159719702951,0.056795801998910635,0.07395436023203825,0.04679130464182883,0.06970126597310618,0.03479255064900143,0.09531839674716404,-0.036295387445362814,0.07695791040648954],[0.02052924567162286,-0.04966099887250409,-0.03460921653815318,0.041985193476387,0.0230471212915576,0.11416993715688807,0.013006458236803936,0.04897434629245183,0.07420252109896755,0.02163797569543933,0.07741649984695105,0.07741654872936646,0.08007066782237125,0.079338822914399,0.0919491752323048,0.04159668671454054,0.025774252107404992,0.1140721142697165,0.11649496256867356,-0.03751694770620818,-0.01133420688406365,0.11558109467953653,0.07738896199390526,-0.11502213557532581,0.0019982304008764338,-0.09432620433962764,-0.06237728915607222,-0.06772442102041284,-0.03730863268019617,0.09044264067959132,0.08834510912510146,-0.11616403139947401,-0.016947077433080875,-0.018024649176853997,-0.15339478102815157,0.11559704864111368,0.06132240301430724,-0.08778191273659777,0.10525851653206314,-0.09128798388783427,0.030389039557369688,0.07295252214108072,0.039693855086324344,0.11123317460477135,0.018666691446955697,-0.09877396750803626,-0.06360334122072372,0.11421236802294676,0.024207819439165525,-0.061241252279350566,0.08940709566151629,0.08932485996648076,0.0926963208820981,-0.08781301305824306,0.11868558680334929,0.11695344389684635,0.052099010414600244,-0.02106950561017809,-0.02290960105204862,0.05636378721380709,0.11541449700406008,0.10068825598579201,-0.08629922535695914,-0.17058343658771885,-0.06943451267128581,-0.08812367691460014,-0.02681717669713892,0.07995246265143478,-0.05529786489129793,0.08517977000016128,0.0875772885223259,-0.0643098044481365,-0.09007066430470906,-0.10560940356692143,-0.11559926190229454,0.06766337282834131,-0.09088042350042641,0.11523389402440105,-0.11174963175979385,-0.008137843716721644,-0.059776399167985605],[-0.08478653068956447,-0.09857614230642286,-0.019669981445108415,-0.097307379275715,0.0012922823294185342,-0.057559331141805045,-0.10031332748869391,0.018105184743135095,0.07839585800813904,0.04347219730114586,-0.0010666583707722346,-0.009289790885962402,0.0072232640250233585,0.09574130642628438,-0.0005156108982150576,0.08282604847280722,-0.0006618555601310601,0.02538130911714572,0.08398638684235872,0.011246514108173586,-0.08850219069344031,0.09164156209069599,0.04993499967460143,-0.07061322190829218,-0.0033780490106303774,-0.013075459249658989,-0.07452709742277247,-0.11077387804844863,-0.08083708682986751,-0.11726389849934359,-0.04549158595433214,-0.022613486443129133,-0.030910556836750588,-0.07844242084349698,0.015794744369930183,-0.0072975084558434935,0.10132878871418254,-0.059845136010736814,-0.05344500768658771,-0.08903081646203881,0.021731730762340116,-0.07539377564026685,-0.03827091459150374,0.007636870080566075,0.022538681312042574,-0.06320407513784004,0.0409086615927154,-0.05593176824439542,-0.04504044888009773,-0.09653597959704087,0.11743688387759407,0.09436520061496423,-0.038565173384504124,-0.0957423144828361,0.0996304535784697,-0.006754488582110001,-0.06044310712219421,-0.08881194018661157,-0.034024176592581286,-0.09367579319781376,0.0822651481982174,-0.09476920183229429,0.047110073739227785,-0.11619177139431473,-0.042170068804879675,-0.049268808604851236,0.014711667161675036,-0.08972484717923644,-0.00809183815375911,-0.11037034045751949,-0.04925079601545038,-0.11196303006743233,0.06649558617679024,0.03675752565888264,0.0009644983954398018,0.0769610264510321,0.0415730423630807,-0.07421660722405359,0.11662652414103356,-0.048538830001862245,-0.06988622367205574],[-0.03865788096852908,-0.03959227605638796,0.03197096232607937,0.021558380842536595,-0.08656567317146611,0.04759144993569014,-0.08214116974741474,0.139647003043104,-0.011544804172631427,-0.11415091858565451,-0.0029505312478409177,0.11541208628883326,-0.042772256009020716,-0.02471717209748168,-0.035638938208355474,-0.026284580718170275,0.03531022272182576,0.10833567488640848,0.09718166263323554,-0.045731028709354346,-0.09020767888031916,0.07512313436760731,0.054267301719178436,0.09138611255380404,-0.03030423412136488,-0.08608339402308539,-0.06471988840551525,0.05827298449210429,-0.09352484536300171,0.11721055358777588,0.08093905672580781,-0.03255399503924046,0.10906806111284524,0.009511790739381899,-0.11370984554956433,0.11305227618609628,0.046748231163806546,-0.03422935044313684,0.10935057895420412,0.11387391569824078,-0.021554431771571736,0.0904308540074743,0.10065835015311903,0.0737477309831722,0.09676516920680334,0.04350801049656509,0.07838784191213034,-0.07881804902684218,0.058696525371823675,0.07536425501965931,-0.04342473034874171,0.07645778246784762,-0.07729865117543773,-0.002788090111556071,0.02603484644749107,-0.05910494344162758,-0.021596194512078212,-0.08169329076261951,-0.012241954452947585,-0.019879226818792756,0.09960114766165928,-0.035995756135680124,0.10519404576577322,0.046866129333955085,-0.01374322795146551,0.04627532349982099,-0.016891484733878026,0.04361472173977488,-0.02323434894439867,0.022745337563989214,-0.0712658027396839,0.04910826848381139,0.05823430700582105,-0.05633573818606231,-0.05607767479847106,-0.02229573008371405,-0.0845734744174349,0.004176709400645449,0.09941280817184908,0.08808138764424499,0.03136806597161345],[0.09483294156706167,-0.07347487076210749,-0.0533545967262696,-0.01578392566640775,0.11453126061600169,0.01530629215838951,0.04799273334234101,0.04311388857573577,-0.028187259903828307,-0.10645986659953524,0.016409549225419783,0.0389878273597872,0.09452812519127322,0.05296859352960682,-0.05547331987943119,0.11007086039892262,-0.014529955593483938,0.031847919787638485,0.011591799961225408,-0.056942637568168544,-0.026474459342536772,-0.027081635697398854,-0.026355975311850792,-0.0019072914626275346,-0.06474045184051917,-0.06896659214999555,-0.01965445286508293,-0.060794625820596145,-0.0136575066243716,0.05207181746969464,0.013809010056732754,-0.041986139283894566,0.09804599763153783,-0.09831840451689712,0.01645360311436594,-0.11535071904546322,-0.07461370264081542,0.002990450985023156,-0.016945140595434553,-0.06837941967670469,-0.08120227855347545,-0.10978422802332732,0.009720722870772629,0.0498939364385511,-0.08705064716921315,-0.003981857312622173,0.11658640206924781,-0.016999021783703876,-0.026539288081098237,-0.043148940220812296,-0.09825713589099665,-0.09609389633752961,0.010520548545432695,0.08567197312235679,0.02212705030829012,0.007822416671172155,-0.06580064124193465,-0.08069688481859494,-0.08264161591291844,0.01060038515185765,0.08227298048754034,0.020830351973345852,0.11265928491344768,0.03284358098644841,-0.0167536210591273,-0.004952242470185986,0.011157530271102393,-0.05615186803171478,0.07991486908384378,-0.04615814561678078,0.04342784439164097,0.03698878491415986,0.054507882235189035,-0.10752106478919346,0.005431930426175528,-0.1089297722334101,-0.05530026691765207,-0.015141403989509727,-0.028830166664510187,0.07122759930412634,0.07917718934684902],[-0.04775859758562706,0.06462140109736259,-0.10855955121313744,-0.011148052390404888,0.10252310581543356,-0.08047889007539513,-0.054428192749791285,-0.10894845598986806,0.04668811246285817,-0.06949373501414449,0.05110387838614693,0.07284774082012775,0.04048633087600428,-0.06465768807367579,0.0343660307168704,-0.05545608297819993,0.0758947204832825,-0.07436251653624633,-0.06152306715716692,0.07353353463145691,-0.06890883508667252,-0.09584175031937259,-0.06540752270450025,-0.07258939062073298,-0.01664084992560388,-0.04871080521741937,-0.08314896393810066,-0.23361641645745343,-0.08325728138809364,-0.036463846409633315,0.04497951855746592,0.054982749324381575,0.10364325177961001,0.03728230234855121,0.042809163712624075,-0.11299229315508974,-0.06460954527364855,-0.016270200555300013,0.038930067457260215,-0.09872883157199515,-0.030725135877960625,0.10296201569978608,0.031453448452242586,0.10383232106308733,0.0677858297130373,-0.0027380814426784337,-0.1445779205259176,-0.08236163522012897,-0.05722757203091752,-0.010392396058918339,0.1114948381066261,0.029307424303677464,0.034833672193383715,-0.014997920852311494,0.057537467495282074,-0.06307842185896538,-0.01040215306216277,-0.09649651137073535,-0.024615175406850157,-0.043898153611075755,0.005620871020221741,0.039228769244527416,-0.02296268203204108,-0.04724648080329617,-0.037954311622089544,-0.09481916007925006,-0.11505120781895564,-0.11289140941336845,0.049729211065916004,0.09361083013758571,0.04993084828505408,0.011838988452063071,0.06107816616497075,0.023716692975251752,-0.10481448680567788,-0.09698800884739255,0.11332093804791075,0.07401860756791735,-0.05191776333589428,-0.05650442985426694,0.031033487638585124],[0.041154935188500365,0.03132409375325452,0.09105664019423444,-0.09209448788244542,0.05252567957091391,-0.07556589007449989,0.05940550081131117,-0.10567592147006258,-0.022749363998588148,-0.05560991325243523,-0.09575808090085422,0.03106230423865517,0.12486150281651567,0.06251354291422878,0.0581297100291021,0.013498755071435232,-0.028476875856627424,-0.03450674978916025,0.013068555599316502,0.06207071089540516,-0.02729735304272222,-0.047195246357776256,0.014407563639072096,-0.015775025559755167,0.07161518456419348,-0.1009769143161977,0.023627788425590938,-0.11193807706308492,-0.013998182112493561,0.06141049347924142,0.032444247722273695,0.10182768870299508,0.004098888146924313,-0.08598345745822236,-0.0012468573345022103,-0.13361562912208091,0.10684962608275601,-0.017275852153057547,-0.010250974198294743,0.037942562969060824,0.006578873048072546,0.014004681889401668,-0.021472906691968812,0.018500030694055185,-0.1609986510589133,0.0943062875999355,0.028603998066336123,0.009092503188744255,0.04877553237544179,0.11255230831337074,-0.010284222226397506,0.13449146329220776,-0.1119713978194446,0.0368418251267927,-0.09285427383875952,-0.004059289900695725,0.01945716212938559,0.01660872524751837,-0.048476679375560584,-0.11355176260369897,-0.031447323416679496,0.014438033229648041,-0.11325934299279118,0.036846417307150395,-0.1012813799138277,-0.05642490419127171,0.0452773668391704,-0.057848115273532015,-0.05372842316341603,-0.10603229731653065,0.10946872092220537,0.03954858815069158,-0.10842606587451054,0.030257100962635904,-0.016352279474160625,0.0938411089382272,0.11441643647873402,0.09438607263939566,-0.006208518212851465,0.015364273599658624,-0.10107197929172948],[-0.057761796820723084,-0.07110369649700664,0.10062852292512095,0.0009838725819969645,0.008596989719743837,-0.01715724199185552,-0.11270083186443437,0.010213466209291292,0.09282620645004487,-0.08642132098417483,-0.04560341734384411,0.008157117847637889,-0.05952468942604314,0.036399325834990504,-0.034244059374230286,-0.10005650773582705,-0.054197764279989534,0.02061155994155262,0.03565193526750625,0.10163135790697972,-0.006708233862426322,0.07393479043755526,0.09303799050615423,-0.012827886497057843,0.0639885787040246,-0.04357863767952861,-0.006325410913893664,-0.010148755971188573,0.06644055894003646,-0.05118889875747656,-0.07782436525561678,0.16165236650228684,-0.11384030797052011,-0.0042771918298194714,-0.013219542585514454,0.02101309895677154,-0.08304704633927831,-0.0016605227152086518,-0.03983630301573594,0.11740485900692482,0.10879304250564352,-0.0961095039160415,-0.08001039188629142,-0.025501310880509796,0.025988902939930444,0.1173779742770064,-0.11081856195100087,-0.05519458079533847,-0.11211877702177601,0.10490174985142925,0.03483133863002669,0.059494561094971345,0.08969914178471651,-0.0019560851861040833,-0.019361995748519066,-0.022020069456334265,-0.06949536682988448,-0.09869463652419333,0.08523208783109014,0.07065106022876609,0.08280438067033558,0.07125514740634493,-0.0034812639801914897,0.1067880876218477,-0.077802599294834,0.02814044535891627,-0.05978713798244009,0.04398496270071026,-0.1049075965706892,0.08639619100188742,0.05332054765087427,-0.0774090856307891,0.01882759742446709,-0.06301437518338177,0.03150767147681262,-0.016784499007422387,-0.3480936067689632,-0.03361710206138442,0.06971929315341517,-0.05690794764356053,0.062482658578959724],[0.01428207482067901,0.08828138773711774,0.10814339932638717,0.07657844525887617,0.009027750660048732,-0.0676872914924014,0.10194863157843967,-0.01560881007962243,-0.07341771784468334,-0.10418416967969002,-0.01627529623342281,-0.08756231539319263,0.0622647469348339,-0.11601946789987005,0.010684590672717343,-0.09853630487572523,0.03902733293061879,0.023471954139850572,-0.020794587946980306,0.1057286340361411,-0.05719419343484994,0.10371829511556016,0.09800632635904684,0.03210542120415007,-0.10555530631076016,0.11452290745711619,-0.05833607491712913,-0.09160365487213169,-0.03318668226250386,-0.09841828536176407,0.022785606331505087,0.08930896728504227,0.035744601936113174,0.07419676248127136,0.11459249976591132,0.01865858807351885,-0.009327028817853815,0.030240397246456316,-0.07221756098668743,-0.028294544946651925,-0.11748638287665884,-0.08062719356584096,-0.11156692956508961,0.0892424925797696,-0.060030891894512675,0.1085640936167725,0.029006577265261426,0.08711122788167219,-0.10476458996114008,-0.014364727311418173,0.10016746047784995,0.09901884231293456,-0.10278089878506967,0.03276952165935987,-0.1072163904975754,-0.04722916628998599,-0.054098624972467424,0.03654498986061423,-0.08420636272236075,0.04031101758775227,-0.08379873222953843,0.08859765063482335,0.031070632786092612,-0.04788503171461666,0.09818138218512945,-0.023768253146698438,-0.009542790526780089,-0.07369647760174436,-0.007904259582928914,0.0608815292651244,0.116742332712393,-0.06386232081017143,0.06429394174209843,-0.09787508918875476,-0.040813686056006535,-0.07505945727345743,-0.023297644831697387,-0.05269950405378604,0.0863657119117605,0.01576366395618809,0.017134093526196773],[-0.015184097458182512,-0.10221398806724478,0.11545165408036437,-0.0289539637733292,0.08076894225129715,0.0439047477961913,0.029290731651767633,0.11703668793525607,-0.0744011700125678,-0.022416077221202674,0.011109585308067486,-0.06431791986341456,0.020727972971210238,0.1161461408229977,0.03957730613376423,0.007250268748655295,-0.016516871120605847,0.004619560324577172,0.02194319407003316,0.04790130138617346,0.08266884024090604,-0.03821772499022477,-0.013940344018161473,-0.02226617550074994,0.014401663051385953,0.04273165185021267,0.03652702631641145,0.03353673458054565,0.027086215836781353,0.16659487496360853,0.09620403766729317,0.058697473351486146,-0.05089584729750443,-0.08697475028253894,-0.0572445797593706,-0.049002269671985614,0.057195350932771505,-0.09998150932691573,0.0865568361876309,0.11483748174943384,-0.063100567687478,0.11343656082938969,-0.0878357801998167,0.08265020754145447,-0.058022051544420056,-0.09536416335734878,0.013323929972982068,0.00039038603507103966,-0.025979630295485164,0.11661987220153294,-0.10285137656370728,-0.07832157412895206,-0.1633816955499428,0.06607081461119124,0.053662320876272436,0.08336685843851531,-0.0741663214934241,-0.04196483922247741,0.01757905379201754,0.03459053178823179,0.10886020475292245,-0.0663010825375342,0.11226345494014661,0.21227376174469634,0.020971022459927886,-0.07252543759610909,-0.08512151524295716,0.09613803922963661,0.026355982874778444,0.03812270837265794,-0.051664329670799286,0.10883523934921324,-0.01867889221066937,-0.01950334164729469,0.07591994066378323,-0.03043526475884869,0.10197303884129892,0.06984044714032021,-0.053458189113106104,-0.1150962654328696,-0.0467356368845138],[0.0999603769800445,-0.05882927445865263,-0.07296534869558191,-0.018393460902290635,-0.06969280173884697,-0.057078220180839724,-0.0696651654897951,0.03129056932763287,-0.09264369829779914,-0.0314544834420261,-0.1009426580315283,0.03958013539971195,0.058548146727255015,0.03166298461078095,-0.09690617782313742,-0.018691854938958946,-0.02921601155720289,0.025919676320335924,0.02015213532635856,0.11514950222056032,0.03152807612145131,0.02149473198767017,-0.11673341508730616,0.05892169562390039,-0.06012929196836673,-0.06829150232303302,-0.034373571733236026,0.07006114802934726,0.025557636821234995,0.06902453035623159,-0.052949169033454625,0.1128359335827243,0.1091709567457491,-0.04974979158356691,-0.03188602773216475,0.054319475095205315,-0.014270743927000765,0.009395946447384156,-0.07315666745475807,-0.05018043908403602,0.03318274559056751,-0.08657254791661863,-0.08932270503570393,-0.0594863372254136,-0.08790298653776422,0.048149718774953096,-0.018894890124463583,0.0977438863440846,0.023308614840011992,0.08854043001428182,-0.004206183295432638,0.05829922855899002,-0.06717830940580717,0.09550602759358537,-0.016472085706747998,0.015886431429054184,0.01606719360650128,0.04818596912075078,-0.06691924977570546,-0.020404868875449827,-0.0230378872724496,-0.1001862584417897,-0.1099462338442154,-0.027094403265895593,0.0821165001786566,-0.021746086489064485,0.10532740048378154,-0.060831582126045065,0.056044791112468205,0.11717136869176001,0.07228805532851065,0.07269197951988948,-0.11734936782877634,0.10145452376181277,0.022932449893912524,0.01524778251517403,0.06772947608733493,-0.07902291773971319,0.0752431844933956,-0.06759255238197658,0.030760112851212953],[-0.07636095112406945,-0.10460148813392613,-0.04565239810587258,-0.08052027590472606,0.06893296682327853,-0.07292522727077119,0.05620720117631365,-0.044380675092389445,0.028571271345484737,0.03762250917206333,0.030268885971251863,0.1065481339194104,-0.06335659251027936,0.04249021851310984,0.09189979077823549,0.041816051075012586,-0.08243623703963586,0.030576315277941805,-0.05092707971984603,0.03547765140959286,-0.07471322998544258,0.10492731779613494,0.08959005765587784,0.058234564513024174,-0.035160952203853,0.01872061093887726,-0.10744642422455025,0.009455352904483585,0.08328143382336936,0.09469408106464682,-0.07638422183086375,0.043757728773712874,-0.01316595452094022,0.06255946127123858,-0.012325066286745711,-0.18837588499799293,-0.03087327256721334,-0.10389369127749883,-0.017660744620467777,-0.0946603403016886,-0.11002709188699974,0.10704605015893878,-0.1085338936943764,-0.014359349663337106,-0.21244484980895859,-0.0657189941211562,0.01571812499039565,-0.07491158786120419,0.0684621960521321,-0.10864880995618358,-0.07856852143553159,0.025262078572406678,0.10516389761117358,0.0031438222050181952,-0.03812943852323131,-0.011007360350100533,0.04457801339232762,0.057688308818447505,-0.09180081797673127,0.05456176304179254,0.11375519089190902,0.0299956056802608,0.07053360787029857,-0.08707152471445032,-0.09993601658026946,0.08513886865179157,-0.0392900949658728,0.08688981532880088,0.03156897629188168,-0.06268093766527992,0.0730123864772715,0.08239215934689038,0.10392311196938893,0.011627983248920124,0.04907625197128309,0.11065741847424995,-0.0798696521832407,-0.02734236503624534,0.010072720621084125,-0.029935781529690394,-0.09847886197856619],[-0.01030005099548647,0.02312133222906954,-0.03478058580502973,-0.07682299376384785,-0.04910232412846314,-0.05495626680616032,0.0826004903006857,-0.05037112657654069,0.11460612126988066,0.0696840764921091,-0.0826894501263458,0.08492796400757285,-0.05062125088714399,-0.07539190716363313,-0.0450570905473913,0.002115373319992025,0.07019658141157356,-0.11189533977857864,-0.16884250362379155,0.08157126929699264,0.07441207506611512,-0.01611074791180117,-0.041012056894480446,-0.10260443251838668,0.061354425226447774,-0.04383077380084599,0.008592671817439878,-0.04417600447502068,0.027651810654826758,-0.11123014427503045,-0.09563935644696334,0.06973793807088494,0.0670703725784755,-0.026309749866906693,0.055360331559241874,0.10558232660534281,0.07578752080984426,-0.053387309535196714,0.006030610871283337,0.10379606552118907,-0.05924210430376788,-0.11714056266899267,-0.10589624066968902,-0.012445955470347882,-0.027508564961261913,-0.006818930298030156,0.06285991453330757,0.015908314405972422,-0.01397897947129145,-0.08047726244991114,0.05968825815105558,0.018377528610123553,-0.01836164574034197,0.024991123602632642,-0.03037014898675483,0.03712580831009706,0.022534115159654713,0.07167361616976602,0.03233951374878522,-0.0994716491933954,-0.09014884132232005,-0.00039254429577859214,-0.013967473033710143,0.09806908066904298,-0.06900697770947996,-0.10904772188051151,0.04449744331395522,-0.07319954879425089,0.0833831723253586,0.09075545633375887,0.09932299477292861,0.0864531167846765,0.0970510911715772,-0.00026264171102487416,0.1022311560711447,-0.10132461018347776,0.04969494287683765,-0.03267176560132517,-0.014205482957883729,0.004502709574725844,-0.11368024999992218],[-0.09244925438617031,0.01752182062345491,0.055978761248565025,-0.09600268442686566,0.02239218980784361,0.08873563557299043,-0.006882430539665692,-0.042303941752656025,0.062264611528496695,0.10291099895660782,0.09175497615951586,0.09659975273140985,-0.11516932592281798,-0.038935553947730746,-0.04972767138767952,-0.09029903081258421,0.11708557176184195,0.08971964766883526,0.11582456312611099,0.027614659641775795,-0.06007036070547973,0.10262223043121052,0.003772326950374223,0.08645418942260885,0.10006065894560989,0.05882763404922819,0.07439308162989244,-0.08249584193512734,0.08537122922923784,-0.07074673453447548,0.027886138311439875,-0.11519515219662259,-0.027220799941004802,-0.04183167356895958,-0.018266977164268252,0.01237498190770589,-0.013417162562168457,0.08301661517808642,0.03348315651093238,-0.0678741320937413,0.059571184083901385,-0.04653981474997422,0.006030722364229767,-0.10437450805856131,0.03862237535772494,0.09696138849737147,-0.04187409019468995,0.03768779875321403,0.11484681523071111,0.01508342033562475,-0.026007858595023668,0.004766850849711519,-0.009078282681739418,-0.04282630584295869,0.11544446196367605,0.02520221383702641,-0.04793912603297103,0.03830484152533377,-0.021306368722689883,-0.21718366029291503,-0.01739358088170326,0.08431138979247448,0.10382853301908619,0.032808337484005794,-0.07641164691794582,0.012067787585058129,-0.07514129275375604,0.014901913287239927,0.030289194335689072,0.04007609417302264,-0.10839805392623185,-0.009627104738967412,-0.05597457294745501,-0.0689223537153489,0.09451748042944308,0.08621719007211012,-0.009082713103356227,-0.035003663242499386,-0.11600671435628235,0.0984988416977943,-0.010378927011899765],[-0.113166991057002,-0.023663256404248528,0.10752321228781206,-0.025302372934920474,-0.007251324873951012,0.05758880987426824,-0.06016557159344566,-0.0282552511872204,0.1014061688083392,-0.03141813927708138,0.04714591658320484,0.037312677784450125,-0.005528184172462874,0.09851003726024254,0.03773686867205753,0.0073405187102264366,0.06926651110765927,0.04045703352978569,-0.11382443781487964,-0.09507124852876955,-0.012867725240402654,-0.11154286124736518,-0.017130942066371068,0.007391870640927156,-0.07490390672585338,-0.004437200976435352,-0.019426989110304514,-0.09970105039956856,-0.05618080579556652,0.022784789870477655,-0.045414084552744156,0.037474227887602435,-0.05277215670302505,0.020571488524054004,0.058072483459763014,-0.07595283469497786,-0.10725008854814268,-0.08444335210057183,-0.07350849895779733,-0.04056153157727169,0.30777510002222735,0.04588448158095523,-0.09124670042060237,-0.07396995280783389,0.05879081427725158,0.027971039080227758,-0.09789540328287925,-0.0766542624157076,0.11564783964798817,-0.09357155853434183,-0.07517280016511835,-0.018863406774450045,-0.05752771457029401,-0.022810153554926,-0.023067252378071373,-0.10612314832057892,0.07655775889988314,0.06709650415056914,0.08715795079959282,0.07888139506868584,0.03435158820965061,-0.09916114248159373,-0.09619229777262202,-0.07742595855365488,0.1165296045004476,0.057908239799012974,0.06504989966982705,0.059867127764754294,-0.008073521672280605,0.09091211835568913,-0.07040741323967584,-0.06785923816494231,0.03747495189223539,0.07698581098927583,-0.04792587855741152,-0.047642774990148996,0.01582593703571175,0.04087193332652784,-0.06442696092554138,-0.10868799485219943,0.009451219774729734],[-0.10438003467434474,0.02698467473882138,0.042419014631239954,0.019932958145461675,0.0945956489166366,-0.07630949207757591,0.07282984162328714,-0.009781882308038716,0.08747352030099188,0.04352606041235015,0.08136826168717075,0.028554796138356854,0.028416434002386297,-0.02408254553010826,0.007359776824469614,0.044284923657107046,0.03266303815295825,0.07049340282582474,-0.10947392133945451,0.08785000721558343,-0.09275573571820761,-0.1089428831435401,-0.0737312584186867,0.11350819973090066,0.04991257717926623,-0.03558365303197628,-0.05310260497247608,0.008270760678617577,0.047232396607515645,-0.004115182849195657,-0.049017524845248926,-0.07423257848982995,0.10321889622043344,-0.09752518387844065,-0.08541540254721769,-0.08254432965258338,-0.022733194412965466,-0.01905185881005325,-0.05974587027662057,0.0007558724905584269,-0.0497280425255319,0.05576530784174991,-0.06607175707691722,-0.11625750580769767,0.005884854176708183,0.05187212573053133,-0.10425364281062643,0.0025092029875760334,0.0791981991574356,-0.06711965120229825,-0.049282719465699,0.013770980597946882,-0.0027667612674724643,0.1059856179264995,-0.04540502800377556,0.052800060475591395,-0.0976728014886087,-0.045135552670426515,-0.051189069607573,0.11194253366405134,-0.03538950597887258,0.056012189283504404,-0.011334179703793279,-0.0067430274088918045,-0.018550192438330466,0.01928136476144165,0.012284705211227178,-0.027546920504387708,0.022427758884407113,0.0268603640528946,-0.06398366188070358,-0.060063321291333016,0.04729240516936485,0.002701143563264406,0.0996624989121578,0.035406445504879924,-0.06391115818748695,0.005071421331591042,0.08347804957048079,0.10331578566731471,0.036263503042998545],[-0.0921322605649729,0.10884079211971392,-0.0032104277205384554,-0.011263198126256337,0.028245858023928868,0.017278165617229408,0.041340800148497524,-0.03765626454751373,-0.061028011046381114,0.05572007288648323,0.07420661170770317,0.015803819018807036,-0.02491989634578215,-0.05877932430411466,0.01261685051065687,-0.05987025610039679,0.05626147005836404,0.10392866691768185,0.005904902660638822,0.08977534310653033,0.057606723516559155,-0.00920866648678104,0.10108332978344561,-0.03649527709815704,0.08068397040384018,-0.2639488564288005,-0.043599511493482374,0.07844824487311233,0.022191138932199112,-0.11438196119046988,0.0275618595531198,0.06759064713549973,0.03471818600996853,0.03523345798823193,0.0760437002913314,-0.08372094903470421,-0.06770766055088644,0.046717193672860514,0.0808138933349377,-0.02839734411820169,0.11561990983033171,-0.048079822983805816,-0.07206862857298378,0.04955452618188076,-0.009326108135820273,0.03401213478841608,0.08298991512890161,0.029568150387998888,-0.0760206507893975,-0.03267745527226066,-0.08467970329898258,-0.035712457753633575,-0.09294374398135623,0.08515628634266588,0.022193921176433436,-0.05306947797893139,0.09936275132570813,-0.00588549457958699,-0.010129620603669698,0.09459861075463868,0.036470518076348525,-0.08213990036581414,0.03525654696485379,-0.10150984626710663,-0.10637905731371301,0.018721274831081176,-0.09433418014869771,-0.0008906941443086328,-0.10754235038899687,0.0007457364545293661,-0.21474313957104335,0.10490867471860667,-0.035029501898216214,0.06133494860622903,0.09882183950129501,-0.03448976816065108,-0.111693883238283,0.11529724590302513,-0.07271966450574975,0.061597320450644935,-0.006493723126530657],[-0.09776752596439527,0.06367070926670626,0.08848883609227175,-0.03824221021510459,0.11731899433836586,0.02144002868437316,0.02190327647930863,0.01264656212506632,0.014979476734946295,-0.10034869500366482,-0.11109988029348193,-0.11008482877997877,-0.06957876168521727,0.09469471786126733,0.05263573883855784,-0.0192296532377017,-0.07165485465869927,-0.06806744101523646,-0.02224004358957412,-0.11698189307625009,0.04151585662643907,0.0057915075905711055,0.0594745607724151,-0.0019555410135697303,0.0669338053563755,-0.035871460823105786,0.013936291361943272,-0.07723190413158215,0.11003927865418185,0.055400787220241644,-0.06679974212761278,-0.10733010830844535,-0.051989295810176916,0.09910612810977794,-0.1128045694958716,-0.0034204360634293263,0.10746380948239186,0.07440778361761766,-0.00850298112695115,-0.027378725862459048,-0.06775215669035334,0.09592744722873818,0.10401577088963829,0.06289740473956883,-0.02137834280291586,-0.057513077592935176,0.11704538952080487,0.03149502738418999,0.053785261481881945,-0.01594770472446658,0.07848920269120911,0.05133080294785337,-0.1045464628334646,-0.07838918865123255,-0.05436604064605011,-0.09980797094587827,-0.04972675621395722,0.043662669823708054,-0.05850208259657081,-0.10943558405708151,0.019730886286990747,0.092630314159685,-0.05206152788739049,0.04413037267264091,0.11538723539433697,0.08732543553861111,0.10817574908139511,0.10306183983171613,0.07333403254217483,-0.08898104512398079,-0.052798167124622396,0.04127637126073886,0.0007837514193954949,-0.02538658976407293,0.06861075276581458,0.07897828417836236,0.005277896693060685,0.01287890982000027,-0.11132149188745105,0.05034327709449737,-0.032744646535838445],[0.03354735501035302,-0.02940637570305724,0.03514755312260111,0.0726970853858739,-0.01635691069414603,0.02144997020227202,-0.11589419279050583,-0.006977478263335864,-0.09179108184464986,-0.05020968360586603,0.076582129980337,-0.0459265632754885,-0.0012544100827566805,-0.03743089098999268,-0.04364937267487354,0.010233354592219688,-0.02036851001540619,0.04245127245495463,-0.06789481274962186,-0.09154133029035973,-0.050601452703791336,0.0703849237925839,-0.04897166467211271,-0.0832534222816956,-0.07435334584861525,0.037998479134898885,0.09748439510342347,-0.029394442983681792,-0.10896067006338012,-0.061038721993971944,0.08575598874848542,-0.07707861018848224,-0.053984225756998135,-0.020911328931486686,-0.03908119733935202,-0.07654343237354642,0.017961459401619688,-0.012550080375610622,0.07136109804478054,-0.03290400907401426,-0.0035944110162649968,-0.09065628646741657,-0.10316130431565125,0.05330330641798703,-0.07800861201729499,0.08880374028927655,-0.06613770275767232,0.07242038903058236,0.036541393908970904,-0.10215393415043422,0.03844577249041439,0.00804529493442179,-0.03071839395852864,0.038554374341069786,-0.004190433194479687,-0.10359607875725842,-0.06579363937517094,-0.07859696794638131,0.021533899565376095,0.054068872079825726,-0.006286710927750815,-0.06737912105914799,0.07536490997337061,0.07815342453752425,0.08104804525945376,0.014639432834291637,0.11073009589202364,0.10784753799737103,-0.0003324737998104252,-0.005588836246771999,0.013662300778958499,-0.0655889960206212,-0.0996968199524609,-0.10625224601134825,-0.0678525235006751,-0.04676506092066327,-0.11317071702643926,0.016059555613017897,-0.07644988404001835,0.022015039812166726,-0.06178044941891786],[-0.0829889245245296,0.10776775925686234,-0.025817775639778277,-0.0439638614593461,0.05800005934652868,0.06333812973845429,0.02145029004515981,-0.10017091745838162,-0.11415032019507293,0.004545276007768256,-0.10870275730158489,-0.0236143259955604,0.05090227372442485,0.06076441294137894,0.09236687020967574,0.03243801211306359,0.04687247575643132,-0.08993316277727939,-0.1045394540972659,-0.05528894009838012,0.08737632829186848,-0.10475096995642894,-0.006184675152649392,0.11717052623482904,-0.10487803732969768,0.08467955800836972,0.03500136659925654,-0.054627564166097195,0.09013233188202742,0.08688972478315617,0.10770394268485817,0.09531986018616219,0.11214544709494209,0.028941195832231367,-0.10531788939473255,0.07943829260372558,0.11476823831754136,-0.14744340910326276,0.013800823151535926,0.06768923706691563,-0.056493837969585584,0.05881325851348471,0.0960580165233731,0.06373727809595707,-0.09004386787016497,-0.02713556095444007,0.06714537770678299,0.10824826740229601,-0.06040398377432654,0.03314409843429923,0.03562795124439255,-0.059223878321224874,-0.007933850377667993,-0.008623378717272742,-0.06273474286415326,0.0022822868558156416,0.07097423813747622,0.10668946132341757,0.09367305334918116,0.07059627141994758,0.08342727915375503,-0.09356314268772262,0.01051620776044458,-0.004532715195377488,0.06650638111663998,0.021607216940447038,0.13595050742324397,-0.021890313137416562,-0.00897833991317622,-0.03720156424831456,0.09655787365680982,-0.0948962760560622,-0.012882469198815258,-0.06456396549068324,0.09461730877845713,0.05872184541281281,-0.06853011433778188,0.06984766835135284,0.058861234435199805,-0.04632543365401227,-0.02647776369980978],[0.018792928101200396,-0.08139594074810455,-0.0447337130306227,-0.07059375468025018,-0.044778380279576695,0.10437519054183017,-0.02036103399431992,-0.07001210415684002,0.07300617712666765,-0.0212852676755366,0.053681672147250094,0.10341235971365297,0.040925321238466705,-0.11630476801007508,-0.07425625118310862,0.10760607245519407,-0.0466611218774833,0.04224120726272905,0.01871813116407467,-0.09436129268166711,0.08009644411337526,-0.06884236868237391,0.01635782445696661,-0.05555603712334854,0.03468012710348868,0.014438239597894309,-0.07645578292672887,0.11541536513429285,0.11695413297591964,0.08943646620898839,-0.030231559342103677,0.01882407004338542,0.04231236768556076,0.04778897994906704,-0.0436497172550023,0.01507974681684868,0.10667555478092415,0.10585445233833697,-0.09796185759326854,-0.0505429079258502,-0.08610509077671157,0.05010508840785662,0.10384404346628844,0.014826046071141498,0.0586193791164696,0.06504924424214083,-0.029383254255430497,-0.10771595925413645,-0.07741947596401812,0.10337314978329841,0.015826788883014243,-0.01505278358095973,0.10684236592494833,0.11419824386379974,0.10201604268461618,-0.045764073830881,-0.02007304393537896,-0.1049563003656876,0.10841979787735215,-0.0020879577676962686,-0.0094260589301518,0.11273616602570584,0.04487030308891599,0.06811627362944611,0.04818493231147698,-0.06203684591714182,0.06408005014782099,0.109355985585431,0.06197238455726402,-0.10539841272814575,0.0775780255240272,0.015728211555384147,-0.040649072954307204,0.03828490278899232,-0.01925312071202712,-0.11093902750648293,-0.07356726392842106,-0.002932401340664276,0.061903108204134985,0.01569213981160553,-0.007678362591882066],[0.08520995795231885,0.01892830343370586,0.20497452183853493,-0.047938635399783706,0.10971790192677461,0.09899053248954155,-0.0801250028678965,0.11527041292208993,-0.07867359971784568,0.08780943103853085,-0.020046878893544163,0.068665183240888,-0.1169503658968619,-0.0670060347439016,0.07835808375433477,-0.04552709765161126,-0.0872489005901899,-0.03122865963177511,-0.06425288377030283,0.07397404937700362,-0.0323635223024672,-0.012831759464459008,-0.11002229618300784,0.10833990959784329,0.07352219670017199,-0.09322305842755331,-0.0523564026810835,-0.047726157267840165,0.07289026982044892,0.03288234677700273,-0.1005592609147539,0.061043418429724716,0.13209275062307882,0.04977052191237629,-0.06927368911712284,-0.10507678680402491,0.025065348193366508,0.07561146641199866,0.04741663218486466,-0.10190608963689216,0.08085918282627569,0.023189870778283776,-0.033740364245638914,0.002217602976238417,0.06654334635411616,-0.049621879436452764,-0.06768900660931504,-0.10324802263520645,0.03869847155629658,-0.03977333052300974,0.038847618389599464,0.057943218093182064,-0.05780521431866333,-0.11554883127870108,0.08082756672638297,-0.07210504605781537,0.00514881109168803,-0.03988703187155265,0.10545970927303291,-0.11000271603308763,-0.016185349339042494,-0.07279923320416835,0.046328876079571486,0.10392458561238117,-0.11173890388367166,0.07234897989775636,0.09255012804141556,0.001756762772224345,0.0252230702999994,0.10732482469940409,-0.0907984125439551,0.06426198532312657,-0.07000812080651132,0.10757538255932414,-0.05295512641706281,0.0468740553915551,-0.08427467347109169,0.025259260740473237,0.0002266491879686546,-0.046402219217629145,0.022902508479467995],[-0.06351426738756367,-0.05332772696586513,0.0820284654361766,-0.10693524939569746,0.04181900422591003,-0.0462449987551095,-0.05800021181663805,0.01973769531042357,-0.0916124378782684,-0.05698179434720898,0.045705314584624845,0.07291054420878974,-0.06210077292034247,-0.07253732242621329,0.02596032841665341,-0.05362185973763257,-0.04488895319339887,0.037315704620733324,-0.060556739181990296,-0.052354439404514654,0.10328002589272398,-0.009943874669162144,-0.06623416066206243,-0.016189011083396203,-0.10630086502459098,-0.0179871024252169,0.11163732719385171,0.032920638190641754,-0.025474904062005307,0.005170863213506802,-0.03340411878653122,0.018657275082076714,-0.04445431713293486,-0.017131044879187037,0.005392799986977918,0.08142061866655874,-0.02576444221252651,0.04927793625134977,-0.012268457283490146,-0.0010303642465524427,0.10456457874045229,0.01665643164473369,0.09148735002357547,0.04862387735807806,0.08200648063389886,0.07357256393842837,-0.08480892756577187,-0.04555736977638757,-0.020538389099491544,0.10568116421691072,-0.10632250438473274,0.011024581522863586,0.001012173794253076,-0.002127486093959467,-0.059762066959567955,0.04633086347140123,-0.08247796040274608,0.062173499956874614,-0.0443926998486769,0.05729568809579892,0.10393118236549591,-0.03912637963052176,-0.06704943374803089,-0.05877633107844312,-0.07463099137747704,-0.0848042328287514,-0.08680301112622359,-0.025957499955864497,0.08626180243675804,0.03471831886318759,0.011932681088106181,-0.1134931803417982,-0.09609412003271943,0.10985840068944726,0.015071747149248907,-0.11427276826767117,-0.07303186060912317,-0.028247635310697936,0.037432741993288214,0.11324659290416804,0.06131260754775704],[-0.10340348244333968,-0.09446471580918867,-0.0074368406220297195,0.041511734033157055,0.030475485813435104,-0.011323206321749693,0.08470875301343965,-0.02570679398146082,0.06202045162676605,-0.07166611837187563,0.02902291708298836,-0.10969459740996858,-0.10296274099684338,0.0807261736599991,0.002971432889263099,0.05924496877169955,0.050418178095097604,-0.06016946448244443,-0.05146640608712187,-0.0154089525955042,0.07767030437058352,-0.10537276040047071,-0.1134809937429936,0.04442233402693885,-0.09046713455901215,-0.014328725708686303,0.025903311725888875,-0.07925114774688635,0.020302521310101733,0.026982618322427328,0.27557700067769775,0.10110928036527239,-0.11181740456227791,-0.08837529967103305,0.1080721091282439,0.09831150767152873,-0.07224948272386426,0.007138903370000659,0.08702068315303162,-0.08207803255659632,0.19247571710956038,-0.04546492887558039,0.03376108269051002,0.09844826365675459,0.0030342561890037674,0.0420718468130109,0.07493994243612946,-0.03018386894962583,0.07024332837713666,0.07928980561876513,0.0368590119181377,-0.07099811664570833,0.09394288002160844,0.10370586783652426,-0.07014706628879513,0.07201202740043822,-0.05407286541914184,0.10189998814903403,-0.06133383469800028,0.10496072875237857,-0.09006887972848521,-0.1032613003958891,0.02595165356606568,0.11455750839542743,0.09667835455872828,0.07306650834509262,0.005589274976145228,-0.10123145027653722,0.015698704991994186,-0.09352281838817549,0.0844686161271936,0.010590094471858979,0.06194771552609868,0.1128977633941507,-0.09508338272215308,-0.08492114800691049,-0.024441258428333112,0.05644527832166475,0.0006087995206666618,-0.06165212091278646,0.08753699966294619],[0.03863045252721749,-0.08267030655097615,0.0759440282400232,-0.02475410935414478,0.1056921048604758,0.09265239632200713,-0.0018723758500662382,-0.023227208124382198,0.0805954564594776,0.10409036734420199,-0.05148448184950261,0.06937060301050045,0.013751521364674203,-0.032876053413697065,-0.09999629589868837,0.04599875757058841,-0.08166223035141316,-0.05766987696130903,0.10664424192943363,-0.029849327970141403,0.07520417144938601,-0.05821153839056589,-0.011040870533946182,0.10379401122709427,-0.10747550583025141,0.06480943485613465,0.040721630516644194,0.0718048017180788,-0.08426735088400984,0.10153602256316496,-0.005043086640921105,-0.09497006839818224,-0.021780823342072056,0.034421372948977784,-0.04221591013681716,0.031593358158951215,-0.0983872858997203,0.1118864968784969,-0.08187530553933886,-0.0361283359909405,0.09815653278555704,-0.009561837887303786,-0.07631607537476272,-0.06407802393155304,-0.10926730869705109,-0.11226048677058972,0.052098419792059425,0.08883127566444558,-0.04034889411803265,-0.019671117160380718,-0.06688094609168461,-0.009394230116038937,-0.11469172173541353,-0.059703114434630035,-0.06593124508213596,-0.08909304929839706,-0.006567213436842078,-0.037286998626461135,-0.0667938176720659,-0.25300698416959405,0.05840063961462588,0.004733151687096595,0.09525372559543249,-0.07722632003914368,-0.09809400307154177,0.032336780833724155,0.09595417666540518,0.0504878625925145,0.04001186693610582,0.10327938075951715,0.06756222172357759,0.11042424402711223,0.03171438384712486,0.05641723006561636,0.028856756721316455,-0.01597734599332373,-0.10425613448241162,0.0886038048853519,0.06931670057861519,-0.040167103858170676,0.08853950560218683],[0.00014956112121490857,-0.0035790972504074468,-0.0729524343144072,0.07984142317862411,0.11304534027745274,0.060265544755748135,0.031860570985865894,-0.07692111228211647,-0.018223726263754472,-0.10095692751959,-0.0423036963221951,-0.032902259671093594,-0.08902808174082869,0.11050553337337503,0.004618855990386106,0.06015340939016535,-0.0720246113070083,0.08416503160636929,-0.08805714045586094,0.05454953990263867,-0.07702382282749443,-0.004625604790961124,-0.004538148762825914,-0.10257966920697398,0.06602617453972984,0.11970290632221604,0.010877056669248677,-0.0438833621727972,0.11337398358933498,0.08767034783014865,-0.05438961736496792,0.06490006835647105,-0.06080216823083703,-0.06747739087070831,0.10327341334102388,0.07647694184089186,-0.12556059214645257,-0.0597860110531033,0.10532791263800331,0.2172010868738854,0.06447301293631333,-0.06528803250307293,0.024445841437270577,-0.10421020953862507,-0.0320131011289724,-0.03466367250065403,-0.10424069002478452,-0.013728007819934928,-0.11163894869491994,0.08896225654926582,-0.004760639129527859,0.07235526920795879,-0.048154091622131946,0.0638241418295518,-0.09823989489301053,0.10969029606994349,0.10411389217798234,0.25234436889888384,0.024074327091313512,-0.11618498897102472,0.11570207663196673,-0.04467261470582299,-0.05039870685190056,0.05965434879255695,-0.03702030194073031,-0.08343635637847018,0.08426291931885437,0.014335278999928019,-0.0969108973047711,-0.015961831750870528,0.10124695464181245,0.05702186535919217,0.05314034120695594,-0.08973149547634932,-0.030550170329644695,0.0649925479481874,0.05086373749366453,0.059336593750942496,-0.06662133495765168,-0.020919775151388303,-0.09851672707653109],[0.037812338958387724,0.015294913381542525,0.008250615765098997,-0.030690253176992154,0.0032178630093237823,-0.059502545325695086,0.017149845084516276,0.08514636447449189,-0.052119883322435695,0.08994324047487459,0.05041955837514538,0.0076957947177267545,0.09722208716556736,-0.10368733198547468,-0.07095626768306912,-0.03515260659845385,-0.04502008708876603,0.10739805756210334,-0.028656852959927377,-0.015787647564674483,-0.1016998706849096,0.09671483384359186,-0.040804659400995015,-0.021324251494238024,0.05679160082450408,0.031676608559242495,-0.053440562353835486,0.0843007172006477,-0.0711607537044247,-0.04246913557622516,-0.08537928646449953,0.08142040817251299,0.0037549572695627165,0.03475668499995779,-0.04623422759295798,-0.007049879445248241,-0.06779034057980586,0.015287365881461512,-0.04085932738339684,-0.0160025238878528,0.09970599920005654,-0.03006601530604579,0.10251829829544133,0.055970342935214946,0.08588228585171989,-0.0684113063307766,-0.045575575762683264,0.01371785066107815,0.012331948561652617,0.10658036731520475,-0.034458411102607216,-0.045510180310420534,-0.08657174855377309,0.05434723965831223,0.01886181797612546,-0.09933475749856342,-0.10347633211294956,0.08818846241517014,0.03320711111577653,-0.054336865405751895,0.09026718288179973,0.0225774962148875,-0.0005580358119866023,-0.09014103741338883,-0.006270664520965971,0.06554702177695776,0.08019592777833295,0.06948066926360896,0.0995127668930765,-0.03796224848943644,-0.0532061688800173,0.07258459619575115,-0.03426037802534802,0.00994541558604529,0.0958819149522758,-0.0551512923965285,-0.10876593051967429,0.010569412087326079,-0.01582962855543727,0.022051999527789627,0.026521533264989343],[-0.07904696825470262,-0.10537013623154443,-0.03393671338206252,-0.10663253990660143,-0.029089407516815147,-0.06653350151380981,-0.03556573438987014,0.09587166815107658,0.020660783283737105,0.02097177034480373,-0.052092057203149474,0.03214467057793733,-0.011509914224786012,-0.10258285339070423,-0.09991509669445274,0.06098340574136236,-0.0014608699965668799,-0.01636625230221549,-0.0548777653028477,0.10212352492006571,-0.07908633581725333,-0.04498012061639742,-0.009078995704167495,0.03104781894162156,0.1001383122126426,-0.022510407721953396,-0.0828890787186925,0.04824259334475873,-0.040443486082099585,0.06665082941681531,0.11298166235670015,0.058179200558227805,-0.10606398115360072,-0.3221922803790691,-0.004056394459977997,0.08281624216651184,-0.0494687514016541,-0.0818100175921231,-0.08317402109747536,0.1085468952068808,0.09476994827811562,0.04530889381872022,-0.09793187416148842,0.013974235808993448,-0.02733063227532437,-0.0266666643762773,0.1203106875427611,0.04263002742365583,-0.11265970686858559,0.08669722423614509,-0.04516431292055628,0.0951259039364819,0.08833529905320052,-0.10404846384248174,0.068414083947371,0.0016667219193716555,-0.0504842173624562,-0.00045545166025830425,0.0030951670906964788,0.04971835908909879,-0.11072201623812845,-0.08421606742536505,0.09708195302531854,-0.03798152271626469,0.049134687627901644,0.001818805744855887,-0.057399024923508485,0.10985781810984906,0.07475079023777832,0.0014339244343524104,-0.04951907045948732,-0.10818181174685908,0.08344033621373873,-0.021868501344093027,-0.0354729820491127,0.040701173805283805,-0.016637395119522797,-0.08468430143124736,-0.0786267295038022,0.04723001881670979,-0.009974189517610824],[-0.04758744717514138,-0.02304770718599387,0.11655064226405125,0.11013217793727433,-0.01958706696310835,-0.019541152644482404,0.07721855882669038,0.03066943483770426,-0.06784884462106537,0.007951572411350399,0.10712441200907757,-0.0363147732183465,-0.1681242226161487,-0.1135220042898663,-0.02100286761534239,-0.022961429296129078,0.019047336354449388,-0.11164830699948672,-0.0162526209111198,-0.03774333618159166,0.10571636614987738,-0.05720357768043685,-0.06316275222679876,-0.0766241929042714,0.04238738985400612,0.07726795956835006,0.08089381170401994,-0.010380305371308563,-0.028121472683375733,0.009883233648950206,-0.05053074396799355,-0.10857719481218522,0.026646399845455096,-0.056855741436343706,0.0738406933222272,-0.06440824353892055,0.006736294796751548,0.10242603982495921,-0.1117629124911033,0.008808753791468624,0.05793960233831255,0.04387998451694744,-0.03978425584570458,0.10609358166785807,0.07737935135099343,0.06866656932175187,-0.11291400080867506,0.03388310518473456,0.020981120823806515,-0.023566473308057084,0.02076125381026774,-0.0477470052292928,0.035565778158706554,-0.10663605965484234,-0.11032809299580429,-0.03330634524421318,-0.012012101331345637,-0.07811805558968675,-0.06832294408390854,0.04420035330421159,0.08242933476878472,-0.023756328413058483,-0.057467498931888364,0.01301286463927572,0.024746292358985,0.0066135457801965005,-0.039977861205614446,-0.07938916034124684,-0.1157920347102926,-0.08154165982286472,-0.028342058602974847,0.1131994298295925,0.005303168092430091,-0.07545028806687647,0.01615725365684545,0.06744813961700631,-0.07719863746710717,0.05723843664520987,-0.06950589746465945,0.10450021081531434,-0.11389623848986702],[0.05522153373763498,-0.03999485419733008,-0.05140229909715045,-0.08340689134534836,-0.09687010819313398,-0.0810191583342734,-0.027876111989610073,0.07262620945841594,-0.09188589274135335,0.016535919265282494,0.07929575654875395,0.009240122732376793,0.061549561416796565,0.011867020864745673,-0.035032592791131224,0.09382059409049069,-0.0019428379791061857,-0.01834158562416676,-0.008520503881017459,-0.019081060882132916,0.048567930631214076,-0.07420398623941916,-0.04117874567778019,-0.10056668411610094,-0.06546871292142961,0.025969821632139404,-0.00971010785565606,-0.08380416703003946,-0.07920645139103895,-0.04148136706706622,0.09843289902178577,-0.050523399331085864,0.04166332675725938,-0.013769069972421713,0.03627748162715114,-0.02633317489384607,0.008648944588021627,0.04817925942566547,0.10905601957524692,-0.00070490616979227,-0.06279302510344842,-0.06531768235340756,-0.05428530325330349,0.01748492273154287,-0.03646579916196175,0.03604643854937734,0.014423744997536616,-0.01452540114581185,0.027042082271624395,0.04467460199105723,-0.0707742127589493,0.10147150040816492,0.06372224525539344,0.03665654138714439,-0.056970496273960704,0.09549879272455063,0.030170335732693565,0.07755018764404865,0.07766446255947214,0.09670280457890668,0.06816603223151697,-0.035185847149921116,0.02786909698358332,0.027087196564265403,-0.0313066225367992,-0.05277297457416535,0.011360679828941173,-0.026889560853740817,0.058560587376927487,0.08269976640781176,-0.08712077377355253,-0.08489393338680004,-0.028196649427858763,-0.07860474584691278,-0.02616895806424288,0.05597808010007273,0.09839617989219407,0.07617214134268895,-0.03612290962064509,-0.11431122470817863,0.018394761505120257],[-0.09878587171778609,0.09185119497964893,0.045617915930775896,-0.01657574529291638,0.006739701566345497,0.0886798163771175,0.02446992831628807,-0.044807781661300096,-0.09052008851923997,-0.0974498545829718,-0.05654179138838778,-0.11698990592067421,-0.09473164411639619,0.006823894860664241,-0.08421814974342873,0.11029643434654421,-0.03889929186647948,-0.0820541172500662,-0.09811060429657821,-0.01822012256112764,-0.052183500357496075,0.016134232129561787,-0.06504733575361851,-0.05013750259323515,-0.02251148132233921,-0.10095831761008599,0.03201110530364412,0.05788301937894755,-0.07286112163592738,0.05273752009883385,0.004352184165858808,-0.08402021236132316,-0.039482093444931705,0.07068203148079094,0.04345486442061992,0.09247268426479811,-0.07020438117550476,0.015860366241424114,-0.027541669317560517,-0.03515966601037994,-0.013501441415496281,-0.05663998962118902,0.09849728905612497,0.05637292454539351,-0.07006271333765438,0.07918793556240168,-0.03419616088606792,0.07537099761926438,0.053130985248054007,-0.11319836580885766,0.06738062516867573,-0.04772432696318136,0.005402307201929821,-0.005670051301320048,-0.014334298801034978,0.07427743670073399,-0.0526720105213948,-0.07275672634166289,0.11514250441359626,0.09307829528955161,0.07320792282434298,0.0710026914667417,-0.008649915625917267,0.04474325146932557,0.022920514883950555,-0.0857064701814956,0.08123478535595118,-0.043617121436068766,-0.10263909069859305,0.04162698941976817,-0.04313451098636245,0.07131517058659688,-0.08947008222144594,0.043042980040901097,0.05046115771265713,-0.04579920060768926,0.14688157753819242,-0.06767511310928419,0.003640250141261575,-0.11282485222339192,-0.05118060508090269],[-0.08988745998806898,0.01868669490891132,0.11184384371721352,0.03472580048849798,-0.10991923948573962,0.04112869375976289,0.08509669752567992,-0.03921471279160998,-0.06382327540142489,-0.027706645003553514,-0.08198624223969589,-0.01589776003828763,-0.1023468244998568,0.061069719623647496,-0.12223665847931184,-0.016568821490835384,0.0943137623559424,-0.026255007261419484,-0.011049390716209735,-0.022143906285031843,-0.03419826345915843,-0.017600858370678655,0.10128978804815064,-0.07635932115737057,0.07155270730409619,0.08679960294249182,0.04205345505464957,0.12153594054761047,-0.07824401790608551,-0.042949617293357924,-0.0331106403046721,-0.07854403556283589,0.11200436175526125,0.009907169539193964,-0.07408886416689855,0.008937702409576073,-0.03158959946646618,0.09128359369046404,-0.011771031775854725,-0.0771096965118722,0.028310820633354366,-0.0015410358663819612,0.015587317158086358,-0.020832069741070377,-0.01225388266835291,0.0634338967249545,-0.10026908339855756,-0.017431471220928224,0.10430204764469775,0.11704215071392073,0.10128229647342638,-0.05340045424783511,-0.07452606804164763,0.037240481129209746,-0.0697613961805361,-0.06689009400550124,-0.10069258757386812,-0.1024153653112698,-0.05908684681649373,-0.0721660569822323,0.06691012776910976,0.060630869609893084,-0.045708402059361074,-0.04459943726875037,0.08380923139491649,0.06454049373113845,0.0029131993117786394,0.10454273938984047,-0.09347131260216475,-0.041787496146771685,0.018972072561047985,-0.018721215985516213,-0.02445547705506042,0.13243380293863488,-0.08228060268876443,-0.09412136213433457,-0.035051598769541614,-0.10321958415100196,0.06290875242492848,-0.04064545341404561,0.0014737426928840918],[-0.09439710407481201,0.07669374668688453,-0.002244242423626404,0.002074506815258354,-0.007684918255778043,0.07442621667670202,-0.10673082382818186,0.00877220570099949,-0.09291480775910982,-0.00403832061803595,0.08429348537384328,0.050528838221710705,0.07075379410758638,0.10970287615491278,0.0349645403847401,0.07089896926048415,-0.10586172270107938,0.08227133526755269,-0.017875566421347133,-0.008884606012393529,-0.09282007827951698,0.08814019400117695,0.11081933717549847,-0.019498088724942797,-0.05156269391304063,-0.04371267195885811,0.031219706055902057,-0.024210449573949477,0.0903355476718908,0.09267457206457451,0.04820173386180652,0.11104839877284663,0.0663837385091023,0.06289390927890878,-0.11041794276933205,-0.2325559319479944,-0.08874570044401836,-0.024475754825985137,-0.014608952696583334,0.008201112817871644,-0.06941132635429591,-0.11178301842097135,-0.024955362186792243,-0.025735599859570926,-0.03349784768661543,0.10297961447999116,0.007725858158309638,-0.04428498575632526,-0.03660977358582469,-0.044934127308203516,0.0801982458016495,-0.025561759204707327,-0.07771555680576023,-0.10750519464566659,0.05659418697189719,-0.04956134389487875,0.0849154744410676,0.03706738355332876,0.059947175280517184,-0.10437587106736822,0.02505050145401985,0.08706445095612303,0.09781476892388478,0.09690389327366994,-0.06913421684134995,-0.002432099283542644,-0.07998507478226215,-0.018155115463535914,0.08552678388618366,-0.055019474842684185,0.006576805206872053,0.11361590497041948,-0.11643970343497445,-0.052486065005024306,0.07413614988386481,0.06867449213721336,-0.03069755699910115,-0.049696657643486276,-0.04409440771902611,-0.04505183889199019,0.11114284408030473],[-0.05487999240367018,0.07275556993989751,0.04989037575146001,0.10244759081786829,0.08572468201362254,-0.0720936499277801,-0.053621864078826964,-0.07032124516353855,0.0682210172252318,-0.054038650800951556,-0.049752114014500866,-0.11063329501463166,-0.021035548929661422,-0.012102473526869056,0.09074425145086928,-0.001969471896017196,0.09297218239759002,-0.034809129434699694,0.08395882133972772,0.09974035282614346,-0.04693996276571176,0.0820820432603996,0.005017293050120604,-0.0951295039258802,0.08998576762454322,0.011524815186271908,-0.03456476372284478,-0.015589763022475495,-0.021819615441351067,-0.04321806986847196,0.021424824743164237,0.027547492283664175,0.1001958087793736,0.07031812828037962,-0.07401482008083143,-0.07265830090525857,0.06220920738919893,-0.03136315183398573,0.00497088612279239,-0.008528193000990085,-0.16280953451941513,-0.06925778035026445,0.1000894594083135,0.09094417328318298,0.03644375716883575,-0.043184805745857535,-0.08560935965764635,0.11582005803014868,-0.03278644371607322,-0.036770640220280516,-0.05146225807338083,0.004144276742019342,-0.08739765183397297,0.054233314654275507,0.09800777270033065,0.04240148614488789,0.1044350621178188,0.04783703303811019,0.048797377028060446,0.05977934500690216,-0.0716622520690866,0.052140685258427355,0.09408494349343526,0.07819920955586457,-0.017197578657816685,-0.0657937791434658,-0.10165751091683567,0.05296063443490191,0.26863961051174134,0.007553001215366407,0.11166312820494466,0.09585055071592118,0.08487916212089244,-0.026314434357589404,0.025449132201876962,-0.03921505053439633,0.10041527955490293,0.07443884473960016,-0.0977216111188946,-0.1023729181050798,0.09114756437543246],[0.03965370163371356,0.06216371128867464,0.031001684184461753,-0.0417928181535162,0.11387623673518456,-0.08710270601349335,0.05840516822235595,0.09480551325740581,-0.09135334472309438,0.11470845114789688,-0.05873660233533332,0.02222237972325035,-0.018353552775302883,0.05817142863922021,-0.07475567934151957,-0.09904980819337021,-0.0411997127483633,-0.11630813618090678,-0.027607734416362145,-0.006781095498144191,0.025332440689895368,-0.0038365934327752394,-0.04773816285965518,0.11704711953288932,-0.09085056137377111,0.027915142468914703,-0.11516377390538073,-0.01429102686860263,0.08679882873240943,-0.09937129471670801,-0.09621182197113075,-0.07642159852482294,0.0043452154003181,0.013163671537833089,0.011590899930996823,-0.04712642570817558,-0.0230124917844326,0.11252742253073492,-0.051098736728303104,0.11625893216437652,-0.049954998300356296,0.08565469681538256,0.033827894888821305,-0.05331771715087997,0.07822114065422289,-0.08595236442279548,-0.0454913211866821,-0.047827383013283604,0.04890299261144136,-0.09305202434323732,-0.09090963013858222,-0.04908236556370971,0.045588329160702254,-0.06253635922684099,-0.043967262536496625,-0.02512153988764934,-0.076851458844858,-0.0640968088493592,0.0719262479276951,0.060433751749935524,0.005247067781015269,-0.10138191098305928,-0.014518677851846943,-0.02149509524114297,-0.09139459585719663,0.10387133859056337,-0.015065270128359409,0.022082143132282076,-0.11091060679201217,0.11097121367446092,0.020245027867697857,-0.04260310904554235,-0.11059207299186212,0.026637682877374908,-0.029235626499599755,0.11712845055118634,-0.03229379089727096,-0.10085235031435306,0.06841756831335964,-0.10320156599461984,-0.0748221090087568],[0.0340287380222153,0.08754498278226842,-0.04561175588244827,-0.007518001785155255,-0.05545882358349885,-0.07240782917242095,0.004790741376462543,-0.09415894340666292,-0.09684682496033385,-0.06326393279701081,0.038312729643434316,-0.060782789840959764,-0.031203857208291445,0.06856616763268068,-0.051236828252430595,0.06987302585226313,-0.013356756173358507,0.11454181095863457,0.08446349375620141,-0.06314498236347335,-0.0757160481579943,0.021736263011799206,-0.09012541329505296,0.08429812884207794,-0.010751793762959597,0.08842763425256638,0.028465128321367817,0.09162868662398914,0.007308953254600044,-0.07536767028522721,-0.025334067138081347,0.24506648789480076,0.04230550287539296,0.11708801145084152,-0.08442778835343492,0.10701289506577549,0.10799934844647435,-0.052781294656184266,0.057555263198169296,0.10343153376729392,-0.0995453413087771,-0.1621188414413912,-0.09568797139058496,0.10355249899339353,0.07037480298879509,-0.009845885956745272,0.017074499999235777,0.03305779049516544,0.031719632860528174,-0.013158034393649562,-0.11370616266335218,-0.03985039550513128,0.0017393596215766328,-0.07126275575907598,-0.030167061753197954,-0.07891137306594266,-0.06717700149258925,-0.09930063587239353,-0.09116724631994262,-0.06251280801995786,0.08327447694544475,-0.014054167884667535,-0.0042382217313569216,-0.0767896809270257,-0.07046006433245157,0.05173814228938234,-0.09364464834229738,0.08258798370564698,-0.050371012915184886,0.02573183240045654,0.029297937185173036,0.007059389579487644,0.08336658092880701,0.034852702607026075,-0.07710119826732892,-0.07887267296187009,-0.1029818909478795,0.01677785820547672,0.0029859217883294316,-0.09150003810592804,0.02649572959471269],[0.05742207901798371,-0.04145001526525692,0.09473130693751318,-0.0920875441245971,0.02227405300318743,-0.08065922170617376,0.08694991067365765,0.05710795397803081,-0.010498300472484613,0.042558241632924716,-0.053004280061587014,0.01593650317965065,-0.0619730540361729,-0.062018265934213536,0.08170559937518487,0.0254468677893329,0.04992174732639319,-0.039601902909574854,0.062262076663857135,-0.028437903927283896,-0.027584467345579688,-0.05237608004293792,0.08724502409621736,0.016043672119179266,0.03186409596992199,0.02246461148283521,-0.09227142427654354,0.016577960199335124,0.015548110904905816,0.01106953080594717,0.07188841294562556,-0.03638948880453223,-0.0866483366889004,-0.10665269991191026,0.10995713996229474,-0.03184824349194658,-0.004162664210308451,0.019247241257437615,-0.020961868732923317,0.020344737281678252,0.010347009277153056,-0.03318410530902105,-0.06571372856976314,0.11254116366612503,0.005592681510747704,0.0344554136726501,0.08244402228360692,0.027963669212910432,0.007131551929949866,0.06568695397703972,-0.03400002186632618,-0.06935523354738253,0.053014365177735556,0.06571797851353438,0.10935045432423661,-0.029050464734083795,-0.05248837643194835,0.017046363503315724,0.09840451130128314,-0.035750924845575335,-0.10557134958071895,0.03488799275005043,-0.05842698080134728,0.08719548806721937,0.03502368207268866,0.006259505104899248,-0.015738794668606566,0.002276725038915492,-0.08191288594671088,0.0674344838348844,0.07470214420811616,0.004081652037795909,-0.0448177015940378,0.0849965012481273,-0.09260619310198928,0.03359067511661944,0.04048362883331597,0.04655527355287346,0.000004657771866174576,0.011064779212157075,0.0031887607261114406],[0.08170102434544821,0.09398126011075213,0.005970039469291693,-0.05590207036457178,-0.07723106579203369,0.0014147632124147235,0.05330292157130045,0.08447526435976233,0.08573068748387784,0.0667661885278813,0.06487595563170967,-0.01656450759053327,0.06195839367002004,-0.03167289820041433,-0.01524000225729013,-0.08241880041965946,0.00993256334617235,-0.020820857979646577,-0.016338491863096983,0.104125759258128,-0.010405428598597142,-0.07767100096975274,-0.11667128169626469,0.11158655356801846,0.10728138930313977,-0.005668084519096594,0.021422323669888492,0.07828302016097358,0.031067436715145537,-0.11341725330106076,0.03738635357382477,-0.06814492098144759,0.04358117420142282,0.07298988429757546,0.0900672860606672,-0.09709434039702478,-0.11348713267109752,0.010093900350470647,-0.08822052552833232,0.05362627920537085,-0.05362321318369004,0.10399008241336612,-0.09113271114970274,0.07884795181952689,0.04942806612776663,-0.05217981831133421,0.00909685370814207,-0.02579930609246472,-0.0006837790326614247,-0.1369096986250257,-0.08472871128133827,0.055090923916289634,-0.02502576307311068,0.006426970490612895,0.014181662514686832,-0.18151335294053836,0.03380938559556191,0.016382666687054157,0.06672653767211326,-0.06265046747293442,-0.03095127842568613,0.0005605490131250731,0.010185813428422534,-0.06380376962829812,0.04888818627292743,0.012434513000407037,0.05763236418589196,-0.06949875521265653,-0.061077178191577486,-0.08017494128840932,-0.05818899287143742,-0.1158095594488813,0.03087993075941597,-0.03141501413538416,0.004231961171902115,0.005230341883820554,-0.11150839341023458,-0.11139390320947638,-0.09608272060905984,-0.036331801950608034,-0.07524170774975202],[0.06966781087894805,0.026641574313886526,-0.04953155347145338,0.018395838718293013,-0.10543336065717407,0.10419945823131029,-0.06581681680940527,0.05036515951174979,0.030294567644212955,-0.10130190890094151,0.07413325750322278,-0.09884383475832424,0.04240411937087423,-0.013434662959040552,0.07799167284065678,0.06574878724966977,0.06676946069355988,-0.02668036612423508,-0.10523603628414417,-0.023991093210899848,-0.10799943905333777,-0.0017979447148386756,-0.10710698277580158,0.04918272581770141,-0.06604939756128772,-0.0278672669776916,-0.08696984343472852,0.08322252151770729,-0.033265030447000514,-0.005371204213310708,0.02088256985193705,0.11551894446376315,0.11537198847032415,-0.02285903600221104,-0.0666431917479688,0.011139412944910604,-0.08613080746126064,0.026925350637539362,-0.011491478405146643,0.1057289824319874,0.10440439928243381,0.07534794897089224,0.0022186329597195195,-0.01454512584237268,0.022308268832225003,-0.10337555714211955,-0.09763718505673487,0.025581038057756206,-0.09680382554816416,0.031911898358650166,0.053984998700185985,-0.11160554092942912,0.07276786061826908,0.022697389345609147,-0.015500351494900916,-0.04910436501540998,-0.002390949179799146,0.010618353278774029,0.07522657221010756,-0.07018923405163507,0.05791171330570091,-0.10778623825829992,0.02615124702060291,0.003214697597066038,-0.028479954195478815,0.0209079494367638,0.03260875959818324,0.023350398258108765,0.11095928095739585,-0.11137142940045627,0.0795380581892836,0.05720608552151567,-0.1011276535382644,-0.003984375370353211,-0.1041537082707762,0.10390431860905755,0.10292894443571028,0.057030163137757876,0.021310175370894736,0.031162349863996047,-0.017284762818320504],[0.059178307670288165,-0.002788732216684758,0.028227807779505763,0.07502309948138984,0.08325794592026078,0.07923385196075129,0.07016393933503973,0.06042434309089237,-0.015709199657805838,0.10177008662775218,-0.08544413602778883,0.038679754129936135,0.09503546403052437,-0.022777416610046976,0.055018530517992784,0.10882373651554908,-0.005217943624199418,0.007986184171262086,-0.01529145694108733,-0.021235978948657905,-0.04975378471355995,0.039978914686055224,-0.07581995449301306,0.10438689851358643,-0.06390220030201539,0.09554836439799086,0.003876553692376502,0.026958653089105392,-0.015843490349759036,0.11710035234472296,-0.07874318087047319,-0.061620847936300766,-0.10062403900193947,-0.04564534366297278,0.045596734771793546,0.001733223427225319,-0.054874515981585555,-0.09668299238975407,-0.004623271652236979,-0.0734120595771319,-0.004423455009557188,-0.024813794036405518,0.07607729319112937,0.026708063228549055,-0.04342336278353387,0.07130585487834981,0.21046084657397965,0.08661434669436534,0.027710771883963602,0.07971050268177153,-0.15346602180064672,-0.06137847392830449,0.040554774300863045,0.00946399317529847,0.03665742265226512,-0.04641220872800282,0.08247260470188324,0.01896631585679628,0.0011554139175384472,0.056210781807074596,0.08594592607907721,-0.05979523301853713,-0.011174018602230997,0.025119611431910247,0.02656458358983262,-0.07892276125257083,0.07577372934340332,0.11248083558642882,0.05176283980165804,-0.004424734556687956,0.023148645754538462,0.096437802047631,-0.07704141009324184,0.11237567564337073,-0.10725477267570999,0.11689101608480854,-0.07845659218204999,-0.11395612951601541,0.058019086208376425,-0.057764624669729425,0.09719484903316197],[-0.046809652090843354,-0.08938504091199738,-0.11843240564417698,0.009392346932365576,0.027127176072708196,0.07126448558523361,0.11626803979048482,0.06035969443580022,0.0988283710629094,-0.04118705421954341,-0.10811781035759759,-0.24150454095266366,0.02515225654354154,0.11172363365042756,-0.02718180920059995,-0.04826736413047967,-0.07511405015032577,0.09547833323674701,0.08050265667045686,-0.06256803118025249,-0.02629794090902175,-0.09087484578176336,0.0782704080343063,-0.044296366040398535,-0.08628546806986391,-0.09097980248635514,-0.06959890688231342,0.10261263273577409,-0.10144530700167018,-0.025593496464849312,0.07787288541292703,0.05406790185443271,0.07092801836720808,-0.04846886257870262,0.035292314598235515,0.025082887570573274,-0.09701467594593906,-0.018042828536491345,0.059402108105969215,0.06046498870524532,0.07235160966874359,0.053814013119047086,0.0507603450479961,-0.0031180025261002362,-0.06686934153725198,-0.03706840644449886,-0.08863235537691397,0.026301940759755563,0.11016745531871411,0.003478647223791903,0.07688111407648998,-0.07086025208144371,-0.11464009867693278,-0.01170723079622264,-0.025143908798859953,0.10980648748782688,-0.09436662152243203,0.04551536387919755,-0.03932022407395971,-0.08483595044264655,0.10789043471105371,0.08814781054467448,-0.06884557665139726,0.031573196480876115,0.06260900978226976,0.0991150592740349,-0.04511655186694463,0.043092840614285234,-0.014685888642103503,-0.020739891717692232,0.06557550808464,0.06522492278449124,0.10798848931424346,-0.05087406481309998,0.08328768692570196,-0.07189013483857438,-0.04613798280559969,-0.005547921345327679,0.09566639620756567,0.08607943390087341,0.015558227120711515],[0.08492656410994207,-0.03629268132303428,0.02009270980206971,-0.1147020122144536,0.10837679332500652,0.18049287272131598,0.0345996628498593,-0.08350394994690068,-0.08040144220729796,0.03503050740387373,-0.1495846043606407,-0.0618355030069205,0.10787358892891807,-0.044579562732480905,-0.06260804475764577,0.04462338240077004,-0.0027074237088355346,0.10516424273942365,0.0729444885846026,-0.012407201037583323,-0.10311493796661259,0.007520830349910541,-0.015120569486015593,-0.013142471399568194,0.01322556876310257,-0.09572186042412954,-0.04760898804612137,-0.10284723208809862,-0.01654613975943031,-0.07932459276342564,0.04807431769192853,-0.1059942671663072,0.03510693141883817,-0.06427881444272543,-0.027204367288629704,0.11730080371056571,-0.015511491632309598,-0.04189531295684542,0.045365693442073834,0.008280919913377358,0.050795418813861425,0.0807639204332911,-0.07029804838667154,0.021992951609017965,0.11208087880125125,0.09609012513911713,-0.044455921802797206,0.014262306693892257,-0.07914533710429784,0.09098767524510915,-0.049291997485730404,-0.09701960889452903,0.11553764557208726,0.06201032192007889,0.003770128536496904,-0.009473031268121117,-0.10234291804287453,-0.09645101663379599,-0.048253908931036316,-0.18629426185270695,0.08179253150735584,0.026897627846277795,0.06976615117208053,-0.02325596037226241,0.11380445784125699,0.01640618783238319,-0.08385053746370068,0.013889634969205377,0.040705106423971425,0.06129863752018064,-0.05342415277380202,0.09457622685675458,-0.0267442857055313,0.026192116069270098,-0.08354487513971887,0.009524798239675185,-0.020082843668371472,0.020664416685550434,-0.07610642394519353,-0.05336083046079246,0.07144690117939809],[0.023909259353449803,-0.10801721718891279,0.01518880891332092,-0.044724799829235266,-0.017612685535264773,0.0860848591948456,-0.08025974789340966,-0.11157308879702302,0.04721367482977069,0.06098678006482948,-0.014444380689163424,-0.019939379401112102,-0.10918090507484059,0.04499682717096525,0.1684979282778192,0.0872729101701543,-0.003807209155852788,-0.022162502251537358,0.08653080602406589,0.1138128414160972,0.07326821844139708,-0.046067685924170085,-0.027795833112599644,-0.061985045636215715,0.09033161329668023,-0.041724653970437384,0.05142377845421483,0.0217733557397766,0.024689519635516268,-0.11448377885356333,-0.0438650753242506,0.00406323869439382,-0.06257855324606001,-0.0019608015464782835,0.08294235256850639,-0.08757421499761248,-0.12901491157782097,0.011397867501311316,-0.0014667217494849813,-0.09049606628394531,-0.007647193584540203,0.07269253302977781,-0.06752361534593394,0.021685612324539277,0.11700375083743463,0.09062102788863963,0.11701684165520382,0.07112771829206413,-0.044947175908721416,-0.11575952828006078,0.10600298883281505,-0.032517496406436724,0.06653463635972258,-0.034754501346415216,0.06832530801594923,-0.03019566578383772,-0.0665714733791856,-0.06341749242236286,0.032299558689443265,-0.05816919209895473,0.010692299570222049,0.09134006980418181,-0.10145167424139245,-0.06516090278723508,0.1049103356817303,0.09360753733374123,0.08330886028855428,-0.029601588016453084,-0.11475836230057763,0.11343070046214625,0.07586727571010769,0.05524316432596461,0.0009387521635816361,0.07052773166225393,0.106539102580612,-0.10876740159351157,-0.0017273860582327795,0.040251257596677116,0.04110652386528795,0.07720491739263342,-0.042836323280513525],[-0.08919482208789462,0.06021896684076247,0.007764073641971021,-0.027884394672361458,0.04855440747147868,-0.017896939201821678,-0.06541993755097897,0.06407539499493291,-0.07439129648951566,0.08968380731866572,0.0009241105181330206,0.11474654653547817,0.07130089957577498,0.11384156573957535,0.01568551405844798,-0.11694744834726749,-0.11563008088288478,0.07803963738465612,0.05050650132629489,0.024129184845113588,-0.037975913827675054,-0.0028331232354060344,-0.02148488068174712,-0.060270793105220856,0.017330748799430258,-0.05465719662140669,-0.025950641452698604,0.009356307206715616,0.013318622933115656,-0.10590937463997085,-0.018908667701707658,-0.031563890721263824,0.04329866358926132,0.08644664144744325,0.0656985470137788,-0.014319590588580145,-0.08654161208731627,0.0392965957028657,-0.11011571094595933,-0.09442726147515258,-0.030209481896751954,-0.11263977958227238,-0.09693612084893914,0.05571232821686353,0.11253628770552818,0.0459739675805017,-0.10560818337960881,-0.06411341157793554,-0.07730693025782771,0.021613329760757166,-0.03138050375856344,0.04250570130082798,-0.02727034689699104,0.011129411928328626,0.1006194472146757,-0.0792991787080635,0.04062992452424553,-0.018212943853254976,0.04304873437870678,0.04044724793982245,0.10750371918969152,-0.0731419926495371,-0.11235612707667836,0.08501885344341735,0.03698519686576053,-0.17408722597672194,0.0812855257692658,0.11597917556578446,-0.04249382489206565,0.10870530911429545,0.10429046350048742,-0.08222995360534217,0.08155605226203635,0.007673341464930205,0.022530763443738284,0.04852739396649524,0.014823218113137264,-0.11352520186844242,-0.09231588345074261,-0.11262767797644903,-0.03021592054929766],[-0.11325099317461791,-0.06290978334375523,-0.02286284409860697,0.09789281661482846,0.10990899389838964,0.1055214446641156,-0.10213156539466191,-0.08412272444240367,-0.07787484146634918,0.09680455935125436,-0.09865146690564876,-0.07150984445410952,0.03355649043301492,0.018852981264035538,-0.047379449362989594,-0.06711545419295259,0.09660883919705156,-0.03372542124376108,0.060953227339673115,0.054869927993004664,-0.056905003887078094,-0.0678825353900445,-0.09513218193388247,0.057049328392324725,0.05181341416926555,0.05556726642873442,0.11715873275689918,-0.10369053364208589,-0.023148928146190236,0.10773607478036551,0.0950362918489641,0.009905791777198953,-0.012354832852743676,-0.0898641614135022,0.005967975126278828,-0.028160621665992324,-0.05613008953580511,0.033944751727906196,0.04810738090779981,0.03217796572051989,0.060975464046696924,-0.1014507495898862,0.06892836610496214,-0.015826706550639925,0.007717455460727656,-0.08820213943027046,0.027017734520327335,-0.08375171497365236,-0.06778811319402127,0.015651647882890134,0.07920506156803776,-0.033573524224896706,-0.09134907235046176,0.07262867430295818,0.11542961040875313,0.011318078014369893,-0.023717929141658396,0.08549676289527544,0.022557443358029124,0.06534707625925802,-0.060180542022962004,0.08798756138919828,-0.010834904265644063,-0.07013630477764767,0.03207858146084045,0.021094448084846805,-0.1115332118653618,-0.01099489815125384,-0.04101091374572129,-0.06708603987887801,0.0453778611642384,-0.11720956318495354,0.09072716971769197,0.04291221538876831,0.0847041209589778,0.012211100270624163,-0.0626358501094181,-0.09308783685857779,0.0223613452559569,0.10637652668707347,0.014528833233520238],[0.0800893437844595,-0.11155776169892427,-0.0591818711734007,0.03521605549621783,0.05579119432348536,0.024197979568208242,0.06219523353092979,0.042441601153736984,0.03340018791795926,0.0016993630175117513,-0.09392887150717166,-0.07597280726148048,0.10891143838596522,0.08473033583892724,0.08652213283715379,0.050558615597578044,0.0653542518669377,0.11496361344372968,0.11609221395018691,0.032547586101029986,-0.02845893018482399,-0.02227302856527797,0.0798323903439127,-0.02403324012317697,0.07657882540739419,-0.0798945233854202,-0.06435247771528448,-0.061524324113425594,-0.04019568688309201,-0.10418613559498002,-0.03850124355491128,-0.11367141574502318,0.07489904382823019,0.034279174600590864,-0.08952957441736141,-0.04613392882572741,-0.07420960719994535,0.031945679958409516,0.023114533854973966,0.10488714690234056,0.11472135193181925,0.04263177738717021,-0.047759539298413,-0.10328051985358352,0.02032506908107778,0.07402832449852394,0.08797182208159546,-0.08924138664272825,0.03995348064760482,-0.01549854532392105,0.016990240699811126,-0.007318658137087768,0.05104018872793081,0.03687568099774474,0.050879242234396306,0.028183219180549033,0.11522328151857499,-0.08701599794081104,-0.0061490592063526035,-0.005882781247904776,-0.015465492903051246,-0.11517874992338555,-0.0522414921189209,0.061978729087599924,-0.100551088895722,-0.11016309886316868,0.11094396945626961,-0.10216171481538913,-0.08942496874073835,0.08996567803617603,-0.06351553329970207,0.10342675430883083,-0.0695956707785505,-0.0015126024241854884,0.08677068224658134,-0.015683603069390463,-0.10985249657578262,0.08600279499991594,-0.09104089821715941,-0.08150040572064152,-0.02079619658638209],[0.02667790726130496,-0.04869077458349859,-0.10325652698616448,-0.026810467054766467,-0.016127179023016573,-0.055184305031601294,-0.0755643068225004,0.007291871472552831,0.10880788222831175,-0.10279388875590494,-0.03833072633500659,-0.008408698513245142,0.07498053046131477,0.062030699114746825,0.03753735879018143,-0.08891275005734577,0.035772091346116565,-0.08193795901310699,-0.0742025774924295,0.0026203059341612053,-0.06492981406711736,0.027383433746415477,0.06708072106992086,-0.15812621493206094,-0.035661388424992294,-0.08656267036299023,-0.053842388048154825,0.10619296868376865,-0.10134258294901083,-0.08074230899417062,0.032483796483233976,0.07264052866814996,0.10903211679833878,0.06532523170606139,0.035014682177595534,-0.03188099323117608,0.1090542694897196,0.0434581489859143,-0.07679083892040482,-0.0027141155954119047,-0.057341625714519506,-0.1124323869269576,0.0888651732523768,0.0051018335099558745,0.00020803771745984894,-0.04140531313739204,-0.10862412666093871,0.021019936572607797,-0.06310331943399336,-0.07349529931484752,0.03328294608167476,-0.04902336781522705,0.11348083882146977,0.03439583418767286,-0.04509476458551765,-0.01410634473169079,0.10757816002258698,-0.10010155252496299,0.046178397419713475,0.10525680726967711,0.012466639788730097,0.09799290131304936,0.033551928927537014,0.07338949605808899,-0.06905106341061523,-0.09622948377633332,-0.09796563611754334,-0.025704731310047416,-0.09466833937014581,-0.0947709530333703,0.11413993458613413,0.05634281590329164,-0.10826238179527865,-0.01473049488969426,0.0979000198990772,-0.040184694369842816,0.11301023094892827,-0.043352360064748935,-0.07303807967295006,0.06564531408656597,-0.1092595612040671],[-0.0914811535885096,-0.06863709760880236,-0.0819814420299863,-0.048003231478212914,-0.083103894133928,-0.06909680998046161,0.07573814273099033,-0.046684537640270286,0.0027137067186532864,0.11353018739378108,-0.01707642267490088,0.06534320623095684,-0.02882766477272916,-0.04380142438491503,0.023467035893787208,0.05310306490963808,0.017501447519640074,0.07610563292841348,0.04747204701842935,-0.07403480485022647,-0.2564052284921046,-0.0403248486299435,0.06360252336346238,-0.004575980219731188,-0.09176380671499547,-0.026847096446400095,-0.06623454601702941,0.053296848358753625,0.019398649948782175,-0.09258449279622973,0.10063085277595377,-0.005164983347944146,-0.07348824035587448,0.10808208784205915,0.03968402543641324,0.09921976650370415,-0.1078355846314902,-0.10435978924909496,-0.06270497357363614,-0.06347216344001838,-0.027787747671426888,0.05110566559274892,0.052348683241375094,0.006445721902893002,-0.05673964926168096,0.021546846166346775,-0.08454346203834927,0.028069316471697362,0.042337554499641813,0.1952970976313104,0.08771681335482079,0.09581578809882141,-0.1014323272272685,-0.030038887072096017,-0.08638936144444379,-0.11014414160468594,-0.06509288786467855,0.10287245263690221,-0.0008715133996667358,-0.07227600030282766,-0.09578034614234027,-0.04537212373598851,-0.027281252191383516,-0.016716483550960042,0.037126550959355596,-0.11308269085667301,-0.008284952515177841,-0.05477359322883463,-0.04021016042333826,0.10106311758762622,-0.0006155555616277905,0.054758613813532586,0.10421530273794781,-0.09820939387081025,0.0718645527224801,-0.10068869207644236,-0.013027332983630206,0.1173498034501191,-0.11553158802029086,0.10809055219141753,-0.023925322781933153],[0.08654216401250106,-0.00024315556050723142,0.11323887444989805,0.06115101710347178,0.004560086330123894,0.0639953095869183,-0.02314161378685942,0.10985246357556248,-0.032687177244348574,-0.10074347184941271,0.10679120884273666,0.062492069930933244,0.029347775263501723,0.03184241610766686,0.09350606279270732,-0.08397501738071436,0.03164848904116131,-0.08031763319014404,-0.034477946418583864,0.035824251972351395,0.08838229126266163,0.07701255496887882,0.06282480459370972,0.029869086838306858,-0.019668184818292855,0.00969164192657795,-0.08928769622420366,-0.19003916027828754,-0.03180740893355947,0.02304087456066565,-0.011703652852669026,0.11387477151825989,0.007388107916440015,0.013671104096907747,0.10134510338785166,0.09550404066554924,-0.08765822593454832,0.020663953458361965,0.018127970978797436,-0.10212456028600195,-0.027286282845535192,0.014535373020639156,-0.07381532515048587,0.0874723675274143,0.07745488225921962,-0.01808563490173026,-0.017490129186143705,-0.09831983651712398,0.007720820488058764,-0.10517223761345006,-0.05240440328021562,0.052298044674560264,0.07026193536989007,0.03357837897213702,0.07293808542073175,0.09997681867078277,0.04232451832486149,-0.03170487077963519,-0.15173396920420018,-0.047981775358579906,-0.024172137618583164,-0.04792564852491743,-0.08688605370452351,-0.09630734070191801,-0.11531084083310025,0.11374269316636287,-0.11087114666247173,0.04264365602733119,0.013234312326197028,-0.09188148976402577,0.024499702519835347,0.05408155412380372,0.10479143602336588,0.00843410998657816,-0.06960206376688131,0.06896542865225772,-0.04498371345365484,0.010357948956053074,-0.08958856619981374,-0.0021163400179104483,-0.04965838438926814],[-0.05638330034059372,-0.06256731753301115,0.08282628405794736,-0.005617782712298939,-0.09739942795768343,-0.10981602922518835,0.04469035265602191,-0.05228238384426169,-0.03233914990573634,-0.041474964176934165,0.07367445211189837,0.05623302973362093,0.00654500710473812,0.0206630835437156,-0.0021920862283490946,-0.07311435354121376,-0.08116868754624443,0.006148836647567709,0.09710505197773414,-0.05799365709371141,0.012880338252167901,-0.02187283729440796,0.09267548110649278,0.040622305961372195,-0.07821597881468674,-0.04949073344398237,0.09863711876885266,0.0671082521097527,0.057015893393559065,0.1011559215236112,-0.03099187078718016,0.007230552645205856,-0.11297798464864878,-0.07842916421504789,0.06825892593256967,0.06747379643173414,-0.056306096406106454,0.04862949143029997,0.004469492879781424,0.08609705632643386,0.10302257692138389,0.0010181282007827707,-0.1125399676492544,0.0446851843575941,-0.09751937064802403,-0.0844084031606668,-0.02866484434168291,-0.11262784465626965,0.07539280882808563,0.1160947958658184,0.06169279418820873,0.04337363681969916,-0.07217099176638987,0.009615921186792902,-0.039874978875877834,0.1040827181962164,-0.09458879863940527,-0.03584193759278191,0.10677359598769465,0.0050610545828498514,-0.024659220320177675,-0.09087120115896083,-0.03620776021720155,0.07800910158749345,0.11563218157425244,0.07149365963478208,0.05693735925884125,0.10993425456509551,-0.01853942699000334,0.00838216426612048,-0.05896919725532619,-0.06158906461130185,-0.0468057299503866,0.084216624587923,0.0020019541044237607,0.3047264811532304,0.04128949137578229,-0.07627033309558601,-0.10165065736583634,0.1095013426991579,-0.05739140395809674],[-0.08735138856782551,-0.08912416076173516,0.05574226776569842,-0.045535057651023704,-0.04092936074599187,0.11062472760062522,0.08847020967004184,-0.11621282239194863,0.03539458594789347,0.11705842953627026,0.04932285960346207,0.07240306481683997,-0.03671040164479262,0.11671828850827469,-0.0282338016059825,-0.10744583859852534,0.07198381415422701,-0.09365964260627511,0.06339844010732876,0.05392395075260211,0.039471450806995836,-0.046504605678232724,0.0239222902894109,0.0853663116778668,0.046457029435748594,-0.052128140219662264,-0.06152275981654003,0.06806676614809833,0.06163197064577152,0.07033711923027458,-0.08187589167724117,-0.03174530208262284,-0.14680213818846435,0.008165050793116382,-0.035273964575061524,0.046619847864246305,-0.0014546435752732557,0.038581497441862615,0.012742553170098734,-0.09109906217119737,0.08529860786745228,-0.011582385935052845,0.09005529488446713,-0.10921057221395883,-0.07061652871223661,-0.06956258838240073,-0.05038550540963203,-0.10561001406417889,-0.042472708405684054,-0.059464157627317875,0.0508488308970138,0.06450774692076762,0.1788268906211111,-0.008178458383096537,0.05060954674136377,0.11376477245427741,-0.06442058299697348,0.038104419123139464,-0.005791762916998823,0.052212016098425455,-0.10141865579282751,-0.10378678135865514,0.007654782358168097,0.19570928774772273,-0.06042926966709721,-0.009851791590719663,-0.016342182181248128,-0.010814977405609872,0.06805769326242019,0.004927880393602112,0.07074762852980616,-0.01933609920398221,0.01659302228856485,-0.024551680552604448,0.1025380434932277,-0.11021678832517406,-0.05364103022272484,-0.024594067927455443,0.08796605099399366,-0.0178542091860872,0.04571184100554672],[-0.02816250957512329,0.1099751944810606,-0.09177060275817318,0.10449048627372771,0.05261091364679749,-0.06356350077303537,-0.07232561198327445,-0.1052330487578282,0.11141932670795947,-0.01659194573189254,0.0962592548259134,0.06289244481456616,0.11185697228030927,0.11622489508538333,0.031542700454198574,-0.037268007616483516,-0.06564979719220963,0.05117841881232149,0.08723473917091841,-0.010555880274876965,0.0990606650669362,0.10930321956421014,-0.00011752239595727942,-0.008594294314700062,0.10187229109665205,-0.0055345196855333826,0.1158849351129629,-0.040581369009415814,0.08946602141311678,0.0536413570668016,-0.1131318334957818,0.006170898594651514,0.11082147105899776,-0.05133259598678349,-0.06435656360632155,-0.03862551620288513,0.06115089013974344,-0.09990746377812082,-0.008863792738878443,-0.013515348495769674,0.11098425957105944,0.09321789941070754,-0.11095911273804594,-0.10427456956882405,-0.018952441385090862,-0.050117908945202905,-0.0676110996667182,0.10208300716055245,-0.08786032588290275,0.11004532730505244,0.06999112130664732,-0.11139366231030771,-0.0731368261616769,0.026922461808834286,0.0005278913320440198,-0.08791328637231503,-0.11012290093009279,-0.09833312861555404,-0.08856486622056141,-0.05314558324616751,0.04883538716319357,-0.04818317229137335,0.04370953117055941,-0.04672361141370823,0.03571447365417651,0.033627263191342974,0.07949938439140919,-0.03373229595790938,-0.03317828308328175,0.02968889364961615,-0.103970027647848,-0.09300287910510258,0.10835293097061721,0.11505225001685282,-0.0438228430989368,0.09600757580848338,0.025972826325103858,0.09662613488152368,-0.05485260807525573,-0.06695296948346488,0.08166838418823136],[0.08444380177839189,0.055467893971512715,-0.05226976542356975,0.04779680022137335,-0.03787527739666808,0.07031057631703488,0.06522376248357263,-0.024740850521808775,-0.0003562118724076974,-0.0624111199534861,0.03594487115312656,-0.09558750851696378,-0.021857968383759776,0.08421707860907919,0.007616727277792076,-0.07994496565325698,-0.0738891794652682,-0.11617906600610911,-0.10882096599393044,0.08176320439981404,-0.06635237556336128,0.023227085745939364,0.021640027728298414,0.10190813703960638,0.05266500395713813,0.11261335768393173,0.09275649005505385,0.0037361094616907256,0.048241664006152256,-0.10709473765156809,-0.05614881962260656,-0.08240663631364567,-0.02732380318334439,-0.02505423126553672,0.03225571621588144,0.020167276502627517,0.07258184361570305,-0.04381946084958178,0.11227480454474364,0.09049791295952678,0.03631975199341719,-0.04386920346648065,0.06480717983427811,-0.048953499285078604,-0.07866387504591461,-0.10662426256986118,-0.09881971096195338,0.03533103898447828,-0.06142803049194643,0.019976361225165544,0.03639551064793694,-0.06644550916573723,0.07584649122484327,-0.09557720099398591,0.005799063534053089,0.09042590999698875,0.010210065321902873,0.0646278216505417,0.049916261719353476,-0.03904682349371257,0.029342944080400456,0.10240156798286858,0.0842984495982046,-0.0002712225104299704,0.11305580318223109,0.07972641572048841,-0.08966389638202896,-0.033992746976183354,-0.044978661788541895,0.09935496463439451,-0.11308732658405335,-0.04013584651580381,0.10612191493456376,-0.03847968494475571,0.008832307561654536,-0.013098288083453516,0.014569592361312448,0.03676187920508057,-0.01893670121988109,0.10353789886521828,0.03811817901611554],[-0.004984575551268873,0.09137787363466811,0.023779445236150068,0.09789413410814064,-0.10522582691481194,0.11082706734513087,-0.07678212797452251,0.005117263951013913,0.21456658021733252,0.10977506428257415,-0.07636019564267012,-0.02159947395892695,0.03506721275765073,-0.05866255009720932,-0.11118398652053606,0.05471659687447552,-0.05711954956170827,0.09275555770658475,-0.11494466088472499,-0.048692224814496664,-0.11660174081313902,0.04181058507459849,-0.005134881198649892,-0.030035100180435054,-0.11642019998309709,0.041075280864681124,0.009594149189997,-0.04724791178723231,-0.11249852098192031,-0.07857291513840926,-0.10136867816193539,0.0538753411272335,-0.06321437856142777,-0.0019076568840780276,0.06083108008755836,0.09343980390546386,0.07965639446441337,-0.002852788410079331,0.05670053370630758,0.0419037286484103,-0.00040829347839730387,0.0322907316964276,-0.02252288472801641,-0.027536222449432473,0.07417696077434609,0.032494195612190316,-0.004986698937429867,0.031076272769218406,-0.061753394969688895,