{"biasesHidden":[2946766230843.186,39632977005837.92,1727898916.8043473,104165108516452.23,587470214714016.5,335840482027427.25,1012428871610734.6,17710609392400.14,163692317715521.3,568436689889370.9,199559135340350.25,60634851997060.76,764268035356663.4,30713037350513.1,40453956212541.69,24914451113363.08,335856117590005,12632200412615.441,160839268301922.88,47906863127629.8,304131306914788.75,15390440510220.494,21205434060473.176,1055287841169656.6,6613828563282.547,68032110074214.26,532910103571639.75,128676236901087.88,47272907442056.97,530873343089924.94,26935038619.93231,1389496265796660.8,1038809703672230.5,572998394959922.8,174469773991922.1,15712181644648.77,17177700085575.145,36307778238752.06,1077438602576.3684,38656111625235.51,9715270641943.037,32543079828124.68,855077202911892.5,548600003808778.06,56636296897221.51,9461967978607.295,88937760981251.14,3910013754015.4,23531704513847.98,719831814968847.8,7216774058617.487,408336071792707.5,118943991207008.69,912695776793382,54143272652084.34,109325506212049.94,16740637147861.521,24976696732177.586,41663291479483.93,641008459304657,785803979440831.5,546504618685747,400871926584973.25,645713124432289.5,39191056384601.875,28297606338672.5,816073652800185.2,30466522870064.09,145680560533522.4,42455140895535.95,377998977632578.5,4002995071893.2793,911508794338062.1,21708954746075.273,220568106826141.97,455164266234325.56,27224893701198.953,48611294278627.43,30608678390539.74,312695308550256.8,642119432563024.6,5.374287011520904,470786985192677.25,414681198130108.94,3780379008255.4507,15916283559848.727,1442021488841734.5,3101764.300907306,4169489313567.3975,1478106429771092,92110087777.1686,827906521209551.4,43956015752453.32,14483943269960.414,260191119326367.56,911494870278555.9,62415843720560.266,15963030365009.67,2379887546860.7056,8322147841386.694,13162325195562.992,101808442595822.56,47645875998436.89,14951431878762.385,87975271802743.03,10805332687688.816,15921428533330.762,89520171514237.75,12767480333602.338,230256317859007.7,205412641011143.34,243503497584900.5,728082248642.1958,163200308088415.97,796190021366646.5,60648962597148.45,875625659272919.1,12373103914454.383,310664097727091,438559149951311.75,121991340644155.9,25778967309567.195,639761047478984.6,7242574310849.801,480285951798424.9,398982841414495.5,239356277396012.94,55071623312739.74],"biasesOutput":[-0.02738411680766784,1.0729213557570667,2.6346028923743976,0.17277650635658473,0.5807387598609801,-0.7885134167223811,-1.5219286050336265,-0.05962751509409698,-2.0635858606914343],"hiddenSize":128,"inputSize":81,"outputSize":9,"weightsHiddenOutput":[[2156480979341.4958,-81735464776324,-9682405435.922792,39853383359586.17,-61387088325989.85,-1142323013937.863,101516084411358.31,11337632787438.115,17108083178658.094,132719415227854.67,83680346035.48291,-77893248748780.58,30036142274921.676,19014151092146.06,-114607172574096.73,15715827803154.008,75963811087748.86,-678928700597.5759,66532358699204.83,-69310368437679.85,96061960112004.98,9422050127506.86,-34225717610361.062,182656648335749.8,-39246213141498.94,-90456261695442.69,204314389541767.78,17075632328719.22,-54766962017743.7,234144671173183.8,4423641568.016658,-41412321691161.14,124299216624662.1,-4896484086853.766,64001757831044.555,10015429030973.791,-143426789881573.56,16112604922792.348,-1172756419155.255,-105366424884076.73,-25928798676923.93,-3837715736427.5464,32560296122794.062,172176371424794.53,23944499054020.496,-34383060892133.125,8131457266976.279,249138900164.80356,14212391352115.764,67092507933303.086,2388333994879.58,-90768304440594.6,-36416228711536.4,196912569595834.47,-83120061310148.28,48974678530367.234,-35076929519513.062,-171211225290248.1,-59974070578428.17,91466214612361.31,112397971885126.75,-61311565238869.445,-195347923411453.7,-97779337945979.72,-17790011802453.47,5809114840448.961,113255410558783.94,19458440890798.273,-35629117826960.16,18510969778498.332,135011565989603.4,-1164320189105.9163,164082626799655.12,-191984724295886.8,97314251824327.08,114954833099067.19,9426707341238.14,29136152945390.48,-227613611317274.75,162588194622360.06,-64700126156786.9,2.7468629133497795,-42386089128453.84,-88791171977863.06,-34097390994104.684,-124494901013951.89,-116358605289206.77,13334905.782374183,-20173747360630.668,44107028190273.56,58007134588.421005,287666567498230.6,-137321795535572.44,-22712605612450.145,-41684300921634.35,55857059716653.38,-198575230806517.12,-35900563858003.805,1498422548069.3887,5051609447761.432,-107861093430302.58,55075094768553.61,29678187174512.516,-120374524448882.73,37205361186459.45,-38238142105054.71,-20842148849582.406,32751203225828.094,8094122039789.063,67472126846293.59,-53966147857212.4,70197552046203.51,-1258543799072.2607,-15127808904842.791,140086789064511,27933690334122.97,101158678709568.03,-34284150030930.223,88211988337408.22,140249490616793.62,56616259574448.38,-22117089269666.832,11666136955269.674,-12133565651044.242,161529524017272.3,242980265495626.7,-176757345436437.72,34449566508227.14],[-4519927337400.743,-125699564578463.17,-6189386513.073794,26896429739185.234,-106301576635901.55,-82252318754374.92,-70395601913067.2,7032048064543.781,4216042733205.2046,58113886721682.91,-80706589676301.22,-89717875371361.86,-73736400656003.14,12447726358080.707,-76634433984069.8,10041752484196.85,36391027705673.75,6128383420383.966,63023465462962.234,-127076063464364.52,578182028727.1489,6478679912828.452,-57256199948164.695,-3499712652250.091,-23625049068199.266,-104114937409298.84,194431194054812.44,34885528113160.582,-130880767106876.92,184311721810369.12,13189085623.358522,-323392894042612.44,-6808430553367.657,-92377230465735.33,630523985427042.6,5973099259990.105,-84576147402916.2,6524140711491.686,-2244595002603.39,-70363309305566.99,-18546390579953.8,-58833955485278.86,-102986086793841.81,126007427161215.03,-4948827117397.823,-23828945347802.62,27429326998094.754,2039351832202.4497,9604249865515.71,-16202758884178.197,3928236436096.3013,-171944757314646.66,-50652532757728.89,58968208064141.59,-105264419825456.58,-53811117398819.13,-29780707154822.273,-123236569490932.48,-67558930521022.55,7205815329136.245,67387708180712.53,-127829112942631.52,-330981657208763.9,-179555133040817.53,-29289822832438.914,13888550817683.176,4272440311327.915,11336002592767.768,-26878352562569.523,4833595110298.594,92443711465298.83,-8535062907667.701,16023503774480.152,-118066800839958,69556439152120.82,103548399540618.7,11474153587580.104,18977971955455.867,-130747575488297.98,117068847828970.78,-163206713740429.44,0.8683209643417412,-115896344604938.05,-222414682619774.2,-19571185313640.47,-71067378577872.81,-343168697150004.75,-3005060.4964758633,-12720102212496.229,-224668738249511.6,34658667772.26183,110549891102616.39,-94959074490547.7,-36538311341611.62,-91801497171869.69,-7259063894578.062,-128820933874782.8,-28677623505610.57,888877496633.3179,3206399317670.9,-72097985301733.66,32743189145251.41,-83178212943703.12,-67960905551056.36,32240757981272.46,-26126646254242.973,-24315411925551.62,34471145255982.69,4957409949068.302,47704423447425.914,-61452105006507.65,44759658345617.4,-1617622643529.1912,-24644391243177.42,25208838060803.375,4626092583855.944,25844619854248.887,-23640996957828.992,57218509049310.9,99568512604308,-40057248336515.734,-65057515262414.04,-151049609505254.7,-14464556788949.764,130773331560477.98,316784830838731.1,-276564093763489.53,21910441027194.906],[-2808156640394.65,-90988346037824.28,-4809256674.3264065,27251315038024.94,-33693186433676.062,-31008969571144.527,34033699302202.613,3072875194322.996,14286548488096.256,91224873109604.5,-37196172148418.94,-34079755192817.754,7853216484097.926,5503283192228.951,-35845155362174.01,4401705318376.564,56272026131355.36,5000062069011.076,59939427128468.51,-93918467499397.9,31214320130295.344,2919493392060.36,-42318173802092.984,88555089612418.11,-15231812067759.455,-46250138466420.39,186641614911730.7,33654092663623.5,-93133062822171.16,182801663277345.84,11590985199.584604,-118473068163806.58,80838365760643.45,-20733687172852.414,546270604760555.7,2586483604011.6016,-68810403329944.93,6838323855021.982,-1540890106998.1836,-32909434056750.535,-9636877997841.225,-36939114919191.25,-4131954174076.205,137315778094595.12,3938992195058.86,-10499637668573.182,25591087763889.434,1331495468770.5925,4238124716646.207,46853463231171.91,1667134048660.1501,-93412255299383.36,-25994644617178.72,121830186826694.3,-54248247399433.336,-21996263769767.27,-15225712865562.566,-92133138287084.31,-29452013479227.188,58581218212625.88,111277161747862.1,-50603207319039.35,-209256416903324.47,-81240065564567.3,-18990168627561.867,6613653264554.959,70695179720099.34,5366726279360.803,-10063432246671.066,8587910637703.402,102019288354630.9,-6101565311526.676,90871908965822.08,-93229280916631.58,72138105690661.86,110518082795512.48,10548247028185.549,8780982032201.411,-95064817147855.89,119013043384850.4,-67472583378073.85,0.453119841436223,-47140828958640.82,-126931544150275,-15754844707727.924,-53177516808412.44,-133708364495363.52,-2196482.1559165805,-4962232170340.795,-39490978231605.266,15301757294.324974,160122782406016.75,-47912067457660.23,-26302533720034.465,-46405198007624.26,65688135963413.63,-59221657298116.21,-13964916452694.545,385998744382.8516,1436475803213.2087,-53677801556759.1,35605461847143.45,-52348798208915.9,-51265369061842.945,31214219783487.27,-12538510313318.67,-10215562216900.004,32476364203910.117,2205748543710.562,56030721954878.99,-31486261227118.004,53612224119017.81,-905397228283.9475,-3763236781176.619,86041853047018.47,10811432857957.225,88789526498669.89,-11170637833638.408,69473304678430.99,112138743197680.69,-12306686833082.787,-46946188834043.29,-53945921652416.99,-7893992687002.296,134282323310302.33,293409643479218.44,-182523552129996.34,10302402842494.29],[-3856987484096.389,-27202704135213.844,-1137704379.2960777,3320383513653.1646,-352578354079.4346,-29619190512386.527,-45181817306887.45,28916318051256.23,5988013095790.3545,-9150834731608.318,-41031757452411.49,-30160395896914.26,-20816914170595.473,50204301961642.71,16251192632375.17,40529881420047.94,-6371851217328.673,5039334431739.688,6887679412571.921,-46883759089541.24,-35980985836217.19,24934830944044.418,-20093304717319.344,-48421189349608.47,4195140484365.6606,-28207148043922.125,24543001272881.535,16553273354594.422,-47867064223825.2,3109666722481.0825,4216492301.956993,-102636673983909.25,-19817666884012.832,-26384368633489.62,-149894482585127.1,26002484867195.39,-2071060888578.1675,1223659244716.956,-1369624486440.918,16236145870703.135,3517226032619.5073,-40840434314900.55,-37417535411215.09,6130010925870.536,-21794355073920.113,5572496452052.411,13813644965100.967,2235752980317.448,38149564135174.92,-12148647500202.08,6379402907135.525,-31872073602710.383,-10543315394000.707,-25181346948611.426,-50397804887211.35,-69241463949851.66,3662458899632.455,2950971039684.4546,-20307525931592.625,-12185409834625.457,16734343838107.348,-18507822652690.887,-67906707860271.2,-20258051278774.44,-4508528060141.149,20554784873169.836,-18309526549193.977,50490239942847.01,9756016458296.643,-9802684303308.271,722976419974.8014,-4973837738789.294,-38635426916697.37,-1296210923969.0645,-6809975526883.574,23595630574582.69,2472576693019.3066,80065397978034.23,5383882832829.137,-22715871696420.51,-33208872351767.258,9.857577389467993,-23094504474248.74,-61596989929188.89,249652352543.25342,339947033841.85394,-70606618801792.17,251193.49562854902,2706367442858.978,-87983791369521.6,151890984052.08875,-58346943902279.48,18219603235247.637,-14765791824403.479,-15970962312747.775,11905496343115.44,41157396031922.83,3282203202380.7856,3941555686904.52,13797163861918.334,2766073386544.63,-13088648268007.758,-61434336649760.58,3490390431965.939,2539393401260.1304,5032979027913.335,-7295858761853.03,5787930247306.939,21066365873532.637,4749680243653,4729874337017.191,-1508083452540.917,-100306738768.53502,397189732604.7737,-21673957846601.58,-16184794091145.326,5522051037379.268,4844770135255.232,-2563498047584.241,4699284871436.56,-56232758964161.92,-26969671204239.523,-61821564420244.38,-6587713950856.825,15370888623153.059,-101246813397418.75,-56392557733872.03,90538263030307.4],[1577803743083.9805,44441090105545.42,1623654288.7493374,-8659138617307.302,67463996028176.8,48980543177921.72,77254316174198.64,-38469289176076.805,1956223859747.833,7656300650304.677,48987260520129.63,390464514182122.8,64218900668313.805,-65666105309264.8,395432392339624.9,-53453414441089.11,6299044298265.28,-1753640463614.5664,-14865201754678.027,37089554561531.516,20496492701955.71,-32706932305863.1,17172896469857.736,54460537334177.664,17109229664891.377,444196716174700,-46716301854531.37,-9780385474356.762,47994631987151.73,-39035802631868.5,-3453750882.0976663,195735313533240.44,54087590902112.84,62675986566075.25,-235722429183563.22,-35345474405125.164,21364318689342.367,-3800130815263.3823,767530951681.3027,361814948080414.56,94892210967315.52,26992221923431.2,82330551402881.1,-24248843267170.254,6616673806057.997,122490087565816.67,-7475877719424.435,-1439698706841.3054,-49935924956391.4,41090389276435.445,-5199000446620.467,84349427457046.92,30108050955974.87,25140501458692.05,523403177547967.4,30781270069038.72,139346725106177.86,47689542924702.81,297238249259847.94,29209332115545.95,11394150858593.781,75003194761329.02,145293772376438.5,100002338985429.83,11084259153215.787,-16635102693684.453,37461407189676.69,-67414299706620.06,16790392735370.709,1590810251380.999,-10300004210596.438,2457426430098.7803,41495694794873.71,34431118624473.84,-11715067820861.385,-21085132147891.12,-2939160455161.9395,-106897289638057.6,63394619194293.18,-18996482383780.11,94205896361648.3,-14.145062170014537,66340316602959.14,104802374255982.5,5438535735967.545,28089100223054.957,204368981610555,-2221.6026968354117,18199371659613.324,160021592814410.28,-203869480450.37173,8453621828913.165,466434013090081.9,12196489501495.693,47573291778098.1,46064890649318.516,700969089494442.8,133795311611635.44,-5271812565894.417,-18315732479170.48,32652686929240.266,-3406992794335.101,35668257680808.33,30878287738464.7,-7463318405760.406,139851531261294.4,104481160906554.48,-8616183230800.72,-28037363182886.297,-115214334902.36073,30279741111044.113,-4617419944107.716,7057124107674.415,23348104624396.94,30793483314106.125,3101839093971.9077,32201857295384.37,120317224371237.44,-2889010446761.716,-8754116497739.789,25229816982433.895,20446332721009.684,91856861862376.95,74732338147854.25,-29718626082329.473,-52139179923894.086,117045905367058.62,-120499438201859.1],[7462624198174.086,96551668859633.12,5570202435.449132,-27320998074409.82,-6871323674918.456,45562011976799.47,-6582677392192.559,-36950202802021.17,-25880942589627.445,-73959843846493.81,71883233761189.86,5731786151857.309,-12532771043669.998,-64592825398558.75,-116939072691426.27,-51808506964652.72,-43681307001576.43,-11371797546229.672,-56174463127507.945,131019692419512.89,15476066383051.217,-32186081389025.637,57470023953586.734,-38593913694739.58,2237142382137.785,-1959819867945.7588,-180375459222306.56,-50851264955640.91,126637630610387.73,-147985582338046.62,-14263611801.936409,156184746181278.3,-74664670854563.67,24458868691115.414,-57917770605339.766,-32612979061607.742,56110575520526.88,-8126565964142.418,3157476673262.686,-110034997400046.8,-27699516648553.8,83630634051508.64,14810583939510.777,-122101871499636.62,28772673954211.473,-39277047345222.336,-39850516968061.734,-4312960292733.4556,-49193711219806.24,-47329360483003.9,-10687465410011.113,86315154163283.27,26148473082313.43,-87819807139715.73,3312662067150.865,113877300554587.47,-37382848280527.03,55479873363412.97,925624770554.935,-52154504130644,-134091165298887.5,33267072325119.03,212796194953138.53,48894485763480.66,17163441168446.477,-35340427857650.93,-58666220027431.77,-64031172254380.875,-14802649880463.975,7822462201703.643,-87649254558468.86,11432322355885.67,-46401700146979.516,71406654558702.16,-46579640216517,-127166328418882.44,-11596145600841.889,-102060440550433.73,60934376417444.84,-55908024250288.125,60602654255530.36,-11.880530306299047,41052069871691.88,150567052949658.53,12104580157360.516,40552622120203.25,116394204240505.4,-1537311.1639271334,-4277898441071.1147,81334897440883.98,-191668983350.3105,-58551623405195.266,-138463181891908.28,39483292554907.15,39205942512276.23,-105053422025810.11,-262248443325932.8,-34893344052407.72,-4954322257782.148,-17439588182677.61,30239795871263.938,-7658597688234.923,119855151524323.28,30644916126726.293,-28009593993437.492,-45563811591305.74,634578839842.4503,-33361302528828.508,-26778949125151.38,-57418903292717.58,3476192668191.7036,-43706864537677.734,-851529751438.3898,-8307182298862.17,-63292561677531.9,15343962293946.729,-108848525047351.78,-37797402834476.51,-56237122170231.914,-103383108441759.77,85605883396811.61,69361246258466.65,91608148540958.42,-1550624427864.8591,-131517807579000.03,-23682803743788.156,187553007112502.12,-115568106019445.92],[4308237765069.012,99282782048852.45,6037894776.43375,-27106098421245.684,41754091725583.734,46147416065352.01,558365205548.3235,-14092194991654.947,-15010432566869.988,-75128155530531.56,56066571715026.52,-56201156122989.49,12278195667156.723,-24834547066565.59,-60837940401236.805,-20237904755777.895,-45148628335586.445,-6698317840033.403,-57001349042115.35,113062926011399.7,-11234182757372.088,-12632344890901.367,50745692338354.35,-49595603734623.39,14579199065360.758,-63197923494064.164,-178572293069140.97,-36447231135207.4,110612653820472.92,-166726991659336.2,-11570917959.743046,176804570571630.97,-53519487942683.51,40139253375480.836,-202698236193783.8,-12219304860971.316,76552801635762.48,-7874290207806.409,2262986033818.931,-53348469874479.67,-14321897586873.65,54685620321357.09,32513488797913.09,-125041241453769.83,8329436701780.41,-18945578286011.082,-27854296814293.715,-2408489082475.3926,-18919582642484.85,-28314864059308.902,-5608794689472.991,108520316084552.3,33015010178572.934,-93188347914745.72,-79623333077054.47,54981833601656.664,-17694926437375.805,96466677679290.84,-44062635808897.234,-41799390068944.53,-100686119930290.88,65493222480777.49,233263363659841.94,95920969244536.31,20201562048662.496,-18561162796667.727,-47928668569608.766,-23625286768370.707,8440914226960.611,-2270788939318.145,-92337985712767.92,8069311719236.193,-56425341661467.09,103740845487246.28,-61195365342985.86,-108934512605252.55,-10496024382553.54,-37940726528442.98,103132025538904.22,-94370167065744.58,89081563007051.33,-2.5453371163360483,62010454874782.17,152161457578164.28,17325657544198.574,59335779289995.31,179618701422667.5,-749672.4135233047,4703367444325.723,97081369546414.88,-71572716879.16815,-115078926187772.83,-67642674906386.72,33320491959212.86,54068340358490.18,-53748102635548.055,-108935436713909.6,-17287369980664.22,-1871380282347.1736,-6548989643997.826,55396913850230.94,-25051691750192.555,73978690223261.52,55707794250976.64,-29358925786118.33,-19365161476076.195,-14974207721284.945,-31648306480634.707,-10048957416393.016,-52409960616606.97,31094078217869.59,-46449490037310.19,-1147236415586.5654,6600282677405.043,-61561668920932.1,-987412792340.7452,-74136731548108.61,-17596176260848.344,-59527539191327.17,-102497266357952.23,38193421080363.29,56793999146224.664,85481594500091.44,-11521667349846.834,-128060685290935.77,-180454938148928.38,201333284568318.12,-43896246070896.14],[-2371881814020.1646,-8075012681248.035,-620026660.2056079,-5303985952844.295,-17283651795783.787,-27707085243224.78,-72451347668852.17,22676548588209.867,-3853107521458.4126,-39865882676265.46,-29478681542061.387,-14622430889182.791,-43332163146148.44,39334025845744.34,24694977526594.918,31808756960959.363,-24730395115495.016,2271608093351.578,-9916102168585.56,-24013815407378.13,-39380659411819.125,19465879651912.188,-10133637802550.086,-83984076836789.61,5296278813397.918,-11886967511217.188,-30070210448430.426,1309820614699.2068,-23011348298900.477,-43513785028739.05,-48703104.11293457,-103738993793854.4,-63076974282276.96,-36378704146337.6,-204699675203720.97,20536027658288.582,2263400370809.7485,-1245886804789.308,-860930309115.0769,24167940189962.26,5337549103883.906,-24724690559782.258,-56264481750121.03,-36018094463056.305,-18169688661196.98,8675377509410.781,2043960195720.3982,1217271015391.6377,29806366038825.105,-41621017310381.914,4061015292307.833,-23422492915344.91,-8128436656083.916,-67505319923381.12,-23293033410394.73,-49078928394159.42,7319762535070.276,11164973049787.002,-8832910377290.557,-39963770379850.43,-33675840595815.992,-25901245200165.344,-30841369929786.67,-25915092017688.152,-1825277416458.172,12469536411073.648,-52523169693262.375,39928969762078.71,2485727749414.199,-9816763291010.467,-27320761219256.875,-2901718922527.894,-72806408086659.31,4876450007287.831,-23301438499328.094,-16572496718052.969,-881091960419.9596,63045116286565.73,11825487727032.164,-45035431933765.91,-36922924817458.43,8.236854378688676,-26459746155145.703,-38806978170679.15,1204454237149.7388,4017232051414.6704,-81970206117464.42,1250440.4373575114,3255446076894.65,-108676798649233.66,120276660093.79074,-92754642203580.55,28667842148559.88,-8049121480020.725,-13515883597965.041,-34850408362506.277,56467103628114.87,6880222519978.845,3132932877205.1284,10887565791153.023,7252457512999.711,-18153202134974.965,-36207432278329.125,6644700761841.2295,-5985442008065.505,8319617033825.07,-3187708050274.918,-4121329363426.671,16557449317497.691,-12486988751285.98,-7229956579.733325,-17765200723119.22,103864729346.0567,-4898809817141.258,-56072815417900.58,-15295690064801.982,-41018120692015.09,7644918650499.401,-23167726025382.773,-28245531778427.855,-41275692433748.94,-13888432422520.457,-57230355871190.63,-2821707245677.061,-26405668503593.984,-140716588609359.4,-21147704362575.016,71152451841612.39],[-1948193409756.8098,93425551195042.6,9207028161.979042,-28931290584641.953,116671317466588.88,31039915874995.59,-18751020812308.57,16476264283981.691,1189571322458.155,-91609758924547.83,11392454476811.39,-93521438111933.92,36031793921927.44,28589989324546.523,-31514787485591.605,23001902174785.08,-54993727553056.305,2063296535989.0044,-58425814610320.61,80030300905917.75,-77231193350626.05,14304424557438.162,38638421118689.59,-101577779014334.62,34686083867303.996,-98123519686388.34,-174195935186782,-6399465509592.178,64414288051505.12,-207105561325389.28,-4083220945.2733426,160929321389193.75,-41337942770513.484,53496365872597.18,-389863754247107.7,15064233907244.643,142593305286571.34,-9651854942021.305,1000802665549.8136,-30196398620160.184,-7613504613672.648,-132565280716.52069,38585137866154.945,-134219536922842.62,-26689404858614.06,-9803691987537.873,-1828785688001.7803,1088137885203.0358,22038522710404.883,-9419712203835.242,3071137867025.3184,132234985867798.06,42463623919667.68,-129156644018908.5,-130768939705419.47,-54487309243052.26,-15167822283079.947,172828895011386.66,-67975787333945.12,-40359505855605.195,-50738210685407.82,110389463786171.4,242980744324180.9,159929885854380.12,23954546368729.027,11201053141072.396,-48256852940390.57,28490379261519.152,49900501346622.33,-19455511445948.137,-112589536528418,1717444564397.0933,-98204857523027.53,190121948298734.2,-89407309260533.52,-78858476119701.66,-8009262251045.771,46892835519286.08,208755612242925.5,-161644108506181.7,121621106820286.33,6.494593446512047,85574671971993.86,131010482063975.64,33100540988253.656,116405115681727.55,245430604580103.7,-7345791.598086541,13269427560846.635,78275418507889.5,86975976878.75949,-242060727136948.84,-27022664191814.035,23368089962904.547,68530267362976.87,21395414245942.043,-40791887135221.03,-13233919484614.31,2249727752828.757,7925096084129.033,105328952738515.95,-56064613125203.31,-26011506522196.68,112234709751807.92,-32382452159097.844,-11371855583034.39,-24284842220950.12,-27739521329336.656,11984174000832.352,-53525885496738.81,77331857713294.84,-54522375816082.914,-1280352260341.3005,26395852010793.64,-79529959623472.55,-29349120215566.92,-29513356107775.402,-8317549239269.178,-70518906183862.67,-113776008214339.19,-55772994466547.79,28377318867183.555,43434709590411.02,-17758510046612.27,-126253280055345.58,-354934415990187.44,207453056378491.72,51610665042364.9]],"weightsInputHidden":[[234011567598.14948,1602989274680.9653,-52326934953.621155,1162092323517.4548,-393573036113.6318,2178246943439.3577,-754468048830.7201,3701234279673.8423,0.07723744247825401,2878450990996.952,276329669663.7845,890614209157.2505,-1098628638974.6565,1180648232954.995,2864746636862.9277,-754468048830.6786,3701234279673.785,-0.007181378968005379,678048725249.3981,1833473464158.6287,3225835136203.3613,-2790591094768.2246,4275676398629.6045,1461680926981.771,-754468048830.5692,3701234279673.928,-0.07533328413035374,4994633388284.8125,-421427295585.84564,245247507802.79712,-1871687369658.7,4155707493660.0327,662746106841.8881,-754468048830.6151,3701234279673.9126,0.050389722441059284,-117506796098.48553,-77688626839.31444,14903214891.056988,3127058438889.893,177025598573.40857,-357317806620.2418,-754468048830.6161,3701234279673.7803,0.056489371176826904,-811725170159.4269,-1058970140805.7051,-1069228896000.7078,5886690437809.152,-1572985969582.2358,-1366938237383.661,-754468048830.7289,3701234279673.845,-0.06770764543671341,-503250446564.29517,-270707625794.63412,-336041122340.12463,4056765425542.0527,-120722772235.32343,-989276422463.4713,-754468048830.7416,3701234279673.8276,0.0900156609937023,51629368896.486206,3300808144.550255,4834062761589.893,-1942226707787.789,246819257390.1884,4642173681240.636,-754468048830.7103,3701234279673.84,-0.09257615944531801,1416994959047.8467,-332200407365.2168,785666149803.2451,1076305529357.2024,1481916270825.471,388544430660.6076,-754468048830.619,3701234279673.8022,-0.017772090878232682],[39842884593111.625,70505320764728.94,-244432660871.39087,-70470795691131.39,-1900389000942.9407,112004161697912.12,7142572542423.121,32490404463414.75,0.07867630535576686,38083404877032.41,29590805467884.508,10471347390015.365,-38512580729094.28,32954350878409.824,45191206856522.44,7142572542423.1875,32490404463414.72,-0.039327763206629424,19984296734122.52,73130065493632.95,26891808976249.934,-80373194198167.55,126701308327648.8,-6695137123643.404,7142572542423.172,32490404463414.72,-0.02135262578867231,80544169675390.88,1767537867364.7053,13148113579520.34,-55826844116437.98,28076871800170.17,67382949322105.61,7142572542423.197,32490404463414.688,-0.06005177919548346,-2147024058109.439,-7246912020075.493,-1929753229577.7983,50956666313600.65,-4426628386023.405,-6897060921739.206,7142572542423.174,32490404463414.86,0.06512959375416491,234192939218.417,-20759756977539.05,-9962175636113.568,70120716680271.875,-7792809549113.933,-22694930125320.086,7142572542423.148,32490404463414.72,-0.06461415481897882,-10969114791775.23,-4485312377699.256,-4866519924015.758,59953924099328.18,-8403476474543.442,-11917470618946.787,7142572542423.119,32490404463414.734,-0.055933934933347265,5077756274091.206,20546936443063.88,90343201377715.48,-76334917089032.66,17839219529488.832,98128674565381.8,7142572542423.225,32490404463414.71,0.005874845536022163,-1073638782064.5404,-6567521060008.692,-18576562435033.867,65850699282945.06,-11954071579080.97,-14263650698026.096,7142572542423.049,32490404463414.67,-0.02448680709231184],[3441476143.2302375,5227561708.199945,-61102780.31619624,-6880036154.436468,106162304.27853057,8501772766.931178,684210912.6989378,1043688004.0890201,0.01989726513024998,458243492.3367524,2281830646.4947166,127893766.51293314,-1140068988.660524,1939497606.4907749,928470298.9684253,684210912.7406551,1043688004.1402682,0.007616476701537871,1499573637.3733342,5143610115.724087,-873723858.4131275,-4041560978.1328425,8314445369.357334,-2544985474.4467525,684210912.6744565,1043688003.9772786,0.022034575728658072,4046127702.1579375,427048212.18827665,943977021.5821577,-3689254019.1536694,79326687.81868446,5337826248.004294,684210912.7832686,1043688004.0291313,0.005306221215859575,10730869.975547355,-634164294.1084741,-58317025.219518945,2409649366.148868,-339335340.48556054,-342415108.7425792,684210912.8415316,1043688004.0397929,0.09009796718023784,6882798.336202033,-2111928639.2659512,-546041391.9750663,4378986149.874043,-524297066.0954478,-2126790166.9214854,684210912.6731173,1043688003.955088,0.002139069826427736,-695039720.4571896,-460155864.09807265,-517344195.7398505,3400438697.021451,-988268581.6520065,-684271198.6720814,684210912.6919476,1043688003.9938034,0.08350353474598958,352194396.3805795,2079080074.0799313,4034288438.836852,-4737663992.334852,1331768963.4268775,5133793945.839411,684210912.7552193,1043688004.0381039,-0.06773980320540962,-862237614.6972016,-570358786.1042829,-2295747552.065391,5456242869.585048,-2485771156.3244386,-1242572796.4671717,684210912.7753643,1043688004.114756,0.03657220629932942],[4317661773106.71,17936517145294.395,1748464979318.6438,80162464618732.52,3135801990974.7803,20866841906745.1,64529157052711.31,39635951463740.96,0.014183609332392124,37982023147379.98,4055793762686.258,12225161046900.426,49902130559485.65,19580621677028.008,34682356279938.516,64529157052711.33,39635951463741.02,0.07478691585324555,4346051910797.444,21974768373757.758,32118292757240.676,45725995474656.31,32287733923938.855,26151379117856.945,64529157052711.17,39635951463740.99,-0.020083175224538608,79864188591240.52,2957716786036.7065,-1032134347625.4305,22375337486800.227,63008943299834.15,18780827729817.79,64529157052711.266,39635951463740.93,-0.08074145351751391,3640390892130.1587,8581216774726.485,3287501012633.941,88655999836961.42,8116968071321.842,7392140608168.904,64529157052711.2,39635951463740.99,-0.05512257705728258,6952982429304.836,21814461849167.87,8450859141834.038,66946805096145.48,16193456617902.709,21024846802404.004,64529157052711.25,39635951463740.914,0.010529531084764792,11629030952982.29,10748043589266.436,18968392478962.1,62819641495241.48,21866724741770.582,19478742279440.164,64529157052711.266,39635951463740.88,0.05936853800402158,1003255015798.953,1418836498599.1292,66778617385440.016,34964399616614.242,11919484536357.844,57281224363480.21,64529157052711.31,39635951463740.914,-0.07269181928955243,15901351136876.107,8145709754069.142,26058800740243.727,54059246885263.164,31350588622709.02,18755273008480.008,64529157052711.266,39635951463740.914,-0.08097271590109287],[121548095410748.7,256869831081016.4,10536599607253.438,198515688614998.8,17748660650598.83,371205865448419.75,349227980178517.8,238242234535499.75,0.08905874794492442,244810256551274.28,97986641819335.73,73183389601047.88,171489926742359.44,171068129804358.38,244912158167299.22,349227980178517.9,238242234535499.75,0.02572526826877397,63888907100691.484,275337402284371.44,172912245182757.47,75331660146196.84,425163772097775.3,86974782470044.72,349227980178517.9,238242234535499.62,0.008221782444074337,537522672799355.25,24666453878877.63,25069218757588.45,211869278195.8988,320794186085288.9,266464159350532.84,349227980178517.9,238242234535499.75,-0.05498289685859207,13316438223349.379,22502290254824.207,10252889361248.785,541398596874594.5,23554910962349.688,22516706877072.734,349227980178517.8,238242234535499.62,-0.08253808449247481,52276520518286.77,82189509075215.95,38931237964051.25,414072947156462.75,96544982901783.98,76852284655769.81,349227980178517.9,238242234535499.62,-0.08639851662055437,39925824691752.75,51311640383734.58,92041288706087.92,404191460932441.6,95827304871431.53,87451448910143.77,349227980178517.8,238242234535499.75,0.04580893955719419,18107331622100.438,61625986215251.766,492020073173523.44,15716823703140.652,107771147201739.36,463982243809136.75,349227980178517.75,238242234535499.75,-0.003031754148993435,54919133031448.58,32454436864650.84,68084206693802.805,432012438124114.75,104972668500191.08,50485108089711.12,349227980178517.75,238242234535499.62,0.04551875473721967],[61110617040701,142347917184733.56,5491188270264.566,126890759531728.6,6203746038769.665,202745976456929.75,179602837521906.06,156237644505521.84,0.019589809779127186,153390412557847.34,51379178791255.41,45955186974494.68,85115703703830.75,98065108814965.58,152659669508631.62,179602837521905.97,156237644505522.03,0.06410089470038684,37127588998732.7,153836584492232.84,119221730924614.38,25654577611848.15,247969338185403.88,62216566230176.13,179602837521905.97,156237644505522,0.05927420390232682,320943999292874.06,8949654883029.354,13819617425005.568,-7872789573481.436,203938491512463.53,139774780088445.88,179602837521905.97,156237644505521.97,-0.019863877830495466,5927539527883.51,11992133878668.4,5479290796926.262,312441517823949.1,13984490536089.414,9414473667388.578,179602837521906.1,156237644505522.03,0.06975317240686335,22157573615442.805,40107014175469.03,13865945335750.709,259709948900765.22,41324315393865.18,34806217732797.49,179602837521906.1,156237644505521.9,-0.0815549420615814,18521632620567.434,26428597124616.54,47672946329058.89,243217305953185.1,52356312034290.39,40266864039952.47,179602837521906.06,156237644505521.9,-0.09317159051405174,9623484168027.273,29565337075913.887,295079436746532.5,1572224036953.7725,57904989624148.34,276363268366325.47,179602837521905.94,156237644505521.88,-0.06474553244572386,41784915110262.305,15962557213133.443,45973169579115.1,232119840124916.62,72131598323846.25,31589043578664.688,179602837521906.06,156237644505521.94,0.07221763859797571],[140933304624652.25,350787592183723,17277172593863.209,503430802208495.6,23870848064295.54,485127221337942.6,572233291196724.5,440195580414008.5,0.010248187871842776,424597051910644.1,120704343408708.44,129392322575109.2,337735153716272.06,262092957775108.9,412600760119352.7,572233291196724.4,440195580414008.6,0.07517727976455992,89575040526679.98,384218521935794.5,331628762171860.3,207006546976399.28,604592414211654.6,200829910422680.56,572233291196724.5,440195580414008.6,0.032294326844480775,899338490651092.9,28529466158617.68,25178314554207.05,59382600246816.46,602889758244638.9,350156513119278.56,572233291196724.4,440195580414008.5,-0.07672424950987926,23391582321775.54,49866848159896.36,21029405939997.055,918141035189064.4,52153100388191.56,42134736033477.5,572233291196724.5,440195580414008.5,0.024214583460121907,70186320025165.14,153690398197118.03,58740590293299.555,729811563095151.1,141820000954206.9,140797307561375.78,572233291196724.5,440195580414008.6,0.050253384923831336,75472531749976.38,89198884882007.92,158038965059102,689718489919647.9,176345710849526.38,146364670841559.78,572233291196724.4,440195580414008.6,-0.025842018029534744,23215914107289.812,67486173529671.664,802102348639550.2,119624435334222.45,158260756852168.75,734543679424343.2,572233291196724.4,440195580414008.5,0.06372142067009465,130753822176714.28,59368464518592.836,170429520406193.28,651877064509234.8,239715774328866.47,120836032772634,572233291196724.5,440195580414008.5,0.055446832797293726],[4078620703867.476,4720704832272.23,76440287273.33276,8834843568987.156,2586697124577.7295,6289068698835.14,29235913792950.14,-11525304400550.06,0.0661969366629826,7735663051686.784,1923960697806.8665,4109992265972.6377,3940993376933.633,6667696566890.308,7101919448576.245,29235913792950.21,-11525304400550.06,0.08328057246835817,1273205445107.0188,1464659665892.0205,8600359236932.447,6372385044468.673,3908261639895.7856,7429962708035.5,29235913792950.188,-11525304400550.06,0.05802843971151087,11768059183115.459,2132691312505.169,954695852682.956,2855163044096.62,8671200172134.539,6184246176169.014,29235913792950.227,-11525304400550.107,-0.09171165798182136,3649067528516.4443,7264027350019.662,2715215893158.6553,4082298620705.467,5311853451741.85,8316457319952.858,29235913792950.266,-11525304400550.094,0.03503568845678416,4713874274686.324,3341986507688.999,2083664585255.8293,7571084024769.026,2464254036347.4204,7675271331283.776,29235913792950.29,-11525304400550.049,0.015703226151994452,7584138635023.411,2487812939804.6797,7759293505101.552,-120635687529.48705,6749017162572.765,11082227917356.85,29235913792950.29,-11525304400550.041,0.0559496864304474,811505124181.862,3293131983484.7905,12313316303638.906,1292655981094.5125,2828164963921.3604,13589788447384.312,29235913792950.203,-11525304400550.068,-0.03747132834521501,3594620312686.147,2355233531613.514,11823457418454.348,-62701870353.81265,8649734163418.686,9123577099335.156,29235913792950.273,-11525304400550.12,0.07785216128816158],[22445646171933.332,52001711326762.65,2847091032010.6035,86397869184815.05,5323077567171.381,71971370963535.03,101692432296028.08,61999885419493.48,0.05485773099293429,63496521885757,18057894537473.17,19653840462387.973,62484060829903.5,39903075079577.75,61305181806040.414,101692432296027.95,61999885419493.38,-0.004709912590066924,12712718112792.906,57946791658442.25,48040816049141.35,44991991895145.086,87457812425065.94,31242513395310.594,101692432296028.02,61999885419493.46,-0.08662963692479192,137676112674457.62,6484849654399.767,3130434926165.93,16400920460497.752,92313172869292.66,54978224385731.12,101692432296028.02,61999885419493.54,-0.016475168906655138,4887055439261.853,9891857231195.482,4025144624428.628,144888260420635.44,9557298902842.19,9246758392043.598,101692432296027.89,61999885419493.445,0.09293374391349028,13620313298362.234,28615858626585.34,12635899209887.236,108820246580686.33,27356487404141.293,27515583730693.58,101692432296028.02,61999885419493.49,0.005716826898136072,14834849783629.23,15687910720207.016,28097932837828.21,105071624373856.7,30417523730577.676,28203169611086.66,101692432296028.05,61999885419493.43,0.028921250348821287,3521116226887.7944,10842309378900.115,121910216975335.52,27418675134397.812,25074222306354.88,111199420274768.73,101692432296027.92,61999885419493.38,0.07010508350960057,18793229456360.09,10958342332456.697,28643686951071.996,105297058975632.72,37394214963810.93,21001043776077.63,101692432296027.95,61999885419493.414,0.06510368236337666],[49794811200861.31,148429524594020.75,10087980075803.117,360124374018685.44,15035148043608.924,193277167827076.56,332383809778295.56,236052880111075.34,0.026538794512909223,221390997681825.5,45912554397011.58,68743681732650.375,232389456077883.47,127373622580587.77,208673611230899.6,332383809778295.6,236052880111075.28,-0.06151040605689504,36898768746051.55,166671091913958.56,177594065681358.38,187272763548002.7,255160030321777.22,126003896019591.19,332383809778295.56,236052880111075.34,-0.024999364514701524,468569907687192.9,14903022954561.426,4099888371898.413,80863870875717.88,338023370518921,149549448494731.78,332383809778295.56,236052880111075.34,-0.018686688018958585,15565904081657.947,35630150053661.06,14127180257743.14,503113455496308.6,34954487732465.984,30368746660596.21,332383809778295.5,236052880111075.28,0.048915327520296634,39353013935418.96,104856970019646.33,40700990212963.65,383525715721342.5,86279758711315.05,98631215456713.88,332383809778295.56,236052880111075.22,0.06717784872860227,52619152187737.04,55094113827109.5,95802168460622.39,364921255413901.9,109646026409411.45,93869408066057.67,332383809778295.5,236052880111075.22,-0.0879342152126201,9385538478034.156,22545600047540.355,403076956192671,133428595171125.27,77987433225020.7,357020661493225.2,332383809778295.6,236052880111075.34,0.07345835275000245,79814919130112.14,39454070060731.39,117198087458089.62,331969613240437.6,152811061013437.62,83656015635495.75,332383809778295.5,236052880111075.28,-0.03865913911647949],[36969866974428.04,93207868574838.38,3165373316495.355,66216026474588.89,912103930811.2479,132431004934950.39,90321871941773.1,109237263398577.17,0.02095015683295554,102149557505149.03,33263343411651.78,30076122211192.62,34070112212357.06,63043486457521.734,102445536670471.73,90321871941773.16,109237263398577.14,-0.04334896977583621,25231179526183.914,99489035692342.94,83069149663155.38,-8230229541331.781,167176369613807.6,40612995267874.79,90321871941773.19,109237263398577.23,-0.06714926442844973,205504657568004.2,1893452192889.1016,10050272538523.527,-17889246959066.445,131258765638129.36,86189616661287.33,90321871941773.16,109237263398577.27,-0.09753296066447242,1426263460101.254,3901398986297.896,2046190380568.0718,192185282513382.78,6219353288341.811,1154499538625.529,90321871941773.14,109237263398577.23,0.02621633491029824,9292275448617.777,17383119790724.092,2491132636727.097,170392607464281.2,16707728589450.178,12458799286618.777,90321871941773.25,109237263398577.27,-0.03142268978552652,6110244946251.475,13418252429633.168,23822552508631.434,156208085455834.22,27750904886325.664,15600144998190.285,90321871941773.22,109237263398577.27,-0.07388987562208496,6197379577784.956,17414198078909.26,191474707606558.75,-15527149922902.277,35282758193998.02,179803527069254.88,90321871941773.2,109237263398577.17,0.07157404284870267,29213391031563.59,7038619340810.849,25694046364642.85,137613078603333.17,46013846379632.99,15932210357384.057,90321871941773.12,109237263398577.27,-0.00876941308954513],[-6571836955446.313,101032961531096.14,22223526248953.82,-56049798827542.97,10192758074362.514,106491892750241.02,-38732546277178.83,99367398274239.61,0.02504822974711449,97545539261301.12,62072484985725.17,17033240158514.92,-116016412408480.25,74486505728462.44,102164758677078.78,-38732546277178.766,99367398274239.52,-0.07126490458859251,-294447362646.2959,61083998130756.61,38622187895230.305,-38776886666280.12,84403245466000.78,15008493197339.92,-38732546277178.91,99367398274239.61,-0.08576069051021011,69947351817944.74,-22029976601041.535,14744027288591.896,-2026550508434.7476,-19424166213847.953,82085568719343.38,-38732546277178.83,99367398274239.64,-0.0028931981561552615,-19533691996878.633,-35129859171651.36,-17978713353863.656,133277116519454.28,-46098926000725.234,-26543338521668.125,-38732546277178.89,99367398274239.58,0.04177807419305547,49105915977168.05,116504744662258.2,41598745515196.484,-146574554157561.66,105373350617378.22,101836055537244.23,-38732546277178.91,99367398274239.48,-0.0685279052684507,7030174185804.719,53045014341050.445,53617602209673.95,-53057938739468.414,74616566185826.36,39076224550702.76,-38732546277178.89,99367398274239.61,0.007666851694644259,6621443777461.812,6390308402847.07,99184275767832.05,-51561175951080.37,58222714052399.66,53973313895741.375,-38732546277178.81,99367398274239.55,0.010575478268342717,4172965651255.7856,35176676243649.523,-21567314145657.3,42852524247812.6,62722528213275.39,-44940200464027.25,-38732546277178.81,99367398274239.48,-0.068721744820358],[121635120810878.22,284149065872321.3,13254829922472.988,345229018750990.94,19922550047723.016,399116466557949.9,440924278663536.44,323343756693127.9,0.07134760502238645,318294659165616.44,101511635148136.11,96532420052164.44,247929320990746.3,204487527018465.94,311851187347450.7,440924278663536.25,323343756693127.75,-0.09208483090795892,71763704122283.42,309085706853833.7,240994734685862.72,142423889694683.94,482212212232611.94,139631933429367.83,440924278663536.3,323343756693127.8,0.0006120214316250251,682805457617501.1,25153141925365.125,22775886515793.535,33533549298004.418,442439885667873,288294600390786.5,440924278663536.44,323343756693127.75,0.03384980096977495,17858134029389.836,35613946578048.164,15295229645946.127,695500725103279.9,37076027546774.836,31691282706609.16,440924278663536.3,323343756693127.9,0.06071999630427562,57987593081149.56,114237190654131.61,47038300332681.945,545004951288700.7,113679556004200.67,105583528063762.5,440924278663536.3,323343756693127.75,-0.02572577547100928,56182292548469.25,67490499611750.51,120070598929157.55,520524644267286.4,131091124376205.17,112652266713172.16,440924278663536.44,323343756693127.7,-0.09503436670913575,19244631318934.965,59642730630868.266,613382167413650.1,71998505993209.88,125498702595693.1,566770826767760.8,440924278663536.4,323343756693127.8,0.05473112319114955,89988699364822.23,44397006848002.61,116983195258770.25,512899133885068.9,167320408644316.6,84048492827278.52,440924278663536.4,323343756693127.8,-0.06122339404810447],[7424150792472.704,7938047197126.359,293691148831.5185,15057148212082.693,4408423641982.918,11247465496447.506,50732898100921.85,-20019860750408.676,-0.08398105386692534,13073075601360.643,3112904458925.0073,7074261457070.186,7452795833157.256,11276247585189.646,11983993932166.176,50732898100921.82,-20019860750408.676,-0.06199857329307366,1886074389974.139,3110245134457.674,14388915250822.785,11327802575258.344,6723529692630.936,12661705082623.795,50732898100921.87,-20019860750408.65,-0.036600511288086016,20138184237025.953,3814163620577.913,1562765320213.1743,5197924172696.163,14505256859806.457,11009856318010.492,50732898100922.01,-20019860750408.75,0.062332157863068206,6244673401403.286,12329139499520.938,4564149821097.758,7575074628490.926,8878838831986.227,14259123890035.77,50732898100921.98,-20019860750408.676,-0.06804330277388677,8029817822142.465,6384740989909.098,4017178632129.065,12281299906332.568,4752387789155.077,13679349655025.312,50732898100921.945,-20019860750408.695,-0.026572612894647393,13235516963897.938,4629968475106.178,13255935190055.477,-408383278546.3341,11745000524444.988,19376420104614.492,50732898100921.93,-20019860750408.688,-0.02514282101384406,1760602751361.4907,5406418918528.919,21063375817684.793,2482639862937.942,4438840238177.694,23791557249397.242,50732898100921.93,-20019860750408.71,0.034735371693330436,5831808687252.627,4077561848145.872,20401060236647.133,402606578467.171,14751388191809.004,15559042580236.734,50732898100921.914,-20019860750408.707,-0.0006885333871348438],[1564362053060.1763,105106138040538.58,20205434772930.734,-86421978653987.78,15542116498574.223,111333818367955.27,-20834477637824.195,61288433850365.94,-0.014844450955552356,62494622788528.98,67083330158160.78,27823133655770.16,-116947130389918.25,70733481819458.88,86667604783001.06,-20834477637824.21,61288433850365.78,-0.08310386715363775,-1291449776007.8325,53803895337847.12,30961798003728.457,-43020287353025.984,76391302964008.45,7082940601559.215,-20834477637824.133,61288433850365.86,0.07916722034849415,43004269720659.164,-14700519789665.902,18888887258875.418,-6738680977326.909,-62591531846533.38,109784169036401.95,-20834477637824.11,61288433850365.95,-0.07618318787383885,-22377662988226.875,-42701567934445.29,-25990225208183.195,131523412343397.22,-59930598411058.12,-31138857719797.31,-20834477637824.227,61288433850365.92,0.0016825521468293116,70105572133199.43,139494635804508.06,63928604162649.39,-233074855887815.3,144308661787446.44,129220150312910.36,-20834477637824.234,61288433850365.89,-0.03361548552338319,8771824702142.416,46558569545699.8,47463853273679.96,-62340291308980.516,61272683656068.9,41521563865453.28,-20834477637824.21,61288433850365.83,0.009218477037388139,6216542670666.789,7513866184113.154,80012818858973.45,-53289271501211.74,56363198865127.55,37380028848625.79,-20834477637824.18,61288433850365.83,-0.027830103844287125,-18707950564145.703,36990017792482.75,-40395262954248.97,62567151938453.67,37893350878506.55,-60006546604418.58,-20834477637824.156,61288433850365.83,-0.02682290946517891],[5775988654461.035,6921961399366.024,221573865918.1283,11994927193618.023,3621460553262.482,9298063366482.6,40990037757268.35,-16075586643905.344,-0.031137195837071557,10659960635054.451,2455409557790.5493,6158035623245.394,5641045297272.693,9392253903842.896,9881151912247.572,40990037757268.48,-16075586643905.266,0.09606506207176477,1833074894023.5989,2719671491460.928,11294785096104.111,9066919631774.514,5612403625728.75,10235127855859.887,40990037757268.38,-16075586643905.29,-0.07632432991508098,16322114974242.887,3092711657194.696,1285948647600.2175,4213675834325.285,11510342920143.799,9190432358894.043,40990037757268.51,-16075586643905.352,-0.08384996085699753,5039419808986.988,10034591220434.61,3719049603134.8936,6121390480806.481,7329142863647.602,11463917768909.057,40990037757268.49,-16075586643905.312,0.046510960495058526,6288446376438.326,5120158070691.171,3164381663779.581,10341465002454.064,3721467821645.81,10851518289263.264,40990037757268.49,-16075586643905.355,-0.09036605550350604,10996323939670.068,3990732880363.1997,10524226298056.826,-596832004726.9197,9627659501782.8,15883623616307.135,40990037757268.414,-16075586643905.266,-0.04394811446769122,1393017373686.9595,4372108280056.8613,17149155785414.521,2000169674204.8467,3685733178216.624,19228548260941.676,40990037757268.43,-16075586643905.332,0.003252762387918179,4911958253916.331,3175707694911.1885,16836611384673.078,-9826220137.56926,12237276010473.355,12687001323027.387,40990037757268.336,-16075586643905.344,-0.06224167047670767],[29328007869569.797,88150737153244.48,6067718151555.604,212309654415635.4,8932757597701.83,114613705576668.1,195679705088930.16,140176412501075.52,-0.04877955722656791,129821089208139.8,27465777689900.332,40214554881346.44,138354695810619.11,75316642375292.28,122184779404094.08,195679705088930.1,140176412501075.39,-0.05497305010156975,21831729311948.504,98317892541629.11,103292617055390.98,112413878681036.8,150064328181234.16,73377910727734.53,195679705088930.22,140176412501075.38,0.01628860783893171,276130339159692.66,8653262073619.701,2395316165420.6533,48677200191272.02,198480351408138.25,88698565990595.02,195679705088930.1,140176412501075.44,-0.0003969117460171078,9044340016951.812,20626366939625.477,8207890619973.41,297977520013453.94,20244305926915.027,17634291649635.8,195679705088930.16,140176412501075.48,-0.05255061632720872,23450234220059.77,62348836811051.6,24424009533282.375,225633037025611.7,51618758794500.82,58604321769892.66,195679705088930.1,140176412501075.39,-0.03415239038253101,31096355438588.016,32732935229853.48,56555429385993.766,215471397535570.4,64854098215089.69,55530621839345.4,195679705088930.1,140176412501075.33,0.08886966754209012,5581770526439.952,13502908057709.033,236548719614025.06,80222719391831,46420933082355.69,209212465115818.6,195679705088930.1,140176412501075.45,-0.0325365513579357,46858411947801.63,23445138800843.098,68561302090818.88,196991264750541.72,89796803172529.03,49068049666934.34,195679705088930.22,140176412501075.5,0.06917748063424056],[1826443442619.6025,3065443378782.4355,338848819153.09686,7401464772060.521,984392823562.6409,4246342816992.373,10872674267438.41,1759526145177.1084,-0.04693503618152443,2732641895039.3247,1385481589858.2263,856647567201.1173,7657429360516.727,2457144075392.0986,2517626976706.4395,10872674267438.389,1759526145177.102,0.09466045569081073,416009051055.9147,3346487842205.4424,848395289912.3276,8021308229441.763,3270991086876.426,1339901096297.2412,10872674267438.31,1759526145177.026,-0.034403426073781045,7506765938777.798,1113948123545.2993,-7089525718.715452,4018575876011.0264,4159318330913.9326,4454306205690.483,10872674267438.367,1759526145177.038,-0.09669421288320088,618206120555.1432,1061128728907.3721,378087599308.74817,10574777963844.242,729670762554.8203,1327751686216.3281,10872674267438.443,1759526145177.17,0.06376499915385696,2257807743147.372,4067631433550.753,2496597379514.137,3810163856403.1167,4509719884077.366,4312316672134.904,10872674267438.271,1759526145177.0269,0.06891697959541536,2061500917031.82,1847341829376.7488,3126246611273.6406,5597111054933.283,3116012760823.9893,3919076596858.188,10872674267438.363,1759526145177.0132,0.024629131847535814,272733621739.04578,1026211798866.2482,6058018603633.731,5275236388376.503,2140190923105.9673,5216773101133.159,10872674267438.367,1759526145177.0933,-0.08338555124283394,205335308711.8581,1467221655379.915,1925513799680.3027,9034129648843.398,1959314932012.789,1638755831759.4414,10872674267438.28,1759526145177.146,-0.09515999511931918],[2001354261948.966,21123292819638.332,3071932286989.0034,134642688933346.48,5396245972458.444,20800333396118.043,100648006607869.17,60191261694053.766,0.019577091222009853,53093103788450.07,3798970324818.5986,17116367963720.701,86830826224933.56,27200833061466.223,46807609015523.04,100648006607869.17,60191261694053.8,0.0062354480349452596,4540697157580.1045,25747521936854.77,43508534743625,87042514463863.08,34232156419315.02,39564597418744.805,100648006607869.11,60191261694053.78,0.08295568585148244,114993403402460.06,4222963042481.9307,-3256360187307.084,44879262044287.93,93174280319837.4,22785725937797.543,100648006607869.11,60191261694053.89,0.08589626325954026,5675199387142.693,13459752202837.504,5089526462015.376,136614790249927.3,12356096772537.562,11868381279458.184,100648006607869.05,60191261694053.75,-0.08546873415858028,11695708040107.352,38229859737932.58,15699498703706.656,95214201820176.42,28509499715383.816,37115566766362.74,100648006607869.17,60191261694053.91,-0.06780848900875337,19835850963233.53,18043636821131.88,30600790408984.266,92358990108573.17,35851883354774.94,32628394838574.82,100648006607869.17,60191261694053.84,0.08207364033051306,1094921245322.9996,329553875987.2488,91026288985538.08,68388504195074.52,17675907636244.992,74774856470603.3,100648006607869.05,60191261694053.91,0.012363384302989876,24359088018797.984,14071244198632.465,41748892429708.27,80660043654784.33,49740557473580.82,30438667173557.93,100648006607869.2,60191261694053.72,0.09668519807221683],[38433787277927.055,70350842266936.72,-1243512677168.4421,-59634253740065.555,-3485261246413.3755,111026378114108.53,1978160426537.1665,45928702701092.61,0.02662562417831617,41492474489427.25,26888533253540.65,12270125316962.088,-32744269932300.26,33244995262895.094,47406137797034.89,1978160426537.1157,45928702701092.61,0.02535018911452272,22087255194870.77,74101390514165.17,33627321536132.023,-81909104117538.25,134573758525209.64,-4757791280041.598,1978160426537.19,45928702701092.69,0.058813348489807224,95414388111547.06,398289094407.2935,12980102616342.854,-60885916694667.42,45660697205462.3,63132082616834.75,1978160426537.0806,45928702701092.734,0.006399170225564615,-1475534798246.0747,-6304099197014.768,-943188912155.3362,56629686035046.125,-1706023082077.082,-7016799825339.025,1978160426537.2192,45928702701092.58,0.024322722192049652,-6599921106098.812,-30540469576946.95,-16360133484145.895,101407387294821.42,-19908057184129.18,-33592466983062.523,1978160426537.1,45928702701092.7,-0.08421859278539384,-12805047521731.375,-7593016764306.692,-8324845560610.541,76629772974278.5,-11397750848186.07,-17325158998462.365,1978160426537.0806,45928702701092.66,0.0965933699176314,4477270316957.0625,20440363186301.69,100256708874780.5,-77267479250409.53,16086805300500.133,109087537077539.1,1978160426537.1294,45928702701092.61,-0.03620075472965736,5037066114576.114,-9320422234694.586,-14257864821729.764,66448084069477.92,-8139381420940.638,-10401839520907.62,1978160426537.1802,45928702701092.64,-0.07132202220917674],[21017283730754.285,80086194948318.84,4972416404090.813,198055411831624.5,3976141775274.33,102099753307889.7,156400174092274.9,147731132822513.28,-0.0446222381066897,133390939574146.12,22510920701592.664,41083165897416.98,107146280741632.61,70552809870582.81,126432216302572.86,156400174092274.97,147731132822513.38,-0.09009074399707508,21574964346902.89,90405479716218.9,115566530800677.77,76584332050988.95,149215156011052.03,78331818852747.31,156400174092274.97,147731132822513.44,-0.05584202054378281,267234040757061.6,2790978788480.789,2690032795442.4023,31416254573804.03,200165228306319.28,72549824034665.06,156400174092275.06,147731132822513.38,0.050148756763896504,6179328021918.655,17048483392259.383,6733143636422.921,274170351864187.94,18140569783208.535,11820385267392.395,156400174092274.9,147731132822513.34,-0.03162101424878572,13905816791274.887,48432995829206.625,13229360056917.586,228563134237389.88,32847831927812.19,42720340749586.68,156400174092275,147731132822513.28,0.08361959381362223,22883040810586.645,26394543436706.875,45775300904074.54,209078421763420.53,55470779151614.836,39582105999753.46,156400174092275.03,147731132822513.4,0.0174664455316347,4733642236786.929,7895873010326.061,233278806103163.66,58222985564511.99,39462151511681.3,206446169838595.03,156400174092274.9,147731132822513.44,0.0410133461468499,52076057030198.69,18180509566038.746,67102374610468.8,166772365708082.2,91966380142538.47,45392561064167.63,156400174092274.94,147731132822513.38,0.032491254020774366],[3710814504553.605,4019786825289.1367,122125904075.76776,7537713276302.037,2258664353703.298,5594062880215.3,25384528267714.85,-9994087757494.35,0.04098424435256073,6623669791475.192,1496291253405.6853,3541746951495.4487,3728732513844.2114,6042791923979.913,5618916072396.388,25384528267714.906,-9994087757494.44,-0.014075829244526803,989570656241.495,2031599655564.002,6521476528584.53,5847793669830.484,3520303042527.1216,6022343797862.9795,25384528267714.883,-9994087757494.295,0.042428626794044626,9945407819029.488,1884103446408.526,805389456043.719,2755539788738.7275,7122153404141.572,5512747317340.079,25384528267714.85,-9994087757494.396,-0.04195290919408157,3114999921923.4336,6011768574372.234,2398722110410.9897,3864949903513.816,4341990800291.487,7183499806414.937,25384528267714.836,-9994087757494.31,-0.033074859013430824,4070973746218.4937,2623163963032.4883,1979958727566.1748,6716344073403.446,1924512872821.3628,6749583563995.687,25384528267714.89,-9994087757494.47,-0.023095050802176154,6568164382796.373,2401910645397.5547,6562224981425.999,-141859499399.6128,5902459670195.227,9629840339424.803,25384528267714.93,-9994087757494.28,0.026769119764619917,865487467773.366,2824514084188.0654,10313295959019.914,1387142999239.0527,2099333894134.808,11903963616846.58,25384528267714.797,-9994087757494.283,-0.028741723061849085,2741081777050.2197,2051965781357.2266,10167004872558.723,430388079254.33453,7161847840979.14,7798204589986.977,25384528267714.812,-9994087757494.408,0.08684372612266689],[18002757346009.562,32506338732780.293,-519161925767.24915,-28784500092549.465,-1407500385331.3843,51397434538354.08,1342675495771.7222,19862758564701.562,-0.07843333246588964,18030841309768.07,12657610614061.479,5283055878061.695,-14766073741417.932,15159479565842.936,20812028236048.297,1342675495771.5835,19862758564701.516,0.07772927255750287,10054207718187.547,34024502688233.934,13975803053204.016,-36849079399152.09,61141769743136.94,-3087256283511.628,1342675495771.7124,19862758564701.61,0.00730563778591462,42326952031432.195,375985931298.53516,5990785344757.891,-27488289247015.543,19107105330194.41,29586617977294.055,1342675495771.5894,19862758564701.523,0.08281325808965412,-683515994258.3685,-3016533689264.2676,-485383435341.84503,25390867179337.773,-995826808394.4944,-3189606310470.0957,1342675495771.6694,19862758564701.47,0.0000657199207806291,-2560989884499.328,-13583895647736.861,-7002871144518.848,44353190737228.164,-8273487237118.798,-14874269439636.33,1342675495771.7036,19862758564701.42,-0.09079066441571285,-5741237982310.168,-3329559538175.08,-3667365582009.9033,33943597162968.348,-5194098657503.316,-7544064444991.948,1342675495771.602,19862758564701.46,-0.08649047667062769,2107915308220.5234,9645210020201.293,44585243449775.64,-35132934717724.36,7573282752034.46,48765086026163.03,1342675495771.6567,19862758564701.5,-0.022037172555507883,1592404026921.6843,-4135233825823.861,-7227362171609.886,30975626030985.336,-4597835006992.581,-5172356963519.381,1342675495771.7183,19862758564701.547,-0.09572506246568253],[119437853669206.25,324189172472591.06,17956592178208.28,593704222849650.4,24361748237675.67,437221870082329.25,595921993745131,459365847424524.6,-0.09071359345068185,434448099220358.56,105674438557428.42,133561280134676.97,381604023257191.7,257117528162461.94,416566289750002.06,595921993745131,459365847424524.5,0.07432988347842567,82990216868452.94,359114572120951.25,347694739626279.56,265488312553972.03,564525704380177.2,225273824235506.7,595921993745130.9,459365847424524.6,0.08172902766242009,914766158952000.8,26514733782308.562,17845606692003.5,96161341743343.78,638352266561145.9,320774232865165.8,595921993745131,459365847424524.5,-0.02961001966445106,25758173923571.05,57932294464105.04,23809084323880.89,947788288458098.5,59587430022267.43,47912122689289.6,595921993745130.9,459365847424524.5,-0.058413343485699765,68856257467547.29,170819676836650.66,63013147031056.85,752598759834400.9,145546958684011.22,157142122651243.78,595921993745131,459365847424524.6,-0.06289700306706587,84888638005433.62,95373096981247.4,167866762553547.03,707159343629428.9,190928429429951.56,157200068110276.6,595921993745131,459365847424524.5,-0.04051034030343312,20826275427644.06,55501774195378.22,804079319759131.4,174880471787502.1,154222011478550.3,726185357903604.6,595921993745131.1,459365847424524.6,-0.02255967281372198,146588903694122.22,65352958174587.07,198467778699493.16,644878200601454.2,269946555102154.47,140463085466048.08,595921993745131,459365847424524.5,-0.046335930279569955],[12351903988814.922,19841973272552.68,622386663928.5089,-26202435362013.492,940691375184.8312,31875572550111.113,5263984548685.702,1349844014596.7551,0.053042594589263026,3352818974893.3154,10411109119654.37,-80105234753.6756,-7069994296511.339,8381272877605.296,5302549982188.674,5263984548685.718,1349844014596.927,-0.06683654377071074,4200930793789.1216,18505766266061.99,-3538718983757.151,-12554149512811.51,26764304402695.598,-7596326326601.495,5263984548685.798,1349844014596.763,-0.09534740725956675,10698891538931.11,1673599022412.2705,3583043035124.5728,-9341705033185.363,-6175256441887.929,22130790038355.816,5263984548685.722,1349844014596.7463,0.08030248044774632,-848673060885.2683,-2896450616962.0547,-1324440166702.9731,11683392407832.83,-3141311731650.674,-1928252112899.6428,5263984548685.644,1349844014596.927,-0.05915775667732438,4774642829555.346,489564652318.3739,2439740360705.2344,-1090119279296.2219,6925637035753.614,778310806825.1094,5263984548685.712,1349844014596.7405,0.002007651598101878,-1148647886676.3923,765175784068.2368,701233242787.4154,6296067423103.223,-819549932220.5437,1137311072399.8394,5263984548685.659,1349844014596.7825,0.07346117261781342,1781480296866.6777,6950872159273.372,12333440204286.553,-14451964097144.195,6551722496363.972,14514070164062.682,5263984548685.663,1349844014596.8499,0.07369477142166225,-5990999123780.641,28938937034.49475,-9592811800941.197,22168700550969.98,-8563294309567.903,-6991577678119.402,5263984548685.642,1349844014596.7542,0.05361787709303494],[-9153720194915.395,119994257942345.66,24269647398481.676,-67078075071697.734,14762428397757.07,120347756748154.89,-38994571489653.8,107026681563868.11,0.050396633888618085,111187460759923.2,73979991290054.34,16450103376580.707,-133585445352344.22,79094181081558.1,122523374345000.4,-38994571489653.86,107026681563868.08,-0.01429905754781249,2186415146404.5942,66071879697769.49,48249436651218.49,-48475621421178.34,94761657772646.08,21746073722746.6,-38994571489653.75,107026681563868.02,-0.009718881063749287,81384062986220.64,-27014995593617.203,16432796435971.957,-2769753754360.897,-29124088907136.15,99925952735711.38,-38994571489653.92,107026681563868.08,0.06631266329324104,-23053042869535.637,-42302509816213.19,-21104049372633.195,154491712132596.2,-55122762959484.11,-31336839098897.96,-38994571489653.766,107026681563867.95,0.0582798027637237,58690597488554.44,130381753304119.72,48457942265248.64,-169498182983708.84,121367305652391.75,116162987405531.11,-38994571489653.86,107026681563867.98,-0.030194461312480093,7422928827881.748,59352503414937.49,56910618016624.664,-55653940185229.54,84644868075400.47,39041182184043.29,-38994571489653.86,107026681563868.08,-0.04541927498701588,7615100826305.502,5434442546144.936,113806063479422.53,-58823496777658.87,63237683464626.34,63617923387246.59,-38994571489653.81,107026681563867.98,0.039974555023576656,5599110882688.815,40064822339978.94,-26044203136575.58,48412379988122.1,70681350321515.03,-51061620235422.984,-38994571489653.8,107026681563868.05,0.0379571079454699],[12908275296673.938,78489674070176.45,10067615570404.527,431444538634384.44,18128533467308.6,83337031469946.5,334818130156726.2,198091973414913.84,-0.07554145547214973,177241770371154.88,16590063200746.797,57016877063211.984,282061392936525.3,93305377203809.03,157543333431304.88,334818130156726.2,198091973414913.78,-0.0018667896009927003,17280281030268.852,94193862756230.61,143557754692980.53,277878205092159.03,127521921901269.25,127509976578211.12,334818130156726.06,198091973414913.72,0.06709286162241021,385866054822340.06,15042843547261.41,-9021022876872.219,141022228078909.72,307009109178120,84878766314609.64,334818130156726.2,198091973414913.72,0.08059771004033121,18813965927205.52,43785147598613.81,16697679640930.857,453613310404889.4,40342553832474.695,38954239334275.5,334818130156726.2,198091973414913.78,0.006778142127518528,39440240891103.72,123729193911472.53,51418532898109.82,318322135870953.4,94365209479874.61,120222758220811.52,334818130156726.3,198091973414913.78,0.0902597691003877,64568995124251.484,59098590084602.664,100804309097251.83,308438209265533.4,117132402202070.14,107339492104035.92,334818130156726.3,198091973414913.72,0.060374954658748724,4288842750757.412,4462824190479.865,308590159152049.06,215568277478352.53,60610824264904.29,256731001828382.38,334818130156726.2,198091973414913.84,0.0848397145987089,78469892060980.22,45748783440680.055,134193326593631.75,274498101476347.06,160191386590900.16,98220615504391.94,334818130156726.2,198091973414913.66,-0.07389266620698635],[13792818857881.38,31727558791027.594,2511273763978.311,80644585488200.45,5881593132864.583,42150058280022.92,88214113477571.81,40462123423516.03,-0.0393578082902492,40337994317027.77,10864491589670.637,12809786030994.562,64663964963394.766,26725065340300.92,37287206597391.984,88214113477571.83,40462123423516.17,0.004422408083125169,6928112387713.205,35476625326241.07,27322462018988.79,58949037168144.69,47657195742308.93,22070003990634,88214113477571.7,40462123423516.12,0.07533801114572702,95206136828026.97,6446482743364.787,307447886582.2822,26716169443113.734,65176043089521.31,36784024368452.766,88214113477571.77,40462123423516.08,0.06645428984414244,4942713748887.787,9532947818810.637,3824754816504.039,110375820516885.45,8541286511458.019,9759129872744.445,88214113477571.67,40462123423516.02,-0.008935144024572109,12918814267300.135,28423883499841.477,14354784697853.826,72978754436092.12,27243112741789.156,28454369723206.297,88214113477571.8,40462123423516.055,-0.08955723527013239,15339759983016.637,14355354896446.707,25050874458468.516,73930247563155.94,26908903390534.188,27837085947397.793,88214113477571.83,40462123423516.12,-0.002576531791282728,2155582684246.7842,7225095967975.774,79074319429498.31,40221238819367.11,18616744090023.508,69838253991697.21,88214113477571.86,40462123423516,-0.05840939281607166,12760735851804.986,10764504751872.465,24551747876965.92,80599248420444.5,28888230510725.977,19188757969917.156,88214113477571.72,40462123423516.055,-0.04039691081397231],[34088622045927.375,67481979968091.45,-589858729462.6299,-53707835842499.38,-4187837371346.658,105168580655903.16,-2393501083306.62,49666408525363.53,0.014433269581155515,48205592865317.195,26163766470049.33,13812500106236.738,-40908951999546.414,33679954163886.707,54501905277716.625,-2393501083306.585,49666408525363.5,0.050029332408039556,20551718258121.844,70962806256597.89,41662695736882.65,-85904312809545.36,130115744719967.67,3061475531634.62,-2393501083306.458,49666408525363.375,0.07734239549357146,95993431757176.81,-1278749157681.8938,12437124178819.217,-59878899336257.125,47790955768642.94,59360851009671.11,-2393501083306.6104,49666408525363.5,-0.03208590224288249,-2719155132609.9546,-6867629853384.761,-1799207739078.3127,58658900167129.94,-3151946672989.81,-8234046052083.149,-2393501083306.4834,49666408525363.44,-0.06119178166542873,-4713402785383.865,-24067499942812.453,-14809845087075.45,90863655257328.48,-16049364088028.146,-27541383727243.586,-2393501083306.462,49666408525363.45,-0.09143684602895873,-12659523650903.941,-5983460071764.322,-7053460645611.63,72969351810336.8,-8789299820131.234,-16907144548148.725,-2393501083306.5186,49666408525363.484,-0.08125465942749972,4600024929594.759,17027685758223.04,103077610883852.67,-77432414129613.52,16149528402863.256,108555793168807.1,-2393501083306.6396,49666408525363.39,0.054935434695379357,6990271231769.421,-7768901936276.044,-11397282970966.793,59448821117530.19,-1573762874190.2495,-10602150801283.062,-2393501083306.4854,49666408525363.5,-0.034842064912614566],[4204459196122.3296,71549745778831.34,9767562672223.809,445351575442748.1,15168589183243.451,70353178463934.09,318768511792011.25,212104831297913.97,-0.07884761372282124,185709347422599.8,11749051028317.832,59572181214382.3,273842763424625.12,91909850173247.5,165120729492052.56,318768511792011.4,212104831297913.84,0.0724526087374332,16626901102090.04,87582031526362.9,157733001716793.72,268931408744678.47,124417523854581.72,137524410490664.92,318768511792011.3,212104831297913.84,-0.0010304977024055873,391750114360062.25,10837500967887.236,-10073177277712.988,138358905039689.17,320601665849667,71912772200569.31,318768511792011.4,212104831297913.9,-0.05538655618135045,17432329207800.33,43197162213208.02,16324472768554.771,453919378900362.25,40566719579269.76,36387244610293.38,318768511792011.4,212104831297913.84,-0.02113101721896236,33861566697026.926,120226103967204.28,45834907544797.98,330950764880896.4,84865123732598.34,115057454476430.84,318768511792011.4,212104831297913.9,-0.0874808243153035,61785300949373.86,57268075988125.17,97285964323688.45,314534001828737.56,115837062682212.2,100502278578975.38,318768511792011.3,212104831297913.84,0.055659313022271874,3522998108485.242,-1056887213231.4762,314148320119941.75,214258912074729.88,57045163338046.234,259569267677148.97,318768511792011.2,212104831297913.9,0.0035143891469579954,86299902161909.78,44250194434080.516,140256056328945.77,260067190164989.34,170184246939904.47,100621905985031.69,318768511792011.3,212104831297913.84,0.05104364826443863],[1915829213.315801,4983414017.679917,577434545.9068198,19458360842.792934,1429006680.4967542,6047671096.547589,19048363119.99236,7886675499.918452,-0.05170066118808696,6697445072.091921,1595661001.5889926,2183864503.0406156,16458068043.353245,4752551474.978451,5724419101.656353,19048363120.01299,7886675499.792554,0.0660169706016309,952476278.387397,5428619467.182818,3829796234.332829,16724146639.848175,6108338892.200501,4102553087.690647,19048363120.10542,7886675499.798301,0.08944718343108614,17820994137.795227,1388086160.515018,-357519347.4469802,8083477669.205149,12644916987.650648,6206643963.00337,19048363120.07394,7886675499.946616,-0.00794424958750734,1156485110.0975063,2165639298.0799813,888616221.8268284,22724297990.15759,1908638211.3963058,2302102418.511186,19048363119.9921,7886675499.788686,-0.07151877055843942,2826031122.2309017,6757675311.676737,3583894569.7764854,13767437616.211578,6337997698.7214,6829603305.048606,19048363120.140095,7886675499.779628,0.037174135228115184,3732036291.7137437,3294387251.5095434,5561861248.362622,14346753828.1368,6067010161.63039,6521274630.001611,19048363120.021984,7886675499.854106,-0.0804685943375079,317376485.7712947,1192647684.0286174,13372162039.67563,12052852410.46225,3666405645.2440867,11215780564.07695,19048363120.048367,7886675499.901856,-0.04491247360497486,2576769171.0033717,2564201157.403659,5514848315.053473,16279219976.602787,6123880331.168984,4531938312.08595,19048363120.157368,7886675499.782123,0.08627805686294063],[261501254681619.97,596048951043270.4,23102729660443.117,508843330411329.06,28851249445769.28,851801685939563.9,757151689395549.9,632344576401112.6,-0.06542070517552957,621864933363691.5,217674147282688.47,186195517557982.12,363761667592301.2,406421899836951.8,619312698367410.2,757151689395549.9,632344576401112.8,0.060513958580453574,154278024486142.2,641926522027597.2,473467950681642.25,119823768601282.1,1026117826220687.4,243554670974694.2,757151689395549.9,632344576401112.6,-0.08011599950206312,1318409086733504.2,41154622237271.01,58060385973096.37,-28127829147210.402,826315928592814.9,591308166351058,757151689395549.9,632344576401112.6,-0.026971778503302,25833326443892.008,49472162590346.81,22945485356980.67,1291245291405441.5,57108258887395.22,41142715503824.23,757151689395549.9,632344576401112.8,0.09145467372300936,97109524908079.08,168967747431412,63386984590249.36,1060032008866922.4,180794362383545.22,148669894546195.16,757151689395549.6,632344576401112.8,-0.02811892119905096,79422893704588.64,111174264155562.61,200251416640589.8,998647691295921.9,217440148009867.16,173408426490873.72,757151689395549.9,632344576401112.8,0.08130772382591624,40537919109842.59,128519901896233.3,1209316498064040.2,11121946726546.564,243419332674466,1134954986395649,757151689395549.6,632344576401112.8,-0.012251454143958939,164053366016105.2,67525640030817.55,182279843041177.8,975637416708562,286121649817385.56,127737199270715.22,757151689395549.9,632344576401112.8,0.018294220115990575],[133872570220126.17,336590222585408.56,18275357941689.637,550071552925005.44,27753992309799.875,460984158437424.7,605211119633965.1,433598584038264.25,-0.08640816869232086,418446313934565.4,114949354465524.83,128171722218903,377242313053236.5,258152376429971.53,403415014189021.75,605211119633965.1,433598584038264.25,0.030538984509756634,84324127748834.5,370015122629656.5,323345193821931.3,261125259471807.5,572013731971177.9,205670712229244.97,605211119633965.2,433598584038264.25,-0.07833518592417757,894896763426390.2,31769814121629.05,20752513055077.816,91390613069133.62,605797177429304.6,341621913173791.2,605211119633965.2,433598584038264.4,-0.09429129858975036,26297377521836.93,55757343595626.07,23026996030285.85,933727986524481.8,56185149370845.875,48896567776903,605211119633965.2,433598584038264.25,-0.045963047186170156,76741003973886.69,171989050112882.75,69569320974393.82,720510328611066.8,157637079598260,160662295462903.3,605211119633965.1,433598584038264.25,0.08586877572333636,85552483689078.69,96015627151509.27,168975993215675.06,688265599615967.1,188168540763367.5,162375563292895.3,605211119633965.1,433598584038264.4,-0.04775216220545351,22310180415642.938,64398229462916.81,789219345156208.5,162881948637461.25,158818577929458.8,717109177105309.4,605211119633965.2,433598584038264.25,0.07837323870028086,131282350556109.02,65808690116808.67,182132028012987.22,659586634986325.1,248454575339033.6,130768493346871.5,605211119633965.2,433598584038264.4,0.00267249727931981],[101535505696776.14,231338417151172.88,9723152301651.818,230401319810321.47,13925848370540.855,328671226779059.7,323447615596291.6,249550779363630.38,0.08527417519736262,245230655285352.62,83970899661041.25,73917781036809.69,169879058976718.25,160767369913968.06,242351966069235.56,323447615596291.6,249550779363630.5,0.08203533363695678,59147241041435,249892529751754.8,184388717696105.7,79569906470626.44,393820792389731.2,99607696099563.78,323447615596291.5,249550779363630.38,-0.09417517366051485,527015372695164.9,18667066057907.11,20790371667309.727,6525584539540.355,333715580617263.3,232757229803118.6,323447615596291.56,249550779363630.38,-0.00843734338794966,12314246109042.82,23500845401001.508,10585104932586.805,526598198517291.56,25682258504559.336,20717937938071.637,323447615596291.6,249550779363630.38,0.09097949808149841,42277913667166.3,77161283112412.34,31268961879851.652,422290236300491.75,80727296062494.75,69980862596935.375,323447615596291.44,249550779363630.3,0.0517000744376411,37705556390435.42,48271588504276.2,86519388818325.98,400501861246884.5,93728369459441.16,78768164253596.58,323447615596291.6,249550779363630.38,0.08747769588476947,15703435241073.402,50280151734322.91,477916802905748.7,29098005078777.242,97934466611184.4,445965923269960.5,323447615596291.56,249550779363630.38,0.06264830856418299,66135066536409.03,30555403358870.76,79818032045383.06,396489893019259.56,119151023542310.97,57357478398351.88,323447615596291.6,249550779363630.38,-0.004454896064559455],[-63372272188511.79,-125775276653454,-1265197710502.0808,364882520544389.8,-4628414029766.73,-185784332522701.34,24866467167124.44,149603306824797.72,0.02335415949885158,-142441608377385.25,-57974665432641.555,-48950411856108.58,423836459658058.2,-58719884521333.28,-190646801144802.47,24866467167124.44,149603306824797.78,-0.018551622661385644,-29142484225196.94,-146289641129358.88,-130768572337673.33,480670471684151.3,-225283325484274.2,-80917372207955.19,24866467167124.52,149603306824797.78,-0.09063823047767333,12698434076409.324,-3413195397147.7744,-33423453607343.21,198607988920003.84,119737876585363.73,-143876091513445.4,24866467167124.52,149603306824797.72,0.061349157629141615,7585850491642.194,16043041101613.082,701952466949.0188,150138929931717.75,23189733867728.465,1141110192475.936,24866467167124.418,149603306824797.66,0.05542713165864406,-24380846500213.445,-45725654389294.67,-15817694396298.055,260393969277728.12,-55496643140274.2,-30427552145531.973,24866467167124.527,149603306824797.66,-0.005741852534017489,6769834521868.838,-29090228548104.95,-14246790733357.807,211036958751516,-35200346426920.16,-1366838332673.794,24866467167124.45,149603306824797.72,-0.06653316824710026,-8635763580864.348,-5279260275807.895,-192982215696026.03,381367013544620.7,-25144185016215.906,-181753054536482.34,24866467167124.496,149603306824797.66,0.01861411605069673,-25638689558891.875,-7222186206802.252,27438668780248.55,179891980977367.44,-11398535358143.002,5976328372697.584,24866467167124.566,149603306824797.66,0.06491264632858039],[3805201917098.194,4551048649867.382,43623147278.9646,7312307930404.252,2412296147308.4614,5987577566936.163,26167292801708.95,-10455111157060.064,0.07026028154599868,6822124868614.987,1320305384407.3909,3997584003236.496,3572167388389.93,6250019266033.173,5889994990225.519,26167292801708.99,-10455111157060.115,-0.059225576064501365,1016304939860.2246,1946324067177.0605,7418160742168.666,5331391895442.828,4224940123609.7373,6155849625596.287,26167292801708.81,-10455111157060.12,-0.032389896574589724,10723998429002.307,1979070448499.2598,852021175492.7169,2157091591654.6465,7862459445575.501,5692630607418.6045,26167292801708.918,-10455111157060.201,0.07897044469942414,3351017492715.6875,6628191207553.5205,2477536358614.9624,3255436585764.362,4930650000562.633,7526095058321.588,26167292801708.973,-10455111157060.213,0.009457038760957142,4310761119623.0527,2054542023497.7034,1997810791784.3662,7349067709743.564,1775182479615.8984,6587931455289.212,26167292801708.996,-10455111157060.041,-0.02676322274318103,6987483507042.797,2182633896480.7317,6828235708127.162,-286171467001.96246,6031883677716.425,9966469433934.312,26167292801708.81,-10455111157060.135,-0.008715884684244805,727215660328.5796,3022484635997.2163,11182197878253.258,780283470069.8453,2115101293765.2048,12816796880813.746,26167292801708.887,-10455111157060.13,0.03723726865454535,2937025014138.948,1994724411180.3542,10832152364940.959,-51720145611.55978,7523600766927.148,8240301023333.033,26167292801708.99,-10455111157060.182,0.08575475354873652],[49462348052230.06,72021442615873,-571823694942.2516,-103734266887585.48,2568548915010.904,118343418058149.77,14596877017625.8,2580823067949.214,-0.022284890180814764,1943402706769.8438,32987690048934.344,281834363583.8904,-18035227033712.85,26664241901495.863,8548685217792.127,14596877017625.95,2580823067949.198,-0.0009978993655858218,19680329724101.723,70844039581652.19,-18005686268831.67,-55340982951347.35,111229349568227,-38710666531304.6,14596877017625.805,2580823067949.163,-0.04769880500603524,45275273270586.29,7403746666395.479,13288441624815.701,-48789761476222.43,-10838943579344.06,76806405141141.42,14596877017625.867,2580823067949.2334,0.041642683692106545,118892898161.14711,-8183204380712.395,-1102060995037.609,26344072563163.89,-5095034220080,-4071338257508.699,14596877017625.793,2580823067949.2686,-0.005016718137654554,3581662501337.5073,-27030998182772.03,-4198975167190.5713,44826010934200.12,-2018711122666.61,-25629599725958.32,14596877017625.969,2580823067949.331,-0.03597180341516022,-9504290146473.207,-5989076985103.611,-4948637239938.753,37619704457090.484,-13899175967265.848,-6542828404249.562,14596877017625.934,2580823067949.257,0.09015573815313756,5161970875573.614,29368752181021.18,48656269196295.67,-66009292167315.58,18473392808287.79,64713599444602.76,14596877017625.89,2580823067949.241,-0.04018101895739176,-16939265153397.902,-6901384853980.043,-35740290137475.6,76758640230428.5,-39787882038185.984,-19793058106667.46,14596877017625.863,2580823067949.3,0.07508384388454013],[1577093802456.1975,6126247067903.969,518753753425.7792,28085683614966.008,955112474748.7212,7266982149037.148,22549858543544.547,13757919695207.633,-0.031890015603119576,14491068047906.242,1211547842126.0735,4705830320664.19,15899332028055.596,6933163926335.985,13475282284360.607,22549858543544.58,13757919695207.59,0.02003373400296272,1580188749407.5454,8039966595123.595,13054990071861.377,13632632822359.69,12468337677196.248,10206807739196.076,22549858543544.605,13757919695207.586,-0.009236721547925122,28928610592832.01,1038854993672.5789,-278462407541.77765,6618775059789.385,23350988152933,6338015026029.824,22549858543544.57,13757919695207.54,-0.043435061649308715,1321249384657.7769,3244810987210.4907,1217377590554.4573,30524340276329.418,3096583353038.557,2686854609384.2236,22549858543544.617,13757919695207.531,-0.09500414072419337,2146214598286.1733,7105929285123.464,2450847689145.457,24604786666197.055,4875597643783.766,6827393928771.335,22549858543544.543,13757919695207.5,0.06459807583549197,3888047946944.4526,3527741149859.9565,6514989268215.337,22376999873732.01,7468341487626.663,6462436877393.401,22549858543544.504,13757919695207.602,0.0039594314295433265,335616873162.7695,309695260049.0687,25198999390903.01,10463466714637.092,3889617636852.947,21954693887262.074,22549858543544.574,13757919695207.547,0.016694905201564015,5947102649089.695,2655304966027.0044,9629967499450.143,18075403124185.33,11490382343818.088,6741992770748.658,22549858543544.438,13757919695207.508,-0.05931383365475776],[655510728091.9222,1359945787392.6316,-25411695330.04757,-912606217578.1085,-94263833062.83455,2084308653217.3613,-173441132567.99933,1250879735144.5286,0.07849973390679711,821139044201.4106,472878856285.72156,246772408176.86057,-463351706087.6486,657870781755.4663,882919526908.614,-173441132568.13055,1250879735144.4988,-0.02208185476314723,453832133584.54224,1384828198810.8872,668989196258.4663,-1430210926077.5989,2600402147852.801,-92752619198.86862,-173441132568.08722,1250879735144.4275,-0.0595050758447916,2059919615223.5635,-50217791125.79782,229043867949.77267,-1161307089471.1633,1136079877667.0227,1102665814380.5706,-173441132568.04706,1250879735144.465,-0.08888259813300975,-34986711842.54879,-139586799428.20636,-9182509501.922003,1261194623349.136,-12717957395.60229,-171038063377.00378,-173441132568.02362,1250879735144.4607,0.05485667538737126,-242055913956.6654,-688347061024.5876,-398414112063.9894,2406255689621.458,-548690277430.00275,-780126809615.1783,-173441132568.05927,1250879735144.4583,-0.03848012127020065,-269405364477.8243,-161647810142.5617,-202517114067.6927,1711008891264.7,-222760974379.57687,-410809314308.7225,-173441132568.14886,1250879735144.4807,-0.014851580299917677,74435912577.74944,371167792918.251,1963306384683.4507,-1331471487603.1365,303635713334.29944,2105274376845.3264,-173441132568.1275,1250879735144.4685,-0.07880728989342084,236768879117.37646,-199073110667.24045,-205613783606.35464,1245356617732.8096,-50110885155.58653,-117807130000.87892,-173441132568.02423,1250879735144.3596,0.017713719661182164],[1640462363028.3503,95276046478675.83,18488643395785.664,-76749040612254.39,12422198284041.168,102982953953448.42,-16727880906438.566,55383992531673.93,-0.011473542934655691,58359960536017.25,64633758039271.41,23063569798860.7,-107401176748913.98,64307034594331.805,81750253779817.58,-16727880906438.441,55383992531673.945,0.05143555459546046,-2642651112292.755,50347907701872.31,32204322450926.703,-41253467415270.91,69261691839039.77,10647887201466.791,-16727880906438.434,55383992531673.9,-0.09488089323612744,41243187114025.195,-13372578202684.889,17475833025874.559,-6690330311979.552,-54878122395675.94,100224564332890.84,-16727880906438.52,55383992531673.945,0.014852219650186285,-21046144349826.11,-37606759799057.72,-22800314633919.516,120109330408038.72,-53960386943743.01,-27492831839060.098,-16727880906438.496,55383992531673.96,0.05508006416191469,64086948607623.53,129278262550919.6,61715441818761.18,-216424541352069.03,131778813430568.83,123301839546735.75,-16727880906438.504,55383992531673.87,0.058938811122500254,8463896952294.626,44514567356578.74,42865237618286.914,-57187590301924.766,57943766896217.484,37899935030942.7,-16727880906438.52,55383992531673.85,-0.09454748502613172,7573289926140.881,5980319863968.437,71775016700817.42,-46672514865691.26,52632793724786.07,32695832766140.74,-16727880906438.41,55383992531673.87,-0.04107759279139803,-13167378723063.078,32570732842412.03,-34322135162876.14,53574892668762.61,35923539000194.23,-50842320043721.45,-16727880906438.426,55383992531673.9,-0.009065168756845019],[365665925006.4107,24922241416452.79,4794325552105.492,-20366962251621.64,3966906458983.182,26115326434581.414,-5242514945998.741,14957785587941.803,0.09605541264425685,14517675705620.164,18119396450084.176,5903716018512.87,-28825517532274.17,18369218074224.84,20171570099992.348,-5242514945998.702,14957785587941.643,-0.06603872805710369,-1405649799031.0798,13217575395049.557,7988107554529.534,-10084762508604.96,18440576544392.848,1359456606155.3057,-5242514945998.651,14957785587941.725,0.07626375729105864,9591517378354.795,-3333042650640.949,4619496698016.933,-1162700783787.775,-15194109127789.32,26072080553519.934,-5242514945998.655,14957785587941.748,0.08313131584460778,-4205818421521.51,-10114581155033.096,-6543364494453.462,30579034712951.113,-13832340330202.904,-7031423740805.27,-5242514945998.778,14957785587941.744,-0.06437622828699885,16480461220811.44,33009740589512.305,15000787024874.322,-54775718193254.93,33898202596305.555,30592786238892.45,-5242514945998.704,14957785587941.822,-0.09208297716742178,2498745821860.501,10995218109735.146,11213418066767.564,-14992111356420.271,13896958890941.398,10810423107422,-5242514945998.737,14957785587941.732,-0.011130668515689602,1845713342496.2356,2581417410409.1777,18311934414378.605,-13023794525340.914,14387128166964.84,8351937000319.041,-5242514945998.612,14957785587941.803,0.09477964045355167,-4405183080354.002,8849135574193.516,-8961283381040.885,14232601529144.482,9624019152974.389,-14141350040175.877,-5242514945998.688,14957785587941.78,-0.07611707386379533],[9701189651972.586,28911039155355.59,-242954735323.61572,-5826194243880.111,-3647355704471.725,42016629776476.586,-7320867849806.546,39863947677931.32,-0.04139304050251513,29768111566144.68,9025027882211.223,8672265576741.138,-14922325196972.283,16793936933715.297,30671468091381.676,-7320867849806.577,39863947677931.37,-0.001385610021006478,9859011316196.697,29963795219967.168,28781088571798.05,-36060815279837.26,60170115415847.69,8433779692114.27,-7320867849806.69,39863947677931.26,0.06915212215047721,56972330145151.89,-3641492260898.1562,4604811532926.538,-25392569589055.543,38080255910510.05,19855393506670.13,-7320867849806.612,39863947677931.24,-0.036374868706771375,-1779655786441.9397,-3124900166482.695,-571974428343.8904,38019610209393.08,-300129462933.9795,-5176400918334.394,-7320867849806.69,39863947677931.24,0.081177896026623,-6461086692227.528,-12316633502796.434,-10235744874130.691,61556544897279.38,-13522904380405.438,-15490560688749.309,-7320867849806.69,39863947677931.32,-0.042952376150635414,-6482190501704.639,-2710076487246.963,-3871572622379.4814,45606919439455.8,-2450221600937.296,-10613618010393.828,-7320867849806.624,39863947677931.29,0.014031860615611838,1525743128858.1616,4521053207763.318,55400211655870.664,-28903928164367.402,6405713907432.721,55041294085059.23,-7320867849806.628,39863947677931.21,-0.0235403409212533,11163318066973.408,-3801642207115.6294,1357158476527.4236,23824245491739.305,9057741045002.975,-338906708617.54614,-7320867849806.628,39863947677931.35,0.07129582928420827],[137326725027344.03,323881149995081.1,14658931005705.846,379210396883761.5,20645990240201.35,455220815787929.5,483676360727212.06,371400842184680.4,0.06051230241158637,362623376466852,115397803070470.84,109727910626911,267328112747658.38,231859673302533.34,355889416861701,483676360727211.94,371400842184680.3,0.09276175687303456,82553484706415.56,351667925645711.4,276863865823644.3,143991926736121.72,553274719665811.9,157810556509958.22,483676360727212.06,371400842184680.4,0.0627735172814525,773762618675980.8,26295747405819.07,26761252831881.387,28257583998211.72,501592755475307.2,325226863438373.44,483676360727211.94,371400842184680.4,-0.02043020306803158,18886903263730.492,38033325241448.64,16525042047692.195,781631932359020.8,40508501929966.13,32936768622904.867,483676360727212.06,371400842184680.4,0.060804807053297376,62158840036208.83,122743008901137.39,48676914220249.14,621498439754295.8,121551980008747.81,112026783148847.55,483676360727211.94,371400842184680.4,0.05903457699025651,59755057654373.23,73825104062457.52,131398819370541.98,590098221824518.9,144216697534105.03,120762283553267.55,483676360727211.94,371400842184680.4,-0.06611182163855804,21831513981237.426,67125804314412.375,696918177952241.5,69201706664000.7,140951648764903.25,644923847482988.5,483676360727212.06,371400842184680.3,0.019112149819278265,103296886590314.61,47899597826034.27,129669977196113.89,574210741299429.1,188456858466616.3,92409603145846.28,483676360727212.06,371400842184680.25,-0.08766965069288654],[30777178743198.29,111587509951356.89,9740740238913.451,396494574875308.75,16315271674550.998,135790157258917.62,331875694156444.6,216724309652332.78,-0.045028963615650924,198716243764952.06,29841297092004.62,62993933456226.3,257048529495594.28,109281864198007.11,182269610115175.78,331875694156444.75,216724309652332.66,0.024738006803131887,27084975037861.2,129153219091858.25,161301804174780.03,231060005504277.84,190586975312907.66,126953022991591.38,331875694156444.6,216724309652332.66,0.05072311019743736,426981464016512.94,14918833609926.848,-2664233261523.0205,109363939443860.62,324480555049386.06,114755509315530.95,331875694156444.6,216724309652332.78,-0.006278049308638289,17523985700627.354,40282019086306.94,15794991518500.121,474999007503342.6,38592674971242.31,35008321334192.094,331875694156444.75,216724309652332.66,0.021299958734048885,37656908018246.164,111546143414276.73,44405431500899.375,354991520875354.5,86961019737336.31,106647463196086.06,331875694156444.6,216724309652332.72,0.09761749050860057,58217311583366.66,56174477712627.44,97392119986748.48,336816094526034.44,112362737957204.1,99421171325538.64,331875694156444.75,216724309652332.78,0.009643582420564515,6563087476423.601,13166849137191.812,355484973495199,173385093699962.78,68070835369045.1,307144074739769.56,331875694156444.75,216724309652332.72,0.07887290399409193,80115453001206.44,41853212001224.02,126643611086612.45,299987727719734.56,156636459970594.03,91975816118448.75,331875694156444.6,216724309652332.72,-0.055422346266438334],[1819659892122.0178,15050135432444,596870058849.7472,39169631513805.44,-723065351447.9113,18189730734863.79,19590413516419.973,37045883380801.53,-0.03018662900899539,27130866440313.848,2854070882044.8555,8463803793086.315,18187555781776.207,13387137759202.512,25061603356242.527,19590413516419.887,37045883380801.56,0.0717165235250435,5113046054062.737,16493308339361.258,25423714763141.97,9606227740655.557,31390657877924.004,15639411278641.842,19590413516419.957,37045883380801.484,0.027009215462948044,55771886788632.67,-1455106178258.6743,433114433729.87244,1886401853117.6562,44881036247891.74,9868858796211.986,19590413516419.902,37045883380801.555,0.0685022350186837,678716580417.301,2389837806422.1655,1293387769584.191,52274354740797.66,3731999817172.2446,629942339251.6267,19590413516419.91,37045883380801.5,0.08691384782605405,-1665397584051.2769,3552422971748.83,-1685361836155.5632,56434633345679.555,-1270024806844.4224,1471688358386.4631,19590413516419.934,37045883380801.43,0.09354660583894628,2206122550741.923,3212644612902.2285,5669823744222.877,45547705989354.164,8334463210529.017,2754127697338.167,19590413516419.8,37045883380801.586,-0.045301011389349354,561774583399.977,589346157354.3473,46820816406865.55,8664359749601.482,6266002230726.709,41705934916893.195,19590413516419.957,37045883380801.54,0.01027830410945212,13659210423359.018,1769159662715.969,13770486161920.842,27437440649225.63,19615819360799.92,9583036887195.969,19590413516419.832,37045883380801.586,-0.04835384967844421],[463691474623.8159,31964529553613.47,6262093616969.183,-29228346666599.37,5323074211663.418,33367240433543.203,-7855801835072.04,17317769813679.326,-0.08509780610849094,18374069581901.49,18709199321397.586,9749978405401.809,-37371279330093.375,22174242184473.547,24659005124227.207,-7855801835072.1045,17317769813679.287,-0.011246103842836627,-523872985346.252,16140330318136.018,8258132767697.294,-14412622121879.684,21612103427284.824,2262486673202.0903,-7855801835072.083,17317769813679.342,-0.019089883731402177,11708069419525.307,-3964207206628.834,3967857117352.345,-2249751351641.605,-21201165543250.617,32912884873499.5,-7855801835072.1045,17317769813679.287,-0.027386313775563647,-6619347812454.739,-13641415548874.719,-8013981259094.201,37736712599031.06,-18498830873747.676,-9775913746676.023,-7855801835072.03,17317769813679.283,0.04217028524793018,21937522233343.81,43300701549665.305,20075792343524.79,-75852048147926.62,44949805288544.59,40364210837989.266,-7855801835072.173,17317769813679.385,-0.08275032889169748,3000333216750.1006,14685720923656.34,15636552647592.924,-23860638809392.11,19073219187388.66,14249387600610.6,-7855801835072.12,17317769813679.318,0.08169665567648478,1762734978920.3774,1715435305573.9731,22941703297558.676,-16957905603445.67,17401112419640.658,9018761162412.21,-7855801835072.155,17317769813679.44,0.043537736908931146,-4856496285238.952,11890427989508.668,-13212024287019.436,15640060561357.105,12514957191912.209,-18693049774661.97,-7855801835072.165,17317769813679.322,-0.08445179903487948],[10144743228119.348,22254171152359.676,1813119617723.134,54725726983049.086,4455411496397.707,29756622501804.62,62605447082004.195,26332313899247.312,0.04022625343142453,26128051527202.227,7918958611281.167,8300480879895.212,46590269962872.83,18347613574434.863,23999877443943.766,62605447082004.21,26332313899247.375,-0.012957123042079485,4695299236227.515,24543539568113.29,16310942445241.926,43387979731668.68,31835491481787.223,13714289767795.523,62605447082004.164,26332313899247.266,-0.07828292050343984,64142433272602.03,4879862138864.402,195237668548.76862,19720227901236.19,42777960530748.945,26439572549266.496,62605447082004.23,26332313899247.344,-0.09712803861445034,3549757141130.0835,6573862976653.736,2660575909158.9927,76153564954308.42,5778556436815.379,7005639590127.625,62605447082004.164,26332313899247.29,-0.06970379396230258,9645015567592.2,20390499572760.93,10813438985686.408,48088806855211.88,20249281190403.332,20599672935636.11,62605447082004.1,26332313899247.344,-0.011418064751305447,11047570918329.926,10248673899290.184,17759710970124.062,49881805193507.2,18863636682148.74,20192319105595.414,62605447082004.15,26332313899247.406,-0.008033073160716123,1543365113263.7864,5528979124379.48,52540743532816.69,29324673210791.48,13255859830557.955,46357227939901.92,62605447082004.055,26332313899247.266,-0.06685066141521118,7812834567825.658,7729592510120.925,16192678310327.188,57202655592977.586,18727352552698.793,13007752835575.08,62605447082004.1,26332313899247.28,0.05349325080410118],[612979390025.1584,706943894779.8625,76108798028.72319,2513981671181.8203,350983715708.56274,1045048367125.0886,3861717957362.435,48295796653.03561,0.03092243955979722,827251407375.3645,301205683884.7799,300122698432.30145,2481433964322.9263,656936930510.5775,771642859181.7778,3861717957362.481,48295796652.93197,0.06371676541443912,76616100772.8656,951397285481.977,365440115636.8046,2516560252123.617,851078109887.2471,542375392004.4716,3861717957362.354,48295796652.856224,0.0739802333230933,2232169285903.4316,458720915095.1603,-26443668285.441166,1245567221302.2322,1394316213976.4465,1270130318736.7224,3861717957362.4053,48295796652.87185,0.03983200452698962,278453444369.17505,497163925896.99603,181926493194.5197,2952469890554.786,378381514424.8214,579162349035.7965,3861717957362.4565,48295796653.03866,-0.022501305830887178,704717200494.2325,1229210617875.6484,774315990974.9208,1201769944670.5955,1351397690561.768,1356846118782.94,3861717957362.539,48295796652.951256,0.006172611235092727,727763557623.8401,559306941559.0955,1055173034232.3115,1567770220600.3335,992236491385.4257,1350007042029.546,3861717957362.352,48295796652.95107,-0.061720498843163406,65765387547.14607,305426477940.46246,1944744367999.5012,1594077520528.286,565564302166.8896,1750371931320.3428,3861717957362.51,48295796652.85732,0.09242282243706819,45564903606.791435,456093498948.6286,773130584895.9536,2635224766564.0396,618527208303.2435,656261779148.1478,3861717957362.367,48295796653.03744,-0.021477528641819642],[5417287335455.805,6985755771550.441,111860204357.97388,11016801202483.633,3410369862055.8823,9104533449308.447,38555129243186.94,-15023424729338.926,0.014634596835514341,10356171696087.23,2305159652989.9585,4915311436451.505,5955061728319.139,8806358966248.21,8770283819280.533,38555129243187.06,-15023424729338.896,-0.027177230270800927,1097093044837.0419,2955455885014.056,10827753661511.932,8651401922485.015,5315458027046.952,9564844564316.129,38555129243187,-15023424729338.896,-0.03974937760575088,15500289501405.54,2812970143671.8154,1234533622278.532,3983911246492.0527,10403855877609.676,9143937389746.08,38555129243186.984,-15023424729338.826,-0.08233850419552871,5113599947907.106,9406254415669.13,3464975670179.3135,5546874480092.432,7103398297165.485,10881431736590.025,38555129243187.05,-15023424729338.9,0.05236992266058704,6347208971259.885,4404112688679.37,2912297192828.506,9868085661080.342,3591336171495.555,10072282681272.2,38555129243186.91,-15023424729338.99,-0.05384084172788703,10081962889963.94,3561172526902.377,10397297444865.324,-508728347883.79175,9171251755528.334,14869181106203.54,38555129243187,-15023424729338.871,0.05513056151285456,1325012723128.4287,4178061065704.166,16131426980246.357,1897203744769.186,3659755308155.661,17974745460923.223,38555129243186.91,-15023424729338.992,-0.010239324586869464,4207288961196.696,3006067925888.4956,14812909373398.588,1505438253364.3667,10380190527705.113,11646075732778.5,38555129243186.97,-15023424729338.912,0.06301076485963479],[99082782273143.2,242093181191058.38,12658109219851.27,365997742284793.8,19635045381861.586,334199027302191.06,420601847664157.9,299229967304688.3,-0.04698776754207741,289903680927559.7,83986190881962.27,88619390136139.72,257322553023185.34,182025287566018.1,280483974379643.8,420601847664157.75,299229967304688.4,0.0851712488152323,60646962708932.875,265048229183264.6,221330332542988.06,172806290533660.9,409413135066278.75,137612389368906.8,420601847664157.9,299229967304688.5,-0.031727716578191935,623846380073819.9,23060287012638.938,16096471708930.365,56828676173457.44,416452852563990.4,246550286231399.06,420601847664158,299229967304688.44,-0.09003200888721283,18160506780923.824,37496203218991.086,15696949715434.904,648478155253497.9,37998683623096.016,33354976092253.668,420601847664157.75,299229967304688.4,-0.002711147883771897,54192329577796.22,116748344431301.62,48155224056940.36,500735916902808.3,110011238787048.23,109084659278990.17,420601847664157.9,299229967304688.4,